8.810845966659683
-5.460795021784968
5.954014899072946
0.21499380481573865
-5.514858212339407
-4.6974107664534435
-7.244253119129237
4.3364924037700785
7.17658004493283
-1.633120553624586
3.0877835593225034
0.07219180143202579
5.1651180767302405
-7.305211479695004
-2.773637612724504
6.526887576802954
-7.4039236446948
5.388172503113521
-2.279230739761039
-4.717761859960319
7.807265917042124
6.932437597733694
5.0044784465547405
-4.983868948686227
-2.3444423143060815
-1.7719621016699292
4.962575857548232
6.0379503302558915
-1.736727347628618
-6.421833227582855
1.2724461872539818
3.9982568575213207
5.915208300714241
-0.31749279122152757
-0.7456062151419713
-8.262430776335988
-5.990170212825459
-3.6163785595799647
-3.765076658544187
-6.096899967171478
-3.6257927799840117
3.6637500419841103
6.237468570917147
-5.055997406209077
6.545894172823536
8.248065364431719
1.1710886720902658
5.128252551550279
-5.772065610237956
5.608283211694507
7.9368929864173445
7.015824823350018
5.375624123358636
-1.2485658441946226
-5.83090766677606
5.01296350056256
-8.747420536044574
-4.264376087020637
-7.692180961163132
-1.705307112446531
9.028950564952218
3.763866749489504
-0.7907595296750733
-5.1190254783723175
3.486558691003243
8.837017425372341
-0.8658852831128937
-4.041290763167836
-8.11673466393528
4.301182064337642
-5.775486073930896
-6.761367866859751
1.5193901782108639
-9.149627941900006
6.945453944892629
-5.607962724919381
9.15375499236439
-2.9729883010290656
2.685791643902127
4.674727950018837
8.437951793446386
-2.9487483246175787
6.921173338081945
8.406814379200041
-2.1263377160135457
7.452699669604542
-1.782198575494756
0.7039310470678345
7.264689560008998
7.112594959947964
7.650814023270326
-4.379526309416593
9.068637661260714
5.616809831035667
8.837868225314182
3.350753633376754
-1.9082331177210101
-1.769382632830538
-8.526972999947809
-4.630088236120223
-2.1806376103579055
2.2002790823591662
-4.417562205832947
5.689434593060078
-6.224677047607397
-6.8956316204166885
-0.025401407939216136
-3.4828060306200554
-5.55396101194542
-3.6137990907405735
1.1921185576693247
1.6818055401619607
-4.0697030427133
-6.160881721783421
0.5474601735352516
-3.36481967067032
-5.593991175498102
1.6699265352365575
1.8912934835879884
-8.538866780738308
5.383222675022776
1.919450291579468
8.92833202794206
1.1928682936148975
1.597493258647849
0.4758566212297555
4.099137100550273
5.351199046811319
-7.4860487918259855
-5.580003853718663
-3.8587911824036905
6.629315461026515
1.7374947807983672
0.07503382937446505
0.20067951184964217
7.5047620656021135
-0.2915721737075445
-7.885304187207799
9.06415948421344
-3.7030552169190774
-6.855362919716691
2.985554297639616
-1.9420962951714535
1.57325471520323
1.9555993790909025
-9.147048468765648
-6.544094912603411
2.1707427824140564
8.709844729635103
5.649124008912956
-3.0042167534797692
6.3659056855575935
-3.701933559170217
8.919856919896812
7.641378145284699
-5.260304948793579
-1.6901285194284743
7.455279142738901
3.174996645013723
8.482636554401271
6.82077929727971
-2.7120367995245993
1.9608056301833965
-2.6883485781728034
-3.0712476827659554
-0.9613290024544612
-8.888671036897646
8.13037837479772
-9.199688910464797
-5.4582155529455765
-7.535533958423093
7.993699312149176
-5.95876847936366
3.9247015434885766
5.512482557198418
6.027670139308835
-4.963305303388807
-8.211259387114715
3.8079883708202256
4.8518165428529905
5.601327273315313
-7.302632010855612
2.1835575991940406
-4.141150993868127
-7.8478339117190545
-4.43645926065401
-7.969239132847968
-3.026584124421561
-4.332619431279512
0.3542987685385318
5.724683258052464
-0.2042442029702943
-6.644484007703065
5.603124269720757
-1.977497446009679
-8.54158618702189
6.263444653112179
-0.04604639036911277
5.549109127987734
1.6306080337800146
-2.9143939131108527
8.891901571369685
-9.13259057986361
7.182187474126122
8.156532171782075
3.7587078075157536
7.741594115902421
-2.229692419329642
4.374379216461818
-8.407207198806667
-7.932612562058653
-7.423646229950382
-2.283708041001558
-0.9892843466866198
-7.215895692631373
2.126126719712903
0.6469717850407213
-9.154786883873756
-2.9689364875343944
-2.718629661581738
-8.405168555886585
-1.7704688557934904
-4.380935635043632
1.2923724875312566
-4.175765657329443
-8.239214735641841
5.480763719381468
-1.1524351079368582
-2.9987561134786556
7.447540727630793
6.750155070082739
3.593264110405478
8.152510085467574
8.315114413773474
0.5840867443245673
-7.761881776199139
-3.545079789515115
0.32634341571643877
7.397458602318737
-6.208495853760143
-2.78065151518612
-1.7745415748042879
0.005380641334719405
-1.7407551727825794
-1.2928170848993306
3.402798536184676
6.9624545846358785
2.3070791262775305
-0.3916504246736738
6.260646037973634
-1.4658110266396938
5.404688555952598
-6.426379409410529
-3.6189580327143234
-8.72227187046273
4.5711385992046365
-3.1818825129597568
-4.958362272252878
-6.519267109705474
-6.747175137452866
0.23903544743562094
-3.620539880082671
0.4508838605925433
0.34862780583434594
4.510804277557667
1.9142913496057181
-0.9860584001899961
4.082201356952541
2.4853137841064243
1.678376070760298
-2.9675901826904534
1.9688435800287722
-1.653022168892263
7.5762738089666275
-5.299200805399136
-2.9299340261103826
0.865076383333257
0.0698748874007153
8.733033157427139
-8.052648944769794
0.5962483474560633
-6.682784733382289
1.9974322009727126
-7.085410683701625
-1.0223362967829686
-2.3049121133846455
-3.3825059181668986
-7.985994771933668
1.0831809816257927
-9.152207415034365
1.98825872438415
5.060075845751699
-8.849078818615872
6.8516434541485305
8.375800041284023
2.9835502187750462
2.131093063763505
3.6293905088725498
6.200968526584223
3.627189637779074
-2.5625469125986173
7.450120196470183
-6.7393937874133005
-7.074774455970636
7.708599822738286
-1.5095173499940566
-5.1059216487623615
-6.07070404495535
2.7617789401677673
-6.251795413478723
8.117663413816459
-1.4288711123391782
8.374636770074611
-5.463374494919327
0.9968196871544022
-7.563711702517699
-5.070947949610119
5.127220997314087
-1.5542447260423085
2.6453146725262884
0.8697213195449158
4.945018275570575
2.3675787478247803
-4.707432944283907
4.728908875850203
-7.307790952829362
-7.7308328289380155
-1.2518179262355162
-6.960013381965512
-3.2339398068285004
3.4107776576208577
-6.408939591204108
1.5004071959491778
-4.936167646780697
4.284273639351985
8.68325038360236
4.947013478437706
1.9168708227400768
3.9711368117285484
-6.58583721371854
2.041403521377137
-8.146255693007232
-8.657598575777381
3.660021311272562
4.653836556495651
0.9981349754764981
-4.5789959939014135
1.84969071960555
1.3012855799183285
0.07245436053507384
-4.756515700068902
-0.27394343743635713
0.152338089021743
1.9393275765597324
-3.692576192114217
-5.394232952457835
5.284522428604946
-8.883050942579807
-2.662301106669176
-3.2063700305127023
-6.208274811117994
5.605703738560148
2.979697770203833
-0.7628806839834202
5.819534386087923
8.576065919572908
-0.14089926509919593
3.321785765023804
3.392464812277062
2.3137627378795567
-8.412385772660855
-6.484931858162463
8.592741368367149
3.7612872763551453
-5.747954745888585
5.549013088003796
3.930468958027498
0.21490511543032137
4.824123114269002
-5.732468498706593
4.023150684386357
-7.567423175881781
-6.49569088113365
6.9057514654288354
2.828017772261045
-9.141889526791898
3.3702955155286456
-0.7185902766286195
7.822024204176529
4.446604555087445
4.0625105297609565
-8.69848292566438
8.911783891605612
-4.2364207427884795
9.081787768280146
4.298944538343318
-0.8177101219633645
7.460438084712651
-5.3573570005637725
5.5933034910636295
5.932958767526167
-3.914556249055141
9.027532913424123
0.694006884314776
-8.904274309994644
4.3291374171597345
-7.44826141819717
-0.7571162117749346
-8.327270512999688
-5.45305660667686
2.3788564697089636
5.104366248811534
-6.846589000527268
2.7221820939580343
-5.8675342375653745
-9.036718471913138
7.650412147387023
-2.9207929717954864
5.248397989520703
-4.035678043719663
6.473745670780422
-7.297473064586896
-6.348796042088488
-7.030484052910802
-8.73565443717763
-5.638978710184553
-0.9025118539022093
0.355771338066018
8.281098019496318
5.644765179562793
7.165092881047909
-9.091738789542948
6.691850269072958
1.9271887066875761
5.353173598578077
6.082240737610691
0.26576247045998663
7.895449477346267
5.475855986409101
-8.022011828871896
-7.012216693666761
-6.867676271889564
-1.6981767522054902
2.5214456201697937
3.046122374848548
0.08277224448257334
-3.3744789175143413
-6.052609564111644
-1.6233029661903744
-0.46571132679632
-8.005865703637284
1.3704779811072592
-6.381530817262498
1.6978818794687163
0.218518135026747
-2.534615129948459
-4.463438016187774
5.616021626802615
4.361734557053361
-6.541546810658706
4.0438933394657415
6.171027016216856
-4.454188776622263
-8.36024737941562
-8.27358843788535
-5.552048505191538
-5.531566526669964
-5.813176957598221
-8.10916591470715
3.771605164597612
-4.36591795474409
-0.2296530343765238
2.1548279028153803
-2.1901337879257308
0.5108336027459358
1.032242430563534
-7.642902561481088
3.0135096461667423
-3.614871639437727
7.577506370288046
-7.891061312119648
-5.450477137837469
7.336051685922475
-5.563672317564581
-7.290499263256556
-7.102449669809497
6.889201443057247
-7.34554073637438
-4.489473200934614
8.947812268423936
5.968602801018426
0.7439467062912368
6.909954867365494
-7.294893595747504
-1.3916008301699432
0.7482214544226351
-9.17956469561195
2.9831335997574686
-6.592520251284107
2.0469490736047753
-3.85878732882532
-0.9333736496323681
7.885297692545629
-4.312114048121983
-0.5996055236708288
-1.7616442177224299
6.344612640102793
0.25928420787557205
-3.5123683985457683
-8.826872130938906
-3.040843324269085
-7.683776282623138
-5.750844945153204
-8.183304034292622
2.1352130265539513
-7.590675875771744
-4.245333417895239
-3.6060606756324654
-2.3830398716946584
6.571177979862788
-5.401433830901162
1.2587111343330908
1.924179059394081
1.7087135273560172
-5.12015907304391
0.38225411706565765
4.051907909491222
5.800007452114522
-4.027228819602703
5.618601095642006
-9.127814300442678
1.237158696674731
3.599983072441486
-3.6536047432557073
8.302546895410426
-6.669069648171831
-1.9667297124974357
6.316556739322853
-4.81136171946721
-1.0335522118822873
-7.672956713827112
3.7741846377319703
0.591277257174455
7.549052472956914
1.7109176400860928
6.43197852201629
-5.17917479463596
2.7234201618073235
-1.336043840388141
-3.564629183028419
-2.894666827940005
-6.08961296200054
3.264226973141084
-9.139310057952507
8.327490727447191
7.060115226409851
7.378113941447242
-5.378027204385118
-1.6274978676209397
-7.007305190125621
-3.2281014567160247
7.632184501725911
-8.644751493931684
9.078569279764285
-0.3815009253782931
7.463017553552041
-0.4001617843502604
-5.074735075312486
5.489048509091847
4.70755606088688
3.337524516042226
2.385184619853533
-2.5974155846067304
-2.249001416330394
-6.728056606699447
4.022508533940998
5.819431871607847
1.9220297647138265
-4.561216829553979
8.971573796653368
1.1535829959185617
9.097968931171776
-1.590871296831624
7.042376778055109
-1.179190066438071
6.288601386500759
-3.1385863709059683
-7.037803866967104
2.1737039773834383
0.07761330250882359
5.157874728063154
-3.1632765007740007
-0.735482436436832
0.7368081270291895
3.3741510868315414
-2.0118774856752877
-0.5485041943287763
-3.5925845315555454
-1.221891483673731
6.352879456624195
-5.335856413652884
5.610862684828866
-5.552655875373662
-3.652213743026096
4.931713864924316
7.373546465747398
6.925828013846563
6.704141231806351
-2.4405618149516277
7.604229157493752
-6.9719761539603775
3.0743176289744345
-8.981584307877293
3.766446222623862
4.166435682243471
2.65968002896112
3.042648428273955
-0.9876143383951884
-6.5558936804947905
-2.3501130319240455
-1.8098759385473655
-2.2769567648575197
-5.055281262433172
-1.9817431211438186
-8.763479709584757
-5.455636079811218
-2.5783387422095814
-2.6743392585219046
-6.40267873779798
-5.899930215983986
-0.17752583588851165
7.718847870552626
1.3435534219991077
3.657345857399675
4.528193182317947
-8.815302785140629
6.037536469900383
-7.300052537721254
7.140752815407553
3.6375545134653113
-8.291744174448342
4.185653049288011
4.787496543479687
-1.3354063931777718
1.9742392941084028
-6.223840064951597
6.444888065255218
4.575380538450672
-1.4720239168409717
-1.7668031596961795
-3.5697777880292634
3.148617271213215
-2.624547868792226
-7.624352681408365
8.33917346619974
7.380612324303867
0.08218167778051845
4.972973619802733
0.6948034035585064
1.29681871080091
-5.117751815360348
-3.6112196176062152
6.14931376958787
-8.986233026214153
-4.513613305442586
2.4612305881586
-5.142548223846645
-1.6736419394265298
0.712867549889813
-4.908212293958604
2.6114982907907436
-3.7592420350223756
-4.8996472170678125
5.613442153668257
-0.5954606548651832
4.126491755717407
4.487803602195029
-2.451085293725165
1.2358196164646664
8.39531896305014
3.8662969147312545
1.0260903240036239
-6.251771338167687
7.853942374690367
-8.545375111292223
3.769025691463254
9.123630898456984
-8.008358541709962
2.5987381655446677
7.634497971546833
6.200842000127832
-0.6589353006802559
4.496982782545581
-8.855095594052681
-4.33507645093545
2.797881620277147
2.391808575675974
-9.144468999926257
-1.586899700684866
-8.497295783962057
8.265934466905817
-4.175507754854576
-8.694225146566698
8.057083416801383
2.6049251662176975
2.34171809070165
8.361582956782422
-0.4806802073726144
-1.2539193185484356
7.457858611578292
8.132191856932268
-2.1854020119748414
6.376869034550422
5.910075514712389
-3.7292027629035323
-0.9971708469290137
3.235611038326992
-7.539467831649623
-8.168466229694891
-5.5367409531959
-1.0358147202559
-1.764223690856788
1.3874174281842477
-7.519421295162898
-3.068458135816481
0.9977596285336565
2.6491650731128114
9.071790055547657
6.389040403168433
-1.6051652050974603
1.4150082150562286
6.076443456516842
-4.6815426144803105
-3.608640144471857
-7.340235087908171
-1.2075275274706498
-4.957523568171874
-7.36340117560893
7.614187456775977
0.01753579181726007
7.019726275277728
6.96039294626082
3.3317031022884662
1.0203827063985897
6.255641072487887
1.924609233553218
0.39597838236456495
-1.6964647697227457
0.709672733189274
-0.7266628325957543
-7.280879689918553
8.733554509298898
5.127668658949844
-0.2895374426944018
-2.418381563703213
-2.2581791255461385
2.6099131739685095
0.08019277134821481
-8.331674133727853
4.615429006559438
-1.179392703461087
-9.087823636738342
-2.3158573105503546
-0.3206997544314979
5.758354531059139
8.276020712958845
-0.5016866721760083
-7.314239871369423
-3.1548104221375928
5.623760041910724
0.7865761276893778
-1.6521743666629125
2.7121625469829116
-4.856124197081217
-3.0774698950584005
-3.286714185684252
-7.799756335431157
-6.839720923362437
-3.370952100766732
8.52569727525461
-6.800538320656971
3.77934357970572
-7.94107638840304
4.659719409619271
0.8230971146275178
5.229459072485748
1.887552488604765
6.105775624294903
-7.169070463321862
1.7258372279958416
-1.4542572092395272
3.469636525136358
4.136645366311226
-9.13415111168379
-0.20486291383533764
4.170782163072207
6.490293411693699
-6.580546658210627
5.439229415619787
-3.6249497319330093
-9.061128079649748
-5.524093156664413
-7.204341875231206
0.19107469319162937
0.4909174720868169
7.468176499820759
-8.932515429927756
-7.964068134355161
4.601227983633272
3.5050366113563367
-8.0424922744266
5.767540078046145
-8.430442207540453
3.0414649989888347
-5.287646983704002
-4.864986052631656
0.7090220703793526
-1.7539058026143215
2.7694542150337758
5.148656651871367
-4.844099182438663
-1.4072792748223955
-1.6641244384102554
-2.6102430931867353
-5.277012842699013
8.975767616951062
4.295827456752152
6.748198357081085
-2.936705823845057
-3.598322260524357
-5.958198305353609
-6.98619364985097
-6.733164619089024
8.678303994744569
3.3008979452529106
6.782246721087387
-4.646326974884683
-0.9054183011052421
6.212522343984389
1.6921376069628333
8.00047786312314
1.9349271217956845
1.7780151735090608
-7.475130892103065
-1.065968317727876
-3.1317017359518062
6.852574872267931
-2.9484786394354936
-6.538384591212568
-8.155348690060464
0.4624376822876774
-1.586424224981895
4.354749968898729
0.09051065959068164
-6.949637342583358
-1.1632371201158493
-2.9550337543782366
6.953881533615158
-6.629146822073421
6.444011170543661
-5.907698719103274
0.41020946559278343
2.3791325695199146
-6.64248497080518
4.572854567191265
-9.1315716428444
4.752332298083207
-6.497256407598874
6.046383153259378
2.041565651731393
-0.2507789817621104
-1.9337719963942523
-2.754269354261833
6.344512087849978
-6.484137063733484
4.9706994389075625
0.9271266686718882
7.47075596866015
-3.975320218009211
-0.1853626313166904
4.157317716609018
-6.3195951524111935
4.714243397606089
7.458717813584902
-2.1235834821525383
-3.536673834501294
-4.567442176501246
-0.08536131121069074
-6.582433718069467
-5.44273872272936
3.760893256558492
-0.6742998735687862
-8.622230051444419
0.3171431906019825
8.265920324621108
-2.2720075426430104
-4.0156410984804225
7.660139850253036
8.129217235511595
-3.363923138860452
8.218582461415675
-7.287155180639396
-4.9667592595339265
5.63759389841843
7.935448585614773
-8.044017613540603
-5.215801365425277
7.120482267336144
-3.3849552263711273
-2.221046067803268
-8.400831955260688
-8.419983888978704
8.436687059708209
1.937506590635076
6.735210385427606
0.30357461523037266
-1.5098785804571635
5.490410573990214
1.1625664748860347
-1.2573009038967364
-0.23152586582465381
3.7132565501589596
1.1826424894904326
3.1932005207340373
4.790959165483801
0.09309012843007283
-1.992442130664813
6.6154683829226215
-3.3989440171075245
-2.8707502301523724
6.127588858549201
8.13518890608242
0.3991600062846409
-6.1679293636023775
3.0993373810176372
-1.8628602250892479
-2.7186012255525216
5.626339510750115
5.743771343902891
6.126531140670526
2.2682522885485916
3.7659881171557714
-8.76747828814533
-1.5955364501454943
-1.4928976100432434
5.028884321151953
-2.6507472849740417
-5.141422057033975
-6.36432911977693
3.781923048545112
-2.9838811721895286
-6.008319156756844
0.3791868518982302
-4.595172691281783
-3.802455904482164
7.79695335983366
-0.8622117379339485
-4.852301601199319
-0.7340523977418045
8.24926127085229
-0.16339632279079008
-1.7590647445880712
-7.144936217393248
8.03798971520901
-3.9562786612750553
-0.2047598209968859
-8.730851717356014
-5.992598555674315
0.5560137802347107
3.6853012059268013
2.8554178337567064
-2.8110511300558114
-3.8091242213101673
-3.6034812024981067
2.5741553402238857
-4.096860586513326
-5.84534409363045
-8.565920625139473
-3.7658293336928486
3.3998912543048396
1.1866996523440054
-6.195884712129505
4.772112725283912
-7.867111880174065
7.128059465658029
1.9297681798219348
-8.136375258917962
-4.585797833060389
-0.17814779226930091
-1.9291822864212638
-0.21415241097279467
-6.330834101923073
-0.7053579639838787
5.00092896832986
-0.9779719450027349
7.301070361590759
3.4823315714336194
0.08535171761693187
1.5827162986991705
1.726095943221794
-2.0672132246246946
8.156400983145701
4.750869972690372
3.061655708056082
-0.07467209616955132
-4.880256949726445
0.9387229465244695
2.245009615767474
3.700436169726155
-9.136730584818148
-5.16205813004885
-3.60792334426123
6.934203678717954
3.244085105556903
-7.317506260707869
-5.3161274631768
3.0787572686718896
1.0540456725307499
-7.92454668243396
-4.588550048229337
0.05470827550174555
7.4655970266864005
4.557033427568284
2.7039704320209528
5.04513824636256
-5.117075698585683
-2.3524838813396705
4.076362346802355
3.7094431407811843
-8.827140245525555
-6.007851799496692
8.802133275361964
-7.454852115534577
-5.44789766470311
-6.153497175868532
2.2150331854738896
-7.734409530280811
1.5196626401325246
1.1991930456753506
-5.654363009425557
1.8173855244533001
2.3696734392287757
6.688807612516148
5.523571447712202
7.346164063950566
-7.292314122613146
3.5655943860435686
8.526926957461106
8.823269115368316
-6.841498164010061
6.164215429338516
3.738126800553597
2.448071396562595
-7.511512483122496
8.605502499748386
0.4675106975939495
7.564268666538068
1.932347648661326
-3.1791800427044508
3.1929076742730484
-0.6220580592935557
6.692930027815724
-5.904160808354692
-4.639656370679283
5.601500757109069
-1.5772098608653018
-0.2577671292100452
-6.366048966402859
3.9185407680186914
0.08793118645632311
6.539911514912681
-8.941942627449286
-2.5111234873539816
-1.6682307806218297
-0.9391384246915251
4.752833439299872
6.23218663351333
6.9883482904929775
1.658927753727225
7.0246343571884395
-3.591019623017631
5.621180568776365
-4.170619088524134
9.015864204008167
3.1560728097121995
4.968507566686313
2.612538502323496
-4.977891916928041
4.340129012890479
-0.26158209416727596
-4.091156907969487
3.7460725295386776
-7.2367475172420415
3.776764106571362
5.5484724733879665
-3.1189860977141675
1.2670073773568054
-3.3926532417512405
7.577560885986662
4.414597893051114
4.970814884999774
8.30397606148597
-2.17446202073725
-1.3099882162846075
-7.018642918949506
-5.4453181958637185
-1.1963019596550204
-8.453005380902225
-8.178319793010099
-8.304969119340038
-4.490815351706546
-3.963185278181767
8.124244249841215
-4.208465389966386
7.409012419718904
-8.143547880281417
7.782373264830603
-7.289734649478787
8.522789597962113
-2.141111608915008
8.37935884834406
1.780614145931959
0.47420703625158733
5.429304531797388
8.75493012195051
4.357092761391893
-9.121036762463442
5.247135439014915
0.2728128737942812
-1.75648527574868
-2.187741001179736
-2.630048851167104
-4.400188924004343
8.417352488945134
4.025883958971641
-4.301420824430525
6.862872501327658
-2.89283762326836
3.5756226452544295
1.9685736113651537
-3.3729150204301286
-3.6009017336587155
7.531350556437397
3.6818449165251446
-6.289254356359737
0.05619168480254828
8.99090633833984
5.091068985548629
7.493558377731921
5.672720528089919
5.492317536781633
-3.0874871344581316
-9.13763861653623
1.9426655369037928
-1.7971432601498902
-2.5857584481072706
-2.3976991102107057
4.287891128754639
8.229293753831794
2.1250545585908434
-6.064552488758377
9.003722969773156
2.6230521081909104
-5.694294061543649
5.663377562948911
0.0982490746987899
7.92194830176221
3.726135323879945
-4.286764538271132
-4.073269683977882
-5.252427936214592
-6.9291997051395535
-5.433866616649082
-0.8774629525781165
4.5397469997181155
7.696389262047649
-1.8461828280874115
5.631498457018832
-2.788582301674605
3.2371980773328817
1.380431758795049
2.5634686633302617
-1.7007510091995715
1.786819012342085
-7.325924232976966
-8.127393341533338
-1.210337666273564
4.417827430102922
-5.491910726606789
3.7870819948138283
6.930509255942528
-8.897652224389454
-0.5086336735603448
-5.797692140812325
3.2642713744635943
-7.267435251388311
-6.6952383608676715
0.43816480982494194
0.7063572252536404
-0.6382333157203636
-5.273806124019286
-5.435000307621252
0.18573482719450793
4.215072566132041
8.492783229782304
7.7367360467184945
-8.804104863229613
2.801525651088359
-3.541809000321197
6.3724674320821375
-8.156912407999757
-7.471792979717174
-8.919534018243695
-7.279416765531288
-8.541917684602943
-7.919777731295328
6.60371779742691
-0.6244247574240932
-3.839082479566447
-6.252728612642038
-2.911123123916935
-3.5087184859741685
-6.24021752076752
5.918890348169094
2.017649664429534
-1.7461673875062131
-0.8057042143302074
-8.40871497784239
-6.175829974921494
6.012313585589083
-0.28740555255142614
2.463290104839601
-4.8031807445397865
7.688095198780163
6.456441886950351
2.6403285119293973
-1.628078229794876
-3.5905838454162486
8.913387343286926
-2.096821205855175
-8.064895407276888
-2.3488472185535034
4.677616826816772
-6.590964158890796
-4.172494868135525
-2.1930907192761424
8.373136774182589
-2.415732233893888
-1.4099736315023401
5.634077925858223
2.168612910243939
-7.4308404890432325
0.9365214960657614
-7.261163100437269
-7.390759402286501
3.4779967478808422
-1.0190655075890511
3.7412119029810533
-0.4901328547758415
9.197452175818855
-5.05570152572675
3.78966146365322
-6.559039601553512
-1.118946717056016
-0.9525439362896324
2.8244201691296955
-2.4257370229183017
-5.576257515849555
-0.3883796354797563
-6.139974019370219
1.4265620324563957
4.1413914299955685
5.881482161241446
-9.12383322773629
1.1771738687192232
-1.6078839593081116
4.714652360776548
-8.98558556156668
1.125939904096719
3.139761201632085
-2.280437256102608
5.0568396696790785
-4.323522629240316
0.8628295937558732
2.235754267017037
7.4784943837682585
-7.550478647373194
4.704009812679105
2.825586932716122
1.099997708000285
6.0909622877598855
-5.9144930620983125
-1.6497513796983456
-4.824346252672194
-2.406827746303046
-4.193231152067412
2.4538588653095723
-1.743587918666822
4.151490997588337
-0.630009470508953
-6.619740237650781
-3.8123181781784474
-5.9774139499333225
4.154467840378358
1.503677980848128
1.1099563695850014
7.176646698448074
7.41995325764533
-1.1918690332098045
-3.5880043765768574
-4.576161514209113
5.681884301478263
-8.508805670006174
6.273265091388517
-1.0123915662701568
-4.8997864233520385
2.1343638529574225
-8.771229552766272
9.09334158997528
2.3638925118220446
-8.70142941995116
1.945245005743184
3.1600519560636213
5.192947059226167
-2.8416093729399936
-5.536740635012891
2.5392853607448638
3.8162322941296005
0.24230623662953843
2.425584136283027
3.343256919688633
-0.9146693201226839
6.099586759533983
0.10082854353818115
-5.567600560028797
-6.941903246791137
-4.730674805295386
4.548842630259106
7.504307744408029
-5.238021969600797
0.8729921087388332
-7.455601781773278
5.25995180692087
-5.970730070240936
-6.146224521484395
-5.440159249595002
8.718088468477035
7.104405633764652
-9.066140314173705
8.939255500544004
2.57591193153418
-0.5808298113992204
2.291217622612525
1.0820010210578754
8.849422042714348
1.4157016068554806
8.654791662295713
-7.284575707505038
-0.00956404761538214
-5.030444672252652
7.491538322885485
0.5780946964014165
7.5409343151973465
8.811659998579934
2.921903499016787
-8.799184901293396
-7.680627139467998
-3.640359143262772
1.1452312712593913
-1.7513263294799628
7.726649431247288
-5.519381914504748
-5.288009449462918
7.214833039414592
-7.354132831497186
-0.9190653576479785
1.0298458783939355
2.3976287877559015
5.016032263954907
-6.9189209752075005
-2.5004966272599862
-3.595742787389999
-1.0010030848451303
0.7925118574824684
-7.17707488611328
-1.1463277690229614
-2.389110452128986
8.473424452331177
1.6605317547981977
-7.483557134595371
6.932727155482112
6.471762352678766
-2.28239202896745
5.628918983884473
-7.7457775178881185
-4.541507425705588
1.8243420215243364
-6.058643646611759
3.9892573881823252
0.09564128109829542
4.8139611153446715
-1.549254512338176
-1.9305424734763195
-0.3617973113180435
-5.92811992319186
3.78450252167947
1.9733140440239834
1.7703863419866601
-0.06472341512602461
4.026939622955205
8.954279767550524
-8.9586129826321
5.444646987453966
7.01630364331507
-0.013847590539049355
-5.417858057141329
5.009063763776337
-9.12899216971004
-8.737216559412834
1.2814490997345642
5.602472890530091
-7.7830661120361375
-5.940787379144007
-0.24259426515046253
3.552589371126082
-0.23362674134518288
-5.763932256530728
-8.696419893381025
1.3633358695519269
7.473335441794509
0.9818749982043006
7.593342876016748
3.7134074538797304
2.3025171575308274
-0.975764995480841
9.149895544828691
4.183275243235377
8.331931410013096
-3.8472373650035236
4.694263434505242
1.5814404678444627
-1.7487468606405718
-5.76289943054372
2.2593235928286903
-5.731919712192206
-2.609798724352938
5.4026028448304695
0.7721123735958113
7.3367046080768175
-4.180510041439261
5.736237079747597
-2.139296229491568
-2.0642874263799476
-3.5931633185506073
3.956192131368381
8.571217364815906
-7.620985148842566
7.475784545214027
-8.079118845215914
-8.282141890134586
7.967390475891145
4.385048109919019
7.652931962684867
-7.195356975314853
8.872896260588249
1.9400860637694346
-6.754338472068435
8.082280118268843
-1.9537888431864507
-4.334221189777316
-4.5274419224958615
0.43387682734705335
6.075332859563261
-2.864882279036202
1.9028473009881552
7.972825262155004
5.2271683620688725
0.09566960156443137
2.9647530855486988
-4.052570183453493
-3.842854279836812
5.751362079789649
0.4375804611673043
-8.620377436383343
6.706018731672555
5.700675876617045
3.8195421882203924
2.9167645163317175
5.4452729646563744
-9.126412700870649
-3.7800213474942885
9.060154607068004
5.158562627800803
0.8390462022008507
6.815948301478615
1.4485834660933274
-8.587295977195556
-6.811765574835311
-5.0437274450330065
-3.916795147665092
1.7995450661369983
7.475914910633899
5.9390702144178125
-3.0746956903593663
3.26949719544541
-7.522114606236704
-6.665773388567771
-7.605670797637069
-7.95661010508626
1.7537925808179349
-3.1270325535058014
-8.972855893488378
-5.710015324899324
-5.437579780755611
-4.771460384724037
-3.563632941201397
8.93669349251159
-0.8853762632235274
-3.114096461552749
1.1103479198445694
8.598076352295406
-5.496137812432252
-8.87711721949748
6.1953263482764465
9.091000858880786
-7.281996238665646
4.94763116859813
2.7482608350807864
7.047628064451165
9.200207006343437
1.8509259178154496
-7.943906343885827
-9.217981853599817
3.069420347515961
-6.960422332265242
1.1392655981581932
-4.151329394574932
-9.183161071171831
-2.1578516318694674
3.949330143478073
-3.522155661569455
-4.379983905197898
2.868924502143673
1.1361615132641532
0.23576466253667067
8.780080177261183
-2.4414891985035463
1.611924936086343
-7.797057293094309
7.419166544627686
7.561239930042634
-8.185520158244262
-5.411221098219816
5.705599364369068
7.833946881511872
-7.9180927504662435
0.8664505303509982
-1.10110574509009
-0.5247943112713092
-3.444135818326877
3.140126393873887
-5.494328151056792
-3.1492906690992157
-8.674457400496358
0.25597520743629976
-6.104406370622275
-7.061120265182659
0.7979259670153951
-1.025607085976886
-8.351036129750343
-6.274878977262989
-6.7226976459766385
-0.5056015003505229
-7.338744608966828
6.569800884222951
-2.3625636285091427
-1.6330902292140614
3.9811768989446894
-2.096097881519493
-8.256328296715003
-0.3949212138675914
0.2145220259029028
-4.358184085735783
6.667985681909628
-0.28749690205798717
1.8859171623076438
-0.17497354452506914
-7.696582915992166
7.368326678423554
-0.9311389786441089
4.282269954496851
1.812632605761669
2.7585081509738494
6.14882464386513
5.225290350425402
-0.16557398208718138
-3.9332247962823974
0.04150070010264072
-8.90262605632252
-1.3846891397099834
5.479261241773194
9.154444282332921
-9.199451735549534
-7.241621657968728
3.389194023083144
-3.7323612741911747
7.141985241952607
-5.221634732205434
7.003958886390832
5.574750082422683
-1.1664125860497845
-1.8736263862570466
-7.300286530575209
-2.6555614440684874
-5.647774808534514
1.474397059512911
1.49713640675526
7.4644524148581235
1.391900575960928
-8.500196564150162
3.3582309964613897
3.73033362021768
8.55267897156735
4.438267390025137
-9.189351962930603
7.430021825498478
-0.6827524248713478
-7.579857204217485
2.127822278864555
-2.4167335074931486
3.308595467488132
4.890486763736104
3.5763355947539255
-5.491748682217401
1.8079045428193292
-0.8957518974578877
-0.18793505958795506
2.5177059436147124
5.695615411144996
2.489103698259185
5.281251639411028
3.517569114764046
-5.554674165765265
-1.9430729002607054
-0.06939230376545154
-7.33616513583247
-6.919747968978122
5.416141874529328
-2.0770004919433487
-5.843454864822841
-7.786106283196357
-6.565150565471212
5.911937511520323
-6.363616807587226
-3.6379792785330283
-6.999133650378958
-7.5789526905068065
-1.802915757807395
0.8164655012946136
4.927204632277233
3.5901958094178
0.7932834781903344
-4.234429351886369
2.1508681520104274
4.019879895192439
4.833196881462072
9.058680129184845
8.169048591385867
7.222063484683368
-3.647332220012398
-7.911187014797805
-7.207645669445104
1.7011303727674387
-7.567877325952251
0.7305930274818301
-6.90338611171997
4.6505657673017335
-5.047989036594234
-7.4713690529975025
3.1129878455625795
7.440168082975904
5.577329555557041
3.79078262586876
5.90507912107639
-7.744196793304497
5.966550870168501
7.108960867793142
3.1655747907567005
7.803995127848208
0.8863135813679948
2.1121053874586506
-3.7205718184342293
3.7944401930464613
3.7329130933520376
-4.936869885928691
-6.229771180645944
8.813481843754694
-2.394609938269053
-6.372760822253244
-5.8886794729736955
8.434681004252468
-8.99487233668831
4.028800274690887
-8.776632568552483
-3.715120197989861
-9.180581598037472
2.7993435843440446
-6.718708422898041
-3.966065924298743
4.242128404744124
-2.8210838995331904
2.827339244507943
6.542623383629618
2.2019413480660206
-1.7212843870058236
6.391549677507308
-7.360848092214271
7.421746017762044
-5.928308931748374
-0.4068146509108246
-5.855131360949104
-4.119032399398463
2.1439384884249426
-6.226915019222455
7.17330926003388
-7.679244569990285
0.1954104959314461
1.3354889273890556
-1.1599152952281298
1.8807582203338937
8.357380101052426
-4.8072498526545235
8.256147199587161
0.27138046659146614
-2.784457324448908
-1.5697228610208778
8.591534773907572
0.8583582328408691
3.784880731724925
8.721920604485472
-4.805643193747507
0.036341758128890955
-0.3702724150399919
1.5046439236276599
6.3670817672317686
-8.08978033755112
2.1805650592142585
7.822766948958276
9.222220646016867
-9.022827685215436
5.701575623252129
3.66585985436722
6.131540488925723
5.569591140448933
7.365941059527711
1.0157066770805967
-6.4124660051166344
-1.4530419902429772
5.732241981934313
-1.907958407269636
7.330163029688983
2.173985999538895
-0.0485090427395497
0.3872980224224915
2.48581259899628
3.7251746782439294
-1.3617114565647073
7.327600449067813
-8.301531437472029
8.632541279323988
-7.749479712407041
7.484531402709519
7.960848901798277
-7.70719991851741
1.8681858444926878
-4.668762723400794
2.703917197288815
-5.4969076241911505
-8.106485889607693
1.9935811658797555
0.6998854658706201
3.720225393145255
-1.3711118678007626
-0.893251768523362
-7.3324658113648
-1.772897296260215
-6.995083788760711
6.944421686311948
-0.9418106969355943
-7.3413240821011865
1.612605668009439
8.305474937866972
-1.1891799664847738
-4.640935410997332
3.5939105115674366
8.499238041455794
-6.701779934960539
6.792660855098064
-5.0783888972335065
1.8883609361936957
-8.451371087971918
-1.8080746997811445
-9.097924926837443
7.816537691319908
4.478016334876375
1.9958029320158441
7.1455874385824565
-1.2314873147721197
-8.593837551288422
-0.45726953385715663
7.618270510484367
-1.3902008957510326
6.349645087218257
-3.6524911619861475
0.6211666307796908
-4.31831260610746
2.588950902520981
-6.36535787642171
-6.336134251463928
8.161002495207034
-7.963151683474096
8.10828862179609
-8.911778675992947
-6.446261641574318
6.567749689805761
5.572170609288324
-6.123607802263296
8.794412184414035
-6.856376263550954
7.169070319699044
0.042233584552415465
-0.216780676025846
-4.809722318632655
-4.404152829656266
0.6716957687581727
5.166922768138424
2.9220217955813514
3.727754151378288
3.595483759648804
-3.3404381173083015
-8.745441700201317
-1.192090484443543
5.007255968215581
9.175709133953308
-4.17903644652336
4.161405321702013
2.58839065599041
0.11086201802017144
-4.587538595454971
-9.185740544306189
-7.115046843788011
-3.829375359560397
-3.0782453988401675
5.444647858569632
8.558932895230601
-0.555016222274604
-6.071094067146211
-3.088525067253208
-3.161694014296236
-3.1676998096295894
-8.23326648967938
7.416587071493327
2.6040447138291216
2.482518408131851
-4.967310835490528
-2.9165129498679216
-4.922788794815783
8.837473587704551
-5.44040819074195
5.477033088400038
-1.2449991227690318
-8.223760559747843
-8.015161891386844
-1.805495226646786
-4.140729714918898
-2.8515008750562054
4.034106072147087
-7.828828831751686
1.4555790412005607
0.45969041647166997
-2.2869788301954754
-7.035408363052317
8.33847532198209
3.3894238499649
6.785854288098296
-3.6499116888517893
5.578361846993202
3.4603929012259775
2.145040635496726
2.2567544378152786
6.420601429158694
-8.594563847258726
-1.6562929537912137
1.5301497926009286
-8.191573868790192
-1.6666369001533528
-0.7237060986430586
1.8833376934682524
-5.132168756443614
2.9714556546789144
7.812236941152841
8.89349278512342
-8.474465721830803
0.12145487022291196
-3.5483505744140653
-5.719780596354292
4.5050855432226475
-4.945198727803113
-4.369433992867468
0.038921231263249485
4.58692280117352
-9.163394647043422
5.9231715045024815
0.5323319723909002
-3.5094433424626055
-8.932799393507484
-2.91766470230477
2.845777555003987
6.421780430454884
8.445484600083153
8.312586480441013
5.582488497530791
-4.7415710154137685
3.015746057738748
-8.632017318763072
4.764031416342992
-4.271055922675685
6.547930253244281
1.9709685049144852
6.176779996687224
3.552515010454096
5.838677668702667
4.666858590511572
3.738072035325788
4.977520542203365
-9.119104239688621
7.925661322591085
-3.597129387799596
0.6939664566925143
-2.506324010486116
2.601654381318747
-3.704405925664049
5.4692098976863335
0.7826169185844152
-2.8427018005247513
-9.175422656063722
-5.733010056938483
8.8387025831789
-4.853886454052285
3.0396089552135805
4.245643383707535
6.209694702700555
0.7095967606958957
7.492407759090282
-0.280874768305346
-2.495944909065346
-6.488429699044129
7.4269049597357935
3.98608150067865
-3.296147714248468
-6.7429518864076785
-5.321551853223973
9.2106657673707
-2.844559556734874
1.3402826328051902
-2.3887781589660224
1.6358201189268913
-7.552005654888632
-6.270325096456625
-1.7951773426992867
-2.75869292806937
-8.630166997436525
2.25846501693497
8.21287634289678
-2.8577104703225062
7.224401345741796
4.493711997646631
3.5455244632911724
-7.227449514326506
4.061178754824112
8.53069107873355
-3.6395938049042895
6.960398629547764
-2.318273225449309
0.3693995888745433
-0.14828446554077382
2.1073119133406597
-1.8298529179886003
5.124397869755927
-6.3356614590601
-5.310754622799303
-0.994881999589109
1.021130691992194
1.8936555774157517
-3.7501319738890526
-2.807210471996372
6.0365958859407245
6.488453877472402
5.65898884035568
6.886165799493038
3.2323402491330744
4.861152225694231
7.38590478491857
-4.273443827238871
-2.6245972022322155
0.04923911521074899
5.968959583728081
3.5046832999908437
4.147530453585331
-1.8727069266701846
-7.822732849690705
-2.1680884642373583
3.8630261255373366
-5.020033688067107
-9.144144397263776
9.117239500647397
-2.4064926039396797
-9.17284318722433
-0.7758148407249719
-1.8293359831972131
-5.297796712486605
-6.78502280855395
-1.4443650093793938
7.900872438239311
7.01645548608381
0.914268934190088
0.43933003889740924
2.283679836650587
-6.052220498164091
7.429484428575185
8.943276716892163
4.48255779308497
-7.186862149136966
3.300560456718048
3.5206573699888044
-1.1533818254910846
7.647141358193105
-8.966916988161184
2.356024930424614
-2.772380913467666
4.884963188804107
-5.4840102671092925
-1.7672538865446543
3.9936205508328744
-1.5196658477758176
-8.509445273978328
7.072334297003826
7.5626368919905556
5.755083741865221
2.2298966965931464
-3.394059735567065
-6.050942745412394
1.2392352945796972
-7.3284267250193285
7.951837671072479
-8.14122975518443
-3.4087312801312115
1.576137995588637
-6.409387393042561
-1.4916173717398427
6.385769618269483
-7.651289225758125
-1.4773648440398608
7.339740582473873
1.4573398928722328
1.8962350505501104
1.2070632423244594
4.971495035337066
5.592685627506404
-3.3361778820001615
-0.031019557026216005
8.577343530736828
-8.907545094893594
-1.7169866035009307
8.106109596416292
0.5061809184770625
-2.1883880056471443
0.051818588345107525
-7.520589273767958
-7.1633552663852695
3.7036201908560433
6.749405383271837
4.9340028266369504
-0.47691073299356856
-8.276859227079267
6.8485715521523165
-8.423939590061021
-4.54987983164119
8.748795677026084
5.58506797066515
0.21562420079974373
-7.652292508637366
-9.07592758149236
-5.06060034742454
8.485679753651972
8.23910798448807
8.2778272303024
-0.401358836802905
4.272719821951818
-7.828441663585918
5.103067787096642
3.740651508460146
-8.51202831958764
-1.3403987366501502
7.481751059861797
5.024982922142426
-4.996041936394415
-0.8151462792423265
8.908513102411694
8.164199318850342
6.189414704889088
5.5622416643003465
-7.142743493921736
-1.8003362846730364
5.773660713213157
-5.740833934098881
3.146285546688512
-9.031348285577197
8.522306324441287
3.8420458832542166
-8.120005453129197
-1.7449419477330894
-8.667859133026985
-5.498070736607755
7.658272685563406
-3.6447527468780394
-2.9539917985842927
0.5710598335933671
1.2572201143331185
1.0542349839897684
-4.959415365605099
-5.212208384771148
-7.489319581019903
6.820616203625191
-6.7511642414997795
7.892612586983545
0.14871229882205142
1.888496635442002
4.782221671688443
0.0821225913412712
6.9244164113993
7.690973331297912
-1.4077384385900782
3.503810337005459
9.065366876361763
-0.4293141853300308
5.945495166218092
4.614050759333784
-3.497015599697326
0.04408017323699924
-3.945430844403975
6.394016367623455
5.035350983338873
-0.6701874728446748
3.557283940778121
-5.550443926724937
-8.750691325238492
8.136243966028248
7.862190049155363
-0.4420099864895015
-3.2789110014047895
-9.178002129198081
7.756538804852524
1.0599970844353974
-4.40997618702803
-5.582503359023407
-8.51109229262012
4.518516971456766
-5.59726196469202
-4.376197485424108
-1.0010795798030685
-7.275569650486311
-6.924638895629199
7.424325486601435
-0.9711137155348619
7.371890852127646
-6.299041619383424
4.503079910543557
-3.546069913251921
-4.535737292273631
-4.9665760925827245
4.189360674524106
0.915615311724136
6.115113668810021
4.012544791338996
-5.489169209083043
6.765099759032841
6.882953609875551
-0.6318453223172427
-7.306925820152818
0.0056070137630997285
4.180281425208008
-6.858633708910609
-3.0605697144311153
-4.83446935856251
2.8365518411602597
0.3668168971145871
-7.333585666993079
-1.9625527570595773
-5.2518966918467855
-2.520910754672636
2.7786574494141463
4.970629397426266
-4.8739728385223895
-6.227947836801314
5.504988436927164
-2.917774467035306
-2.2195089046630256
0.5849214954071228
1.8910761042813933
-8.707327185807598
7.860828098674709
6.480506148670012
-2.133658432469619
-7.097746840266942
5.194988063954281
-3.0745184719598724
-7.0074530145251925
6.665699973420848
-9.053068568659835
-3.060806398817287
0.04665964637135777
1.0117643718095364
-4.274022198752659
4.591440716314618
7.951924837097346
-2.1327244523088087
-3.8592661997761155
-2.443832599850578
1.558105136833087
8.582394864948052
4.337614754931463
7.876377283855943
5.579909024396432
8.747977842082271
-4.76295944959469
-8.188107056033784
-3.858080893599029
1.4189524704112446
4.856752517705523
-4.335890216178463
-5.691825247827166
2.8323101946614053
1.0590529229867354
4.230649389631533
3.7354925621914292
0.020325325989853656
1.548934326687493
8.369571585320374
6.227502371672968
6.3839748540744115
-4.197501746024874
-3.705204348364135
2.8737329035311134
4.74900508618861
-3.99700782283655
4.448753992219036
-5.486589735948685
-6.724449098463198
-3.7850849565005635
-1.0757555850465301
1.3151864897892027
-5.684401379323829
5.871459156451797
-0.5517749792277266
8.808035525788307
-4.114264542769821
7.616176586876192
0.8030260936996585
-7.33100619385872
2.9946424591539342
2.526808815486652
-2.964821017401924
-7.045974314353385
-0.7193789956606634
-3.1827951072786
0.07891088858660093
-1.0731503922679972
-2.1975696598325505
2.5601158367579395
-6.706534297336663
-1.797756811538678
-7.715888144282882
2.037871568939589
2.7023752839592246
-0.409235971340208
2.8322979313543573
5.53322361020304
-1.8131467277412834
-8.323080781223219
-7.947654321529262
-0.7184459951867889
8.094481882148477
-3.642173273743681
2.003203413334252
8.349765340926805
0.8133098516038308
-8.770396779777762
7.797320310722556
-3.5210306535273572
-1.1824608556319884
0.24247737443002862
-6.030959434297024
-5.774506741010075
2.329758286042375
1.90139399252386
-7.325290398958069
2.0821619762943895
4.704865097752862
-4.53869733582567
7.035707726214509
-6.487045076190176
3.706172351587267
3.5734798075233303
-8.90022485859278
-8.381313668095592
-1.3159696081820345
0.05697753031885727
2.3938011543640973
8.394055743986637
2.815799665397468
5.546885933741294
-6.4460139681268425
2.905444733788978
4.336858223696562
-6.307706106238006
-6.983529971360544
5.009369655495708
-8.825529999218357
5.590226912638899
-8.316729444777751
7.905118501734543
8.482995966758617
-6.263119796955082
-2.8943370411118226
-6.8252806267339015
2.4448006073686774
4.889107578516324
5.713129440652295
1.7308078235509792
5.975486184561753
3.7458104504338956
1.4023621171343492
-4.2297317999877935
6.593930530108255
3.822463468316916
2.070685342551344
2.5672091832452533
3.0754864794779717
-4.992078343834948
7.629824327884533
-3.325252922272306
6.193590778559321
-5.476271852001185
-5.342412315908637
8.882992990533701
-2.85139663596368
-1.0898524135668495
8.449053182862656
-5.81057398369266
6.228915844319413
0.9422242784222465
-1.233445305368865
8.287931487440437
2.5478628886298784
-7.320688309911221
4.376679241708495
-3.2518573111886346
-4.740462068319075
8.995730856000115
-5.032668507183731
3.5819158262864943
6.859601716428708
-8.938961639634059
0.6832495861583396
3.2318707373221836
-4.9616975024064445
-1.7874389318861459
-6.333851361728321
-3.74079455344073
0.9267342330420746
-2.8142748746962605
-1.4809915801687095
-6.148809529941419
4.967544100100824
2.2578520451202726
-5.066835079833338
-0.046691090327577796
-8.607425400925822
-3.6318553897961814
3.3852402001837807
2.571099218546485
-0.9623311993133193
7.2713083948707045
3.484030803494456
3.2436802800377365
5.5982299679151515
-7.6233338772309995
-3.1501401883061355
-5.102751840445831
-8.389320798338318
5.59280638147829
-3.35953422856424
-2.7629200646415715
8.039085704029329
2.3589925129869393
-8.58434543419875
-5.134102891195145
8.75165933705156
-1.6890312549738051
6.4333342478550515
6.510432569266911
6.411695376851856
3.7483899192732872
6.359557329052894
3.5489737073456444
6.150020271673936
-6.002168291155647
-3.6193230548305526
4.25838691878401
-9.064398868843664
6.876526900679441
8.350029139382256
1.454371819148659
-1.0978650098894986
-9.165104772116223
-4.3509732743839225
3.0600364607985813
-6.629527504969435
0.6345700475625613
-0.06764612781553174
-5.472338437443902
7.490287588538003
-0.3734034839808119
2.5999444733905768
-1.824190008501102
-4.743592904113909
7.437222839388325
5.368118287528178
-9.074813836628786
-8.518592933029861
-7.726590756580025
4.897376255847634
3.920151372535252
8.120973460647297
8.192154667377467
4.516639364917782
-6.880250754324387
-4.525488305821373
-1.7848594587517872
-1.3766561455148087
4.037910953892707
0.48282396601781963
5.8078374395407275
-7.170999981845574
-4.457631798697629
-7.17234125251578
-4.32028678407489
-4.346630268335617
4.732933655388354
-8.171216200045782
-3.6292759166618227
8.342435412102326
-8.096939347829629
-1.406241462042607
-2.5533233688968258
-2.2059775981824075
4.934858011281526
-6.541655376111519
4.24527136728339
-2.4299353811033795
-0.32312709902486525
2.7659674869224142
1.9039734613632513
-2.368095182744557
-8.58587659437669
4.260954835023575
4.08341497411635
1.3456993288326133
-4.7958673449463864
-8.43371299673437
-3.0046590173768633
-8.180020047095057
-3.601688926674626
-0.8797604115969628
0.059557003453215795
7.350996374872576
-2.273982822389476
2.3718894026681805
-4.2777458300262365
6.310721712495779
4.596622465032768
-7.803027120330109
5.560899133981415
-6.26332515986282
-8.657749672497912
5.321172385389178
-5.481430793974934
3.1899413296688572
-6.674418019838208
-1.9635761105051053
0.11266703596369304
1.3823258996219292
-9.192929450475209
-6.384801606456416
-4.348242136896982
-2.6738549240693428
-1.2713179996964619
1.6754444911647683
-7.32584725188497
-5.537711186423562
-0.36252424785099124
-3.852641542860499
-8.248493768178895
6.347348283285096
0.19956035950394732
-5.754115734347121
4.217316018756264
-0.7571600368371054
-6.327378749814714
-5.834115899871554
-1.7925978695649283
2.1985022838491743
-0.851461490103087
1.8145547585006494
-1.6117554208707505
-8.547718863409436
8.915579076985587
-7.646173350675005
-3.0326143659039895
-6.5072446985338175
8.840803496245076
8.966900279613588
-3.6370143317699313
-6.529150227948276
5.460432281884129
-0.07451067814971149
8.473827844401248
-3.5826964840412368
-0.13867518674481064
-7.015487478565711
5.5329437854542896
-4.590549815596547
3.7847427461268235
9.185004877906124
5.587647439504541
5.172819417013255
0.1264129944011046
8.926906229487905
3.561511962517482
2.795671360565042
-8.51645835797769
-3.8620581180192377
-6.979497665998067
4.992924629154573
-3.0488169178699867
5.539276983681715
3.743230977299538
-3.554833099079162
6.438306770683288
7.037840792837543
-4.799648841625105
7.76069373993324
0.8760314520014633
-3.2313722459099425
1.5860604853602127
6.909619520681778
-8.104877667988239
-1.9702834030596414
-9.170263714089973
4.181380371193573
5.949369524136224
-5.741706975215893
1.8370895013880713
-7.134373411056258
-8.85469390422645
-5.12342985794286
-5.663869899300041
1.1595348503951317
7.063304578071552
-5.616011301579018
7.432063901709544
-4.546272140603878
-6.185480773291144
-7.630772411866253
-6.524071302754516
-2.1693510273930916
0.5377959057527053
-4.492743990128532
2.901688256353206
3.076229741922336
2.007243832248266
-5.397906703286482
-1.790018400725537
7.155697500062686
6.9272440129353825
1.3706444957713622
7.010356889071271
4.20901681291822
-7.839987265480176
-1.3393146295820582
8.835990874315433
-5.7870398913310614
-4.826315831748543
-9.043634597510891
-3.63443486293054
-1.5719550160297315
-5.207606288786952
-0.518420940878999
-1.350803915071316
9.174039196581385
1.552502544498979
-0.7086287531777964
-1.0451950437408715
-3.8703450040988248
8.564367487547788
1.893549089457304
1.8988145193895019
6.1642584542430034
-5.6965435310390475
5.148775364777116
5.28593442794186
-5.721027950113145
-8.178222811728933
-2.6006863738006474
-8.295125432696093
8.82631440361905
5.2858056598980285
-1.7521788047671056
0.05439805718449875
-2.563394057554447
0.6153502409481677
3.259709928126756
-3.0752263762007273
-0.7560055664499792
1.2142669982502214
-1.9700004973963858
0.2704327229571544
-7.703734778563299
0.22974491407474232
-1.5340742064745698
-9.167684240955614
9.138575587407086
-4.718669042239889
-6.185617237945181
-7.98754226237946
5.622362269566365
-7.163516172982661
1.183428863150088
6.204735345214349
1.8797396661878216
-6.603814749922067
-5.179802100698979
7.434643370548935
0.41092307131466654
1.5932247297473265
-8.074682674595541
2.098041007187505
-7.859359420480021
2.2289736369964954
1.8141147395543498
-3.6764505771369227
3.7964345491250913
6.786868573669231
5.757381586269217
-5.478851320840576
8.147136541587402
1.1042874874952306
-2.4074863732343927
8.73477935020068
-4.307682493465
-7.501751719231418
-0.07794288106850156
7.520363107617408
-1.9536501168665874
3.5083067417245033
2.1116536877498397
-7.323267778750612
-0.5805159702100489
7.416181259482447
-4.296551809884754
0.37361854176312714
0.6573398859031987
1.890738090747737
0.5527429910407932
-2.360822810438897
-0.03695522533938292
-1.547754004098782
-3.653069908356263
-1.7797005167780375
8.537734286912215
1.1485778862600968
-0.40499655514578814
4.605317985715218
-0.10427269430988018
-1.0752763405050163
5.441376198260048
0.9701796269493723
-2.906220649635139
-4.1545609311842995
-7.29879780687564
-3.6241169746880733
-0.18991822918020335
7.46047166254228
-2.2940619917961493
-3.7558428184273684
4.860749685058318
8.317213469474138
6.072062074664311
-8.9110062954019
-0.9895257624029018
-9.210621681302552
3.6383858800925566
1.9091324076319685
7.546295245387499
6.971534420290184
3.3731343138599663
2.8808955245858083
8.41242661207334
-1.4135118867537744
4.180004454041459
2.2858073936473984
-6.739610424099613
5.957560560462271
-0.0073420141318529955
0.06471594542696554
-1.1813572707049187
-5.163315881432152
1.4840688772096056
-5.480265283851747
-5.069295077973046
7.978977923225381
4.8106903261507545
-7.595378524408907
-4.8229155368673755
0.9014998146389862
0.21076258416068266
-9.157366357008115
-7.926131703747905
7.949408904794376
-7.96125828886233
8.054162907974039
1.309072758043298
-0.3988052437125333
7.964119686697227
-1.661075906446679
4.760558903588777
-5.932059849357822
-3.434965310063727
7.444961254496434
1.7929598538692275
-4.18544139692796
8.59642034819686
-0.30699789616854695
6.2740951417064625
8.993684566266623
8.59480556310149
6.904482249206568
6.677253795115981
7.458623474233476
7.502218372609502
-5.468533436893076
-8.91757074527262
-4.6743786391800555
-4.183127424151543
6.329740451139596
-8.620972004988067
-0.7370407899612913
6.702747942478639
-0.345448135453686
0.9271691291243027
4.180061642288747
3.85649048268006
-7.312949894803112
0.8015208123445121
1.6375151371021275
-6.072192860801904
-2.031420361592925
-3.655949625619868
8.655449020017864
7.3334338188829
8.220110015904593
2.84386401635654
-0.8759991035345381
4.074595080972595
1.9117118764713599
-5.943253616403508
-3.6965041503808966
2.9292240468357122
-6.943736239181723
2.7224182146914426
0.2776658487849827
-7.959880894280178
-4.292331435547763
-6.019405616896858
-7.709558767531348
0.42886718245321837
0.06729541426635678
3.7758379455085933
2.6153896216063193
1.0401586101853508
3.1418470303852413
7.687440594059641
-8.776588414945415
-7.329195022170883
4.273226715810516
-4.102710725369654
5.681124556059951
-7.080693204288138
5.600544796586399
-6.934692657928224
2.126452379354223
6.707354915841465
-8.668158704606101
-7.207626552634889
-0.06056969746377529
-9.221252638498768
-2.976703673144705
8.59394868234822
2.4025627284101905
7.720322970902037
3.756128334381396
2.7843988996889104
8.43834615134144
4.8182894791911055
1.4174245649608639
-2.242604168971723
-9.114823961194173
-8.590566766389472
5.588854486803509
-7.9361005041290955
-2.6534980217080624
7.938427569194574
-5.465953963758718
-3.96037552905911
3.104326868153382
-4.627037686880831
-3.494891312627934
4.135763671339588
0.9541369412824986
-5.437137401548032
-6.923586968943814
1.6473739363270579
8.95968638800468
4.292699679265131
-7.310370421668754
5.758716028558024
-9.030523433568954
-6.516103123531192
6.590691956939031
9.100786055002754
-8.100117322447899
-4.806451533733705
1.641971186709432
3.5640688278542623
3.903625637886427
-3.216860711771191
-1.7771210479386461
-4.951814570583826
8.927283393593534
-0.8489068178750757
-5.219313778052312
-5.794281095986744
0.6159013950337406
-6.698509150061589
-5.607959202245789
-2.1860158381374166
0.6250638102366659
-6.862588605995601
-3.621537501553715
4.767276987033308
-3.207566903833834
-2.7379722545254372
4.866269491514653
-0.8292587080286107
-8.438352868696656
-6.067823277952293
2.95759894911249
-0.2693209509051792
-4.43099693558662
-0.66165580900946
-9.162525298981864
0.6062219418295892
-7.608002105577532
-7.073437767698723
-9.190061711910001
-5.757654520902461
-3.781160706200113
-4.649597759783635
-6.95154231747094
3.3201492848882994
2.9554347372148304
-4.307383707528837
7.439802312522684
-8.12143057426283
-1.2961083292953495
-8.962503200054115
0.8955215533619955
-0.7926321372392948
5.611329103779043
-4.0189118876743395
1.614015838182306
5.236844172120537
-2.100626012903422
6.629799975144391
-5.473692378866826
-0.3852170996951262
-1.78504558013738
-3.295306898692968
7.532259900670138
2.759044785480759
-4.119396252448871
-5.910969508297192
-5.635914555067883
-0.5132404895761751
-5.3791878448481505
2.98407208521495
-7.318108836776862
-9.112869615787545
4.526848196144803
-5.184372331048363
-0.8289009077674153
7.724067169143924
5.273093557530284
-5.280283631892929
2.929643604880332
1.4034543933610948
8.011495483038116
3.202176683507485
1.90655293449761
2.5891000291739874
-0.8071710870432536
3.8170445722942867
-5.74121678965118
-4.344309064254316
-3.1046896137025968
-2.1268542713464553
8.863946227137527
-7.459815235597336
1.177935819041306
-0.4435512107169243
0.062136472292607034
-6.138552486918431
5.504722684943962
1.9279791399388932
4.344366479915784
0.6207133151138831
6.2878001962765575
-1.4961683992371608
-1.0172396952137455
-5.5431203440701315
-3.878124931076947
-7.953111601753246
5.595385854612649
1.597660987649272
5.015785438396899
7.595175437005074
-7.465639250780591
4.172390242128904
-3.442925159951355
-3.388226015565045
-8.267170084168967
7.153539059352774
-7.156686763021675
6.847904573436928
3.750969392407646
-7.129991528443146
-7.119064863325438
5.706110008944648
2.6199440187863736
9.13741262579207
5.9495646500278
-2.757540139160783
0.2983880671893129
9.070233946585011
6.233996564864592
7.06600917602443
-5.4711129100274345
4.571978112223418
5.993659927196058
-3.739217161422255
-2.292371863097392
-2.930963611901138
-2.428218521205081
0.3958892213856907
6.232690689446507
0.20696431762658019
-0.599563099132218
3.4202812818000212
-7.31552936793747
-4.155674403869
-6.14119037023131
-5.628282593777648
7.793211402174606
2.034058771762028
6.964271288774073
1.0265750892000183
-3.6484952286097974
2.123659204858818
-5.655623849250471
-4.089279109236301
-1.7822799899123962
3.58053907499367
-6.630127612483406
0.03891370328853212
-4.016794324226803
5.585735698777049
-2.766454067453839
-0.8654825228328988
7.548318456144534
-3.626425461132862
-8.934185676900233
-7.735007003460711
-3.6266964478224315
-5.147113445393715
-0.31823384479115785
-1.8501517290668614
6.068788945340162
-7.895985991269337
6.626035742525316
-0.23479665501857133
-2.3328674619117713
-1.7097305696056573
4.4564976466910675
-7.516902405168175
5.597965327747008
6.5548561995678165
-5.652253127979215
7.151265178570753
1.1564730591614296
-1.5176181552529928
-1.7517474287075652
2.9186327098228695
3.6014351603454235
7.873743870850497
-2.3770620173057426
7.2841137743169675
3.753548865542004
-2.1727963165246016
0.659640644008001
5.262199741920393
-7.204687744981157
3.4474042327051406
7.64074238127159
3.549318581932165
-6.279750762005848
-8.656305315626817
-7.4331227674239955
-0.22544661242438868
-9.159945830142473
5.5634171580431016
0.1707034017559053
-7.5173480304280105
-0.567949401967981
6.999081155425194
-2.0899829749563232
1.65726096560428
4.91706292704345
4.040354092091055
7.735059478635796
-3.8711745066487984
7.442381785657043
-3.164235358049317
6.482597169448154
9.040330610926148
-8.929110206110568
-6.482640538916159
7.3025068350228315
2.287946837713575
-4.964122995307823
5.957048983618259
2.67899873281251
1.3332393093100683
5.541216953150858
8.177025915192637
7.683666482140408
-1.5294531150944721
-4.062557048237318
-5.464641954587934
-2.0641693858317067
-6.705050724154456
0.7465368387323659
-7.970761956329596
3.1516580664456924
-2.312488580619374
3.696800490945855
-0.5506266008997804
-4.451183819581928
-3.4185185431548986
6.023026221329646
-0.4996195752197363
7.3283204241474476
-6.074364852045161
-9.134649079323939
-6.054067073392325
-1.90440268367256
8.624695102053856
-9.216694200443655
7.185586873667922
-4.940121061834023
2.248677753911283
-5.78697950936673
3.052057351795284
-2.4024049320804646
-7.966422468373046
2.0621646054303917
6.642592334325546
-5.182964515617288
4.978967207829445
7.385633415355861
-1.5420656424244958
1.3717727101531922
0.3596123215558891
4.298603760200235
8.01707973545845
6.99008487789869
-7.335736600558718
-7.819021312625914
8.559287225852751
8.207718812268979
5.197071806121981
-1.8364488870792193
-8.286840071172515
-3.9622465730348644
-9.085714848811014
-0.6137121216835302
-4.05129649793979
-1.3876982933341906
-4.182307235717277
-1.8847186903687183
-0.3039824031056796
1.3741591482721685
1.5513439118975714
-3.6808653492842227
1.4322514864446179
2.3496471946573836
7.471963792543144
-8.974872925826116
0.9137258857233761
8.004791516644964
-3.5516213636079823
6.68083946098956
1.6127124798315904
-3.6819016018460844
-5.958216474843784
1.8523840330358192
9.16846496101232
1.8607099524052881
-5.307583979805259
-2.3381345828129407
4.465402812738397
-1.7259338395829484
-5.443678979935866
-0.5690909279656599
-4.137372181865121
-6.960463433790812
8.84279970034639
0.007967570830816364
0.44081244491990235
8.172603728687472
-7.196649412160653
7.747448686754025
-9.01631887730799
7.666555970396206
-4.812993107826572
7.996467223392619
-2.220677294632884
6.430219894095455
9.060904302933894
-9.214114727309298
-6.303961988123085
2.838584441204447
1.8047674911819953
2.835132800575291
-2.637951041291645
-0.7112272008366747
-1.6595637472800984
-4.515974228059737
7.362797145823269
-0.40333976990135584
5.415176404414517
7.388212888490219
3.4151295694940487
9.15047821748663
-0.08429794117339835
-5.526028003567296
2.3270713423715215
8.681262609142479
-1.0288778708758364
4.049583931888477
-9.167252036359079
-5.459400520019608
-2.094383982326838
-5.525281807194258
-7.2954010296478
8.661540970939567
5.58289836018775
1.110710343740848
5.878748269386542
-1.0494627470854325
-2.920935487203721
-3.200346457066744
3.529407371358795
-8.73796234766937
-5.740111876551248
-7.369698265104294
2.4236905279693333
-3.4733093307827683
3.6938329278323563
-7.250450464696706
-7.602973424954811
8.343027062893723
-2.2902496193893933
5.365211694291535
5.446102258591033
4.652720975921929
-5.522007278258712
1.8549635061701777
-4.321083900778687
-8.807328613970824
-5.751494242534546
6.28397772712908
-1.2246055889384668
-0.03475610833915875
0.8631797454520479
-7.147229757160821
-3.417167374662366
-2.1808386880748802
-9.167735172483123
0.010547043965174892
5.3980076611334145
-2.49543484198361
-7.640559674889941
-2.0771830770135065
3.740416794724699
-9.089010372069556
1.4938656175613427
1.4183283984924253
-1.5004724831351615
-7.236899438193133
1.769448510190107
5.543796426285217
-5.312522942303401
-2.984372088530673
-1.9733633778237594
4.559555265999669
7.29209372173972
-0.3729916545879167
-0.39819200306150887
-5.831601990462795
-7.25055714912684
7.9312828078666575
-1.8762793840343028
3.6993799640802134
4.406568615313732
3.32752168775151
-3.8624288101791526
-3.8016055424378847
-6.189627968306666
9.019498155391238
0.23249387334275318
2.7339561608954837
-5.333862257599637
2.8752220620433726
4.3246534086568715
-1.841607829052969
0.24551357011001224
-1.0729135139921886
-8.197894319057472
0.5888073321419797
7.328720292529036
-4.7700537558217695
1.6507193915114124
-7.175185105687946
-1.7443920261011245
-8.185090338864729
0.6789255144324613
-3.686024291257972
-8.482138945982406
5.238980257995028
8.359784318001719
-7.772353472000607
-6.15300139751735
4.622436054157385
2.28140525932574
1.3903730499652993
0.17230286113111254
5.20559298472657
-6.830634872308893
1.8472250910620693
-0.7459254714147032
4.750043015742932
-4.419763454346684
-1.1356151332823983
-2.6013244705023286
-5.108289302070528
0.3893476429978557
-5.859557338989921
-5.5777818048605665
1.9270311527818416
7.970381307176249
0.002808628857066611
8.973166090497397
-7.384807281684437
-6.308828886702078
8.949968136284566
2.36369790886587
4.2842005079086265
1.0200335151071502
2.706000812368358
-3.661086913333362
-3.1290295930414436
8.188485905468783
-9.219273673578014
2.2283916574544103
5.7279175045420905
2.6925880166405705
4.037652254400801
8.742065749177181
-4.093582663324255
4.173462875653624
8.640303434625555
5.922387527122791
8.4841548166713
4.5427580069494065
7.38305394651647
-6.499260858638007
-6.406932797180245
0.803522588580144
-4.323508554036753
-4.739655940869206
5.298907142359933
4.804148752057886
-1.2408824834307521
7.839082414355029
3.4280940665530455
-2.9668023754969806
-5.530440749168007
1.2369526159296949
-6.895870039432341
6.470718885646325
2.31322979327139
-1.187979018149151
-4.431818209573012
2.9120911314350346
-8.490812872385973
2.088997752658317
0.14953223890328438
-6.6125302740163585
-7.37485721137301
-7.490699900162722
-0.5839762674451253
4.581653448995964
-6.047931015166164
3.7770433655140145
4.960671600406143
3.542777007839297
0.07474528326727377
4.005692635595587
-4.906528511214968
-6.394425675723822
1.849804564196428
4.211269744798808
-5.917995554928149
-4.863673717075972
7.48649718095459
-8.291332867884226
-3.4171115751217056
6.696206368385771
6.0090479012295015
-4.857576993362843
6.7066558984977735
8.40659050376132
0.005388101991425136
-4.5163827712936095
0.39389822135403346
-6.752739149431366
-0.8746636274829642
-3.3263104842210596
5.975378239152417
7.326892240495066
-3.872138016826803
-2.940882101835639
1.6505951483795211
0.897030112724997
5.538637484311467
3.219830703274093
-0.09503902519302962
-1.085542848070217
5.762074715530211
0.22536644279396142
-3.7553471213704634
5.4348346241671806
7.324675672222495
-8.690966767827318
-1.6279666792702396
-2.748697777204445
3.694221026401431
-5.5078218128183245
6.216854751089152
-2.9746082804256107
-2.599086088612375
5.190388826457127
5.637142688608692
6.065520496276476
-2.556510250128778
-6.774271884890048
-6.684027425093525
-2.5305931789119103
-5.527861280328617
6.194147827848239
0.8828354679010966
6.026808622917038
-7.5114019662011735
-6.877987411236081
-2.7406404783292224
9.218949856822949
3.3777923721284173
2.8092025598610726
4.929156984619217
-6.17632107313632
-7.372277738238653
-2.5335046882441787
7.1947292355933445
4.137743190561644
2.574181294775857
-1.9129650275729144
6.651849331649933
-8.597108344777308
-6.503393550222856
4.725897451388277
-0.12690376979400303
4.760862609536909
-1.8390283559186105
5.202708790618491
6.705791993341249
-8.641804586081726
9.210919642084
1.6387118994421066
-3.0788760245779807
7.957578112604359
4.693420138826443
-1.0241872188983694
-3.405465597443764
1.1151347110175327
-3.6834448181236135
-3.524943729768894
-5.429058308381087
7.9158740595673995
0.8497588379414138
6.603734278810306
6.3136137854011745
8.588263989008622
-5.187765779229862
0.892507672628835
-8.46152634326705
-4.649588880793602
1.8601224481439278
5.59330652735337
6.7500823964010825
-6.639314767993122
5.0814582775985375
5.842121698597227
3.3475993584433876
-4.969846881776642
-1.8567633461365598
-1.976757751666921
7.378410803356985
-8.29531677931298
0.015705985938924645
-3.1343459844440815
-5.384767905321253
-8.528380204643483
-3.2797025308390166
-7.639599995744126
-5.706654905287008
-4.33916100537238
6.708794809516686
-0.06006286443468378
2.322350048943765
2.64186690336025
5.548955368258967
4.601867485828654
-5.873705147573349
-2.861183898987367
3.35703581217416
-4.087923068729105
3.0093638121946302
-6.231218625995231
-0.5411355794385341
-5.810147530426363
-0.956211778705996
-1.0038609865691928
3.7045389060539637
-4.1257850302637635
0.43818862870883424
-4.750249335637728
-5.004124991968427
0.8770993149340605
-6.044890451535766
-5.60053274959097
8.024422576214713
-3.893452638899158
-6.012272524529281
-0.7857563882766571
-5.517543396381117
7.576184614697768
-4.89583065877419
4.251167571999888
8.530303199857359
7.2554671509504045
4.024070450940904
-2.4471033890444955
-4.488018879532611
5.690021805851963
5.600911885183461
-4.431484282501067
-7.361959854291152
-1.151467897099683
1.416063113213026
2.3621021353495264
0.16914239571477238
-6.226254539095981
-5.030183812789493
-1.8164175126402335
4.0775392761206355
7.606716688789232
0.5448511350652081
6.505699400172162
-1.828710471971111
6.584745573173052
0.9271258709609299
8.029298436710675
6.805880738727948
-2.6745776120809603
3.6858349046921464
-3.708475133263085
-3.1723911085396184
1.8566320270925207
-2.7337106968795206
2.859971505947753
-3.673126934176114
-2.1429069429193657
7.239019642948145
6.140233004355281
-1.5552800654146384
2.2904447715822056
-5.368419359038251
-3.0777892611537903
5.3931670428186615
3.7733269143247576
-7.789771442702806
3.078076104240288
5.551534841393325
-8.887681371667385
1.9050003554651216
-3.3050941617166547
-6.4675959515933705
8.66881260759855
4.70054154343842
0.07564009939268342
-7.119274408633696
-5.08994271892864
3.8234129670099364
-0.5676517899841215
3.7071183791883215
0.8314101859497479
8.216894127452337
-5.194159594072048
3.617987317973594
-4.812909082447836
-4.353712720291977
0.7063259715019782
1.4462837427245838
-3.1732478316964032
-1.2326477831083162
-8.077212176725476
-9.206376316496156
8.56762366051745
7.727956885200241
0.4730367029941328
-8.192018408427815
-1.2612321554328152
4.3623059971896625
-1.185731644825906
-5.80364664193567
-8.923332493393115
-4.511209615053044
6.723803998464698
7.395951303598328
-0.16002885986993487
-4.406893412227127
-1.4160287336562283
1.893564856844183
3.7037902239353837
-4.691948266540734
-0.555045768421644
2.7619115137175765
-7.0066376061608775
8.87947371283322
6.941908596757234
-1.8261309988367525
-6.904803284322987
8.705831378294368
7.5853881739813875
-3.018751025039582
-8.364586009462856
5.377012635935936
2.59838359212483
8.696214131679804
2.5768368342952757
2.045914048836412
3.2961807025328236
-3.6705474610417554
2.814288273294146
-3.4290189277229355
5.696322741625993
7.066832244527382
-3.399563625799691
-3.6772416277944613
3.2290694642341244
-1.1849717863765004
4.49353172582248
-3.0101467012818404
-4.2133796842085305
1.862701921278286
-7.89624233014267
-3.9179561699750316
-7.08322503072241
-4.743173486168993
0.15211329692036266
5.038777089687178
1.3370118479062403
-8.434902171036754
-1.2565529401691982
-6.288708528931601
-7.859107578432941
0.01828545907328317
1.8228492274744632
2.3939376020121848
-8.972290463077803
5.342409779103004
5.1171356848784955
-4.015477174043219
1.9676977157205675
0.1306559803215254
0.660141951358006
7.101974794659698
-1.6581747814467998
-5.522702338354866
-2.3382058134342887
-2.0064975954365467
5.138988097458462
-8.713921420026683
0.1887398720046457
0.641714984158357
3.385923233889227
8.668258783152679
4.24961217856155
-3.958337601953437
-5.303902679966177
-7.367118796264903
7.380885744182846
4.305396176550669
3.2499226608081013
1.3716618495402821
5.153762255667811
-8.41253927957204
4.016609110293489
-1.2129271349036261
6.166307070088754
-9.014398356366657
5.633281002707053
-1.8338694139448608
-3.329644854959004
3.816458930003606
8.917118966464217
8.008400192553458
8.705439178387866
0.30347943790959925
2.1245514896706377
-8.462857523858847
0.41622240409707567
6.153783889693134
1.9875531084826425
-3.6782858761498636
6.38944670265813
-8.318391371718729
7.028053529813856
-0.35276061588409596
-4.776282515953488
-8.750774825820798
2.755237361779932
0.10270063179439959
2.332917291329313
1.0977231438698483
2.2056577067751784
5.546375895124608
-0.35532773038485765
4.794333418802765
-2.41727363625808
-5.265076497767861
1.602085328652791
1.318186076655873
5.908666726621373
6.037003254051594
-6.530352337629118
-5.735836520126961
-1.440070183154264
3.7019594329196046
-9.082980242182309
-7.340516878624603
-4.3063390729084405
4.820506771799104
6.567107708020989
-7.736068187074524
6.539352594435702
-3.844182668299678
-4.613657450396881
7.654846803464337
-8.949630574190587
-9.211535258469905
-1.346766771909573
-7.829454125171667
1.3608572327476751
-6.989498963192239
-8.327959438673542
0.9799505304071152
4.647294978107816
7.35263102074962
8.08300196161596
4.37628497151961
5.851385600999588
7.390792357329611
8.37232478570756
-1.5175603531844508
-0.5282082039026859
3.096084306374726
-3.3629370550103754
-8.074303733323282
5.277980850217111
-2.5285549016016517
-8.447047229156322
-0.6797757743036759
6.069490203587091
-1.8312899408105021
1.6275503569595404
-6.851579636372508
8.47320870373493
-1.8162315712140726
3.0154307810059686
1.994657169153389
8.431410215058552
3.405747720655543
1.1364272155947983
-7.513335438300485
2.423762305067714
-3.6757064030155058
-7.100102154837911
-0.5396858643852921
6.584143267084569
8.269351694057924
7.980453164669134
-7.059597094577008
9.062096087167847
-6.475438201695729
3.0531221028270354
5.877347885290813
-5.085798081673642
1.8575429793045364
0.6361113154348251
-1.0286231066373877
-6.195404505263834
-3.540654036638451
-6.914613982025396
1.6564216229046311
7.1700384708399625
4.721375483058602
-2.696962563164643
2.5987860533460854
-8.73152597589805
0.013126517099533415
-8.091541200657593
5.2832706610548605
-8.084469937619227
6.544929232928514
-1.94959159836223
-7.397832640825765
7.800724342949257
-5.159810430702736
-0.7802676759324063
-2.4572746924772004
-8.513421377605516
-9.208955785335547
3.6104284400089712
-0.05074862213319624
0.9169469657234203
1.6326133553397162
4.428776237654114
2.6711282659458724
-7.492590365918853
0.774492191554459
8.803206768818715
9.155909717235541
6.287594801879627
7.39337183046397
-5.117224071788479
6.261145154148987
-0.9721184666319733
-6.728547457392805
-9.052945452392272
-6.383125997784525
-6.8619044981045265
-9.106693730796813
-7.726842413363633
4.099848967117289
-1.2219655848617286
-5.520122865220508
2.6189894027792233
5.772207911896892
4.695077834729175
-0.09180911008466178
-5.50126852537725
2.3328927154021466
-8.753962110137444
2.090119953957518
4.969816990059272
0.8212871394675282
-4.867693479086138
-7.364539323130544
-6.108663113313195
-6.362642394120412
2.8060123980788143
-8.452969914227248
-0.536246146009052
-6.721361544033283
-8.123276242323115
-7.791065968393754
6.886511881586477
-4.234773610650724
7.814326994222344
-1.8209720568630026
3.0095871438090693
5.816498314956724
6.697567648522812
-4.221270474570124
-1.2978587262221308
8.759368102718483
-3.234643030808893
-4.460063526710519
4.017246457290721
-6.841580537736243
4.168599099997934
-3.6653885190680056
-5.718065372283348
-6.318351986765611
4.808502216167419
5.864312790701874
3.667163653146068
-0.29488616101191406
-2.6039571629945653
4.105494624647761
5.9339413445229585
6.549102785855057
-3.3409612867434206
1.8678608632520357
2.018148097989386
-6.807289233312675
-7.971045560475952
-5.945692939994504
7.218840580161089
8.421132556469725
-4.496014779322449
-3.144435760012492
0.18385667853127935
3.2705409582052964
-6.986689185262797
0.023444401047032923
-6.709504418103032
-0.4953954613254586
8.586633085173172
4.139890329572462
-6.262881109885297
-0.633121707260672
-3.8653289072131547
5.421122391345787
2.100551570058484
-1.7855197919129564
-6.768584582675295
-9.198637901388047
4.992465231153467
-5.829414744513516
-0.8586940851937298
-0.7724255480163358
0.11548672613104694
-9.01090488278852
-0.7118995423717138
-7.09131906010657
-6.762718058899948
-8.619079455909766
8.032431592514879
7.403689714411469
-3.7351872849389514
0.4824790274737002
-2.747759517549124
-9.13358635645389
5.080509109794212
0.3815849271906346
-0.08121367026241907
1.4742390912517098
-4.846023175962677
4.771603867681533
0.5228712057735242
-5.5098049812730086
4.001026185333784
-0.006458214778395553
2.919436783812025
-2.496848013440714
8.632186036809234
9.09760364896724
-1.9732712865903033
-5.775691297703512
7.850636231755196
1.4930420400317717
-3.1228566884508857
-7.354221439183045
-4.726626326463666
6.3054355572088205
1.030371347161664
7.588735256126251
-4.849535653237152
0.04334938094187661
-1.3425854144810088
2.7898668622447027
-8.679412950427151
-3.563018705791513
-2.9047520901583495
1.8704403363863944
6.975343314202897
0.9714162740207634
-8.414955818910272
2.6764193699475185
1.5288321870741595
-8.334433790291005
1.8108439460654653
8.724169484501898
0.9040614900290018
8.050165703921229
-6.5504799843827595
0.026023874181391453
-1.75230920188952
7.283310046007979
8.142722818148918
-5.684741434195068
6.493854570737325
1.0580560196881506
2.441529822469727
-1.1570164378493744
2.8207563772612394
2.994104949508009
4.38670369829047
5.559273252206466
5.983904272678183
6.794372803755884
-4.6368249499045175
0.9519969131130748
-8.401212580252173
-8.672669336539762
0.5494722061418429
-8.406946826804596
-2.9293282844354724
-0.28445687814175225
0.7409758083610273
3.71485679429643
-2.7437482391192685
-5.34047750226142
-6.525890386554877
-7.40916389532448
-3.4361901965890067
0.7198204734393925
1.1801580739561706
0.1586113288486512
-1.0126333972032353
-5.340517623965038
0.9590804066535629
-5.50722550813865
8.958221401547297
7.772247288260075
2.4755265210827373
6.125264296501307
2.9421776394273373
-7.657962697793489
4.333587434502644
6.092913951105846
8.570841043252917
6.272666785747704
-2.686647491865814
-7.351641966048686
0.23056888545487797
-4.362603009167294
0.5864610844323763
-2.23589650764128
7.907200023090503
1.7345271121856662
4.964273310906905
-3.7882719712454263
-7.95920813892943
1.216606035629452
8.250536190807415
-1.818392583728644
7.966782355727613
-4.851540255714356
6.253657390088492
4.400841835371897
-6.987867123604027
-7.9961982440422466
3.0722156902840547
7.408541713508905
4.737451268788443
-2.0619557963152766
4.6048082965830055
-3.6628090459336473
-0.7608701560698374
1.4603535162728591
4.364591953438131
-3.960318968770691
-2.0228447399408616
1.3962915659369086
3.7029015666883165
-2.4726442045474
6.654146156020681
-7.118016542138561
-7.641002980140405
-9.203796843361797
-4.92192519697859
-2.940081681175872
0.02912644026484525
0.43009390151420657
-6.951240552814712
6.053483728433452
5.121127084856976
6.06495860257872
-8.20312768619036
0.26841513066288797
7.160013199344736
7.398530772437719
4.797166360638544
3.3718120908113436
-1.8599389920905485
-7.93106690262838
-1.9862181691515457
-3.0007705352969447
5.751812952671304
-3.8162273197725516
-6.286432794663154
-4.787645619455365
-0.3495471873966184
-5.514963923246759
-5.913364242798273
2.8828748442642804
3.8072573092706
-1.294328559615204
1.565458757863475
5.715248182184693
3.8597553363434187
7.380586364981778
6.410226613054718
-8.066207447105125
-3.9952750859159956
-7.359380381156795
3.8057273148188613
9.194768620546464
1.9181918769152062
8.791254705656794
6.530481137231674
-3.339006081545703
4.490441208452714
-2.500599553074526
8.326921500286954
5.324475880781141
-3.7771704876234597
1.8652813901176772
-2.9390471139291585
3.8607493373584068
-7.527135293451696
3.878938823773028
-5.537895096166567
6.729954820930968
7.643870568999187
3.433703069182669
-0.536348128671476
-1.509083783215669
-7.42289838184787
0.0208649279126744
6.7800444436879745
-8.274100968658898
9.03054334790246
-4.482221980369559
-0.5728727167983678
-2.324299442799429
8.27455644540345
-6.447482848873635
1.3803467585607612
-6.565144537628889
3.51428530082536
5.554114310232716
-3.930486159748841
-8.763038210910993
-3.7490044287409097
2.1545163626436175
2.9788042102166528
6.39171927468221
6.3824988290755655
4.749330835880695
-4.369737907430918
8.603037708430902
-0.1314425891040828
3.709697848027713
5.788605397868292
-2.4511444389237766
-5.638069861096303
-6.206644445793936
7.94382659387982
-2.662534989048187
7.013184696889892
-5.131855086470577
-2.4530430201986806
3.5469769626076166
0.0866620091884529
-5.512384450112401
-0.9561690265847601
-7.785163722111833
3.363347042246345
7.327783750326818
-4.124549643813388
7.4064259134284836
-8.280130011978217
0.8024475357866174
7.13043142455244
-3.286582701389193
-3.559065885035957
-7.356800908022436
8.762922531032373
-1.4732699458296503
1.474281614185919
-1.0333770538157698
0.8404727441447447
-1.647828350301913
-7.649444139868923
-9.078738382269687
9.047126311784679
-8.342643451507445
7.378117797637272
-1.8235515299973613
-1.947608072404443
-1.9622071923767135
7.1414779112521
5.603361284902439
4.392149666864798
7.068190367179726
8.905242313217776
2.1180753024846433
3.2970416457929987
6.825538790257378
3.732389899117895
-3.667967987907397
7.77148348521269
4.349686579610503
5.252412478896707
-2.7577995192401477
-9.089572023181589
-1.9860638965506712
-8.910815884087512
-7.763110619866628
5.213736533025236
1.769478044434092
3.950494501705398
5.556693783367075
1.0267090607596379
-0.9843327035775544
-4.192914691470197
-7.670115401123914
-2.7112041828702758
8.082897010220968
-5.757386523541039
-1.8288079976094338
-3.649533095933195
-5.064081619562717
0.30476660748098855
3.7122773211620714
-7.700943459627747
5.327561068409662
-6.0819801238255895
2.4154678641480842
2.2538182007928897
-0.97135725350943
-5.126700651431745
6.7367501580438125
-1.732838208700958
8.326601704028583
-7.204793783555335
-9.20121737022744
0.0352700149399552
4.8386238218625985
-0.4147838224644423
9.052206211456227
5.805495127807911
7.744661459677241
-7.018758267759628
-0.5131802309114083
-7.482922874692637
5.048039872083853
7.596222395929808
7.401110245572077
-8.692382501152462
-7.29622647556477
-2.303849254819836
0.6910454073136407
-7.676226566533443
-1.3095928040531555
-6.388072391355366
8.052377924741839
-5.5662279874604
-0.008020873739432144
1.8314987998237056
-5.502066566164901
0.42586775596980075
4.882914229217398
1.5877059913291949
4.922744846970764
-8.437839151041487
-4.275607231010942
-1.4994391884310785
-7.063363711579445
-8.43549340746119
-2.6148278008249495
-1.8142290944007042
-7.346483024074937
-8.301784760122617
-7.251936076799904
-0.30135943673123133
-3.4384159614667893
-3.47281677167329
5.116882578968214
-0.8687533120268163
1.5021944440738029
-6.518798520228951
-7.670888550943202
9.122954588272524
-1.8132336417548944
-0.5655712855549146
-7.7408733190520005
5.36583686033495
3.198322381546386
0.0788601553417312
-4.613842777259699
-2.760810932649668
-5.747735944881418
6.177860887488922
7.49729369082162
5.477226694048117
-3.6576501039598974
9.153520272062218
-1.4289795427698169
3.476771427979556
-5.1628384225962005
5.043882539004897
4.778647032719455
-2.1301250562454057
2.8178222064768614
8.094555779016124
2.441232944998336
5.695331292340651
5.567011667314574
2.408745843314199
-6.762998825957873
-5.9685557423873465
8.371589773524553
-7.024493694393343
-3.5991361385134253
1.023304304301068
8.752124828734058
-0.7687138585322395
-4.392326718998474
2.049603402411208
3.722595205109571
-6.318906672778219
-0.4511050582656253
-7.85762117474274
0.010428965086999281
-2.0594713107301774
5.793353671465729
1.6539901764103626
-1.1290610893222488
1.147981032994965
8.998356604592825
-5.459956988625114
-9.190899486279939
1.4173068017894837
-0.9400423005177211
-2.190424873381592
6.647167308100174
1.4922056162848438
-3.9373716847621836
-0.23806744421248888
-8.378991478277468
-4.602103632996714
5.719794776943065
-9.105684887144491
7.411428129519577
-7.310345714302935
5.371851471469494
-4.079490305736987
-1.7139934960424117
6.45722799994801
5.455118125216972
0.39261843219177317
0.18656667308080968
-2.6854087414695096
0.6637340268248116
-8.88758028455699
-1.8106541686205357
4.3916239306585965
0.03783218828143782
4.921926597605663
-6.6263093779261775
-5.611148237745198
-2.9226650460159096
3.5460477927382468
6.120869295338004
6.898065698986643
-6.169825637171997
5.9134358906331865
-3.655070630825539
-4.336028589728789
6.34972596456362
3.0328611652502686
3.4592738873458204
-0.6461258583769992
6.469824763963246
4.176733664847542
-3.7603166184233325
8.814760586218881
7.220857686419302
-1.5961244961081684
1.8781787471995353
3.400184889133882
5.860788713721591
8.70005746231645
-8.350731843350555
2.9055510729329894
-3.260900592264668
2.2846760485196573
7.436497066330999
3.0646759245221693
3.94229585876954
-5.2418523903325775
0.03376228499453244
-5.327467626958536
-6.274061583705778
6.8109920342560235
1.73485142621641
7.870573452301189
6.131589217714487
2.9153619249239195
-2.444688856020275
4.981370811754407
-1.1137648870537453
-5.023747792040042
-9.18832001314558
6.374502013708028
6.838663206815716
-2.634335140405847
-3.1774644556673555
-4.19780278539202
-2.246193953518394
6.068791285470393
3.489613766236921
-3.881898821498991
-7.947324551050555
-8.669475686264452
7.414007602653935
-2.3531505023843904
-5.296187094906619
-4.523400568466274
6.908118813899609
0.767219598271146
7.146295856460761
6.699477153284721
-6.391572156114353
-1.9652039342667544
5.443358768245776
2.2677080007037445
-5.499487093030543
5.383062972183312
-5.785124341453683
1.1437957285999074
-4.901886916796766
4.318896525286167
-2.5844294997671517
4.807419541251804
4.8052415329349465
-7.715288595963465
2.1647969405960157
-1.378019897815633
-7.343903550940578
-3.3445895439091053
0.5267694305335336
-0.7452697037554862
5.183696352770198
-9.16282516476022
6.808060310212003
5.438105409066132
-5.075944389416326
-5.798593713026197
-2.89126380522727
4.82291289487554
5.561852725340825
-7.5056445848178575
-3.873665766915198
-5.080735212633805
-8.872634850654457
4.3555230960754825
-6.981491605295972
6.85633092723479
3.4616584134148276
-2.2091234772327173
4.49516786757418
1.1771850049460983
3.7174362631358218
2.213446972799276
2.438228005072018
-6.969800649284165
1.2129484146175415
-9.126198593970903
2.410998204683182
7.487016803639053
-6.41952750034651
-0.29242858570551283
-0.5608928825440724
-6.332375386090224
-9.19605842825369
-8.49708363063754
1.949290762819922
-1.3026043479230176
7.849686761925685
-5.574521666955883
-7.319727151544731
5.5949591830162015
4.77728618440782
-6.0425132516971924
-3.839454714488801
8.468640793394918
7.406269187545828
1.2220079312745606
8.261184534807137
-3.191669784573379
-0.511474046511869
-0.6094992875876836
2.0727626584344243
6.225645055125496
-5.103899737943451
-4.125818364464954
-8.895515460312087
8.686745391687454
-1.815813114889253
-5.522766501768427
2.9271652473241137
5.809747123064238
-5.423789928395635
5.768868557018595
-6.305020512798457
-9.067669653742616
0.8304028843137434
5.457656075991198
2.7176689494006556
5.041017493168077
-3.660229577094256
4.196325055848707
-9.207685050103255
3.920681686413876
4.661793341171331
-7.7128531373227585
3.0874692971806983
-8.436983785928287
-9.05078303803753
7.374350967518404
-2.338391800717597
-2.4685428892783117
1.8730198052257858
-6.5142055432931425
8.750121781354201
-8.85886608163956
-7.148212389525045
-4.161176214602705
-6.643256059047214
8.11770267145338
2.146030651011769
1.6242663015267245
-5.616953628367359
-6.114270787797689
0.02860334302078268
3.2048860143239914
-3.3847285203681348
7.6988125554196305
2.9373708757469523
0.8038461690604617
2.7492337509319404
8.748388543562674
-7.7351552670445365
3.5409611887589616
7.773729695223941
-5.896166189505153
-9.19347895511933
-3.5398884144240284
-8.718747807851159
-1.746514610652305
-1.9749450018418455
7.182214009371774
-5.62854942030094
-6.544926165305435
-1.8008526490823082
-5.322308440199469
0.9401700312271317
8.90484998997999
7.408848660680186
6.179203143193105
-2.406854035863943
-3.635580047302666
8.11063826772512
-6.299507680674612
3.763940389678214
-5.9142402931961415
6.764705506570938
-3.4056135529672322
-4.115890718891121
1.3952896032386342
-5.504646039299259
-4.531327460243711
-2.8957912781160386
2.03161625835345
-3.6993674629712565
-2.747830753659592
-5.966784966549699
-7.806297909524025
-0.48522487808931514
-9.155698218958912
-7.394452546540881
-2.250438290985776
-7.349062497209294
5.18776410166839
3.4161024981661443
0.14255082170308886
6.386215802300742
2.217191630003574
3.425704843429456
-7.175612041709698
8.080333273268964
-7.239003331726675
5.996230781345384
-2.0323336926932396
1.875599278360144
-1.55701032707963
-1.9179167850219125
9.143967729340705
1.4738999204169758
8.595559466019917
-4.952078327803425
-4.02218267257329
-4.432108178183392
2.344471113024447
-0.8373288826514251
-5.67806158691765
0.0311828161551412
8.162081230537503
4.3939769826703365
7.254902296985311
-6.887260883725611
-4.886162224026467
4.440411486470698
-3.3914968047589626
4.133449973174887
4.261166000256685
-5.8933896327696775
5.259122095755579
5.564432198475183
-2.5484493728993125
3.90503974041824
-5.52464547965806
-0.25052254071243485
-1.334485297011447
-5.290313874052183
-5.283554421086847
-3.116480415780334
-1.4889186657349949
-9.171951464714406
1.6133942015311697
3.7200157362701796
7.1706421890127885
-8.229810561304095
-7.413710907718486
-8.61168334485502
3.630537082356752
4.102175935926972
-4.652868548977552
5.449077744167879
0.4277762214972424
4.21873186317186
6.817808021785004
1.818850903763995
0.065159388545191
-7.0287412529068085
0.4632494399704459
-3.745130186981773
4.6485356666849755
-5.264500280632598
4.800877962863968
-7.28700649979645
4.946709355258939
4.691391196805042
3.1720801275605943
-0.025565558441007982
-8.662493127547227
-0.7168474809195928
-1.425815996679915
6.340453082585192
-8.833186027656378
4.127989529346555
5.431563834973263
1.2785516558567964
6.863404246786144
-0.36466955331321016
-4.337480259180761
5.5076838238790335
-0.9262796572744918
-1.205784727466656
4.2413803089762006
-5.4695526438162165
-5.281509100641357
-5.602735826881356
3.539506218645379
-5.971378733098424
1.1133195764994972
-3.6432313852579385
-7.983208157700138
3.663267365968998
8.792811904637608
5.106109048815527
2.35231487232584
4.616030621455781
-0.31648671697819036
3.7897539830977984
4.170192090754673
2.5941794182598548
3.0300144637317343
-8.699292131081224
-7.765103555112636
-5.558814932171114
2.048037471594622
-0.22791023437252977
-7.093012293746096
-0.29628526042798387
6.061881119038154
-4.588029188135083
7.323621455596116
8.52848204051705
-5.833255165226696
2.913892278631518
7.035912620077539
-7.403231394376118
-6.679615044497797
6.083983537614687
-8.982077730396457
-8.657446064570571
-7.4198405710082325
4.804460621844072
7.954307323410442
-1.3527038818342227
-3.916560277994459
-2.1421684714867344
-0.47364777095878285
-1.8699820163510437
1.0565984257749392
5.595046295362591
-3.3148814290353092
-2.020707725852362
-3.8681636439932117
-4.9262647343838415
6.062249707082559
-8.602634266494476
8.780099129723414
-5.420730299136496
-4.119375660888226
-3.71439847426108
-7.671054086022512
-6.539804010654713
-5.203946861390703
8.064875543714603
1.096858739669955
4.466225075595314
6.692935579191853
-0.037076110841229436
-7.749950052458933
7.969953024454803
-3.901271062595689
5.510263297013393
4.030915558939021
6.572920779866783
3.7974700419519456
3.152559666125805
7.475226579981266
-3.9115580956375666
-8.600379133971225
5.897226511415966
1.8335243879972198
1.136393360457994
-7.546998956820099
3.6658468391033567
-4.696736957153398
-5.5619295175605865
1.9084046095965521
-5.208601138016782
-6.006495110065119
5.4809317143415885
-7.969693257566963
-3.9839594109353067
3.7502192752294565
-3.919667389660259
3.3901847258531297
9.199096217128432
3.039476517414305
-6.050866764107649
7.5756009109577
1.428137200701427
-2.454818187345066
-4.249793641886325
8.584993199814704
7.2128542781139915
-1.999865390762222
-7.198229217310019
-0.2555431683712799
7.354679759218396
-5.688175998678114
0.26102700787956606
5.686535474307339
-6.93302360344116
2.5102041963181
5.142696168092829
9.215679071923999
-2.6683316442372806
-0.08317049923501735
6.1924541105762465
-0.03743857007874418
-1.867402543216685
6.0137936462834185
-5.072992275308491
-3.7587916917645963
6.601404588384626
8.88857203662941
-3.235087003140051
-6.077635641239079
3.265970978019914
-8.946440132488416
-0.641105553420563
-3.6831664643031536
-3.711819005421688
-2.713858874103967
1.2389014966787248
-5.647857128414957
-1.7597562200529278
-4.593149657711942
6.157402806839104
-5.446949764834818
-6.615214944331358
-7.029745245256178
-5.697166307833783
7.254017218370076
1.8214303768983533
5.0223546047587035
0.7499642544266292
0.019339177241158377
4.876982122960248
-1.041472730696921
-3.573322549388809
-7.339007385457668
4.581598740422972
5.666914166756661
-8.975728135483545
3.6082893241456655
-0.022986085306649463
-3.7052979113337154
7.061858022118877
-1.8697262594092026
-3.484178681182338
3.9235496529662455
5.819167260590347
-6.708321513348373
-5.299587173338365
7.583609053988899
4.414955192402722
-8.637521952577744
-5.563973878439832
-7.866352956537435
2.6614228289651134
-6.205191772582488
0.9062341891025585
-1.004846159907605
-7.9703846549176305
-5.290095995179715
3.238015629492788
-7.273664788222142
-6.645357208505381
6.163494226907397
-7.408390340644835
1.8527386010796993
8.973316596657362
-8.094257204937882
-7.454926615040028
3.960176223755561
1.422105155061525
-4.65941012307042
-6.643170292858484
-5.356969896694936
6.745326115085919
-1.3460661641289253
-1.8751409583247933
-8.857792002357117
8.484379354405267
-2.427060903576734
-0.8181882720268523
7.511853150770581
-8.308620201166388
-6.551467739398303
4.5536433961908145
7.339689511022937
3.466764287436159
-4.991794058353335
-3.7195574205297968
0.8612995595549837
-3.6504709473170696
-4.316126335932128
-9.179349076169439
-5.9698685392758035
1.0838696088127668
-5.920781871583976
-5.3275425261604585
-9.19035967545438
-1.5892964626820945
-4.7736894600608
5.505104355039643
-5.883474869193036
-8.984490230505127
4.685290567410521
4.3550791156563475
0.4084992967405401
-7.293913562420114
-2.7673525067425357
0.6067600960967369
0.3931147650017748
-8.422856126678903
-8.419417354285208
3.6606878971296064
3.835616688424097
-2.6725964585179107
2.796225135055127
-4.00608168848624
5.373521676108739
2.098576251854008
-2.136666634633241
9.172318251749983
2.309809656528979
4.9678271969123955
2.51776632838802
9.193937275154681
-6.874913915012718
-3.161533705064974
8.463421436416276
2.6306566545269368
8.92519860312376
-7.632149108668872
-4.028724255256092
1.9223878627947628
-3.4402750094626993
1.689265369262634
-1.12796156583639
7.349520817244645
2.844177646899382
3.150360071217209
6.574356004060881
-5.7305041496156495
-4.556523086922626
1.7603407013102832
-3.3980383788518305
-7.958798055261543
-1.523580117935495
-3.3667953765606513
-0.9098569675438541
-1.8725614851904349
-3.9005967861436055
-2.1836592119708476
-2.870971162011054
7.803924037915168
1.8218447490937182
-6.617442465627631
-0.2446090183053566
-2.0244954330043474
8.059894318225691
8.246389033152091
-4.5555848574732964
-3.7169779473954376
5.818494771473528
4.128234560016368
-4.760036598661415
-0.557236766227418
6.786867132756884
2.7750473443515244
0.3860768580989054
6.541062718353933
-8.470154863956656
3.190328278738871
6.381598825199932
1.8162714349246036
-4.892035827668321
3.639297313469305
0.9071597026997336
6.079501576785758
-8.108200013937646
-6.955678011876389
-1.505980762523946
-0.7088676706012887
4.226504543761217
-0.08823354891089008
2.735870926680555
-0.028145027280399214
4.827055729948812
-8.49555298825303
-0.9819057339506276
-2.281659227356829
-3.1431776302744807
2.436811798102766
-0.8752948904146514
7.856690485051957
6.143199430993454
-5.144294294734175
2.9539755292680585
9.196516743994072
-1.917718698799207
4.617171802268464
8.019511173686988
-7.193975109240594
3.235190210036831
-5.940971373130115
2.2781344744267895
-4.655750966400398
-2.720070197964977
6.468890114978567
-0.6917523692513184
7.3521002860840365
7.801372858817927
-7.517678495158905
6.130445737036627
2.891608160326371
8.200212593699996
3.4515184368490397
2.9088203422411176
3.9098071892528474
-0.8033753107327399
1.412829364860314
-8.201312755992674
-5.561394405305473
-2.9091577446188897
-8.006615741705968
-6.649102031016808
-8.918397570370004
-6.694854552994535
-6.279206919378872
1.016762725913233
-3.34012320399734
-6.553459972429452
-1.8657324670844142
6.599703423492469
-7.4058108675104775
6.809933817293211
-1.6947219697187519
-8.538167467667169
1.1671856949019928
-1.7298321736263356
3.113282890600282
1.6474486023174948
5.225434951655906
-4.636765089492182
-6.921793212907699
0.8349798230913985
-1.8622436012429353
-2.518559999294077
-7.962325334351167
-4.646612217223171
5.398885134559116
-2.4914447581343815
0.1472684636424958
6.53608180953675
8.556437389044175
-7.5060305094929705
8.918143933716335
-2.8107480668380442
-3.7066600634479387
7.200531562618025
-1.6504315666589184
-6.535677649578565
-2.96227566958347
2.473577621233817
-8.9069858000879
7.1667676816460455
-1.3247485290121295
-5.589335622260733
3.862083183598082
8.126435615835184
1.8265893188721032
-3.5099990408187924
-2.139368808911014
-0.868481352512384
3.674462677724673
6.025254548248839
-0.1909670826062622
5.274710061023193
-8.574678913672383
7.107323785457139
0.5835213516533537
4.480707721610775
-0.017827143332899704
6.209092516798341
4.172524963076201
-2.7575467848677775
-4.686698135007848
-7.456467141797548
9.201522727372891
5.905395937427455
-0.009120762314103633
9.024018672689376
-4.472539394169932
4.698812319903311
9.20683463223654
-0.5356819162446462
-1.1614943201118553
6.243870118474871
8.847730061112905
-1.0780993014862366
0.8237395561400118
9.058825297973929
5.925181859943091
0.16074904373094578
7.140645015542811
1.0530844256789016
7.362418174326503
9.183409645667455
5.15039945187536
4.3548046861194765
0.4865692569703186
3.886923082176929
-8.230514707590386
-8.757232899331362
-3.9560040624081805
2.077443930963183
2.084584265424558
-6.456475961062454
-5.551076521357974
-1.5271209534743944
4.661462205328297
-8.424743086228926
7.123307599983494
7.438600004896983
0.4855040098912538
7.79745355375534
7.24080962234615
-3.6726407350284958
-1.1939775665201704
8.34454021412772
-7.39549297926801
8.191970599847773
-7.473388092099071
8.132935555125231
-1.2378532084540597
-6.043121680854435
-8.568750253839143
8.428139430159602
-2.640376295710155
-1.7559458435012916
-6.250038312343456
8.562644816715224
1.8291687920064617
1.4471961710997518
5.639336698422424
-1.312391610946704
-6.150169086042857
0.3352461551619086
1.5002106443425602
-6.8651752830034765
3.29392632654704
7.827528596954862
5.363146097369286
4.916916918195847
-0.01524767019854118
-7.2804563406976985
-6.495513603299912
-3.201457047597065
3.9354141835241077
5.300268538825074
-7.554043619387837
-6.234489415189149
-6.587259591509266
-8.702520589522452
0.3070853472510336
-2.5926434685455084
5.518001712121501
0.45575712957503656
-6.984450849846976
2.465739253764083
-7.874591551467235
8.851945465840096
1.1619751023887699
-8.126547031517033
4.609554093245066
3.9941388181954203
-2.9714764803987275
-6.238371362769918
3.673585254211465
-8.271895386517382
-0.6725570778597595
0.5766738214086895
2.2109917180997294
-4.629776228501258
-7.892279161341627
-7.495861159407737
-5.271631829106207
5.910833709722625
-8.02753723051698
-6.020266764477382
-5.548497048223615
3.43007425844415
-6.0065763610478164
-8.868653344663247
-2.7013241637840357
1.748591611810054
2.1766817368400764
-4.342431794566297
0.6626707931509885
-2.9524359235307736
3.585647179195762
8.78074941500776
-7.392913510428619
-5.297578253353301
0.30531741523436673
7.689025292395943
7.384259101487961
6.713613991178252
-6.8775725268903205
-3.711745922457003
-9.218515124905316
-1.0357410362985362
-1.4704135709224906
1.2711890239714372
-1.8596641281085768
2.438635216919435
-0.18361983131269638
-5.090522479952458
-4.425746629208414
-8.181453155516277
1.8384461905913183
-5.603803538784887
1.9782985598490144
-6.785825702290214
-4.748975398572252
-2.3745388702529726
-3.7040805903135796
-6.2890172991729845
6.128273940674519
-6.979587912307852
5.6598366403585505
-3.216430771853112
-7.215808073139078
-4.973117666675592
-7.902887362502257
-4.869130810763011
8.641707929314014
3.8263939224382018
9.201675685967821
7.996671729332848
1.7278387389308207
7.131690648228414
-8.396494558771137
-8.144826584726962
-2.5586159106425352
-3.5548921528019
0.6347154446238625
-1.279660579264499
-2.4186044715940875
0.1806660282137915
7.357259228057787
-0.730980786759569
8.039732515213004
5.242625215873019
1.6890887065008608
-3.179804201063796
6.83387389933662
-2.9242062763976384
9.20027360027711
0.6370343079677379
-7.47466522171234
-7.328894358527563
-5.556235463331723
7.0052326878081335
7.550795268665941
-7.536922560770352
8.325827049514038
0.3718727259512244
-2.8968514568912935
-4.816263897020489
1.9503432113218886
-5.113050353728974
7.693517020052482
7.472121820957578
-7.400651925536728
-1.7224198282842846
-4.584055028761428
9.020756084878773
-0.03533375462854972
5.336895109614391
6.495638353087862
-4.185578020616227
-7.930842711029385
-3.196355466496737
2.637456274229198
7.690226419250114
1.824009850032712
-8.467194257032304
8.5286697574651
-0.42457108978309643
-4.947649636512315
-6.731481128078817
-1.8821448181450193
-1.0321486600697538
-1.9965400844772212
6.387118973959417
-4.196103389767611
4.044498520730737
-0.020406612172290933
1.251897300584829
-3.606180544257236
-2.313636517843523
5.137933628759682
-1.7664587444156512
7.510344991834136
-0.4014627879604591
6.569018066881059
8.303813865486621
9.194579933823688
-3.465061861715651
5.512842765852783
8.988110775152531
-4.095117786509332
3.3535597792226577
-6.672072097641726
1.785218178304402
-2.2203803643937774
-2.2935204042883433
-0.6809123220741631
2.5537291994949425
5.91601810187896
-7.110789760235029
3.668426312237715
0.2604582590601138
2.216775985477884
1.4644943468672644
3.4135111719252387
6.750240561967567
7.172109445585377
-1.6628345364740158
7.884645833579084
4.47042408672718
0.8599573560556739
-6.8926851619424925
-5.553655990197365
-6.484316173982874
-3.11724330200514
-7.980832823499639
-1.4988047142534935
-5.318135671430673
-1.2056737213525361
1.4905948326623926
-4.62779562216824
-4.392845546526219
-5.973602307941135
7.90833101754265
-7.398072452402369
3.2347753836342603
3.1946504742770427
8.576845817854519
8.58677855531347
-0.3531132877675061
8.186816088626617
2.12128070047672
3.9377625377799736
-2.4761506549990138
7.417081015650163
0.3987706265063272
-1.8648230700823265
-7.475755211212621
2.7057132320249466
-4.202701954493884
-3.2232271753829043
3.1985636392475145
-1.5439092676012942
0.22922308414883563
-3.3121678511752473
