-37933.72396551326
-69552.9926319629
-68892.97453546376
21936.244548905186
139703.44342127306
-114.43870565102688
13727.773638086237
-184260.20967969781
-48719.874158132574
-1350.933169028615
-1352.060847603336
0.031111017251022163
-10.368273896367986
34.27125397972514
6.996134983939614
4.532641123101569
10.284011292995846
-1.404113384352565
-9.935255353743253
-10.32405471467866
-3.293785130884654
-7.505696070248151
6.836552918745094
1.2902450096800377
-3.510590355199961
-0.8022372439737023
0.6962766495694639
7.860692657649496
9.363235382414153
3.693368959802156
-8.485186709362301
-4.020558974674557
6.242832309644381
-8.571883419367524
2.2399888190183264
0.3384929124333855
238.3497868634282
1163.0529231777116
361.07456456864077
-29.51666761910622
-40.84434666181513
-27.495881842733898
104.45254948865563
9806.733733226889
-75.1821700367553
11032.850094506719
6807.68296394314
-0.0020202020202020328
0.6630121388528721
-9.971910288688978
0.6052073910810711
-9.330057430346475
-0.08589320582652135
-0.24510117256983033
0.054465115968870804
-3.825168689657526
-7.148876046060384
9.251033299695955
6.88524460629848
-0.9709629813116476
-5.677059277747573
-11.897005569105252
-13.080910099250147
-0.22093898853988453
3.230231222342201
12.296592165270198
-0.30518091637844486
10.136476942874388
-2.1205940678851296
-8.516211517264601
-8.579216342841567
-0.001988525905256802
-0.10640954048884768
-1.2721252178493088
3.041697986894343
-8.022326592578663
9.847157901332693
2.6240004721534156
-7.478223529794035
-4.1113737452174215
5.438853492108006
0.729026621424385
-9.139601659502873
0.44282533145069375
495.0827790459254
-850.946791878928
-767.9550477558992
1884.8121630185933
-5960.524659903323
-5876.5477559969995
151.611786452865
-82.77221059958562
20.27324319401853
-84.4213494315226
-18.84992028794911
-19265.287350084465
2.4244748509997534
0.21721789939621464
-2.7518238688407832
-6.2137892243029
-8.534672231690237
-0.5060191768906077
2.5268627782510356
-11.42906568733029
0.8233972697706887
-5.368233120398964
2.5369756113618043
-0.1829761089086579
1.8185204161393802
1.7157297129534714
-5.864734741246082
0.807577302191737
8.06953163561339
-3.6314909657861127
-9.477187049713212
3.2099246975955293
6.371633013963913
-10.223394870010067
-4.93304539974629
0.15273210526917058
-0.13444906882771454
3.6082442515575304
3.082054145473197
3.81369833939715
-4.340202713289871
1.2525840883613764
4.422277177507756
-1.4895378749107044
-3.1510133738331274
-8.761414230810626
-8.704222746889538
-0.056853226167612424
0.4241943804656861
3.426872206990773
8.297217058413674
2.6305464970240977
-7.111032058303641
-4.902616916360689
-7.0922430334123385
-2.683429352909651
5.761631891125103
-9.297098507229332
1.0183823498901923
0.16481585592774028
66.71339327357846
-14.056792369345475
18.763474160663886
4.019895983360716
-11.441021759319922
-7.800351792778966
12.910668190271217
-216.0071051297474
6.2481849550775745
-19.80549931623819
-12.15498950552834
-12.796900360071813
3439.351023638344
-9014.217950804259
-579.7549355085845
-65399.32009586767
-606793.7445490502
10985.960095138244
-1707.7218836919244
-943.9185124592758
3498.834869218873
5405.040810594364
513.1704712035901
-3077.713139241845
-223.1140382292161
191.71400767616183
94.77834982564698
85996.69290883794
87518.69514174508
83447.14948032072
20.6613257156121
-21551.046629917575
68209.63853039178
91369.33588400659
9972.745061957452
855.6111374861898
-884.0915389881277
463.13799272811065
452.6509010150573
-229.62522819735767
269.72102600192744
267.6746268367303
9039.255671533872
-4006.3417768709464
307526.9426308096
1537801.6205603718
320340.5582665821
17893.180585751365
1.685916612665864
-7.125529962888653
-9.489797344254647
-6.777209621387492
-1.289796601657934
-7.263223636428165
-0.011463268820843265
-9.152246723097882
-5.199901217696444
-6.899199442144987
-0.6416313769320905
-4.865348035268086
2.866699297681997
0.884678435922273
4.354365594704972
9.27488129041297
6.5806545591359535
4.2606404926657495
0.16602959912072576
-6.280079334849868
-4.577412617363197
0.29332607726995213
-10.059175859445933
-4.238855061743474
3.9941569429390387
11.332268464821079
4.988247808408056
-2.2686139510839967
9.951462425092274
-4.931362947991125
8.66662780906463
0.13245046874158026
4.5554022835489345
-1.7882635197465981
0.14753832191445534
0.4193037848248924
-0.46981461215405634
4.923424509421511
-2.1585175005632427
-1.2257303589534214
-2.3991025263175114
-6.353925978602696
0.04046345534310206
4.446531899068073
-6.732547662679143
4.795112640861736
6.861659026749313
0.01252511310485521
-404.56938236491555
233.21354168066523
254.43051443935104
-7225.986569493726
8181.658196632546
8180.683576859263
36.45209742820384
-30082.52024368067
63.35458747045781
-564.3337642812792
-388.73546002814334
-0.04000002977163188
0.8059054731446834
-9.860021180650595
7.66318508584375
4.882899012450798
2.6353504880554195
-8.275892129966293
-1.0075746096861544
-3.007588534090039
6.776321040790842
7.341998215728338
0.2075228841905501
-0.002030869328316361
1.1041083557225586
3.9533607724762567
5.973179126636989
5.131747742105315
6.467672382513435
-8.603163017419861
0.7062444625994398
-2.288966276740057
9.086582983383868
4.8992182391773476
-1.3187122904887882
7.27724805839296E-4
3.0952982479027105
-5.953596133020527
-3.313072239448918
0.4267739243410341
6.914963855819835
-2.87329872551528
-9.686149861455554
-2.878227151116779
-2.9717850543806565
5.781772399063454
9.443825953594365
-0.1554442259203107
117.11421575864601
569.5586894105011
492.7276145330732
-15.474457292173145
-39.859454192661275
-21.753028440950757
2.2568514153015773
-15995.687753413304
35.41137240235377
-389.9142466371102
-2.9979911352058224
2275.282257852101
3621.5136888827874
-4709.0728507371205
-4762.056969326445
-952.1993963092472
9378.293062704855
9368.680406746676
-20162.044098235438
-109024.14580880257
-204787.12976773948
-253303.1192589006
-247158.21566179444
-0.17170325038372983
-127.47610534629261
351.6129877379028
316.5477165492756
-3504591.580436451
-3724040.4920174335
-3724043.5982210706
-4991.710317696902
-25100.76385507072
-117.14253714764499
-552.8677798550841
-546.1050936313239
-574.0352423149182
-2.1662474834316834
8.031535531147686
0.5638566946731037
-2.4108224455040945
-9.987117620802355
0.10819663639065925
2.0989391031104754
-7.290894470206491
2.7624946832188733
5.4864086858284375
8.865993417699743
0.352478203870962
-56.6919331271335
19.421288898305765
4.6543559366750635
25.077059346881832
6.800778228658822
0.35485852634903414
-8.860661272626782
-25.4565403393928
-22.0493210210964
32.750506432489026
22.039690793765562
-0.008810941939465201
0.04838810027506545
-1.8549727732555854
-5.4088199674182995
6.435727373453305
-9.77546215462944
-3.8345762780947705
4.749941344976664
-3.8218476896805798
-8.051096330418357
1.3698604604932783
-7.525069900281652
-0.020526767275886742
-0.19086290496208738
-9.351102911629761
0.05336427427716114
0.40041117889006683
11.430689688950947
2.122880798078533
-0.27135083197911847
0.24070467826500697
2.581542800678443
4.739930757550305
5.841711639260255
1.520576012197688
5.059788542995908
9.574805379766884
4.138259690559943
10.413637376615835
1.9762618373696825
-2.1402551673624153
2.8695860907202704
-6.339079203612478
7.37780855216773
-0.46246228895796254
-2.618201805701042
-0.009345828049875894
0.011260504750208511
-9.017680245693501
-6.612439709398846
-7.013262528727832
4.133907167936595
11.663947781648893
1.4169451669805917
8.505906712800956
-2.263263823100952
-8.71275040183587
8.033621544357095
-0.016009746898868533
4.81800099947581
4.049660098647843
7.951232373945279
3.2727934764300226
-6.632185230380581
7.412933187312759
6.677540631747442
7.062497553744611
-8.846367985521422
-1.100904987727175
5.294326333435148
-1.03474574447009
-227.29944836298708
562.6189074939555
567.274438321711
-12.967934940972201
52.52248551353623
28.126687747729047
-201.28396204658557
-140.65252895668
18.89551395902425
-216.33096849413857
-38.88195373753056
-19.278945686235076
-2.9014977354478306
-4.9461006104530645
-1.0261656185322818
-4.356071778282545
0.7974910486960367
9.057723641465243
0.08726865225827632
-4.821538283642422
5.873883416900732
-6.141013294622308
-4.788164880393204
-7.5801303757811995
-8.783972302909694
10.901975294177197
1.9992081431431679
5.405289323638711
0.1175755738934964
-1.3132413085933274
-2.17451755895961
-3.928684164275463
-8.270070290807384
7.9211094704445255
6.466960425126267
-0.0013991561963163355
4.889323058643798
7.012722997779434
6.678645414435307
-0.018621314605810842
5.178886891421658
-9.796914589142325
0.4496396837264919
1.2883180410268475
-0.08255038238145455
-4.236702339603533
-8.645876619163419
4.166291680452169
0.6254581858272151
-9.025005239760608
8.205107815488837
3.3820794791481417
-9.973907517668973
-5.142642275475862
-0.20810332885870786
-0.15072086424400774
-3.171823057827663
-4.25266911883575
-0.1096476606979959
0.43889708871876976
2.993837652484461
5.566457861355747
-10.06202776952713
8.164156319442078
5.320852509934279
-6.322162503394726
-1.5190770502862867
-17.307888445176125
-3.09227398045948
9.012422112490889
7.608117208960608
0.4685985671273847
0.41795219707340386
-8.960741772047639
3.837340574267452
-5.692897564132442
10.127539431401352
-1.6229277861543014
-0.511182346048251
5.8074313975738265
-9.499941987317563
7.386109292751717
7.999938646094417
0.3383612913968133
-21.411448079955907
20.381052247703952
-0.3871946388482777
-14.244281207861018
90.45780102364661
2.5035441832027967
-74.37038770788423
-6.02826179930557
27.977838376499875
-218.29331082859215
-9.847736100285708
5.021727555505825
2.2301670217511917
2.168106483469905
-6.534179042922973
1.9049954004008898
-0.9009627629897561
-5.6594881510808355
-0.050617662044130256
-6.46297121190579
-6.6802656736118715
9.768526450673116
-6.538226189372142
5.729091743287477
-6.512049241216539
-18.715729056340336
-5.918030312822074
8.59984763917357
-12.220129150813483
4.104810048876027
8.613619087453316
-4.985484887256471
-1.3978748899931834
6.939518175732095
-10.879517171326711
-0.8356164562042802
-5.937008582861673
-1.910139429302701
-7.7921839012016365
-8.956299964197193
-6.815795698157508
-0.6782358362856183
3.1597073569957157
-0.9540656048035833
0.2860707981839459
1.3222194531119933
7.45507302477623
1.7432382284545833
34.311894115463744
-450.74370497946285
-225.72379608057258
128.381250072359
19.250666960766562
7.009142395873023
15.547879138373771
-311.9046356954771
-13.648468385068645
-32.41765326312168
-28.658601535866374
263.14947378846267
6.2511104748763096
-1.511949601090308
-9.338198972833139
3.954179928522755
-0.29361545258764044
-6.871268886229477
-7.253284911835231
9.036166176845216
-1.1770378923494815
9.57938729685045
3.8784986086487345
1.4421284518825401
-0.8883771919286099
-2.095277212136766
-9.482654221113233
-0.28519506458708904
1.3947772307317157
-0.7581321289342435
1.0215154084910258
6.860176164025624
-0.33207121096870346
2.6504601600871536
-3.746638767183946
-1.7026758763308352
17.514397915590994
25.759396501485462
25.99122540093063
-1.842229547287696
-9.89857275859864
8.861502487701365
18.803134525056795
-25.45849202375755
-5.457462944178616
-8.53925533338074
7.657462327386456
2.0796350988569876
-5.225626920731264
17.104388369123946
9.367382102259176
-0.2995330226344124
6.298694779878396
-5.430665615005249
-2.522199089909033
6.620875018986255
-2.0225617045883046
-9.359137249524489
-7.6206431926581395
2.9247716433313493
2.5133457072302865
5.789086722344545
9.019446900995593
-8.185783444735396
6.628805274553164
-2.5060924075186146
2.100730031475939
12.744091137694452
-1.6473624428313105
-6.645665611387272
-5.050720412890787
-1.4097966605864183
-0.7011411985902782
-5.128389849420536
2.0888913067078634
-1.3292743191635343
-5.915549862957514
2.645299313127042
5.367859198502846
11.642928101777366
-0.6282204046573604
4.300778767238155
3.723386779986755
-0.6125433156157929
0.14050104751471612
2.6638295880805396
3.167645245432762
-7.1512402809171425
-8.339678359330113
-5.820104420549903
1.5646500422229441
9.358578850362571
-9.786233572978167
6.35365329660485
7.315809452296958
-0.006303400240971601
4.972920812458167
7.031797074489695
-7.009057930174368
6.973155087350514
4.588140525622943
3.911565404200357
0.14674781659078806
-11.122613701638043
6.574021388561367
2.1826592083158642
1.8454154379646233
-0.030127523029988706
-2.3776569851686684
1.319417473111742
11.625572071724733
-5.519779889182298
-6.972148349367813
5.0086936049344235
-5.5797385691444115
2.221703503412663
-2.6875571144516877
-5.758356100729069
-8.652068989095254
0.1609505475049259
-0.41528539161092687
9.54477149042375
7.498647063243531
-4.1720191646121485
2.5159559119793267
3.352888470444105
-5.516417828179029
-3.6356946772815526
7.697836787049003
-8.348768196342531
-8.600080241144186
0.19923038179509933
-1.1160699701771053
5.716609687419812
2.427529335904374
0.3550831941219027
-16.947415384524724
-6.768347132832006
-0.005697053069259875
5.8246580688456735
-8.744449031242517
-7.46657183043593
0.3970745479794955
-0.028509114462348033
-23.221748549492602
-4.834540272951812
-3.9043503470361216
11.464579504189354
-9.051646672429634
-33.51356884216703
-55.14072473181523
38.12793340841002
-15.58413602203012
122.68055439721088
72.74627925639032
0.009998571060798975
0.3819057098703214
3.5491794898411575
8.05429816639778
2.688883607695143
1.765724809084511
-3.161787875520594
5.813100583565236
-4.669575896025512
1.9057356635577654
-7.777983131666752
5.5216610677629285
-0.39688466059973976
-7.404965253164546
0.8062801566503937
-9.869343731337377
6.079485971738315
-7.20071618400128
-3.7895958586686196
3.5974597033938682
-13.767699103691506
-2.427932248574912
4.845862169312427
-2.700199667385502
1.6226688230113255
557.8810647502343
423.4745299677432
262.1628469167074
-15.49436593538213
-798.425665422982
-173.22909525772442
-1259.0351428306983
1797.7740670960516
1381.3451048471748
-1372.3911505642357
-1142.9618701867619
0.002020202020202059
10.132317500075676
8.390458602590925
3.7403881124118694
0.7957764391724726
-6.879012461176169
11.220963743847934
3.5910185284322145
-4.550452435449253
11.173910473996223
-13.697132539285539
-8.848421601129695
-2.6434334069116936
-2.6129912370778996
-2.646874507489035
7.407409505924322
-1.1127127243859456
-9.40686758241376
-9.634601587020718
-0.020422295025231855
-9.93440732261088
2.533825805705845
-6.366460096059515
-2.6696495847678055
6.421837242138273
3.2011110901848903
2.207138032931393
9.701393293738237
-7.766654986451619
8.375669364000013
-1.561320514271015
5.076852812390961
8.731927164062505
-7.902701103997194
-5.75449981969474
-1.2602622446615235
0.04730163404526329
-117.51782648118211
165.09737938969235
81.55890198716924
-11.329405378529122
15.934731659766136
8.019538004931405
264.2413663635849
-142292.77823971494
-5.706431929791686
-96.19624371479155
-272.20510229602115
-0.03999994068624268
-4.109914242885626
5.741109325725837
4.686619605375344
-3.0712494962183565
-8.182522102549399
8.058265464068116
0.08273006632569388
-4.507265873422851
5.437586160484053
-3.9758404446154056
8.27869856084807
-7.392404589870213
-139.14731850429953
216.37669653437487
161.88249762076512
-6.3557095363836345
26.539712267965836
15.66350862705718
425.970637113124
-395.93359558188547
26497.212004439556
43987.585451430605
2150.972777053875
15940.19445868389
13431.955658285504
9950.509012587825
2855.4356071600746
-4557.429758706422
2904.1953830919797
2801.2940668848228
1945.5957176508039
488.5095094811225
-2819.0662076452118
-3010.6385971657087
-248.85622839203197
-2.9530290565363013
0.4574954201023643
-9.422353909619053
-7.692326515102765
-7.900425110928931
-5.856194393625483
-3.991989817027452
-0.05346249052754596
4.065930998188771
-1.6767250991356566
3.2158238028896933
-7.015848100077885
1.2764328581040127
-3.277915214368325
13.794323884873734
2.7029165942392113
5.647801425278072
-7.76585086915721
-2.1045171529382793
-4.594541152009349
3.4342249334776267
5.816194772011284
3.4913231867599444
8.125308092274619
0.18301068216379096
3.8912925524961333
-10.824165378078625
-11.178065012134605
2.6716231487376723
0.27464039537991136
9.372671242024907
20.0023408437714
-17.533503090053962
10.074271590138782
1.1905724906320754
-4.712737366537653
-0.1058460690025881
65.76964773559695
-24.216887521442718
19.727016863998173
-2.1177838729995613
-13.491526710109735
-17.18279521838434
-6.579131098555787
-5.678108704232108
-26.82291102772838
-24.41739028410981
-21.45608192526037
0.04658227515159188
-1.918142761600743E14
2.9759444317202714E21
9.213116664079549E12
-9.156720094479102E13
-6.361216063172591E13
-2.2282128322854156E13
3.2871623377757582E13
6.897425144941496E13
-1.7909230402266875E13
-1.1535849673230463E13
-9.619822399278637E12
-0.07699577536085307
-1.3669415961480493
-6.707954027609485
-8.747796833949584
-7.033181194373394
6.000810857576799
8.36807358629079
0.48735194839304385
3.8327124827594616
2.5847606359578714
-0.18467622527819097
8.365703064684599
-2.0578315063406527
0.10746953578374104
5.089812023886528
-4.196836130447177
-5.746269918558667
-4.833948348506955
-1.7305144816226437
-4.523148333799433E-4
-5.1385658821669855
-4.186290675752285
7.608978625602307
-0.8274633955451908
-6.796974273567756
2.0191821160715104
6.029201055800724
6.191279341720976
1.3004018780162778
0.8154849423264466
2.9076725509597643
5.069837869654232
0.11837416622725047
3.3438719130604717
-10.544428988742784
-9.89318911111921
-1.0414003913682826
-94.4670489530033
-91.26763910836539
-56.77011618886916
-40.402722450826545
-16.90444946683963
-0.41113061490878816
83.81608355638961
-198.0920785479311
4.242463438296797
20.05693877186599
26.775801670941515
-0.21172623444333666
-23.064476939185873
-93.86947006636603
-21.80447311257955
-2.242653536951424
-101.38773356408088
-120.73505788034497
418.11200807478946
3.6124460237505445
-5.054519804197405
10.406131861713147
3.012156234744297
-42.9357165929359
-217.4060839137822
338.9163954856944
200.4327474525437
-111.5813476104022
296.6954009731831
144.17091139722086
700.8339481521309
-687.5858455528021
-93.34406300061399
191.56079928106197
100.88817598013463
29809.767260334072
-592.1509640927618
554.9605127202477
517.3201359533599
-149.9472079913491
213.38178821027034
210.7379437991762
3403.7329833130993
-2171.675814151591
5734.7522460030705
9712.75554083138
9715.491064015963
20762.853803068472
-0.2506464207160641
-7.787295417747066
3.7907564621258953
-3.6556048091422553
4.255572794189158
0.09193348536205645
2.6767849647241757
5.29713873948747
7.408853475594295
-3.25708521359424
2.1425997174797082
-0.0013652807784929613
-1.0045942096336218
-7.0592298231396375
-2.196045058000786
-2.8003025784209474
-5.4374791994247245
-0.7434311824848661
-1.5860728419977788
-3.219852620743208
5.679201171546946
1.08782835009057
4.868472012160583
-0.05287691937564611
10.203031380034595
-5.591110257645203
-4.380768389939305
1.4658312489758676
2.5687212280662246
0.7588170771285503
-7.881723454691564
-10.610637013424824
8.935291640594105
8.544031667532014
3.8118240023797747
0.6246369214671994
346.78592286611564
-515.7570591845359
-291.39439787221306
-12.54567048954874
-145.41694666492373
-20.091107411323254
4.489461530552229
80.02003937826919
480.0666836349221
-533.2601525326046
-326.463750589794
-4039.0647604523415
-2.0796001178464585
-2.417336631109649
5.3330103856541315
-2.1524815108526045
-6.989377766945301
5.762986974133061
-6.905000648536876
-5.972231713561718
9.413574452496125
-8.451061947694479
-2.2041850800740947
-0.08196088090573153
2.9032021597657756
4.357076872027871
5.293380034322998
6.769620328636452
2.819240984781455
2.369708235971158
-0.06065219218093348
-2.4387447516767904
-6.338820569895777
5.0359402483833025
-0.4245043626364041
6.347589750715767
2.7768439901849025
-6.2518424968554305
-14.371302728186524
0.0974130370154922
-3.1242048142628103
6.34656728434325
-1.3110240773878403
6.636284381631009
0.4515429837905604
10.539097335566591
3.2770009007025824
2.035774129912443
2.5001470057688224
-11.141077830585989
-0.253683724263895
-7.589974024785973
6.05531809184368
0.6828253941129073
-0.1004211288723242
1.784294755205668
-2.070786613724006
1.8974049874788663
9.42552422610106
6.2917904109546425
1.2642613488910188
-3.381431013072429
-5.532570654932422
0.9840989799125408
0.1905094440265708
-9.48850091165746
-0.13241472856221587
2.689984748945997
-0.41969088576517066
5.512832722717106
4.804948115278815
5.336967691460615
-5.731343491656409
-15.996587087933047
-14.479223183229916
-5.962322822582024
5.495627202422526
-2.6667406263759204
4.605222814031933
-0.2922086970777
1.6700012316040334
7.200436095989813
8.458071470654087
0.48078615627465365
16625.662806629778
-37995.37687565686
-37806.8403933918
-30050.04134097643
-80659.51334741477
-22044.844660184834
216659.0711680877
-925792.4472650727
-11015.054966543317
-16816.950445934424
-9815.124927242941
-7595.324396791586
-1.9941153871369435
4.395227819105309
-2.523616090015495
3.7183358167963223
-3.7972642106691668
-9.684624053019814
-0.7741890779493095
-9.81151957697161
2.5375525511564323
-9.405645100211387
-0.471196256672775
-0.31006885694856906
-3.2430357240158396
-2.14293355045059
1.6791540993853795
1.9383419322196638
-6.823324859069298
6.249229168119322
7.166492972060965
-9.403101647109237
0.3590369419818549
1.391585859660659
-4.429108326238668
0.519795872456398
154.0435383750681
-249.63122034120434
-253.26528864191897
-25.6758756058953
-40.96715664152511
4.6551997183298255
7.955698573832916
-195.4189228772701
-4.378817359468076
-27.46609293866688
6.433271953778268
-26.893910877534275
-6703.738243411447
35924.839363404186
35945.74495863077
-88.34192858035452
-425.30508104390407
-393.6485560045286
42.85060445622834
-18006.474268438447
-16532.78589267186
-40.557854965265605
-51.49173714150989
-0.018867925696296868
-0.019595743388581516
-3.5845086626947253
-2.3410690864499233
-0.6447837027783656
-0.8192174547567357
1.3604541296574792
-8.501827700019819
2.5708942522876725
3.524429256294264
7.713968112505098
8.70202849636375
0.5852969452661008
9084.669667054877
-19075.77944423983
-18806.94330829888
5673.578215370015
52956.346148316006
39436.04149303965
247.86327047019043
-115074.96273823113
-9489.65193407797
-4312.759305770133
-437.16248368461635
0.03999999978642915
-1.0230628108722766
-4.8663591911683985
-7.6823478061858665
8.715664320452207
2.6688582117481063
-2.9625558518470925
0.6698814933153048
2.6509656260434022
0.33954679601922
5.189988677429301
-9.911387711471873
-1.5823846123104055
-1.8674917038898227
-2.2382703628344416
8.59969657750125
9.223817662431326
7.275280331041403
-8.230042706254437
-4.067086515013868
-3.3781774722017786
5.131249683422131
-6.853962092697458
2.8465975229706233
0.6210857323372206
-13679.934797654203
-75714.65477606122
-75660.27573501473
-168.77132993377515
-381.6638191483723
-375.83552919284534
4030.4036121641457
-68681.10432002776
-23.499246975522034
-28.74028879482661
-29.69198838241383
-0.040000000000003665
1.9439775955649337
1.726356752604724
-6.362468594075393
-2.3778796164196185
0.4772186287111504
-5.427124047168607
-6.248538168785975
-16.128116350076677
-4.434376507772492
-0.4907115307215553
4.370941107332706
-0.10532853712860843
NaN
NaN
NaN
NaN
NaN
NaN
NaN
NaN
NaN
NaN
NaN
NaN
4.098783807642934
-11.763345904899424
-5.142319264748197
-7.321880858818288
-9.938463953587165
3.1738307510658736
-7.820435098524359
0.6332484043757415
4.485951745045494
7.689555678351782
-4.769302726487161
0.5581170249432952
1.0538035768090162
-7.572479986132734
-4.556111897571123
-4.099580950071198
-3.069288195677607
-6.883947637169447
0.0011631638028544696
-7.115948566852462
-6.144558384230308
-8.770524014864755
3.5767548513979275
-6.857654441417501
-3.427365927578427
7.533602981691616
-11.79032862784203
10.961626979295511
-1.5672347283861288
7.05446567763856
-5.790703295571687
4.012441078620673
-8.341829067034912
7.554919669018878
5.707962066455065
0.14890226489322786
-0.7719731863965938
6.863744103864117
-4.024434704760804
-6.088821718353859
-7.590511081567914
-3.2413115952157585
-6.9725150975966175
4.9256463974706985
1.895921444672065
0.8396567667149607
4.048015535266305
0.23911801934785284
-481.5952745781195
203.7423701390684
184.53172850128124
580.8773100743183
287.1465624718151
230.49884651199278
-669.7857014850103
-1854.798580925071
-14.309076607240101
-276.1801237437332
-21.36002863846902
-0.6516623603569454
-2.9889111707616114
-4.821293151780679
-0.3774277718319502
-5.954050895802195
8.089019180618847
2.419675790659708
11.224766873389854
10.941997410316601
7.451805103919818
2.0399445678635986
-0.8968384104350487
0.07865378788664766
36.77328144588731
632.7038625350656
643.69129349582
9.630621436929156
-25.286818405859012
-25.15547304923091
-1340.4312272940983
-4614.416200978088
-148.20572595057334
592.866012726486
336.7180020985798
78.01991075184641
8.431150591353138
-2.5527021081124683
-6.168221838232508
3.4274811102524514
35.53999928725492
2.6636225965551743
-2.1620967312636483
-0.8483063951878466
-0.6302160057266931
5.028533565836955
-1.7542750513958725
-1.364183785340731
-1.7200810998246236
-0.9411297447530924
-1.4563895622591534
1.9967915170965416
7.145399523488226
1.9839971682777484
2.0086296578198928
0.4051577299163407
-3.1475255364968686
2.165584685275797
-2.4359466483321635
-0.31784435393976035
1.6962851593571404
-11.784749229598056
-10.62124863341939
-2.319269113978891
8.60684522117352
7.389954988173486
14.949708233883912
0.6055350673140493
-7.102908974944818
-7.648353731562219
-3.9958052735952614
-0.029806144239552905
0.5350683773933502
-10.258702563883682
-7.865031341914324
8.857224654962067
-0.7311106637262471
8.11976729476525
7.870071624511892
-0.5381369863360418
-8.211988631741516
7.830986227790706
9.63024594830046
-0.2599234865032095
-1.0732948852551654
9.473192914882468
2.372941477546688
-9.156717348830611
-8.465673154931938
7.128937059591837
5.2115269986056285
-10.275618271586257
-7.547582418552082
-3.572007694604658
2.61158919028267
-0.1581930318902153
0.5135426528136682
-0.18886269809042816
-2.6482064428636396
0.07423031147362259
-9.625762072189486
4.636629547152576
-1.0400928236437221
-3.192363570754445
5.300363083962856
0.119885323830673
-3.312714541129583
-0.012855411733696292
0.27509679330976344
-5.14904914350963
-3.542991419321128
-9.369590590933594
1.1952742234855827
8.722518600779239
0.14328114489751045
-1.4459885859059136
7.356380987021606
0.922051657148509
-4.375299344218813
-1.5511143227500714
-4.112134843090799
8.70197871846866
5.112917839563266
3.6599320671354874
-7.042538177228149
-6.396600128721946
-7.648577770315556
-8.94189344533155
-5.4680480879500735
-6.459057673587954
-7.04631187603506
0.35260029183077646
1.4437492654544735
5.229234245193878
-5.526268256614006
5.945580434805722
-0.0531428149750698
7.523093894615766
5.394959884603495
-4.28411873297888
-5.832669003023392
0.20579733376984052
-6.706242732782944
-0.40696600379294534
4.923330365482408E26
-4.562408527313768E34
-2.350951371088872E34
490137.61478178855
860302.4459412822
398508.5472568444
9.570696711205829E34
-4.57012649673783E42
1.3665753935612204E25
-1.2663938362767095E33
-6.525567160216898E32
3.3338133800170314E30
-4.590147336011862
1.488483851909755
4.797840697056362
10.098551687025088
-0.7729193096030678
-9.888591342644075
6.44888672642746
-2.9219610383343415
-3.7579984385826175
-5.308921977193786
4.199499430553856
-0.05539372277847881
-0.6946035596506848
-2.1226051098478904
-1.547299533203949
5.8015079634771025
0.4658656052669597
-4.88721197972772
4.191543144589624
-8.741877279016826
-1.9333112804497699
9.932505605349219
6.475415176835004
-0.015069076846972182
0.6819237475737205
-1.202925699153716
10.086320459681701
-8.361138140594754
8.325168583425347
-5.8820974366735905
-5.287281155741851
4.442671557549202
8.126612250715043
-9.120364167166244
1.6881168993584925
0.2654023854505396
-422.40656535828117
-1108.406317926849
-950.9568097512202
-224915.81406541556
8103.225265673379
4584.676757665641
-123.78398527229274
-230.59697626242465
5552278.583427461
-9615125.586615639
-7834170.516689151
-25912.410337421046
5.809151879110991
-2.0080561526346807
-9.159211928191358
0.2583813922124537
3.0843556823082063
1.238194455796859
-6.701423850865196
-3.4410604740294346
-2.5410145449007477
3.8669202311069353
6.316630330926605
-0.4633580537011722
29.74410657568158
-30.445627915172434
-9.122225564348645
-17.097760251333003
25.01989253811576
10.145630847258676
75.37437183995142
-30.914595985592463
-13.923070411965561
29.045996049988933
12.924151277592648
-0.0020278377374806297
-961668.3082674276
-3058112.735679885
-50425.54473619654
-376.1243600938426
-297.870107519509
93.91100273083778
-4940.949356546642
-117054.12828075713
96.75152888877281
1572.3633412499205
132.03068671566893
0.028571428563869756
-0.1329520720526152
-1.9895261707550267
-4.675040828337464
-3.237664475564947
-7.3232422998471005
-2.604317009719914
1.598487615363253
-2.54043524628409
-1.1624979823224992
-4.868327175353306
-5.578158818037711
0.001010158654520014
1.1327350719600708
1.7660287312991394
0.9819556829381034
-0.1588222734743226
-4.36410327788143
6.877803994166723
8.879821108976628
0.9913607283956324
-7.343406049561032
-11.765889600299282
-4.053477485227657
-0.08929477024847333
-1.0265961322355177E8
-2.6354505455810192E8
-2.635450487278804E8
151.47476430409503
1135.0736294124015
1082.1658792286744
-8.228373159257329E8
-2.1944823952810764E9
127.56893108583238
391.973810836427
363.66090164969324
0.002247197612217789
651.8012494786442
-718.3649172879145
-486.2838550685796
152.76515022434856
-642.8746230232479
-283.0169484780208
596.6364841487552
-531.311688114408
-2620571.904636862
-3131340.6475481545
-2449327.0502999253
-12818.672774266684
0.22081008283729386
10.907548109645509
2.143246716520218
-11.025882354078208
6.360689859181048
-9.33290526873705
8.405985386991544
-7.701062290006545
5.228920414823624
-6.428855899953927
3.3615208300860226
-0.6955898461471924
-3.4036586918969935
1.1124565182750863
-4.282815953960566
4.884438762373445
-8.919623297980499
-9.984183869022537
3.8215914681602805
-0.8684706304284974
-1.0645224905649877
4.281958866667858
6.9815458924846014
-0.5007946788476056
-4.369644902819024
-7.460255555544738
2.4792637908697808
5.46577289635698
-12.949165166698945
0.23798388671543602
5.067891912002832
6.064573435794323
-4.286939530301368
10.627266125198563
6.824547675243249
-1.2385078001386125
33.479596106089836
-1.5355126478305294
1.787976181504955
3.50092781427275
9.216612546608456
-8.763186897637132
-31.872762316125993
-14.963069723335723
-2.996749791820087
599.777323860765
415.06685493146995
71.61194102789511
-1410839.6908335898
-3083300.2372697815
-220.76204093881677
117.31401562265803
257.0563625828775
240.5895407377124
368.0062732173808
50.44440191513706
-89.25442668949592
-380.3439873455724
-708.785564750116
-0.025232230289638526
0.43877567143053203
4.458649917856357
1.0020179001235452
-4.9973783840359465
-3.811011362167008
-1.8603331438937207
1.1503045571780244
5.328792576280044
4.771136435878316
-5.995529322610097
6.7444076126601775
-0.38843771270949035
0.3196184209590444
6.439123805993078
2.1632933993847194
6.212559870275887
9.28402068116272
0.13136505159269485
-6.271534432119985
-3.1206594330345747
2.064612312272395
5.109629084444017
0.3975854218696372
0.0075456376036829
141637.75350129342
-56612.92515358791
-889.6262611033013
11065.513730142377
-6266.592917125327
-1268.0082198692917
25942.718792743934
-292216.2445363599
23998.43393424928
-115950.5338835965
-35242.37377796204
104273.9719453926
1.1984092518091773
2.5573613920051677
-0.05682856547893676
4.208241417799806
-9.846205357144749
2.0640338528332127
3.9547874486103587
3.9369649291018933
7.198901059265276
0.4443620416344491
3.559108832775541
-0.2175877807053404
-2.69274094973153
-3.2942572954536766
3.9178963625504353
0.09816747175360588
4.696560505988516
2.484913078721503
-9.720648568291626
-3.6414836346797133
7.082493766111338
-9.576937563677676
-4.6930215328912475
0.36031975150214507
0.7046475337238207
5.775740942866179
7.268109852331155
4.066089524366915
-7.128892955950714
-5.353855705739577
8.800500240021039
3.6748260685848773
10.182209699884115
0.8582648760222659
3.0435790207956464
-0.18466691678301353
-3.8280601336064324
6.666861662565683
1.0937039379316023
-6.630769988637258
-1.5778748629338817
1.8264983356596556
-2.4536559021917896
-2.0135939947208654
5.862466928363551
-6.126125699674691
8.051796399120711
-0.19911167844913638
-1.2989329806912573
11.30078080206979
1.5925781653143563
-9.088567104160386
4.058642726528532
6.495037396176201
-6.499144313903497
-5.358435269539528
4.723642457539872
-6.214161879753524
-3.703980228716008
0.15367115057017575
-3.325665776022911
-2.5906662248227557
6.36949451737767
6.962903601028001
7.467633691645277
6.840015927393077
-8.45292318559964
-14.743065175956994
-9.454657663182275
6.411311738326756
-4.545787682253572
0.06062501076185035
0.2561009666049053
1.091900036233942
8.715204372084969
-6.33969066225402
8.073171374918509
-4.126512954321275
6.886986642403533
-7.983311867522498
-6.766234560462362
-8.346665335182367
7.183067648999158
-0.32726447766536737
3.2916699580007656
-0.3125846812751588
8.138137781456935
-5.3231757508031325
-10.260877752615443
5.924941110206702
-9.511568472757205
-1.7790626670111784
-6.557525837247215
6.261508241036589
8.401538511763752
0.14349898248546744
105.56343884353302
116.0048552685886
72.77088450580295
92.49508774000208
134.7738691473444
123.16894502960568
-149.13944997056862
-68.60742010759961
-16386.402567314584
81804.26430664264
77815.47672061443
-3265.7506021663894
-163.10872346506767
-562.0596201643516
-555.242660103141
-14.069290895366972
-41.55574504812463
-31.493376182905617
150.09806011000376
-90.58684963173744
4866.773046076753
-22770.66352466666
-2175.4361339674065
-0.015384615384614454
-187.64008462335792
267.21987787072425
171.73546569768462
3.6489428565986626
-50.54062527752364
-3.5031775391726607
46.40677307205716
441.2563623371663
12.654998151310155
-121.52712765820056
-355.6166616655488
-0.0022471910502289824
-2.781624282135652
12.699383257384305
-8.426993959057707
5.886045814721182
3.8895168424844373
6.2883844970448335
-8.015954419181341
0.4796116128787029
-0.2652185258443353
-7.601455245589478
0.24603137887593426
0.7621589359369925
-4.040045571731273
-5.2519386244511805
5.839040850094168
-5.917574580015274
0.20312891635154803
-7.186084813502274
0.23432399528425757
-9.078750785759823
8.898595405756025
-7.159065219661324
4.321058318795613
-2.536832845256106
2.482139781886387
5.754492076757283
8.505114946598793
3.693260132632003
2.1032642378890603
6.703988954666525
7.445995255019178
2.2210285678626973
-6.184696684411379
-9.38158438003786
-3.8917141797718937
-0.6299283265595261
-1230.1861705294095
-1452.2659950113807
-899.3391062936236
-8.326717162881607
-49.26500340726681
-58.3952879318254
-96.31921362895895
130.93074186477202
-131.12041714358034
-213.29526632395613
-184.46634199486962
-0.16195898533659453
-20.947303127239152
51.80096776129702
45.151371500356525
-1.5903992227639057
6.001624519649008
-10.957528749224878
7.659916998647655
-57.340364467283635
-3.7096199858294288
7.073620261383021
-3.0378723603416002
2.4787504163895964
-1.7488227417971967
3.0590267021468325
-14.339389007686306
1.5293151259204252
2.401651875819987
-11.168352646217253
1.1178756227442006
8.687139696600088
3.4263514055020883
5.501425314036497
7.9047932812772075
-1.5630062066558872
12.55966145213653
-2.4350861397418124
-2.819485205188192
8.091662766549067
-4.76101133154293
8.676356402699033
9.277921502370848
2.4047112261727817
-2.7711267665833224
-16.73525859629263
-1.1176417404682402
-1.4494770743520073
0.32977850367657807
-9.620129480177546
-0.5395478580092848
-7.579894501770025
7.576872944420045
4.268347926015334
2.780149736330642
8.088674014577505
-2.3671765680725345
-3.137372274367634
-7.720976712907688
-0.011736318491129667
1.907999826653013
0.5957170113194816
-6.489749517406919
-7.980347879998641
-7.261794685486832
8.178810845212466
-0.01429314124253147
-9.445521257842818
-3.188588748659951
-3.1824539284659163
7.500691206135873
-6.735234361155131
1.9442208561814165
-6.978200783725036
9.382210601403608
-2.334025226225554
7.343644160005412
-3.951570668451469
9.65340632934161
-9.163334792305353
1.733081865683854
-3.3906575852031966
-7.111254428351868
-0.21446459626560696
-9.318773563959265
-34.509497680904246
3.3890894118127157
0.14945238431311755
-7.26358631826973
-6.4314498115560745
8.43717674627925
-6.4912678664770675
-1.9839531340672196
7.977764730029927
-7.541524841881921
-1.3646731816888449
-1135.1346033960504
-1594.8541540244305
601.5978203495736
-2423.8785361200307
4703.347565572051
4535.24395907554
-3000.9038351126396
1369.173173796199
1385.5294994457263
-12645.666563628745
-15949.005062374685
-1368.224600892488
16.20058999006585
-2.064085418981513
-8.759230826154656
2.978244264244908
3.043173851420538
-7.2748803724505695
15.610515281393123
-12.635789687028215
7.18862058925901
10.183124978421942
-5.9327763775644184
-0.03952500909465912
-0.6136884821160601
-8.306692933280745
9.717438305652099
-1.421681871233381
4.972856655086147
1.7530354745256043
0.02630415749692824
-6.030783649151392
1.3837659211513524
-5.026602237387111
1.4870686875645298
-3.078590593019587
-7.628373646720381
5.113394157108747
2.897272434313585
-6.936180769019668
-2.1085566118448087
-6.3549762740398625
-1.4092880302511426
-4.651261707239598
-1.8801966838402466
-5.2216927037482
8.520434571414265
-1.3627048521582832
-0.8690781078144767
7.130792621892157
-11.573001626602894
7.988788095258702
6.985314593683594
1.2381514968656813
5.81041743976685
-3.9363059175000363
5.257983793025089
6.178167715521558
-4.930087457907852
-0.09790348580918744
119.4591937748824
215.97104918826594
207.0456268781744
1004.8090677764906
2783.8635435263877
2784.503886471671
-13.918630016786222
-0.4371173814381469
5.477460766156284
20.47421669523149
-5.115237255670291
-8664.508935313439
0.8531434976114558
-19.448372803440222
-14.108499367360261
-3.4986313066005956
0.3614873428442847
6.1902246620894825
6.510284963369072
15.278955997408712
-4.01063338449214
-8.149202650733631
-3.408796375902651
-0.00592556112494319
-1.8357659517912344
-7.286075391389529
12.120528319093223
-4.072197410393227
-6.355867253535007
7.202062841612344
-6.42348230492237
-0.6060103020995822
-2.6265116055319497
-5.581734481645725
-2.037188426347301
0.24573258015443197
-0.22654374570261876
1.268215265126562
7.554648337600768
-4.391842098619683
7.8675808423998275
3.843097912223832
-5.319906621134394
-7.432641412787993
-5.497381864141022
5.889108462639594
-3.262187107383409
-0.1052331006045952
-940138.1560570681
1368693.972015496
615984.911858332
4.679104992081905E7
-2.8069366498447366E7
-2.7843680163383864E7
569071.9919209164
-634247.1576431959
-2.2690880072011374E7
2.21674726544986E7
1.806045027550275E7
-0.19992343562422407
0.6570577025587252
1.6073140298544786
12.26184236440367
3.049397201949161
-0.6813682935651291
-5.836302230334077
-7.254473275475576
6.951840662316568
4.340052869669494
1.9326471763763238
11.55721505532654
0.20960325707740327
-205.33659577353328
-251.51651222140615
-276.1138866487066
986.8773494755682
-1126.3193348035138
-0.2638147637387389
20395.89009202801
-26906.922452845454
1037.7212652547153
1454.960031987794
721.8277338461501
-357.19303692234655
-0.7621213921403006
5.031437913660377
4.0493722345517
0.2703385740127405
-6.165928637998706
-5.611114452114414
-1.5561964819627934
9.722008681735195
1.897389969884117
3.1758618366335534
-2.882681580406461
0.010806144729248181
0.6656819850026064
-5.42844701115994
8.547776797308863
4.228291142337313
4.8642224275438455
4.892675498346195
5.605446504117111
9.709446378192794
-6.287880182521025
-0.7289038328039271
-9.718298558865868
-0.7182208707665295
-0.05396759204150141
8.785576493874444
-9.286509036706564
-0.5650572301222027
2.5747316926821697
6.733189697029415
5.3373714267687395
-3.63399862132184
8.258332326748992
-8.821611283974253
0.23330451372124172
-0.3265161732570386
-2.340380310986434
6.415761503895281
-11.386615135883234
-4.486998200474376
-9.873621777702446
3.1472968738998834
7.242381274382776
4.110711234312209
-1.0842297042715627
7.0241687737764655
5.072810690926452
-0.6179429345333773
-12.010675224162345
7.55777412217978
0.8312978016512094
-1.4190577051205822
-0.14970237334046083
-3.9946248294093833
-14.893332013346367
9.260871864255241
-1.5481254401331617
-2.694432424466792
-2.4150783757399243
-0.4283887747362733
1.777149508405996
-6.055315682328353
-2.280891270133225
-7.401887325840795
-4.403331457307011
4.847552434441635
-2.9011703362340517
-3.581635158202537
-5.838500464115978
5.44682236004673
-8.219667357615615
0.678675788874052
3.17974712657675
3.6679192887145597
-0.2766752888757813
3.8335511737303207
-3.336258270562349
-7.828464763131202
0.08084212245009012
-0.4453678767484804
-4.657170031723033
6.68369403852071
-1.2903029526652656
-6.268389270001005
-1.483134947688312
5.564720381093144
5.192001770781125
2.560028050028673
4.591388396289256
-5.352592833866
-7.792565737067747
-3.720735123359543
-3.3836179827851764
-8.18951112327515
1.63658161696483
0.4962821055781447
447.57310674193224
785.0818486424631
724.2982056709923
16.864931358544144
119.50979336067671
65.39357549527877
-140.96597242192394
-159.79522742357656
-2216083.3835923634
3554542.7162219374
2888835.284526479
14833.363193775138
-5.877978143983957
12.95794475887057
14.696637746553321
-7.071797792873902
-5.859450308127479
2.2083438459473728
-7.630080298657573
-0.7845050157702743
2.4529602297552087
-4.641526830047463
1.4538681574281047
-0.3984696627109962
0.5249455556097594
-0.8505519038475978
-9.92127496347962
-9.820220231306852
4.836949778445227
1.1319180830819386
-4.513588423279946
1.3952850849454395
9.135302815497646
4.956818155648505
-5.7347903903216935
0.20323720953749386
-0.248545598764597
9.917556207285202
0.8670496021684717
5.58539563868458
-9.56092314746762
2.369026796982562
-7.621478457470157
9.117451342521072
3.079689296780309
-1.602959826497947
3.0860100215547095
0.37609296082782107
5.736516643182807
1.9441431312056439
-5.0517265697824225
3.1752559822918185
-8.636566028163488
-9.630129094428735
-2.303900674039892
-4.979397480071084
0.2590362926027865
7.073993258857076
10.50132228778183
2.2666567014654344
2.150748812328599
-1.6907715231266032
-2.4635952265444554
4.105453899032295
7.912237793598598
-8.734814146524487
-1.426849779712797
7.330914348469705
-5.93737531186689
3.4694253613132715
-9.954847501666379
1.2731016528786547
-251.68934256918837
-604.1049660534202
-289.8864298456285
-178.8778358317811
-568.5610092527885
-485.03584227954406
-36.66464404492748
-42.16670515738815
-26.99993732796719
-53.20238922000037
-23.042890427061465
-26553.97448181462
0.7099467165758553
6.4076367065780575
9.230677742710716
8.377943274575205
-1.4488617666698007
-9.395295337717751
-0.7381177444245872
2.168858304288939
1.4759242189476378
2.50155157538589
-7.729535937475926
0.6413676913864648
3.867863566024179
-16.783536125993052
-1.749148936798422
-4.845134121152612
-10.429393146205523
-2.082150695519418
-6.367941038148503
-7.862582661655125
2.223505255410133
7.64414444238252
-0.54930930658587
0.7778376028225563
0.8648380481048483
0.5242073334223448
-4.885819272098316
-1.3518392910084416
10.449899723436248
-2.432459433431187
6.9262813919451025
-4.4860117424713755
6.026304787374696
8.964956893527246
-1.7917810213862753
-0.13391627354141286
-2.7165999164374797
-0.958863208517134
-5.804707704858964
-5.772948822350532
4.4433229714613915
-5.550906129260062
1.8204837379515257
-0.3188016619379928
-6.844925963452068
5.374030265339652
-7.552236724635176
-0.08365765724492978
-212473.95867728489
-173919.30255234896
-126796.75723472015
76889.92005968963
24190.3284844049
5908.596726824641
267334.4733943036
250333.08250397147
-119129.82777903021
-99268.31426762349
-76862.8474399939
0.003821676808855444
-3.550735603425859
-6.184051246845748
11.086512756739891
-0.08219899645630582
-1.9115229429169915
5.131266725053811
-4.729640571287223
-4.692967742969865
4.632910942566405
0.19701326620663537
7.103550310326404
-0.4243512648732394
1.5951796426495197
-9.526899466687727
0.7462932649959279
-3.1845727396969883
-6.83073094340325
1.2619936708478776
-1.650811219839357
-2.532452015858626
-3.8279806776850367
2.2935329690457626
-10.832807868144524
-0.17593762126391338
NaN
NaN
NaN
NaN
NaN
NaN
NaN
NaN
NaN
NaN
NaN
NaN
2.1959292283534375
-1.763772147502099
-8.640213626253283
6.0817979110959675
-0.8474184635673241
5.294224326233969
-4.678836373270169
7.693650165683993
5.951099109147447
5.849146167275175
-4.865901537025879
0.7357676506656601
-2.076146190140682
-4.155687716897337
-0.02837830064554685
-5.319910050451812
5.6780015110002715
-5.680449149466432
0.037971718686812046
-2.4590485088572986
2.5561645834670927
8.126494128176283
-0.6647670616963339
-9.870584547648475
-0.012126835091494979
1.9227753704509498
-1.2537755491603393
-2.2012390455416737
-5.98832057446754
0.40314886244376597
-5.235857799570377
-2.292976194569042
-10.319709497821144
-3.797945889637726
8.787561919065817
0.34524889572331136
1.412535053775073
1.3689256962690313
-3.0107316334694625
9.19249818696424
6.220402570933518
1.7604939087984173
-0.144022781093313
-20.517403447097482
-2.706658391928547
2.3943566178023645
-0.27012720210911284
0.12574604955691474
3935.4778292469146
-2958.4433338391755
-2328.1846039600578
-158.30443150905688
147.55701996348608
109.977253696328
105.92477566250805
-4033.508042811316
612.6445991805323
-1370.8023381343578
-827.5482077481033
-551.3203139868262
-475.7960122412069
-566.2773692785826
-514.4768712691105
-64.53671411076212
-57.50556193744925
-65.77959606496658
-28.782448222898683
-78.32840755158468
-50.78289574120154
-59.118196717399286
-55.11276084166374
4.229466500699759
-3.0835806202937817
10.497293393265787
-5.75814183468193
3.7982958497302
3.458981217494062
7.823479488254284
-7.1285314823244565
4.107443825172714
2.34069159311059
-7.787640934245791
7.604301537584395
0.9349908535978891
-21.4152617592048
68.4311815783059
-4.387738249222678
37.65013746293548
47.1913208101179
-3.202795194817568
100.82981101622377
-15.89690753626918
1.066578318068765
9.70471723751946
8.401545049845398
-1.746497924103218
-328626.512493642
-70376.90820455056
-85351.51418816202
184510.9175646707
15113.833020147593
9593.53126117629
4094.264241125202
-4511.5562274949925
192.15823115417243
-526.9803663379543
-90.67848641310077
-1.0881769822391237E-4
-1.9547992836465322
-4.785150091746546
-10.680354411309489
-0.5550350524399765
1.7953678508047308
-1.2177412623196522
0.070423954428555
2.672319383120097
0.7850294096735897
6.459216192611994
6.635369451938774
-7.248150035996911
-497.2851484491848
-1271.8705534752673
-1065.1852859803068
-18.722303122266982
-43.94151262402626
-44.42461451418248
-196.5121745623496
-300.08043903359317
-3.669058297769242
-25.925774407105006
-9.50349195621316
30701.73748030993
-2.2386235730930526
-6.530744427320589
-8.247456775551901
3.4920900339844323
-8.927603884707208
-2.9373909577276898
5.772810792775972
-5.827202102441262
-1.6053066234909348
7.318802596520212
-0.7868774715522706
-0.6386328172758227
15.044609839949711
-20.65187912262069
-5.065759232862648
-5.084032603388921
-106.54017638260825
6.745318998136486
2.245207824411282
6.24960473199931
9.634693422604315
13.415960832065295
-4.818922612719257
-0.012379531780116476
-134.6785105480896
2.623644050201494
-8.445546150129772
-6.745187235406489
21.32875958217825
10.491497180696523
-110.29151756442266
-202.77664265619805
-2.163399833848932
-14.166348714605533
-3.246383473687787
8.068994622994545
2.0616307156505087
3.7124509575687044
-15.539625263373958
-5.814859417115967
-7.166416934194911
-4.761201332847818
-7.367845262892056
-3.0998116304273435
-7.580622674750005
-3.008419944285877
-9.425883376748283
0.0057325587307741925
-1.4670972280858992
0.4747735609998227
-7.411459863735085
-0.336753763906561
-8.025708206662959
4.414170373269243
-5.300600090269013
-5.155658397296778
13.06063283458723
5.425321176837285
3.335547504530266
-0.408789123082037
-6.496086264108841
17.944634529072857
0.8229483130464789
1.2974272884386853
9.407497638569955
1.8009015587931012
-7.469881739313391
-1.3529946364870362
-3.456753405120972
-7.048858865186351
-5.566701924104
1.0770923443769203
-491.20582721316777
10414.908995536976
10415.208076837549
9727.91820465586
-3697.800465823445
-519.0558930774935
-2221.8795852474123
-21849.116632784615
-188262.62066849283
393422.9083572324
357125.9938948208
-0.01798989436202027
-2.8972727364883086
-16.062843268075113
-2.7982338600224357
-2.651591978796733
-6.071336672861282
-8.039742904594291
-442.02930692940413
-54.95968623527885
-11.11259081174507
72.28419459265483
56.15960264658211
0.26202862329248633
7.08940512661581
8.784407212542517
2.8734046265109647
3.8315013023165045
-0.6367534008780028
9.244593938302684
2.696360035330802
-8.047714370747254
1.6936465277126012
-2.9237355402285825
0.8100561415088698
0.8374986315708447
-4.130585971281458
9.055500702707507
-2.9749858921981227
-9.225797906746466
-1.1805363899366876
6.368777977135564
-7.106722203760691
-10.81662722350139
-6.148897732318471
-8.047913501725212
6.597668527695658
-0.26237040117883653
3.802997437484539
-4.2745953268342625
-8.999447282093781
-0.7244603434521162
-6.583701745245536
8.134125606447492
-0.386231904919655
-0.4388459550935572
-0.1947020698730799
6.466562440841203
-1.6149926348863146
-4.88984071676296
-1.8201955210552547
-9.668610884443458
-1.3270853832398495
-7.670855730532985
8.759195432451117
-5.2612685940262605
5.0325469697274
-1.5669017455914105
-4.536090040971734
8.66374592760392
2.6778262249841216
0.28145746616859063
2.660581322586372
9.674405644858476
3.345540921423803
4.3766767589274025
0.220901906587542
8.85752248931284
0.7364144461582802
-16.929067615377615
6.748842184600823
3.100526457915761
7.422793269928846
-0.03613066509233564
-10.681986112540695
179.97414448573608
170.38271210321207
20.355712757923317
-9.569529011918611
3.075750174863472
-64.3635545382043
-32.61106841387707
-4.412669605636794
-7.45177292285002
-3.693988360397527
2.5530584017920916
-169.37647598767285
-474.3731484502444
-459.85302371348774
-243.57430742982856
-77.44846586119782
-58.72426444479903
-48.29493429073608
-110.49284664376349
-25.306688491217596
-29.12110477334997
-27.380317166266412
9.26010113083808
3.9955561986544437
0.9507661471666738
11.249128247685288
1.7716529645080805
-3.0110704655460143
2.236794839413001
7.669766797643304
4.079898069957656
-9.224951959476453
-8.240929592662487
-0.23205767951529965
0.01833983972849198
-0.4929660795669423
-1.3672473489032677
0.27282041821561887
7.262268336801841
7.178439634416705
-6.050980712951896
4.583361031617225
2.1433367525916913
-5.249749921182514
2.2359246445903582
-9.741673917801775
-0.24552724674343535
1.9657437137565332
-5.466209599684953
-1.0925823975287074
-8.369271923176758
-8.90505922346805
-5.0542628331874475
55.99575495074279
10.259172101483225
-6.9256294807425425
8.886617201299728
3.961334717848857
-0.1828425364480923
0.23463123231988403
3.2559231336740613
3.636101629201771
-8.384165381951334
-8.142373500833921
0.05601510107896329
-7.135182546229192
6.841678793570485
6.308546395684603
3.7010791615472733
2.798226007497314
0.22720289969714721
5.1199430536701165
-14.03271266623076
-1.83039467762485
-5.957314366006447
5.407268826611167
1.4039054244507798
-6.611870969811465
-0.3079433730303625
10.923826320737566
-0.7414345171942126
4.123403785471216
0.027404788545528184
3.6737390204338265
-5.0603874194280465
8.009742834169707
-2.792683713997496
-0.61400389002411
-9.087414804582314
-9.388828671789192
5.9999147613095545
-7.936767757343432
8.278345531175935
-2.8552149765256147
0.2701797726407468
-167.5615492249485
-320.44385925192245
-334.7635525631693
-51.45516936744773
-112.2505300068034
-119.24993820771363
447074.06706330436
-1998224.8819687173
1016762.0415704901
-1718212.2083085242
-1400415.4708514216
-0.03999999992213656
6.559284425906524
-0.7084774467589229
-12.746444125219048
6.188188692495525
8.232247723475298
-3.976823536163357
-0.06912180006109249
0.966085337562461
-5.189079433074208
2.6165661485330083
-3.3618787775047325
2.9816438360048223
-6.876531247452605
4.416896266278827
-13.44144807830308
3.897081296134198
-15.148145764887392
-1.3052047503207593
3.492524383277211
-6.8053927482343255
-8.186500825908169
-4.005507689085445
-13.505191967546487
-0.02545347392714139
5.051344822274331
12.726493347211804
11.122530826466344
-9.37641234656097
-3.4539281273467326
10.156100663310818
3.2136888964165644
-4.663760355488977
3.732467498042053
-6.3913472845842785
-7.4123313025532
-0.3145084143229336
2.5426933769895768
13.4600517293709
-2.744263242929048
4.068077688870354
-8.11527674843536
-3.119158606543434
7.084801668298365
9.399940279715375
2.3692042541231473
-5.098176784996053
2.2248249362442003
0.18003307827430387
-5.766399080781662
-7.520750030248373
4.453546851306954
-6.905012216883733
2.1313465003969627
-5.450267937532989
1.1396996331090594
-5.483519963718079
-2.4357296793228476
7.100071356895063
-6.807775425002228
1.8357013380805625
-2.1138535048470084
-0.8860478960922631
-3.174749250561714
1.3946707211406166
-6.018743386170681
4.4602611254100815
2.7654945687623473
3.550071438987602
-5.028884839796339
9.85670093788573
-7.062193855427088
-0.9738608904566571
-2.743567373829565
1.1938531271387511
-7.579513449082687
6.588357014528901
-5.7910327739448455
7.805436127040439
4.948829232495678E-4
-11.015249852929834
3.4867861325722775
-5.743749737123097
-0.3671734969939136
8.268954450049906
5.499168255511139
-10.791918267318996
-16.63578251681397
3.802502041302605
5.066840749149556
8.161225754277323
-0.03274956800873256
-5.4724960544699135
-6.717937384999536
7.719385128629913
-2.239233068528719
5.148307441558584
-2.703660153305631E7
8205571.110661556
2490950.697542177
1229.9346455888417
-20.217574434161026
-29.20453319168296
-2183022.349530624
-1658571.9482257606
-38463.80001309523
-31871.098043603237
-29797.36815507935
0.20000000008403487
3.4803141355819336
-1.9043701631177723
9.997742704035451
-8.099161342533842
9.909177702937479
-1.7404909822723142
9.094045791830302
-0.34792866656658705
-1.2656854800463322
-4.429274750343701
2.0255631921355683
-0.503030568981656
-18.9272339219041
-13.027973915718272
-13.777768928725184
-4.1289538707646205
-12.996603136189096
2.21098383260565
8.64550577020092
-13.451438213732898
4.734591080223555
7.284184621130103
0.05987132814097347
1.8545750910285808
343.6658143866636
-621.2363902425786
-29.794281417085145
50.334130640471166
-158.1424033398607
-6.540548654502397
-1084.6290321287586
-846.0284860408145
1367.7802636476758
4163.633855056537
354.1347932429681
-14117.81309871634
0.9484516309234262
-5.339020694043087
7.834863539273411
0.9900192321279504
-9.576127128868398
-1.4677124909406452
2.264441051878548
-3.9894396700925987
-8.248168980974771
-1.8615891186688658
-4.3293526626171
-0.10118149759227743
2319.8215970468414
1913.2065759006678
1777.253480638495
-144.4499388485032
-11.611149534120116
26.935822712692833
-600.0365884148969
-564.7722877125926
-222.37205724408085
-575.6055926226115
-323.93768931497664
0.04000097893585151
651.286808055114
-437.0395034083086
-89.77690878734822
651.6329713480948
299.4263282265276
266.13211634252156
-722.2478339140237
-156.87864431527896
-329.41223979127307
313.5946734563969
54.43342294726867
-4.129277164202178
17.890399322379768
-56.377323107263365
8.475587603729256
2.0453159422867224
-4.952752393401871
8.464240450853938
-6.149352125935966
-11.519775464168745
2.3025441001275904
9.437093268091639
-4.86000896009681
7.434145462874666
-1.5574083446058553
10.679296407530476
1.5440684182434217
-5.661849373473715
-7.968305382438241
-4.031289797571114
6.971415859542577
-3.562002167757153
-5.619379177812121
-9.366327729903416
4.860868724186282
-0.11980371763254535
0.31602673664231384
2.1140785857081914
-4.840042805573259
-3.7033845411243083
7.647594679915869
1.2771066500162462
7.054000927938997
3.5537929170433378
5.451548863868706
2.019754044703482
-8.444478363654264
-0.05500414924120156
-0.19249557533114126
-1.0532486973855717
-9.785588598734089
0.8437741442719524
2.9755089426090997
-3.9229784650897632
9.00735811286244
9.219613268463124
8.724108670980515
6.4681815545323165
6.587919514851979
-0.04125570423198719
49.21067360637049
-103.7719103471876
-102.00858917794541
112.45194619627618
-408.86883998051684
-391.90783012189365
-2296.59504550273
3211.106809128923
7844.7556327858
18125.560404566815
7356.244563404041
6821.184663610451
64.37858263397938
63.70164711150731
33.94088882208199
-17.087225795317806
24.32962909788472
23.784072824015766
-67.71049580903222
14.840599984340132
-13.060476290206612
42.08546713063043
-8.18077530287749
-0.36278102308707
-4.253807328434225
-3.2903053980931674
10.642378864223682
-6.624637505091028
7.1373859062376726
1.6337027631348422
4.680054313963129
-12.209445665344182
-10.141434240889986
-6.632848857042394
-6.420870634743807
-0.0734289187246863
4.069853630920555
-0.9578454374817775
-8.245227421685769
-7.625924168341152
10.901963669264214
-0.014963306565144923
9.531181972649692
3.071723864387339
7.334161738195706
-10.312038594556062
-4.234548810498813
-0.25670687602716485
-6.982216748453544
6.918529126805114
10.050147067713274
-9.265666236294809
0.34836939792629423
-1.0606749087571294
-1.8156118052723516
1.92572019174101
-2.2826002614272096
-2.0497331944737267
1.0660511845375789
-0.6856335721227638
2.8285512615903436
10.590071142822117
-8.459208340176518
0.6904874623864226
-3.8709508310069194
-2.6392077936140987
2.5864508244628124
-18.110124362150362
8.346868891197657
1.5280785625694497
12.266549821935847
-0.0010606229857191409
-0.4790733378817888
-3.231975679775813
-0.5891649788710299
0.38230409167300505
-7.89758566075785
-3.658701587231939
-4.6621111187194755
-3.8051696950637326
4.972858219540983
9.02700379066162
8.562214991895416
0.2745676187319838
-2.3173937151231527
-7.389900988727154
-3.441388529473244
0.5000868469356214
-4.766533465473225
-7.377175059032612
5.242348126557821
-3.1220987932757223
7.882042153314818
2.494430347377473
3.0059008684794146
0.15796391525636738
1.9636440660784191
-4.460884971240605
-1.1538701098693958
-4.667655953006385
2.691090653149678
8.248023799680169
6.390297444880879
6.066643527519947
2.772653543406843
4.568902149996983
6.042248285022332
-0.004520216875420341
-0.7322122452240513
-4.684387388467022
2.6204351385580105
7.448223357215633
1.4066530108079327
-1.0465751841605375
2.3387321786465596
-7.118270596545374
8.925555219903337
4.210126462540262
-7.1949821595012065
-0.0029859411273720107
-0.7653713778153313
7.131329036954423
8.128751281287125
8.348320776441312
8.351552305900652
-3.720633412335702
-4.0341912550236865
-5.987417928021024
7.640662485290873
-1.1429241021675827
-3.272417748838756
-0.031100508497344654
150.83772407198873
-208.82340413449086
-181.48036885856874
-5.041836803223939
-38.374573653190666
-17.152919913164215
111.92684578566373
-29.832056889142468
13.196233247450085
-24.143130714225613
-4.513096607110616
-11357.990037764012
3.1983674840913
-17.341128927190155
-5.99246103016941
-1.4111004169687489
-4.67312474280595
-15.184787942445684
6.171215687458002
7.039899545531689
5.207047648305549
8.847121870010477
3.700151017412906
-0.11354435424302374
-7.97757197113003
-1.056943079290552
-6.237794647694269
-3.4361183538515174
-7.366150641922657
-6.8001528950101475
7.547721833242827
-4.981533391146503
-0.8961639688505744
5.414623372741893
5.622653906817667
-1.4440578424479873
-3.8113735585154918
-2.323118090000088
-0.3501697864283119
-2.0578683016400348
9.611171086136855
7.49616002060601
-7.6156263342318935
-1.1347448492269268
-9.509892770008157
-9.044518800260066
-6.298692745383814
0.24193534489531937
1.1005614712411973
3.4785741281760987
2.2511127849711183
5.902889590993618
6.698219416819313
-0.35504586367101715
4.829630113656673
3.161743283420016
-5.661827470067313
-9.073399309828414
4.0472505673510435
-0.7894736920730508
0.5048010143668638
5.255542100075114
-5.872076779509856
-9.506950733077337
1.7021994835530483
5.193058754561649
-6.204403529351798
-3.2653673875628106
9.600264962553936
-9.150769216054256
-4.187656503293592
0.2255979550946119
-15.031285975793736
-22.68095105590386
-16.24437771743149
-9.531812283759676
7.795131026891593
1.836147878729313
-7.972420925082475
-26.753170516676022
8.007835649583276
5.359943492693987
-5.418333392884569
0.19819726207543184
-7.894759930494554
19.066276019471413
5.098308759013286
-6.817372833356892
-6.825980037997052
4.70550675309219
-1.9520168856442797
-1.8300190652033106
8.615430600060007
-3.433803390727153
1.2107497212509268
-0.08881988308286837
0.5410596351081222
-2.8423453668197234
0.2514506767268869
-10.235064188024015
-0.9851275144230291
-8.94112895568502
-3.2670458707673875
-11.68684390418522
2.2278482843107486
-6.919876245513661
-9.931831332487604
-0.14059034590828762
-14.835968913614566
-15.670019734080627
-12.262629668781708
-7.831374010117472
3.54717929152721
4.830677787346863
10.207859580209071
2.304194088120847
-1.535354609024067
5.801133840838322
-3.74615233213356
-0.4677885620402504
-8.613625135523632
0.24705009878099682
-5.547645285788446
-3.5158550497814756
-5.209869168675568
-4.7036601904145785
-6.541582825380715
-4.945368404405878
-2.3136735846415895
-5.9695174542217515
-8.918319338089974
-0.9621319479858575
2.1908962929176674
-9.098276224522506
4.078186093476852
-6.557612447791847
-4.0498500491467615
1.214660148141809
-4.496347485584137
0.2458906198798145
-6.963247077902875
12.505899888815138
-0.08572360545566837
0.6749149913257165
1.0090846093244015
-1.9021458385738956
-7.668035350335966
5.541567428942179
4.141974601682665
-9.113376444728138
-7.854887405839754
-8.124366689686335
5.201741866115359
-8.265067621794524
-2.715507358097994
0.05834789623968315
6.838067013118347
-17.802970058860744
-11.571979711107984
-6.849382271918694
-1.1171285848486838
2.5769089761088955
-7.315736980777359
-10.011347810312287
-2.256726171688702
5.2386067839526875
-1.013257425769679
0.08819354582609212
36.620221760444394
77.03576432602829
22.092037664283385
-0.8055668838304522
-7.2945628954266555
-29.979683804465825
5.473616735878421
-1.431816678481984
30.120484011812298
128.22783542615716
27.36943672418294
-0.006178251982746942
22.22359917529868
-133.59584735670632
-26.430742408524985
-16.182340419365698
25.777355068456536
9.864628000050162
-13.043866816741112
-103.36559089200678
44.53631703582194
-11.225936981342118
-4.331643575549652
-0.029447722942915658
-0.7570679730473645
-0.8997329712967436
-8.297934255560154
-1.7121648499289053
0.12723500926722278
2.5679441419083404
4.310440209721282
0.014554576326315164
8.826688539150346
10.119765380245328
-1.4870008289240244
-0.18251094099956125
-0.9385735710716283
-9.15868154512849
-2.598571748490261
5.8189637274972545
14.190515126895576
-4.862414773871446
6.386108542830178
4.185666964772511
-0.8019148973033665
-2.3571574130663357
-7.894249916616279
-0.22261499138800336
0.4533830194309707
6.840258848750943
5.487388729570216
5.058939373256236
-4.696699040046593
-1.0479186905905427
-8.333334293983816
2.13809298376631
-4.211744122503232
5.145268616204642
8.792301151199126
0.21952024344943277
-727.8955389254725
-14892.853813222766
-1010.3386754452222
-4437.199610749085
-3394.9979498717744
216.1262086679644
309.99110311278224
-104.13093621952987
-879.6869262568028
1338.5681965264764
-4.471599973950904
-0.0391558053850637
-3.029958256883738
-4.859264155996487
-1.370809226664263
7.49103242190832
1.4106986423752361
10.179406947686267
-7.290416441903377
1.1048296933514021
6.867976336895121
-7.846367832461049
-3.0308790261247798
0.16838161466154047
NaN
NaN
NaN
NaN
NaN
NaN
NaN
NaN
NaN
NaN
NaN
NaN
-0.14757862484095371
5.009882779716332
-1.467493532662526
-8.519311754924741
0.3945797832635441
-9.008265625362522
4.079143975266435
-5.022327859095247
3.9991622060121252
8.937932435222356
1.6860554782639385
0.013245671858798606
0.38220634887167804
-1.738940557943483
-2.408648537004056
0.46910222188055006
5.601978302965556
-7.512162416605634
7.551963330445213
-4.26457459572021
-3.4078259939520343
-0.6612723820939025
0.6770997857596774
-0.2368241376437978
3.8166457702683307
-0.007310167010585591
11.05570551573367
4.100321379751869
5.351766209771583
6.51805069100331
3.4504514085564
-6.701571974765436
-5.365909909377967
-0.07826651400951959
-4.484833650552009
-0.37088591037169455
4.719000254321385
-11.258353386402288
-6.704011926321056
5.122617245625468
7.68520688774924
-7.9577308646588705
-9.586168655900591
3.9653916036971513
-6.906576020542009
4.900710573675818
-9.188380372199116
-0.15984597568206224
-0.44337179846588876
-3.5204061614904605
-8.019275772927955
-7.314408872175794
4.427295061444592
5.16583626032525
-1.212036112405445
2.8950171270188663
-2.3219208077908498
-3.96079931070944
8.875961661336842
0.5368920334805106
4.913485561427846
8.911667068279643
4.694530634948764
-0.43034088348456917
4.3049907572180635
3.528534088199687
2.4189632940327552
7.3061277019734865
1.0540524752683247
-7.872454813712292
-7.213489297531197
-1.8006439969442285
0.6222773972992084
-5.621032678266965
-3.9626646093579536
-5.9387326491118895
0.424889542536807
7.753502409263575
-6.514943847550984
-4.939776032827821
0.8115890277268069
-5.242382447817122
8.680937310411908
-0.0074759129469568605
-6.885203162741422
20.885414450154038
-1.2457196647150566
-1.165022763908108
11.4702745525137
4.996598398850926
-10.668141003686982
-7.715088641505002
0.4945325928036164
-6.1509431697622405
-4.343325625490034
1.2607527939371215
10.561497822000076
-2.098711931636629
4.095739090267048
1.7902609165975274
-7.135402810509685
-8.206971587972724
-9.194927463128458
1.0974344754846153
-0.8315521204011439
7.7862698008730655
6.3019084142108275
2.8333371882485596
-3.662520551954362
-3.8110295542169474
-11.261186562125475
5.166671216042881
9.445364889397926
-7.1372157284736835
5.1613541336524085
5.524562618037064
3.195578291319135
9.473146114877913
-9.25219222693273
-0.131461447773257
-0.532355266315274
-6.934130061357607
0.4161604276446298
-7.658342904834818
8.10066382194455
1.4118199760045835
-1.4026272694875284
6.072485331023872
7.549546941694083
4.373814589800676
0.29473554842491423
0.3327600884672956
-2631.095506404192
11071.709039992633
11067.861945898747
-293630.6100131839
8412528.549373373
7689469.561563293
1348.9950427073386
-840.6298475819378
-1808622.8367253523
2983384.4574435
1979478.4525453562
-14553.138955654791
-1.410680199490003
-6.62819564715925
-3.2045288124231592
2.8180361983388003
1.905227877582273
-5.578679222317346
-9.56656581897273
-2.0897856850227448
-5.59378597279404
8.678382690678832
5.775896815322866
0.06112998967818662
1.4196064731748432
6.750808399626997
-9.128815289458489
6.565231382614904
-7.3659035325356985
-6.742403856931395
-5.644360737876659
2.077360791551569
-9.142211894176938
-0.9143001381490173
-9.568622319061154
0.20555884784671047
-3.5072852419158718
-6.799271829484388
-11.170999235812308
-1.1031753840127596
0.1433026455215596
-8.017502071156706
6.928677903672894
3.4517769235159594
-4.129374607942489
4.951671530363141
-2.0155786712449584
0.3575557459375657
-19.63085629111913
-3531.5371589022548
-3529.178013692818
1491.6213145101244
3885.9839779564563
43.75832420085856
2479.580392505051
-1456.6166968867226
-1562.5445897452764
1075.0133715717336
630.8247847171059
-0.001933408875181962
-2.2981720023572665
-7.71647361380526
-1.4212245685180092
-2.5464967561753586
1.721237492991306
8.319645185366701
0.09850679914041362
-0.33329798206607825
3.220964184689432
-7.668991859887575
5.574562481140089
-2.6023244461318757
-1.1233149150470636
9.292826577353631
-8.41968758862608
8.59672369494132
8.139054810977616
2.9747535206627913
-8.2842120874709
0.811633001878552
-2.1833032591173875
-6.448627534357894
-8.392423738452143
0.19755979029825457
-22.639588728610704
-0.7673621710741367
9.233584802722694
7.828869593625807
-10.933075981093737
-7.143592115832273
-2.250654623717337
-7.402879027701713
1.3507678555465796
7.243615755073228
-2.4853520211349025
0.08956866216918388
-0.37548954687034813
-1.3669239302263452
7.205156720856175
-0.8222623170549482
1.8412320706015877
-5.047656472497762
-7.606838773030961
10.552029277447005
-0.7410630693027295
-0.3087100386250193
-10.422040644224767
0.5535664102412213
10.233439461792857
-9.378358697655049
0.5509118901116825
-8.899765419776982
8.11314208367671
-2.891562154063415
-6.647116147981615
-10.970965423997782
3.301610415628683
17.323302315114873
-4.906768410377349
0.2823883560097703
3.7020538965041108
-1.4337498060312148
-2.9119762409508767
5.957563044709868
0.41471153147429923
7.7771629035144585
-1.7728634559129373
-6.427359590784279
4.397304545675527
6.888534697115555
-1.9451886138713665
-1.394662483466878
-0.4768983919968188
-4.950939321087225
-1.6218440100152114
-5.073217340590404
2.841579487658181
9.126313047161105
-6.700135002425138
-2.292044919208705
7.094035929388791
-2.743763360289702
-1.0437289677949662
0.21256001607113656
-8.475013217625817
0.1089373031422519
5.499938969532423
-4.196476392717147
-18.265048519828905
-13.75558668802412
0.3537536776190788
2.3628306431180026
-0.9627561970912101
13.203462825036329
2.318441714293791
6.205576262866578
-40.25421427346901
18.526109077077862
-9.555743019656552
36.63958114636953
-14.417820489531682
-0.8300449890399298
5.391475749121034
-9.636662326681197
3.9585315854911083
-8.599904426823802
-6.322132553145046
-0.002425516980423035
-4.215026341484289
-2.404227677703599
-3.121277503904009
-6.273002239045289
-6.9703485122054785
-0.6274664912505736
0.31440614971788383
-5.762317255240729
-2.0650590224882133
7.095025021355185
4.002826883950037
0.25427167333566286
-0.7206968558547369
-10.533389752160156
7.787560563251039
-1.8990144944778835
7.560982937656334
2.5018155765306633
1.1257160763138985
-2.010245986729066
-9.703206477298243
8.208384515222695
-8.271904686185566
-0.0016700242410061356
-12.830269357292288
-19.57819343044293
-23.14148041101084
4.254009537492045
5.214275253829295
-1.3903336694257629
3.0887504490077173
-17.85203991839764
8.691788386806671
5.507362930316753
-5.459519511363894
1.1839919263503191
-14.29335982906136
44.6734241421205
6.989725051468003
-4.243656591615312
6.71521509243361
-6.9870720765977445
-5.459375450189097
-13.449452823845112
-3.814948302346599
-8.896192605371482
-0.9765285626804868
5.609748065796736
-3.182037782650129
6.866081266886358
2.9432838334052844
-0.7745856278759263
1.4658147068445937
-2.271107115105981
-9.114852374221606
0.6316429301309529
1.2488140746503806
-8.612020628995966
-5.6545225575970814
0.3638294106503909
1.4290518371658552
4.4191547800584114
0.2720288409023343
1.1065529263507083
-7.183081578565038
-18.563304405306667
-5.090557821555797
7.003700915767376
8.023976562016756
5.717109540036137
8.868663539780274
0.015876237861853666
-8.04608465481245
3.1244883862836716
-2.942831366627079
-11.181947112635342
-2.3036145311635443
1.9466623932553082
1.238864076411889
-8.509034760361315
-3.1160934111525393
7.668892656940734
4.874332313688881
2.6496981246559383
-2.63764849890053
-6.462257428488522
2.508433712855166
-3.8421645868804535
1.0504327793948094
-1.9924619152339949
0.04472692448630473
-3.817998046076637
4.763016538577832
7.547670268707306
-1.67769868391957
-9.721252808499917
-0.7613833467129953
7.479724620508198
2.6351183166606678
5.868624932109172
-9.16039086995644
-5.739837431901431
4.977718517717686
0.8458436270731056
1.5049437834877009
5.97806424618969
1.8532850205980451
-0.17213764140250784
-1.5815129435461677
-6.28023279188871
8.857181128432966
2.2677252005380835
9.917151465465047
8.76091064172764
0.2519776545832445
0.36918105041997573
-1.3896797024248577
7.356958533626576
-7.173415428370281
-1.2863068691174926
-1.4042789607540656
-7.630578986093838
8.76864102785562
-6.809795715647049
2.5647694963880796
-3.7644501334213563
-1.6419655142328302
-10.633516652093435
1.3842361898155688
10.168769151504755
5.191567104903265
0.07912276994766053
-5.880442537134622
16.790381693872938
-4.052208733104678
-1.1199212585569096
10.020599300905937
5.241962281840917
-6.695892055832513
-7.784955525064051
-1.6826673566697015
-8.45115851148806
-6.381053827590359
1.0465057632603114
-2.8270773572931907
13.019143813198351
-2.6906985426590837
1.8125350476580657
10.240905819666416
-5.959476165423115
-7.007219715097772
-1.2470947572464963
4.4343601818890015
-10.185104743584102
-1.9370322693974424
0.43248172620865927
3.0269353350231154
1.2731641310359805
-10.342702056035154
2.7504506861730498
-5.9338043125802225
3.5481238190248745
-9.117815025423187
1.5261949908375052
3.6945097434549052
6.173256279125745
9.580384006966
0.43826453995525316
1.1705891259435552
9.734118248803876
4.150821637054663
-2.0838951928067946
-7.269597286952439
-2.2342579377739233
1.106851753430169
6.183186931263826
-0.6183149263819815
-0.3199687593720975
-4.346403411356031
-1.0457459893950283
-9.475099980069706E11
-3.444314318175039E12
-3.3594765385667617E12
-4.5143290311049524E11
-6.2282420056147804E10
-7.998117107361083E9
-5.682789949982266E13
2.1280105830727832E15
-1.179199276150079E12
-1.2997228320841673E11
-1.1552514283156054E10
0.02229248202272664
-2.302092612822972
10.03722978667106
8.130843188486189
-9.72046701073353
0.7800258082700611
9.195877538400783
-0.5314350037078923
-0.6448555383667011
-5.2810996913062365
-8.014935776014298
-4.231703251607352
-1.5830886362445993
1.5040351556187783
-0.044186203063868314
-3.5564987089070255
-4.778397294996006
4.288801893584956
8.905859698368877
-7.255698078941603
10.398384941606173
5.015447635303248
-6.719720089370941
-3.9663168134508844
0.007051613465645749
-0.7290074541647171
-1.1776592619202113
-8.602020283679712
0.28317730688640025
-7.041490415226985
-9.738778269048249
-2.723360158627227
-2.9680318823455734
-0.573590998383259
9.48779994859293
-2.1357648842218384
0.4172367207567744
0.8778661596787292
-9.28728105643636
3.0893263061881218
2.760275399965768
7.359311769445488
-5.6810448301262975
-0.04729184988010466
-5.059862422789617
-1.816085384823583
8.339971957995758
-1.4349369184702343
6.42937611864132
-4.864566024732915
8.653637166032079
5.193330252659007
-1.6917743258241729
22.463842343074862
40.31728888304586
-0.32996624847723877
-0.5423975960265084
0.16793462959799643
-5.81800215951069
-9.511056769068272
-5.186777321158484
-2.973033671924866
-0.6866877500141078
-2.3053650017219876
-5.413303897494001
-7.340538067786649
-9.960323338630802
3.3145693618402436
-3.5060971429928083
9.627846743460148
-0.5427482897613157
-0.23257430789248357
-0.07463462225694054
31373.8602033921
-65428.47248116042
-65790.32209786605
-64.51422816177562
-285.74540312079034
-290.9037746793052
2031.331590234304
14888.02841544444
13791.996977116285
-8548.839231751948
-8817.694080833395
-0.19999999685436257
6.185722179717461
-16.854971120974213
0.2648453597442423
-10.49482683448016
-1.3377576374579727
-0.93182869004703
-8.66380331868576
-3.2050190866213595
5.198549912449292
7.111783535730965
-10.570079371371365
0.6453028505429749
5.838221331906148
-8.464029632687863
-4.768994918595428
6.0913370499482875
10.071192433428275
-2.334627145180043
8.063244999269475
-9.774216390567343
51.24938461551874
66.81988938619645
0.28254669334722415
-0.10765277306469528
-8.177722446676963
-13.398731711196481
-4.136895279018912
-1.246435570318219
5.893833755010517
-3.493958861378965
4.639631860302138
-3.84088983273968
8.437121129064513
-1.4656609588262766
-9.883891529643094
0.3907773510568824
-3.1326767002617557
-5.390832717324345
1.6010004855317235
-4.729366226867034
2.6257413092434128
-2.7866162204725486
9.87039559257221
9.797470885407295
1.8862774269239009
-0.253912577995084
6.68707070854674
-0.5864949824247517
-0.49181230909923124
-4.646938602370526
5.6360793254387005
-5.868435003854208
-6.070881823214054
1.7426323642624493
5.342043323707845
10.791678127143072
6.9854598825965954
3.1405027702092196
2.8290786229414686
-0.3108677521460125
-4.656097926661035
-12.89836040139554
-0.5939756959859249
-3.7307054570297553
-9.461071281698153
4.846716658832611
3.5529349918138826
4.5710856101013935
5.5087909424087345
11.06504046088893
7.999569083854245
-1.7828484904467443
-1.2651855433278314
-0.565671878885685
1.3214635416222529
8.919234932427797
5.572293153755532
-9.209080774789026
-8.19325019714798
-4.719487958137227
6.594054624135155
-3.6893797417838736
9.992388779450405
0.26049686525819865
-7.970378516228301
9.092023318442964
10.149320294108492
-0.42643491454125804
-3.423365224086714
7.098601274985157
-5.756723332843757
-1.675437719372992
-3.3740868667823984
-4.498125888015212
9.095895845903511
0.12627330889351301
-2.656304875477358
3.016570637836123
-4.619118843455232
3.03159418005116
-2.244441712183657
5.904156235691029
0.010312399912854785
-12.227658751494644
5.341693247737482
-2.5607458540888457
-6.245585865678013
7.138803243385845
-2.924909628543756
9.01530222493819
-5.074353084356636
-7.569098320651415
-9.189543744658305
9.872181349849477
-0.0276726602102479
-7.127956193912089
8.780708654456507
-10.480426866079469
-2.875756587958726
5.823487482325919
1.3928578483725296
-5.549917217994593
-9.743147205215513
-0.45400437748001893
7.919515463199647
-6.958474569502317
-0.774332339863355
6.444432962591108
-0.4051226181376013
1.906871071544087
2.516639846180171
1.8932737444018475
-3.5537156825264797
7.819374284402712
-4.037065276239523
-2.178807131178498
5.927527220559909
-3.54079962568594
-9.825323378819933
-8.454859229736018
-5.983671893088733
-7.081753243171634
0.28277177155747135
0.5220497037102064
-18.182596877434143
-1.960372659852458
0.391998357292766
-4.724240714086178
7.144793559656972
-7.162118165418516
-12.856035314135182
-7.826234201822985
2.1143392024553562
-6.454337920461714
-2.2592751252561123
-3.6305609373504977
0.29926227020077867
-2.2027168940468917
0.05097497162772769
6.491820718265849
-8.791942240649682
3.827260739796138
-1.9630860246237964
-3.3281978077152723
0.09491529961388111
7.662775467960848
9.820211883549593
0.305341800164865
69.72076437287019
-79.36077336699682
-1.7497115002140209
28.777998460787636
-54.63191119420236
-2.753111115804806
-14.10238261693977
-6.689284386171032
-5.347818107479547
7.924754191502527
1.3674732960609337
-7.42787072327772
-735381.9147001095
-97810.20762975283
41323.255675526874
52692.9761969864
180224.52048868226
4673.592466114397
-1750367.449393677
-1.4714595861904767E11
-30866.31098607417
2641.008347431802
30923.70460318524
0.004444415930070519
-109.3698076220816
255.6996081456208
263.3831979022178
2251222.710099983
6894616.505819283
6894613.10238241
86.33454363821767
-91.85703057760449
208.76215816505854
174.47871625212713
176.81546567050094
1664.4003312139307
1.4671114046967497
-7.608823163740463
8.492638404050686
8.79630867458544
4.542985489751065
2.233782400546939
-5.331905340233867
1.4741735029906404
-6.087128095659569
7.326466312834502
-9.315844441518438
0.1390483499470137
-748.3071036032934
743.4894923745278
688.6577050018817
-497.22432756812685
946.5661308114153
955.8133166304989
3150.3915113890835
-1710.8107305515703
5316.564318913876
9088.473217153034
9067.815699591296
19200.002753614972
6.692431188355815
-3.87803993711235
-6.026178668624747
5.048719631086594
6.090349920986605
6.6887607223511685
4.00605271221846
-3.0805413058953195
-3.815422215050954
-2.308661026817845
4.353646499510721
0.09042873602989922
-0.7106656711762611
-4.622671130174203
5.926251335579799
-0.12289372855901852
-4.8957683531591645
-3.813753041364287
2.359493486950697
-4.733182200513644
-4.436180669278859
9.734726389987424
7.761661054168375
-0.38088926370787946
-1.1824911440252155
5.085652266793081
5.396107884540275
6.350058358923561
-9.081848317397066
-5.882542531595552
-2.1158498863543445
4.973445842904909
-8.399392675229171
7.4153566827969515
-0.5546647281016679
0.22983476359149485
-307.20168206030763
647.9296451603249
601.6649540396618
-176.82250121360948
501.72845284109695
497.22125206518166
241.40326262000397
-431.8859350294773
1955589.9941343078
1955642.286082712
530837.0061918173
-26895.15444398332
8.50310797383068
-1.4745217100834183
-15.527883668881142
-3.249597613612937
-3.8259829907790714
-2.978390394468867
-9.35311463047659
-6.749157221642356
3.6263693156403702
8.280710026880646
1.9854042674577206
2.4469067953778443
115.42698435770284
-262.31411112468766
-250.09691886060048
19.744600261044624
-30.411399442712003
-21.57930859618858
1199.665159138908
2621.869693166832
-125821.46893090391
-496630.18181203736
-257208.51583940958
-5295.616464537399
1.2950298785604508
-2.782809589009405
10.57451062888319
8.809933212646422
6.621681966460736
-4.774643378071924
6.397917007161785
-7.072802329298401
7.212708788868791
7.437229984181052
9.567252091995197
-0.03573954018069146
-22.42338036659416
-16.071012297620193
-11.327942743730768
0.41204413260398903
-12.878578953589988
4.137497264726178
-31.776914926669992
-176.04688063386706
11.931094537343478
-4.445632008816769
-11.71750321966072
-4.08176219874014
854680.0679311841
1066204.7575500486
1068135.5611252119
-5.420053243182108E7
-6.193120461426835E7
-6.1793414096176796E7
1526.347329545432
-54508.306232135794
-161589.89859943764
3533.333762748999
-8036.331572199429
-3773.112318782534
4.111328537884629
-10.347897432745123
-4.071301919447922
-7.419964932825689
-5.780463569206057
5.268631433390895
-3.3693621994089824
-1.267723741938007
-3.0866816745892747
8.902810728571039
-9.519779941355084
0.9421358619999709
1.4251353274566558
-6.933478672053008
2.7901257373813206
0.44375956604966105
0.9910610131754888
14.239335856719347
-5.360893799178461
6.171106915329726
-0.5765841452875745
0.896583161581605
-2.0298644865001836
0.4898440903917824
-7.03949529283484
8.944615982159887
-7.918981817824426
-4.077969359596592
-10.121671203006615
4.608691500212989
-3.3792977438741287
-0.9266087057753245
4.464538903059892
-0.8294796454117557
3.7587765567865055
-0.17144159567619352
-5.045661625332629
-11.05876742622903
0.8819403767368634
-5.674879920965304
4.464426590032133
-2.92289463803177
8.88979755458548
-0.09852650215802948
7.864060349895572
2.2073800417825375
-7.120211931361616
0.07961485085751521
-1.4749071789217847
-7.450329848516754
2.3167520056835436
-4.868609807517364
10.920383382726422
-6.236778524103393
-9.967673479640906
-9.164882089459887
1.9302770957909399
3.1435817865188227
-2.9276749942055673
0.2632102892659055
0.5069789968757162
6.098355297773586
-3.621743191341265
-8.224623915401567
7.97517543888148
4.814240427040877
0.8954024880716905
7.792391496997659
-3.4363094173126845
-5.422871448721901
-6.206291595959186
-0.4847104476125909
3.5451507324318623
-4.986507240855338
0.4556565220096316
-3.652443274555702
3.0574062954642507
2.9962974204288586
-6.019668969557751
-4.740584087531037
7.70665776494762
9.372494983297985
9.59595838485843
-0.019713124350746812
-3.6198262236277436
-5.282054749100988
-7.57128526826438
-5.640428826419921
0.9199969134557145
-2.2026283036314607
0.22600586906319378
-5.281070193613012
7.638093562978785
-3.1008933764935747
0.07501553720778727
-3.164636314445417
-1.072679731576981
8.145078977338677
2.4145860346655224
-4.206474285530215
-5.853730960685614
2.0953247377333923
-3.658702448590561
-0.21145672950330746
-10.82845355153517
2.2770136347464742
-3.839510827540379
0.038865515995652994
-1.9181078406367027
1.3247420294020833
-7.101421154600475
-3.9326160795846885
7.097010318454969
0.7697056168082702
0.04488403681401801
-4.898473149082878
2.474850299349155
9.019803137107848
8.416514625573228
-8.14003055386633
2.0478354821941567
1.0339752449746382
8.112730931651974
2.3959912235932035
-3.230847434877049
-5.477066707253195
-15.718909693725072
-19.136806262296034
14.695179954418201
-3.496067654034175
-10.125380852066696
0.1176281759850694
0.03439792257898967
2.7787714789308144
-0.46463138350889777
-4.8811376435708045
3.8271831283131075
-10.171355578141235
-7.86338794367882
2.6795339449017135
-0.8339510837951841
-7.334120567844344
-0.7630478392317426
0.19284687525194552
284.0983076362693
-194.39240314384426
-143.25375537334102
-680.6798026165836
-1007.4031544937753
-947.7492274360404
178.58543504208674
-537.6226423569072
21.9858392582
-112.42214416236443
-88.79144429371719
69.1656151842173
53.51680923058636
36.80087416910579
8.676690640988129
-0.08251854064066802
17.963886247563394
6.667376606326667
14.865902881625951
-12.331330060766117
-8.530803053450883
-3.526428850927844
-10.873755626761575
0.8094717245304319
0.7545320715344593
-0.41249246378770404
-3.896787810698841
-0.9227673072960582
-3.0155419286571292
-0.04742153468909662
-2.588063904465321
-3.0294109454807674
7.2304009700073975
4.508782196888956
3.256977714701409
-0.8492242738437172
-0.38236187262581783
0.35460740934359364
6.445990109500213
-5.608055269325008
1.6703979654921546
-3.8806954343723583
3.110445097500903
-6.7676617668097165
9.293695000113136
7.60919807428944
-2.836271229586788
0.16353991449662622
3.778596455946406
-1.4806366978631473
11.940791876357618
3.2783309024776326
-7.559591602133057
9.872911216403018
2.149314495949659
3.6868846070121517
3.3643430327136175
-5.878549328353592
-5.555925031578923
-1.2092283095658274
-2589.567236940068
-4822.45146097446
-2019.9388546794357
-49.732151881738886
-880.7520622759233
-802.9012444768346
-783.0918631974428
-468.08449130200387
-1487.789398728945
-2704.224281626418
-1098.4699242357242
18043.468832387065
3.4722992189751247
-6.077684582461959
-4.473077043254594
-8.297579614416131
-3.927657905816003
-5.944892497746973
-1.6988587623794513
6.355363388243823
-2.7497163648370484
5.435088478928757
-8.453197544157236
1.9867398708075452
0.09597757373351844
-7.544223936626391
0.9905065118984532
-4.532685144468596
3.067883323829433
-2.4493030769922832
-1.561430114409306
-2.4329499008672144
-4.239712136856917
6.018476396606546
9.872872391618026
0.17051688801138007
-1.6511379870102962
-8.906371341085705
4.762693776356069
-1.042058443772215
2.018116403015532
-1.4795304160249185
9.958774949311803
1.3071226675060177
-4.698710170388574
8.99949053994151
-3.0880573885783784
0.11548715154639974
17.13894150996411
-6.437586106686953
-10.544833025776276
-5.790433951262305
2.5035977780776437
-9.262489863025248
-9.81549999913172
-13.681900124450257
-1.6816178315098786
15.055848683652007
9.321885816835627
4.467165347950934
0.005026062220416297
7.6577104712131
2.6339940618162534
-8.43911445746353
-6.443853235920264
-3.6438882346129744
-1.8452421015322829
5.274612206463813
-4.694663484316202
-2.3556163351621007
7.726565972457867
0.21950315550291524
1232.4740973848152
49.91173127332395
10.469512332515635
32.90336785480602
70.29551591795808
84.54906177613827
71.60597837436237
-3293.1106231018557
-18586.54666255452
-94691.01512212968
-91899.10821137064
-4318.9546705749835
0.003998526050787942
-8.821013129609952
-1.4599150784702557
5.050710217778649
10.529231325996403
-3.378603527124576
2.889906731182182
3.1876894306775427
0.16608394026701295
-9.318138351101698
-9.825982929381912
-0.21904303596626462
-3.4559139252374487
6.872557244684582
7.204052502896446
7.849538764746714
-1.51733762130196
4.645658101312871
-0.39831511473063197
-2.59508294949252
7.183420230901747
-0.8629563924029809
-1.8601892462769047
0.9472964885680479
-0.7810921561022113
4.292626085756542
0.524573011002007
-8.645613303062339
-0.41628400713971575
2.9488419126475014
-4.695952373892698
-6.222919805459122
-0.9759320717165132
5.078353523018878
-3.2987681372082216
0.026872450013509203
-0.2446558990915389
-8.587066003741521
5.343898329513285
-2.0868873578029317
-7.7501835945083775
7.181180952737281
4.185894710586215
-7.065108254427795
4.890520397599283
10.606229613151891
3.326711570183696
-0.26650381644010623
-3.4735652570204407
-2.6695243918738236
6.359072871491928
-1.3628812508183892
2.642191843011666
6.631667648409465
-0.4241760286798609
-8.978477099364786
3.307623142255163
-1.643955267795355
6.993577924878911
1.259301974671349
7.844212324169994
19.70084862116207
4.0815185845141935
-8.26119075569644
0.9972140897842579
6.631965026966139
7.8454728168133325
-2.8297357209225837
7.14588117833409
-9.770250052883185
1.8041896629559115
-2.5900418326503853
3.109174026569322
-78.90798729579306
-85.05455941734495
-14.84846252334845
-1.4648205196423045
0.19442232157714162
-40.77029796672648
167.63103270160667
-71.02533884905557
72.26071886742133
40.87138155805355
0.2603256957670836
-1.41760510690565
-5.305684931347649
-8.593633306096228
0.001163762787833403
-3.513637616914153
-4.061709132259855
1.301320035391415
10.61098053975538
4.398888442014164
6.189371376963568
-8.170334545557397
0.021786750843046404
NaN
NaN
NaN
NaN
NaN
NaN
NaN
NaN
NaN
NaN
NaN
NaN
-0.6163702905176426
3.215300563853503
-5.057061781010152
3.762366752710752
2.3726271401592345
4.005519007820816
7.536277251237715
9.058900038257262
8.20221985046277
-3.4391129155803197
-1.1459742895077347
-0.31197244096877313
6.548675072887494
8.057921818207493
4.3680775944856505
1.4813786874132093
6.687530192089458
-0.11960334741046655
0.7841509842538417
0.3541401037931944
-0.09871807257679797
-2.422567916466138
-2.225718144051237
2.2457201088306467
-0.5222990233528576
6.090668977873519
-6.5135160375686505
-4.546877430913944
9.15609993599052
-7.0135129789441235
-7.077585987875191
-6.300152465576811
-9.004765841931432
5.4129080442968895
-6.885178437131721
0.021943238670148715
NaN
NaN
NaN
NaN
NaN
NaN
NaN
NaN
NaN
NaN
NaN
NaN
3.8609186058316722
8.419164931843852
8.812820629017134
-2.7807944073882926
0.7355996771893435
-8.344863807876804
-9.633434488743827
1.8418824028541492
11.477596614033873
6.053190394469844
16.809895547948997
0.18940930030867548
0.4824327295535223
1.88321924932135
8.434992332231607
-1.6938988959570382
0.6292882065440877
-4.697893679237575
-6.170243297578171
-8.842610385687907
-2.8278669286752542
-10.189168285104856
-3.7731172062998866
0.33616147842754857
0.22642461986613455
7.1214404674656775
-4.379745687490177
2.7724289736330823
-6.8917885726138834
2.027977944412903
-3.5287403078632296
9.347056410323267
8.301669926727095
8.094747947910209
3.648396400441943
-0.02515981749171105
-10.516285532645531
2.125780544708876
3.404350453194963
1.2966098434212487
-11.368454540185155
-5.6462514410333045
1.9008986969428505
-7.713993562851142
-3.3782365053621426
15.879202758938685
5.925273807769517
2.5908060561128847
625.3713268248839
-3330.370007275959
-3320.918874070154
469.7957322049506
-663.2638387985803
-675.9918647300382
249.68300383684775
-1164.3400261346726
36.75743382133779
-70.62118110356788
-35.81380097510921
-287.4886994591563
0.8803283467441217
-3.292697032954157
6.10344606565094
-4.486553815401963
5.990272127576332
3.80413383960725
4.074986984230488
4.264593456615178
-5.335542542562139
0.18838636177279608
-8.373445655955114
-0.6908008469172753
1.5553910234793644
8.792132413013208
-10.226583520791761
4.766857990723779
-0.39780037496649484
8.38635728435927
0.9295568622661547
-3.7864010827882457
8.205971903437447
-5.04369259924283
6.758401913581925
0.0575867693969787
0.1141544272147758
1.082078122729918
5.573645110051579
8.711890596621695
1.675559227288348
-6.2248836184292395
-8.138663694372951
6.764846142331236
2.4432600578549533
0.10055273394569106
-4.282114370947335
0.3545132305491315
-45.333920847054166
68.2503119811971
45.293367311728396
-3.915394719087128
36.53217359038155
30.317663969373204
-27.108521249596023
105.76114038273448
-37.16316322075559
-118.62354957412158
-91.0072017656782
0.5790916552051992
1.4941552633728945
-8.082053145745748
8.022580440663061
-3.4720693767530224
-5.4049783074605555
3.3303025577430385
-0.0016057454947091719
-8.271702382015185
-4.277669758590659
-4.977676786049341
8.9128781968521
-9.883208677145488
0.9016768787587313
2.38223747175797
-4.769726756709272
5.9402966567409425
-5.966962118835192
-9.83464379678349
-5.947407950019834
9.384235279549438
4.084210035278918
3.569479559250868
7.073625553471145
0.4443530463177554
-1.105384281678447
10.944499519195789
-2.196047972488594
0.3730281240144931
-0.8085360640736271
-5.814256966352347
-0.9213811255698293
6.676153325198509
-0.35972853940414795
-2.855205869161154
4.086847247609459
1.8511635225554914
-3.0675690944870873
-2.587558683328756
5.61122761357031
3.3068585283532865
2.9638449393150097
4.8493168736237875
-0.07993158574115711
-6.838579552529121
8.430731016279992
2.024099002885471
2.8834392178770822
2.850738983954957
-7.445999895619382
2.2455808390018737
-5.040684033447421
-5.970006489327011
8.567877576830075
1.0923602649296849
7.988857297887327
-3.2247124749172342
5.848957604471028
-1.1760393974874421
1.6569463098545918
0.3362629122539023
3.0168590776363327
-3.296550640688521
-10.529087963073005
6.49230971134087
-1.4239240310673897
2.733036487793082
-8.353205506217607
-2.6536615683513727
1.5352657965731136
9.655804575061346
8.00233689415301
0.7572293180956181
-4680.352845969352
1249.8269135102446
-322.7634695670122
17151.649901340003
32837.54922817792
-7.6072420801817895
663.0187289324433
-591.5961837022498
110.02903994773057
11649.703062799492
4252.0919651129525
-304.19989634296047
91532.97395112633
-43968.77162308671
-13020.408423986879
27912.875964283132
-26187.42130235877
-13544.01314451548
-6224.898609794594
7836.004603879957
-26714.287836800235
16759.18521420986
3766.9095436701705
-0.08309280271600664
0.2095147668920994
-6.510248785054739
0.45308195251642414
-6.544757918670223
10.127742569670321
0.12121215127784872
-0.805213468175235
3.3004050017348767
-4.5850413132857435
-8.723130585479177
-4.769227835312989
0.006395499638068127
-2.843987363540112
-7.4424906658808325
4.354215814303966
4.91681951656551
9.859520880384792
16.128180943400935
0.26168951410012864
2.212270326270308
4.768010529975491
-5.836647156019298
-0.5030417524742373
-3.203029979936447
1.8320741169476762
-5.429542767642584
6.740782107732057
3.0769604290228685
-7.4051422796435675
9.58596786681297
2.700453986271622
8.905722051394747
-5.992972769801908
3.223616281855676
-3.774895248473667
-0.8252111226800409
1.7545832827661818
8.14085651872419
-4.853881727694498
-3.793349163167861
-1.0123596325756652
9.947325562012036
2.998798597766358
-6.314650485678568
-3.792204633473386
-8.010519998685561
-7.6690428933633195
-0.007850915007134857
-2.232529700619777
-9.928952522142943
2.2091858848589565
-2.7058212553759122
11.465137895734125
4.5698048650950245
8.98500866364721
5.7529876332290755
9.183387486057699
-3.37222259058621
-6.256363529602595
-0.2325359073087408
-0.13665616680891343
3.9336058596404975
-5.5042372985776815
5.835257162311237
-0.475907065306132
8.416156339134377
6.269218791332998
9.027566354962927
10.12730957748016
-8.07534330154846
6.144816293916808
0.03877732794628101
2.764143022412361
17.18654286839533
-1.4582409597916606
3.5630510928647614
-1.6581501371351346
3.4155795089293384
6.62048072853972
-3.9379391303345477
6.256005281046821
-3.525146249591698
-0.3390575189240203
-0.05744236978660412
-4.397202000025913
6.503733088257339
13.236470988659867
-5.584142461296722
-8.27869100861498
0.3675316355579721
-3.731216508087412
3.995673748991538
7.607931121937138
-8.061139161887402
-4.104651621418887
0.12840037525249653
12.925438795254264
31.242096009465964
13.211815712518645
2.535405337784492
3.8613708075280946
5.634157480673945
10.97891339861461
-1.0369912160263124
0.7602251707884241
-28.31049139475026
-14.50364761290455
-0.8843553594846626
1.669654286054499
3.6240042923836775
8.019357332879553
7.749382177300177
5.288455429540682
-1.5556922556364075
-0.0897676261480553
-0.3712417688935893
-2.85575142716204
-3.0556760948727
-9.012767351431659
2.2080675429891126
-0.47437828410826677
-1.0269399145404265
7.162007573818526
4.837780458851108
8.265760455497482
-3.708068947483835
-0.022854892808681856
-5.515098417481829
0.013751626719603078
-4.953965454886386
-9.12085014545783
4.409373408284246
-9.025993423461689
2.432582880771663
-4.171885734809092
2.429850041945212
-3.737765353448252
4.386771746505038
-16.107498020155546
-62.90414611335039
6.222952718992431
-0.14014705611202075
11.511641394228265
-0.33386339301023155
191.2116666532691
-585.4505654185959
-565.1933484438393
789.0216167173155
-6570.544644189668
-6581.933697695961
2.30539610293624E7
-8.068333452231596E7
1334.501738263322
-6745.458884163711
-6737.669175050458
10922.22616113628
9.49523107313475
-5.383375967283425
-16.998785918498516
0.41933440229239466
4.297357268057422
4.400434589279232
-6.566305587932931
-0.9630020695163355
-7.4337409883226755
8.465119388710301
-3.4268993488646196
-0.8486547162753704
26.036373925691322
32.357703802281215
34.43006865513914
-24.07344556630944
-10.290222197760471
-3.441656460899962
3.2004772761385523
-69.64365164164019
-9.84854951045696
-32.78766021728778
-1.059486225152148
-27.947127047615727
151.92124897980304
231.46829091782894
158.34730064908223
-34.12190520221622
13.537519993559727
17.454367240156174
-129.94853136662533
-57805.193922753395
42.806033686906865
115.09683623666218
63.940822079811085
2944.008124275999
2.835043675465365
8.688345894797594
-1.9518456712900807
0.028385776253078903
4.582856126160376
4.328683189367673
2.214442591844193
10.803280839598873
-3.2512481639644677
-2.7322723320246403
3.4069294519166875
0.1504762645690834
13.743295915456999
41.64795326762183
36.925560508744645
3.254223320062003
1.157563787498197
1.6781730900790617
-14.96627537626883
-16.336208529773604
5.163400689095883
22.922627573703274
27.41086937775557
0.08469922945803181
1.1480723594562396
0.48022715789321796
4.577310149108164
-5.202546541373712
-6.98290509608456
-3.741548623356158
-0.1101494183305005
-3.721559215089471
0.651054725371982
-9.182666235871631
-2.000239238352938
1.3210851578486005
1.4584322450468075
1.8981643457552453
-8.998095384894837
5.110549683222651
5.122944691972746
9.150567358307296
6.2172763046555115
-7.983051232833316
8.492328996547304
0.6815320973547958
0.17832972172047754
-0.11508761238514373
0.7644675934535555
-8.542446390456222
-6.5818747643733735
6.295477435877614
10.642514882451975
-0.8040512799924588
4.370979935057729
-5.2213798112861065
-4.601288907753888
6.253051562402897
-3.2880406888701375
-0.48992124246727703
1.771368737267412
-5.644819514397816
3.7412719514574526
-3.577450318225865
-0.945480859156242
13.508705608594706
9.707363075200883
7.621929429309398
7.0537056260045246
-7.496831671696742
0.1624030270676171
-0.21265160624748036
-6293.371066184496
3041.933041297674
2043.3132738777488
256.8481541844797
1085.1533908357696
480.1041448420167
-11778.647472563915
-19795.6433374185
-3287.741110474535
3157.4606431175725
1945.5207522972703
0.04000000000000718
-0.27423527310751517
-0.4749218406887445
-0.9727085488449368
-8.689176686023767
-8.455535415705654
10.094748555375533
-7.242676513539039
-2.9119198660776204
-0.09598264694286561
0.4197144863575338
-7.363327599014154
0.03440364070576256
4.716074776568144
-33.62353537497927
-12.690703218930365
41.93981545385856
-19.857364106538093
-15.335897088095841
-7.256071079430109
-69.96373677453442
-9.270847776548319
-26.776221746290076
3.8385497767596637
0.09973846272870614
-2.525947116970785
2.10806586431965
4.9755895073598815
7.952687959866363
-12.196422644397561
-0.3461738573980681
-6.409814245739716
6.693576858076345
-0.4969280487420006
0.40807739676891
-7.116666998551347
0.24739362825449873
-6.214794730165553
5.697594450989641
12.2194638278813
0.6451099215910617
-7.426763121382907
2.2966194284476753
-12.794981830766586
-7.169999065367287
-6.590467786105267
-7.722938733336353
6.756105998511775
0.4117281640276137
-0.8436778066794107
-11.268539370548242
6.536834180618682
-2.5195501028938714
2.3844574245145873
-9.653310278711317
0.17937138320107066
3.000451073503971
0.507210373287173
4.868612580237259
-3.5422090203972862
-3.8066031931216617
6.776628248545371
-0.008450885552942763
10.40416580519252
16.750167601711706
-16.762202975065794
-3.88782821417718
1.7632652512943632
-8.270983445514819
-3.3178634424084286
-6.932851566329459
-0.9665001162741369
1.7549446780649995
-2.1012077074327373
9.920015820052585
-9.89935564605566
7.5965433429362985
8.779254626275751
4.657371922169846
-5.132639420969491
3.86081652615276
-3.0233168004736224
-10.246605250542428
-1.807185495956951
0.39319660914327553
4.234564221133636
-0.2693518802614222
-8.614774164080403
9.603192759878432
-9.474813169129671
-3.9664282426551414
-6.159891750416051
-0.8731075627827866
-2.7474670867305955
5.077636694681295
-3.467986478585823
0.835035171919449
173.96484782476912
-266.2237989908909
-240.8545836849648
473.09818775287806
-1306.9539304917787
-1287.0513216669735
74.07366671258184
-11.626797339366064
16.736220901551647
-41.25557168192479
