-0.515551638316836
-1.8821937853462372
-1.2217676351099245
-0.7338104465274382
0.055738113111514914
-0.7633900770599331
2.2015573463623106
6.886726340751321
0.060225197802159375
1.02295154739165
0.1589653743833979
-0.8223454874418555
-0.07422056982524466
0.46703197065091795
-1.6502595539845357
-1.1027975470360614
0.7866033403310266
-0.040381177043612444
-0.6003800266100509
-2.284116046459425
6.721554253291081
-0.05416718011288107
0.9999857097811314
0.07821518489625248
0.7863551713326774
-0.03049639415937795
0.5516505134036982
1.9774363513992477
1.2532162142820213
0.7149197756454251
-0.10464552501017134
0.903537677455651
2.15668140992882
6.949659427352101
-0.051068271098178644
-1.0708448045183758
-0.12777832927206298
-0.8470294660843382
0.03833107586278969
-0.5114593815520165
-1.8495530026094344
-1.2459100478160097
-0.7474362177931109
0.06358539491363528
-0.8331568701715566
2.2066770306862242
6.902283342930272
0.06056483443498957
1.0219536059697054
0.16257938579495074
-0.8220959177631155
0.08205525152865642
-0.5343931296831543
1.9642696606296708
1.215779020012845
-0.6810337617184824
-0.08504694704559178
0.6966608961682474
-2.189552884085915
6.948439719230113
0.05232037147823571
-1.0547362864340384
-0.056648433172133035
0.8323499272323185
-0.09932385822108113
-0.49955749251132714
1.898844521680618
1.03416593662907
-0.7325202882806768
-0.06133038866225171
0.7574779781618937
-2.21785806149287
6.857137225528701
0.05121044974677893
-1.0350870872076052
-0.024206731358117295
0.812362270290378
-0.05559967957498218
0.5168052923304075
1.8845346494747837
1.1030806163518903
0.7202540351281632
-0.05118825743541551
0.7243624699227859
2.2176252455562
6.880179381781075
-0.04718930416563891
-1.055279916020038
-0.022002867276427987
-0.8198257148445868
0.01322778746695323
-0.5587422603694564
2.070212497484232
1.2422352681695765
-0.6926178010338747
-0.13528500818672573
0.9164113816910217
-2.1358165174333394
6.981964005703447
0.055386540156072014
-1.0643527842940124
-0.15196894343703612
0.854964318153352
0.05695196611305217
0.5165845684015882
1.8715757617282769
1.1343604182797078
0.7333053404386967
-0.05372401102868612
0.765485828330591
2.2071568411957676
6.866397446564919
-0.048809730912971486
-1.0528067111332788
-0.046713081926125034
-0.8219684498393289
0.07557285636331465
0.5410114377213413
1.9522744252897917
1.201929126249392
0.7234123997231439
-0.09593474204207002
0.8936216004461505
2.1701980859507937
6.929695745131439
-0.04983862224751635
-1.0671755083756445
-0.09876033606904441
-0.8402060616759314
-0.08070296797081865
-0.47371504767679656
-1.7088835209928201
-1.1791769014578282
-0.7775672400010539
-0.001384607348735692
-0.6830226927942558
2.2552886413210067
6.783516657166897
0.06109322660633409
0.994607760380784
0.12341785041960397
-0.7938052457669025
-0.011875503909115473
0.5165859136079224
-1.838391755757214
-1.2135282481043619
0.7693684173959802
0.04508894862328285
-0.8546814881625141
-2.197914840063065
6.849650019145888
-0.05643293699992014
1.0314187584101575
0.1756450385339136
0.8246140056419748
0.03184867771721572
-0.416944481905051
1.5395282765884986
0.9448378948869508
-0.8129808630348201
0.06204205310290112
0.5667351662977944
-2.3298432977751835
6.612745791677262
0.052500978348444166
-0.9749824953834942
0.03961032547625617
0.7519544448373716
0.0504695679674782
-0.48445379586345366
1.8016081256005148
1.090010604122297
-0.7533091706215124
-0.03810153265749193
0.7376167874824516
-2.238485059276533
6.829147502655192
0.05373078450672709
-1.021457428026944
-0.03571425634035054
0.8028672722014264
0.0941937436333449
-0.4920411941396937
1.8021397829152936
1.155008263319181
-0.7386838398073348
-0.0410084081777663
0.7075127264249916
-2.232058768005459
6.847677539829209
0.053994441644327464
-1.0263193490448133
-0.039218247923187746
0.8070298222157732
-0.036978789324719694
-0.47435106501733404
-1.7052831956024825
-1.1917201484863833
-0.7750347876240394
0.0016312233651311992
-0.6818028287956704
2.2514055708327283
6.782664133325855
0.06033771871161582
0.998288707878294
0.10964013679633573
-0.7947887464374398
0.0067453863411470055
-0.5209516932033369
-1.9231656276590834
-1.1876103182572797
-0.715756594956304
0.08913102379692885
-0.7931793866869763
2.1795277406702587
6.89384637778576
0.05222041909273484
1.0517722808888323
0.046111870177454994
-0.8294198330293999
0.026192583758101212
-0.5225443224612085
1.91970394346731
1.2159390246626776
-0.7263892564209063
-0.04460342370495508
0.7168325084641504
-2.2007194982492626
6.88987888844705
0.0633170910655311
-1.015069393665852
-0.21286006680219563
0.8237116161808139
0.06991675942396791
0.3690864059990675
1.2739942797759414
0.8110167466494171
0.8749289011917445
0.14281742335475392
0.6189354136102649
2.442307987890771
6.459360429821856
-0.046372981437897844
-0.9229367558116508
-0.05705822135048195
-0.7181051720897201
-0.061255776514328925
-0.4434511297730574
-1.6160156930600478
-1.0636360708181207
-0.7959843684770112
-0.0012787127589105568
-0.7146270385638268
2.28350100257748
6.729406389602355
0.05128929229354534
1.0052774266117135
-0.04259718604061434
-0.777331635003897
-0.017531594887997742
0.5019622334220509
-1.7603381814079133
-1.2293810035380943
0.7886448151042622
0.025380354363805677
-0.8415627285904247
-2.220366206646988
6.825676528727762
-0.057585798887486404
1.0188674737920915
0.17829202973227723
0.8155309561367262
0.0010892953622647361
0.549044417837632
2.019680063473375
1.1500067569830081
0.7082435952683063
-0.09474041471431845
0.8383029003690188
2.152861640212425
6.906786615680983
-0.049256227941915455
-1.0721893396482796
-0.09566296333689686
-0.8437167585607162
0.04481347400836369
-0.344826394728343
-1.2121148202609136
-0.794225202115989
-0.8577931342470506
-0.15823376450432602
-0.5354913306448703
2.46994951075788
6.410647000300943
0.04459993406916963
0.9032808264605554
0.013260883306148743
-0.693191421411135
-0.08635906192993315
0.5418809694392147
-1.918177153824161
-1.2817953532800686
0.7153653192655884
0.052189221133687035
-0.738182230695138
-2.1881596430760135
6.917614763904271
-0.055884183683522645
1.0453692129401189
0.18194687985299957
0.8349246163964245
-0.042634886264066446
0.49117148688841616
1.7607687186547334
1.1065014447103507
0.7532944717574259
-0.025335171503825072
0.7291052063344063
2.2498880776280012
6.832338814777417
-0.04783551745967137
-1.038464230861518
-0.007696036151692013
-0.805203236614077
-0.024013996013803968
-0.5165406083793017
-1.857828416400376
-1.2876513981931506
-0.7612132124114915
0.07220080431480992
-0.8982868460587919
2.1836919900707703
6.888283729531103
0.06338024440331079
1.0209399872228726
0.20800082983601584
-0.828621556002308
0.019710185612527215
0.5658914094885482
2.0668774622097015
1.2048237245363387
0.6980726830932996
-0.12786768127089373
0.9448773296801389
2.142462296517697
6.987459177435549
-0.049535980853168994
-1.081789849592754
-0.13098186434235257
-0.8553963279382167
0.08853764967423039
0.5256525089596771
1.9035002333715099
1.1506776600290856
0.7119142897881829
-0.05809143407811806
0.7210184718629732
2.2028451196406924
6.890070050467632
-0.04785158680302976
-1.0602520702849791
-0.03601281602478002
-0.8256878238866383
-0.06773817167967067
0.4726862896470054
-1.6847984977555213
-1.0910565129546312
0.8082171742262484
-0.0074570948789420485
-0.7787474803913469
-2.2616365386057486
6.749411747700577
-0.054505339128898336
1.0048613921533809
0.11009017074140476
0.7950366383089099
-0.04911728142940819
0.5488498187656263
-1.9932242474386976
-1.2025187628509841
0.7261375866516492
0.07527717891932131
-0.859778218035178
-2.1698350315266897
6.927863094831331
-0.056280665802622594
1.0476449131662606
0.2157120726343064
0.8415933714350724
-0.005393102783309248
-0.5088166493816804
1.9137159607799705
1.0920494296611172
-0.7248707279053619
-0.0704478243159046
0.7655255787983785
-2.205148559988176
6.8774797881724705
0.05219240789439382
-1.0399568852034093
-0.04168278719199476
0.8189778766685377
0.06343436127839394
0.5403128740100943
1.9777962755153662
1.142935938137447
0.7173353089422495
-0.09290939819495012
0.8674029197285233
2.1760401879333164
6.92938164588467
-0.048743876228144
-1.0675142186288245
-0.08353418937019803
-0.838104890171828
-0.09284146007550714
0.5695473520616289
2.0724341353382707
1.223243500355523
0.6800095189442784
-0.1125718019314002
0.845385682689974
2.1518283290827744
6.997370105624557
-0.05015062042344925
-1.0793600476393868
-0.13572236268392177
-0.8536984045885919
-0.07504687401170412
0.5509231048215651
1.989891810701732
1.2127528454360315
0.702280314129375
-0.10153241274508067
0.8604307405861041
2.1698654071739134
6.965621711384226
-0.049180243415180146
-1.07308974956192
-0.09818679338631975
-0.8440222341527314
-0.03132269536560517
0.5615819683185532
-2.0129632294295527
-1.280253733640738
0.7046355296563213
0.08467125970177346
-0.8270081982676312
-2.155843160895664
6.95373076352825
-0.055966918472837066
1.057999326991565
0.21422273791242866
0.8490165074308437
0.037504768696098006
-0.51330070992229
-1.8954349527538588
-1.1721034881005639
-0.7474774970372062
0.0767487880979697
-0.8737292368938078
2.1966268937794946
6.896540247672203
0.058228532123525856
1.0283680520353031
0.1409872355105586
-0.8244452989326317
0.08122895032242919
-0.5412976315613202
2.0308191772926594
1.1609700839607657
-0.7175205640493392
-0.12006228529738514
0.9360743946829195
-2.1546273229739388
6.945730529618621
0.05560440305354937
-1.052210153681525
-0.1422474888436992
0.8440613296812507
0.09984984057269167
0.4376629502759283
-1.5336811939764543
-1.0346721213201509
0.83802295596574
-0.05263108782398689
-0.711014751978079
-2.317332684147584
6.662093850596018
-0.05349946086322411
0.982152426555021
0.06540591716749329
0.7707230446427454
-0.05642598376144164
-0.4233662927197021
1.6035951507054729
0.8791892966665525
-0.8046958499252117
0.047357719803913685
0.6072822420544712
-2.3257053875963845
6.644350807731993
0.05106668610456102
-0.9783802478186557
0.0306172332925312
0.7560875724662699
0.012401483280493772
0.556989115669389
2.058279445240865
1.140915007995417
0.7000820400362453
-0.1012539523172973
0.8590939799929261
2.1580338613753267
6.9516678765333
-0.05025985535061569
-1.0708350311016805
-0.1289631641494725
-0.8467629567854774
0.056125658946360485
0.48060499667172557
1.7715385585749182
0.996619119624262
0.7730523206634092
-0.005457085910004254
0.7091420406141536
2.25253743939007
6.7634284477063815
-0.04917497345088322
-1.0251529683398266
-0.023621253489988395
-0.7980080786834688
0.07474654919662296
-0.4706961812498715
-1.7022566441544371
-1.1603619009831416
-0.7763083223439667
7.278613382111882E-4
-0.6831852459559625
2.2569246793412776
6.7770578624759725
0.05910399623235234
0.9983437017724939
0.09272069995094279
-0.7922152925594028
-0.08152926917704587
-0.48218847452125196
1.7843669201387655
1.1007244168228683
-0.7616811294320274
-0.03844571625999215
0.7652070782741889
-2.2362871867337235
6.819024259717795
0.054283454001416175
-1.0190494469453741
-0.04564920694901174
0.8024066037993102
-0.01270180511534269
0.42890834550719104
1.5070752112855974
0.980250151122879
0.805268690846814
0.0806401153779731
0.5462595397764921
2.351063914902698
6.636659820802983
-0.04985045247999119
-0.9797641199095892
-0.0048952680642618445
-0.7585691970222302
0.03102237055052401
0.5480806948565397
1.976090869896769
1.2246099991480779
0.7245647884604401
-0.09668222735292481
0.9122600083872121
2.162706010442799
6.940388851190147
-0.05263192969096083
-1.0623717620211486
-0.1539773953935995
-0.8443087890548094
0.04964326080078649
-0.5018065286585605
1.8349476589462357
1.1867299975897123
-0.7376960269431205
-0.046831880134677525
0.7274142887489528
-2.2156123732587094
6.8562098729713465
0.05664033608661973
-1.0255064911406169
-0.08707918910709136
0.8137940542135725
0.09336744242711767
-0.47566675483982107
-1.7332722348564455
-1.1476653143269515
-0.7853858793226619
0.026872508731619553
-0.796465013591615
2.2420717522351965
6.803456628822762
0.058389070712207045
1.0059155805833266
0.0956440926932784
-0.7993896765481944
-0.03780509351117916
0.5182157208977083
-1.8646614663631365
-1.1693559960393025
0.7438782731698005
0.041090929468476776
-0.7657174881096686
-2.206983956924243
6.8591515034461095
-0.0532594347955816
1.0390387542730326
0.1220559804057106
0.822280268451214
0.005919085134919788
0.553988350876465
-2.0343795357145416
-1.169209062412267
0.7176830358939792
0.08279656371770967
-0.8590845864279629
-2.160193171721487
6.928327064094456
-0.05513312079080791
1.0536614587462463
0.20468042355645094
0.8446000065237624
0.025366276591409498
0.5585380940546517
2.073806647384907
1.1234975394576927
0.7022735929122768
-0.11594545989981968
0.9136469116690118
2.1511645935794275
6.960065043209956
-0.04888244806570478
-1.0769202866407903
-0.11497039706553411
-0.8495045957571256
0.06909045821774068
0.4861638441259193
-1.7461216509132509
-1.0999640608427508
0.772647300361046
-0.007342036207543324
-0.6783717408728878
-2.2541587494755415
6.7764095984942925
-0.05364214783631472
1.0143097478766556
0.0971492989046128
0.8000183583544387
-0.06208207772055616
-0.5331378411202697
-1.9861404111441239
-1.1825767948317305
-0.737782680595954
0.09562954574151138
-0.9205594528250336
2.1651565820626746
6.91727835676032
0.06063330094687536
1.0333451524858865
0.20334882578205715
-0.8379259976307986
-0.018357899074457215
-0.43701032111070587
-1.5846697968154202
-1.0681209554443452
-0.8419273020896441
-0.01879861368456451
-0.7968614847765548
2.286525321097978
6.691178840154041
0.05941592217083674
0.976527876952307
0.08508645621215338
-0.7735887566731229
2.629881955730218E-4
-0.538648919128125
1.9824993557609334
1.2286321832036495
-0.6972747546969448
-0.09798215871440674
0.7906936347604473
-2.1699157372748257
6.942430950758592
0.05477496422677241
-1.0528842012993065
-0.10506424466621173
0.8385957330265674
0.043987169821904204
-0.4574327488166241
1.719813897213349
0.9953381484793783
-0.7693498192676732
0.0021980009884995056
0.6410212578725558
-2.27353090261467
6.742373289717584
0.05162488631486873
-1.0067643117354748
0.01867639323310777
0.7822690354517045
-0.08718536611639263
-0.5080678706455598
1.900435223673659
1.1072558864925575
-0.7279282600112706
-0.07393590273366712
0.79130442493862
-2.208504118509475
6.8894297332027294
0.05233795010104935
-1.039556358371457
-0.04533834180965417
0.8190514560838076
-0.043461187470293684
-0.5149997049045323
-1.8779897445188503
-1.2283923464581048
-0.7433062885378556
0.062228056513870325
-0.810353339234623
2.195508260729658
6.884182830783043
0.0606694711744432
1.0232965157345062
0.16649109264734807
-0.824036118633409
-0.0248402972200312
0.524616986682242
-1.8762421754986442
-1.2103190501345744
0.7387317946381666
0.03822043749522471
-0.7441295851999521
-2.1999750392728354
6.864373514667234
-0.05519221521427981
1.0372575266069366
0.1548319447943061
0.825560720813986
0.0188838784458355
-0.5560154713976433
2.039236999563712
1.2772826908381618
-0.6967854524230649
-0.13030546129363899
0.914373684393628
-2.1422789067548047
6.985993232366861
0.05650735959409344
-1.0605721601787828
-0.16140798251993999
0.853188281382182
0.08771134846800316
-0.41174773793838426
-1.4523070743845663
-1.0448570305746925
-0.8450813270303879
-0.0649073123138581
-0.6907482132514162
2.345842822013645
6.6344190944704335
0.05769175196199403
0.9539569014164844
0.06854633279589313
-0.7499037808036786
-0.06856447586613015
-0.4836060789194827
1.761782097502224
1.1557164175358505
-0.7659033849005314
-0.04789107044246063
0.8134147000693441
-2.236731863161048
6.8462280978005605
0.05492925044960995
-1.020909907964515
-0.05416135602871863
0.8051034038146799
-0.04994358561586765
-0.5447214447470322
-1.9846956392722443
-1.2928286848161819
-0.7224243100247376
0.10066040911055844
-0.8933622806467248
2.1515786260359477
6.9386267825490835
0.06203613668753746
1.0390425185443004
0.22438074084458268
-0.8453639424749539
-0.0062194069697687066
0.5022663866132453
1.8064494009341512
1.1319818019147272
0.7452486322862741
-0.023742172189993735
0.6943919004916089
2.228524465184143
6.8230899062694945
-0.05022249113089223
-1.038715851804562
-0.047571596745758865
-0.811508883445339
0.06260806007216668
-0.5359313276218456
1.97136244828742
1.2300570793281873
-0.7152175111615429
-0.10194354005768431
0.8599964856660947
-2.1644555492188022
6.931566609855802
0.05653644311760767
-1.048051415301929
-0.13403908155807293
0.8393056228362235
-0.09366776426196662
0.4837051811725612
1.7861159633934585
0.9933605883959341
0.7603317454466022
-0.001889317516503031
0.6686745736396151
2.2583410404866506
6.778417265190641
-0.04894865096563439
-1.0254743908306483
-0.023599900693443695
-0.7978267085313113
-0.0758731781981636
0.4567407866058803
-1.5949996118883498
-1.1071998742497047
0.8078583065249871
-0.038696009783365765
-0.6673775507123959
-2.2922849974795754
6.707921311076513
-0.053737105537628595
0.9964000126646575
0.069094253813285
0.7823457115050367
-0.032148999552064655
0.4769215247125566
-1.704743531574916
-1.0989524660712087
0.798822495710743
-0.004379258293711872
-0.7495458420423792
-2.251698828161915
6.7485090767816125
-0.053881761654751364
1.011755696672082
0.09060564676662597
0.7978441938265322
0.03667846748987075
-0.5504987203263425
2.0197831089784417
1.2637212126479238
-0.7026919430140419
-0.12366320451701081
0.9105643555235567
-2.1519137023992476
6.9813915377736775
0.056753976658848904
-1.0561271702453372
-0.15908531139683962
0.8492291697718156
0.08040264315573747
-0.5435847629921041
2.003404253366304
1.2315478826981943
-0.7065523527471096
-0.11122612019226087
0.8794799887045066
-2.164009218156774
6.966912196811744
0.056764253220261914
-1.0503950355143454
-0.15124387269410516
0.843399745882864
0.09902353340599995
0.5233667906929544
1.8685636690338323
1.2045625724186482
0.7247589087985026
-0.041402391653840964
0.709687162152684
2.2067447339059827
6.875374509692226
-0.052045419295207125
-1.0459782911559359
-0.09879668548249455
-0.8239143574709752
-0.057252284967668876
-0.4766304506572461
-1.7339180222052653
-1.1590088124297544
-0.7935960169869916
0.03550461222125707
-0.844087084668242
2.2331062344361703
6.803604438527768
0.05871830199182948
1.0079814153767461
0.1007992078709378
-0.8022293037564239
0.011575179094034299
-0.536051393911194
1.9904413333214561
1.194125168494828
-0.7070422073852813
-0.08957613961090471
0.7955747279364542
-2.169337914960145
6.920006273537989
0.05665209147130202
-1.0447178707921514
-0.13473987164003315
0.8365769826888685
0.055299357740133254
0.48749997609778023
1.759964165400761
1.0866524556762325
0.7681958112939504
-0.00283845822603605
0.6899426769352303
2.246126958795488
6.778015419188492
-0.05165626582464978
-1.0233179629395204
-0.061803012681003175
-0.8020423146693056
0.07392024501016348
-0.4479241730184323
-1.6502233094556142
-1.0389822058510494
-0.7954176408138116
-0.018233214942927952
-0.6746686571642045
2.288550951124618
6.72406572259129
0.05579632287037401
0.9889500784847421
0.03950863759538556
-0.7761790787099968
-0.08235557634373758
0.5190502546191134
-1.8314582681400857
-1.2416258161238112
0.7445297628173558
0.04494024217991737
-0.7791376198078555
-2.2070933405074022
6.875638771545024
-0.05364031019245676
1.0411788283494214
0.12241001767621729
0.823957660023522
-0.013528109301802177
0.45787843556129354
-1.6013990564127067
-1.1085627625540335
0.7958754911823656
-0.043915169869417556
-0.6047075054732567
-2.2898826939765518
6.697173480198689
-0.05291917020295113
1.0009285386115303
0.041393048495715457
0.7819810779211488
0.030196069344296778
0.4894909955053332
-1.7073831709142535
-1.2136330423152806
0.7804380362535428
0.0016615098695928056
-0.7176273759634421
-2.23606365066632
6.776759617091651
-0.05497407954624497
1.0192335318244685
0.10649343936025657
0.8056880469724494
0.048816959594559256
-0.536863322569432
2.017007657237502
1.1397322982857285
-0.689639754172289
-0.08367223327582389
0.7307582530525786
-2.1847000608540865
6.9389879042122296
0.054591132918878016
-1.0463966681505283
-0.10689492497306721
0.8333000416492566
0.09254113526042596
0.4437275995411569
-1.5874348182817384
-0.9909201595663966
0.806318991823174
-0.05991261966625673
-0.5833460779801785
-2.309399043718158
6.645579132137815
-0.05148005139410255
0.9917227259710829
0.016962862033023995
0.7711544011944449
-0.0386313947174064
-0.5214263317557073
-1.956544597735358
-1.1268496570654671
-0.7296733850648645
0.08378693884185988
-0.8417592015711189
2.1868217076335887
6.902537571049399
0.05616940243241651
1.0368264575938377
0.12078820636284415
-0.8283546678047986
0.0050927809484603015
-0.5145974150358802
-1.8746221133538172
-1.235573600345572
-0.7541009484463375
0.06863246306781501
-0.8601119289162908
2.1872532480628437
6.87719832110275
0.06131985233695228
1.0233417908883156
0.1772324718768781
-0.826021055275899
0.024539975385182267
0.5578546937037351
2.033119150174158
1.200630164903322
0.7055124955060379
-0.10433116563072044
0.8847965735296077
2.1534303365148726
6.955240162918557
-0.0513854033035289
-1.0703319986135176
-0.1452287912486535
-0.8488302824919222
0.06826415105104897
-0.5220545345753035
1.9863630892504465
1.0612818576103333
-0.7098445165552556
-0.08858433762428224
0.8002970088143251
-2.1981758980828867
6.924359553283136
0.05167918310499063
-1.0460530325346158
-0.060319044571703395
0.8263759553613409
-0.06290838190701561
0.5256570759485872
1.9406169290608308
1.0778872206744046
0.7336118965783686
-0.07941018784488249
0.8706017299377466
2.198905336621558
6.910159839374981
-0.04834158591297195
-1.0577957306600103
-0.06837781642805538
-0.8285619911593565
-0.019184203260916674
-0.425430089167473
1.6054362914924385
0.8986838780737023
-0.8219729178857061
0.02677984202680463
0.7290436999293664
-2.317334758189742
6.676309871552121
0.05193241148838368
-0.9801066472066102
0.006038279035027773
0.7616572737516217
-5.633130106541956E-4
-0.512323789166227
-1.8588524904348205
-1.2445623833452923
-0.752971386623441
0.06853977831321488
-0.8506697899654844
2.1887609961823986
6.8733124353830615
0.06023619485480006
1.0259298076017032
0.15554823976987467
-0.8249073753537571
0.043160865635444745
0.49816532608178826
1.7930838839165502
1.115556900762071
0.7401550195080437
-0.011006072907074116
0.6411117126135497
2.2425624106452964
6.817262340153705
-0.049955331692517715
-1.0346222042745965
-0.038328918032645314
-0.8067458690978416
-0.08801166732261985
0.5472829556698686
1.966992323767029
1.2265754633893742
0.7032666456031137
-0.08382979686884086
0.8040761100126693
2.178476689891242
6.9501545574267
-0.05078407766144791
-1.0650940151936472
-0.11343612736645567
-0.8400857078779796
-0.04428749165675314
0.4951418140408791
-1.7882822732360713
-1.104496520521061
0.7753461753522691
0.023883363714578446
-0.788976968464325
-2.2318967588139125
6.809440527693504
-0.052571531766599684
1.0267554389315732
0.09382513901324156
0.8093391210387179
-0.02566660140649067
-0.5121647662728448
-1.912698288241341
-1.1342173498091852
-0.7375854182905662
0.06054685581767295
-0.7801020972903616
2.1974756805782225
6.865378751820159
0.05772951274348263
1.0267936583725905
0.1259214636371285
-0.8210328327419585
0.018057577239608283
-0.5158099656007494
1.92612899297299
1.1336514564435656
-0.7294198190508202
-0.07650859931515494
0.8104280901665799
-2.1952113015250534
6.8927357479514315
0.05520785495552002
-1.036540924687331
-0.09583920495287708
0.8243182005669512
0.08688504130131144
-0.53398923098922
1.981958903313977
1.188828984618482
-0.72564647302903
-0.11002756017547387
0.9265178420878
-2.1678592969775603
6.9430556538348505
0.05655241871490684
-1.0461129787335042
-0.14344360655896998
0.8391899215859825
-0.06939077707235737
0.39575958493203706
1.3820183413955083
0.8829102254335173
0.864404972377284
0.09933341413793188
0.6591128043463675
2.380033983017627
6.528709123127247
-0.04909527729824839
-0.9571497950395574
-0.002352392798130286
-0.7401678087774362
-0.05076988682209489
-0.5060923297696284
1.8863640260096934
1.115324617991109
-0.7173522645370797
-0.051306686354211886
0.6899000039136176
-2.223073197309296
6.880689368222029
0.053566065365530165
-1.0320964604781322
-0.053390918508144466
0.813709872739356
-0.007045711156228179
0.5056204894887955
-1.7884373739783586
-1.1952697883926702
0.7656653461759406
0.041660779973173245
-0.8308882964711652
-2.2207295798644235
6.853853330320521
-0.05278393338831987
1.0348566545694997
0.10738213384571921
0.8170798110345033
0.061781752905474996
0.4752735447586375
-1.6818206547668952
-1.1156417225703423
0.7843015054344185
-0.008986540460252778
-0.7066738160495301
-2.2692713847663435
6.771444155055882
-0.052284313828954106
1.012982964628362
0.06746298759339872
0.7946116563176536
-0.09449406844842607
0.5000285099479712
1.8102358938122622
1.1016043074972555
0.7453657579901317
-0.011985350632939842
0.6671539522600207
2.2426486628836546
6.825442963510064
-0.05137955114653689
-1.0300450582971497
-0.07009538771506696
-0.8077860293678366
-0.07669948238462308
0.542586101702231
1.9615925953285922
1.197044436307404
0.715344170260589
-0.0747131952416064
0.8143823082405153
2.1839500804895198
6.934262821240237
-0.05246403164502658
-1.0557257258847925
-0.14085688138359845
-0.8369538650453425
-0.03297530373852413
-0.3274173918842981
1.1648092559161463
0.6856876887271881
-0.8163366333701993
0.1778917035017816
0.4684362488932755
-2.5167172935340507
6.376512770416636
0.032044882111900264
-0.8958402526993331
0.028984316992166272
0.6758652636047957
0.03585216330341129
-0.5341061732668319
2.0005582250535925
1.1535597386433176
-0.7170773166307439
-0.09791258422974441
0.8619447289349048
-2.173280933501997
6.933122888860388
0.0565920750764476
-1.042978573422734
-0.14308194270259975
0.8364480128706525
0.07957634194951022
