0.0
0.04619355747533141
-0.05189271686570283
0.027483485070021657
0.010087401023526787
0.019509055559440353
-0.033356320104670045
-0.022962163051856305
0.09696830803996179
0.07583650357449603
0.08824983589642288
-0.04500920679290304
-0.07422056982524466
0.0
0.04617563814065817
-0.017983837701559674
-0.05845703173805659
-0.033456588808097765
0.09355118188482414
-0.09877656354684775
0.09274095940464153
0.08797307775638197
0.08943898353263877
0.08741642977919392
-0.020565131563058878
-0.03049639415937795
0.0
0.04622938720398115
0.0802895248060109
-6.354813138218507E-4
0.09717538664724032
0.07142480886913727
0.09748416677968533
-0.05436841392531647
-0.08504123437311076
0.048631543658210485
0.08991665409134525
-0.09389735427235912
0.03833107586278969
0.0
0.04621147382977239
-0.08580159304961373
-0.08657599812190009
0.053631396815615795
-0.05453306778571119
0.032063923337507655
0.06133471151141362
-0.0940364646566906
0.06223402361635327
0.08908324499388406
-0.06945327904251496
0.08205525152865642
0.0
0.04612189205756742
0.08374280277110202
0.08372142379817316
0.035911432756331935
-0.08432244509948901
-0.09503728791291632
0.03985033869506402
0.06098739286610694
-0.06975357957316519
0.08491620844727485
0.052767085185776885
-0.09932385822108113
0.0
0.04610397272289418
-0.08234831806475483
-0.0022190900296728405
-0.007632557075292604
-0.010280321754337463
0.03954246864490599
-0.044446538848438126
0.05199216556275932
-0.05615109961502243
0.08408280233004592
0.07721115743538881
-0.05559967957498218
0.0
0.046157724766449415
0.015925041462583486
0.05560245741432965
-0.07700058161995454
-0.03240669477002432
0.035803193010974566
0.008444087821603857
0.07897784747280212
-0.09695853650921847
0.08658302366196499
0.0038789377063208202
0.01322778746695323
0.0
0.04613980841200843
0.04983392062672662
-0.030338059393748604
0.07945542854842094
0.04163543155535945
-0.029617044470738638
-0.07585278972189831
0.06998262016945453
-0.0833560565510757
0.0857496145645038
0.028323009955932732
0.05695196611305217
0.0
0.04605022663980346
0.019378316447442367
-0.060040640453907584
0.06173546448913708
0.01184605126134941
0.043281738318372925
-0.0973371625382479
0.025006477692252033
-0.015343662720826393
0.08158257801789459
-0.04945662581577544
0.07557285636331465
0.0
0.04603231028536245
0.05328719859181777
0.05401884571824642
0.018191474657512544
0.08588817758673317
-0.022138505123804775
0.018365959918249963
0.016011247408672213
-0.00174118574291586
0.08074917190066566
-0.025012550585931284
-0.08070296797081865
0.0
0.046086059348685426
-0.048439441880843925
-0.08815960683775109
-0.05117654988714937
0.06376180457104633
-0.025877774797271713
0.07125658658829195
0.0429969352791795
-0.0425486226371119
0.0832493902523525
-0.09834477031499927
-0.011875503909115473
0.0
0.04606814299424444
-0.014530562716700765
0.025899876354170653
-0.09472054269900616
-0.06219607208380214
-0.09129801823944941
-0.013040287974977957
0.03400170797583188
-0.028946142678969153
0.08241598413512355
-0.07390069806538735
0.03184867771721572
0.0
0.04597856122203947
-0.04498616689598503
-0.003802701725756072
0.08755949622194223
-0.09198544641734772
-0.018399232470105595
-0.03452466675179204
-0.01097443748160283
0.03906625413151238
0.07824895056874659
0.04831966616290448
0.0504695679674782
0.0
0.04596064486759849
-0.011077287731841884
-0.0897432155536021
0.04401550341008545
-0.017943323072196177
-0.08381947293205105
0.08117846166517029
-0.019969667765182678
0.05266873408965517
0.07741553849105318
0.0727637384125164
0.0941937436333449
0.0
0.046014393930921466
0.08719607775596092
-0.031921671089831835
-0.025352518154344236
-0.040069699068115285
-0.08755874856598247
-0.06593091464501996
0.007016020105324608
0.011861297195459114
0.07991576280320448
-5.684783363193446E-4
-0.036978789324719694
0.0
0.045996477576480455
-0.07889504307989595
0.08213781210208992
-0.06889651394643324
0.03397242725726851
0.047021007991839836
0.049772210791710125
-0.001979210178255239
0.025463777153601874
0.07908235668597552
0.023875593913292567
0.0067453863411470055
0.0
0.04648021616615508
0.005565216508006815
0.0025317390981123705
-0.09320871994722935
0.034835064155622264
0.013367566029476266
-0.07421216109884088
0.04089196873538131
0.05819683616514085
-0.0984156423860561
-0.036114371727390474
0.026192583758101212
0.0
0.046462302791946325
0.039474095672149934
-0.08340877770996587
0.06324729022114614
-0.09112281249922619
-0.052052677412701434
0.04149096433788918
0.031896738451801465
0.07179931612328361
-0.09924905148351729
-0.011670299477778562
0.06991675942396791
0.0
0.0465160518552693
-0.06225254480051175
-0.025587230265963365
-0.006120734323515786
0.08675081150485472
-0.055791950066400586
0.09438158802769897
0.05888242632230875
0.030991876248855327
-0.09674882717136596
-0.08500251622661432
-0.061255776514328925
0.0
0.046498132520596064
-0.028343662656136345
0.08847225590619062
-0.04966472713537256
-0.03920706216976151
0.07878780947165395
0.010084713464429032
0.049887196038728904
0.04459435918723034
-0.0975822332885949
-0.060558443977002385
-0.017531594887997742
0.0
0.04640855074839109
-0.05879926683542061
0.058769674846031655
-0.06738468821442418
-0.06899643948353934
-0.048313404759002254
-0.011399662332152796
0.0049110505812941935
-0.08739324698252036
0.09825072718456365
0.061661917271057215
0.0010892953622647361
0.0
0.046390637374182336
-0.02489038767127745
-0.027170841962046596
0.08907131897371906
0.005045683861612221
0.08626635179882006
-0.09569653689542273
-0.004084176722053412
-0.07379076702437759
0.09741732106733472
0.08610599250090137
0.04481347400836369
0.0
0.046444383457273086
0.07338297483629311
0.030650705481955892
0.01970329442905712
-0.017080689154074652
0.08252708212535315
-0.04280591022538072
0.022901511148453874
0.08540179608142637
0.0999175423992538
0.012773775752065591
-0.08635906192993315
0.0
0.0464264671028321
-0.09270814599956377
-0.055289808345890125
-0.023840698382799647
0.05696143717130914
0.017106838683175446
0.07289721223111711
0.013906280864874027
0.09900427305933687
0.09908413330179261
0.037217848001677545
-0.042634886264066446
0.0
0.04633688831085936
0.076836249821152
-0.08499238642581686
-0.041560656481619045
0.027172059857531294
0.090005621472287
0.051412836434535286
-0.031069861612328456
-0.032983327149949324
0.09491709675518342
-0.04056178777003064
-0.024013996013803968
0.0
0.046318971956418376
-0.08925486803447263
0.02906709676610489
-0.08510465227370806
-0.09878581679731716
0.024585381010341537
-0.03288403812873464
-0.04006508891567604
-0.019380850172038805
0.09408369063795446
-0.016117718500650954
0.019710185612527215
0.0
0.0463727180395091
0.009018491492865682
0.08688864122987514
0.04552732616186225
0.07908781018699601
0.020846108356642384
0.020006585561075124
-0.013079407005633231
-0.060188290046467086
0.09658391196987354
-0.08944993524948673
0.08853764967423039
0.0
0.046354801685068114
0.042927370657008856
9.481274020291391E-4
0.0019833333500054867
-0.04687006646785248
-0.044574135085535316
-0.06429028602196257
-0.02207463430898085
-0.046585810088324325
0.09575050585264458
-0.06500586001964255
-0.06773817167967067
0.0
0.04626522289309537
0.012471766477724591
-0.0287544506778976
-0.015736624748813904
-0.07665944378163028
0.028324653664040716
-0.08577466181854439
-0.06705077678618332
0.02142658672215722
0.09158346930603539
0.05721450420864929
-0.04911728142940819
0.0
0.04624730355842216
0.04638064564186775
0.08530503251402416
-0.05928062054090291
-0.0026173174562465207
-0.037095589778136984
0.029928463618185686
-0.07604600706976317
0.03502906668029998
0.09075006020857421
0.08165857347802896
-0.005393102783309248
0.0
0.04630105262174514
-0.05534599185056171
-0.05687341706174112
0.07135135789466743
-0.024743693452165608
-0.04083486243183614
0.08281908730799545
-0.04906031919925589
-0.005778370213896045
0.09325028154049328
0.008326356729193199
0.06343436127839394
0.0
0.04628313924753638
-0.02143711268641857
0.05718606613018065
0.02780736508281062
0.04929843287321817
0.09374489710621842
-0.0014777872552744764
-0.058055549482835735
0.007824106764014488
0.09241687542326435
0.03277042897880514
-0.09284146007550714
0.0
0.04562023711345181
0.033191419367110175
0.07738698297430471
0.016679648925503485
-0.011142955672459001
0.07319591060726957
0.0795378330421129
0.009120986649122781
-0.08888416160679365
0.0615807984218453
-0.06279887692392816
-0.07504687401170412
0.0
0.04560232075901083
0.06710029853125335
-0.00855353085354131
-0.02686434090612104
0.0628991706529248
0.007775670145324098
-0.004759041521157054
1.2575934577518932E-4
-0.07528168164865089
0.060747389324384116
-0.03835480765454846
-0.03132269536560517
0.0
0.045656069822333806
-0.034626338961176104
0.04926801361022895
-0.09623236545078298
0.04077279763723793
0.004036397491624946
0.04813158216865271
0.02711144423605022
0.08391088145715309
0.06324761363653542
0.08831297559661577
0.037504768696098006
0.0
0.04563815048766057
-7.17459797032971E-4
-0.03667250021761706
0.060223644717592506
-0.08518507901761052
-0.061383845950552754
-0.036165292394617216
0.018116216932702628
0.09751335843506362
0.06241420751930646
-0.08724294917354009
0.08122895032242919
0.0
0.04554857169568785
-0.03117306397631721
-0.06637507829754381
0.04250368065830862
0.08502554366861168
0.011514939818791037
-0.05764966819119904
-0.026859928524732096
-0.03447424475445485
0.05824716799246504
0.03497741505475177
0.09984984057269167
0.0
0.04553065534124684
0.002735815187825924
0.047684404894377946
-0.0010403121535481341
-0.0409323329862368
-0.05390530362338666
0.05805346022576327
-0.03585515880831194
-0.0208717647963121
0.057413761875236086
0.05942148432413147
-0.05642598376144164
0.0
0.045584404404569845
-0.09899081932437129
-0.09449404766161956
-0.07040833371797782
-0.06305870600192368
-0.0576445732968536
-0.0890559190646592
-0.008869470937804658
-0.061679204670740354
0.05991398320715516
-0.013910732424704308
0.012401483280493772
0.0
0.045566485069896606
-0.06508194016022813
0.019565438510534452
0.08604767048993317
0.010983417343227872
0.07693518326096874
0.02664720935230311
-0.017864698241152263
-0.04807672471259761
0.059080574109694
0.010533339824907603
0.056125658946360485
0.0
0.04547690627792386
-0.09553754433951239
-0.010137142549624542
0.06832771239111379
-0.0188059569903177
-0.05016603096968748
0.005162833555721294
-0.06284084071835475
0.01993567209788394
0.054913537563084786
-0.06724629594680054
0.07474654919662296
0.0
0.04545898992348288
-0.061628665175369225
-0.0960776593577028
0.024783719579257
0.05523616933506609
0.08441372558813484
-0.07913404398778089
-0.07183607100193456
0.0335381520560267
0.054080131445855856
-0.042802220716956385
-0.08152926917704587
0.0
0.04551273600657363
0.0366446943519691
-0.03825610893346805
-0.04458430198517267
0.03310979035891473
0.08067445293443565
-0.026243417317738868
-0.04485038611165953
-0.0072692848381693265
0.056580355758007156
0.08386555657374337
-0.01270180511534269
0.0
0.04549482263236487
0.07055357649634447
0.07580337425845371
-0.08812829777726168
-0.09284808331570149
0.015254212472490217
0.0894597081189912
-0.053845616395239375
0.006333192139741192
0.05574694666054597
-0.09169036819641248
0.03102237055052401
0.0
0.0454052408601599
0.04009797231706019
0.04610079617852697
0.09415174412391894
0.07736254235075293
0.08815299824183401
0.06797533232240938
-0.09882175887244185
0.07434558895022275
0.051579910113936756
0.03052999603187939
0.04964326080078649
0.0
0.04538732450571889
0.07400685148120337
-0.03983972062955128
0.05060775131206216
-0.04859533430409553
0.022732754799656307
-0.01632154522109279
0.09218301382421054
0.08794806890836551
0.05074650101647557
0.05497406828149129
0.09336744242711767
0.0
0.04544107356904187
-0.027719788991458327
0.01798182681445122
-0.018760273232599767
-0.07072170731978239
0.018993482145957127
0.036569081448949214
-0.08083129830528218
0.04714062903393723
0.05324672234839464
-0.018358151447576715
-0.03780509351117916
0.0
0.045423157214600884
0.006189090172684833
-0.0679586870133948
-0.06230426604445654
0.003320416025369144
-0.046426758315988303
-0.04772779311432072
-0.08982652858886203
0.06074310899207999
0.05241331623116571
0.006085920802035211
0.005919085134919788
0.0
0.04590689580427548
0.09064935274081981
0.05243523700239541
-0.08661647204525263
0.004183049943490683
-0.08008020325858414
0.02828783499512827
-0.04695535265545772
0.09347617098385119
0.0749153171591341
-0.0539040418584156
0.025366276591409498
0.0
0.0458889794498345
-0.07544176809503705
-0.03350527980568284
0.06983953514289062
0.07822517626887446
0.054499553299238196
-0.05600903956814163
-0.055950579958805306
-0.09292135203823829
0.07408191104190515
-0.02945996960880369
0.06909045821774068
0.0
0.04594272851315748
0.022831594412533504
0.024316267638319664
4.7151059822866936E-4
0.05609880325318761
0.05076028362577126
-0.003118415878331879
-0.02896489506853027
0.06627121404779793
0.07658213237382422
0.09720781364236059
-0.06208207772055616
0.0
0.045924812158716494
0.056740473576676664
-0.061624249169758574
-0.0430724822136281
-0.06985907340166086
-0.014659959816406443
-0.08741528746136956
-0.03796012535211011
0.07987369102570843
0.07574872625659529
-0.07834811708825976
-0.018357899074457215
0.0
0.04583523038651152
0.026284869397392413
-0.09132682724968533
-0.06079244031244749
-0.0996484507154387
0.05823882297270511
0.09110033376181637
-0.08293626782931258
-0.052113912163810006
0.07158168672975382
0.04387224714003207
2.629881955730218E-4
0.0
0.04581731403207051
0.06019374856153556
0.022732655942236432
0.09566356389546352
-0.025606327370287146
-0.007181417489240324
0.006803459198546455
-0.09193149513266019
-0.038511432205667266
0.07074828061252489
0.06831632236987625
0.043987169821904204
0.0
0.045871063095393516
-0.04153289191112615
0.08055420338623895
0.026295542331033817
-0.04773270038597399
-0.010920690142939504
0.05969408586858846
-0.06494581024238516
-0.07931887208009554
0.07324850492467622
-0.005015897359191751
-0.08718536611639263
0.0
0.04585314972118476
-0.007624009766750747
-0.005386313421839303
-0.01724845048082295
0.026309422959177542
-0.0763409335851172
-0.024602788694681466
-0.07394103754573277
-0.06571638914172054
0.07241509582721503
0.019428177870652402
-0.043461187470293684
0.0
0.04576356496874753
-0.03807961394603501
-0.03508888852153383
-0.03496841155987458
-0.003479954354600273
-0.003442144835541172
-0.046087164491263315
0.08108281699683254
0.00229600468852878
0.06824805928060582
-0.058351460881288
-0.0248402972200312
0.0
0.04574564861430655
-0.004170734781891852
0.07897059467038794
-0.07851240437173135
0.07056217197078352
-0.06886238827771887
0.06961595796523454
0.07208758671325272
0.01589848464667154
0.06741465316337689
-0.03390738863167607
0.0188838784458355
0.0
0.045799400657861755
0.0941026277256787
-0.06320785788560956
0.052119571083606736
0.04843579895509664
-0.07260166093141802
-0.07749341536472348
0.09907327458376
-0.0249089522475245
0.0699148715150637
0.09276039461948818
0.08771134846800316
0.0
0.045781481323188544
-0.07198849311017815
0.05085162530631218
0.008575581251982212
-0.07752207769975182
0.06197809860663653
0.038209707091774375
0.09007804430018015
-0.011306475269613966
0.06908146539783475
-0.08279553313089992
-0.06856447586613015
0.0
0.04569189955098357
0.0975559027105376
0.021149047226385442
-0.009144382807301649
0.09268854796670262
-0.06512311860425193
0.016725334275424802
0.04510190480320991
0.05670592154086759
0.06491442885122556
0.039424828117159694
-0.04994358561586765
0.0
0.04567398617677482
-0.06853521514508704
-0.0647914695816928
-0.05268837263892619
-0.03326932868814585
0.06945663795357038
-0.06757154028784514
0.036106674519630066
0.07030840149901033
0.06408101975376437
0.06386890334700387
-0.0062194069697687066
0.0
0.045727735240097794
0.02973814438225128
-0.006969922137690321
0.07794360281641188
-0.05539570170383273
0.06571736828010347
-0.014680913617803146
0.0630923594099051
0.029500961624582045
0.06658124108568345
-0.009463313401831902
0.06260806007216668
0.0
0.045709815905424556
0.06364702354639445
-0.09291043596553633
0.03439961298478736
0.018646421641318828
2.9712483792576627E-4
-0.0989777911613053
0.05409712912632525
0.04310344456295706
0.06574783496845449
0.01498075884778001
-0.09366776426196662
0.0
0.045046913771340014
-0.08172444141984457
-0.07270951614118003
0.023271896827480182
-0.041794966904358334
-0.020251858680790852
-0.017962170863917964
-0.07872633176148401
-0.053604826788083294
0.03491175796703547
-0.0805885500351855
-0.0758731781981636
0.0
0.045028997416899
-0.047815565235933666
0.04134996705074173
-0.020272095984376584
0.03224715644079321
-0.08567209914273631
0.09774095457281215
-0.08772156204506383
-0.040002346829940555
0.03407835184980651
-0.05614447778557359
-0.032148999552064655
0.0
0.045082749460454236
0.05045779727163688
0.099171511514512
-0.08964011754880626
0.010120783425106333
-0.0894113747766677
-0.049368418757145885
-0.06073587715478879
-0.08080978670436881
0.03657857318172558
0.07052330546559066
0.03667846748987075
0.0
0.045064833106013225
0.08436667643578005
0.013230997686665982
0.06681588665910473
0.08416290975049012
0.04516838476138685
0.06633470369935199
-0.0697311044581364
-0.06720730376599382
0.03574516706449665
0.09496737771520258
0.08040264315573747
0.0
0.044975248353576025
0.0539110722564958
-0.016471580393260757
0.04909592856028536
0.054373535416944535
-0.08193282946926937
0.04485033088300236
0.08529275306466114
8.050900642554842E-4
0.03157812753765521
0.017187741943494414
0.09902353340599995
0.0
0.04495733497936727
0.08781995440087118
0.097587902798661
0.005551935748428563
-0.07158434123790391
0.05264692708855295
-0.039446546660499786
0.07629752278108129
0.014407567042166017
0.030744721420426252
0.041631814193106326
-0.057252284967668876
0.0
0.04501108404269025
-0.013906686071790506
-0.04459054975733652
-0.06381608581600112
-0.09371071723382303
0.048907657415086014
0.013444080009542198
-0.09671678934841144
-0.02639986687179778
0.03324494573257758
-0.03170040255572944
0.011575179094034299
0.0
0.044993167688249264
0.020002193092352655
0.06946893343458524
0.09263991839190988
-0.01966859388867148
-0.016512586027091672
-0.07085279753395995
0.09428798036800873
-0.012797389893887262
0.03241153365488414
-0.007256330306117498
0.055299357740133254
0.0
0.044903582935812036
-0.01045341108693161
0.0397663553546585
0.07491995731285825
-0.04945796822221707
0.05638619676201989
-0.09233717035030956
0.049311834910574004
0.055215006916594284
0.02824450008850718
-0.08503596607782567
0.07392024501016348
0.0
0.04488566956160328
0.023455468077211522
-0.04617416145341975
0.031375967481233724
0.02458415512293448
-0.009034043699925581
0.023365955086420545
0.04031660760722641
0.06881748687473707
0.027411093971278222
-0.06059189680844599
-0.08235557634373758
0.0
0.044939418624926286
-0.07827116643498569
0.011647385990582751
-0.03799206004366045
0.002457782107247633
-0.012773316353624733
0.07625658175646252
0.0673022954777337
0.02801004700030879
0.029911315303197294
0.06607588644271825
-0.013528109301802177
0.0
0.044921502270485275
-0.04436229025107477
-0.07429312783726326
-0.08153604987528498
0.07649990843263141
-0.07819355979580243
-0.008040295787039617
0.05830706519415385
0.04161252695845152
0.029077906205736137
0.09051996167256243
0.030196069344296778
0.0
0.0448319204982803
-0.0748178914501268
0.09600429408281
-0.09925601095433662
0.046710528138621366
-0.005294771046226401
-0.029524671583621445
0.013330922716951382
-0.09037507623106691
0.024910869659126922
0.012740325900854249
0.048816959594559256
0.0
0.04481400414383932
-0.04090901526621587
0.010063777274731761
0.057199996233806644
-0.07924734553599487
-0.0707150144884041
0.08617845385310863
0.004335695413603763
-0.07677259627292417
0.024077460561665737
0.037184398150466175
0.09254113526042596
0.0
0.0448677532071623
0.057364350221586924
0.06788532471873426
-0.012168028310855283
0.09862628144831828
-0.07445428416187104
-0.06093092245708161
0.031321377323646565
0.0824199668328798
0.026577681893584837
-0.036147821578601844
-0.0386313947174064
0.0
0.04484983387248906
0.09127322938573007
-0.018055189109111747
-0.055712018142479836
-0.027331595206530196
0.06012547239595131
0.054772202979648466
0.02232615002029896
0.09602244381079034
0.02574427577635588
-0.011703749328989904
0.0050927809484603015
0.0
0.04533357544239591
-0.024266514006599432
-0.09766126807355378
-0.08002422712350817
-0.026468961288408657
0.026472027453355473
-0.06921216593067031
0.06519732595370328
-0.07124449419743846
0.04824627670432427
-0.07169371496967294
0.024539975385182267
0.0
0.04531565908795493
0.00964236813777597
0.01639821809860023
0.07643178006463508
0.04757316503697512
-0.03894821598882221
0.04649095652582752
0.05620209865035569
-0.057642014239295714
0.04741287058709531
-0.04724963973982879
0.06826415105104897
0.0
0.04536940815127791
-0.09208426935465348
0.0742197655426027
0.007063755519973153
0.025446789041056017
-0.04268748864252139
0.09938158319586954
0.08318778354063072
-0.09844945113349175
0.04991309489924661
0.07941814053110322
-0.06290838190701561
0.0
0.045351491796836896
-0.05817539019051035
-0.011720751265475532
-0.0364802343116514
0.0994889153664398
0.09189226791530092
0.015084705652367372
0.07419255623728313
-0.08484697415558123
0.04907968580178543
-0.09613778721928488
-0.019184203260916674
0.0
0.04526191300486418
-0.0886309943697946
-0.04142333232563451
-0.054200195390703025
0.06969953805266199
-0.035208946315355275
-0.006399670144214456
0.029216413760080634
-0.016834577345099674
0.04491264925517624
0.026082577009006985
-5.633130106541956E-4
0.0
0.04524399367019094
-0.054722118185883684
0.0726361568267517
-0.0977441882025598
-0.05625833860218648
0.09937081322269928
-0.09069654470748437
0.020221183476500787
-0.0032321003671891557
0.04407924313794728
0.05052664925861891
0.043160865635444745
0.0
0.04529774273351392
0.043551247301919116
-0.06954229870947803
0.0328877872527783
-0.07838471161787336
0.09563154056900011
-0.037805918037442376
0.047206868366775845
-0.04403953726138519
0.046579464469866355
-0.022805567490216866
-0.08801166732261985
0.0
0.045279826379072935
0.07746012646606226
0.04451718448244374
-0.010656202578846224
-0.004342588272721798
0.030211297126822412
0.07789720739928771
0.038211638083196
-0.03043705730324245
0.0457460553724052
0.0016385047593950458
-0.04428749165675314
0.0
0.04519024758710019
0.04700452228677801
0.014814606402516972
-0.0283761666381301
-0.034131962606267385
-0.09688991710383382
0.056412828622473626
-0.006764501413774243
0.037575339507239125
0.04157901882579598
-0.07614113101231311
-0.02566660140649067
0.0
0.04517232825242695
0.08091340145092116
-0.07112590742532904
-0.07192015944998686
0.03991016073888415
0.037689842434220744
-0.027884042960564043
-0.015759731697354076
0.051177819465381885
0.040745612708567025
-0.05169705876270119
0.018057577239608283
0.0
0.04522607731574996
-0.020813236041508282
-0.013304359981326536
0.05871181898558345
0.017783787723197303
0.03395056978052158
0.02500658072924572
0.01122595617315321
0.010370382571185832
0.0432458340404861
0.07497072448846306
0.08688504130131144
0.0
0.045208160961308946
0.01309564312263485
-0.09924487678940477
0.015167829153958909
0.09182591404858106
-0.03146967366165612
-0.059290293834024205
0.0022307258895733623
0.023972862529328592
0.04241242494302494
0.09941479375784273
-0.06939077707235737
0.0
0.04511858216933623
-0.017359961056649414
0.07105254513066847
-0.0025521349053249515
0.06203653673480328
0.04142911210768768
-0.08077466963060605
-0.042745419567861355
0.09198525635957791
0.03824539137664795
0.02163515798613458
-0.05076988682209489
0.0
0.04510066283466299
0.016548918107493746
-0.014887971677409767
-0.046096127717181724
-0.0639213399200452
-0.023991131334490004
0.034928455806124054
-0.05174064687120897
-0.09441226666251157
0.03741197929895454
0.04607923321597873
-0.007045711156228179
0.0
0.04515441189798597
-0.08517771938493571
0.042933575766592735
0.0845358507183886
-0.08604771293573206
-0.027730401007956942
0.08781907949593379
-0.024754961980933923
0.06478029644329239
0.03991220361110587
-0.027252986513089272
0.061781752905474996
0.0
0.04513649852377721
-0.05126884022079255
-0.0430069410414855
0.040991857906531814
-0.012005589590580512
-0.09315064445013464
0.0035222079128961192
-0.03375018928428153
0.07838277640143518
0.03907879749387691
-0.0028089112832450913
-0.09449406844842607
0.0
0.04447359638969267
0.0033596918327361835
-0.022806021217129227
0.029864141749224665
-0.07244697515602545
0.08630037203114876
0.08453782523005124
0.03342634684767698
-0.01832549196937297
0.008242717512225634
-0.09837822314644287
-0.07669948238462308
0.0
0.04445568003525166
0.03726857099687936
0.09125346495502479
-0.01367984808239986
0.0015951481891260944
0.020880128588971078
2.4095066678131438E-4
0.02443111656409716
-0.0047230149914624375
0.007409311394996704
-0.07393414791659872
-0.03297530373852413
0.0
0.04450942611834241
-0.06445806351531787
-0.05092498760097273
-0.0830478726270618
-0.020531227806792993
0.01714085891550414
0.053131577336823305
0.05141680443460442
-0.04553045188565848
0.009909535707148004
0.05273363533456554
0.03585216330341129
0.0
0.04449150976390143
-0.03054918733140695
0.06313449559094905
0.07340813456108145
0.05351089851859078
-0.048279384526673554
-0.031165297226446634
0.0424215741510246
-0.031927971927515716
0.009076126609686819
0.07717770758417747
0.07957634194951022
