0.641912950696489
2.726850531439894
0.6542394474243958
0.7532420685206795
-0.007212750841383033
1.0765253770448222
2.1261535720223805
6.979931697731061
-0.09810000516611575
-0.9225840113563454
-1.1916913797297575
-0.8714097647426434
-0.520603657474743
1.8160392620415133
1.4338770066597657
-0.7020969825693038
-0.07858692341600486
0.5977941881319659
-2.083686478667952
6.676918393932354
0.045748686874368415
-1.088615718156711
0.10883079514406009
0.8382598539013892
-0.5029500163030838
1.790677034009175
1.3075937244351477
-0.7522963685569752
-0.1285792211594918
0.9189015833154507
-2.1012090005012802
6.7267696072225265
0.04057697770316324
-1.0951887352642664
0.16176988958212157
0.8361397784245912
0.49083226316180256
1.6916781643480787
1.2632750059694737
1.123936508139932
0.09647726178529292
1.2519578400458455
2.05362709184008
6.21848251532049
-0.1110491717442785
-0.8728791964622395
-0.9749122270930618
-0.8214181350583959
-0.67978003117181
-2.794200492846008
-0.9393091128275891
-0.6378975147703955
0.05925293333763681
-0.8767118762522542
2.0970568983368665
7.13420779856354
0.10013894102674627
0.9567798031523611
1.1010532827348252
-0.8953255175447338
0.29786680372681806
-0.734967464532901
-0.9121866418936878
0.5929385789633308
-0.33184013981416505
0.13231016281937272
-2.5510615619183827
6.008413310103473
0.015002328704322235
0.9049688111340796
-0.1740878965593898
0.6380019988495991
3.8557688263228447
2.0627250836153523
0.9228083311286702
-0.4477411253093016
2.2847456347978046
0.606234673660253
1.216994584939768
0.25916696349930707
-0.11702547886807575
-1.9357549851863904
0.6254256695594402
1.455861446075919
0.591257071049377
-2.316644461753136
-1.0140481165632869
0.8136591444599595
0.0530908302839037
-1.2141902454325602
-2.1063658225234527
6.895398993788283
-0.0868686872429485
0.9655372526514424
0.8530156090789414
0.8654916923039555
-0.5317206906078573
-1.7780788343953033
-1.6478568183534112
-0.8517725269718133
0.0477126474282086
-1.0800800117721223
2.0988663127222478
6.771439039490825
0.08942785992474485
0.9770060996247071
0.579730105292809
-0.8491759574374448
-0.641089329387213
2.7447273530029928
0.6311073726349254
-0.5470102944683927
0.003950950148013791
0.1833348151014379
-2.1389471750133544
6.948006082725598
0.07215039100949809
-1.003563846062595
-0.5297409576694374
0.8565850143457234
0.6360710658746975
2.3440828186907594
1.3685212688263686
0.743491504257986
-0.06304812977215536
1.106662458353284
2.0955898074151484
7.050731334762507
-0.0924185295863233
-0.974676340019454
-0.9876285911185925
-0.8875976641086685
-0.6384459714973019
2.1898601523316077
1.6604676138982468
-0.43114464407780245
-0.12302547889617559
-0.029923489158654965
-2.1337826262245856
7.167594097362042
0.03031447754828311
-1.1724464727227957
0.25689205798359344
0.877559636964521
0.4891715134500574
-1.4328393414343796
-1.7636217077375098
0.8881942750735329
0.0512970817618729
-1.17196611219653
-2.1717712435409138
6.791613623462031
-0.06634473757725856
1.0187915308516515
0.24815080329302197
0.8284493840839027
-0.5789990368271509
2.6029118770149955
0.3764812789646657
-0.6943484763829562
-0.1668563061542811
1.1194606914128675
-2.106352716772117
6.945143475890636
0.05162702281244286
-1.0561864069945628
-0.23456405781268783
0.8608374996894285
0.6092101852135733
2.2502463029984905
1.213030408613754
0.45937915673357244
-0.18822830696309736
0.174644484426264
2.0907309803686887
7.0165839722695305
-9.219244598010459E-4
-1.264855528265756
0.697532676903266
-0.8737874986308919
-0.5151068129963489
-1.6962250579104983
-1.6474882636833572
-0.9838779562980547
0.07560452443923275
-1.595450896917832
2.099400924743104
6.787359555888016
0.10123922607189928
0.9451707995072264
0.7660843038991977
-0.8513722301977691
-0.5165831554153394
-1.7142246075205039
-1.6466286096159364
-1.046459172525816
0.004866174940317307
-1.5089173998353482
2.0604418895870813
6.595633263374055
0.11779002583858865
0.8961558738208885
1.02089123080985
-0.8478669772419124
0.5462887285525534
1.8480673402776937
1.602902773213051
1.1164140283441892
0.05759663145670382
1.5700338370394136
2.0681843342261876
6.589291034686079
-0.12706518134714673
-0.8517469065477117
-1.4287202582499445
-0.8602418612334445
0.5759498116536541
2.0488651092467696
1.408003461625444
0.7413455350332465
-0.001352900253422354
0.6592000194785792
2.0980794411775894
6.7689737854880425
-0.07723840954993583
-1.0010732495043986
-0.5600375611598833
-0.8551977826214271
-0.5038348435972753
-1.6265341023212743
-1.672695727629299
-0.9614446471082929
0.07025969738979292
-1.4905082492838129
2.131162519378831
6.815829788099164
0.09514207755301762
0.9553385280387365
0.6475042991973973
-0.8423558153748641
0.49339413240343855
1.520038046896534
1.657785517316795
1.2577587974414108
0.06764886316411804
1.782684042143678
2.0872315225333162
6.434361898933697
-0.1253055443024135
-0.8427745449347932
-1.2688065576929344
-0.8374225042363859
0.5445174921217032
-2.5353576254529204
-0.12531784309265756
0.9281663512346379
0.15807711153226098
-1.8640483091028777
-2.090917781001772
6.791969941768347
-0.06893525601582634
0.9939447195715536
0.5703910964219472
0.8523124151023235
0.5689090822970313
1.8558423656192418
1.7267638794231819
0.7222562227718756
0.05294748756334915
0.3554530662701843
2.0946811235752048
6.677929896749192
-0.07994342736419666
-0.9974892286952199
-0.5278750952787479
-0.8489268078677316
0.5766732454296224
-2.1405623760149295
-1.252517499784613
0.9255905147145798
0.04429370560974154
-1.5216205768402435
-2.102423874896964
6.8741685219869835
-0.10132851504853191
0.9264562475878921
1.0828378375827088
0.8675934260191637
-0.6341602538189174
2.2079691795413674
1.6981171287301187
-0.6739644773539634
-0.08325613865986273
0.8809992232248638
-2.113877416865286
7.156790509418432
0.09383619701452374
-0.9915431229254117
-0.8316272852862203
0.8894400169640593
0.5579754379567009
-1.70182795144445
-1.8391435601550181
0.7296184677195594
0.20030218673891093
-1.2249808515360459
-2.114624753578874
7.058054594104386
-0.0442455246220556
1.124330580091092
0.002259443252117008
0.8709124675917684
0.5858254593876816
-1.7793962061660058
-1.9791176029992406
0.7026749803676183
0.014087957171425356
-0.635421644252084
-2.1638699567307977
7.019256988407622
-0.0790133168606256
1.0083188903361953
0.572621446207908
0.8594526219566624
-0.3057754083925475
-0.3095706412845798
-2.1840875859983373
-1.5134885416500188
-0.27066921534304406
-1.5177388085075465
2.2234714867266963
6.023010278758228
0.10269643891771761
0.8885113869889487
0.29872103512062065
-0.7401030987533511
-0.43821814114109076
1.752111498993265
0.6666911785489834
-0.8988116887305035
0.01445891856339238
0.7737733849264323
-2.074442014997807
6.131025105521418
0.053546803169838716
-1.0019180350465764
0.0647793463902921
0.7784922128231985
-0.36174223686594126
-1.0739770628325727
-1.2540305254032498
-0.9211982824005528
-0.06652870261499859
-0.6840047473079817
2.2193150801368815
6.206984961202314
0.04129937545966246
1.0352594166251057
-0.45882301137760245
-0.7384292197040986
0.6821565959286828
-2.7488829322672905
-0.920482122663205
0.5885541455781456
0.13616586569401373
-0.9201673283679629
-2.092708386315419
7.211675090293173
-0.06902483468155061
1.0516887633202312
0.6722333679257403
0.9008636245907726
0.6110462185427474
2.3748334085705354
1.0674916950752267
0.7049398852768494
-0.02121438422969118
0.7449704390472557
2.1082641570221976
6.894831901243921
-0.07950529776165938
-0.9919257623132884
-0.708229386531124
-0.8650529146474047
0.5580393805278069
-1.8186509444462975
-1.4267529366265201
0.5991280406496896
-0.23794455918462962
0.26709997587411416
-2.4146379212269165
6.83710864413435
-0.08407271610998669
0.8554262531185992
0.9348292604054479
0.7774325118771213
0.6247856152618836
2.169999258848559
1.5778482823068531
0.6088339658009837
-0.42898449138403477
1.5404863755780962
2.0222011674099405
7.285596698943116
-0.004524057760559875
-1.2735310638347523
0.403006430710052
-0.9270645004026429
0.5457772007882238
1.735145860131577
1.6862137699924116
0.8432116109658634
-0.15384836908975588
1.473326077889856
2.1092841687986885
6.958917387700484
-0.06616757695583692
-1.047416252078532
-0.36754300080324004
-0.8652456419737505
0.46349829684178606
1.4870234938721876
1.3824560190582231
1.1509544953230393
-0.08284485394697698
2.0067965335110642
2.1169758178758893
6.606612559106458
-0.08506442051708515
-0.9555427757865093
-0.5599476668182007
-0.8291179690095528
0.3489488566285244
-0.6939186156555308
-1.7675727355028854
1.5574548605025316
-0.21623054697774896
-1.6289820333191705
-2.130344041381655
5.845032180387176
-0.11388215948871089
0.8484888319317122
0.6437937769905744
0.7664192272780672
-0.7235122676941547
2.5781012797196214
1.6960831355721278
-0.4620085642204613
0.08193483854976283
-0.2847102768805991
-2.1537758501700695
7.1870916017470075
0.10201026026444804
-0.964975029877107
-1.0057579912595558
0.8868575964514708
0.5308020602140803
-2.4147267901988316
-0.26924350992129886
0.9059516174186572
0.049745828278861294
-1.3542010467625114
-2.0947584965296806
6.608482233822308
-0.0738592089494913
0.9662205751801775
0.5929792590844566
0.835331556697941
0.3962170831418987
-0.6811361917944084
-2.177659545743426
1.4575959241012943
-0.1170295659532518
-1.9736968949116978
-2.1410536225873056
6.238161375780544
-0.11366942307726403
0.8741153265691253
0.7592014447593975
0.7985739091798076
0.708831377831469
-2.984520398072092
-0.6805957168063449
0.5469130785028702
0.2060835987359907
-1.1102309376468469
-2.093579588104984
7.372341524449436
-0.061274582852523594
1.0803897022716114
0.6346333293931478
0.915335121637166
-0.622846743155427
2.540808587536333
0.971792587908848
-0.7046410033324298
0.032771511134199904
0.6044225233078758
-2.1079063945604695
6.852140050818439
0.10336817792306789
-0.923082104033677
-1.0251665744252725
0.8614615365821847
0.40165012932938843
-0.9246722453887305
-1.8227369823195037
1.0459968570078626
0.09552822453019802
-1.63748790669949
-2.1394218578381694
6.515440438075755
-0.04051632745248515
1.0921215367623551
-0.33864641583475485
0.8035652299385226
-0.5407694292820797
-1.962165252722888
-1.2839238855025388
-0.5354050999456508
0.11934536601682946
-0.14897436433107614
2.119831189761891
6.8165369781904275
0.008040958939312429
1.1965998238624282
-0.6541905690147654
-0.8390777523704428
0.5567386561628748
-1.725773330391281
-1.8669333381221753
0.8221251581975498
0.027467476665938982
-0.9714101472992401
-2.1057765216794087
6.829148940242549
-0.08399024144375293
0.993445748284313
0.6223491327105171
0.8593607754226325
0.24767533964447042
0.011568898685491904
1.9368629509879032
2.177792120761924
0.5256857318605174
1.8908719932720777
2.199917705100403
5.411026353703905
-0.09659764166750318
-0.8421753883849258
-0.5047022069803931
-0.7317714687784479
0.5499320760211343
-1.800122737547158
-1.6322842274413922
0.9202609440245599
0.12709789963265766
-1.6599900494841469
-2.096789784541334
6.925087897577876
-0.08334473462631259
0.9974002145823638
0.6672428183617318
0.8692648388847102
-0.6006615773775433
-1.9556130032074828
-1.836000320556813
-0.5808587088491305
0.22064608900483298
-0.7811340937986619
2.101572245577724
7.175349679691979
0.03686489448948876
1.1586511642114432
-0.12614979575406152
-0.8881500475080133
-0.677285749857102
-2.588420588347844
-1.4096377849187045
-0.6411009312268915
-0.11048817918700492
-0.16046569870529603
2.0792453792681527
6.845909803586313
0.12283955787615684
0.8928804581031333
1.357632593925459
-0.878642592042132
-0.7098946240321763
2.5200211979544545
1.749525405410688
-0.5373074996299407
-0.0015187804721630376
0.264798756859884
-2.1156576778907965
7.235512282272158
0.10356509400511689
-0.9738444439743895
-1.0682934996762272
0.9034786036031841
0.6669785561691516
2.2100666572537215
1.881145712909186
0.5812149946971972
-0.032216633773621994
0.38943735744248004
2.107969713846295
7.135357934031454
-0.0804583512826807
-1.0336107048778091
-0.6951866785385574
-0.8926639647319115
-0.6364881941530829
-2.5268918158274385
-1.0291141276257008
-0.587412287067783
0.08094735916878262
-0.5841302271049642
2.131872906482242
7.100855040085109
0.07123223520965886
1.0280815394571616
0.5128449163799145
-0.8740380899486866
-0.4506620227332688
-1.4854852359668869
-1.4218172144337295
-1.1719215767435172
0.014910018855058932
-1.7759698537074684
2.131569270854676
6.5359268744433034
0.10625376036870542
0.8977802886255642
0.7384240888305487
-0.8134810853055389
0.48070922363986973
2.2058570552818257
0.178307620554431
1.0943878301266847
-0.007273107454841063
1.6314303325201702
2.0960851573168284
6.3655885154318685
-0.08624807801436317
-0.9116598763197065
-0.694420590293293
-0.8120659933690056
-0.5914903612289152
1.8650521662948283
2.009280618381656
-0.8074004305997977
-0.10849776095548494
1.3256252163986941
-2.101716258862901
7.0987601169480445
0.10221645702758787
-0.9760918122694673
-0.8819141024576647
0.8866321638098205
-0.6504812950561077
2.429072183351282
1.522533390036176
-0.7859163981842653
8.346046926874568E-4
1.0376093291559896
-2.0521895655766014
6.949705947059048
0.12795605018693082
-0.8963811013875437
-1.4571743505913002
0.8969559964432197
0.572185738497027
-1.9547738779799002
-1.536003217339848
0.735751122616284
0.01534199849880427
-0.7085965388854418
-2.1366409088354468
6.878300501465896
-0.0754241066226475
1.0054566684856816
0.5260421988140384
0.8528466995290813
0.6082514649714534
-2.10439467233279
-1.553996885980574
0.6822452329701878
-0.07970707152781384
-0.3542440180414476
-2.197230626207875
6.961939404388946
-0.09175563432978812
0.9403349472755593
0.8993636999695263
0.848680870346463
0.4840130521139862
1.3767738125802897
1.8176674404348758
0.8297829779441964
-0.06042938945916283
0.9231814761279205
2.0998288690077738
6.611163216766245
-0.049316808777593014
-1.08352630129854
0.09719169072129694
-0.830213631809874
0.19398662978956624
0.6463498956882446
-2.217032396849721
2.8920103605011858
-1.0690543842284141
-1.6985708876067749
-2.216281924150997
5.116455436568529
-0.061135217552685465
1.021861641093182
-0.4590349594666338
0.7251225947337758
0.4401282328120897
-1.6411849556371196
-0.8127555761737697
1.286287404921429
-0.015606672775882352
-1.9408393625862566
-2.105357268234433
6.2583253885812
-0.10068500154547326
0.8797773112032504
0.7681143913656159
0.8019646205654605
0.595562926509401
2.1777671949042476
1.297242076788415
0.8748276774744895
-0.1832134001893261
1.8676238772847815
2.0668950609888608
7.038276484826671
-0.08456147559107302
-1.0028158553311515
-0.8225726342369836
-0.8908852417104584
0.40222340392760125
-1.5837631835212505
-0.4964078594146351
1.2806475418571297
0.009722971777414031
-1.8991119910416778
-2.091890506272824
6.077344153135687
-0.08355221380521358
0.9205497047718137
0.3761552918411895
0.7804165806969947
0.5811025801236012
1.7087692905277725
2.0893918973376118
0.6821490413045016
-0.0736697444846679
0.6546288096217738
2.1006642996318567
6.9493816468328715
-0.06331673379155651
-1.0771113932835297
-0.24958130980919152
-0.8699950983374417
0.5915667020081531
-2.2473421778583567
-1.1678321973169659
0.8145269221439186
0.035134434101860894
-1.129716082880412
-2.0968736827946413
6.862870045306364
-0.08984713939679219
0.9614698168356615
0.8810637807389323
0.8667055943030797
0.636381180216307
2.381612083004366
1.3138562743535378
0.5739200098661449
-0.49170324297646995
1.5495113659576456
1.979024088675485
7.260788068188797
0.01519957890523686
-1.335212439780858
0.6398121515030523
-0.9417054177296609
0.5751005646931481
2.364480703451575
0.709750522526719
0.5926257631433149
-0.13264096083928215
0.5322579846239228
2.102698745000282
6.863015675076526
-0.025556416408047046
-1.1533748920880649
0.2644006151920982
-0.853687521990764
0.12907293497509437
-0.2952111550874771
0.9367070873082267
2.663386037739083
0.8163514137083009
2.0956683590858844
2.3062556416672737
5.117252418457949
-0.03863244055479035
-1.0063523267950543
0.761967998111294
-0.6661033480448912
0.6074272948944867
-2.1551401827388403
-1.4353707869151522
0.5991538510056987
0.2487814570407674
-0.9054072993197628
-2.0433036404954454
7.037551506427786
-0.02367600630202645
1.2021238118554038
-0.2499925165985927
0.8941026593520439
0.4386711452696149
-0.9747882112931999
-2.1510187051209044
1.060815456096911
-0.052514994486981645
-1.2112054667041268
-2.156117329807532
6.49617385783693
-0.08448669180711062
0.9681227810899847
0.35166492925932263
0.8090740659595079
-0.6252039666105141
-2.1872728754505397
-1.536312602055145
-0.44719962161000865
0.049376663413944984
0.1725756162330093
2.1690538719800387
7.097657793685122
0.04206565308896199
1.1227084814220096
-0.11495170560315175
-0.858372735549838
0.4366374167578099
-2.0150177556763245
-0.04912814418839865
1.3257693393316166
-0.017360579982038757
-2.051025660371639
-2.1078918714925012
6.165031059276287
-0.09986582512788936
0.8582846476579008
0.8041162991808628
0.7902811601652607
0.584156027801719
-2.091885826736728
-1.296355478789554
0.60424103047485
0.22888593399789448
-0.8881146808418862
-2.1054911275762036
7.070383329117238
-0.020813731585018005
1.189562509800141
-0.3125368867271758
0.8736072280379945
-0.8336803464667776
-2.894020807870168
-3.065254644046151
-0.6525594252607778
0.1827945863511309
-0.8594344986291718
1.5784620289806983
6.703500314096377
0.14445396374292926
1.1008362392052893
1.672147259110747
-1.1042728375004738
-0.4299276564247777
-1.0963680469616996
-1.9580497872949434
-0.9876201955550395
0.04756699309258845
-1.3302590730477988
2.1434316176834973
6.5982391884946905
0.06861845284578302
1.0206119115851804
0.04764847277219484
-0.8083012753945726
0.5624471481440444
1.9593348793657397
1.5193828290641962
1.0231403039077582
-0.003266326170493617
1.598725992852194
2.0798328912150588
6.757787975767863
-0.11522857647845783
-0.8923166611978092
-1.2643797655773916
-0.8679976375840937
0.19032243167282825
-0.21786920914116964
1.8250517144383775
2.063327104457836
0.6574198802759992
1.4630208810465886
2.2493287958569694
5.398610775539896
-0.05972981658360376
-0.9684248112021231
0.3313093233292097
-0.7057610125220526
-0.5588161452488971
-2.103992177319258
-1.1498046087682305
-0.8106196991261075
0.22852160759502446
-1.7208609242504798
2.1326133200427235
7.126171128946576
0.06646614469985387
1.0371416880153463
0.41347991639698467
-0.8706968513099249
-0.615994228742687
-2.243941594362335
-1.4636868856410903
-0.6252762280631191
0.38279127996507517
-1.4268717682216918
2.0086883597640646
7.183229627839206
0.019754762154307257
1.2177815655640782
-0.22658825211684663
-0.9239408631939772
0.5868900706531508
2.246650749922515
1.0339204477414343
0.5646874170851167
-0.20357451098074844
0.6331899053618932
2.0925425872656644
6.985816751084519
-0.014201693152360003
-1.2066962455931942
0.4343594879238978
-0.8693236854014217
0.46385065433696343
1.2571788627049096
1.8544677102256772
0.8176683936146136
-0.054333815736432804
0.8962276550601368
2.1828688942880157
6.738167444998671
-0.04291070617296637
-1.0899209975631765
0.21978268901069012
-0.8151970120614586
0.5595458140587414
-2.121407928722504
-1.1551959501056268
0.9114149946444131
-0.04840900111078016
-1.025254624435355
-2.0704403443395667
6.573105158979414
-0.1013813578430165
0.9127025073445411
1.010469281188764
0.8501080002786942
0.5369816052221065
-1.9073823998364914
-1.289022453251016
0.7332815613368446
0.008895089961887497
-0.5625696898437919
-2.0952397921348043
6.623952417274588
-0.058940204084515835
1.0422970900745783
0.18734799446971573
0.8364420235292735
-0.45505529902922437
1.1490002994673771
2.061568874887422
-0.9457435442172533
-0.20679733392869987
1.8134263300477145
-2.1575214501404023
6.943805725534386
0.0517360209860631
-1.0882471709710293
0.10586700398421697
0.83836625666296
-0.5459370621488481
1.851417414484151
1.4911176334606016
-0.6807116387195089
-0.1978605500041583
1.0363799901284185
-2.109247340006853
6.959232743002877
0.03782178662608017
-1.1203333964045734
0.12027540415870477
0.8586607605643308
0.5550852048020671
-2.1615134339138784
-0.9482448688510716
0.7294856629696282
0.13702693875997704
-1.0189735328473304
-2.093723685949251
6.835156536034666
-0.0458392562009298
1.0891502692749788
0.07483443347008147
0.8552878415762619
-0.6155047950045849
-1.9812146517919296
-1.9419409431861643
-0.561773180804377
0.042875148053372614
-0.19450547542156973
2.125009250102528
7.041521776814409
0.06890502515710745
1.0624560191031123
0.28532700024255464
-0.8702932949418436
0.7089760363703073
-2.833469517504089
-0.9639174036396431
0.5562182569210884
0.07073701329275839
-0.7318074937430487
-2.1422887509220887
7.312776454748822
-0.08170579994197083
1.00374961929054
0.949506910520309
0.8974250735129391
0.5843098313713746
-1.9799248064017567
-1.5749716728283911
0.8392943007728134
0.17936931406568765
-1.6725845795801704
-2.0927094865377938
7.077544962847722
-0.07704952534020955
1.0267545591784617
0.6411556462235978
0.8850912421464476
-0.7203443325790259
-2.61117021805275
-1.6970875794462201
-0.5677394976607923
0.1444300713927497
-0.9228849482863904
2.0747858272026014
7.408533279627021
0.09603948032551318
1.0167410402108863
1.0418922447243546
-0.933922504003225
0.6625198040704726
2.6026075572020453
1.0819920307609168
0.7192752230975301
-0.020098418649187877
1.0396563171481115
2.1326923680395398
7.120072647689829
-0.10105399443783475
-0.9316998149467464
-1.2518906613838479
-0.8848235844089439
0.6093936395869103
2.4925222243425367
0.798651638398973
0.5613774909498227
0.016130281893757765
0.028025493345013135
2.086211336564221
6.726679495802382
-0.05350865957024993
-1.0693583826999478
-0.17350932078466239
-0.8515602518815334
0.49480892606995636
1.6738089343905838
1.3247743101046872
0.971692471790623
-0.0986532635858397
1.6227684904835877
2.1288635714334383
6.7372262984765365
-0.0713069648859593
-0.99519474149683
-0.42594512101626797
-0.8361192281154666
0.5957355358906614
-2.561614843446724
-0.42198246858052046
0.5861581027017649
-0.009359782082556788
-0.35375976516028845
-2.253762197641076
7.0274395212909315
-0.05689646356554864
1.0112873568637821
0.35383453722681996
0.8267361660890575
0.5978876232265972
-2.620423433807684
-0.4072915988695243
0.5651903719431715
0.24100146001006365
-0.7980157664403759
-2.0758582361707676
6.987003125469423
-0.009040989720157851
1.2120016867124488
-0.4262632610777247
0.8745640256804657
0.6311448111695789
-2.258102544866657
-1.5033664223951906
0.7333901563975798
0.02143281728843575
-0.8927266683184308
-2.1055402820875875
7.005902904876698
-0.09454768053490638
0.9654039328970923
0.9899226385786944
0.8812548466044237
0.6192161726511378
-2.289966758379125
-1.386232806410367
0.8515457573787892
-0.038308349524611
-1.0943516255518018
-2.1065590279630886
6.888063888198386
-0.11458634103222333
0.8887197483337861
1.3933098536157105
0.8747550717646175
-0.6117385136360807
-2.2066136203265168
-1.4516001334172703
-0.48433478621842857
0.3654980887264492
-0.7730225282264617
2.060290077427217
7.222172947624724
-0.018448333946460088
1.3098851620084537
-0.8109769544576567
-0.9070814800585169
0.23704454924100482
-0.8535512487736724
0.12878900659592887
0.528609477497593
0.08372598090877452
-1.5173826862934539
-2.6455373368283768
6.122762081532624
0.03294173884817637
0.7421978828065302
0.34914785445049495
0.5772163303766082
-0.6367818652750441
-2.4634787669536196
-1.18247503192957
-0.5768336380850989
-0.011217665949272199
-0.211599211060725
2.1311877121503753
6.969466071363961
0.0823417813142022
0.9933976719844675
0.6328106870207952
-0.863223648068611
-0.567548103416805
2.3576177398300713
0.7437392471518632
-0.5899202124238092
-0.07719720148726804
0.37676446564002175
-2.143268180622118
6.869708443282326
0.04055740538932822
-1.0852036981449948
0.06049156928158475
0.8398785862189845
-0.6053135821633563
2.211842221350061
1.4536011254284864
-0.693900348806848
-0.006625529322972328
0.5998406578940221
-2.1069633724400476
6.9066254472301765
0.09380236186105122
-0.9686273132023323
-0.7738021176081942
0.8650814137191687
0.5748391619484761
-2.124601682838642
-1.1879428169174306
0.6173932472604305
0.1267793891724475
-0.5822506502461076
-2.0962950058924537
6.884681404255849
-0.034030690584694004
1.1409887740313516
-0.16335414043893476
0.859474325837438
0.5096117297118696
1.912846203192187
0.9893708799827936
0.6336557550915385
-0.07361711014150414
0.3736272216469674
2.1412068717429062
6.685137748801842
-0.01869571651185525
-1.1553936158740061
0.5079673811523889
-0.8205228607044983
-0.5845520328534451
-1.8231759852513634
-2.017535926408394
-0.6623749253061676
0.017913456142530704
-0.4222309848314289
2.1188250441908116
6.935170584380343
0.08285734197804985
1.0172350304179427
0.4681323855905773
-0.8616388593457521
0.46040513059559934
-1.152981026184408
-2.033754952272623
0.9769207423055019
0.012216905968186972
-1.2364067987017517
-2.1558976976736584
6.648858609954031
-0.07328767418680267
1.003682948878298
0.25519552874388457
0.8208536704994398
0.6351783426652347
2.6368000303981183
0.7127795924353479
0.5579264800996758
-0.11984246739436256
0.5365288038735943
2.087976118488562
6.996949326148146
-0.0442720376761592
-1.1131385717993856
-0.1273384770017786
-0.8764363845605663
0.3134887901426146
0.8019503885239513
1.2778694620899835
1.1179466214701008
0.17901828755523483
0.8828644091828509
2.3436861282077213
6.166841847632774
-0.05974902943580374
-0.9513095487960856
0.15331162033668758
-0.7191491633886933
0.618242361777509
1.9721871078155344
1.8636098474385012
0.5054416088080173
-0.16019290651912185
0.2827453545966212
2.080434230024646
7.055009895762098
-0.024188572963796354
-1.211204918106498
0.35382099002258177
-0.8840212638293418
0.40771560462730627
1.3618406566206243
1.0313165757803957
1.0884700039129056
0.04652330166303158
1.2695299241408942
2.1733413837498854
6.249611437697342
-0.07316156996143848
-0.9437248052042505
-0.24167580797172955
-0.7738934431545872
0.49574427750371375
1.6648372055356626
1.3946380907748295
0.9901609792444088
-0.025049478181285428
1.370304537708525
2.103497915086806
6.5859318331431
-0.08318390364319464
-0.9640074794670487
-0.5620715178577226
-0.8331537535109755
-0.4514439341090865
1.818761570250447
0.7454973814048977
-1.1495211640585543
-0.024666028565422125
1.750197862527984
-2.109422537816756
6.40460334042257
0.09490890907049787
-0.8997747136692688
-0.655847551810243
0.8041657051508292
-0.6619128504395176
-2.4282701308691332
-1.4030182402313645
-0.48592322789990716
-0.14126035810169119
0.46069064984100583
2.225918539681968
7.027538017981435
0.09396768142858421
0.9467081417515734
0.785604076985616
-0.8427546208727563
0.583519607495704
2.2725972048818406
0.8026806793304033
0.5960866593854869
-0.29945828076956843
1.199660289244457
2.090067994617128
7.03441714188298
-0.007929286703711172
-1.2039603798191545
0.37657463398322755
-0.8712956903328769
-0.5279341772439466
-1.8041929749914454
-1.5319621039871385
-0.7058035828693999
0.0474462932197236
-0.5376540296345803
2.0957663204096995
6.697984077961211
0.05679972144699806
1.0603398983269108
0.045667247150570946
-0.8379911083911046
-0.6630173988689553
-2.437898228300641
-1.4257807768297484
-0.4531964394928811
0.10911973676856491
-0.07798481701504001
2.1026139164347923
7.145415433866726
0.04612038133152059
1.1287110774368623
0.05202065533284756
-0.8887485154210287
0.18760800658493967
-0.012510125804402849
-1.3071006696549385
1.9695581391762509
-0.4608228892372824
-1.9344203348451785
-2.2900843158857396
5.5520166865651
-0.05684358573489219
0.9498747763916978
-0.3427173340605065
0.6925083196843689
0.5363175017811241
2.355231026150203
0.4113242139871515
0.9619488197551035
-0.13040133050317418
1.8500677919522843
2.1018619943161836
6.783046905908362
-0.07622764424337548
-0.9740100328069115
-0.6564507971530277
-0.8495862558209051
0.5887956825297758
2.191635283311449
1.3002406970927234
0.8126556052738488
0.07054056763225386
0.6733256151778019
2.069564206886683
6.631080231142082
-0.1002236427128769
-0.9270266028572091
-1.0001035229683988
-0.8578113748669696
0.47104321094692136
-1.7136174392620993
-1.0310821346438088
1.2171134869791769
0.05066639800583726
-2.129002885020442
-2.126425760414935
6.576645732270537
-0.09779114067932132
0.9031097099276538
0.8367761901333652
0.826377670764449
-0.5635869150437317
-2.1471768534102713
-1.1701217726412685
-0.7531832757275516
0.06967809639571589
-0.9574744266144911
2.125340922139457
6.892715820457326
0.07857657251719816
0.9926905037717705
0.5320890841928454
-0.8522902849514642
-0.4629915475004957
1.0876746555052152
2.3155935423759058
-0.8002101486679966
-0.03621224752674567
0.7568597692252421
-2.143204003392396
6.712433393426602
0.05422452914305146
-1.0826136532081394
0.18148217234694403
0.8200253210366053
0.5633598580667041
-2.002332368355683
-1.323915142921033
0.7024201325844215
0.16486493326675078
-1.0074558918058865
-2.095248511704794
6.928305282484691
-0.04223316180794221
1.1167469402619563
-0.006321870758105439
0.8643586868143763
0.6041252064969922
-1.9571774464790475
-1.7843254284101007
0.6637280051232323
0.03497170571038022
-0.6140671324383024
-2.1586854092793955
7.067748699185966
-0.07453732520411843
1.023186589649055
0.5387004387640508
0.8651051412277206
0.3587561741047002
1.1670643972005506
0.8678440204091867
1.4311727769589833
7.123926039861918E-4
2.190835557322372
2.179871568670274
6.165065413910159
-0.08623135127611413
-0.9106105404769999
-0.3022155415479381
-0.7646262380280909
0.6095943303094934
-2.0961276444555237
-1.6743473946714225
0.8418931044938569
0.006214451110719473
-1.1293361790783483
-2.076839009146327
6.890770012848148
-0.10680687603109298
0.932768351423763
1.1647453380459072
0.8819711773674505
0.47186305207253343
1.821566291559061
0.7427445647132722
0.7702918342938372
0.06629333148830517
0.594941729174031
2.298365737740113
6.656008704922968
-0.05430034012897966
-0.9602874053560193
-0.24597762022692743
-0.7758884489964396
0.5703794491246656
2.11263859588463
1.1678901034808076
0.8267283679322367
-0.20682699371237168
1.6867188187239819
2.0983745661053015
7.034359420297768
-0.06297992280121485
-1.0525854630112481
-0.4244087185747213
-0.8755008359246623
0.2922810145825878
0.17740011545835432
2.222352143473168
1.2117882562902866
0.267481899630629
0.9792540428392391
2.2715297690478007
6.1700186875799305
-0.04774916798245532
-1.0591668780000099
0.5701239358317229
-0.7393746167512837
0.6335583491676905
-2.4149906794320186
-1.1720444780423436
0.6180679060918347
-0.002510863673598354
-0.382812221798426
-2.1125616064903476
6.926975722724985
-0.07516217918386424
1.013078450064861
0.6165235919799713
0.8675674664653916
0.5714387248466937
2.297594006229905
0.7184660254750852
0.46862271511002446
0.06596743456693385
-0.43131803826652043
2.2384042756567135
6.832363242833992
-0.0336977620276488
-1.1034890099822325
0.27968773180381234
-0.809581446390762
-0.4447949807761376
-1.2795091897122906
-1.7431219572254166
-1.1632381126026714
0.002279382451255898
-1.6988423805098
2.129780661217773
6.526127222054184
0.10643945694299758
0.9068625287718977
0.6882165569709037
-0.8126413464211617
0.3571552666349174
-0.9272655406874454
-1.4082224878620742
1.3907700221617754
-0.14762088124914163
-1.4914960083476616
-2.1377557441313133
5.9284250647944425
-0.09989165426815942
0.8879860377339373
0.4012094713458984
0.7621920783053873
-0.5386952282380688
-2.014781299260045
-1.0694096200950858
-0.8202025843151758
0.09455518162640877
-1.463833943940434
2.2328846373825164
7.080496348422714
0.0827640826914215
0.9395033550119376
0.742789838654642
-0.8331590777085874
0.617696748014477
-2.0061953733316185
-1.8250365818467735
0.6808037163929456
0.23219217860134986
-1.2590185482352945
-2.0588956986001246
7.1527576277622265
-0.053268762479807386
1.123448970000692
0.24450961010326927
0.9033943428109781
0.6570855975406272
2.588301794394164
1.0189752305515394
0.44630498056640394
-0.3278518909314463
0.64302183045207
2.0514570953049085
7.2504620183669894
0.007212233547366213
-1.3038559322699022
0.6340773493983973
-0.9135080189326961
-0.5303946953962984
2.023321113657322
1.139560985436447
-0.7785171228993384
0.03353959160462999
0.5691263597869721
-2.1034840354407045
6.572384768701362
0.08118455530239324
-0.9651297851708752
-0.486295775337927
0.8254436035850282
-0.630925070735982
2.3319540667378034
1.394639257490552
-0.613790639459523
-0.2093091217103517
0.9900280725670484
-2.071738318400984
7.163146524249094
0.05658737541881463
-1.100305859851475
-0.2763771823038819
0.9002512780754189
0.5614859114362702
2.154504036001526
0.9937206984315917
0.7725780182801074
-0.21870607667623315
1.480358788404618
2.0960975123098455
6.981087950537013
-0.04603454506098005
-1.0958387472410311
-0.1362278388875974
-0.8685156499493709
-0.537980154313858
1.7949541312788895
1.6457295086212997
-0.7836433100743886
-0.07695714417670646
0.9617590285062781
-2.1072133629329004
6.834369529290359
0.07554252617158665
-1.017778920806028
-0.3706559486315429
0.85113675158381
0.5851786597188825
2.0848327030080607
1.3578310785626286
0.646981842395088
-0.12203775885338353
0.729223228536657
2.1063485254577947
6.9585995692782125
-0.04710466276664973
-1.1055552501735029
-0.07228721470293256
-0.865457189728009
-0.6276844880289938
2.5481755060411886
0.9380916641589823
-0.5313533593086172
-0.34801373644174144
1.0052384762545614
-2.0449906443971533
7.198039933135717
0.004050731825562267
-1.2398931852252855
0.4215421050941416
0.9110724090786578
-0.5904672786703018
2.455510141761647
0.8890583182985988
-0.9053005813771027
-0.04674990608962463
1.508526450777318
-2.0692265307675735
6.8314062896490215
0.11531212522198006
-0.8991256418014923
-1.2179362699487954
0.8717144435891517
0.425349238998564
0.9680549305786292
1.9633525038104227
1.3467053486534657
0.10276772255290334
1.72923866725642
2.1133027259681976
6.2344865156941625
-0.115305485134957
-0.868471506541393
-0.8527948265646655
-0.8060003219238061
0.310076622196818
0.33445619017257744
2.0839338217970598
1.2117593547010788
0.27724157160874524
0.7857382886263443
2.140936136071147
5.829625448586127
-0.06498359341544623
-1.017618299301395
0.3537260646005184
-0.743950772437843
-0.4952992091752334
1.6350378699181012
1.3784538759895308
-0.7308104994315457
-0.2444685673424394
1.324524092141596
-2.1437496257473776
6.917612881471074
0.017849399716933386
-1.1499868059450737
0.4083334189947682
0.8373374044197756
-0.5366704500301811
2.405988950879502
0.33008469171612004
-0.636784050747846
-0.24071237861608005
0.9964082909442417
-2.1355396496236896
6.93890767481732
0.006874238268980928
-1.1650017507984078
0.45751394042300364
0.8451270390479185
-0.6082129650293313
-2.4448148980081212
-0.9050152348948647
-0.5261104730273308
0.028142051513667547
-0.09921694654143039
2.1683535804789007
6.980469086255382
0.05317798203134393
1.059671015913251
0.13932515055339978
-0.8463446529695707
0.6046797775465999
1.991657324454116
1.705265472860504
0.5614426742613777
-0.36630493957126237
1.1058517730849344
2.058764925239024
7.221451400060813
0.004821125620303847
-1.293621960011359
0.6445046998433689
-0.9055934053560089
-0.6053251929745274
2.876269071973029
0.0515858896138405
-0.6657077406507794
-0.18320963183025205
1.1970403703214338
-2.1111762865387926
7.030399963649094
0.0528961980731341
-1.0500365611251548
-0.33553980496358105
0.8685194575679375
-0.49912124794060614
-2.1316761858776547
-0.6009671928577718
-0.935812395483066
0.04568000547984128
-1.446944065825248
2.1915977599529595
6.770050785718282
0.08486349891173176
0.9199480521549016
0.6762512384340144
-0.8157155255955808
0.505580300818187
1.6400064098759763
1.5345346433022262
1.078638016668347
-0.07384131665911339
1.863878114313011
2.100502728702484
6.721405536142412
-0.09425860912007628
-0.9457944483512074
-0.7812005320367293
-0.8493242809952887
0.5888950174499574
2.0919642260159477
1.2927724224074348
0.662276983480418
0.13024037689035478
0.24127182702891803
2.2857604775309297
6.936249885727092
-0.08789285964273082
-0.8987229720728924
-0.9567630475755533
-0.8192862770142441
-0.6386515057124101
2.3485932566978454
1.5007045946705473
-0.6470411784993226
0.056986029601602484
0.28243467305522657
-2.1035231436740074
6.892936685703655
0.1053721238929557
-0.9393717677979795
-0.9894576732745559
0.869217743452223
-0.5539488401028062
-1.5367701554833235
-2.294766953435877
-0.9206207888292641
0.1621435649359868
-1.7808897385450566
2.0831657730622655
7.0640206026451295
0.10149166355047705
0.9919953800664717
0.7721504156925943
-0.8872638419099353
0.1517514881698065
-0.3611350603358356
1.3059863243184608
2.5565076958694832
0.8054878964378156
2.025315967196279
2.2840517761512293
5.220768785635741
-0.04249031689764627
-1.0159610325381567
0.7068149908413963
-0.683203348926834
-0.26837735829334686
0.14248294377445825
2.1213019745036847
-1.6843677037564455
0.34216831906367856
1.7226326586161833
-2.2953661535063916
6.0164108644512995
0.09532465694841277
-0.8831788376530663
-0.23501525824759728
0.7244359588242184
-0.5991383414597029
-1.8644339341861744
-2.1093199034742875
-0.6745589732017501
-0.06590456113902605
-0.20852150385324592
2.118924526393399
6.86584609125748
0.10361333466288415
0.9569126063819445
0.8027747984393926
-0.859081457286411
0.24737947516140285
-0.5147516717511563
2.9012174601893155
2.2986243677812985
0.892437934099384
1.0223186530571196
2.097685864785057
5.1490781797094725
-0.0860103007039266
-0.9555337571491742
-0.12750227863747474
-0.7577858579417033
-0.55292823138483
-2.423144768915553
-0.501357714090805
-0.7350615032402585
0.28642772552784407
-1.4865733267174686
2.0622805535019966
6.927221408982005
0.027529305739414905
1.133874486484753
-0.1342186304318883
-0.8719280184770809
0.5771612457157691
-2.495674174369235
-0.46696653848834807
0.7037580705188697
0.16848968820493987
-1.1521967371863602
-2.1122262507575744
6.947109797323476
-0.04397324165095121
1.0859999528617648
0.14059915723408412
0.8596824861140834
0.5746786615010274
2.21934924918793
1.0383105121773402
0.7107230641974457
0.13074303966246795
0.18062219273815497
2.170487250504839
6.650350666569678
-0.08632827162643533
-0.9289647530606473
-0.7668701591699768
-0.8253165895429939
0.23036215224767922
-0.4558523480608732
2.6632629149363423
2.046715611840112
0.7243584069189817
1.4461566423259853
2.2859420223062523
5.753427900315339
-0.06028051929303949
-1.0016968368418033
0.2649000405028087
-0.7411570865190092
-0.4853807368211974
-1.6884430806692936
-1.385865682257382
-1.126791620749462
0.00843519668437386
-1.721206023251722
2.108551793165587
6.589349162448777
0.11486492289232558
0.8810878667814772
0.9645647807190437
-0.829413505154774
0.4659371935728621
2.0510170884381695
0.3174719306775135
0.9981988796825408
0.057592350103542536
1.1198226246766698
2.155875265486359
6.3277345258052256
-0.07827356433594035
-0.9113808830580616
-0.5508950458558118
-0.789741526155877
0.5503535447999678
1.9193588152559777
1.3998479473228025
0.8761322288827099
-0.08671995184512424
1.4063171927871716
2.1218423566065314
6.894022419289136
-0.08067203965154368
-0.9872470508913253
-0.6506543163868354
-0.8577439570768743
0.41859871418657013
1.6158817903039724
0.6359475283444233
1.3427685697105225
0.10823909456585788
1.6024354700482097
2.0556377875785508
5.878090879918576
-0.10862741734595148
-0.8489162081461796
-0.777387822299659
-0.7823345735597592
-0.388353915711439
0.49270653938955067
1.4430724983379342
-0.5456962031548934
-0.00913391311832699
0.9585751425401363
-2.439870376869557
6.266139553562082
0.09257565243185058
-0.8301998879276252
-0.293969709724805
0.6442205809456292
-0.47517231937680715
1.300642569428621
2.021665805701096
-1.1347728165896571
0.050943571668896286
1.4350528439733103
-2.0827822932169897
6.459896135103763
0.12245661773425337
-0.8813265187111354
-0.9384985964926583
0.8260646375091826
-0.5787578674114096
-2.2906821813145952
-0.9886491941229009
-0.6015134446370551
0.09941678263582436
-0.48652533480814303
2.1215228960237495
6.913352819147208
0.04567623804315959
1.0873117423938112
0.014870209110938967
-0.8529470829895801
0.5669458262626981
1.5904638467594718
2.1262647650832514
0.5660127413841323
-0.1747762998534595
0.4999930672862114
2.123478271726379
7.056102001510902
-0.016353419774746938
-1.2232898263890362
0.5379081139170324
-0.8662360364820261
-0.49476357383162795
-1.363690483881228
-2.125378380274057
-0.9949153913940185
-0.0022421986184940615
-1.3380101839118725
2.1683588403456753
6.828228810887875
0.11176836792514207
0.9147699129126691
0.8391447444629471
-0.8347011759278827
0.4465143619371656
-1.5201966801577664
-1.1634920418566255
0.9460933293459469
0.1508425074569524
-1.5562662234035756
-2.1453746732102705
6.660428254168143
-0.03828353785498881
1.082874604291188
-0.194947869593125
0.816491398498898
0.45070832152863644
1.0181218692865597
2.1763372230641833
1.2882466958760315
0.06522477947517676
1.7874749887425803
2.124514051293827
6.456452637976345
-0.11624810185565324
-0.8808773227113228
-0.9295369546408688
-0.824814179999006
0.5152612316949018
2.4421132680104627
0.05783597399224717
0.9543364774058447
-0.09896947987265231
1.6428268379126827
2.0913608831732313
6.608777002941481
-0.06777342885194655
-0.9798448812739908
-0.4968499555238706
-0.8337633439056079
-0.2718666674798818
0.33581785138928866
-3.097815044690235
-1.69177160728035
-0.5988292402330097
-1.1156017666543585
2.2851103585731285
6.056380180588875
0.08134310051567997
0.9608091049169434
-0.010488726445525601
-0.7447942777826349
0.6063164807575293
2.392136585331857
0.8711720786612955
0.5269332204422926
-0.031859394044910165
0.14755300467452975
2.194343543232727
7.023518336222799
-0.04423905858551926
-1.0898010730743375
-0.032207447884547734
-0.8435426558556076
0.5807100816095482
-2.206993751565497
-1.0782120132541844
0.5709336977851889
0.17748377949463767
-0.5327766441264928
-2.0731384362065333
6.893367034212596
-0.015895353683741
1.2028756148818733
-0.4389240275356228
0.8668104850918176
-0.4425522486334224
-1.484137134626529
-1.3233057758120628
-0.9451831405945861
0.13663856827407472
-1.5163964321989316
2.1533385528422753
6.698220260919635
0.0512299097631734
1.0468710948659417
-0.06215523959126329
-0.8139473530721253
0.46505291773901214
-1.8105773724096172
-0.781777031102312
0.9976809587144382
0.06808068347218818
-1.574624395779447
-2.1847960352069755
6.664252866289196
-0.06555231819562099
0.9738202842061068
0.353277850568353
0.8097103981332172
0.5845639716432722
1.9432275883900574
1.6516452133871002
0.677511363566726
-0.06303942754874134
0.6535034954604478
2.1166557552523226
6.937195796062389
-0.06334289478945175
-1.0586837218899388
-0.30809905420997236
-0.863066260169544
-0.681381359578528
2.411456215948242
1.7235342004872245
-0.50699692373394
-0.29839102747899837
0.8922170059144581
-2.0375315175957547
7.363386952051305
0.038870917966167776
-1.1839032579836424
-0.07248561631008321
0.9367799111606265
-0.6681269269614416
-2.276997643499966
-1.8656487147141418
-0.4613229831321442
0.32822609504216693
-0.683495524435403
2.0324466285831213
7.332609289762661
0.013132216485870913
1.2563917836785476
-0.34701447464197777
-0.9342174474641592
0.21006140558865577
0.3182943607010793
-2.3174784575093073
1.950822622198598
-0.6643694449182439
-1.3460404341216232
-2.3268727518190317
5.740311343176486
-0.059202177495582035
0.9858112196564778
-0.3086154738393722
0.7222230624720216
0.2841205790466703
0.008478775447723052
-2.3321859536548146
2.09496528737102
-0.447196561491941
-2.2060404152865947
-2.2627330150383926
5.83758719077137
-0.10359785261318091
0.8352649514586861
0.7136026588266954
0.7552484362689945
0.6230830521880055
-2.420617007997072
-1.1068306788695181
0.5961862970020356
0.5251401708345542
-1.7257068423219801
-1.987052918467767
7.267306804650615
0.02268839160543562
1.3460682420668686
-0.7234965400345822
0.9380563694656661
-100.18603474985795
-262.05939963365984
-170.28677760953784
-189.51563961297933
-988.1994316337665
-725.5538603356597
-331.9944096743001
-643.8559305748998
-106.85037097713166
-301.82911587617093
-194.45635144657246
-1915.6068351429706
0.7247946228694544
2.468661660935146
1.9080983579830368
0.542467272443212
0.03483372495575323
0.186896526558636
2.1153887651515206
7.221470464647439
-0.10005903784797254
-0.9771073728621541
-1.1558251225657739
-0.906269387444553
-0.5852973237449403
-2.361583305525839
-0.9742132864806138
-0.768766131454121
0.07790698299496435
-1.0828736658349243
2.0842838966609003
6.867927751965925
0.08601155886315053
0.9791980034898058
0.7008968447733527
-0.8656674773687538
-0.5462363725525389
-1.9646195084443718
-1.233035474996066
-0.6122260302286734
0.23249310030386208
-0.8839623043083826
2.1038889856904883
6.934480467188211
0.012665852274186581
1.1802613156029467
-0.4512774213286998
-0.8558671561652343
-0.5484050986071496
-1.9071611205914971
-1.4384313665704336
-0.6635510003346063
0.3467623339602028
-1.3597356469147046
2.090107833226458
7.110099514654841
0.005589754781640416
1.221970973743569
-0.5272372288262349
-0.8806133811876179
-0.49342710615237756
1.6167256334642377
1.5657871527636382
-0.7386512939783534
-0.036145410370174984
0.5525262637468208
-2.1041459821306736
6.59578760231265
0.04947719546547442
-1.0700348481417725
0.11817982338638054
0.8214936763362478
0.6355430674992764
-2.8723591067030934
-0.3101287458035165
0.7069524204405235
-0.01967983451169789
-0.7724393475038794
-2.1087934671128648
6.833160675348014
-0.08844009852605217
0.9418955690375386
0.9860830752265639
0.8607014866265424
0.5814773235979256
-2.3960724208141415
-0.7201224869843589
0.6027359212894171
0.19015689872615005
-0.7225240580521464
-2.0667819913624306
6.879082834741127
-0.019527209628500578
1.181521718284736
-0.32538682387314843
0.8673005057820415
-0.6529010203658218
2.945619935636363
0.27811213473566854
-0.45028353316915826
-0.11029349006034986
0.17819019420703563
-2.1371771191897575
7.095454265914282
0.034361355111758154
-1.1165143134383417
0.0171195779790795
0.8682605370607183
0.582323557211598
-1.7944809636658423
-1.891647493671054
0.6107607404323012
0.1799549737263997
-0.7146332527350636
-2.0983257339173202
7.044865696182515
-0.03138558693763443
1.1757506998949914
-0.2338487123821232
0.8754941368207237
-0.6240887769322481
-2.4830919107521012
-1.030460550649241
-0.6229542993406413
0.3108486147223023
-1.3265426618546285
2.053184990876611
7.197942917846905
0.036031834719122406
1.151850105064157
0.04139124595318295
-0.9084544804981969
0.5358645726384481
-1.8567834903877285
-1.4131626867240439
0.8431842541352628
-0.044288056446790645
-0.7922111812438429
-2.1410635285362196
6.67779821422407
-0.08599019447314316
0.9494059995962038
0.6842992423543719
0.8338530483267848
0.5377194549480389
-1.870194607397375
-1.3369927659662177
0.7167167163366824
0.10964299243249205
-0.8593977349265941
-2.1316507961319724
6.856930994734657
-0.04408089296421837
1.094314376686232
-0.023605152422589835
0.8446341311177396
-0.5287469792056121
-1.7563769718103839
-1.6756048264399275
-0.9496245716934888
0.04260849323791696
-1.3961994434572023
2.09417021221902
6.7691014375949425
0.1057681361239859
0.9335637988865026
0.8517202707032231
-0.8529376087562001
1.6844049747236953
-8.82620307292858
-3.750850320353827
-1.791752727958078
-9.165929029903147
-3.3253405346536975
-0.38871381124600685
-0.048591725801625914
-4.0117282463746005
-4.765490269178805
-2.7411471061717605
0.16849205424695438
-0.5706751801275414
2.64889136334821
0.20635302964531474
-0.6664051638487795
-0.33402967851741944
1.4278093882556842
-2.0655016416312346
7.015331321312562
0.009838199003367869
-1.180351003015186
0.32345741952475704
0.8799440771583765
0.5586009234617558
2.3368045126539143
0.608170282562702
0.6249965956192868
-0.1145485221859
0.5957023736955246
2.121769427257538
6.826651038350857
-0.02885371475570496
-1.1292511739762725
0.21002960099772083
-0.843147681843152
-0.5595958709685784
1.9862054458414324
1.4988682096668036
-0.8454818924628701
-0.03811182705475948
1.1311394369009842
-2.097211031530175
6.827738503467769
0.10007489299596324
-0.9464778455126223
-0.8338677170057921
0.8584614533651059
-0.6602392231153188
-2.1956874666218344
-1.9810425446648485
-0.6483693370839624
0.09638184232608406
-0.8581741003215394
2.086683230356316
7.219956037535151
0.09848359902689663
1.0008531298943912
0.9173812931804645
-0.9079766433181536
-3898.868360091107
-6937.232485175723
-4730.816017278415
-4104.018601702701
-11416.06415909291
-7541.008030633377
-15303.7749486384
-21298.40051963772
-1616.9643798651412
-7347.858792845676
-4703.244885411816
732.433942094109
-0.514099948066411
-1.6734994521260953
-1.675972454601234
-0.8657290203918335
0.059428004820566524
-1.1003949359752478
2.0775127577944206
6.680677895758844
0.08132612101875396
0.9987834197961379
0.4163422778807208
-0.8446190028649575
-0.5721947904297332
2.362851091981765
0.8192210136530246
-0.8867987430780354
-0.14545804813484517
1.7909009719383613
-2.1196462531501132
7.020984612452462
0.09422199224528367
-0.9506939236671985
-0.889963338231654
0.8684236967830948
-0.19198062802886637
-0.36100056546131554
1.9876854823844958
-2.4559935503581563
0.7497449717093193
2.016117741143495
-2.3132544976227396
5.523491448578254
0.065371484428103
-0.9275997391222093
0.16615302459544265
0.6962588786629652
0.4686432522914734
-1.2041656145779889
-1.9635409860981552
0.7355092239880588
0.1056369725793744
-0.8172651676396974
-2.186388895712674
6.827191709743238
-0.020836100424928356
1.1646669028034369
-0.5583752145382488
0.8194824207708243
-0.6326680826389973
-2.1399623510239763
-1.843478354589091
-0.6400261638469686
0.011913530392448543
-0.4440127924616848
2.096862100137137
7.004455905914441
0.09573227762726474
0.9874998874634596
0.7858526955921066
-0.8808582206563851
-0.5541271061103348
2.17754053339217
1.0735094227889834
-0.8492000202102024
-0.039536654643469726
1.1550424517669788
-2.1032491202527264
6.7837592539268945
0.09460434700902082
-0.9442538411448583
-0.7847009802251353
0.8505431777620687
-69.40462212709383
835.8132535078033
764.4061524601991
-83.78702103881776
376.59009799437166
288.8321655604965
186.4737967388945
-333.4102535537046
-10.720173088172503
52.206668104379176
37.35908816096266
-497.09582874257336
-0.5700259836667068
-2.337771231029497
-0.9901909501514661
-1.0511536403504107
-0.021800278605062184
-1.643380252693872
2.0527470129536733
6.653138501586829
0.13722764682159935
0.8349358094769694
1.5328815737493338
-0.8630281254543457
0.49830629560236106
1.942364213644987
0.8558099644442372
1.068745401430354
-0.10876048988595316
1.9563991470278266
2.093065380107645
6.65225132910573
-0.08120624864684038
-0.9618384302403211
-0.6260495937103252
-0.840339259295157
-0.5277940459421578
2.400320228332068
0.30964663037282686
-0.8093785513524338
-0.299645772430732
1.7549388189776276
-2.073756136188727
6.886258569182821
0.028661565232145046
-1.1163231418317068
0.1144845079721001
0.8620519819978604
-0.6597115372416152
-2.1915648288124103
-1.895936777646442
-0.45963393139177733
0.08593914790510973
0.007225019131885672
2.1062647371396506
7.15721943432891
0.053757509005975646
1.1208040885345885
0.1030587368543252
-0.8897373833045151
-0.6634885119369401
-2.677800686088279
-0.9976057927075804
-0.5650082126514876
0.28106387170936803
-1.147211791653116
2.0580582998124366
7.286613340406172
0.04536595320052279
1.1333130450223328
0.22910856079682873
-0.9184203659332244
0.49777028319465233
1.927870761534372
0.8592520009280639
0.9351194709407785
-0.19381435050679974
1.7755907459503184
2.089573969149284
6.734715960292671
-0.0492908823986158
-1.0623574458290725
-0.11020472580813803
-0.8441304313712188
0.5791717263633489
1.617689472127355
2.269556121898003
0.8195723413706022
-0.12299267983168935
1.3026009380615056
2.057872590674625
6.964270633507467
-0.08157039425598854
-1.0380445150533075
-0.5843291189223967
-0.888411908730893
-0.6708209551642191
-2.6271874863719735
-1.1097141288912882
-0.48247111856229385
0.0276809754232142
-0.049004545987797986
2.132354373749061
7.101288507242606
0.0679886407548525
1.0451828390043962
0.438011488998645
-0.8759866463923144
0.6193740355597811
1.9156487394780202
2.011370775893959
0.6333109126954333
-0.22549610163629497
1.043452336881712
2.0744057570444228
7.192176008460824
-0.04616844053390148
-1.1489160798613938
-0.09695129727281952
-0.9016377064086392
0.455912711828479
1.2036554342224024
1.8668649090932572
0.9518332418345373
0.02799838554410313
0.9661163096933286
2.116224503176635
6.437292710905318
-0.07155382232339881
-1.0061328904096483
-0.1707202627298359
-0.8116255407881503
0.5751618774236702
-2.1720989684952476
-1.1397290410091017
0.8141967412951042
0.09850070935654717
-1.2803714572584914
-2.0892619933980012
6.878845771054189
-0.07577456672322244
1.0070159481104706
0.6110810105364921
0.8665797234316632
-0.6125566487515719
2.1971680414519272
1.4473557352647919
-0.5942838525032786
-0.25576628652281574
1.0453043524190986
-2.115687693740068
7.267726872987928
0.039226997197806736
-1.140535864802461
-0.00905768507475379
0.8926072016712088
0.6342629890795117
-2.580686373690992
-0.7865763959709466
0.6191042845760187
0.035039154059370164
-0.6410859016665905
-2.173739551550766
7.088243546641342
-0.07100423991717315
1.0047600461134387
0.6385108311930513
0.8609980954946697
0.5454821580817978
-2.462092445557874
-0.24419858455194932
0.8432031498217356
0.2678982254873644
-1.8733695696407158
-2.0814535883051426
6.9069728864526985
-0.04017701723976011
1.092298852174919
0.10937763560515111
0.8633567956289518
-0.5211348582412476
-1.5647415349853455
-1.9151833381878476
-0.7381056136196879
0.0983765935519283
-0.7918864788027905
2.074498760962267
6.740067466714331
0.05446772546797484
1.0860292624270296
-0.01980261978871401
-0.8488683035262372
0.5825930624976549
2.4595214988333396
0.6188072849624853
0.7093303081870206
-0.0538991329707777
0.8265994086373988
2.1237343142542255
6.847097161379368
-0.06352022272314349
-1.020312336116866
-0.43401925402283054
-0.8502235986999027
0.6088454268677367
2.689595152690774
0.3764391070910196
0.8021837211499964
-0.1265543071941956
1.6084336200420895
2.1325960221794458
7.055685730967522
-0.08041431451627791
-0.970813973421555
-0.8783964927115087
-0.8688911881300162
-0.609439046323312
2.172654915858507
1.6727076138533112
-0.9498199896274706
-0.043916532033315685
1.650209482479617
-2.0368014727929817
6.913886990680205
0.13586791822611904
-0.8823519284512082
-1.5194300689761882
0.8974803680340177
0.7098764254543841
3.096630529289697
0.4599448194079882
0.4148093604014359
-0.25747552842337657
0.5633299373069448
2.0662698757809097
7.320775912146628
-0.019243455233118795
-1.2193435420928462
0.13458109694328904
-0.9174715961893607
0.6059461249437071
-2.613587194271174
-0.5047055463047702
0.6164223963852905
0.3425201211136915
-1.331078168528679
-2.050994555357253
7.1039573258196285
-0.007898588601174707
1.2243724517829044
-0.3540817539999261
0.8954133145223813
-0.5863157430949829
-2.0776568951695356
-1.4525691212445941
-0.5220713622143942
0.18345613142777034
-0.3839405987365818
2.1100613060443325
7.036402461124295
0.01714708282432027
1.19381274183341
-0.4460122014692285
-0.8685793704499766
0.5505349721056211
-1.600501040070495
-2.0351799367175847
0.7063104447911177
-0.026208598794685126
-0.34815131748423445
-2.1113653548073033
6.729240082005043
-0.06919937559064374
1.0388956541087333
0.27269277175530426
0.8455639787710044
0.706905937892765
-2.3628241341307397
-1.8970105807213442
0.39151299056689387
0.17736823810044614
-0.0646719244835492
-2.074052791449204
7.321133062895484
-0.030898732191428087
1.2190287886848117
-0.13688006640226463
0.9183365242240945
0.5830529226677709
-2.394255993491082
-0.7149420868083197
0.7246265648632033
0.18114612057840385
-1.2934964294280933
-2.1154664036442714
7.0169505787789745
-0.05052777557506842
1.0745396483676626
0.2549361628809424
0.8665985424432601
0.27960992341633695
0.0035739200206273965
2.423848708255281
1.4183081517962546
0.4048313120692627
1.016648800615264
2.2386649139034516
5.951152864983923
-0.06495218621304007
-0.9985280931586544
0.25948957200359657
-0.7412672730084653
-0.4993787215270458
-1.5474006540646703
-1.75920113558083
-0.7442399923018871
0.04471831425561083
-0.6246784050374286
2.1190019562906754
6.688323917883447
0.05515450979839595
1.063981634763089
-0.04224177814622646
-0.8273903098617774
0.4719558021061307
-1.5392617490438096
-1.3667436144220724
0.8874898089344724
0.1927296794524969
-1.5232184555911892
-2.1024944142869253
6.7145128128836875
-0.031927721679874066
1.1225928196093011
-0.26820343443566286
0.83567218770387
0.5358037427625093
1.5243863584779833
1.8803813017916533
0.717369086570417
-0.04258606751937746
0.786256969471669
2.1854442142805133
6.903414693871444
-0.05985795629672123
-1.0367409124708418
-0.2475782737367354
-0.8341975273507186
-0.6485329635483967
-2.7889542278906023
-0.7578280520304272
-0.7220031545953491
-0.07370730058053046
-0.5768461512242752
2.06824590449538
6.748445777649486
0.11797086545556594
0.8840955091248397
1.3198249563105295
-0.8684257974848963
0.5904120257596781
-2.3123108623205053
-1.029663336618128
0.8442392226177179
0.033763471158771194
-1.2602227306787013
-2.1111277598324425
6.883807787136915
-0.09381145921920943
0.9420885478464365
0.9811632703890647
0.8645175186738331
0.5103602040268334
-2.2711798763901108
-0.34481559592535155
0.7740133179658487
0.06534013649336771
-0.8414378384659603
-2.0874021441416604
6.5305821291861355
-0.04166058025753921
1.065171385603986
-0.030458269003956987
0.8244892569573107
0.6817301959278254
2.7814824077951226
0.8134692103629487
0.36758193794613164
-0.2766772099808933
0.2392282272779163
2.0697629770848294
7.266391329910489
0.008316885406870464
-1.3099256023944283
0.6800516421603005
-0.9092522169250833
0.5399852863728419
2.0955308551041085
1.014761374818
0.9746358422098428
0.035272395508873955
1.253763999837703
2.093442313319095
6.5781595581523735
-0.10141597978164518
-0.9006405710107921
-1.0132801644379377
-0.8420358129957501
-0.620547707070901
-2.0280762571950146
-1.9150331304176011
-0.6787509082468273
0.1459035443316854
-1.0443764600179757
2.107298951417392
7.209083370326395
0.08258449187908493
1.03450888750625
0.6160109181033098
-0.8947443169552713
0.2816032645796725
0.21415575245218696
-2.9013943827435273
1.580656516510301
-0.5453184715448942
-0.9520877420204202
-2.258768580097223
5.958736138991259
-0.07349522408273333
0.974401975754298
-0.03229558433699367
0.75486362214113
0.6588115452476698
2.662758429595629
0.8565788392113073
0.6365694962319572
-0.19771783997346262
1.306201236048614
2.121427291442475
7.303486649494885
-0.06352114362711324
-1.0583503273067494
-0.6075656118109327
-0.8969823918868283
-0.4178964366173802
0.7234694877434615
2.547460356811403
-1.1068496346021053
0.10910398685468493
1.1223184362692284
-2.1446539679251932
6.421267712626771
0.10410578636201637
-0.9375677170723462
-0.43113009980234385
0.7967175382784677
-0.49354732071141233
-1.6192334373787804
-1.3479071094313835
-0.741134217368961
0.06834265473034974
-0.9984995799313464
2.2428134345323474
6.891758284608951
0.05532198979895722
1.0044012705898404
0.19073224405661882
-0.8048361788411266
0.6491830413725797
2.184784693679848
1.7227263284052419
0.5335252210763559
-0.17178166616406065
0.5880638860780792
2.1050629476391998
7.235661804732904
-0.04398472749168363
-1.1486306768943235
-0.07990629311241426
-0.8962266620685513
-0.5463615963356665
-1.700232713715182
-1.9967201638276861
-0.9555719681237912
-0.0424009046780699
-1.103109524734808
2.0652461350896254
6.660147709913383
0.12587148758095826
0.8892649614608186
1.1500540366122025
-0.8568828807060638
0.5314216923030486
-1.9326405715763033
-1.2542414289859216
1.0852454803411633
-0.07275681425943525
-1.3730545402050391
-2.0606908732604277
6.436528455748783
-0.11726050022320247
0.862940328592325
1.2293235783242826
0.843916820973758
-0.561977136967029
-2.1235142706503902
-1.2426446366414121
-0.8898471987680889
0.08734500426551092
-1.4861925358170052
2.0918419813708895
6.881664484127703
0.100099135568323
0.9454610789917766
0.8854352655735563
-0.8653699962480422
-0.6918642160205888
-2.679157026651236
-1.250357101926258
-0.5703869904871038
0.0351049178721597
-0.5314504033384841
2.120803869440605
7.2016811253253925
0.09640873937604079
0.9743307430460179
0.9990639037226621
-0.8949004915169659
0.44422739936493416
1.0612595668520914
2.01615872126046
1.2398195766209044
0.10365621391564887
1.4625085868059777
2.109328829865993
6.291970802016302
-0.11262015683673615
-0.8823420177408507
-0.8315353353297021
-0.812480151835647
-0.6512184557304646
2.283689418161203
1.7211532243903422
-0.6001318194009096
0.09415501447773937
0.009452818751077018
-2.1327472475626714
6.9442394521264585
0.10810333355257547
-0.9339777475118094
-1.0127614875103708
0.8663502914341413
0.5909889667406805
-2.101232726836488
-1.3913467704143883
0.6487085172076169
0.06506159323648651
-0.5798357698407317
-2.116123814412653
6.926805298507749
-0.058293836909928926
1.0679425018767938
0.249318064786378
0.8613379893401882
-0.6332850451824706
-2.775696688018383
-0.5107613399135293
-0.6530062764547319
0.21705318835522885
-1.3188498162013045
2.0951146955683337
7.172823636539546
0.06079275600585406
1.0561827932030283
0.47144709486947
-0.8913049478358979
-0.47973228697465137
-1.5258760622141398
-1.64430791430032
-1.1602866841396668
-0.008257330718904205
-1.7123382175709003
2.0949723424987927
6.542015479521793
0.12034587808412053
0.876600782664856
0.9899321421544087
-0.8300681785070388
-0.2319245817604053
0.01025348954571273
1.8795908865591986
-2.0662230290425234
0.4590321944976609
2.096808912937411
-2.301967094074912
5.749916189327022
0.0915014578565386
-0.8511773520275132
-0.29733662999378035
0.7074688541839013
0.5670760393564059
2.2804618274475774
0.8218094938182714
0.7153879501625856
-0.149774112947946
1.0485376423349286
2.092014770714135
6.874653750704982
-0.045564019324202544
-1.0912028394741604
-0.10170051397362842
-0.859965801744484
-0.5570999618216554
2.525374875153138
0.4547358439646541
-0.983434283125469
-0.012686929198632957
1.5566790965716606
-2.0761512247891916
6.651409057450061
0.11479615251521885
-0.872974604662158
-1.1870719690524696
0.848877680895615
0.2555503593336213
0.3639305203380276
1.455970683804328
1.772031693575585
0.34272630370948975
1.6310385625385502
2.176881726366885
5.514530686254737
-0.09144165743217289
-0.8743369537878383
-0.19075853314986763
-0.7206963465566769
-0.6828776293050359
2.9858314910964325
0.557101979436082
-0.5098970575471611
-0.31982917704053426
1.1165924764065676
-2.056590301635757
7.349434511299905
0.030649104912801255
-1.1688966989003091
-0.08341715292905957
0.92529504036936
-0.5427895507989021
2.0235698194095684
1.2557519777297457
-0.7445761751597317
0.059802815103946985
0.4032674877544826
-2.125097567778945
6.626019797546574
0.085807722926797
-0.9550813879714051
-0.5548187792920966
0.8256258623212842
0.673882064259571
-2.3826065134207135
-1.513685285979184
0.41016448290196705
0.20240309134572385
-0.21146162527285803
-2.1117887612013018
7.311167437752037
-0.01837486292464388
1.233279160570817
-0.3342490367570688
0.900195111672566
0.36082768242707763
-0.9356007231587365
-1.3427560166816848
1.0427595663137292
-0.03818874311777908
-1.137731117802227
-2.1734205457451905
6.157659634508199
-0.046771225869265
1.0418743735909795
-0.37741799152993427
0.7567673259892734
0.596027980285734
-2.5867622179744183
-0.487151942105843
0.6738591512170015
0.08675384824209671
-0.8168620498420056
-2.0958671320660693
6.854935566355157
-0.05605452566270219
1.0516765533707393
0.325965460404297
0.8590672862961236
-0.587084397215334
2.3399693469944642
0.9216730255081892
-0.48926911679409735
0.12759882353749158
-0.5656150034932097
-2.1992728526565313
6.7246490999768
0.05989661272258823
-1.0165674302185992
-0.13857753464068687
0.8107217431474345
0.5874633674618434
-2.3731554509749357
-0.7766868029968126
0.6025102824092258
0.11966927211829487
-0.6253118434923352
-2.1408524393409976
6.979466191954107
-0.03750472112656201
1.1135595900669113
-0.03712048411448936
0.8540993942317886
0.5738291533484132
2.4566305166801694
0.5171754015550648
0.6236039624872155
-0.19366400751057372
0.8398484486979004
2.0903377460168615
6.9027812609580215
-0.020753697230111348
-1.165702537589175
0.2824810914893513
-0.8608645903587494
-0.5191717602009034
-2.249055242856875
-0.5430708474591939
-0.6761496528841997
0.05782915537115745
-0.5310530993002144
2.131825395174278
6.661604864187816
0.03845103067618859
1.0648329796368134
-0.10244026218367577
-0.8192123633129035
-0.6191866211130778
-2.087947971713297
-1.752209202008272
-0.5287328280355877
0.16828335783093623
-0.42215163663559335
2.0840419162599044
7.095409327085781
0.038434579427502676
1.155878018687391
-0.11703412256285016
-0.8874519684089457
0.19858882770052477
-0.5553365385681323
2.6008935464501133
2.2669315390650633
0.9063776263762752
1.102401148179302
2.2537457483824754
5.422107870080766
-0.06219386114479481
-1.0171437366714011
0.3992509560442846
-0.7311650305341072
0.4524306036937428
-1.351355122642801
-1.5464149501013884
1.1191572040983435
-0.012717437881776542
-1.514204722084945
-2.123099109016126
6.440529709286203
-0.08987426339016316
0.937091048030541
0.5470954219469022
0.8136028839184835
0.5596479849454905
2.1192565611959986
1.1098722960192702
0.8525783602948088
-0.0071257029270392095
1.1306944129619296
2.1581556531771464
6.855429183839852
-0.08864353932556626
-0.9394095652288645
-0.8470246148894214
-0.8454107375960959
-0.4492235883681748
1.5347765440374348
1.2661298616535661
-0.9850403562178051
-0.11022110434440122
1.572660802483345
-2.1253540614032
6.609188994909931
0.0632605875276686
-1.0098305302478239
-0.1412499131804113
0.8148963865527294
-0.488379450775695
1.7071363883532231
1.298258214632849
-0.7154634057853774
-0.20334027487306267
1.0248998974995454
-2.158362059266333
6.8963242256334985
0.015905972120413767
-1.1599165794223711
0.5159379219137087
0.8321616412474581
-0.44435691337169925
-1.3784705486427804
-1.5360847391802435
-1.1221400912160304
0.11933217736491451
-2.007587903853618
2.1273081709203012
6.674176883805343
0.08403741703328806
0.9726482595535828
0.3925778630882625
-0.8241308297139575
0.31001335388355994
0.40773257267893587
1.9619091904772108
1.3043016126899216
0.2420207173675339
1.1016742481603798
2.194685252535453
5.951638045464586
-0.07458343910895218
-0.9718058659827086
0.1272206469733863
-0.7444753684469867
0.24628851294787651
-0.3487547863821416
2.528191692258922
2.25418913844804
0.6773517583454293
1.8699034254685636
2.2532985161271375
5.634484995707338
-0.0793693920475486
-0.9219457919499038
-0.20651329065877425
-0.7472843207928875
0.6356979564716739
-2.4983165691415707
-1.0798611999314789
0.5765156504018079
0.5141763451934536
-1.643315062893523
-1.9820044063648994
7.279829834960633
0.01970252468390897
1.3421254792579942
-0.673554412672406
0.9421351701137615
0.6659333508266095
-2.184420996257866
-1.8975250148037899
0.5958176972437301
0.004730668528549319
-0.4356056069423477
-2.17003425251844
7.245004461230578
-0.08840940272976149
0.9938870116183681
0.878021907472184
0.8843130282488761
-0.6076631166679513
2.232529296530248
1.4314179700547314
-0.7744004397328508
-0.08063790639740627
1.1986566745122125
-2.10677214637476
7.051388334649254
0.10096728682198225
-0.9571319897683632
-0.9541558712232726
0.88035791123975
-0.6729422657698705
-2.4071795345892535
-1.6495536438283849
-0.5736449816252733
-0.09322534820195288
0.006004840261698292
2.1475438527936817
7.030063885052745
0.10990104146701056
0.9284160181911687
1.0970169171364434
-0.8716620117723911
-0.5407101643946312
2.3482014023805147
0.6343416206444475
-0.9605466353614565
-0.006950914994555259
1.3857763748738945
-2.075489553089404
6.595955580218091
0.1061807552805437
-0.8930792524096745
-1.0040717096067646
0.841266824960437
0.4829799050415795
-1.9694797384459972
-0.6637534045274358
1.1763700013330418
0.008672822984593589
-1.877231259469194
-2.102008640432933
6.448678574079009
-0.09952739563827302
0.8879811193841333
0.8999477936883442
0.8224336695945482
-0.6635542536395418
-2.3435866731053747
-1.8333898623583604
-0.46303587672385094
0.5949108572261894
-1.3298815286168104
1.9376998135392782
7.40544416352924
-0.050802747810908724
1.441289474301486
-1.0495106275576838
-0.9823681003026253
0.6818691616893179
-2.7381763209400503
-0.9021011730727373
0.4519832903039024
0.2601230191297621
-0.6549011677135813
-2.0961494434515786
7.349396556507595
-0.020365315213599324
1.2133254004545295
-0.1665224470842566
0.9086928529460951
-0.6109021007302412
2.280380594583949
1.2937211606394037
-0.6069347631679798
-0.17912178137262272
0.8289346302440406
-2.0972882644962576
7.101868048450336
0.050837512954916037
-1.101031278992931
-0.1518972909543521
0.8829972755285358
0.5717460547282007
-2.149715144545716
-1.1987756038903967
0.9348639154392752
0.039550155692694336
-1.4974943120695399
-2.0842422536090277
6.804029874699187
-0.10054169397858287
0.9291894965799312
1.0488319438741787
0.8664227563114901
0.21951887364193667
0.4103807021696758
-2.375788150938403
1.9703909314925472
-0.6311916406265532
-1.735686560466505
-2.33697179198001
5.9176445062748355
-0.04657034283201489
1.0342328345612757
-0.5163658957901066
0.7291013231733626
-0.5731120708071116
-1.9073546113321567
-1.6945641961645808
-0.7449214234591295
0.24999062937363237
-1.482818458161425
2.0934732363372546
7.144851956611614
0.05774005646277627
1.09326149481303
0.2135088629042873
-0.8874287477220854
0.627291657533754
-2.559734316382806
-0.7836654051283172
0.5501662452398528
0.23899857752178083
-0.825407144786531
-2.0826026273827885
7.122591613590452
-0.021837778259396902
1.1897389018033382
-0.20435048574438242
0.8882944426955043
0.37079776786373136
0.9494226200528344
1.44672927221016
1.140091274864639
-0.13082783503999806
1.9756482349088302
2.17255050164749
6.486692589574211
-0.03501111497228122
-1.088369869526057
0.4273737794560675
-0.7883160506289814
-0.3681898603627007
1.7222875261403803
0.10801205740547208
-0.905192226593426
0.15603753617427743
0.5172457786370142
-2.3691255357368917
6.209971264404851
0.053312205423070726
-0.880799374608767
-0.1417085636538504
0.70360594113687
0.13607795403667716
0.3949122413764802
-1.2180825605654442
2.7120938829163816
-0.9163511559400996
-1.8220895096023928
-2.2716696485912435
5.041641092794647
-0.04380734819668608
1.0222369349772145
-0.7742077579593591
0.6764256853301239
-0.5670218151307929
1.823017105982692
1.841950216327833
-0.6788541393646152
0.03149916202708967
0.35558130625610446
-2.1911002372960944
6.955778613759544
0.08808480630437948
-0.9762399664885354
-0.557953671218297
0.8398742488634294
0.5820405837718912
-2.4016194231093264
-0.6795200927674382
0.5826812981558143
0.3152634091041334
-1.0266431729840018
-2.071227605684892
7.034059816382233
0.005560559963936253
1.2592715591310857
-0.6409285575253296
0.8797391874859478
0.5936027226939409
-2.1585955486112285
-1.3028116824239253
0.5824115201107718
0.05593760443872189
-0.2625399127054776
-2.091527887265359
6.839552716324444
-0.04510844264125342
1.1124492777421031
-0.009495832944192161
0.8592949804479905
0.5592044273166712
-2.1231982412373203
-1.0664263500506304
0.6846526944976002
0.0065750588672763574
-0.48280082197286694
-2.1389215831685195
6.768317717945394
-0.05940487951962781
1.0348670563152151
0.2525476564822057
0.8374954234061228
-0.5857651313638534
-2.3499817272784336
-0.9259164924819783
-0.63868693526345
0.18969805174106538
-0.9413942030270603
2.1082175181646714
7.034619444808594
0.04280571193415716
1.1032237509046445
0.04216412473782044
-0.8698406757432907
0.15805383496678158
-0.25095531929234965
1.4545894202889371
2.4075669938463964
0.8030103047818095
1.4371907037016276
2.200741517273837
4.976520878122385
-0.05880323474212108
-0.9569027916988811
0.3733104243756899
-0.6880464309065869
0.4834524978748036
-1.5641874463604535
-1.4401226669359128
0.9915728542730073
-0.024560744587863198
-1.1349119807474313
-2.077207683606689
6.3909898459860335
-0.08479845176294319
0.9585837263179728
0.5062601251613167
0.8225043775025795
0.6899987150912111
-3.2072383305657817
-0.12920299974716537
0.3875376522237875
0.3690082320217635
-0.5980257356747688
-2.0157960922774953
7.257586841591762
0.02214566607235101
1.3470538316199756
-0.7602776206912012
0.9284788238903807
0.5509642772217729
2.2477124623367892
0.8215036037258125
0.941613471772119
0.012609758709989687
1.277838429520333
2.092688309049979
6.632057381488143
-0.09716792688979398
-0.9138562765685839
-0.974113165008457
-0.845991763705605
0.445235870221208
-1.657621023997526
-0.8385034848281442
1.1217166688193172
0.08445009570255149
-1.8711175840112082
-2.1040003386175967
6.432144874957458
-0.07054331896074209
0.9740527612901859
0.3306448429399751
0.8113456477938047
-0.6392457713006263
2.603032919356342
0.946009176053955
-0.6631754877899902
-0.06400962088892262
0.849518754543787
-2.1106506405499514
7.05137030896179
0.08950101618114656
-0.9757118822352014
-0.8467273892120605
0.8785908075844627
0.5563561878444708
-1.9335778757843725
-1.4327694172694918
0.9288842751079232
0.10536355788945204
-1.6728034610564237
-2.1103299875210495
6.930461514041895
-0.08898162249056595
0.9698012125186347
0.8123531090126119
0.8664203003157751
-0.5464768302850028
2.2203057480034
0.8234497908337833
-0.6972395893953129
-0.17666485380150235
1.0397374656633056
-2.126695018230205
6.933800762625218
0.04027969083048418
-1.090956005870986
0.028537384738843832
0.85069493507577
-0.6327579453139929
-2.6555239502203074
-0.741177914289533
-0.5640973004928028
0.233978494153057
-0.9103880303115005
2.0828819528855433
7.153548518880576
0.03667159387383713
1.1339091684145655
0.04219996075905124
-0.8929980000868283
0.5424838598402879
2.0561029918915446
0.934536343163419
0.637596583858576
0.014439345739411873
0.388863708694136
2.265967253302811
6.923680742382429
-0.051831960040146834
-1.0210160330051263
-0.17715917260277636
-0.8112592315267912
0.3560343016187582
0.42498543498040925
2.3281861626580986
1.4517949587960357
0.2385837971547575
1.5276166920918877
2.213025000726605
6.132061377105527
-0.10530764530595645
-0.8687744906265775
-0.632760543894899
-0.7721621977990902
0.5613873203672364
-2.5519354316374416
-0.196991380371232
0.6942340957575761
0.08223873729393462
-0.8785238827138079
-2.161271518399681
6.859174169870056
-0.04796246146491197
1.0436115930543324
0.20457250786030107
0.8350780084443279
0.510474993525436
2.224511201871559
0.441702339096424
1.1228396327274606
0.0679583399629916
1.4861912088103084
2.065464144957068
6.289593745146883
-0.10932771622359622
-0.8565005941038141
-1.1011582243147682
-0.8229823807320111
-0.6584791950845303
2.8090100824673296
0.6639454366670623
-0.5319224072095572
-0.03043885248609031
0.256513207935409
-2.113137145663499
6.996255200638498
0.07011006701531614
-1.0228728501025326
-0.5212118108012262
0.87081300971942
0.3986515911207862
-0.4326075373750976
-2.7937100675521327
1.3041337018837211
-0.22840907123268825
-1.1988194944174713
-2.1517086729270636
6.229100107822668
-0.11050122639903616
0.9010202643145899
0.6406496797668629
0.799719512908121
0.6894585566850803
2.556929677899556
1.34332882418412
0.5434187947695981
-0.11743803839125475
0.6900176668404998
2.131367474914126
7.329246719513965
-0.06867732163645555
-1.059859560058075
-0.630163713843498
-0.9003655299807395
0.5134886090203857
1.4059253712967896
2.0752729528227207
0.8753151979728427
0.04441774941147112
0.8206337279197143
2.148132492021995
6.69993333603831
-0.08732041456487674
-0.9658809513762427
-0.5817301621520201
-0.8340647412373465
0.6332611833452326
2.2303608812796742
1.5457742610524303
0.7270162055412779
-0.19911969632617776
1.4294992457184201
2.055740768215233
7.146433965957489
-0.07219333364900286
-1.060695596967486
-0.6224565858488086
-0.906314240896014
-0.5753680763304224
2.0296622218522957
1.5205566807151487
-0.8666942030783497
-0.16360854800085073
1.7017412378250671
-2.091490545454096
7.058083375185588
0.09439506185688437
-0.9832346471722194
-0.8015984655295841
0.8831625452772078
0.4657137866939992
-1.2935361616331305
-1.7774313853832402
1.0257305946612543
0.11205986455175147
-1.714990243789728
-2.1035547018650815
6.657322596840505
-0.06609731084148877
1.0302724179002771
0.2020860813589167
0.83502789347729
0.649712044670718
-2.7804119183109366
-0.5873597419336968
0.6002544936360188
0.3333071787984161
-1.401572905925329
-2.0375122875412774
7.213625940166988
-0.02650766329956852
1.1855553536545076
-0.0015497015197677684
0.9143683987654315
-0.5822987262139504
2.28224061837817
1.0307991529727805
-0.8183579541307623
-0.20642675614756814
1.7679833727009613
-2.1143652307782195
7.126680798039206
0.07983509485051196
-1.0034328027720616
-0.6725141861219297
0.8793743200925428
0.30492052368319056
-0.4889370248810076
-1.6163482631957906
1.4039433422358742
-0.13543700500550052
-1.7390918184070776
-2.1912646555060857
6.002953258195497
-0.06958228192744874
0.975260611132115
-0.14807285322408403
0.7446587292639302
0.534538650709454
-1.7421914458777823
-1.5146092053838052
0.8309236084644042
0.12886331884309107
-1.3884069072108243
-2.129548614274133
6.898500921566422
-0.0628562223240929
1.0351029566347192
0.34733732368097653
0.8510694767777992
0.5944824240514023
-2.5528789913894365
-0.5271052238806735
0.5813065264708519
0.2623885004708176
-0.8804454475626244
-2.052410240536607
6.959925671777899
-0.0067686762638260265
1.2244430993407207
-0.4614450347961886
0.8801027964554715
0.2039189974850667
-0.2515863153867379
2.0732278328447373
2.1599577399554537
0.7340653691135289
1.2198483430720457
2.185167344489247
5.19030493439759
-0.07459279446269192
-0.9309475978981663
0.04029874400422758
-0.7169640901764008
0.6005613845411151
-2.3929371602157685
-0.8824679148931935
0.5951006922087193
0.30462498764541446
-1.0844156666395024
-2.0550658968446744
7.066047683253246
-0.008422650555331741
1.2297409708395988
-0.4157902897338925
0.8905018101506906
-0.639075789416726
-2.54720875493198
-1.0374764270069206
-0.6845012117896003
0.08283885540562407
-1.0481531974363256
2.1427975795187764
7.174639955118886
0.09370368437544363
0.963013008367222
0.9446700923913852
-0.8802846802482835
-0.6347571776779712
-2.7466196821114557
-0.5821784819764003
-0.621591821894099
0.09830255936609232
-0.8149257217310054
2.1215529023250523
7.064551921729239
0.07191655567456218
1.0131125778085017
0.5896182929572047
-0.8730158920599915
-0.6740056876234795
-2.713113435230904
-1.0436640921479396
-0.6071643645887339
0.011300962498433863
-0.5415350617763336
2.1078233119352885
7.064306084759652
0.09819968866863932
0.957682892867073
1.0121476814999413
-0.8847263894791938
0.44135851436210155
-1.4664958909103925
-1.1324450192578503
1.3992208958984633
-0.06622047821733168
-2.1367892299075453
-2.1489137791903032
6.303496075833824
-0.11663598571962003
0.8135657985729406
1.1674819686319113
0.8012230756441163
-0.5245081578193845
1.8796804927734019
1.2641783050491766
-0.7147697469349673
-0.3333819952409767
1.4887616048273697
-2.1175111717237245
7.0772035329347425
0.009189311305484314
-1.1962069271951437
0.4886002871990626
0.8660874738404434
-0.5162288382843014
2.1839502645985585
0.6693693791427959
-0.8786285332415696
-0.038453579089412375
1.2310198270943156
-2.1557515591587793
6.733111293535563
0.0824985641546331
-0.9391986430145686
-0.6234720904533925
0.823902671324381
-0.6459372220410061
2.884594787446856
0.4537874393477928
-0.6712092835338649
-0.34864712667276815
1.7833758882389494
-2.024365549012326
7.2203471626475055
0.047905659799192986
-1.116417040586664
-0.3381408940717782
0.9221569510258322
0.4360706168553862
1.6275627318381145
0.8284999921389595
0.7434072210210669
0.16495339481954477
0.012447394540556454
2.328842196597121
6.431070594018952
-0.05387995731299507
-0.9727272070239704
0.04560363198957405
-0.7476361221874416
0.43674549286013825
-1.163567660048784
-1.7048805014960053
1.1039199614017732
-0.01814377100843596
-1.4362543533119667
-2.117794383201899
6.3729108925119595
-0.08296153709132148
0.9598756430939981
0.3713309843389076
0.8061034090810001
0.520881812967673
1.792656821440514
1.3645193458196547
0.7172518036389609
-0.002082412433628291
0.43353850637245356
2.1037993893617144
6.586579551732995
-0.051228762963927706
-1.0660260908643262
0.002381277328415483
-0.8282972976490349
0.5814173563350623
-2.0843494489858876
-1.4479133120272392
0.8764343265048826
-0.039069741370198904
-0.9965487476614558
-2.079181664314158
6.712342126257087
-0.10526284805715454
0.9170386752499204
1.0957539106474834
0.8630724043873738
0.1948650512056369
0.20743901435518142
-1.4869839689497204
2.3090464517851967
-0.7454522751408771
-1.4621130245075469
-2.068041703158841
4.818380166849783
-0.06265675057986961
0.9557490640874092
-0.2953818782413679
0.7008928628841651
0.28685672403985163
-0.8753690222123929
-0.8783641751896124
1.209018116263006
-0.1365382441958416
-1.0728453795694703
-2.2241601093388548
5.86499349705828
-0.05496837835562495
0.9975374103329028
-0.4539022610550666
0.7156724953537054
0.4970181591153627
1.2495352142961116
2.163688632777607
0.7226839647857387
0.0745077542220045
0.2625269390653812
2.22322393427427
6.749490732908879
-0.06250982672309555
-1.0309387642654797
-0.08094352861292091
-0.81038396333727
0.6528382172291896
-3.0105907005925543
-0.15323600289384978
0.47608937376382426
0.3365678172919772
-0.8434234917774424
-2.040507395779164
7.172825052345793
0.007238812914790955
1.2823554268309223
-0.5599097089322297
0.9080967787741702
0.5808185670366145
2.195138771717309
1.091451472769926
0.7772450763088461
-0.10791754492413098
1.2884277961207098
2.150373717189583
7.036930366508221
-0.07257626855202223
-1.003950634894272
-0.6128296930417801
-0.8610307251739672
0.17079084714305723
-0.16763129469220076
1.397721504659589
2.293844622083613
0.6051988029299762
2.1378142092524497
2.353793325067506
5.529052707351389
-0.054111696592444074
-0.9429437617751666
0.3067194977505929
-0.6900845913646456
-0.6074267893178373
-2.6512911577126026
-0.6126023452648369
-0.802410105898264
0.04665820658307283
-1.2415273399574687
2.095945716094879
6.89253333203349
0.1028624855677751
0.9210268491548501
1.0702567748754266
-0.8672613888537971
0.6197891983711394
2.156056691344621
1.4444159535243817
0.5712128062288142
-0.05533598110054354
0.45161599310729544
2.1961918546016226
7.164452502969061
-0.05956808612510074
-1.0562304420334547
-0.3388219717977655
-0.8593215670311586
-0.5324927883745635
2.0428429661823118
1.0676985337579445
-0.6442120926541139
-0.1153662127587181
0.5700355700842036
-2.1244191107652277
6.809416563196343
0.03217406800555325
-1.1155314978347048
0.24743783977949055
0.8377750809774668
0.5186212554988872
-1.3392636110444174
-2.2314836710681734
0.8160937395682448
0.06292146595963426
-0.9672647459776854
-2.10563999070685
6.792870959543981
-0.06434106194692414
1.061055691398772
0.1750683523047489
0.850639265926814
0.6390708122279436
-2.27489922457006
-1.5163456449382882
0.6228486553911744
-0.011450512327538636
-0.34665212235838316
-2.1030291392013667
6.943326468985765
-0.08101208904588723
1.008493439432987
0.6900996319821683
0.8744268777491121
0.18379813314666898
-0.3904846062363986
2.1823200160089784
1.9015849570274852
0.7446030852990925
1.033336902317797
2.2962075044480525
5.576853208351011
-0.04449044833633011
-1.0523085627104352
0.7259851792445535
-0.708428872190262
0.43586245421244385
-1.3114770913766123
-1.452359213849528
0.8666030451716883
0.0738050346233085
-1.0082477419536735
-2.1224283689398873
6.476674003712551
-0.031569501812098555
1.1136959399782098
-0.4308949660796601
0.8045366022161841
-0.5837744839985225
2.1493732129311454
1.3301773553594332
-0.6786174528784957
-0.05202553639399589
0.6841027845972333
-2.1506863502828018
6.98835861998184
0.07686256126968852
-1.004327792685928
-0.4964888822979135
0.8546989733286398
-0.6289144070895089
-2.4282347391351853
-1.1475596609564551
-0.47611558026395345
0.21050186577739333
-0.37663863197600267
2.0866403302498355
7.11780375941232
0.016778945868812404
1.2007514921281837
-0.3567157878250548
-0.8876515578518621
0.6444725451541798
-2.629968842804809
-0.7878333026942467
0.5362332747137315
0.06476770156829766
-0.33812161432462823
-2.12160111147964
7.025512051633642
-0.05254265677233672
1.0826422322452607
0.25602094388739205
0.8696869436368715
-0.23442174081341707
0.5833803942111956
-3.080528026791514
-2.1826754643822444
-0.8869142821719594
-1.067424953045871
2.2031346087917507
5.544514200121321
0.07780874243941104
0.9714621892675803
-0.13069107671943256
-0.73792954560965
0.5178779721514964
-2.249509862351855
-0.33947082574037585
0.6652861827101311
0.16777669335246342
-0.9359559644487004
-2.221357523065221
6.966829914470007
-0.016242349364964662
1.1353065355457463
-0.3756795629693007
0.8213042684392275
-0.4968635032678227
1.351750051481863
2.13570724129993
-0.7700490328843994
0.016816716455925015
0.5082500558123995
-2.1313610061501835
6.672339815007756
0.07251406030520612
-1.0259762892468665
-0.14559186743178307
0.8238330747269429
-0.5903242179393766
2.4973132810060306
0.7652859786570169
-0.8576765676902878
-0.071422205103921
1.4654009284070129
-2.101108724810449
6.918611708555031
0.1043816352986776
-0.9212816587890894
-1.0611073891095286
0.8675146999041798
0.6194467756109958
-2.433211840591197
-1.041433709031102
0.6955476906397018
-0.036294581790410445
-0.5415117298668978
-2.109583131920903
6.827073907272546
-0.08711163881721863
0.9619954039804519
0.8531366933469213
0.8608888542326933
-0.6060240078817113
-2.1080223737395962
-1.593345755849492
-0.6396030577291385
0.1666526019374182
-0.9158830020826324
2.1107015432532807
7.142891528253354
0.06171330386710234
1.0773662072515213
0.288848524718611
-0.8833811408390547
0.5790539035569469
2.2067073518751856
1.0493544509356427
0.7591359489150549
-0.14173703155918843
1.2954104587440998
2.1291782347045136
7.019156786699539
-0.0633477102293456
-1.0376306691125095
-0.44334840108095014
-0.8644263878603398
-0.6209514563990616
-2.061926538995167
-1.8845997768764764
-0.6849385521899006
0.06889819558145675
-0.7834131974549894
2.0887435696701875
7.050849101560247
0.09321961991208275
0.9999076948806166
0.7534783035674191
-0.8869683510460492
-0.4405126329228734
-1.8775094221483377
-0.48143624444529415
-0.7599977704487528
0.10551245922212464
-0.8146020506186578
2.1339796588738724
6.454555118065337
0.0087906367294608
1.1176230755480696
-0.5751337576698773
-0.7894096033764049
-0.6522661282983233
2.4658838273172323
1.2652962718793297
-0.49086394778598774
-0.07126371517842348
0.14955329309824666
-2.1313495451570006
7.123643417007292
0.057578327633601864
-1.0800993844069264
-0.24006583140183782
0.8765172259989908
0.5601126194900796
-1.6182181422831396
-2.13669238705576
0.8810521791083757
0.010168859715471516
-1.1085152215334146
-2.1008596440819973
6.849069049215035
-0.09852269723745453
0.960440444076184
0.8609779602087825
0.8668754943868423
0.21899788659764607
-0.10405334066446567
1.851004394648978
2.2262878166555344
0.6322811623856683
1.6160680973688126
2.179088109515683
5.202851094672799
-0.08370086819209607
-0.8798982712230647
-0.22260520908636108
-0.7182382743921357
0.5783755135500205
-1.9496044853190293
-1.5888471631397734
0.7087705776601653
0.08395549805495404
-0.8159356379408451
-2.1039135583752553
6.918953960439206
-0.06318471199725725
1.0586607973897988
0.31584502534542525
0.8648934976173188
-0.47221806089947166
-2.050728763723808
-0.5108371187686253
-0.953039026823337
0.14155658892940542
-1.6007747462074549
2.0895373089567726
6.573859605534233
0.05563293611993921
1.0159402370708146
0.15160513902511427
-0.8233928247433849
0.5890118362434053
1.719970633912458
2.108686738681577
0.8035374176429513
-0.26226160278624094
1.7810045970866273
2.072059076290931
7.19207589887446
-0.06416723743393453
-1.0925629221139566
-0.3968102071101469
-0.9023066722287242
0.5464594205579664
1.5208185919248705
2.155125908791545
0.7642919922879033
-0.012802108071905988
0.6960500251853967
2.1310738915118614
6.851379158750338
-0.07457103160227638
-1.0262258496589054
-0.3871325062052121
-0.8517177545982617
0.5524123069270916
-1.9976810317071851
-1.2193578310798792
0.6741683072465033
0.29373950716152264
-1.220104068702246
-2.0685301260483793
6.968845439586591
-0.007776327682712133
1.2237152115806655
-0.5092931983760023
0.8739906410944913
0.6459488055830663
-2.6067764994186455
-0.9426664358051287
0.7620615932029874
0.04303551395780949
-1.1992510499688278
-2.09953048914715
7.022672682584079
-0.09855543915015598
0.9412612467039883
1.1732941819269183
0.8844332442573678
-0.6227399350812454
-2.7651278642357697
-0.3841112313705241
-0.5051793176173078
0.19649664548182635
-0.5718890676793061
2.1304164977852875
7.131044526257481
0.022389822486207654
1.1509402211005761
-0.18705383741531018
-0.871935021042191
0.4743806449763576
-1.3702221701308264
-1.700090412170381
1.1482693156410115
0.046247194130823926
-1.880420364189148
-2.085355404042711
6.544198391904982
-0.09434944523636357
0.942135936885368
0.6865016105860707
0.8361242139219534
-0.6531785745413663
2.5510502764970453
1.1091797518479594
-0.45688856840263004
-0.2526212589491742
0.5242158811112151
-2.097024712831028
7.275300085680198
0.017103377620018973
-1.2055473369164256
0.28206810212681094
0.901423259907375
0.5728385077312672
2.508234111100855
0.43383082306224396
0.8639723061958678
-0.08582863333540659
1.535122156528733
2.1245064871105748
6.875200594771625
-0.08127387673275609
-0.9566944824091415
-0.8207019244964394
-0.8538559210516261
-0.489157305706634
1.4525985971224693
1.862836162215454
-0.8606216221470347
0.031722487894445324
0.7232333401928163
-2.1082429336891884
6.543685528808142
0.08460463235544335
-0.9775361692081267
-0.36751312451268275
0.8192686773950423
0.5299519768494404
-1.8698907322420233
-1.3050739367928401
0.7959275207288511
0.08306046463274694
-1.0136597087372403
-2.1096425621228794
6.763382707477783
-0.058035220397430254
1.0499045539184286
0.19930807318454513
0.8445611211995031
-0.5459924030477725
2.1149552851850792
1.1254289613491455
-0.9111859716110732
-0.04523772319479734
1.3741364369570863
-2.1055119672490727
6.7900018160532
0.10176758932864557
-0.925147788638055
-0.8963664700830822
0.8510747729483557
-0.6004368749278219
-2.657260917964951
-0.556779413683103
-0.706680884319666
-0.08334981631238304
-0.3321618265821792
2.0660322374593845
6.556342666283735
0.09557803509141753
0.9243735388591949
0.8576846035731374
-0.8423363739536828
-0.2790421384561839
0.7843673246161961
0.9961225909161491
-1.0163164320362947
0.09942249674508058
1.0427475825513626
-2.4333580277366162
6.343509886965644
0.025665999881792204
-1.0111929664136001
0.5771927113358002
0.6906994394437427
0.614796825978589
2.387565194039336
1.037892330078423
0.6898070641747018
-0.24997805753366414
1.3971894293036786
2.0614970869930174
7.104868975550322
-0.046842419445785446
-1.1182400230094338
-0.21949251284939902
-0.8953483996639895
-0.4443039147903931
1.7150193259675466
0.8758409269350438
-0.9891756067747111
-0.036720482642376526
1.2763775901635108
-2.1093120196496975
6.390254511241472
0.06756250312596235
-0.976724533520612
-0.19434299781420186
0.7977455449436335
-0.6157107929714107
-2.1262244034307654
-1.6664633080438551
-0.5389068145426824
0.34604864484794456
-0.9529044596128731
2.044258231186427
7.212370297825977
0.00492901128957782
1.2564856119187788
-0.4952178380589055
-0.9130166194397229
-0.6812828858472211
2.3162810866917782
1.8582156801447465
-0.4180727258951314
-0.22947063633251844
0.270814571514564
-2.0706931343370925
7.322124633143742
0.026346937545484263
-1.2142972113197177
0.20722284746663555
0.9193956073506313
0.5215946256422691
2.0478025922935617
0.8693739365192744
0.8978896441614501
-0.13999740537095348
1.5673104718747883
2.10836645164128
6.789937818672293
-0.0618164459558419
-1.026259026105167
-0.33641362715213824
-0.846455855673678
-0.5832932065895386
2.128696080023873
1.3763079806986078
-0.6874221775231238
-0.07173680523630101
0.7549100170829102
-2.130987267590206
6.977737010249914
0.07517211058969243
-1.0158744720830908
-0.4631878881083635
0.8599916445163432
-0.5821568504196464
2.4717410978743453
0.8168716754753818
-0.938098109131043
0.10753046890809692
0.9205918400823516
-2.0326609617751963
6.431778046713038
0.13148940012419635
-0.8347639499188542
-1.418601792620977
0.8468931946336234
-0.584354330234624
-2.275453790137045
-1.0740926586186725
-0.5441780804766106
0.3012828263373992
-0.7679055796044687
2.0518553748740995
7.013985908924286
-0.006470498477366092
1.2564454773887284
-0.6750462901788227
-0.8863413083428534
-0.5700246641047072
1.7150785574617866
2.0196503275524447
-0.47105203636278425
-0.16061943606176468
0.034656023577239015
-2.103553848168695
6.9713122103374445
-4.361440282598403E-5
-1.2581196162338841
0.8108065164475304
0.8625670943554811
-0.606643320551389
2.0006353182702563
1.8583304020781646
-0.6184074645393125
-0.024514680184849116
0.3268673997303967
-2.105548728976633
6.951982996414962
0.07933631106895342
-1.028178506663616
-0.4580537438662018
0.8685684127597193
0.4591620796630398
-1.0294773250618579
-2.258250555916819
0.9466052954061994
-0.007866056790665873
-1.062917024683784
-2.1391215932536642
6.604288909873222
-0.07052279773909975
1.0228958226473968
0.15562311830185527
0.8215088857182574
-0.2583155776996021
-0.43885869531871025
-1.3839279059651168
-1.7165114289759202
-0.24782388445793166
-1.9130482876744248
2.2205443903710718
5.74243165631037
0.09268908882283297
0.8721497198708862
0.14763753289202483
-0.7098503233517095
0.6590347567417953
-2.754654008552279
-0.6867153985995591
0.6220972610163206
0.054332827371054916
-0.7766296303662091
-2.1345958743505635
7.098975172816621
-0.07640303119673796
0.999656117998278
0.7853755439204769
0.8761317970108765
0.5346700895032341
1.543759065552551
2.0416060955428694
0.9735311470031659
0.0011843557832103787
1.3024916227826548
2.091798968241816
6.728774601729026
-0.1028535262400946
-0.938256332816385
-0.9054009734460708
-0.8582263895207958
0.4957514349324773
2.395633725936791
-0.06533810595752741
0.9356480212588294
-0.23013085552752546
1.9041997872480712
2.070628471629797
6.654034085812743
-0.036826926908855875
-1.0756442303657634
-0.004659693764813423
-0.8394393505277977
0.5211627368436322
-2.084606339479091
-0.7688777981384303
0.8893423206827036
0.20213360748345122
-1.7440092174075321
-2.108347124536025
6.857113332471115
-0.0512244423189578
1.059270297696029
0.19067197988403584
0.8509027805385689
0.5267488116975222
-1.5319486144061412
-1.8690719096393986
0.6834712377143284
0.17112579745275083
-0.8963514505874086
-2.145263053578251
6.978052360108338
-0.02573684657459918
1.1690816179164507
-0.3762262468463652
0.8498449217822761
0.5142410554760488
1.422117154116132
1.9748374834711577
0.6991347262916712
-0.2944302072366863
1.22771777548292
2.071186951179532
6.924264394064166
0.004865225500991993
-1.27096820228222
0.8013943442652247
-0.8665522047803876
0.4351849612101361
-1.1054022298234487
-1.8257352743392383
1.3414757873140541
-0.016363300812587134
-2.107596832447621
-2.1477838301109156
6.491805561751153
-0.10929829614476065
0.88649464738928
0.8318780662842131
0.8167725447436254
-0.4921563961679827
2.1915035244948005
0.331338985883399
-0.565168354655085
0.06226280304636043
-0.11321834714011113
-2.3379846198298693
6.791534112208336
0.0316374908715746
-1.0432504108734098
0.2887256744727909
0.7678786433462786
0.6039039692399188
-2.4417612025540465
-0.845691820334682
0.6783873198578668
0.04359932646847477
-0.7203740370968158
-2.117325821593046
6.898308293992267
-0.06831775281544647
1.0185381039754897
0.5182788646848044
0.8594490959730288
0.45289312004349686
1.7449337015752764
0.7529308609336359
0.9224487339613872
-0.002185498725622254
0.9556454853436097
2.0815204964234706
6.241723644022919
-0.05695335923820883
-1.0162225141982069
-0.019446428790822222
-0.7974124662890643
0.4075956089557813
-0.8055752654459988
-2.1466560317341203
1.4065413785619494
-0.169587662561926
-1.5509671526822353
-2.116738109554113
6.1151307743766745
-0.12105157563423119
0.8541485495209485
0.8656791925563275
0.7985618899955811
0.5658171971212566
-2.377734375815742
-0.691085573585299
0.9635965240399114
0.04303432940904581
-1.6398889353417176
-2.098436029597559
6.777890490271808
-0.09927227758536367
0.9144337313267642
1.0713501472644082
0.8575529903456853
-0.5300731243544027
1.9572918143780411
1.1359479040521938
-0.5963245326311744
-0.11339160702302183
0.44990754884003964
-2.1582221963966193
6.852516815093461
0.023189526268880985
-1.1335925814275762
0.37847029454811465
0.8292457001074071
0.5121481060571972
1.5447410159856
1.780981725877467
0.8536610356062004
-0.0466991693952655
1.0246253655623105
2.1027332761384843
6.695377085279987
-0.06803706124325189
-1.0300597267703473
-0.27604639773245027
-0.8420419798416816
0.5763694238780283
-2.421375824979566
-0.6454532969320592
0.6974797916363636
-0.021535288190834178
-0.5275620818282767
-2.1431613691299845
6.753945229737045
-0.06899636356630448
0.9907030068846783
0.5015599216312329
0.8368719139968269
0.6793745263152534
-2.908392143784786
-0.5041591661760035
0.4067561733519238
0.11811467641976862
-0.03889994788301978
-2.1141797453543703
7.136671795395146
-0.027347468191466186
1.1759020368318616
-0.1531294778338173
0.881538196301792
-0.5938927537916574
2.628731005312288
0.5219543163402306
-0.8895415974844427
-0.11094941306602146
1.7625391396018397
-2.089469215455081
6.942329900441947
0.10437090235748914
-0.9204958229256055
-1.1078189295528154
0.8729811804474111
0.5085630453362163
1.3882378009355798
2.059203079760753
0.8312149101678556
0.022334800423174966
0.7373115451978259
2.150767156222231
6.720305322910598
-0.07548415469097404
-1.0045063544232267
-0.3522833670631367
-0.8319963431511764
0.5392230895318362
2.317747121245349
0.46282662326094953
0.791890252459036
-0.3322669008609446
1.8113283194478809
2.0737852911802324
6.950885005181503
-0.017779622564615565
-1.167337160881671
0.2558637704757618
-0.8689973209574172
0.6350889928020339
2.860700925549785
0.2617567991325074
0.6799970460610901
-0.19074616112730688
1.3866843968495577
2.1039400473348566
7.129078799758944
-0.05910047436211751
-1.0524126173919943
-0.5265695169742513
-0.8833626800834017
-0.65307112598752
2.218499935057712
1.8286097386497175
-0.5823235907113159
-0.1996713108039276
0.8733066074361984
-2.0724794095293824
7.259960058296344
0.06396704073991072
-1.099807947274658
-0.37408889477251234
0.91253936217751
0.5831678788272675
2.3059524662135815
0.8981680485786052
0.7541848053383993
-0.22694065694433832
1.5183155487930793
2.0935273197685
7.049956696348009
-0.050130834115087654
-1.0884433764842247
-0.2478434843312814
-0.877302728835922
-0.6337064642498894
2.151873629182436
1.8499097533953424
-0.6773913543055742
0.02938512519416549
0.4756449708467095
-2.1165630571439658
7.003273659410466
0.10991588683889741
-0.9400839015051269
-1.041780438458923
0.8766390693430498
-0.6127425694210366
1.9763620012468477
2.0104001260419384
-0.6782765940422439
0.03213521446720686
0.37806783267811556
-2.1072647337998007
6.927474102193195
0.10370928046289547
-0.9609909917471209
-0.8578665567227638
0.8699237436481927
0.5703638100457261
-1.765693903525947
-1.9745619277957476
0.891855382950306
-0.0610627196822806
-0.8877095832069007
-2.0730369769947226
6.6808121727787215
-0.10969143865937778
0.9182688170307413
1.0838921248628473
0.8640801553329549
0.6057635389501731
-2.573792476154203
-0.6052785755730159
0.8213714179273159
0.157064868135771
-1.6792868234114933
-2.0807573520741887
6.993176233823726
-0.07866610290080103
0.99638753817168
0.7949202717713532
0.8801038602114457
-0.5381400830331361
-1.7040248432858138
-1.7509265971812307
-0.5809956139847992
0.07800086637858686
-0.2458384796355098
2.1612708197933133
6.907239893268259
0.03338803991318319
1.1344666178778022
-0.33841388396573474
-0.8360345893676774
-0.5430791001194866
-2.087892388695311
-1.145262337416677
-0.8325509743474544
0.009362967108760818
-0.9669426863746706
2.1228506537651834
6.748142855447671
0.0923687094592683
0.9429234972503592
0.7169598505435784
-0.8397381026263967
-0.5950128516398658
-1.8927969434590146
-1.975102446093376
-0.6516633081760003
-0.007204359886594435
-0.34192835995498727
2.134277780785546
6.9597357758865055
0.08877157271013872
0.99663321308951
0.5834460257587571
-0.8604920919288289
0.5804620943835009
-1.8323485248368465
-1.7959883873580154
0.6609381487072644
0.06399510494321299
-0.638272608905191
-2.170820784655028
7.060646441785115
-0.06176548203475925
1.0592857926698267
0.2747372546635657
0.8570772274555148
0.23547635626797
0.13492795212200198
1.602346341664317
1.6397858251495214
0.35495773854892315
1.5797539819243778
2.202735056912081
5.642010239606553
-0.06267580188415574
-0.9744615599166343
0.3305530940449802
-0.7146636548022217
-0.6085693961401951
2.15206723583033
1.5103589621336468
-0.5419491548884132
-0.10100242085735937
0.299016830964524
-2.114388391561934
7.0207052183129175
0.04813411702160552
-1.1079161990491098
