8.810845966659683
-5.460795021784968
5.954014899072946
0.21499380481573865
-5.514858212339407
-4.6974107664534435
-7.244253119129237
4.3364924037700785
7.17658004493283
-1.633120553624586
3.0877835593225034
0.07219180143202579
5.1651180767302405
-7.305211479695004
-2.773637612724504
6.526887576802954
-7.4039236446948
5.388172503113521
-2.279230739761039
-4.717761859960319
7.807265917042124
6.932437597733694
5.0044784465547405
-4.983868948686227
-2.3444423143060815
-1.7719621016699292
4.962575857548232
6.0379503302558915
-1.736727347628618
-6.421833227582855
1.2724461872539818
3.9982568575213207
5.915208300714241
-0.31749279122152757
-0.7456062151419713
-8.262430776335988
-5.990170212825459
-3.6163785595799647
-3.765076658544187
-6.096899967171478
-3.6257927799840117
3.6637500419841103
6.237468570917147
-5.055997406209077
6.545894172823536
8.248065364431719
1.1710886720902658
5.128252551550279
-5.772065610237956
5.608283211694507
7.9368929864173445
7.015824823350018
5.375624123358636
-1.2485658441946226
-5.83090766677606
5.01296350056256
-8.747420536044574
-4.264376087020637
-7.692180961163132
-1.705307112446531
9.028950564952218
3.763866749489504
-0.7907595296750733
-5.1190254783723175
3.486558691003243
8.837017425372341
-0.8658852831128937
-4.041290763167836
-8.11673466393528
4.301182064337642
-5.775486073930896
-6.761367866859751
1.5193901782108639
-9.149627941900006
6.945453944892629
-5.607962724919381
9.15375499236439
-2.9729883010290656
2.685791643902127
4.674727950018837
8.437951793446386
-2.9487483246175787
6.921173338081945
8.406814379200041
-2.1263377160135457
7.452699669604542
-1.782198575494756
0.7039310470678345
7.264689560008998
7.112594959947964
7.650814023270326
-4.379526309416593
9.068637661260714
5.616809831035667
8.837868225314182
3.350753633376754
-1.9082331177210101
-1.769382632830538
-8.526972999947809
-4.630088236120223
-2.1806376103579055
2.2002790823591662
-4.417562205832947
5.689434593060078
-6.224677047607397
-6.8956316204166885
-0.025401407939216136
-3.4828060306200554
-5.55396101194542
-3.6137990907405735
1.1921185576693247
1.6818055401619607
-4.0697030427133
-6.160881721783421
0.5474601735352516
-3.36481967067032
-5.593991175498102
1.6699265352365575
1.8912934835879884
-8.538866780738308
5.383222675022776
1.919450291579468
8.92833202794206
1.1928682936148975
1.597493258647849
0.4758566212297555
4.099137100550273
5.351199046811319
-7.4860487918259855
-5.580003853718663
-3.8587911824036905
6.629315461026515
1.7374947807983672
0.07503382937446505
0.20067951184964217
7.5047620656021135
-0.2915721737075445
-7.885304187207799
9.06415948421344
-3.7030552169190774
-6.855362919716691
2.985554297639616
-1.9420962951714535
1.57325471520323
1.9555993790909025
-9.147048468765648
-6.544094912603411
2.1707427824140564
8.709844729635103
5.649124008912956
-3.0042167534797692
6.3659056855575935
-3.701933559170217
8.919856919896812
7.641378145284699
-5.260304948793579
-1.6901285194284743
7.455279142738901
3.174996645013723
8.482636554401271
6.82077929727971
-2.7120367995245993
1.9608056301833965
-2.6883485781728034
-3.0712476827659554
-0.9613290024544612
-8.888671036897646
8.13037837479772
-9.199688910464797
-5.4582155529455765
-7.535533958423093
7.993699312149176
-5.95876847936366
3.9247015434885766
5.512482557198418
6.027670139308835
-4.963305303388807
-8.211259387114715
3.8079883708202256
4.8518165428529905
5.601327273315313
-7.302632010855612
2.1835575991940406
-4.141150993868127
-7.8478339117190545
-4.43645926065401
-7.969239132847968
-3.026584124421561
-4.332619431279512
0.3542987685385318
5.724683258052464
-0.2042442029702943
-6.644484007703065
5.603124269720757
-1.977497446009679
-8.54158618702189
6.263444653112179
-0.04604639036911277
5.549109127987734
1.6306080337800146
-2.9143939131108527
8.891901571369685
-9.13259057986361
7.182187474126122
8.156532171782075
3.7587078075157536
7.741594115902421
-2.229692419329642
4.374379216461818
-8.407207198806667
-7.932612562058653
-7.423646229950382
-2.283708041001558
-0.9892843466866198
-7.215895692631373
2.126126719712903
0.6469717850407213
-9.154786883873756
-2.9689364875343944
-2.718629661581738
-8.405168555886585
-1.7704688557934904
-4.380935635043632
1.2923724875312566
-4.175765657329443
-8.239214735641841
5.480763719381468
-1.1524351079368582
-2.9987561134786556
7.447540727630793
6.750155070082739
3.593264110405478
8.152510085467574
8.315114413773474
0.5840867443245673
-7.761881776199139
-3.545079789515115
0.32634341571643877
7.397458602318737
-6.208495853760143
-2.78065151518612
-1.7745415748042879
0.005380641334719405
-1.7407551727825794
-1.2928170848993306
3.402798536184676
6.9624545846358785
2.3070791262775305
-0.3916504246736738
6.260646037973634
-1.4658110266396938
5.404688555952598
-6.426379409410529
-3.6189580327143234
-8.72227187046273
4.5711385992046365
-3.1818825129597568
-4.958362272252878
-6.519267109705474
-6.747175137452866
0.23903544743562094
-3.620539880082671
0.4508838605925433
0.34862780583434594
4.510804277557667
1.9142913496057181
-0.9860584001899961
4.082201356952541
2.4853137841064243
1.678376070760298
-2.9675901826904534
1.9688435800287722
-1.653022168892263
7.5762738089666275
-5.299200805399136
-2.9299340261103826
0.865076383333257
0.0698748874007153
8.733033157427139
-8.052648944769794
0.5962483474560633
-6.682784733382289
1.9974322009727126
-7.085410683701625
-1.0223362967829686
-2.3049121133846455
-3.3825059181668986
-7.985994771933668
1.0831809816257927
-9.152207415034365
1.98825872438415
5.060075845751699
-8.849078818615872
6.8516434541485305
8.375800041284023
2.9835502187750462
2.131093063763505
3.6293905088725498
6.200968526584223
3.627189637779074
-2.5625469125986173
7.450120196470183
-6.7393937874133005
-7.074774455970636
7.708599822738286
-1.5095173499940566
-5.1059216487623615
-6.07070404495535
2.7617789401677673
-6.251795413478723
8.117663413816459
-1.4288711123391782
8.374636770074611
-5.463374494919327
0.9968196871544022
-7.563711702517699
-5.070947949610119
5.127220997314087
-1.5542447260423085
2.6453146725262884
0.8697213195449158
4.945018275570575
2.3675787478247803
-4.707432944283907
4.728908875850203
-7.307790952829362
-7.7308328289380155
-1.2518179262355162
-6.960013381965512
-3.2339398068285004
3.4107776576208577
-6.408939591204108
1.5004071959491778
-4.936167646780697
4.284273639351985
8.68325038360236
4.947013478437706
1.9168708227400768
3.9711368117285484
-6.58583721371854
2.041403521377137
-8.146255693007232
-8.657598575777381
3.660021311272562
4.653836556495651
0.9981349754764981
-4.5789959939014135
1.84969071960555
1.3012855799183285
0.07245436053507384
-4.756515700068902
-0.27394343743635713
0.152338089021743
1.9393275765597324
-3.692576192114217
-5.394232952457835
5.284522428604946
-8.883050942579807
-2.662301106669176
-3.2063700305127023
-6.208274811117994
5.605703738560148
2.979697770203833
-0.7628806839834202
5.819534386087923
8.576065919572908
-0.14089926509919593
3.321785765023804
3.392464812277062
2.3137627378795567
-8.412385772660855
-6.484931858162463
8.592741368367149
3.7612872763551453
-5.747954745888585
5.549013088003796
3.930468958027498
0.21490511543032137
4.824123114269002
-5.732468498706593
4.023150684386357
-7.567423175881781
-6.49569088113365
6.9057514654288354
2.828017772261045
-9.141889526791898
3.3702955155286456
-0.7185902766286195
7.822024204176529
4.446604555087445
4.0625105297609565
-8.69848292566438
8.911783891605612
-4.2364207427884795
9.081787768280146
4.298944538343318
-0.8177101219633645
7.460438084712651
-5.3573570005637725
5.5933034910636295
5.932958767526167
-3.914556249055141
9.027532913424123
0.694006884314776
-8.904274309994644
4.3291374171597345
-7.44826141819717
-0.7571162117749346
-8.327270512999688
-5.45305660667686
2.3788564697089636
5.104366248811534
-6.846589000527268
2.7221820939580343
-5.8675342375653745
-9.036718471913138
7.650412147387023
-2.9207929717954864
5.248397989520703
-4.035678043719663
6.473745670780422
-7.297473064586896
-6.348796042088488
-7.030484052910802
-8.73565443717763
-5.638978710184553
-0.9025118539022093
0.355771338066018
8.281098019496318
5.644765179562793
7.165092881047909
-9.091738789542948
6.691850269072958
1.9271887066875761
5.353173598578077
6.082240737610691
0.26576247045998663
7.895449477346267
5.475855986409101
-8.022011828871896
-7.012216693666761
-6.867676271889564
-1.6981767522054902
2.5214456201697937
3.046122374848548
0.08277224448257334
-3.3744789175143413
-6.052609564111644
-1.6233029661903744
-0.46571132679632
-8.005865703637284
1.3704779811072592
-6.381530817262498
1.6978818794687163
0.218518135026747
-2.534615129948459
-4.463438016187774
5.616021626802615
4.361734557053361
-6.541546810658706
4.0438933394657415
6.171027016216856
-4.454188776622263
-8.36024737941562
-8.27358843788535
-5.552048505191538
-5.531566526669964
-5.813176957598221
-8.10916591470715
3.771605164597612
-4.36591795474409
-0.2296530343765238
2.1548279028153803
-2.1901337879257308
0.5108336027459358
1.032242430563534
-7.642902561481088
3.0135096461667423
-3.614871639437727
7.577506370288046
-7.891061312119648
-5.450477137837469
7.336051685922475
-5.563672317564581
-7.290499263256556
-7.102449669809497
6.889201443057247
-7.34554073637438
-4.489473200934614
8.947812268423936
5.968602801018426
0.7439467062912368
6.909954867365494
-7.294893595747504
-1.3916008301699432
0.7482214544226351
-9.17956469561195
2.9831335997574686
-6.592520251284107
2.0469490736047753
-3.85878732882532
-0.9333736496323681
7.885297692545629
-4.312114048121983
-0.5996055236708288
-1.7616442177224299
6.344612640102793
0.25928420787557205
-3.5123683985457683
-8.826872130938906
-3.040843324269085
-7.683776282623138
-5.750844945153204
-8.183304034292622
2.1352130265539513
-7.590675875771744
-4.245333417895239
-3.6060606756324654
-2.3830398716946584
6.571177979862788
-5.401433830901162
1.2587111343330908
1.924179059394081
1.7087135273560172
-5.12015907304391
0.38225411706565765
4.051907909491222
5.800007452114522
-4.027228819602703
5.618601095642006
-9.127814300442678
1.237158696674731
3.599983072441486
-3.6536047432557073
8.302546895410426
-6.669069648171831
-1.9667297124974357
6.316556739322853
-4.81136171946721
-1.0335522118822873
-7.672956713827112
3.7741846377319703
0.591277257174455
7.549052472956914
1.7109176400860928
6.43197852201629
-5.17917479463596
2.7234201618073235
-1.336043840388141
-3.564629183028419
-2.894666827940005
-6.08961296200054
3.264226973141084
-9.139310057952507
8.327490727447191
7.060115226409851
7.378113941447242
-5.378027204385118
-1.6274978676209397
-7.007305190125621
-3.2281014567160247
7.632184501725911
-8.644751493931684
9.078569279764285
-0.3815009253782931
7.463017553552041
-0.4001617843502604
-5.074735075312486
5.489048509091847
4.70755606088688
3.337524516042226
2.385184619853533
-2.5974155846067304
-2.249001416330394
-6.728056606699447
4.022508533940998
5.819431871607847
1.9220297647138265
-4.561216829553979
8.971573796653368
1.1535829959185617
9.097968931171776
-1.590871296831624
7.042376778055109
-1.179190066438071
6.288601386500759
-3.1385863709059683
-7.037803866967104
2.1737039773834383
0.07761330250882359
5.157874728063154
-3.1632765007740007
-0.735482436436832
0.7368081270291895
3.3741510868315414
-2.0118774856752877
-0.5485041943287763
-3.5925845315555454
-1.221891483673731
6.352879456624195
-5.335856413652884
5.610862684828866
-5.552655875373662
-3.652213743026096
4.931713864924316
7.373546465747398
6.925828013846563
6.704141231806351
-2.4405618149516277
7.604229157493752
-6.9719761539603775
3.0743176289744345
-8.981584307877293
3.766446222623862
4.166435682243471
2.65968002896112
3.042648428273955
-0.9876143383951884
-6.5558936804947905
-2.3501130319240455
-1.8098759385473655
-2.2769567648575197
-5.055281262433172
-1.9817431211438186
-8.763479709584757
-5.455636079811218
-2.5783387422095814
-2.6743392585219046
-6.40267873779798
-5.899930215983986
-0.17752583588851165
7.718847870552626
1.3435534219991077
3.657345857399675
4.528193182317947
-8.815302785140629
6.037536469900383
-7.300052537721254
7.140752815407553
3.6375545134653113
-8.291744174448342
4.185653049288011
4.787496543479687
-1.3354063931777718
1.9742392941084028
-6.223840064951597
6.444888065255218
4.575380538450672
-1.4720239168409717
-1.7668031596961795
-3.5697777880292634
3.148617271213215
-2.624547868792226
-7.624352681408365
8.33917346619974
7.380612324303867
0.08218167778051845
4.972973619802733
0.6948034035585064
1.29681871080091
-5.117751815360348
-3.6112196176062152
6.14931376958787
-8.986233026214153
-4.513613305442586
2.4612305881586
-5.142548223846645
-1.6736419394265298
0.712867549889813
-4.908212293958604
2.6114982907907436
-3.7592420350223756
-4.8996472170678125
5.613442153668257
-0.5954606548651832
4.126491755717407
4.487803602195029
-2.451085293725165
1.2358196164646664
8.39531896305014
3.8662969147312545
1.0260903240036239
-6.251771338167687
7.853942374690367
-8.545375111292223
3.769025691463254
9.123630898456984
-8.008358541709962
2.5987381655446677
7.634497971546833
6.200842000127832
-0.6589353006802559
4.496982782545581
-8.855095594052681
-4.33507645093545
2.797881620277147
2.391808575675974
-9.144468999926257
-1.586899700684866
-8.497295783962057
8.265934466905817
-4.175507754854576
-8.694225146566698
8.057083416801383
2.6049251662176975
2.34171809070165
8.361582956782422
-0.4806802073726144
-1.2539193185484356
7.457858611578292
8.132191856932268
-2.1854020119748414
6.376869034550422
5.910075514712389
-3.7292027629035323
-0.9971708469290137
3.235611038326992
-7.539467831649623
-8.168466229694891
-5.5367409531959
-1.0358147202559
-1.764223690856788
1.3874174281842477
-7.519421295162898
-3.068458135816481
0.9977596285336565
2.6491650731128114
9.071790055547657
6.389040403168433
-1.6051652050974603
1.4150082150562286
6.076443456516842
-4.6815426144803105
-3.608640144471857
-7.340235087908171
-1.2075275274706498
-4.957523568171874
-7.36340117560893
7.614187456775977
0.01753579181726007
7.019726275277728
6.96039294626082
3.3317031022884662
1.0203827063985897
6.255641072487887
1.924609233553218
0.39597838236456495
-1.6964647697227457
0.709672733189274
-0.7266628325957543
-7.280879689918553
8.733554509298898
5.127668658949844
-0.2895374426944018
-2.418381563703213
-2.2581791255461385
2.6099131739685095
0.08019277134821481
-8.331674133727853
4.615429006559438
-1.179392703461087
-9.087823636738342
-2.3158573105503546
-0.3206997544314979
5.758354531059139
8.276020712958845
-0.5016866721760083
-7.314239871369423
-3.1548104221375928
5.623760041910724
0.7865761276893778
-1.6521743666629125
2.7121625469829116
-4.856124197081217
-3.0774698950584005
-3.286714185684252
-7.799756335431157
-6.839720923362437
-3.370952100766732
8.52569727525461
-6.800538320656971
3.77934357970572
-7.94107638840304
4.659719409619271
0.8230971146275178
5.229459072485748
1.887552488604765
6.105775624294903
-7.169070463321862
1.7258372279958416
-1.4542572092395272
3.469636525136358
4.136645366311226
-9.13415111168379
-0.20486291383533764
4.170782163072207
6.490293411693699
-6.580546658210627
5.439229415619787
-3.6249497319330093
-9.061128079649748
-5.524093156664413
-7.204341875231206
0.19107469319162937
0.4909174720868169
7.468176499820759
-8.932515429927756
-7.964068134355161
4.601227983633272
3.5050366113563367
-8.0424922744266
5.767540078046145
-8.430442207540453
3.0414649989888347
-5.287646983704002
-4.864986052631656
0.7090220703793526
-1.7539058026143215
2.7694542150337758
5.148656651871367
-4.844099182438663
-1.4072792748223955
-1.6641244384102554
-2.6102430931867353
-5.277012842699013
8.975767616951062
4.295827456752152
6.748198357081085
-2.936705823845057
-3.598322260524357
-5.958198305353609
-6.98619364985097
-6.733164619089024
8.678303994744569
3.3008979452529106
6.782246721087387
-4.646326974884683
-0.9054183011052421
6.212522343984389
1.6921376069628333
8.00047786312314
1.9349271217956845
1.7780151735090608
-7.475130892103065
-1.065968317727876
-3.1317017359518062
6.852574872267931
-2.9484786394354936
-6.538384591212568
-8.155348690060464
0.4624376822876774
-1.586424224981895
4.354749968898729
0.09051065959068164
-6.949637342583358
-1.1632371201158493
-2.9550337543782366
6.953881533615158
-6.629146822073421
6.444011170543661
-5.907698719103274
0.41020946559278343
2.3791325695199146
-6.64248497080518
4.572854567191265
-9.1315716428444
4.752332298083207
-6.497256407598874
6.046383153259378
2.041565651731393
-0.2507789817621104
-1.9337719963942523
-2.754269354261833
6.344512087849978
-6.484137063733484
4.9706994389075625
0.9271266686718882
7.47075596866015
-3.975320218009211
-0.1853626313166904
4.157317716609018
-6.3195951524111935
4.714243397606089
7.458717813584902
-2.1235834821525383
-3.536673834501294
-4.567442176501246
-0.08536131121069074
-6.582433718069467
-5.44273872272936
3.760893256558492
-0.6742998735687862
-8.622230051444419
0.3171431906019825
8.265920324621108
-2.2720075426430104
-4.0156410984804225
7.660139850253036
8.129217235511595
-3.363923138860452
8.218582461415675
-7.287155180639396
-4.9667592595339265
5.63759389841843
7.935448585614773
-8.044017613540603
-5.215801365425277
7.120482267336144
-3.3849552263711273
-2.221046067803268
-8.400831955260688
-8.419983888978704
8.436687059708209
1.937506590635076
6.735210385427606
0.30357461523037266
-1.5098785804571635
5.490410573990214
1.1625664748860347
-1.2573009038967364
-0.23152586582465381
3.7132565501589596
1.1826424894904326
3.1932005207340373
4.790959165483801
0.09309012843007283
-1.992442130664813
6.6154683829226215
-3.3989440171075245
-2.8707502301523724
6.127588858549201
8.13518890608242
0.3991600062846409
-6.1679293636023775
3.0993373810176372
-1.8628602250892479
-2.7186012255525216
5.626339510750115
5.743771343902891
6.126531140670526
2.2682522885485916
3.7659881171557714
-8.76747828814533
-1.5955364501454943
-1.4928976100432434
5.028884321151953
-2.6507472849740417
-5.141422057033975
-6.36432911977693
3.781923048545112
-2.9838811721895286
-6.008319156756844
0.3791868518982302
-4.595172691281783
-3.802455904482164
7.79695335983366
-0.8622117379339485
-4.852301601199319
-0.7340523977418045
8.24926127085229
-0.16339632279079008
-1.7590647445880712
-7.144936217393248
8.03798971520901
-3.9562786612750553
-0.2047598209968859
-8.730851717356014
-5.992598555674315
0.5560137802347107
3.6853012059268013
2.8554178337567064
-2.8110511300558114
-3.8091242213101673
-3.6034812024981067
2.5741553402238857
-4.096860586513326
-5.84534409363045
-8.565920625139473
-3.7658293336928486
3.3998912543048396
1.1866996523440054
-6.195884712129505
4.772112725283912
-7.867111880174065
7.128059465658029
1.9297681798219348
-8.136375258917962
-4.585797833060389
-0.17814779226930091
-1.9291822864212638
-0.21415241097279467
-6.330834101923073
-0.7053579639838787
5.00092896832986
-0.9779719450027349
7.301070361590759
3.4823315714336194
0.08535171761693187
1.5827162986991705
1.726095943221794
-2.0672132246246946
8.156400983145701
4.750869972690372
3.061655708056082
-0.07467209616955132
-4.880256949726445
0.9387229465244695
2.245009615767474
3.700436169726155
-9.136730584818148
-5.16205813004885
-3.60792334426123
6.934203678717954
3.244085105556903
-7.317506260707869
-5.3161274631768
3.0787572686718896
1.0540456725307499
-7.92454668243396
-4.588550048229337
0.05470827550174555
7.4655970266864005
4.557033427568284
2.7039704320209528
5.04513824636256
-5.117075698585683
-2.3524838813396705
4.076362346802355
3.7094431407811843
-8.827140245525555
-6.007851799496692
8.802133275361964
-7.454852115534577
-5.44789766470311
-6.153497175868532
2.2150331854738896
-7.734409530280811
1.5196626401325246
1.1991930456753506
-5.654363009425557
1.8173855244533001
2.3696734392287757
6.688807612516148
5.523571447712202
7.346164063950566
-7.292314122613146
3.5655943860435686
8.526926957461106
8.823269115368316
-6.841498164010061
6.164215429338516
3.738126800553597
2.448071396562595
-7.511512483122496
8.605502499748386
0.4675106975939495
7.564268666538068
1.932347648661326
-3.1791800427044508
3.1929076742730484
-0.6220580592935557
6.692930027815724
-5.904160808354692
-4.639656370679283
5.601500757109069
-1.5772098608653018
-0.2577671292100452
-6.366048966402859
3.9185407680186914
0.08793118645632311
6.539911514912681
-8.941942627449286
-2.5111234873539816
-1.6682307806218297
-0.9391384246915251
4.752833439299872
6.23218663351333
6.9883482904929775
1.658927753727225
7.0246343571884395
-3.591019623017631
5.621180568776365
-4.170619088524134
9.015864204008167
3.1560728097121995
4.968507566686313
2.612538502323496
-4.977891916928041
4.340129012890479
-0.26158209416727596
-4.091156907969487
3.7460725295386776
-7.2367475172420415
3.776764106571362
5.5484724733879665
-3.1189860977141675
1.2670073773568054
-3.3926532417512405
7.577560885986662
4.414597893051114
4.970814884999774
8.30397606148597
-2.17446202073725
-1.3099882162846075
-7.018642918949506
-5.4453181958637185
-1.1963019596550204
-8.453005380902225
-8.178319793010099
-8.304969119340038
-4.490815351706546
-3.963185278181767
8.124244249841215
-4.208465389966386
7.409012419718904
-8.143547880281417
7.782373264830603
-7.289734649478787
8.522789597962113
-2.141111608915008
8.37935884834406
1.780614145931959
0.47420703625158733
5.429304531797388
8.75493012195051
4.357092761391893
-9.121036762463442
5.247135439014915
0.2728128737942812
-1.75648527574868
-2.187741001179736
-2.630048851167104
-4.400188924004343
8.417352488945134
4.025883958971641
-4.301420824430525
6.862872501327658
-2.89283762326836
3.5756226452544295
1.9685736113651537
-3.3729150204301286
-3.6009017336587155
7.531350556437397
3.6818449165251446
-6.289254356359737
0.05619168480254828
8.99090633833984
5.091068985548629
7.493558377731921
5.672720528089919
5.492317536781633
-3.0874871344581316
-9.13763861653623
1.9426655369037928
-1.7971432601498902
-2.5857584481072706
-2.3976991102107057
4.287891128754639
8.229293753831794
2.1250545585908434
-6.064552488758377
9.003722969773156
2.6230521081909104
-5.694294061543649
5.663377562948911
0.0982490746987899
7.92194830176221
3.726135323879945
-4.286764538271132
-4.073269683977882
-5.252427936214592
-6.9291997051395535
-5.433866616649082
-0.8774629525781165
4.5397469997181155
7.696389262047649
-1.8461828280874115
5.631498457018832
-2.788582301674605
3.2371980773328817
1.380431758795049
2.5634686633302617
-1.7007510091995715
1.786819012342085
-7.325924232976966
-8.127393341533338
-1.210337666273564
4.417827430102922
-5.491910726606789
3.7870819948138283
6.930509255942528
-8.897652224389454
-0.5086336735603448
-5.797692140812325
3.2642713744635943
-7.267435251388311
-6.6952383608676715
0.43816480982494194
0.7063572252536404
-0.6382333157203636
