0.9691930563325651
-0.6006874523963465
0.654941638898024
0.023649318529731254
-0.6066344033573348
-0.5167151843098788
-0.7968678431042161
0.4770141644147086
0.7894238049426113
-0.17964326089870447
0.3396561915254754
0.007941098157522837
0.5681629884403265
-0.8035732627664505
-0.30510013739969544
0.7179576334483251
-0.8144316009164281
0.5926989753424874
-0.2507153813737143
-0.5189538045956351
0.8587992508746337
0.7625681357507064
0.5504926291210216
-0.548225584355485
-0.257888654573669
-0.1949158311836922
0.5458833443303055
0.664174536328148
-0.191040008239148
-0.7064016550341141
0.13996908059793803
0.4398082543273453
0.6506729130785666
-0.034924207034368035
-0.08201668366561686
-0.9088673853969587
-0.6589187234108005
-0.39780164155379616
-0.4141584324398606
-0.6706589963888626
-0.39883720579824133
0.40301250461825217
0.6861215428008862
-0.5561597146829984
0.720048359010589
0.9072871900874891
0.12881975392992925
0.5641077806705307
-0.6349272171261752
0.6169111532863958
0.873058228505908
0.771740730568502
0.5913186535694501
-0.13734224286140848
-0.6413998433453666
0.5514259850618817
-0.9622162589649033
-0.4690813695722702
-0.8461399057279446
-0.18758378236911843
0.9931845621447442
0.4140253424438455
-0.08698354826425807
-0.563092802620955
0.38352145601035675
0.9720719167909577
-0.0952473811424183
-0.44454198394846195
-0.8928408130328809
0.47313002707714064
-0.6353034681323986
-0.7437504653545727
0.167132919603195
-1.0064590736090007
0.7639999339381892
-0.616875899741132
1.006913049160083
-0.32702871311319726
0.29543708082923403
0.5142200745020721
0.9281746972791026
-0.3243623157079337
0.761329067189014
0.9247495817120045
-0.23389714876149006
0.8197969636564997
-0.1960418433044232
0.0774324151774618
0.7991158516009899
0.7823854455942761
0.841589542559736
-0.4817478940358253
0.9975501427386787
0.6178490814139235
0.9721655047845601
0.368582899671443
-0.20990564294931113
-0.1946320896113592
-0.937967029994259
-0.5093097059732246
-0.23987013713936964
0.2420306990595083
-0.48593184264162426
0.6258378052366086
-0.6847144752368136
-0.7585194782458359
-0.002794154873313775
-0.3831086633682061
-0.6109357113139963
-0.39751789998146314
0.13113304134362574
0.1849986094178157
-0.447667334698463
-0.6776969893961764
0.06022061908887767
-0.3701301637737352
-0.6153390293047912
0.18369191887602135
0.20804228319467877
-0.939275345881214
0.5921544942525054
0.2111395320737415
0.9821165230736266
0.13121551229763875
0.1757242584512634
0.052344228335273114
0.45090508106053
0.5886318951492452
-0.8234653671008585
-0.6138004239090531
-0.42446703006440595
0.7292247007129167
0.1911244258878204
0.008253721231191157
0.02207474630346064
0.8255238272162325
-0.0320729391078299
-0.867383460592858
0.9970575432634784
-0.40733607386109855
-0.7540899211688361
0.3284109727403578
-0.2136305924688599
0.17305801867235532
0.21511593169999932
-1.0061753315642215
-0.7198504403863752
0.23878170606554625
0.9580829202598614
0.6214036409804252
-0.33046384288277464
0.7002496254113354
-0.40721269150872397
0.9811842611886493
0.840551595981317
-0.5786335443672938
-0.1859141371371322
0.8200807057012791
0.34924963095150957
0.93309002098414
0.7502857227007681
-0.29832404794770595
0.21568861932017364
-0.2957183435990084
-0.3378372451042551
-0.10574619026999074
-0.9777538140587412
0.8943416212277493
-1.0119657801511277
-0.6004037108240134
-0.8289087354265403
0.8793069243364094
-0.6554645327300026
0.43171716978374347
0.6063730812918261
0.6630437153239719
-0.5459635833727688
-0.9032385325826188
0.41887872079022487
0.5336998197138291
0.6161460000646845
-0.8032895211941173
0.24019133591134445
-0.455526609325494
-0.863261730289096
-0.4880105186719411
-0.8766163046132766
-0.3329242536863718
-0.47658813744074635
0.038972864539238504
0.629715158385771
-0.022466862326732374
-0.7308932408473372
0.6163436696692833
-0.2175247190610647
-0.939574480572408
0.6889789118423397
-0.005065102940602405
0.6104020040786508
0.17936688371580162
-0.32058333044219384
0.9781091728506655
-1.0045849637849973
0.7900406221538736
0.8972185388960284
0.41345785882673297
0.8515753527492664
-0.24526616612626065
0.4811817138108
-0.9247927918687335
-0.8725873818264519
-0.8166010852945421
-0.2512078845101714
-0.1088212781355282
-0.7937485261894511
0.23387393916841934
0.07116689635447934
-1.0070265572261132
-0.3265830136287834
-0.2990492627739912
-0.9245685411475244
-0.19475157413728397
-0.48190291985479955
0.14216097362843821
-0.45933422230623866
-0.9063136209206026
0.6028840091319615
-0.12676786187305442
-0.3298631724826521
0.8192294800393872
0.7425170577091014
0.3952590521446026
0.8967761094014332
0.9146625855150822
0.0642495418757024
-0.8538069953819054
-0.38995877684666264
0.035897775728808264
0.8137204462550611
-0.6829345439136157
-0.3058716666704732
-0.19519957322847167
5.918705468191347E-4
-0.19148306900608375
-0.14220987933892637
0.3743078389803144
0.7658700043099467
0.25377870389052837
-0.04308154671410412
0.6886710641770998
-0.16123921293036633
0.5945157411547859
-0.7069017350351583
-0.3980853835985756
-0.9594499057509005
0.5028252459125101
-0.35000707642557327
-0.5454198499478167
-0.7171193820676023
-0.7421892651198154
0.026293899217918304
-0.39825938680909384
0.04959722466517977
0.03834905864177806
0.4961884705313434
0.21057204845662902
-0.10846642402089958
0.4490421492647795
0.2733845162517067
0.18462136778363278
-0.3264349200959499
0.21657279380316496
-0.18183243857814896
0.8333901189863291
-0.582912088593905
-0.3222927428721421
0.09515840216665827
0.007686237614078685
0.9606336473169853
-0.8857913839246775
0.06558731822016696
-0.7351063206720518
0.2197175421069984
-0.7793951752071788
-0.11245699264612655
-0.253540332472311
-0.3720756509983589
-0.8784594249127036
0.11914990797883719
-1.00674281565378
0.21870845968225652
0.5566083430326869
-0.973398670047746
0.7536807799563384
0.9213380045412426
0.3281905240652551
0.23442023701398557
0.3992329559759805
0.6821065379242646
0.3989908601556982
-0.2818801603858479
0.8195132216117202
-0.7413333166154631
-0.77822519015677
0.8479459805012115
-0.16604690849934625
-0.5616513813638598
-0.6677774449450885
0.3037956834184544
-0.6876974954826596
0.8929429755198106
-0.15717582235730962
0.9212100447082073
-0.6009711944411259
0.10965016558698425
-0.832008287276947
-0.5578042744571131
0.5639943097045497
-0.17096691986465393
0.2909846139778917
0.09566934514994074
0.5439520103127633
0.26043366226072584
-0.5178176238712298
0.5201799763435223
-0.8038570048112298
-0.8503916111831819
-0.1376999718859068
-0.7656014720162063
-0.35573337875113503
0.3751855423382944
-0.7049833550324519
0.16504479155440957
-0.5429784411458767
0.4712701003287184
0.9551575421962596
0.5441714826281476
0.21085579050140849
0.4368250492901404
-0.7244420935090395
0.22455438735148506
-0.8960881262307957
-0.9523358433355121
0.40260234423998187
0.5119220212145218
0.1097948473024148
-0.5036895593291555
0.20346597915661052
0.14314141379101614
0.007969979658858123
-0.5232167270075793
-0.030133778117999287
0.01675718979239173
0.21332603342157058
-0.4061833811325639
-0.5933656247703619
0.5812974671465442
-0.9771356036837789
-0.2928531217336094
-0.3527007033563973
-0.6829102292229794
0.6166274112416164
0.32776675472242167
-0.08391687523817623
0.6401487824696717
0.94336725115302
-0.015498919160911553
0.36539643415261847
0.3731711293504768
0.25451390116675127
-0.9253624349926941
-0.7133425043978711
0.9452015505203863
0.413741600399066
-0.6322750220477444
0.6103914396804175
0.4323515853830248
0.023639562697335352
0.5306535425695903
-0.6305715348577253
0.4425465752824993
-0.832416549346996
-0.7145259969247015
0.759632661197172
0.311081954948715
-1.005607847947109
0.37073250670815106
-0.07904493042914815
0.8604226624594182
0.4891265010596191
0.44687615827370525
-0.9568331218230818
0.9802962280766173
-0.46600628170673275
0.9989966545108161
0.47288389921776497
-0.0899481134159701
0.8206481893183917
-0.5893092700620151
0.6152633840169993
0.6526254644278785
-0.43060118739606557
0.9930286204766536
0.07634075727462536
-0.979470174099411
0.47620511588757086
-0.8193087560016887
-0.08328278329524282
-0.9159997564299657
-0.5998362267344547
0.261674211667986
0.5614802873692688
-0.7531247900579995
0.2994400303353838
-0.6454287661321912
-0.9940390319104452
0.8415453362125725
-0.3212872268975035
0.5773237788472774
-0.44392458480916297
0.7121120237858465
-0.8027220371045586
-0.6983675646297337
-0.7733532458201884
-0.9609219880895392
-0.6202876581203008
-0.09927630392924304
0.039134847187261984
0.9109207821445949
0.6209241697519072
0.78816021691527
-1.0000912668497244
0.7361035295980255
0.2119907577356334
0.5888490958435886
0.6690464811371761
0.029233871750598533
0.8684994425080894
0.6023441585050012
-0.8824213011759086
-0.7713438363033437
-0.755444389907852
-0.18679944274260393
0.27735901821867737
0.33507346123334036
0.009104946893083068
-0.3711926809265776
-0.6657870520522808
-0.1785633262809412
-0.0512282459475952
-0.8806452274001013
0.15075257792179853
-0.7019683898988749
0.1867670067415588
0.02403699485294217
-0.27880766429433057
-0.49097818178065517
0.6177623789482878
0.47979080127586976
-0.7195701491724578
0.44482826734123154
0.6788129717838541
-0.4899607654284489
-0.9196272117357184
-0.9100947281673886
-0.6107253355710692
-0.6084723179336962
-0.6394494653358043
-0.8920082506177867
0.41487656810573736
-0.4802509750218499
-0.02526183378141762
0.23703106930969184
-0.2409147166718304
0.05619169630205294
0.11354666736198875
-0.8407192817629197
0.33148606107834167
-0.39763588033815
0.8335257007316852
-0.8680167443331613
-0.5995524851621216
0.8069656854514723
-0.6120039549321039
-0.8019549189582212
-0.7812694636790447
0.7578121587362973
-0.8080094810011819
-0.4938420521028076
0.9842593495266332
0.656546308112027
0.08183413769203605
0.7600950354102044
-0.8024382955322255
-0.15307609131869376
0.08230435998648987
-1.0097521165173144
0.3281446959733216
-0.7251772276412518
0.22516439809652528
-0.42446660617078524
-0.1026711014595605
0.8673827461800193
-0.4743325452934181
-0.06595660760379117
-0.19378086394946728
0.6979073904113072
0.028521262866312926
-0.38636052384003455
-0.9709559344032798
-0.3344927656695994
-0.8452153910885453
-0.6325929439668525
-0.9001634437721884
0.23487343292093468
-0.8349743463348919
-0.46698667596847626
-0.3966666743195712
-0.26213438588641247
0.7228295777849068
-0.5941577213991279
0.13845822477664002
0.21165969653334893
0.1879584880091619
-0.5632174980348301
0.04204795287722234
0.4457098700440344
0.6380008197325975
-0.44299517015629736
0.6180461205206207
-1.0040595730486948
0.13608745663422042
0.3959981379685635
-0.40189652175812784
0.9132801584951469
-0.7335976612989015
-0.21634026837471793
0.6948212413255138
-0.5292497891413931
-0.11369074330705162
-0.8440252385209824
0.4151603101505168
0.06504049828919006
0.8303957720252606
0.18820094040947022
0.7075176374217919
-0.5697092274099557
0.2995762177988056
-0.14696482244269551
-0.39210921013312616
-0.3184133510734006
-0.6698574258200595
0.35906496704551927
-1.0053241063747758
0.916023980019191
0.7766126749050837
0.8115925335591967
-0.5915829924823631
-0.1790247654383034
-0.7708035709138183
-0.35509116023876275
0.8395402951898503
-0.9509226643324853
0.9986426207740713
-0.041965101791612246
0.8209319308907246
-0.04401779627852865
-0.5582208582843734
0.6037953360001033
0.5178311666975568
0.3671276967646449
0.2623703081838887
-0.28571571430674036
-0.24739015579634335
-0.7400862267369391
0.4424759387335098
0.6401375058768632
0.21142327411852094
-0.5017338512509378
0.9868731176318706
0.1268941295510418
1.0007765824288954
-0.17499584265147866
0.7746614455860621
-0.12971090730818782
0.6917461525150836
-0.3452445007996565
-0.7741584253663815
0.23910743751217822
0.008537463275970596
0.567366220086947
-0.3479604150851401
-0.08090306800805153
0.08104889397321086
0.3711566195514696
-0.22130652342428167
-0.060335461376165404
-0.39518429847111003
-0.13440806320411042
0.6988167402286616
-0.5869442055018173
0.6171948953311752
-0.6107921462911029
-0.4017435117328706
0.5424885251416749
0.8110901112322139
0.761841081523122
0.7374555354986987
-0.2684617996446791
0.8364652073243128
-0.7669173769356415
0.33817493918718783
-0.9879742738665024
0.41430908448862486
0.45830792504678186
0.2925648031857232
0.3346913271101351
-0.10863757722347073
-0.721148304854427
-0.25851243351164505
-0.19908635324021023
-0.2504652441343272
-0.556080938867649
-0.21799174332582005
-0.9639827680543235
-0.600119968779234
-0.283617261643054
-0.2941773184374095
-0.7042946611577778
-0.6489923237582386
-0.019527841947736282
0.8490732657607889
0.14779087641990185
0.40230804431396433
0.4981012500549743
-0.9696833063654692
0.6641290116890421
-0.803005779149338
0.7854828096948309
0.4001309964811843
-0.9120918591893177
0.46042183542168125
0.5266246197827656
-0.14689470324955492
0.21716632235192432
-0.6846224071446757
0.708937687178074
0.5032918592295739
-0.16192263085250688
-0.19434834756657976
-0.392675556683219
0.3463478998334537
-0.28870026556714484
-0.8386787949549203
0.9173090812819715
0.8118673556734254
0.009039984555857031
0.5470270981783008
0.07642837439143571
0.14265005818810012
-0.5629526996896383
-0.3972341579366837
0.6764245146546657
-0.988485632883557
-0.4964974635986846
0.270735364697446
-0.565680304623131
-0.1841006133369183
0.07841543048787944
-0.5399033523354464
0.28726481198698184
-0.41351662385246135
-0.5389611938774594
0.6174786369035082
-0.06550067203517015
0.4539140931289148
0.49365839624145325
-0.2696193823097682
0.13594015781111332
0.9234850859355155
0.425292660620438
0.11286993564039864
-0.6876948471984456
0.8639336612159404
-0.9399912622421446
0.41459282606095793
1.0035993988302683
-0.8809194395880958
0.2858611982099135
0.8397947768701517
0.6820926200140616
-0.07248288307482816
0.494668106080014
-0.974060515345795
-0.47685840960289955
0.30776697823048615
0.2630989433243572
-1.0058915899918883
-0.17455896707533528
-0.9347025362358264
0.9092527913596399
-0.45930585303400334
-0.9563647661223369
0.8862791758481523
0.28654176828394673
0.2575889899771815
0.9197741252460666
-0.05287482281098759
-0.13793112504032795
0.8203644472736121
0.8945411042625496
-0.2403942213172326
0.7014555938005465
0.6501083066183629
-0.41021230391938857
-0.10968879316219152
0.35591721421596917
-0.8293414614814586
-0.8985312852664382
-0.6090415048515491
-0.11393961922814902
-0.1940646059942467
0.15261591710026726
-0.8271363424679189
-0.3375303949398129
0.10975355913870223
0.29140815804240927
0.9978969061102424
0.7027944443485278
-0.17656817256072063
0.15565090365618517
0.6684087802168527
-0.5149696875928341
-0.3969504158919043
-0.8074258596698989
-0.1328280280217715
-0.5453275924989062
-0.8099741293169824
0.8375606202453576
0.001928937099898608
0.7721698902805502
0.7656432240886902
0.3664873412517313
0.11224209770384488
0.6881205179736676
0.21170701569085398
0.04355762206010215
-0.18661112466950205
0.07806400065082016
-0.07993291158553298
-0.800896765891041
0.9606909960228789
0.5640435524844829
-0.031849118696384196
-0.26602197200735345
-0.24839970381007528
0.2870904491365361
0.008821204848303631
-0.916484154710064
0.5076971907215382
-0.1297331973807196
-0.9996606000412176
-0.254744304160539
-0.03527697298746477
0.6334189984165053
0.910362278425473
-0.05518553393936091
-0.8045663858506367
-0.3470291464351352
0.6186136046101797
0.08652337404583156
-0.18173918033292039
0.2983378801681203
-0.5341736616789339
-0.3385216884564241
-0.3615385604252677
-0.8579731968974273
-0.7523693015698681
-0.37080473108434053
0.9378267002780072
-0.7480592152722668
0.41572779376762925
-0.8735184027243345
0.5125691350581199
0.09054068260902697
0.5752404979734324
0.20763077374652417
0.6716353186724394
-0.788597750965405
0.1898420950795426
-0.15996829301634802
0.3816600177649994
0.45503099029423494
-1.0047566222852171
-0.02253492052188714
0.45878603793794287
0.713932275286307
-0.723860132403169
0.5983152357181766
-0.39874447051263107
-0.9967240887614723
-0.6076502472330855
-0.7924776062754327
0.021018216251079233
0.05400092192954986
0.8214994149802836
-0.9825766972920532
-0.8760474947790678
0.50613507819966
0.3855540272491971
-0.884674150186926
0.634429408585076
-0.9273486428294498
0.33456114988877184
-0.5816411682074403
-0.5351484657894823
0.07799242774172879
-0.19292963828757537
0.3046399636537154
0.5663522317058504
-0.532850910068253
-0.1548007202304635
-0.18305368822512813
-0.2871267402505409
-0.5804714126968914
0.9873344378646169
0.47254102024273675
0.7423018192789195
-0.3230376406229563
-0.3958154486576793
-0.655401813588897
-0.7684813014836067
-0.7406481080997926
0.9546134394219026
0.3630987739778202
0.7460471393196126
-0.5110959672373152
-0.09959601312157665
0.6833774578382829
0.18613513676591167
0.8800525649435454
0.21284198339752533
0.1955816690859967
-0.8222643981313373
-0.11725651495006637
-0.3444871909546987
0.7537832359494725
-0.3243326503379043
-0.7192223050333826
-0.897088355906651
0.05086814505164452
-0.17450666474800847
0.4790224965788603
0.009956172554974982
-0.7644601076841694
-0.12795608321274343
-0.32505371298160607
0.7649269686976675
-0.7292061504280765
0.7088412287598027
-0.6498468591013602
0.04512304121520618
0.2617045826471906
-0.7306733467885699
0.5030140023910392
-1.004472880712884
0.5227565527891528
-0.7146982048358762
0.6651021468585316
0.22457222169045327
-0.027585687993832146
-0.21271491960336777
-0.30296962896880164
0.6978963296634977
-0.7132550770106832
0.5467769382798319
0.10198393355390771
0.8217831565526166
-0.43728522398101327
-0.020389889444835947
0.457304948826992
-0.6951554667652313
0.5185667737366698
0.8204589594943392
-0.23359418303677923
-0.38903412179514235
-0.5024186394151371
-0.009389744233175982
-0.7240677089876414
-0.5987012595002297
0.41369825822143413
-0.07417298609256649
-0.9484453056588861
0.03488575096621808
0.909251235708322
-0.24992082969073115
-0.4417205208328465
0.842615383527834
0.8942138959062754
-0.3700315452746497
0.9040440707557242
-0.8015870698703337
-0.546343518548732
0.6201353288260274
0.8728993444176251
-0.8848419374894665
-0.5737381501967804
0.7832530494069759
-0.372345074900824
-0.24431506745835951
-0.9240915150786757
-0.9261982277876576
0.9280355765679031
0.21312572496985835
0.7408731423970367
0.033393207675341
-0.16608664385028798
0.6039451631389237
0.12788231223746382
-0.13830309942864102
-0.025467845240711922
0.4084582205174856
0.1300906738439476
0.35125205728074416
0.5270055082032181
0.010239914127308012
-0.21916863437312945
0.7277015221214884
-0.37388384188182777
-0.315782525316761
0.6740347744404122
0.8948707796690661
0.0439076006913105
-0.6784722299962617
0.34092711191194014
-0.20491462475981728
-0.2990461348107774
0.6188973461825127
0.631814847829318
0.6739184254737579
0.2495077517403451
0.4142586928871349
-0.9644226116959864
-0.1755090095160044
-0.1642187371047568
0.5531772753267149
-0.2915822013471446
-0.5655564262737374
-0.7000762031754624
0.4160115353399623
-0.32822692894084815
-0.6609151072432529
0.041710553708805324
-0.5054689960409962
-0.41827014949303803
0.8576648695817027
-0.09484329117273434
-0.5337531761319252
-0.0807457637515985
0.907418739793752
-0.017973595506986913
-0.19349712190468785
-0.7859429839132572
0.8841788686729911
-0.43519065274025615
-0.022523580309657447
-0.9603936889091617
-0.6591858411241747
0.061161515825818184
0.4053831326519482
0.3140959617132377
-0.3092156243061393
-0.41900366434411845
-0.39638293227479177
0.2831570874246275
-0.4506546645164659
-0.6429878502993496
-0.942251268765342
-0.41424122670621333
0.3739880379735324
0.1305369617578406
-0.6815473183342455
0.5249323997812303
-0.8653823068191472
0.7840865412223832
0.21227449978041285
-0.895001278480976
-0.5044377616366428
-0.019596257149623104
-0.21221005150633904
-0.023556765207007415
-0.6963917512115381
-0.07758937603822667
0.5501021865162846
-0.10757691395030085
0.8031177397749836
0.38305647285769817
0.009388688937862507
0.17409879285690877
0.18987055375439735
-0.22739345470871644
0.8972041081460272
0.5225956969959409
0.336782127886169
-0.008213930578650646
-0.5368282644699091
0.10325952411769165
0.24695105773442214
0.4070479786698771
-1.0050403643299963
-0.5678263943053735
-0.39687156786873534
0.762762404658975
0.35684936161125935
-0.8049256886778656
-0.584774020949448
0.3386632995539079
0.1159450239783825
-0.8717001350677357
-0.5047405053052271
0.00601791030519201
0.8212156729355041
0.5012736770325112
0.29743674752230487
0.5549652070998817
-0.5628783268444253
-0.25877322694736377
0.44839985814825917
0.40803874548593033
-0.9709854270078112
-0.6608636979446362
0.968234660289816
-0.8200337327088035
-0.5992687431173421
-0.6768846893455386
0.24365365040212789
-0.8507850483308892
0.16716289041457774
0.13191123502428856
-0.6219799310368114
0.19991240768986304
0.2606640783151653
0.7357688373767763
0.6075928592483423
0.8080780470345622
-0.8021545534874461
0.39221538246479254
0.9379619653207217
0.9705596026905148
-0.7525647980411068
0.6780636972272369
0.4111939480608957
0.26928785362188545
-0.8262663731434747
0.9466052749723225
0.05142617673533445
0.8320695533191875
0.2125582413527459
-0.34970980469748963
0.3512198441700353
-0.06842638652229113
0.7362223030597298
-0.6494576889190161
-0.5103622007747213
0.6161650832819977
-0.1734930846951832
-0.028354384213104974
-0.7002653863043147
0.4310394844820561
0.009672430510195543
0.7193902666403951
-0.9836136890194216
-0.276223583608938
-0.1835053858684013
-0.10330522671606776
0.5228116783229859
0.6855405296864664
0.7687183119542276
0.18248205290999475
0.7727097792907284
-0.39501215853193944
0.6183298625654002
-0.45876809973765476
0.9917450624408986
0.34716800906834194
0.5465358323354945
0.28737923525558456
-0.5475681108620846
0.4774141914179527
-0.028774030358400357
-0.4500272598766436
0.41206797824925456
-0.7960422268966246
0.41544405172284987
0.6103319720726763
-0.34308847074855847
0.1393708115092486
-0.3731918565926365
0.8335316974585328
0.48560576823562257
0.5467896373499752
0.9134373667634568
-0.2391908222810975
-0.14409870379130682
-0.7720507210844457
-0.5989850015450091
-0.13159321556205225
-0.9298305918992448
-0.8996151772311108
-0.9135466031274042
-0.49398968868772014
-0.4359503805999944
0.8936668674825337
-0.4629311928963024
0.8149913661690794
-0.8957902668309559
0.8560610591313664
-0.8018708114426667
0.9375068557758325
-0.23552227698065092
0.9217294733178466
0.19586755605251552
0.05216277398767461
0.5972234984977127
0.9630423134145562
0.4792802037531083
-1.0033140438709787
0.5771848982916407
0.030009416117370936
-0.1932133803323548
-0.24065151012977096
-0.28930537362838143
-0.48402078164047785
0.9259087737839649
0.44284723548688054
-0.4731562906873578
0.7549159751460425
-0.31821213855951963
0.39331849097798727
0.2165430972501669
-0.3710206522473142
-0.39609919070245875
0.8284485612081137
0.4050029408177659
-0.6918179791995711
0.006181085328280311
0.9889996972173825
0.5600175884103492
0.8242914215505113
0.6239992580898912
0.6041549290459798
-0.3396235847903945
-1.0051402478189855
0.21369320905941724
-0.19768575861648793
-0.28443342929179977
-0.2637469021231777
0.4716680241630104
0.9052223129214974
0.23375600144499276
-0.6671007737634215
0.9904095266750472
0.2885357319010002
-0.6263723467698015
0.6229715319243803
0.01080739821686689
0.8714143131938432
0.40987488562679397
-0.4715440992098246
-0.4480596652375671
-0.5777670729836052
-0.7622119675653509
-0.5977253278313991
-0.09652092478359282
0.4993721699689927
0.8466028188252415
-0.2030801110896153
0.6194648302720716
-0.3067440531842066
0.35609178850661705
0.1518474934674554
0.2819815529663288
-0.18708261101195287
0.19655009135762938
-0.8058516656274664
-0.8940132675686672
-0.13313714329009207
0.48596101731132146
-0.6041101799267469
0.4165790194295212
0.7623560181536781
-0.97874174468284
-0.055949704091637936
-0.6377461354893558
0.3590698511909954
-0.7994178776527143
-0.7364762196954439
0.04819812908074362
0.07769929477790045
-0.07020566472924
