-0.5209642762130513
-0.8689850159034402
-0.9706314049527752
-1.1482938375273326
-0.2937642435024684
-0.6165289671318559
1.3547271858883176
3.999127765424311
0.07268200392947619
0.9937729450122613
0.02644151237465403
-0.7826576689857108
-0.5082569129840713
1.914321122626191
1.0831931795689036
-0.7160043582786402
-0.059036894258468
0.7046808009598148
-2.2136079667893274
6.87466613849503
0.05222955087228867
-1.03726549799679
-0.0386464548106849
0.8160215724023175
20.549210354736
67.1168778752496
22.60541433669554
39.418865700355745
100.88265458016481
7.932555347159399
-82.08194884212415
-33.304977265667944
25.104539139937284
38.96454014625245
-24.407009594985194
-3.878466503424223
0.5082350669065775
-1.845535997201356
-1.1121440888916005
0.7488100843381597
0.02395176687043258
-0.7236924442028765
-2.226465621242465
6.837926059718263
-0.05296572312493562
1.0306537714376902
0.11066022138864404
0.8141522990417781
-0.5192886716702141
1.9774890091164499
1.060419860530555
-0.7071292662627557
-0.06571530350159495
0.7117269419318062
-2.2019798762788936
6.890598471956528
0.05345586541520114
-1.0379012571180337
-0.07476631832545107
0.8219313615678742
-0.2855095939137853
0.9219039096698602
0.7092653246423412
-0.7811383821558068
0.242634233286707
0.3929110603020271
-2.593395750938215
6.24710201145867
0.010297883075943096
-0.8623977855582111
9.674368297130794E-5
0.6421474472500704
-28.583987924276016
-63.51161327622882
-63.31063595445171
-12.093149909174176
-7.802455528046409
-9.741657956108552
-0.09434969107106475
-0.17977240598471408
-0.8472586556629629
-22.04043536874751
-10.463407524656736
-11.556755888041598
1.5438491850332654
3.8344178718008095
3.9215122574755115
2.338266550330111
1.2859337546277854
0.2966991768535562
0.6153809713277812
-2.0990931013187066
-3.266655560702832
-0.011352377430421917
-0.23654578236867166
-0.6981166291282411
-2955.640135239061
-5926.470734409122
-3600.5914270693393
15.936402937018963
240.30563880212244
240.24572252365783
-2237.9396361698455
-10415.681681066817
-325.4828953631711
-5084.35394178808
-3586.3955734674946
-47.00799757565975
-0.49909309161764853
-0.17083846984605908
-0.6402396118197528
-1.6372777900639308
1.8386618261733703
0.7177452664034049
-2.377253882562867
-2.247819607882753
2.3564562013197006
0.04771693106473288
-0.8501026988906969
0.3028315966879215
0.4807387768133801
-1.7126987210260003
-1.1094599090817312
0.7815488488183241
0.0148809717787625
-0.7692772880386127
-2.2528148421719014
6.792437452842929
-0.050062748458621846
1.0267389832533032
0.03510977971030318
0.8007903047266727
-130.59659269983467
-340.70215905639554
-371.8721154977364
-51.7515805632465
44.96742568298272
12.537647924745308
5.380792653074942
-79.6571132180035
-500.9497278846864
1035.1389222750415
859.0759347659659
87.23673141319874
-0.5466019018857362
-2.0506314698228936
-1.1659081901457273
-0.7077023615409727
0.10584894037841883
-0.8822321899826135
2.16460631909811
6.964538320357261
0.05868072269268219
1.04245694085276
0.19458425761635023
-0.8432471727226382
-0.5756691906892134
2.1503849248284315
1.246044881149369
-0.6800735129738905
-0.12895165744028603
0.8831928449320553
-2.1193797774168046
6.988217829186049
0.060307392013341836
-1.0568926034178079
-0.24715597644757042
0.8625925199072748
70345.36291411813
-5922.805834188686
-2821.121046744236
-1004.7112232993928
955.8675102220417
919.9593520724416
-2188129.24058812
82029.78487322519
22102.505153142345
-2307.1153834498455
-1094.1935274193484
0.040000000000607314
0.5654593694180197
2.0789848206540054
1.1698944848113495
0.6704220628191534
-0.09045964240681442
0.7410327906641332
2.164804680246269
6.975002512970153
-0.04991149009772498
-1.0739225955023832
-0.12119171254509332
-0.8472768253431128
-0.558634494789265
-2.127218196386822
-1.1728810041186204
-0.7701149181358787
0.09949315935940942
-1.0736414796430178
2.1033414693463457
6.873400556070348
0.07453425491789319
1.0099285280613954
0.4585916795712993
-0.8569798390286235
67.49373646567784
44.06685541697795
15.728496636445259
32.066232044330675
-35.97563510684863
-50.472484085141986
-3.747505809597285
-5.0562209017625115
-114.30298192068474
171.24250333509207
155.7886710896447
-0.4101313244476817
17276.2143683133
362941.73788352794
182328.181004337
-224175.5913356706
113233.40694436751
56743.420484265276
-195370.99560963095
257094.26564863647
948897.3115572253
1629013.7412566263
810976.6315985416
3913.0139113122787
-0.4863766376420019
1.8163473868624735
1.1202256352384463
-0.953443270727419
-0.0027813549905724142
1.1711313046390062
-2.108747747558563
6.518151346681801
0.08783651673123312
-0.9374552085910659
-0.5605822400600009
0.8166815828092758
-0.5667257203747164
-2.090057083343999
-1.3016666094790021
-0.7211925002538058
0.1137336174104067
-0.9586767608400181
2.1133737741143643
6.942078896654976
0.06762874443353291
1.0359711387433153
0.3426594506146146
-0.8603284769068537
0.5266325535235864
1.9508448802554663
1.0722425508446245
0.7428394906240872
-0.05239964865775425
0.8323880295970991
2.2080110673059954
6.896506072499718
-0.054380246054305886
-1.034551075018113
-0.17472238181663904
-0.8256898652959015
0.317741888438149
0.5782944316525693
0.40149722225198287
1.2490214968038362
-0.9799665826224012
-0.27849076487433405
-1.5687126156389417
2.7919782046351904
-0.4204756803424812
-0.3403299681266858
1.812869949174253
0.42673192679495336
-0.5430566149858332
2.038582947795812
1.1668737113102352
-0.721785535814364
-0.11328969200089155
0.9324028573586918
-2.151417843344175
6.937049264219006
0.05819101846189106
-1.0455573146348502
-0.1821665076036773
0.8446307962501951
-0.5162273722971574
-1.8990314954064622
-1.1947933040011534
-0.7336152959208642
0.053766105228113426
-0.761410833711115
2.2037804860526475
6.888369772782237
0.06067156625378167
1.0203291731486286
0.17056726835489405
-0.8218946406673444
-0.564336161241959
-2.071406340084474
-1.288292406746245
-0.6812234943273773
0.11520490429491091
-0.8360037242362266
2.14747824335692
7.0020279028214905
0.05948544489882172
1.0529478435982413
0.21173322761481897
-0.8538450470879857
0.499823476887382
1.81518926468236
1.0906554707802238
0.7642340689928455
-0.026656916172460646
0.7761587473209092
2.233537170070085
6.829287278588885
-0.052148319585441034
-1.0286368674371724
-0.0965133791340135
-0.8107317472373645
34.26093288393375
64.86823230423828
37.70520286671278
-47.691667062415675
212.00974772427315
188.81292425393886
-40.8737477049457
-113.76975758274743
-1134.3924240136128
3249.2700506260744
2947.5284846013305
44.60531695992983
0.5829593455775857
2.0604989633499495
1.3893533568165082
0.7094858495257633
-0.11826059429822866
0.987866082804497
2.125804938029761
7.014288869830583
-0.06043909009996646
-1.0604500005662685
-0.3238764012739228
-0.8659912132163767
-0.5868300358380754
2.2014738162026046
1.2516925922199644
-0.686268173487427
-0.11996616218562695
0.9188462613518734
-2.1192782365658114
7.016746289653469
0.06802445165063699
-1.0378739824670822
-0.3868915940795494
0.8669314601412518
78.31249425162216
-4.837987044290602
-2.3230340706936494
-90.47750416350274
-91.06252498910726
-319.32672422292273
5601.38154304966
-233529.7866770483
321.01649613993493
-170.04732427046417
17.6127706496457
-3.166813515075008E-9
0.5575022983215493
-2.035563575735124
-1.194295728675158
0.7076182942242526
0.11130840576226146
-0.9073175410208036
-2.14744721826804
6.949838786474359
-0.05036043781167509
1.0746414410575975
0.1289001078223162
0.8500273143908361
-4759.134731983867
7.083551276996241E11
3.541493896340053E11
-1842.2084941712003
-2479.818986546474
-2207.711076300938
2.426000020024285E10
8.5325464594771323E18
-1869.778700913414
-8221.567550395657
-4085.3349466949726
-0.004545456075796054
103.76305279821958
-278.89080292908767
-216.2368627456089
-17.085789835476223
170.91914362052745
126.43081246753619
17.617904502582928
-1072.3677428269036
588.0903094439509
-1078.3325820860987
-752.7271297491625
242.40551411082848
0.5103741145899557
1.8421113715935462
1.1281340716935173
0.7472990634279641
-0.05049024694635662
0.8119472628242335
2.224103712050791
6.880097476794746
-0.05003473979650942
-1.0432798945848956
-0.07267856187339261
-0.8180906029688717
0.5834309686554631
-2.164283656481749
-1.168696334152434
0.6618090263751443
0.1299336723644488
-0.8595319976001174
-2.136958466425619
7.023167969451647
-0.04879063038691075
1.0892394819503628
0.13851374142751466
0.8612606325716735
-0.4572923990864278
-1.7183905882694313
-0.9959203515030689
-0.7884373409181712
-1.8983587825256016E-4
-0.7223856412601002
2.2795493614500497
6.7619206965526475
0.05535026883650155
0.9943920893385915
0.05255908162221136
-0.7828739086800647
-0.47607195067199887
1.7443253354050992
1.132640913687831
-0.7740155862491391
-0.009468374674770475
0.701051850129855
-2.243637592893741
6.776945030575474
0.058796122653139445
-1.0024262002975006
-0.09568722835240472
0.7964210315592932
-0.4433023216749375
-1.684350592713281
-0.9241974015179663
-0.7936592823919975
-0.024592305885342485
-0.6549379747619309
2.2998632705659077
6.706937249584807
0.0538989032187332
0.9850807311427124
0.025627900554521212
-0.7707799961630603
-1.273202605935301
23.30085051664555
9.968459401753185
23.0051853974986
70.8025986093007
69.88131854178015
-17.702020110624726
-15.62563475685655
1.0665243188949292
-26.532884821686952
-0.2449978662536909
0.3555296896391886
0.5252275712791344
1.9140796263142374
1.1313928731465297
0.7325364269026857
-0.061605286032641725
0.8053448003002251
2.199681009640755
6.890045849122042
-0.05072807286584849
-1.0505607956033038
-0.09547579595086342
-0.8270116532307905
52986.45408692919
-72410.99937102917
-29277.62134557634
-243334.52060468367
-22201.036523542818
-1409.3532865362313
-3377.515681384612
-16317.99276563086
5941.373012111291
584.9113681354598
-1503.7029412555958
-0.06666666666666414
-58.52705800725692
35.582511723739024
25.167210039537984
-7.839255866635111
3.9921025005639215
6.399833431748363
25.242670415092867
3.0792865215200105
-10.391247282843317
13.136566123928608
5.986904885803222
0.04751829471212859
4.057893020849924
-6.230082234635962
-6.445903983677802
1.0224186706266107
-2.231061186904791
-2.4754294311205305
-3.141673200630029
-8.319873382973364
5.996010938594145
46.677035777550884
37.245964106720095
0.8020823464007821
-0.44287459243079186
-1.5619573001499032
-1.1672715167643681
-0.8255113357504273
-0.0023739815644600016
-0.7952576599500172
2.271526066441886
6.716279802559835
0.056810442274357935
0.9944518347742474
0.03208588162375886
-0.7801984115285507
0.5362798674701925
1.9345294600855678
1.1918988584626573
0.7079277081187292
-0.08306443328985036
0.7871720366907616
2.1801193045248946
6.9139290340799135
-0.0471231598249412
-1.072507261579108
-0.03517320574681558
-0.835158253136071
0.5236724770740304
1.859911054986035
1.2270811800602137
0.744463590134817
-0.07861430743633871
0.8797041652650771
2.186386418689076
6.8916843936516266
-0.04989763716704589
-1.0595221612078283
-0.07170350191037984
-0.8310639033183017
0.49732115540895244
-1.7551512730662198
-1.1881988186578245
0.7727703723429378
0.024448153142573217
-0.7832206635000575
-2.229317451852465
6.819887516792327
-0.05331247251027882
1.0283528489766782
0.09990208109604917
0.8113589983607497
-43.06188175955112
-132.13508966130547
-134.7559632582606
-0.7035013290199519
-3.9834816591740485
-2.278333722183789
-51.25918389359915
-8.30567575694614
15.116078264139974
-32.468457144808376
-17.397941602389853
50.536838991646896
0.5816672300235518
2.134292780136002
1.2446848178880463
0.7271950578633135
-0.11851900887433738
1.0424553441343
2.1081963265125956
6.960114880103451
-0.06155664205183249
-1.054604125397642
-0.3543617002427947
-0.8664261888565233
-410.5065406914731
-39451.1208114729
-39441.175190830094
2760.9999166569264
-258.399089598848
-248.19711886746887
158295.74113731532
-313053.12176082743
15.183395199366348
151.78971865544062
150.47257058163228
-3188.2263781532033
0.5615694666576299
-2.0421294228288147
-1.213784085225013
0.7071859311218497
0.11437782271147309
-0.9361712647454364
-2.153445193841054
6.983382450681141
-0.051962539049314575
1.0705983854844852
0.16567496048881225
0.8516799891339023
-0.5490921982850817
-2.0483285345388307
-1.194946589448095
-0.6983470247878133
0.11733838030769705
-0.8740384193639421
2.1542596124734406
6.965181066799849
0.0556507909603793
1.0554050852268027
0.14477058486518257
-0.8465984113734607
0.5194876112718382
1.858458781217779
1.1897694066703774
0.7324028943198592
-0.021462172731820942
0.6791071375224553
2.2220352401471124
6.866814509540037
-0.05510882463395674
-1.0303326586208366
-0.15018351450311393
-0.819074295650543
0.48845428981418537
1.7595950699987775
1.0913083428807637
0.7657877744795555
-0.015376936085274302
0.7253839698506468
2.2431237143138456
6.793700085174139
-0.049846964757756726
-1.030652299936872
-0.036718964433604194
-0.8039201715331509
0.5450056369315641
2.0082238535292936
1.12299648950792
0.6922622697543985
-0.06891938680807026
0.720667356701367
2.186140993031929
6.925856832365219
-0.049529820379219124
-1.0628271542759122
-0.09175139347675965
-0.835094371192186
-1600.4275120761895
-925.2770634617391
-703.9545585163122
-92.44654802346795
-102.92771317394016
-46.58048843177052
-654.0160726440641
-290966.2391679878
6.567659424316833
22.934442898766395
21.72937643444548
0.03999999832186224
0.5516838552223466
2.016176072334079
1.1626681302286457
0.6961202416743177
-0.10568287461603014
0.8593569754349643
2.1724403580310114
6.972951436058798
-0.04757777700035374
-1.0764179221168013
-0.0790505731131846
-0.843593914167661
0.4066267232445447
-1.393600874206634
-0.9858037518861429
0.8569095580876952
-0.09378916340336074
-0.6256560318336376
-2.3609935157672988
6.557814009140413
-0.05148941420391581
0.9669549781605555
3.500481320893107E-5
0.7487047172810528
0.5232600703975933
1.906680873811733
1.1257608234504415
0.739915271122845
-0.04033491995804922
0.7803861714513624
2.21661536282998
6.890552863351459
-0.05482770557860599
-1.0315827821309325
-0.170188986912948
-0.8226732638089237
695.7584450392536
6770.516727277211
5808.258313846929
-254.7567345200125
354.38338354541816
29.099288891035698
-685.8014745600323
-8.106935352132988
-77.79943170170586
1551.537386331818
996.4710745887204
-14115.931373108839
-0.3130448223030212
1.040198792711752
0.7167867690706176
-0.7924846972070793
0.19008443869006672
0.49825002400972324
-2.544269859103709
6.342099576488557
0.020969233061982763
-0.8872133700564592
0.028469726600317578
0.6629195599985734
-0.5441002483919704
1.9840469384300725
1.313481419430387
-0.8032541907973791
-0.12406256064010042
1.2325933404049403
-2.1097736053914926
6.89654671712256
0.07281918871626838
-1.0179277735153773
-0.40452203727472436
0.8562213631116226
0.0923190731565185
0.3229577169484097
0.2763869582024446
0.19584582721165886
0.08366412745039786
0.21642660574899733
2.970201110830179
6.0161577179563865
0.041674768475892354
-0.5604750518989144
0.006737738944942222
-0.4825465740724406
0.5458948084437695
1.9458522877366338
1.2637983640924253
0.7249427961197955
-0.08254660191389294
0.8702553070091057
2.172841701332348
6.94045977599118
-0.05442786207845784
-1.054940745108736
-0.17509582359997447
-0.8414707886744818
164.5292025245627
306.97817400251256
-43.35562322011315
-236.18031751331176
-1690.0886965379593
-16.64972939229341
264.2586449180491
-89.43456906612148
47.71731235837968
559.1852730247778
198.3829795643883
-2.0392090342501918E-9
-0.3904156034140034
-1.3699254982424005
-0.9716468392995843
-0.848157431085686
-0.10113376991593738
-0.601689639633651
2.3876133789625293
6.558100793527994
0.054824237434325115
0.93762272631799
0.039601687259516266
-0.7303204260893815
1.131101327701595
-8.639964482183318
-6.74496712125632
0.591794516723825
1.3449769150905968
0.6406324389617529
-0.43974382427957154
4.712810852903754
-0.35064160007620426
2.706381897257924
3.285341268416793
2.695035206131324
0.5663176864823717
-2.1165653287786528
-1.1000590982510472
0.6812158479700332
0.10194627352296465
-0.8326679150489967
-2.166640465360454
6.99437902445868
-0.05050354038812551
1.0699335668980656
0.15235367722674717
0.8484092363976015
11.787225995839751
7.62012327429229
8.192799930167658
-0.6988968121438189
3.121685788564997
0.6151409000678848
-16.219307121047464
3.5740500922944616
4.4833257579075925
-19.738666442092025
-14.895588181728508
0.04350811794680536
0.5466747369237182
1.9756217623611008
1.2100706545076154
0.7175157811586517
-0.09835568778025316
0.8876198805940555
2.1633587307085245
6.935988514194341
-0.0504361293219049
-1.0684776340775732
-0.11389603981010599
-0.8432850822803336
6.479349546935888
35.39669638927458
6.744615457039716
0.49619763465468497
-4.136486812061305
0.0666885258700524
11.391653791585323
44.63123658077033
33.29522004094478
186.37696927971362
215.84500645098387
-0.0025849041064964383
-0.5194789662466863
-1.9453700378376666
-1.1217879285261971
-0.7125844018939255
0.06797426858013618
-0.7436237471743175
2.205017420032408
6.908602044443569
0.05511543667405981
1.0351274504848773
0.09818948420115316
-0.8229357242056832
-0.5558365653253777
-2.087905710776897
-1.1718622985462532
-0.6729118219463223
0.1013479715529557
-0.7553572763314984
2.163637136535379
6.9771420872612975
0.05583184948677395
1.0532723958207972
0.150555379034253
-0.8450772173393081
0.4965490211465732
-1.7767605848275996
-1.1339662637490993
0.7526654169711774
0.0028392539020908815
-0.6597313679654959
-2.24617746944191
6.810818260260659
-0.05283366966279362
1.0234702308891672
0.09010473316362747
0.8056415314802147
90.96358384104684
57.97358546709385
47.32606923347594
-52.620720507929825
1948.9456303982956
1948.9997032285864
-384.88650976164797
-18.907427273335934
152.9711977115519
-121.05139606091194
67.01188731233265
0.04000000060299581
-0.41736694333401797
1.4531248385991684
1.0140685960230555
-1.244011527492723
0.11087501362344308
1.2955252534893442
-2.0413202823263625
5.876077463243557
0.10868762499510624
-0.8604365822837132
-0.6437759638051419
0.7741879798465708
-90.00069129201857
152.44399044818704
107.4665097369118
1916.9034387194909
324.9520637772199
204.09644052390334
132874.2774804033
-83741.70526650395
-101046.14848250106
92579.48928859617
64889.57920908678
-0.20000000152477604
-19.144552408239022
-13.221094323810018
-10.98011530081139
18.012182812995917
6.587786285392058
10.021045707989725
12.239571560023883
-80.3556586372551
-3.919952095136991
9.039453026201137
11.339523239930378
4.728036996086947
398.8679643352766
3965.2095708611237
3962.1216825657707
281.5989579279387
231.012842525951
163.97835882579187
-2206.338444753493
-4705.688452563231
-3854.7264571325713
-5205.046917357216
-3633.269265570259
0.04000000000000468
0.5468794618214335
2.0289096106447313
1.104808323974163
0.711214722152647
-0.0753676357376534
0.8151342805267565
2.180502825165027
6.932026664240474
-0.05260328914780682
-1.053839596053528
-0.15866184060943256
-0.8378626380546935
-5133.4388587739295
7611.492737262646
7155.750923503449
-922.5502292910065
666.0650456027365
598.7065675648998
1110.8179467899897
-955.1872261077879
110.42857910779728
-149.20782448773227
-141.39508437042394
-0.040000000000002464
-0.5563406727362682
-2.116637866183399
-1.1257532553847482
-0.7059980919216475
0.12057193959742128
-0.9426657537368195
2.1525046327030832
6.985765926101309
0.059482244576299276
1.0442713507022137
0.23004155945808186
-0.8499044494490278
0.5195463911171827
1.9006650252752726
1.106796623770264
0.7483700896814364
-0.032145457147580145
0.7779856167566865
2.220403649765496
6.874328744914086
-0.0559569142056355
-1.0248797778045575
-0.18741975462702257
-0.8201489309605298
-0.6356758589858407
2.3979519144299415
1.2696834185645614
-0.5588993503991796
-0.0699806653370137
0.40473564879565
-2.136668997192301
7.105637056428909
0.06795449739498614
-1.0443137891087972
-0.4130950688696762
0.8728866264761419
-0.47119059729502055
-1.787026582733192
-0.9944251438158733
-0.7594991067856232
-0.011820904247530396
-0.6054191067109174
2.270836050377065
6.7664669655614995
0.05722271056703799
0.9934000749620744
0.08580032135108417
-0.7868542347007437
0.48752388923193557
1.7403992777314494
1.1184794046487005
0.7782483398775158
-0.01468552763318308
0.7737702475090664
2.250534596297427
6.810708547124758
-0.052171768182955325
-1.0219415647962538
-0.08332805481575793
-0.8037533638792704
-0.5279936260677554
1.9806971229296757
1.1330868539811685
-0.7024401460327758
-0.05210102865228544
0.678103717964377
-2.206600029644547
6.916618084034698
0.05928939235480038
-1.0246059404633712
-0.16676712273705344
0.8242154128621536
0.3472955543094036
-1.0204581498305214
-1.0588749868779925
1.4438043222752766
-0.12417164388319812
-1.6738565730164756
-2.096676227016255
5.779511150583274
-0.0972910976905532
0.8876136423323298
0.3498317958271345
0.7556186952383572
0.6221610089436173
-2.3083135663793115
-1.252860289684347
0.6412313877957097
0.1376996653746797
-0.8937913821194895
-2.10458893607112
7.089567015384481
-0.0583915172363925
1.078094665428121
0.3524768660698281
0.8815461720113608
-0.47848626397190314
1.7993137724468236
1.0405578254095054
-0.7742070721640473
-0.046974153252060155
0.8248901352594998
-2.234988973156563
6.813511053885768
0.05319679298273929
-1.0199822517280013
-0.034588046466084786
0.8019792851351708
0.5556299239072466
-2.0169979025590603
-1.215240155771411
0.7352400106169142
0.12572112889413545
-1.0513915943702679
-2.142892412588057
6.96180390845036
-0.05284373212520358
1.0682678876840035
0.18071364834835715
0.8527752552843375
-0.44219258964159397
-1.5991827849753995
-1.0788397774127616
-0.8254204602606714
-0.024317168017349716
-0.7562203084922371
2.2949098463012043
6.714878499489928
0.06020025771093385
0.9723940910975862
0.11445891761368794
-0.7736979237759146
-174624.47004081446
338574.3400027416
339202.2117351925
72197.81303585079
809.7166046971624
560.0419484285651
-811.6192705265953
-323.19676090928067
-2727.738349523725
-2996.0550431102192
-1651.6473443789296
-1828.2383249273532
-0.6077732413626877
-2.2785737079482806
-1.3485387711398877
-0.7345577590169127
0.02770301076513281
-0.8543775557369141
2.1064883744319634
6.948011704663423
0.09918518388749553
0.9527300087410641
0.9045370401923869
-0.8701151668731714
0.5600419587794709
-2.0424897874728987
-1.1966442194810976
0.7035778635737543
0.11687276246598172
-0.9278471888413868
-2.155321348568854
6.98330390749122
-0.05027994355769176
1.0748376844350511
0.13623063704069008
0.850740993682945
-0.38050730144204253
-1.3815736040499438
-0.8426626728487728
-0.8524339396454106
-0.11383438821132891
-0.5914495998631507
2.4082424406562404
6.517211667681146
0.05256966980988219
0.925210679298436
0.04689476167030183
-0.7205690249276017
668.7419937050513
4888.857924612621
4712.677454828247
-294721.91926567256
-70659.75397506516
587.4645917691636
67.32649837279344
-5917.976345398561
111.19129496700923
-193.94700750223743
107.30936469040515
-604.9042080998496
-0.5201831442547494
1.9673345073382238
1.0940222691878918
-0.716625240538845
-0.06636848161012579
0.7417786815014872
-2.1930396857388494
6.880341986909234
0.05552086073617434
-1.0345469489881196
-0.10551845402720007
0.8240234640542989
0.5530101787245809
-2.0391693614124295
-1.1454509674062803
0.7033357857739413
0.06465809700501578
-0.7604873544056138
-2.175526876654098
6.928085144185884
-0.05500801846235492
1.0493932385652276
0.19727038690384746
0.8398234104903323
3.8208331497340704
-11.47968587331883
-10.064683057454422
-1.1955541047032032
0.2056893741624979
0.09217414518880974
-0.15251007820738863
1.053815751501855
-6.618817044645879
-5.739793699088281
-1.884657671874287
7.763977692882241
-0.5538109860551879
2.1038022274973027
1.1122950308228816
-0.6618343770189146
-0.11079486860798068
0.7454572461004761
-2.1699295830516006
6.988237776869949
0.05089318816788087
-1.0643530402718395
-0.07977659427843478
0.8434392445563466
-0.4452372169379395
-1.6012789097900033
-1.0923677470017183
-0.7912374479982051
-0.04888770876195069
-0.5930433063982742
2.3127457180424025
6.715286676272291
0.059926749453747166
0.9686029628839574
0.11072052706449086
-0.7687418233628931
-0.9307554873981669
1.3922435548732666
1.1883651880687003
0.47334927272033717
0.6134129751667371
0.47140673765309293
0.0013233837448249572
-8.401783138678038
2.539071770135995
3.161989098997915
0.9720828084411248
0.6752309431896784
-0.9085410918200599
2.373856238538713
1.5477287876164678
3.4377165433972436
-3.955867298388971
-4.2842324556701605
0.03278282310156655
-5.417620973969781
-0.019853979262677686
0.7705116515978271
0.02994032856819491
-3.6610992021150213
-0.4855848503609897
1.8326062459196333
1.0461857153075285
-0.7734187182773632
-0.031691511740806255
0.7889303108796459
-2.2335257875562746
6.81214236855863
0.05847745540935638
-1.0056629680436766
-0.12240653907735105
0.8033260597699393
-0.5527162604043357
-2.0905219882117025
-1.1417179571962326
-0.678909919206941
0.08909609277966571
-0.7366186608141924
2.167992606405082
6.958509894416063
0.057576535880678514
1.0447371877101177
0.17471672961852516
-0.8418005489055835
-0.5664440843990542
2.1508328418107445
1.153627455299806
-0.6940722974931106
-0.13139867067336586
0.9424033166774861
-2.1362461690041097
6.995961691528651
0.059116324510103235
-1.052246043594898
-0.2338914989643568
0.8569011714600141
-0.5630337950180351
-2.1255323665789803
-1.1670199047094547
-0.6882652403153755
0.12416232320307508
-0.8966699613863139
2.147176418770989
6.999332151883007
0.05811828874574167
1.0524605111549357
0.20968075745793616
-0.8533028100182726
-0.4969811324308581
-1.843578634974165
-1.1326949521055714
-0.7678019411264667
0.0532080960967209
-0.8392409799818734
2.2097183173069848
6.838341919634923
0.058766071187067885
1.017111830002083
0.12863155006772578
-0.8138581206026084
0.5262476081511368
-1.8606725347642905
-1.2530456780889314
0.7313609223311276
0.04713055538331019
-0.7434054404141569
-2.1941427626229917
6.872094895782887
-0.053333126057291944
1.0468036423397862
0.11901222409050542
0.8277825070521404
0.516270163359258
-1.9054989069434827
-1.080188258634862
0.7658569384783066
0.043788642072739074
-0.8354387443573553
-2.1881646163009485
6.809674936178739
-0.054610959417289946
1.033037670305696
0.1563026611113599
0.8232843273886477
0.5449186658465741
1.945788327754243
1.2510267842877512
0.7246902571023848
-0.08702858671124031
0.8856691722150982
2.175244567963997
6.9472686584291115
-0.053430943217333805
-1.0571585068966527
-0.1612208280342954
-0.841099255012737
0.5500886120647833
1.9985711731200042
1.196642333494058
0.7196631582954944
-0.09128748272553562
0.8907124539979373
2.168561466728599
6.949172483526306
-0.05336330411679783
-1.058415569224642
-0.1717960502720315
-0.843477647328114
0.6204124413869366
-2.482013256384158
-0.9307504079052535
0.6792644052079821
0.057004548057823116
-0.78916029197137
-2.0913430616419846
6.919858086921178
-0.0726645676072964
1.018272416817874
0.6095551771423169
0.8715601126173993
-980.9370437517314
1527.044353853608
1487.652001003372
-39.25321176980721
59.7503793267192
58.97584641565917
660.6526558889524
-517.6949430115063
3444620.4793490204
3462144.3741150093
1919393.9555835694
-21891.504017055195
0.5326527810543947
1.9093156539125566
1.2133192476843775
0.7290159319589153
-0.0683253154220108
0.8155963680984595
2.1860243196394915
6.901560240490825
-0.05202699068102765
-1.0541536819381052
-0.11638381036498917
-0.8328514200012943
0.6240633194171369
-2.1880154574678206
-1.5120645045641172
0.6325170859096446
0.13438285496932048
-0.8272665841643857
-2.1007153079853373
7.103099513093536
-0.05920564235370147
1.0850482759799327
0.3364021486744643
0.8849332922467348
-13069.730922941135
-456.3966000744888
-480.85762673960244
-38.39911344023264
51.97825816768684
28.017192196456385
914.8605039009908
-35920.73354739277
1088.53124312948
1256.9766141884604
21.496916577693053
-190356.5623294549
183.79226728480006
-121.16615581260085
-88.31458688152107
332.42920566279594
-540.8079413448986
-519.9374832185576
401.36201475031817
-49.54705040568176
122.23329658793844
-133.10618378185333
-94.01535707394177
-10545.644888315475
207.29685220957737
-258.23624726270265
-1562.7152011374394
3023.7007915142885
2905.2761119829993
3093.8240494233987
-497.0202887642172
-3854.4045066646136
423.9266692499949
-13.18824988060202
-18.95117761299646
-0.06666666666666665
-49.579373507247574
104.50298526391876
22.75022529222659
2.1645006056606357
-5.098737431681724
-2.325593060025226
7.4720622618912635
-3.118218394137837
3.701105699884235
-8.676468254304
-2.879078136932252
-0.004507982916277853
736344.9686952756
-3060199.1467757756
-2619946.006383129
-1.6780077238604285E7
1.9559461460859664E7
1.9934655420831908E7
-582.1589801887187
-878814.3744775148
3030474.5245729154
-6459392.471773146
-7151207.271059382
-1.0355216433050786E-4
-0.6010495263474053
-2.2256323184432367
-1.3129611035742446
-0.6323916386392957
0.12185799056151508
-0.7594967031732459
2.1301234385690706
7.0807661569092195
0.06301635596808673
1.05628362495606
0.3136895866139017
-0.8700221560149528
-0.5761680716853045
2.1182102959551075
1.3159300830324034
-0.682707931441995
-0.09183582825386982
0.7950555859422199
-2.139712584712258
6.994556075483097
0.06824279141391477
-1.0314794653664068
-0.35720081082680966
0.8573655014422437
-0.42017748895504586
-2.4981299334227716
-3.2563097683057007
-4.1438639313783625
-2.852326500339442
-1.8756511047151478
-0.09277117639507046
-1.1641976765976088
1.2732774308523904
0.24698366249454606
0.7484195246651779
3.1533068508185664
0.5793686010515557
2.124989539883479
1.2180304289856734
0.6812831470046992
-0.09589443697598955
0.8226317893341756
2.1450122026492804
6.991393891422176
-0.05627503431708411
-1.062261440110274
-0.25159420808256205
-0.8566877370709896
0.5555010311390542
1.9359445563736977
1.3987561411809406
0.7646432453926137
-0.11274058721290563
1.0727694296079529
2.109085702244395
6.88998645400533
-0.0595796543453088
-1.0577673818954099
-0.26552179061450115
-0.8582067611559412
0.5329004635098332
-1.909253598455977
-1.2135226202036584
0.7213877882176477
0.05626076879674558
-0.7584684312851996
-2.1946470098428468
6.902523878333897
-0.05274910381255201
1.0497692334101367
0.12564249948310158
0.830515039731096
0.5440829030048704
-1.9763946135248234
-1.1977989577223036
0.7448082437351455
0.05753024744872968
-0.8656832820657215
-2.175993754701404
6.9043786817999235
-0.060328883404814085
1.030484153549347
0.2825896017208318
0.8380416888782772
-241.54426301636082
735.8264414458835
732.5025863645556
-363.17300008962536
1251.5144521598966
1251.688810488601
127.37021172196418
-495.4540359039097
4527.1541765719485
5217.003323761001
56.21400875491786
23722.383406429693
0.5419355237268632
-2.115670060432986
-0.8837453880792383
0.6351700139938232
-0.12060081590237592
0.0613038076523218
-2.2291510663099148
6.666539452631759
-0.062411107646200246
0.9873591442925274
0.2710393534193237
0.8020452826088855
-1134.985880090145
270.11693136971854
137.04550310906325
-417.55661876929315
137.32246823601312
79.65102428470172
7163.635163199163
-1241.5618998119644
36.59923730250187
-45.53102045467305
-19.67608595333884
-0.011764705882356967
0.6428247963209845
-2.240836434241515
-1.5794635506525858
0.6057721582830059
0.13906625149868407
-0.7836206746825568
-2.0956019889795114
7.158376876600721
-0.06075249278922283
1.0887130118092678
0.38306659343045657
0.8933089272696415
0.4447940364822986
1.5905710232467787
0.9915084952157464
0.7946393748721186
0.051042955199529956
0.5824436248577003
2.3113968162486
6.668380222407788
-0.04891826193486731
-1.000962680745032
0.023531222311511953
-0.7720750745531467
-0.9123454903378863
0.8184632490942669
-0.6029752006188985
1.5033453642902597
2.3177031763631386
0.8327556887995655
2.2279264842148567
-0.31588293192543504
-4.097856292013899
0.5037743010506828
-4.58149536972337
-0.33579489024809805
0.5603527588427405
-2.007554577940281
-1.2873656796919302
0.7251685304065512
0.10700659640639724
-0.9477999784826199
-2.1295626742641964
6.925030738824518
-0.05522000392395009
1.0652473875130608
0.2064677829165292
0.8543597242544856
-7.03888716727991E10
-7.496936083613165E10
-4.048618016551478E10
19833.90542496791
9517.756079715846
9509.346627821878
2.951306994893172E8
-8.895722190918974E9
3.9327630968585724E11
1.1959175355853362E12
8.267757935307496E11
-0.2000000008847791
315.91141840184633
-2852.7133060591923
-2851.8068208299187
10.694046650519839
-36.552830941462425
-36.703823643761595
15.87250982324955
-40.547941035883404
-1086.8502887051961
-2019.4493773625823
-448.7039296291107
-455.0875219351696
-0.4973311573660377
-1.8678812461345344
-1.074859511483813
-0.7336314337449652
0.02718876382181494
-0.6708418652540675
2.2420468481482927
6.857555340585901
0.05730602628748356
1.0124275462202361
0.10749002879892176
-0.8056508514569392
-27.671460881032928
66.14211829048577
40.38899918693755
-2.925853084321339
-8.186600646708653
-8.382086363284785
7.787142735044868
-64.75988806599132
-9.321091844771487
71.8876928617275
49.08445796227582
-6.44260132556219
-13.706703273565195
32.88032856386567
-3.271051300483474
1.2630992781088175
-1.18005402145924
-0.4884280966562108
8.339057818462273
-3.518692505614595
0.05046456441527883
-1.7272449027588763
-0.5352600699865148
0.052843644871974106
0.6729972939283699
2.2857518254591547
1.7855266400172038
0.5576615981353508
-0.11693322498668794
0.5456770556803985
2.064838117237491
7.154206820403468
-0.06509078021313375
-1.0942336645891535
-0.44979162719094795
-0.9064674923385877
-0.48310374126634
-1.804901573433524
-1.0761825540650927
-0.7757809942874023
0.025842256687435717
-0.7772751014882655
2.237944385623519
6.807840253871521
0.0591867311054066
1.0027303896636959
0.12746507128128923
-0.8015147256832958
19.009911702411777
-25.83668328354364
-1.2320899689603957
0.2319285538844612
0.06649500665761866
-0.061851334564383624
52.47130326354623
-85.80229249746068
26.56888456785234
-202.13179479957955
-92.66834645069362
-28.76208749393944
1606.8488841007543
312.3401598370856
195.87162241831993
1202.65702555073
3171.250884202975
2733.3843359030625
-785.9773274824255
-720.169423698563
1729.023954320844
2547.7481628204005
2012.5124241205249
-4177.3492358796575
0.48039721849942774
1.6733339336604314
1.1903893102923848
0.7868966707583354
0.019766930772552982
0.6734961245700976
2.2600538110831763
6.761276963141713
-0.05617442955884938
-1.0059285119345827
-0.12271198712314853
-0.7974861320826875
-0.9363177295319706
6.9139018265730465
7.5013950265586224
-0.8178040619671276
-1.0345484035181065
0.9082415633873262
-0.3135332974363603
3.9646951802722143
0.2207810787130006
-3.5724634991202295
-1.3584777150807918
3.150948150900414
0.528951469484622
1.8785286642493513
1.275298783009022
0.810511039712632
-0.0652249018524202
1.0335412653296245
2.131565762789634
6.7851171161115955
-0.06338927706939276
-1.0265468838497631
-0.3023637363828939
-0.8405300026404757
-0.5704366645012806
-2.151398371523655
-1.196570175316958
-0.7032214925315795
0.13096446830118583
-0.9780333289420854
2.1264261734420375
6.993036246297624
0.06279014055121844
1.0460183083278436
0.29274366897894183
-0.8605599038707337
0.5758552144769273
-2.1364698482124416
-1.1876361161458833
0.7374546226853091
0.09549825537007058
-1.0097516367664017
-2.12394712083819
6.943224420027778
-0.06442876470421899
1.037658320996758
0.4015640723896439
0.8598573672654913
0.5723053669159006
-2.0447920085152624
-1.3185593959325292
0.7101498148357993
0.10029636809106332
-0.9187001681349201
-2.1421816475220714
6.985098343762223
-0.05890535058879796
1.0560016842545372
0.28472221316781227
0.8571869949711788
0.25790432855396617
0.7171101488101876
0.48289028321110267
0.48211275899004785
0.20692978544792742
0.40308836806618964
2.7309127351764517
6.191798377310276
0.03860592704133757
-0.8200341183943195
-0.07909388163196174
-0.593399828313303
0.548838255625989
1.9555516178336845
1.2704322846783493
0.7075936936051556
-0.0647868096651467
0.7626954044495365
2.1807285259526834
6.939352332993603
-0.055138286803741485
-1.0515242373366542
-0.18110031192074444
-0.8393135537324872
5.933608475973166
-3.0505021118334157
-2.974405816011715
2.040058103224001
-3.6049058517822012
-0.6667988870460997
16.937820301033913
-8.380984992547145
2.476358902171938
-38.968782083492826
-7.613117715080289
0.16586389793002654
5.111055711087335
4.348558209290605
3.080845809137315
-0.9016079452705121
4.9089342134518406
3.8269595216014443
5.601147605122469
-7.893214053050197
-0.17209548620645954
-1.239693322260495
2.2851463716571145
0.6708749061759347
48.17527787667679
-34.93312140751705
-33.50117275642201
-31.510849252327027
60.488441382758566
12.055937929956167
-26.85132785568386
11.248414452814513
4.304766571787438
68.95200128215237
56.37803967902133
-38.38662839782457
-0.49201457901016415
1.8090307765617923
1.150075490282756
-0.776793907441808
-0.035063270158626494
0.8259755847788025
-2.23166648833059
6.846978571982415
0.06240948181544106
-1.0008709108568796
-0.18326820727521154
0.8081354215014719
-0.5708066625836088
2.151008705632569
1.1862306686191237
-0.672650294032921
-0.11128583176035116
0.8201467940702549
-2.1499443765514865
7.011232313082143
0.06034953608585732
-1.0475430133406505
-0.24678563923430077
0.854265129899182
4.550667961626708
7.35669889028718
4.759371617298872
2.4977278451151834
-8.516262921892618
-4.880598715846339
48.75093877958515
-108.5292120720716
21.428629952699744
-10.003019111088808
-0.9161038773540267
0.033030347476594286
0.4196345167623482
1.4533887770211171
1.0010212476669555
0.8338203201924642
0.09027229719445849
0.5774317552722641
2.3522728515134204
6.593912979071679
-0.05222370370113907
-0.9706587112892591
-0.022689058428551956
-0.7548266206231871
-0.46007000923055535
-1.6958724923243855
-1.0641588802829485
-0.7872808793042979
-0.01063773362391534
-0.6907045931057342
2.2773438482087305
6.755835740488354
0.05833139599345276
0.9877997712467388
0.0940772013155164
-0.7834040713988263
0.5367825770041245
-1.9573786872033103
-1.1711038286516893
0.7176251629938539
0.06651471078710713
-0.7454317198929523
-2.155997666801858
6.838423431456757
-0.05012428395716449
1.0644944571391175
0.07792279561031716
0.8360832664963389
1.5477785836200955
3.405279078759864
1.7132319881897384
-2.9104595747336055
-18.65649065657394
-18.172779767514157
0.14177687310586223
0.8184275672580991
-0.0800517601364065
2.613327781442035
2.556568663439461
-3.3657378417847994
9.65987804678883
-13.521962816971328
-7.811726554396435
-0.8627656133487752
-6.526176931901371
-1.9208328729637056
-0.5489427333210034
-4.114332043257497
-0.0041701930032142336
6.821771661919667
1.2782759262657846
-5.829537159921985
-0.5381700397172852
1.9706731899637595
1.2517019585582618
-0.7225009339991766
-0.09273711207309977
0.8750829095312375
-2.173338605507547
6.951539080223891
0.06121080456283402
-1.0344039231981652
-0.2096521354123757
0.839051739908125
-1.145535108893339
-79.37868940715875
-79.5971217976795
37.246615254355824
93.81746097506728
43.36116155603775
-16.150386196280394
-29.02911547297743
45.95615402856798
116.68566653327063
53.9325793989388
0.004040279845639618
0.44936710910322847
1.5506892549950984
1.1097669720289702
0.8038686590252934
0.06504283593237119
0.581396317147351
2.3135347381864024
6.676999205103028
-0.05456167714449452
-0.9841011704084515
-0.0813611027436722
-0.773920772582373
-0.5972716152039664
-2.234643765141912
-1.4346333532789768
-0.908429332643156
0.016144046588942848
-1.1340797267751535
1.8676798647003203
6.357209633024626
0.11762836319712533
0.944918628472034
1.0698232449569367
-0.8959510183126209
-0.5366781508540822
1.9133461031750576
1.4043360306174184
-0.8472345060529494
-0.09611194978690536
1.2637026996500555
-2.0997215320545957
6.830525496030536
0.08211140168336407
-0.9928975605194535
-0.5226908088410256
0.8537846100711376
-0.5485179217928204
2.1144470273108156
1.0873136740912688
-0.7411613230545369
-0.1250177731296707
1.0221883107235974
-2.111434572072237
6.8760651333001555
0.05999326978060256
-1.0451980896826016
-0.2277820223789833
0.8522449620632238
0.724404975566278
2.4300093502714124
2.0969444164879496
0.5171017266815224
-0.1222053188099177
0.3291759559186606
1.9356858317716492
7.0229563868078095
-0.07124626806014445
-1.1257385805258384
-0.5433756962554256
-0.946500945795961
0.5855560505835656
-2.1222163400966747
-1.2822020507811556
0.6853334627108599
0.11431110508413381
-0.9037197970201822
-2.134733540413213
7.021319551009815
-0.05705368222840152
1.0665884838993898
0.27482492767768424
0.863243275392516
0.6262328369721293
-2.3361115564615447
-1.2674425547895922
0.7042465180052128
0.10808342259528471
-1.0570610521010109
-2.0850565123690297
7.034920826116053
-0.0754742072719997
1.0270276709480555
0.6646549190572244
0.8855798021741875
-1.7451075942264398
3.5421217642502487
3.293483330839274
2.646794907824195
1.3636800276917485
2.5648538918440105
-6.123006198529898
-4.250617786661536
4.278548611605627
-2.975219039396758
-1.393123721288964
0.6466183194798515
-0.6280977484559224
-2.2819472530673433
-1.4644720077318847
-0.631103542726151
0.11330054966197516
-0.7948941353032687
2.1143523072178407
7.138534861142788
0.07605727540660724
1.0336471839636978
0.5493751655038037
-0.8844251785675213
15.922064462626956
39.96142771374798
41.29662007527414
-214.03395851415914
-687.1049693914135
-366.8818111897638
0.03424642808624478
-41.37864018725721
-171.5480188332685
-587.0443828100869
-315.5964065610989
15.049777782946597
-0.5593632119266385
-2.050506830002778
-1.2853694061722691
-0.686071316263569
0.10201292246061039
-0.8065250106204336
2.156046950298427
6.988286519418555
0.060746197691784284
1.0457905679160824
0.22163814243021288
-0.8495046762106916
373.318001783819
-519.3102494191589
6.328689634754594
15.559620137380247
-30.293531329008133
0.13183591009899812
1653.7506858907213
-824.9262303501927
85.37797614018025
-1972.4398721958396
-86.1332033665924
-10191.718089686745
-0.5251413470044481
-1.9615526170697342
-1.1471339919409607
-0.7236835813893455
0.07216687273143807
-0.8043929616608474
2.1963971743547255
6.92043092723112
0.059081722877748565
1.027902386153348
0.16824654605474226
-0.8275986520758157
-4469.296012528737
11350.62528846451
11096.089090426052
-79665.05097121562
2828.157348490312
35.466223126101006
-1048.367764016686
90120.4193074847
1029.203702168141
-2153.269261443399
-1879.4550063965821
-0.1999999999999962
109313.58642460257
-160625.5869005736
-120521.11877081549
6451.783987122008
-4222.312731797098
7702.653785065764
-72065.4691186015
-332512.9346416904
-13447.882042793168
-3781.781095337024
-13559.317385662189
0.028571428571530628
0.5132575567830444
-1.8276721216745555
-1.1888313890323814
0.7308301070733194
0.022560503341205754
-0.6667833114154409
-2.228173629467193
6.860392009535226
-0.05251427012054391
1.036310645112377
0.09570498717979015
0.8159577812828025
0.5352204892339308
-1.9530463876631776
-1.1433558014448189
0.7174316690208902
0.08586387474405002
-0.8380528469756243
-2.1837054148520165
6.9197031006227805
-0.04801181054284641
1.0668424851536555
0.06201145938721605
0.8345440467241166
3.7738994006086086
-18.32981033785776
-19.746076960319687
-11.670729528573059
11.131814251978035
-25.771219230301742
-0.2603041191939825
6.159763872284114
-12.085806599701368
27.46367258409517
5.49378701197778
4.893646161731592
1.1813887341506961
-0.8156230617138908
-0.6771523332684671
-0.5346453980411705
-0.4595964806157016
-0.16963598128686
1.8959689785510847
-3.6969084760909716
0.8871653975819276
-1.122532390103716
-0.7788941312351984
-0.11640045080440507
0.5647562504013833
-2.064314070752788
-1.2040066369622089
0.7105108757002817
0.10000622580024365
-0.9154471847208288
-2.1546165464393705
6.977172362529281
-0.05581792940279236
1.0577551329203865
0.23495634364423085
0.8514685665675066
0.06552321889590715
0.5264987919423502
0.33426472804577156
-0.3435699606052693
-0.023178899773325736
-0.018067619628180816
-0.08638770048221533
-4.255919664428352
0.20605939287201627
0.2958022401519716
0.38357447836099806
1.598048641606281
-0.13106637896986162
0.197158262613247
-1.4930458036589478
-1.8932621057747503
-0.792091301809334
-0.6316670870265949
2.2111180016167125
5.062859807500051
0.03505927362292177
1.0104343907026556
-0.8147248885631273
-0.6543928222159627
0.569801218737385
2.08932394458462
1.2030635993236305
0.7024276686683226
-0.08847145534027201
0.8626388232453306
2.154574629753549
6.97568339250171
-0.057815069583798465
-1.052035857955623
-0.2713904242413768
-0.8519455087255099
0.5180841605939045
-1.8558332158583928
-1.1807615515945715
0.7370479243451403
0.023226219398555188
-0.7016406560781171
-2.223892709954747
6.868737004697729
-0.05517730001608267
1.0289717926779403
0.15442703309191436
0.8186166706921001
-0.7266666511915655
2.077740449421019
2.266343467572659
-1.7605825709491323
0.37487278846504185
1.9545306818371446
-0.7096634908512948
3.6282228171752493
0.16610200430464983
-1.3689643339374835
-1.4575690585457042
1.3975720637046933
25.34766023783103
11.222076809868087
-1.9303233015876555
-15.002639790466732
-39.99384776259053
-0.278963637717329
17.108112493431566
-26.3045365792396
3.8951670402762533
4.702090015478388
2.802687556170809
0.0953234725078061
0.6103739876946049
2.331786944525492
1.0874622386871722
0.6380904407307311
-0.11554391902312063
0.803956989862967
2.1255137594226223
7.052525219530703
-0.05584276930822071
-1.0726584773466077
-0.2993785230528306
-0.8698962782402758
-0.5263486537814714
-1.9242133463753108
-1.237744365456262
-0.7198980710756946
0.07083646103480193
-0.772122621494584
2.186489997324401
6.908693950090768
0.05919244594523593
1.0329799157016197
0.15382178270407626
-0.8297582055151718
0.5489434614237638
1.9558558107116049
1.2652841046229262
0.6959630370825103
-0.08369044635110981
0.7713838715464177
2.1728775465577104
6.944569430327678
-0.05003882096053321
-1.0702776227288033
-0.0936875027517212
-0.8413489783421965
-0.6120625560396369
-2.0385449127387347
-1.872453725921447
-0.6721799995011751
0.13819065655080678
-0.8193961611167905
2.002733281220773
6.897064115489071
0.0720064865361577
1.075801930255186
0.3808603203036483
-0.8990802793464249
0.5537538516162744
1.9730317295859912
1.3267924637213646
0.7556769000403195
-0.05656425310055279
0.8422330016721281
2.097245586938775
6.768211769265041
-0.06368714931412796
-1.0385562180817676
-0.31668288300619335
-0.8511580577088727
0.5654246749707037
2.036127362300626
1.2665246726914923
0.7057818976653025
-0.10974990106539602
0.9160289056505264
2.145890610619665
6.977238632872198
-0.05385472607354371
-1.0683979414546472
-0.19378473173471886
-0.8540791046091211
-0.5254539711972679
1.8978538021365337
1.3284356513239441
-0.7920916507535318
-0.05079509753155529
0.8166451665813627
-2.0330165779708906
6.538862843575518
0.06728049866072246
-1.027217513904174
-0.24622122164464166
0.8431619421983839
12.333849228153701
13.629515383545924
14.458240590785195
3.0048820445313424
-12.838760857504326
1.0460859675741692
20.09605472374623
2.091517079952948
-1.147650907189128
-16.155983594574472
-3.2916985152257934
-0.26422749832132236
-240.6631752352054
1028.1812331415845
540.8362067492261
-3.0334312305256317
-73.40880873695217
-73.4175134948141
6.1623950838212185
-141.27123974245268
-158.65335096850114
2211.8852433902966
1178.1147542314156
27.65430080282921
-0.5411598794877619
2.0192675384318273
1.1780894664700094
-0.7016929175018598
-0.09546816984006505
0.8142009764525829
-2.171932096285715
6.948069721476443
0.05697640688436076
-1.0446318585861682
-0.15241692218424557
0.8387985896959118
0.6089798705640602
-2.2779581660380055
-1.1997104512244425
0.6669345029780108
0.08816666764247887
-0.8162120106238635
-2.121627817798248
7.0191922063653
-0.06502748480067864
1.0453337696643883
0.4449102755740231
0.8696028552988084
0.5645116922340634
2.01583027426184
1.2994470064958612
0.7098220318922405
-0.13045146795640392
0.9786789369670293
2.133383320516907
6.977321048984617
-0.051020563492804316
-1.0814312067577088
-0.14527585233107215
-0.857653755253821
0.55021437559657
-1.9631556266113863
-1.2573721280572807
0.702893042937081
0.105008902077839
-0.8708638816460967
-2.17129210951583
6.975818950985836
-0.04886344111312092
1.0755164096931638
0.08857660568308777
0.8445133812613362
0.5490622318201589
-1.9920164733813064
-1.2029106238036278
0.7170380532691345
0.08633921581839954
-0.857719479913363
-2.166842398787478
6.934942388818772
-0.0530639080153968
1.0593729939693233
0.1596437882539095
0.8426519991059631
926.7169877669209
832.5416840855605
294.23543589679014
380.9660376085321
348.52598981042206
181.59479725730083
10.49793824436632
-11.33341300606596
97.3519967772944
75.42746683763554
50.251635746611946
-0.04162409423429752
-0.4077825888619258
-1.4396293575290071
-1.035093832394889
-0.835034370653578
-0.09286450323062664
-0.5504686851662626
2.3542074987731105
6.5821105435740765
0.05843825759410566
0.9485012545650822
0.05215655653485909
-0.742971474192039
0.333214804671476
-1.1317018847319187
-0.5838664387354433
0.6910668432697319
-0.2205421548434742
-0.30401468455155783
-2.577059821446669
6.331255910192464
-0.008352080202825721
0.8749369588210227
0.09619183666956779
0.6666534828686265
22.02620139144016
43.40552944596042
29.643121846453333
34.15240201810586
104.65544157606756
104.66254712408643
-19.604379853391855
-80.83618124369929
77.21690970972396
360.2949845677499
223.01052485043198
-0.1651871922726603
-0.3686370843069015
1.2994012051579449
0.9108014764783791
-0.8832422915631596
0.12179335315599715
0.5967680653288575
-2.404973792412773
6.472542385164181
0.05417006077432932
-0.929656517126717
0.005469864529315814
0.717654919045651
-0.5141719839697366
-1.9326599104318265
-1.1113462793608095
-0.7401204625943639
0.05214709900928816
-0.7804479008961691
2.2065291406313925
6.878474205497146
0.06073931557388908
1.015689087864468
0.18158058139608677
-0.8199301008827419
4959.217339030263
-190243.1085178645
-189984.52255250118
-5.364739706053779
-23.125449238816348
-23.024065685545093
-105.2011116886138
-399.24826681948053
23.7577167133149
86.65821943959381
57.63533186519439
22457.5892289141
212.27462186064216
-361.6515150749676
-255.66763069496997
-4.780178964499571
1.481027409659386
0.8551245519961804
83.1912998934957
-175.49976364062354
40.89801613879895
-78.09590521328452
-56.18215646593122
-0.2110561029218985
-0.5140457280940637
-1.9064943312236762
-1.1603279681201406
-0.7273598702149185
0.0632143123025086
-0.7526017635806855
2.1932962179928768
6.865337170982434
0.056043210075306035
1.0335986410173326
0.0975967157035754
-0.82221794383986
0.5092300268960661
-1.852059893434713
-1.1120240526806369
0.7552757494468259
0.029275297507958847
-0.7584523041554665
-2.2191822594828827
6.834876321601343
-0.05345659015517933
1.030889988221989
0.12139840218008185
0.8161001400386975
147.80504250495602
397.30164426193284
268.7014235866702
24.62412747580094
118.06797379655859
121.90912994248916
-41.7089040292795
-53.655624791857434
-11.259907827388279
52.231328417839066
14.038298688887844
-22297.880593127597
0.5902622942230741
2.146133351014971
1.2782504630315727
0.6844926515184138
-0.10596732159620002
0.8943947996797882
2.1374588316573213
7.031285509491289
-0.05998721507163739
-1.0573404786760008
-0.33343145633074256
-0.8639608321442173
-0.5346812031277186
-1.9337816978668383
-1.289678033443298
-0.7101633313662108
0.11404101120674442
-0.8685248590560043
2.1615676963469252
6.941795385473108
0.05333895603918259
1.0605599753262729
0.07643464470860685
-0.8409258549020703
0.5994968851572493
-2.2277489674783535
-1.2032217236834175
0.6652895955403602
0.10355157785463914
-0.8333324386062644
-2.1280562663708684
7.024146684502402
-0.05932386825454126
1.0610125202879845
0.33422519195160943
0.8665942399893455
-0.5754218040756847
2.162110474070398
1.2254364703094167
-0.699307829589159
-0.12321780676288782
0.94681849362227
-2.1215353854578587
6.9893086275925995
0.06525486241743295
-1.0415563214359767
-0.33122451273929904
0.8624274683744869
0.5367923389446206
-1.967133920812366
-1.1383350131331393
0.7184681139378987
0.06267408868068086
-0.7720541857611297
-2.1847761061095627
6.894771037918853
-0.051992482016220413
1.0526426657577128
0.12499121089448995
0.8327001219976681
292.26020789621674
97.77655581647196
56.8865777786911
11.971893782416537
41.051749233635604
38.52705474807637
-654.1159846408951
-151.29974004424994
-16761.9449013372
44344.05027743281
18080.97130643517
2563.5120879277265
0.5484965642011863
-1.9921033049441799
-1.1929365040190427
0.6996344956821209
0.08399755246287005
-0.784716737003465
-2.1696458930611064
6.930372660150869
-0.049921985514075506
1.0685056382870357
0.09894811484797422
0.8408765792413758
192.7660146127108
548.2804267413785
482.4238936211995
343.26394180304266
1160.9570921357836
1145.9766856978451
-447.877225216435
-947.004776278168
45.550805074966526
143.8796730135915
39.95061048775671
23501.77125471799
-191363.53954428868
-6694.649124652494
-3637.775698662055
133136.20615197974
48640.67223690089
20637.16713506612
-5455.3177119599695
-1493253.3778210022
-20843.902840176335
3180.8815638277274
1271.13597993255
0.014634112359200452
-133.64160379147722
263.50148501375884
263.028772066132
-108.70349646796228
200.48397153459968
200.40470382352294
89265.51627561761
-358124.6780286768
88887.75182380626
162752.0140411162
55573.021633358156
-2459.7033663289603
-3.7131317878304366
6.341073431437658
0.365676185761008
2.765573485877013
6.769317772288882
0.0740651733534545
-21.841168591384832
-24.776389759994434
-0.1014993280936288
-5.445772702461968
-0.776339475558794
0.395006984715514
-592.203086771381
-1065.0342875928256
-1055.938302304112
-86.37935282376328
-215.24959948235457
-215.39373739323818
-138.9796400133844
-192.4663772594646
6136771.1418192005
-9944622.65962021
-3018231.719583735
-25568.396950506798
-0.5513005841373347
-2.051712025983548
-1.2672812762211483
-0.7719362736629952
0.0746409517297841
-0.9539463822755366
2.0894076285398135
6.790128342587626
0.07512234861075068
1.0086762952576696
0.4331255407483229
-0.852973712476274
-0.41350169019076966
1.4836572251496114
1.0117968172870706
-0.8406160568460905
0.07068379406306773
0.6196738561724764
-2.324970430454394
6.580786099587447
0.057158250945325034
-0.960398508153127
-0.030728601069207537
0.7506763542948797
0.49161680946768743
1.5535937049649424
1.5635543060180566
0.929280887061198
-0.05464826375652593
1.267208347639448
2.1135318626018402
6.651156288276927
-0.06994808523601319
-1.0104482288577805
-0.31261712422767596
-0.8334505957746035
32.3378645725605
56.974250028083496
38.27592061671155
-6.02890765403596
-2.125118409197691
1.9480892448445128
-3.9645621051267597
-6.531729729947181
18.144185642179213
38.849483243202876
26.08446857904654
-0.49139834717898245
-0.600834743046604
-2.2873420488241076
-1.2286679107924248
-0.7202153702493587
0.12271504054834931
-1.0990323654076404
2.098054310082922
7.026643966438854
0.07974694526419364
1.0116326732961214
0.6089466684093514
-0.8772252477171959
-0.4618110391078361
1.677910634885412
1.1181859267145084
-0.7892029712401845
-0.015942257687323415
0.765892582246005
-2.2600369250326526
6.774361339670126
0.05513502586805173
-1.005866230416223
-0.035854904690826965
0.7899587673630504
0.5845485514093237
2.1035064141192414
1.3102437329094314
0.671014884111136
-0.10870088879207941
0.8164965407858054
2.1307985428917404
6.999000167823954
-0.05454403361748143
-1.0755293490553448
-0.2165468957418914
-0.8621252486589984
-17.086474975960208
-22.944296553916462
-13.175036144578957
-0.05225604380251255
-0.3263530337638867
-0.4589317977584895
1.4573806738898583
-1.7062887097742276
-0.5641213236942948
-3.8753854202732394
-0.23080151818701627
-0.01120170731502407
205598.25730802698
8666.298912772918
3202.4463723700874
67553.28439882533
87189.30273100342
38213.126353172804
-146777.31609806715
-119479.23567387402
209036.1881407931
51000.308248612586
20934.063784140228
6.790248402884623E-14
0.506793093123855
-1.8289359008605535
-1.1179317066903898
0.7170578920907659
0.0016041698917124954
-0.5645608481664985
-2.2560048223977955
6.857060313004359
-0.051136026126234496
1.030881712485419
0.06742568179862007
0.8071514703016635
0.5045469140670183
1.8264886066468025
1.1375337175787272
0.8525292414909046
-0.023796458720384578
0.9339776686627697
2.077809414373479
6.497686078169662
-0.06324979865623816
-1.0184632955669841
-0.24057292645141154
-0.8284347614680801
0.48461691955238434
-1.7491899631700412
-1.0788595793892748
0.7615637335814814
0.01069031859721413
-0.6809295710136818
-2.24239535391384
6.770147976764167
-0.048127649249277614
1.035438228884633
-0.00709973724453327
0.8015702665947789
0.5313416770022998
-1.9117183894304224
-1.1984435702089866
0.7400996772352532
0.05828238974330156
-0.8289438474797601
-2.1917121399655324
6.896587922144327
-0.05503658330628165
1.0416151788502206
0.17205979180750244
0.8310981468768182
0.5431922198196117
1.9828380966354076
1.2106344561517492
0.8093706259092955
-0.08148472480951294
1.1073691804467765
2.110787545643174
6.80311649641946
-0.06555570599969512
-1.0267602692223907
-0.36700037518148027
-0.8496090485934633
0.5058644904655033
1.8349200995734019
1.1139160628419145
0.7537160290385667
-0.03420714721019541
0.7569633645358252
2.2180130983812676
6.828288729378319
-0.05115079948467745
-1.0383953843588338
-0.07406906317685662
-0.8152856671764204
-0.5823870524059704
2.241075618289509
1.1416199476508189
-0.6962761480035227
-0.08380830501835426
0.8419724455986546
-2.127106834602464
6.96137088216221
0.07278992149727055
-1.0147297826113455
-0.460812422359993
0.8589535069095471
-0.5173655526918962
1.9061386637164937
1.2226966119956757
-0.772127608463881
-0.04808246907931256
0.8094552572403296
-2.1237008400596307
6.710720193581972
0.06508796314499359
-1.0164528790185128
-0.23209664254088233
0.8301010210485662
-29.84361038811556
-85.18729155784382
-89.18046298792927
-45.837714560468655
-635.6712017887389
3.555082506218991
14.832126608164558
3.656424592404005
0.2826242315313424
9.905746267736406
0.336382992934648
-50.787589024840194
0.5070078589289927
-1.7715447270875437
-1.2484435684247723
0.7651238894965375
0.027988845424764822
-0.7829824621868646
-2.2231857549349128
6.850251968374715
-0.05546864897542974
1.0279326810387324
0.14187286231112486
0.8167934919440848
-139.14161986276426
-357.7601602729698
-134.611257443241
-27.41216392253105
27.49430547717049
18.026864303740417
-14.81869114379645
28.606438728802203
33.56212958368411
40.88037348338215
4.681131966958457
0.002259115908299451
0.38154954759965276
-0.8604158883050785
-1.760836656586011
1.1611411377024243
-0.12187291447730772
-1.098075466582421
-2.1224323753534087
6.063462185022863
-0.08242697400307641
0.9621764586854962
0.11409443869847267
0.7738097827618624
0.5623559119251792
2.075832065409352
1.1609534164357345
0.6989785148199467
-0.1076465484407158
0.8735083039766423
2.1415943834356628
6.941891801996688
-0.05071211093060807
-1.074300254085299
-0.14115564698770566
-0.8513720314515019
0.4962544221901026
1.809542043314125
1.0761744997585243
0.7637049194315495
-0.012953094733096675
0.7041680780136615
2.2197062961775202
6.763318452295335
-0.05176712801938986
-1.0294552132412578
-0.07207970431560969
-0.8085664452990814
-0.5448540500663918
-2.0212816918804353
-1.2128346751842625
-0.7189068528027303
0.09421890624372838
-0.8850921544452994
2.1691370192371258
6.961417570340192
0.06265496495155586
1.0311289007054731
0.24791361563542808
-0.8418687367939255
-0.5358647452320603
-2.0065526087806167
-1.1473025305495324
-0.6865133752979898
0.08025331745041529
-0.7121604889863934
2.1901041435762747
6.942473320401475
0.05438226528940246
1.0458310734521097
0.101395967089834
-0.831814741460635
-0.5011403817622814
-1.8529410248464238
-1.13856325882231
-0.7406724735099528
0.07297611654374724
-0.8180365005597111
2.210217485746918
6.874969746517975
0.05232893426009999
1.0384754844047672
0.03460309519373257
-0.816726782940972
0.45603967611499885
1.5913534109692922
1.124867109512986
0.9044948254802451
-0.008240429590281333
1.024596663449307
2.190448766228989
6.571941125971837
-0.05856994332193776
-1.0030610694587714
-0.11898428828913511
-0.798837084993319
-0.5755789234759691
2.070543734024477
1.3945016524577207
-0.673761490175632
-0.1132625182951373
0.8252893381889167
-2.1424086849168513
7.03403006751883
0.06375159963800489
-1.048451620245149
-0.2815256542229256
0.8599236242678052
-0.5260458669792433
1.96589938103926
1.1513168128563627
-0.7137745270753568
-0.07169492712789872
0.7543154493433624
-2.1859260143399175
6.896723613080215
0.05684749621236922
-1.0361300551739612
-0.126817176818729
0.8284047281671506
0.5756393694029887
-1.8812082222998943
0.19501184648836092
2.892129411489476
4.177161822854801
-0.28714635761629065
0.27146625271961816
1.8717327918956512
-0.034039283338948956
-2.700041008245993
-0.16276985393439322
-2.0902587090667044
-0.07505839372177946
0.041625442371646316
-0.010490359437479255
-0.008539621104816307
0.059350836269454005
-0.06802971609948319
0.09671491463787564
-2.971409936515563
0.08460894780874638
0.021974107286393478
-0.010576656914502219
-2.0095234690574526
0.5830063940227602
-2.031254978437481
-1.470260259352767
0.7593942675109755
0.1065567959777747
-1.1202786630852781
-2.1049309725177365
6.970492789844173
-0.07098065684019747
1.032736589626331
0.5024296711735076
0.8704097994090328
-7842186.962198433
5444253.752768921
5444274.626867699
-31824.959309498638
42347.390102947895
42373.29626187582
-630.8013386811363
-305.0984084453965
289592.90583606344
-289562.4490490572
-237630.79056995534
-0.19988773400503232
0.5563573079330008
-1.9832535435077336
-1.2915347863335802
0.7273474309731935
0.10389549065132077
-0.9552431530838432
-2.150600588240852
6.957968507488805
-0.055411850828189606
1.0606407718473496
0.20801707878026998
0.8506330711301398
0.5760532057731697
-2.091697130583011
-1.2463550484967745
0.6789568711195447
0.0974631992633717
-0.8185359433914143
-2.1559052478814342
7.009726531271531
-0.05496581997845857
1.0649316592490627
0.2237310156915794
0.8546305737878487
-4.418076718121929
0.17962833981588358
0.1339624339568662
-2.9230689649553003
-0.21088889382761722
-1.4127201600470114
-2.2650270425053023
-7.825355700837293
-2.317709717531168
-4.110260439931598
0.719239119621137
-1.1226527815942726
0.537119925128556
-1.8485969834182765
-1.4234500344681833
1.0563498175324606
-0.07146829143722438
-1.2505440044891591
-1.9956026689890751
6.301591544423389
-0.11594879015861141
0.8852881071199693
1.1419425882575962
0.8508118922666735
-0.546784873759144
-1.9881160127897628
-1.3207604082140847
-0.7239729877048651
0.09119808753790642
-0.8436765202760448
2.12330735791799
6.868991170408901
0.06323217679481787
1.039688021594382
0.23375794616655912
-0.8479849287349344
0.4569589471579949
1.5767340447941858
1.1460164710133611
0.8217378150176936
0.028873544543450213
0.7361011891313946
2.281506908127309
6.708222654530223
-0.054499905129907524
-0.9975665075799914
-0.08178857277049924
-0.7854130562024513
-0.5601896914047352
2.0757486020544094
1.2467481499417672
-0.6959092418403203
-0.11534646476701532
0.8809020025124845
-2.1447191365574416
6.982349203754393
0.06032834430394571
-1.048285287420778
-0.226540435901735
0.8526125147508943
0.5505404837507362
1.567938614972335
2.0477426544190886
1.2141329593098094
0.06626175361559285
1.6249861599447342
1.8595637643130887
6.095041810733104
-0.14177928578320742
-0.8759958800420113
-1.408972608868897
-0.8845937154349268
-2.507503197424074
-0.03521130122068661
-0.034856590216639165
1.6625058170369555
0.5167960188598892
0.3461365472144583
2.1871978334881383
-3.569458296960653
0.774305322187257
5.853262154224681
-0.2823535310229429
-0.12882708202786136
-0.8783503590098743
4.056801487920165
3.811323483630792
-0.3741502069854734
-1.0052550158291347
-0.7245812268018634
-0.6079957602243572
4.065983383751845
0.26871037092488603
-1.8450612200523882
-0.6417414570000625
1.5783531366411905
-0.6085758977790467
-2.2348344351789007
-1.4722066390067936
-0.7690290372885832
0.03944759852230034
-0.9779522571941954
2.0655421040191113
6.894938764639057
0.10408808529800233
0.9523811425472394
0.9669283673767918
-0.8796839585601274
-0.5437383375642342
-2.0281292172254273
-1.1869924381974364
-0.7083197776950879
0.11926180327577933
-0.9040213170184922
2.1551439870395606
6.9539470013826366
0.05508624227952515
1.0552568532221438
0.13194091248327025
-0.8448243355201895
-0.3633482167292937
0.8042110920515295
0.47130002520497594
0.9865210815977601
-8.563963572821178
-7.060543897924065
-3.3965277250940384
-8.083212800957336
-0.3956883326950201
-4.552710917308872
-8.744637679904383
-0.048661604889180865
-24.99090019419263
-27.371229090178215
-29.428464438439104
-1.4847114526899408
-4.554913041191142
-4.171328436765355
-12.059248137955102
-17.44059028190566
9.968093550093112
-12.694331777298272
-1.7418024734588093
-12.436260032022515
-4136.781536532676
-1046.660833703435
-582.0590866167967
-707.8703483836715
-659.0483023635087
-392.2147665654356
-14214.48527040258
-9159.413318584184
-1235.2356428508829
-763.9307462951865
-434.51292398638344
3.860519145285203E-14
-0.4854520157650143
-1.83870305378462
-1.0276408010714164
-0.7572049972189973
0.02633260743912411
-0.7239654490676498
2.2417435140055644
6.815617337254113
0.05633561302605908
1.009430100472073
0.08818051683555811
-0.8008855281297442
-0.4058578218874017
1.437079400138482
1.0064836571938676
-0.8216038719589562
0.10184465621456255
0.5106431036992781
-2.3724886016139846
6.587395021803978
0.05711293428816447
-0.9432883489204011
-0.05671479068381989
0.738190402419817
-1743.6053792382454
2519.497731208264
-1401.212127589475
-2611.0153681166853
11960.325126498352
2092.402295956907
927.4073057666958
-3708.6260590672564
11.646248332666651
476.2518312329222
8.640796244512117
952.0399332830747
-2.336078967772989E13
-1.900700253750414E13
-9.583886252525791E12
1.0757654069302285E13
-5.689591131046164E12
-2.9032865640877573E12
-7.804271178337852E12
-2.99800168094824E12
-2.042544998190043E13
-1.029198157041025E13
-5.1470349466374795E12
0.06667831858630438
0.4893144969681077
-1.7378755097938448
-1.13600428336328
0.7598778044162218
-0.015342187788095386
-0.6339960006509506
-2.266318243161511
6.800870429347592
-0.054485375906134156
1.010118848524324
0.11917661266216904
0.7991564142063063
-519.7840898828395
195.36532202221295
274.5429253549455
96.88072947658242
732.069976000734
617.3952170742908
-635.766920175621
-2.234558782881177E8
-164426.09165090314
-1646132.6548578297
-1615960.1496850646
-20516.43753974771
-0.453168082674548
-1.678033639859106
-1.0090201237589764
-0.9033163932971671
0.025910700189175243
-0.9891263694986349
2.092820994089346
6.35943133416779
0.05850723920281932
1.0067088297872386
0.048793211848686395
-0.798440429737689
0.5246106818241942
-1.9061238237110556
-1.1425713860981228
0.7201531173087531
0.054267279251170676
-0.73124698039326
-2.200290436603788
6.877290790343737
-0.0492863347958544
1.0553966645952555
0.0585789041347407
0.825493000201549
-0.5078292595832604
1.8915755434291859
1.1330216037385004
-0.7352473817301871
-0.06148394177970114
0.7665889595057266
-2.2003175719072496
6.857339017486798
0.05529485077295878
-1.0320533221683015
-0.08239464477695217
0.8188106195909235
-13.683754623002105
17.13735634591424
9.558713746635295
-6.456929677587635
7.46622477764682
2.938509998847026
-5.271486147998598
-5.317378347649124
-1.5896714454781002
13.652043793483955
7.555362900583462
0.031156186927780084
0.6229614157908656
2.151781928752802
1.5564277681092755
0.5857063991257323
-0.12410257757228736
0.5936239700689633
2.107141306518664
7.087433132503695
-0.050728916803980804
-1.1115717508102565
-0.1593465513973703
-0.880310328655141
-0.5262923787988911
-1.9736003477057507
-1.1365171864787686
-0.7161150841773516
0.0739766588569515
-0.7756369724771079
2.1892126676166797
6.907518430971721
0.057196258555220786
1.034434520471858
0.13700783745268666
-0.8284682090429145
0.5006966744783734
-1.8403550485746654
-1.051837445635563
0.7679139941158273
0.04115027032537601
-0.8279521022292988
-2.2237115053481635
6.829809223283837
-0.050528205732652494
1.035683411815086
0.07441192383315363
0.8132634423601874
6.0623100685516594E10
1.11490930319526E10
-3.4626366464772344E9
7.289574617998543E9
-2.1469892904371998E9
-2.7514199482919765E9
7.813189506096812E9
-1.8385700592683983E10
1.3928570333422714E10
1.8488108081366298E9
-2.633145229209207E9
-7.2286407597320655E-9
0.6693220854019316
2.3785575212550003
1.5833393308919328
0.6000231738548245
-0.1140266362682286
0.7218784839200979
2.057761698775641
7.117449843170086
-0.07155929995670936
-1.0672976768820224
-0.5932546775046871
-0.9055767944922397
-0.336816016385886
-1.1081752368367976
-0.8813705281041613
-0.8392190110944305
-0.1812817159387328
-0.48306729741750126
2.496940459805684
6.3928969829012905
0.04131466696236009
0.8930912053366962
0.03310752711989538
-0.6840984864432673
0.5565889586859885
-2.040773431221879
-1.1656588186197219
0.6848624850331025
0.08870745805463824
-0.7706792430602846
-2.1708255738684605
6.960341822305714
-0.049626337438625726
1.071126064600903
0.10773800277223328
0.8435698807176567
-24.54417194821995
-13.396722983298568
-11.109023908074482
-0.667568828825459
-1.1663566854391747
-1.0456182555428852
-0.9361682572658078
-21.881021102551415
-1.795483345336084
-2.5937422561926975
-3.444043003628142
-0.001763545067517753
549.3137576205621
1052.7077034713682
1028.85051425942
11.743298946616505
23.361998603697057
23.413191524501688
-27.6284598436474
-44.68629558886141
21.660969191249187
37.359891282321406
33.743065576116464
-9452.439467292368
0.6123360279128527
2.2708276105400036
1.2441135857725785
0.6663358250958633
-0.10194578446100847
0.8619979651207885
2.116368399379781
7.041571472564478
-0.06456046586035019
-1.0511200062936625
-0.4416914775811145
-0.8735415622648456
-754.0051072840507
5932.2081999986885
5885.686453984333
-18.809398258944377
97.89444991893345
94.52408101841904
797.8152789281919
-627.9048537760913
10.458380048757508
23.045105534867204
4.682823902006832
11827.959100129518
-3437.133207551831
-6121.838803038322
-6118.888216433077
101202.40576318467
-145460.14032801942
-145464.6815121519
-899.646009735214
-1347.5487078783817
2.320985786571795
11.936545028117035
7.88279008867352
0.0399995761411419
0.49465131566914644
1.74224235301069
1.1897379527931367
0.7708020477439536
-0.01831585206277858
0.7508235742731947
2.2329101264889326
6.809386736034602
-0.05289397289349879
-1.0283969060378861
-0.08432657779037017
-0.809241485248301
-744.806349754178
5813.103033538342
5567.011622783105
832.2927615053941
1954.0591964134412
1938.8837768162618
2201.2467318681697
-3702.607347020245
229.0943266943562
1016.4666580423957
453.85036197704136
-616.5275261915073
698.2765854878943
135.30879968106407
61.39623634526213
-326.1772972130817
92.67798887544897
24.748493059727156
-36519.53338036848
432.49555911027716
-926.5489207904229
444.3657057763105
123.82302822075846
13736.18585895173
11.033980409164222
6.005367122660303
-14.395114707215653
13.012217710837625
-686.2635841449496
-686.3171860679707
-0.31359426281112
-31.492048295359467
-14.535107749621812
418.2789339698365
71.58730804099265
32.55627501291741
0.5636293184066847
2.0922138426342154
1.139555611490057
0.7085062815238944
-0.09687034131772329
0.8968180290076989
2.1544122623256503
6.961920027145432
-0.054984103286358194
-1.0577307039172712
-0.22318391294325896
-0.8498400396234569
0.6013298765803744
-2.210637683235245
-1.2518160857652973
0.651072753194592
0.10055951280820861
-0.7663530454129898
-2.1276120040268727
7.025211407738776
-0.05789720599534246
1.0676976872198407
0.2997599375097698
0.8668691399752464
-0.3308273394232454
-1.0858465482329447
-0.8307114814475292
-0.8131856291690013
-0.19706132495541057
-0.44337470434229953
2.5179768042026773
6.356033751916665
0.03507729673845789
0.8786521303267902
0.06890623241225965
-0.6742722340482642
-0.5140279409708708
-1.8885802468631632
-1.2004855011758653
-0.743514816642556
0.06445399553851186
-0.811844990355136
2.191997544710579
6.873422989115161
0.05947664081094728
1.0260350042407598
0.14901893602381447
-0.8238849735483077
-0.49505989546291596
1.7910981280234823
1.1442147055893894
-0.9141631602173055
0.06476886044503724
0.7217409571599792
-2.007907545415702
6.141900148960767
0.08823768742462992
-0.9404840785234707
-0.48687294386472524
0.8096520045622819
1098.359365868312
-732.7058410049145
-1566.9538549048013
-357.1969620925049
-880.7124914766366
-627.5999542523467
422.46624398951957
10156.395435035247
1068.6179270968228
-870.5179180854387
-1338.6715700763405
-0.19999996720580834
-0.4961661857505375
-1.8571514359548706
-1.113347789051252
-0.8089267781432792
0.04583465055082679
-0.9239104963171688
2.166850259364561
6.73238685378963
0.06463132062863855
1.0019122332327666
0.2255473127101893
-0.8172160270515432
-0.525777568591059
1.907999807803157
1.2605545216334428
-0.7229851217215223
-0.0909579780170414
0.839851451349715
-2.1803929966944615
6.924314214770157
0.05643003960501501
-1.044060864690467
-0.11331072177195657
0.8329071795070905
-1324.4567862854515
-42410.97208058048
-42410.016347749755
-29.286232809087398
-89.8677830284619
-89.91357359898599
-91.08514012935623
-209.43428896867223
110518.46802924892
-212150.24971844896
-111030.97889644552
2374.9960750728196
0.5128085788052714
1.7089652579572214
1.4732060721312488
0.9366419079069608
-0.0194094931616325
1.2117666295144889
2.0854243554330467
6.592872249143381
-0.0826078213024848
-0.9736688655613236
-0.5671143121471425
-0.8402110847587416
-0.5132258663782815
-1.8552342315050587
-1.251883525449019
-0.7236324862192568
0.05273688639959466
-0.7109514579259076
2.20585277088964
6.884914197854858
0.05800777810193643
1.0294607185175102
0.11163062702342894
-0.8204773423199379
-0.5439393895473372
1.9966582743182222
1.2487738205197072
-0.6925826552205421
-0.08612262049084814
0.7545255675224937
-2.1732716712266833
6.951870270830441
0.05831258015736801
-1.0435035118587936
-0.16246636067141842
0.8391138777904529
0.6971293626964759
-1.590671505476152
-0.12894886429507027
3.4094913762151875
3.466546883327491
4.186609483352733
0.30915717889629313
2.1336480584946966
0.03442242790872909
-2.707728158658145
0.15581683657419326
-2.084396609895177
-14.69663846757702
0.932592560085124
-4.160249527364218
-0.3825485934159696
-2.8096406528491307
-2.6757143413882587
-4.715710776978213
-15.093843335672132
8.566492791494651
-8.623984907793016
-1.5512660757190662
0.4158760120935048
-0.4972157465602085
-1.784363710040564
-1.2440610287129765
-0.7535870633729415
0.05504417912810073
-0.7962115513587955
2.2128235080903877
6.8565378968069775
0.05691227054627643
1.0267668900814826
0.08346167052019403
-0.8144760586229494
-0.05432330380799133
0.07687330335449244
-0.868023468320727
-0.9130730344058949
2.1336726771665244
0.5657623617459764
-2.66831206202678
-1.8822134103685284
2.6567582878993488
0.21720088318578948
-1.519687918756115
0.30079946773531147
NaN
NaN
NaN
NaN
NaN
NaN
NaN
NaN
NaN
NaN
NaN
NaN
-0.6331857150550776
-2.1800585686671416
-1.8615805974892505
-0.7891682500593832
0.07001854710385755
-1.121054106935424
1.9776781554327374
6.853311043820296
0.11396476258187686
0.9658541077507724
1.1027081695861516
-0.9105883990239861
1551.891725918936
-3745.6968319379052
-2267.194204219748
-1497.6836190050788
-1287.0078443415755
-1016.5255850126114
5614.124121077311
-5737.520103042339
-9445.764573653982
-8131.7489076939155
-7788.6997617905845
-3.3082966051306166
0.6568515157827306
-2.2490306732956733
-1.950508276798077
0.6864473079596374
0.10342472183750821
-0.5827456228377921
-1.7835360284449513
6.447668877808474
-0.07613953754504793
1.1227895189301547
0.4616427790223766
0.9436083466500312
0.48625268921817133
-1.3900460965993953
-0.9677183066553346
0.4188824693600757
0.12901291612181717
-0.31870941514020784
-2.0288434752969455
6.0480029644153825
0.009979685593871288
1.220519539138311
-0.9732944475455196
0.7640006573964659
-0.560712080252697
2.13591666242541
1.2192185114276173
-0.7878055127225867
0.062198545829408494
0.6001215725098535
-2.1182971851993
6.670257501420143
0.10081574761432059
-0.9163891146664268
-0.8569442634476262
0.8359478654846085
0.5671687345844675
2.0588480338312145
1.2573883245288848
0.739702958389918
-0.10681917782460514
1.0204682122373132
2.124166189184412
6.937286718876159
-0.06033265587119896
-1.0513151976438675
-0.31098227666817485
-0.8582759695270439
-39.29394409696231
38.07207302005465
40.763388915759215
-22.7709077640121
44.016021009924884
21.0899951819101
1.7619730559596547
3.2127171904479446
-0.011873919235880737
8.99779131597862
1.867773762504476
0.1015920693827459
-0.5417130013625148
1.9810485599979137
1.2600207024476198
-0.6996614498756031
-0.09884629941542972
0.809348682236518
-2.1683845236085455
6.95443079048341
0.056746709160180354
-1.0496055094550547
-0.1377513089899407
0.8406799265726763
-0.4808130587445091
1.7903911392691152
1.0847326749247737
-0.7566997344952153
-0.025961919835766425
0.6940108473570201
-2.232341674635668
6.7847714152637995
0.0540301209368287
-1.0188355853013213
-0.03036101898506593
0.800220596520355
0.5055889746655614
-1.839181729557749
-1.0974657161922639
0.747653456750236
0.027858902885775402
-0.7267083454564439
-2.225964401939032
6.831503888416296
-0.05109475342262864
1.0356520597437218
0.0768879659369451
0.8132094106045344
-65.00425924148968
262.3415385009814
246.3111122623939
-9.00658184110297
-2.6983904777664964
-2.2369891722246087
11.644753134823606
-28.250831245783623
-9.01841329363802
239.6314741932613
204.53529368568118
41.23932583213666
-0.6534817007838154
-2.312888564634362
-1.6040989329567341
-0.5298973073818852
0.180997342442498
-0.6357154352188261
2.1080948267923367
7.280740697551826
0.053721303645930495
1.113641640952331
0.2198769650615893
-0.9005690629173946
-8102.522118925431
3288.5220273943455
1760.601530887285
3534.0967165337524
1881.7832691263984
1273.0003725170875
10842.226181184653
740.4662207890437
-22860.335343421346
9750.044218884399
5108.116553617744
-1.4464363524307536E-8
-0.46706268011447905
-1.763105515803515
-1.0019754101424319
-0.7702682666459747
0.012995688668122904
-0.7030788937295007
2.2600119190049166
6.771376978153006
0.0532953151383238
1.0078323211769575
0.02335282095081239
-0.7897491953023538
-79.86348833046085
-238.11146928994648
-214.19552081797798
-17.949817494075084
-64.34199308956612
-12.922308768316528
42.942689179642024
-117.58514408709132
-1154.126702602086
-5058.936824040198
-592.6249646652211
-0.03999999308832671
0.5010106955951248
1.8095220505857537
1.1220979046996522
0.7768333048193883
-0.040062319008166494
0.8406254224295525
2.2131661975960757
6.815210434286968
-0.052281850216420095
-1.0344222625281203
-0.093084417342208
-0.8154567429871894
1065.2268079434436
5341.5790450062095
4407.753271002919
-11729.940758128872
-45078.65641518558
-37593.53904821592
-215297.21718411514
-673711.9240253234
72856.20981805754
185477.39908524454
159207.66570034967
-4146.294690706294
0.5430348465858211
-1.9097445077139257
-1.290807852900879
0.6841774993932833
0.04992285520778077
-0.6359427007978563
-2.202905395489006
6.942887763485414
-0.05160447277104454
1.0573949831216558
0.10325389316256821
0.8321327520826909
-0.5733935628911948
-2.1148439199948608
-1.2888104806604463
-0.6806458348540592
0.10715175720727217
-0.8350682676372495
2.1447605559528076
7.015297621171386
0.0644297005577487
1.0411144893251099
0.30192381394793477
-0.8571084519756568
0.5289989033398774
-1.9182829975932443
-1.1695468506394766
0.7522168924703686
0.06623349777429517
-0.8827577686365706
-2.183154504040197
6.881411506775271
-0.05464543011126316
1.0432846428038693
0.1662528869650964
0.8320488437497282
0.5451142437778935
1.9974505324059386
1.1434576311001123
0.6864868893721758
-0.07618420502363057
0.7169677532145015
2.1832661935527056
6.930495552967675
-0.04746429768716637
-1.0713629177127029
-0.05279146793605565
-0.8361201042475261
8.133647472774534
-1.1730076575522193
-2.7964652786735207
16.897003687251026
-69.9784886990533
-55.75966935789915
61.315855662699896
-27.939901498579676
9.78915087596114
-41.63254744581803
-32.60907599262828
-0.1534791730173801
0.6482668949097644
2.5122985017324746
1.1186634369506478
0.6080883875788228
-0.14012959089133625
0.7878343936887612
2.047238635011697
7.01895771308179
-0.05821322887739753
-1.0922527301972085
-0.37292349525111995
-0.8956649924252815
0.5714244499933439
-2.088970823130536
-1.2813307304281034
0.7082703493429529
0.03483061602620214
-0.5958689070485378
-2.0521036530557195
6.675455239453055
-0.06257210658378601
1.0513900580013358
0.2905526299942445
0.8577594568173404
0.13151173763768553
-0.9001496104923619
-1.1741173157656397
-1.1624596018285533
1.4247249726755664
0.37331347433880907
-2.0466342992790927
4.242547611754425
0.04515629560794503
0.785397455465621
-1.5860671391832537
0.4689415605302162
-33.67985751284324
-89.23027740738128
-89.46674299953371
329.7412765795124
936.2128172054364
549.1765457157404
18.110698177931187
-8.566756220297572
283.5073284292335
826.4449904690138
485.8515801952911
-30.18155548603275
0.5695969609043573
2.1174562126346035
1.1515088904081283
0.7213299878936155
-0.11363257860099832
0.9998843418755313
2.1352420196699318
6.96543096460172
-0.056819734954008265
-1.058040284099974
-0.268494106124813
-0.8567290435241643
-1.7661187571235755
6.822206058025309
1.9251363999024187
1.3159548340081233
-0.8013858253701113
-0.5616806351879959
-0.12187574141368618
1.5185817052270976
3.8158944759550186
2.583795555574523
1.0405938441478757
4.366566144438816
-0.563188895971988
-2.014302463229767
-1.5058665433128362
-0.8724734128019741
0.023564722543401598
-1.152091282097894
2.0698285845169795
6.762250334987914
0.10690238873119415
0.932738452047345
0.9369527799688291
-0.8625354472116844
-0.4756865649446799
-1.418598632091789
-1.0094131850682615
-1.1289968702611075
-0.16682802897982452
-0.6650036433248747
1.6293609273124015
4.8931387272517295
0.0995117600032893
0.9507253783755475
0.28365765573402285
-0.7989720631411305
0.5211275910553624
-1.8975685886841354
-1.1193526629438497
0.7182318662603533
0.04719446920677653
-0.7135775212007263
-2.2170274019986644
6.889183462537126
-0.04915779474217871
1.0506850725558954
0.058302734906336015
0.8213894936038821
-0.4169084192645554
1.5190927601357356
0.99379332785326
-0.8455364618880596
0.020139086355901413
0.7764939401980294
-2.300152960270249
6.636222203226956
0.05096077394613326
-0.9907850265713439
0.06635917376805228
0.7621855875250562
-79.0433806587157
91.95011267897529
35.10239949026026
-829.3441799319554
2235.3387496268306
2204.7829218975207
130.29823956340556
-58.37407568428374
-3476.6788830172527
5364.515722094344
2140.0430005545472
23108.829605660012
-0.4985825280243739
1.851444677415021
1.1300769038954785
-0.7695193726885453
-0.0510205821421106
0.8489573759278016
-2.2138428918943998
6.849767042632644
0.06040010125702467
-1.0118251610482965
-0.1596670928456785
0.8139690760240149
0.7802028233284227
-1.004641596127546
-1.5287934071734262
4.98691020449187
-8.582091130902228
-8.623968188635782
4.159479557775856
-3.552077879986487
3.910474122663431
0.063324176066655
4.979643132430189
-0.40509111613010007
-0.5149252247077102
-1.9037912970534432
-1.15635518087848
-0.703668642270608
0.057898505129801006
-0.6800399772686393
2.220251156136421
6.91402926287191
0.053896733914362345
1.0362024202785243
0.06453058375782306
-0.8183571375583523
-334.0062969483956
2221.368340026788
2094.728955420709
-28.978206428552923
68.49380472790094
57.77698739577631
463.5733119660788
-462.1742743865418
-1784.5307793347465
676639.0854029158
386484.06338977965
-13965.397026974371
0.40898666652569354
-1.4152256868704542
-0.904297405657162
1.2367575622245857
-0.14625735512693536
-1.1181066632329981
-1.9997419279644801
5.677137513424043
-0.1004160806067571
0.8888024865437868
0.504738026195324
0.7759244170626457
564894.1929316465
-118556.73427835507
-57367.601123354274
3774999.6960875937
-1333930.3048964464
-1272802.0911245362
1.0820968609449172E7
-9494164.220976617
239997.19441354697
-117439.55444593665
-92930.02871350152
-1.5017112074388518E-11
0.15715465973400164
0.07411747452964625
0.07676511283520267
1.3067287749191856
-0.6654154868744252
-0.49841758177295126
-0.31440113658686275
-3.985829912342857
-0.8965121490009194
0.07099040157939314
0.041511253716828095
0.6725398078415634
-20.965746380833004
6.876267505457069
2.175141767542045
-2.188966072249214
0.7335618743438382
1.656868733173902
43.70937590025736
56.75802433559098
-12.416249940216185
6.622560767749897
3.684268966531571
-0.802593493933108
0.4249473919507568
-1.4338093339236515
-1.0097200237562458
1.4480342757438518
-0.24824974177272896
-1.1404276451124482
-1.9371113268896032
5.400356711179269
-0.12968953302552116
0.8007189745305516
1.048125233971301
0.7851373252954623
0.4669433392305375
-1.6716302425631373
-1.064455040538973
0.8076637307913253
-0.034668818403724516
-0.6849944067165934
-2.2778574531946627
6.716145142170302
-0.056251248749566655
0.9921821452204299
0.12871397504981374
0.787918139986496
-4.9169228090012345
3.2976624850111333
2.9927328939339275
-0.029557408845971713
0.0400443716360913
0.0832210460291159
3.695355983311627
-3.7441934528176604
1.5948762847525004
-2.3084493159535033
-1.7611682074065318
0.0019363325324607361
2.333328751973853
3.8548942999710047
2.962759549569785
0.8222605256245276
0.752129812366501
0.5586495314070059
6.283709843327025
-5.995403141332046
-0.899339641751654
-6.485479813026176
-1.3393526188536302
-0.9945536803290828
0.5414443303850293
1.9955822664588883
1.1258455227027384
0.7336911734475319
-0.06735706096661916
0.8614706950460296
2.1841386831680927
6.918162545603239
-0.05592047051613404
-1.040878349918728
-0.21210188587498166
-0.8357974050687909
-0.5297405144400442
1.9844354721931339
1.1965197577629956
-0.7847275737067979
-0.06315092063387279
0.9104597563299913
-2.0963281423145377
6.712444253937626
0.06924346163779148
-1.0130425355768862
-0.31813647154346814
0.8405835765499994
0.5767397243634026
2.124568530938235
1.1919601806061555
0.6881973882464805
-0.0971564688561392
0.8556320057835067
2.1511841465673007
6.998073210018706
-0.05652226236863912
-1.0588200856985561
-0.26029608445912866
-0.8551782463142334
-0.4299283043773505
1.5701843987346524
1.003414035081413
-0.7992968461110166
0.03629179603825532
0.6414799722751062
-2.321947668463964
6.694097570428827
0.05241668015819911
-0.9829855655153125
0.011514491282352745
0.7622655127320646
28159.616610801433
93928.56456850107
64792.90263282863
145716.542570976
59097.905697624075
81123.01010315871
-58519.757266785244
79544.38072152725
-552750.850405617
586883.2641165868
278432.35531480954
0.3763190632453764
-4.164914315308842
9.600383096400394
9.772727629618794
0.7358303710340971
1.75428295244591
2.27666338013937
-0.12903024076434183
0.835123597224533
4.939826712820468
-0.4914926428482313
-0.3523072212095136
7.083798488091681
-1.5859841053394093
-8.674851120381533
-0.33255301258709075
0.3624555581740815
-14.758517621390594
-15.173449861006482
0.8787354342459595
-3.725813644447908
1.316520541203356
9.511374305112493
1.5305074331375157
-0.3953619131902282
0.5056799790083416
-1.8134723638665342
-1.1473827864165502
0.7476700693411517
0.002067465643224376
-0.6620330922884764
-2.245122233817498
6.839113899373191
-0.055650356730528865
1.0172453083185697
0.15301658609665933
0.8094414466496256
-0.20636650748854077
0.011589186893562057
1.5668781955659656
-1.9109084092573494
0.3792807101638618
2.203154675537573
-2.345959874903146
5.882072795843863
0.06325604474501442
-0.9334427938787965
0.22660035572471132
0.6929772537344733
0.5047662744533052
-1.3667686931040546
-1.1485187143635345
0.02504928150958854
0.45347637016284387
0.13619479802841705
-2.0433395852624656
5.940416942517821
-0.045090564157542944
1.2329617614959982
-1.1587517796568265
0.705437171369175
0.5141399865534471
1.8216571886483084
1.212538796361127
0.7463156130941234
-0.052647824891043554
0.797706864237518
2.2049488258392125
6.86229304322346
-0.05067760576880994
-1.0489074442326998
-0.06970839225948208
-0.8225552425726673
0.4947406450314074
1.827967538810803
1.0243173965413077
0.7752501372304834
-0.02132684776465607
0.7840731029493431
2.2345321061579217
6.802006846827925
-0.052362446790150494
-1.0238377515070973
-0.09866856207520508
-0.8077642809356704
0.5700694685920291
2.1416280144919084
1.1207802570218834
0.7287976804524112
-0.11422627727544002
1.0099033661892485
2.115087880636258
6.92016433966014
-0.05722371766556206
-1.059153770018843
-0.2734924171429189
-0.8589960581501327
5.032288960594651
-102.625784658981
-91.72446649426591
-13.33035600979161
-38.46705300845211
-31.004721718034375
1.0140345765800394
-82.79495286167167
-14.998425435567853
-173.2830049582206
-123.21506159216393
2.0879218424706965
-0.5212458358924235
1.9788883074013663
1.0770045830352217
-0.7174257022086861
-0.04911708389490288
0.7153112771477735
-2.2124976875561213
6.90125370049074
0.059722888314744954
-1.0180672776087583
-0.17627297186974245
0.82052267667591
-27791.451738536514
62128.7631962085
24929.109406036103
103.28065376965893
-3936.3059003270964
-3936.357862508455
-65.32782065570738
-6166.823955704215
-3244.980760116257
116249.52495243102
49103.18792010628
0.011201807817142247
4.838096975298312
-10.170474507051658
-9.316088275763335
-1.3336554568845538
1.0323511674699337
1.3672813780382518
4.612382929408093
1.5195878148350082
17.025606006601326
-19.208246574919492
-4.787742383443183
-0.18911819611289396
0.49094425826765997
1.6737793831979388
1.1653615130267538
1.008761693639475
0.08119546890030482
0.8654080533889942
1.9106421727740766
5.853139605819288
-0.09458361964468978
-0.9548996005566726
-0.49879408113073004
-0.8218980846296107
-0.5242947344373161
1.9061376517267108
1.254071911238024
-0.7315390169901915
-0.10018371702012917
0.8868367420132471
-2.1704093515884586
6.91093318083292
0.05550505774650224
-1.0479879113916752
-0.10050301648187897
0.8346083688481959
0.5452999604343637
-1.974711988047207
-1.2021441729297724
0.7225284770366883
0.09180598559146971
-0.883707563880684
-2.165969457458826
6.929173556641683
-0.0517793688919605
1.0628355547030186
0.13470309354853627
0.8419931324969372
-0.5412901434329772
2.0005912700483814
1.2150982771052088
-0.6935499245316191
-0.08146191809437249
0.7450097410785809
-2.180516574631729
6.949935532199164
0.05816841040142091
-1.0405764680709617
-0.16061919500090638
0.836399506755617
-942893.401632853
-1526021.0365447255
-1526010.6590416331
789.7402652343377
-773.8202269623133
-373.8149326193408
30458.190988986415
-388959.4346641587
4514.633002489762
-2437.4444340355235
-359.75352676384955
-0.018181818480691583
-0.5206219517958725
1.929602395798768
1.1652898480549818
-0.7177573392452994
-0.0954903943513797
0.8306100959653216
-2.1868532550620348
6.9163339691057155
0.05184159076095457
-1.0513667722923818
-0.04832721032696334
0.829206973219841
59769.79142850729
93012.9029040423
52174.67472733079
164627.99180915838
-144783.2741654404
-71827.61225758391
-12564.259426384515
-57206.3009268422
25680.039537689077
402877.9702643381
217504.0123675138
7388.626355607801
0.46142294450720966
1.4038846642128588
1.4864054164120708
1.2489239953975484
0.185638905561586
1.0653369165731135
1.9792330873950585
5.8003720903308436
-0.12464599546379425
-0.8432251844812595
-1.0161931657518095
-0.8087087178256285
194.38974066229466
-564.1319898546556
-564.5039510616668
5.656442107295968
15.515241073394218
15.455964089837776
-4.291977349329825
-88.4578245078265
5.472858730838885
51.93881578793936
11.005186742148352
45.50265207327925
-0.707156521168286
2.749379417229543
1.6067822057460346
-0.6487367385730543
-0.12568632748792827
0.68891478757763
-1.7923081005160568
6.647814008924528
0.09616489229956221
-1.074631896141865
-0.8403528937566251
0.9676332634952776
-0.5454260683401211
2.03652867596115
1.1867722485603593
-0.7026487675803574
-0.0851131091235684
0.7979678714552491
-2.1731533281772335
6.952331952416056
0.06075901489081461
-1.0344989924711345
-0.21410923448052235
0.8395056012366597
97.01840823628712
-107.40406473387782
-54.0190516827374
0.01864887259578111
-1.32130522981232
-0.8540096275526269
106.46859826807115
-75.76262543614698
12.876545051314503
-19.766817320967753
-15.70568359050659
-0.039471524868542524
-0.7598038917588986
-1.3181537334262579
-2.759020909935143
-2.9011057873849766
-1.8922917355078865
-3.5887678874512012
0.31233458611585513
2.667651127644879
0.154246353873616
2.5148620147571434
1.7389338786451765
-2.5249370826929596
-0.46221404374350206
1.6998373564441203
1.0793119722501718
-0.7853652898066213
-0.003275365011159107
0.7216884544765818
-2.268499099015378
6.769007469626789
0.0565900146700456
-0.9976131963150408
-0.06361046331321905
0.7871769109876566
-721.6652919961739
1146.9101597853346
999.6759577645214
-26.59892106606503
45.460261899182925
44.16756944318072
240.1696514379336
-181.94676637653268
-27.936396510178593
45.46714554787315
27.605370327874457
19692.7301625609
-0.48563565791850527
1.7912232465624558
1.124315341209121
-0.759811987352567
-0.046910833154565186
0.7770025970370432
-2.2243462467502484
6.819799538250251
0.053681609022584294
-1.0256751070770267
-0.033255205261092415
0.8062965405278727
167.71224337241838
1222.432021928321
1220.947145016007
94.58080236227084
151.77203077111284
151.48892351078916
-977.5092210226152
-11641.649658284046
1.4151084726444294
108.7097069009138
1.5024755666233212
-382.0594807810326
0.43804636444966405
-0.6109295042725734
0.5538440795309304
-0.8058339575516699
-2.472043202873464
-0.9025674549562991
3.6045350614270486
-1.4695912393777095
4.759287325639645
-0.48846352633673945
4.463638962832836
-0.2971745024988014
0.40384885852194413
1.2620284274859184
1.038438729440371
1.426525366894518
0.26841329301226735
0.9433350343293908
1.8834021644238286
5.177992287511274
-0.12120961105271452
-0.8312577100130089
-0.7682938606867377
-0.7732853163092956
-0.6011018809698678
-2.2483260199818607
-1.2804302079922911
-0.662379823302015
0.12597380266264954
-0.8925027969604843
2.1212314731344106
7.073260974887788
0.06852122023782839
1.0413177114897914
0.41492687558446373
-0.872805579670659
0.5840413510125206
2.094474966817288
1.329526644681945
0.690193885701904
-0.09759540234392296
0.8591640743494239
2.133658612608285
6.9961991404774
-0.059832836096192506
-1.0579289152686604
-0.30968232246009786
-0.8617241157260189
-0.594543703124921
-2.2201563697763427
-1.2229534512845426
-0.6067472474291571
0.1331798758618027
-0.7334610403711997
2.1784245235276827
7.1719661263189005
0.0546006865537252
1.0689449842631713
0.1932556213769283
-0.8613980679159876
-0.2843575064037006
-0.9331212523074515
-0.6907606493655143
-0.7681512139825467
-0.24474947783465018
-0.3475859091333431
2.598804509706035
6.254599324674033
0.008621824215482547
0.869678825911559
-0.04472093642196817
-0.641355088384071
-4.869039897868698
-5.237781978095082
-5.887009802646314
-2.8076504765749544
3.3512008033604324
1.1844063372510711
-0.8595897225004381
-4.875449625612513
3.614423130662676
2.119253079923108
-0.3137105886133476
0.3632183195111485
-0.5558139285975042
-2.08766968419118
-1.1728332413096312
-0.6839909690706883
0.13034755739043358
-0.8764696704833698
2.1496917255410395
6.988171732743651
0.0531240490787973
1.0650207114615997
0.11993541666680786
-0.8504887319516174
0.4980946365652792
0.34028107196754603
0.07286331199641366
-1.840920069107878
2.3674338358234026
1.2500229162338872
-5.21386418015638
-1.9822162304049684
5.089507097691127
0.43137944696330843
-5.7636594934206435
0.32202425245962113
0.5398520050302761
-1.9709560326190847
-1.1530043904301106
0.7294954872908788
0.07543048033276185
-0.871483145838009
-2.1885592121000097
6.9356185993183335
-0.053837821896548704
1.047948713683966
0.17376878769076817
0.8356481924474485
-0.39898261697927084
1.454872411657004
0.9025371006099827
-0.8302047541506771
0.10368264215361918
0.5311780765506484
-2.3805609181995915
6.560932797254103
0.055255090302741346
-0.9388813894823806
-0.04606810297351866
0.733059227069082
7.288255377937445
-4.879976744871929
-2.7666151046760823
1.0611412293978046
-5.261854188105826
-1.922282720546903
3.6300012486929027
-2.1194930258857436
-3.3839144007567503
-0.6931527740189833
0.05558661552420437
0.45819919607659915
0.5550296727134306
-2.051283825613058
-1.1514915000089812
0.7352117752433761
0.08383564994756522
-0.9274165182770654
-2.152495379690457
6.918289721421939
-0.05821583157781127
1.0444462281926845
0.2669015969882438
0.8465184276784042
-114917.49823206665
24557.243342504607
12199.941476992039
-6184.6595721396225
6059.000246653304
3036.666414303918
190307.73291055477
-146924.13250141343
119099.97581218107
-178772.10172904262
-75729.0259344773
-0.0400000000004225
0.525856283768968
-1.8774664566420833
-1.2155665893824728
0.7383938396908813
0.05357030328891041
-0.7923329123661066
-2.1948665911147036
6.879726057723068
-0.05339881942745786
1.0453592344200933
0.12955304571849838
0.8281564301599145
-0.5112933170066247
1.8585843051875868
1.22495103820702
-0.7419575059627698
-0.0851279920210923
0.8673774832776563
-2.193888352268635
6.899638868299534
0.05518206689192915
-1.0400395012476882
-0.081995973424567
0.8252219058568918
-0.6052801680074121
-2.343069676945864
-1.1411272252507951
-0.6441495721938376
0.12058326221277893
-0.7910110562849239
2.097810669004389
7.00314730896047
0.0644997655238898
1.0516311603444364
0.3572977292116968
-0.8735363503340101
14.236105646564518
-2.817822281839565
7.867636328305342
2.033476888684312
10.345653396290972
1.1263508504327187
40.290378989850666
-27.4622368525719
-31.75321465206573
-107.17406477552598
-5.247807787231773
-5.657197347881832
0.4978498260912372
-1.7977066909123471
-1.1104918841537434
0.7538360964348002
0.026348468175433827
-0.7193374735218385
-2.226439439582613
6.807121179692675
-0.04939243592773238
1.0399694989879262
0.0300611043685559
0.8102890824936677
-55.961783827981016
339.6204874697091
274.88730985688693
-9.914933458756497
1.5051322418767294
0.36076905085668487
10.708616336880413
-329.8590326457019
78.48719807132251
1366.9820304432924
430.76171225368006
108.18362900749376
10721.644814099333
-727.1895369308844
1504.9289172996105
2166.8903954543243
-371.50953512442044
197.4487756625938
16790.352212500635
-10186.014884113745
201.75848292052947
-240.46788823841783
-136.94200122004577
-13930.354098527543
-0.46222454611036856
-1.676418208643424
-1.1305679122763332
-0.7940190103597741
0.00238522780914397
-0.735865591091763
2.2605480207818087
6.758136041379595
0.058312709453667934
0.9961649352092082
0.07984522572022823
-0.7887257533516945
-0.5063380968013493
-1.9232272902785996
-1.0466707983637045
-0.7335381148822471
0.07397484230550377
-0.8126612710619829
2.2105400572037555
6.88341865249341
0.05232488565028968
1.036259914265001
0.053377511080770025
-0.8176909842358474
-0.5188026537172069
1.8756400069062638
1.3321386626793648
-0.9122383106504669
-0.04848094443124473
1.2565767362284945
-2.079397225151155
6.6579150917767365
0.09027205358903723
-0.9598635389199072
-0.6223977988849755
0.8430129865973252
0.9514584649891137
0.12814216375667298
-0.9195025334915996
-2.4037936571040586
3.021039265719344
1.1902823464557601
-13.179187160364872
-3.6482417317962805
4.482697527788477
0.680549565713354
-3.50201959634594
0.2348945114533678
-0.43205467119329255
-1.5171769013188776
-1.1445868358645177
-0.8249215189884098
-0.04827500031703214
-0.6469421057459661
2.3009494129578605
6.658262497044726
0.059658855501474435
0.9729103605698077
0.06143903791900183
-0.7660906722909216
-0.5266376858559435
1.939905920466211
1.2217702327140076
-0.7375209068972302
-0.07967875298973531
0.8423080603489956
-2.1622942528150313
6.870224438324913
0.060102365623523384
-1.0335191034175037
-0.1723532392214975
0.8338045975075682
-0.4272030947579863
-1.5700708902907083
-0.978606227929169
-0.8106379377692813
-0.05685087560045512
-0.605957568130263
2.326235957553778
6.653706290287154
0.056065702608918876
0.9668319401875696
0.04512478157597513
-0.7577036482910889
-516478.9275020627
163939.5358095565
94955.57510474965
5285670.731885677
-2059452.16868345
-1733451.896076172
-486.10066477745545
127350.96132045203
-604588.271980553
544267.523707065
236319.04433619545
0.05964912313477639
0.5452522558197352
-2.030638462292637
-1.0847207003422736
0.716878676548008
0.09518624129821314
-0.8891127509890951
-2.1734755181437047
6.937903733622873
-0.049898801691323935
1.0637114121181945
0.11853966616546727
0.8399649525585395
-66.57405780999784
747.0213070669785
739.9058273049257
-231.87273727512002
-34.460959039589945
5.7229921625703275
221.35783466220192
-296.8182416805346
5.4115542652266075
19.71118492442245
4.5185655885759255
129.15464161066487
13.429553962476179
-12.698931693082335
-7.912393287721897
