9.69193056332565
-6.006874523963464
6.549416388980241
0.23649318529731253
-6.066344033573347
-5.167151843098788
-7.968678431042161
4.770141644147086
7.894238049426113
-1.7964326089870446
3.396561915254754
0.07941098157522837
5.681629884403264
-8.035732627664505
-3.051001373996954
7.17957633448325
-8.14431600916428
5.9269897534248726
-2.5071538137371427
-5.1895380459563505
8.587992508746337
7.625681357507063
5.504926291210215
-5.482255843554849
-2.5788865457366894
-1.949158311836922
5.458833443303055
6.641745363281481
-1.9104000823914797
-7.06401655034114
1.39969080597938
4.3980825432734525
6.506729130785665
-0.3492420703436803
-0.8201668366561685
-9.088673853969587
-6.589187234108005
-3.978016415537961
-4.141584324398606
-6.706589963888625
-3.9883720579824127
4.030125046182521
6.861215428008862
-5.561597146829984
7.200483590105889
9.07287190087489
1.2881975392992924
5.641077806705306
-6.349272171261751
6.169111532863957
8.730582285059079
7.717407305685019
5.9131865356945
-1.3734224286140848
-6.413998433453665
5.514259850618816
-9.622162589649031
-4.690813695722701
-8.461399057279445
-1.8758378236911841
9.93184562144744
4.140253424438455
-0.8698354826425806
-5.630928026209549
3.8352145601035676
9.720719167909577
-0.9524738114241831
-4.445419839484619
-8.928408130328808
4.731300270771406
-6.353034681323985
-7.4375046535457265
1.67132919603195
-10.064590736090006
7.639999339381892
-6.168758997411319
10.06913049160083
-3.2702871311319726
2.95437080829234
5.1422007450207206
9.281746972791025
-3.2436231570793366
7.613290671890139
9.247495817120045
-2.3389714876149004
8.197969636564997
-1.9604184330442318
0.774324151774618
7.9911585160098975
7.823854455942761
8.415895425597359
-4.817478940358252
9.975501427386785
6.178490814139234
9.7216550478456
3.6858289967144295
-2.0990564294931113
-1.9463208961135916
-9.379670299942589
-5.093097059732245
-2.398701371393696
2.420306990595083
-4.859318426416242
6.258378052366085
-6.847144752368136
-7.585194782458358
-0.02794154873313775
-3.831086633682061
-6.1093571131399615
-3.975178999814631
1.3113304134362573
1.849986094178157
-4.476673346984629
-6.7769698939617635
0.6022061908887767
-3.7013016377373518
-6.153390293047912
1.8369191887602132
2.0804228319467875
-9.39275345881214
5.921544942525054
2.1113953207374148
9.821165230736266
1.3121551229763875
1.757242584512634
0.5234422833527311
4.5090508106052996
5.886318951492451
-8.234653671008584
-6.13800423909053
-4.244670300644059
7.292247007129166
1.9112442588782037
0.08253721231191155
0.2207474630346064
8.255238272162325
-0.32072939107829895
-8.67383460592858
9.970575432634783
-4.073360738610985
-7.54089921168836
3.2841097274035778
-2.1363059246885987
1.730580186723553
2.1511593169999927
-10.061753315642214
-7.198504403863752
2.387817060655462
9.580829202598613
6.214036409804251
-3.3046384288277464
7.002496254113353
-4.072126915087239
9.811842611886492
8.405515959813169
-5.786335443672938
-1.8591413713713218
8.20080705701279
3.4924963095150954
9.3309002098414
7.502857227007681
-2.9832404794770593
2.156886193201736
-2.9571834359900837
-3.3783724510425506
-1.0574619026999073
-9.77753814058741
8.943416212277493
-10.119657801511277
-6.0040371082401345
-8.289087354265401
8.793069243364094
-6.554645327300026
4.317171697837434
6.06373081291826
6.630437153239718
-5.459635833727687
-9.032385325826187
4.188787207902248
5.33699819713829
6.161460000646844
-8.032895211941174
2.4019133591134443
-4.555266093254939
-8.63261730289096
-4.880105186719411
-8.766163046132766
-3.3292425368637173
-4.7658813744074635
0.389728645392385
6.297151583857709
-0.22466862326732373
-7.308932408473372
6.163436696692833
-2.175247190610647
-9.395744805724078
6.889789118423397
-0.05065102940602405
6.104020040786507
1.793668837158016
-3.205833304421938
9.781091728506652
-10.045849637849972
7.900406221538735
8.972185388960284
4.134578588267329
8.515753527492663
-2.4526616612626064
4.811817138107999
-9.247927918687335
-8.725873818264517
-8.166010852945421
-2.5120788451017138
-1.0882127813552818
-7.93748526189451
2.3387393916841934
0.7116689635447934
-10.070265572261132
-3.2658301362878337
-2.9904926277399118
-9.245685411475243
-1.9475157413728397
-4.819029198547995
1.421609736284382
-4.593342223062386
-9.063136209206025
6.028840091319614
-1.267678618730544
-3.298631724826521
8.192294800393872
7.425170577091014
3.9525905214460257
8.967761094014332
9.146625855150821
0.642495418757024
-8.538069953819054
-3.8995877684666262
0.3589777572880826
8.137204462550612
-6.829345439136158
-3.058716666704732
-1.9519957322847166
0.005918705468191346
-1.9148306900608372
-1.4220987933892637
3.7430783898031432
7.658700043099467
2.5377870389052837
-0.43081546714104113
6.886710641770997
-1.6123921293036632
5.945157411547858
-7.069017350351583
-3.980853835985756
-9.594499057509005
5.0282524591251
-3.5000707642557325
-5.454198499478166
-7.171193820676022
-7.421892651198153
0.26293899217918304
-3.9825938680909383
0.4959722466517976
0.38349058641778055
4.961884705313434
2.10572048456629
-1.0846642402089957
4.490421492647795
2.733845162517067
1.8462136778363276
-3.2643492009594985
2.1657279380316496
-1.8183243857814895
8.33390118986329
-5.82912088593905
-3.2229274287214205
0.9515840216665827
0.07686237614078684
9.606336473169852
-8.857913839246773
0.6558731822016696
-7.351063206720518
2.197175421069984
-7.793951752071788
-1.1245699264612654
-2.53540332472311
-3.7207565099835884
-8.784594249127034
1.1914990797883718
-10.067428156537801
2.187084596822565
5.566083430326869
-9.733986700477459
7.536807799563384
9.213380045412425
3.281905240652551
2.3442023701398558
3.9923295597598045
6.821065379242645
3.9899086015569813
-2.818801603858479
8.195132216117202
-7.41333316615463
-7.782251901567699
8.479459805012114
-1.6604690849934625
-5.616513813638598
-6.677774449450885
3.037956834184544
-6.876974954826594
8.929429755198106
-1.571758223573096
9.212100447082072
-6.009711944411259
1.0965016558698424
-8.320082872769468
-5.57804274457113
5.639943097045496
-1.7096691986465393
2.9098461397789173
0.9566934514994073
5.439520103127633
2.604336622607258
-5.178176238712298
5.201799763435223
-8.038570048112298
-8.503916111831817
-1.3769997188590677
-7.656014720162063
-3.55733378751135
3.7518554233829433
-7.049833550324519
1.6504479155440954
-5.429784411458766
4.712701003287184
9.551575421962594
5.441714826281476
2.1085579050140844
4.368250492901403
-7.244420935090394
2.2455438735148503
-8.960881262307955
-9.52335843335512
4.0260234423998185
5.119220212145217
1.097948473024148
-5.036895593291555
2.034659791566105
1.4314141379101613
0.07969979658858123
-5.2321672700757915
-0.3013377811799928
0.1675718979239173
2.1332603342157057
-4.061833811325639
-5.9336562477036185
5.812974671465441
-9.771356036837789
-2.9285312173360936
-3.5270070335639727
-6.829102292229794
6.166274112416163
3.2776675472242163
-0.8391687523817623
6.401487824696716
9.4336725115302
-0.1549891916091155
3.6539643415261844
3.731711293504768
2.545139011667512
-9.253624349926941
-7.13342504397871
9.452015505203864
4.13741600399066
-6.3227502204774435
6.103914396804175
4.323515853830248
0.2363956269733535
5.306535425695903
-6.305715348577253
4.4254657528249925
-8.324165493469959
-7.145259969247015
7.596326611971719
3.1108195494871493
-10.056078479471088
3.70732506708151
-0.7904493042914815
8.604226624594181
4.89126501059619
4.468761582737052
-9.568331218230817
9.802962280766172
-4.6600628170673275
9.98996654510816
4.72883899217765
-0.899481134159701
8.206481893183916
-5.89309270062015
6.152633840169992
6.526254644278784
-4.306011873960655
9.930286204766535
0.7634075727462535
-9.794701740994109
4.762051158875708
-8.193087560016886
-0.832827832952428
-9.159997564299657
-5.998362267344547
2.61674211667986
5.614802873692687
-7.531247900579995
2.9944003033538378
-6.454287661321913
-9.940390319104452
8.415453362125724
-3.2128722689750346
5.773237788472773
-4.4392458480916295
7.121120237858464
-8.027220371045585
-6.983675646297337
-7.733532458201883
-9.609219880895392
-6.202876581203007
-0.9927630392924303
0.39134847187261984
9.109207821445949
6.209241697519072
7.8816021691527
-10.000912668497243
7.361035295980255
2.119907577356334
5.888490958435884
6.69046481137176
0.2923387175059853
8.684994425080893
6.023441585050012
-8.824213011759085
-7.713438363033437
-7.55444389907852
-1.8679944274260394
2.7735901821867732
3.350734612333403
0.09104946893083067
-3.7119268092657753
-6.657870520522808
-1.7856332628094118
-0.512282459475952
-8.806452274001012
1.5075257792179853
-7.019683898988748
1.8676700674155877
0.24036994852942167
-2.788076642943305
-4.909781817806551
6.177623789482877
4.797908012758697
-7.195701491724576
4.448282673412315
6.788129717838541
-4.899607654284489
-9.196272117357182
-9.100947281673884
-6.107253355710692
-6.084723179336961
-6.394494653358043
-8.920082506177865
4.148765681057373
-4.802509750218499
-0.2526183378141762
2.3703106930969184
-2.409147166718304
0.5619169630205294
1.1354666736198875
-8.407192817629197
3.314860610783416
-3.9763588033815
8.335257007316851
-8.680167443331612
-5.995524851621215
8.069656854514722
-6.120039549321039
-8.01954918958221
-7.812694636790446
7.578121587362972
-8.080094810011818
-4.938420521028076
9.84259349526633
6.565463081120269
0.8183413769203605
7.600950354102044
-8.024382955322254
-1.5307609131869375
0.8230435998648986
-10.097521165173145
3.2814469597332154
-7.251772276412517
2.2516439809652526
-4.244666061707852
-1.0267110145956049
8.673827461800192
-4.743325452934181
-0.6595660760379116
-1.9378086394946727
6.979073904113072
0.28521262866312924
-3.863605238400345
-9.709559344032797
-3.344927656695994
-8.452153910885452
-6.325929439668524
-9.001634437721883
2.3487343292093468
-8.349743463348918
-4.669866759684762
-3.966666743195712
-2.6213438588641242
7.228295777849066
-5.941577213991279
1.3845822477664
2.116596965333489
1.879584880091619
-5.6321749803483
0.4204795287722234
4.457098700440343
6.380008197325974
-4.429951701562973
6.180461205206207
-10.040595730486945
1.3608745663422042
3.959981379685635
-4.018965217581278
9.132801584951467
-7.335976612989015
-2.1634026837471794
6.948212413255138
-5.292497891413931
-1.136907433070516
-8.440252385209824
4.1516031015051675
0.6504049828919005
8.303957720252605
1.8820094040947022
7.075176374217919
-5.697092274099556
2.995762177988056
-1.4696482244269549
-3.9210921013312614
-3.1841335107340054
-6.698574258200594
3.5906496704551922
-10.053241063747757
9.16023980019191
7.766126749050836
8.115925335591966
-5.915829924823631
-1.7902476543830337
-7.7080357091381835
-3.5509116023876275
8.395402951898502
-9.509226643324853
9.986426207740712
-0.4196510179161224
8.209319308907245
-0.4401779627852865
-5.582208582843734
6.0379533600010316
5.178311666975567
3.671276967646449
2.6237030818388867
-2.857157143067403
-2.4739015579634334
-7.400862267369391
4.424759387335098
6.401375058768632
2.114232741185209
-5.017338512509378
9.868731176318706
1.2689412955104178
10.007765824288953
-1.7499584265147865
7.7466144558606205
-1.2971090730818782
6.917461525150835
-3.4524450079965647
-7.741584253663814
2.3910743751217822
0.08537463275970594
5.67366220086947
-3.4796041508514004
-0.8090306800805153
0.8104889397321086
3.711566195514696
-2.2130652342428165
-0.603354613761654
-3.9518429847111
-1.344080632041104
6.9881674022866145
-5.8694420550181725
6.171948953311752
-6.107921462911028
-4.017435117328706
5.4248852514167485
8.110901112322138
7.618410815231219
7.374555354986986
-2.6846179964467907
8.364652073243128
-7.669173769356416
3.381749391871878
-9.879742738665023
4.143090844886248
4.583079250467819
2.925648031857232
3.346913271101351
-1.0863757722347072
-7.21148304854427
-2.58512433511645
-1.9908635324021022
-2.5046524413432714
-5.560809388676489
-2.1799174332582005
-9.639827680543235
-6.00119968779234
-2.83617261643054
-2.941773184374095
-7.0429466115777775
-6.489923237582385
-0.1952784194773628
8.490732657607888
1.4779087641990185
4.0230804431396425
4.981012500549743
-9.696833063654692
6.6412901168904215
-8.03005779149338
7.854828096948308
4.001309964811843
-9.120918591893176
4.604218354216813
5.266246197827656
-1.468947032495549
2.1716632235192432
-6.846224071446756
7.08937687178074
5.032918592295738
-1.6192263085250687
-1.9434834756657975
-3.92675556683219
3.463478998334537
-2.8870026556714485
-8.386787949549202
9.173090812819716
8.118673556734253
0.0903998455585703
5.470270981783007
0.764283743914357
1.426500581881001
-5.6295269968963835
-3.9723415793668364
6.764245146546656
-9.884856328835568
-4.964974635986845
2.70735364697446
-5.6568030462313095
-1.8410061333691827
0.7841543048787943
-5.399033523354464
2.872648119869818
-4.135166238524613
-5.389611938774594
6.174786369035083
-0.6550067203517015
4.539140931289148
4.936583962414532
-2.6961938230976816
1.359401578111133
9.234850859355154
4.25292660620438
1.1286993564039864
-6.8769484719844565
8.639336612159404
-9.399912622421445
4.145928260609579
10.035993988302682
-8.809194395880958
2.8586119820991347
8.397947768701517
6.820926200140615
-0.7248288307482815
4.94668106080014
-9.740605153457949
-4.768584096028995
3.0776697823048615
2.6309894332435717
-10.058915899918881
-1.7455896707533525
-9.347025362358263
9.092527913596399
-4.593058530340033
-9.563647661223369
8.862791758481523
2.8654176828394675
2.575889899771815
9.197741252460665
-0.5287482281098759
-1.3793112504032792
8.203644472736121
8.945411042625494
-2.403942213172326
7.014555938005464
6.501083066183629
-4.102123039193885
-1.0968879316219151
3.5591721421596914
-8.293414614814585
-8.98531285266438
-6.09041504851549
-1.1393961922814901
-1.940646059942467
1.5261591710026725
-8.271363424679187
-3.3753039493981287
1.0975355913870222
2.9140815804240923
9.978969061102422
7.027944443485277
-1.7656817256072062
1.5565090365618517
6.684087802168527
-5.149696875928341
-3.9695041589190425
-8.07425859669899
-1.3282802802177147
-5.453275924989062
-8.099741293169822
8.375606202453575
0.019289370998986078
7.7216989028055005
7.656432240886901
3.664873412517313
1.1224209770384488
6.881205179736675
2.1170701569085395
0.43557622060102147
-1.8661112466950205
0.7806400065082015
-0.7993291158553297
-8.008967658910409
9.606909960228789
5.640435524844829
-0.318491186963842
-2.6602197200735342
-2.4839970381007523
2.8709044913653603
0.0882120484830363
-9.16484154710064
5.076971907215381
-1.2973319738071956
-9.996606000412175
-2.5474430416053897
-0.35276972987464766
6.334189984165053
9.103622784254728
-0.5518553393936091
-8.045663858506366
-3.470291464351352
6.186136046101796
0.8652337404583156
-1.8173918033292036
2.9833788016812024
-5.341736616789339
-3.3852168845642407
-3.615385604252677
-8.579731968974272
-7.52369301569868
-3.7080473108434053
9.37826700278007
-7.480592152722667
4.157277937676292
-8.735184027243344
5.125691350581198
0.9054068260902696
5.752404979734323
2.0763077374652417
6.716353186724394
-7.885977509654049
1.898420950795426
-1.59968293016348
3.816600177649994
4.550309902942349
-10.047566222852168
-0.22534920521887142
4.587860379379428
7.13932275286307
-7.23860132403169
5.983152357181765
-3.98744470512631
-9.967240887614722
-6.076502472330854
-7.924776062754327
0.2101821625107923
0.5400092192954986
8.214994149802834
-9.825766972920531
-8.760474947790676
5.0613507819966
3.8555402724919707
-8.846741501869259
6.344294085850759
-9.273486428294499
3.345611498887718
-5.816411682074402
-5.351484657894822
0.7799242774172879
-1.9292963828757537
3.0463996365371533
5.6635223170585025
-5.328509100682529
-1.5480072023046352
-1.830536882251281
-2.871267402505409
-5.804714126968914
9.873344378646168
4.725410202427367
7.423018192789194
-3.230376406229563
-3.9581544865767926
-6.55401813588897
-7.684813014836066
-7.406481080997926
9.546134394219026
3.630987739778202
7.4604713931961255
-5.110959672373152
-0.9959601312157664
6.833774578382828
1.8613513676591167
8.800525649435453
2.128419833975253
1.9558166908599668
-8.222643981313372
-1.1725651495006637
-3.444871909546987
7.5378323594947245
-3.2433265033790426
-7.192223050333825
-8.97088355906651
0.5086814505164451
-1.7450666474800844
4.790224965788602
0.0995617255497498
-7.644601076841694
-1.279560832127434
-3.2505371298160606
7.649269686976674
-7.292061504280764
7.088412287598027
-6.4984685910136015
0.4512304121520618
2.617045826471906
-7.3067334678856986
5.030140023910391
-10.044728807128838
5.227565527891528
-7.146982048358761
6.651021468585316
2.2457222169045323
-0.2758568799383214
-2.1271491960336775
-3.029696289688016
6.978963296634976
-7.132550770106832
5.467769382798318
1.0198393355390771
8.217831565526165
-4.372852239810133
-0.20389889444835946
4.57304948826992
-6.951554667652313
5.185667737366698
8.204589594943393
-2.335941830367792
-3.8903412179514234
-5.024186394151371
-0.09389744233175981
-7.240677089876414
-5.987012595002296
4.136982582214341
-0.7417298609256648
-9.48445305658886
0.3488575096621807
9.09251235708322
-2.4992082969073115
-4.417205208328465
8.42615383527834
8.942138959062754
-3.700315452746497
9.040440707557241
-8.015870698703337
-5.463435185487319
6.2013532882602735
8.72899344417625
-8.848419374894664
-5.737381501967804
7.832530494069759
-3.72345074900824
-2.443150674583595
-9.240915150786757
-9.261982277876575
9.280355765679031
2.1312572496985833
7.408731423970366
0.33393207675340997
-1.6608664385028797
6.039451631389236
1.2788231223746382
-1.38303099428641
-0.25467845240711917
4.084582205174856
1.3009067384394757
3.5125205728074413
5.270055082032181
0.10239914127308013
-2.1916863437312943
7.277015221214883
-3.7388384188182773
-3.1578252531676094
6.740347744404121
8.94870779669066
0.43907600691310494
-6.784722299962616
3.409271119119401
-2.0491462475981725
-2.9904613481077735
6.188973461825126
6.318148478293179
6.739184254737578
2.4950775174034505
4.142586928871348
-9.644226116959864
-1.7550900951600439
-1.6421873710475676
5.531772753267148
-2.9158220134714457
-5.655564262737373
-7.000762031754624
4.160115353399623
-3.2822692894084815
-6.609151072432528
0.4171055370880532
-5.054689960409961
-4.18270149493038
8.576648695817026
-0.9484329117273433
-5.3375317613192514
-0.807457637515985
9.07418739793752
-0.1797359550698691
-1.9349712190468782
-7.859429839132572
8.841788686729911
-4.351906527402561
-0.22523580309657446
-9.603936889091615
-6.591858411241746
0.6116151582581818
4.053831326519481
3.1409596171323773
-3.092156243061393
-4.190036643441184
-3.9638293227479173
2.8315708742462746
-4.506546645164659
-6.429878502993495
-9.42251268765342
-4.1424122670621335
3.739880379735324
1.305369617578406
-6.815473183342455
5.249323997812303
-8.653823068191471
7.840865412223832
2.122744997804128
-8.95001278480976
-5.044377616366428
-0.195962571496231
-2.1221005150633903
-0.23556765207007413
-6.96391751211538
-0.7758937603822667
5.501021865162846
-1.0757691395030085
8.031177397749834
3.8305647285769813
0.09388688937862506
1.7409879285690875
1.8987055375439734
-2.273934547087164
8.972041081460272
5.225956969959409
3.36782127886169
-0.08213930578650645
-5.3682826446990894
1.0325952411769164
2.469510577344221
4.070479786698771
-10.050403643299962
-5.678263943053735
-3.968715678687353
7.62762404658975
3.5684936161125935
-8.049256886778656
-5.8477402094944795
3.3866329955390784
1.1594502397838249
-8.717001350677357
-5.04740505305227
0.0601791030519201
8.21215672935504
5.0127367703251124
2.974367475223048
5.549652070998817
-5.628783268444252
-2.5877322694736375
4.483998581482592
4.080387454859303
-9.709854270078111
-6.608636979446361
9.682346602898159
-8.200337327088034
-5.992687431173421
-6.768846893455385
2.4365365040212787
-8.507850483308891
1.6716289041457773
1.3191123502428856
-6.219799310368113
1.9991240768986303
2.606640783151653
7.357688373767763
6.0759285924834225
8.080780470345623
-8.02154553487446
3.9221538246479253
9.379619653207216
9.705596026905146
-7.525647980411067
6.780636972272368
4.111939480608957
2.692878536218854
-8.262663731434746
9.466052749723223
0.5142617673533444
8.320695533191873
2.1255824135274586
-3.497098046974896
3.5121984417003533
-0.6842638652229113
7.362223030597297
-6.494576889190161
-5.103622007747212
6.161650832819976
-1.734930846951832
-0.2835438421310497
-7.002653863043146
4.310394844820561
0.09672430510195541
7.19390266640395
-9.836136890194215
-2.76223583608938
-1.8350538586840126
-1.0330522671606777
5.228116783229859
6.855405296864664
7.687183119542275
1.8248205290999473
7.7270977929072835
-3.950121585319394
6.183298625654001
-4.587680997376547
9.917450624408986
3.471680090683419
5.465358323354945
2.8737923525558458
-5.4756811086208454
4.774141914179527
-0.28774030358400354
-4.500272598766435
4.120679782492545
-7.960422268966246
4.154440517228498
6.103319720726763
-3.430884707485584
1.3937081150924857
-3.7319185659263647
8.335316974585329
4.856057682356225
5.467896373499752
9.134373667634568
-2.391908222810975
-1.4409870379130683
-7.720507210844456
-5.989850015450091
-1.3159321556205223
-9.298305918992448
-8.996151772311109
-9.135466031274042
-4.939896886877201
-4.359503805999944
8.936668674825336
-4.629311928963024
8.149913661690794
-8.957902668309558
8.560610591313663
-8.018708114426666
9.375068557758324
-2.355222769806509
9.217294733178466
1.9586755605251551
0.521627739876746
5.972234984977126
9.63042313414556
4.792802037531083
-10.033140438709786
5.771848982916406
0.30009416117370935
-1.9321338033235478
-2.4065151012977095
-2.8930537362838145
-4.840207816404778
9.259087737839648
4.428472354868806
-4.731562906873577
7.549159751460424
-3.182121385595196
3.933184909779872
2.165430972501669
-3.710206522473141
-3.9609919070245874
8.284485612081138
4.050029408177659
-6.91817979199571
0.061810853282803106
9.889996972173824
5.600175884103492
8.242914215505113
6.239992580898911
6.0415492904597965
-3.3962358479039447
-10.051402478189853
2.136932090594172
-1.9768575861648792
-2.8443342929179973
-2.6374690212317766
4.716680241630104
9.052223129214973
2.3375600144499273
-6.6710077376342145
9.90409526675047
2.8853573190100015
-6.263723467698013
6.229715319243803
0.1080739821686689
8.714143131938432
4.09874885626794
-4.715440992098245
-4.48059665237567
-5.777670729836052
-7.622119675653509
-5.977253278313991
-0.9652092478359281
4.993721699689926
8.466028188252414
-2.0308011108961526
6.194648302720715
-3.067440531842066
3.56091788506617
1.5184749346745539
2.8198155296632876
-1.8708261101195287
1.9655009135762938
-8.058516656274662
-8.940132675686671
-1.3313714329009205
4.859610173113214
-6.041101799267468
4.165790194295211
7.6235601815367815
-9.7874174468284
-0.5594970409163793
-6.3774613548935575
3.5906985119099537
-7.994178776527142
-7.364762196954438
0.4819812908074361
0.7769929477790045
-0.7020566472923999
-5.801186736421214
-5.978500338383377
0.2043083099139587
4.6365798227452455
9.342061552760534
8.510409651390344
-9.684515349552575
3.081678216197195
-3.895989900353317
7.009714175290351
-8.972603648799733
-8.218972277688891
-9.811487420068065
-8.007358442084417
-9.396109453063236
-8.711755504424861
7.264089577169601
-0.6868672331665026
-4.222990727523092
-6.878001473906242
-3.2022354363086283
-3.859590334571585
-6.864239272844272
6.510779382986003
2.219414630872487
-1.9207841262568344
-0.8862746357632282
-9.24958647562663
-6.793412972413643
6.613544944147991
-0.31614610780656877
2.7096191153235614
-5.283498818993765
8.45690471865818
7.102086075645387
2.9043613631223373
-1.7908860527743635
-3.9496422299578735
9.80472607761562
-2.3065033264406924
-8.871384948004577
-2.583731940408854
5.14537850949845
-7.250060574779876
-4.589744354949078
-2.4123997912037565
9.210450451600847
-2.657305457283277
-1.550970994652574
6.197485718444045
2.385474201268333
-8.173924537947556
1.0301736456723376
-7.987279410480996
-8.12983534251515
3.8257964226689265
-1.120972058347956
4.115333093279158
-0.5391461402534257
10.11719739340074
-5.561271678299425
4.168627610018542
-7.214943561708863
-1.2308413887616174
-1.0477983299185956
3.1068621860426653
-2.668310725210132
-6.133883267434511
-0.4272175990277319
-6.753971421307241
1.5692182357020352
4.555530572995125
6.469630377365591
-10.036216550509918
1.2948912555911456
-1.7686723552389227
5.186117596854203
-9.884144117723348
1.238533894506391
3.4537373217952934
-2.508480981712869
5.562523636646986
-4.755874892164348
0.9491125531314605
2.4593296937187406
8.226343822145084
-8.305526512110514
5.174410793947015
3.108145625987734
1.2099974788003134
6.700058516535874
-6.505942368308144
-1.8147265176681802
-5.306780877939413
-2.6475105209333507
-4.612554267274153
2.6992447518405296
-1.917946710533504
4.566640097347171
-0.6930104175598482
-7.281714261415859
-4.1935499959962925
-6.575155344926655
4.569914624416194
1.6540457789329408
1.2209520065435016
7.8943113682928825
8.161948583409863
-1.311055936530785
-3.9468048142345435
-5.033777665630025
6.250072731626089
-9.359686237006791
6.900591600527369
-1.1136307228971725
-5.389765065687242
2.347800238253165
-9.648352508042898
10.002675748972807
2.600281763004249
-9.571572361946275
2.1397695063175024
3.4760571516699836
5.712241765148784
-3.1257703102339933
-6.090414698514181
2.7932138968193505
4.197855523542561
0.2665368602924923
2.6681425499113294
3.6775826116574963
-1.0061362521349522
6.709545435487381
0.11091139789199926
-6.124360616031677
-7.6360935714702505
-5.203742285824926
5.003726893285017
8.254738518848832
-5.761824166560876
0.9602913196127165
-8.201161959950605
5.785946987612957
-6.5678030772650295
-6.760846973632836
-5.984175174554503
9.58989731532474
7.814846197141117
-9.972754345591076
9.833181050598403
2.833503124687598
-0.6389127925391425
2.5203393848737776
1.190201123163663
9.734364246985784
1.5572717675410286
9.520270828525284
-8.013033278255541
-0.010520452376920354
-5.533489139477917
8.240692155174033
0.6359041660415582
8.29502774671708
9.692825998437927
3.2140938489184654
-9.679103391422736
-8.448689853414798
-4.004395057589049
1.2597543983853303
-1.926458962427959
8.499314374372016
-6.071320105955222
-5.8168103944092096
7.936316343356051
-8.089546114646904
-1.0109718934127763
1.132830466233329
2.6373916665314914
5.517635490350398
-7.610813072728251
-2.7505462899859845
-3.9553170661289987
-1.1011033933296432
0.8717630432307153
-7.894782374724607
-1.2609605459252575
-2.6280214973418845
9.320766897564294
1.8265849302780175
-8.231912848054908
7.625999871030324
7.1189385879466425
-2.510631231864195
6.191810882272921
-8.52035526967693
-4.995658168276147
2.00677622367677
-6.664508011272934
4.388183127000557
0.10520540920812498
5.295357226879139
-1.7041799635719936
-2.1235967208239512
-0.3979770424498479
-6.520931915511047
4.162952773847417
2.1706454484263817
1.947424976185326
-0.07119575663862708
4.429633585250726
9.849707744305576
-9.854474280895312
5.9891116861993625
7.717934007646577
-0.01523234959295429
-5.959643862855462
5.50997014015397
-10.041891386681044
-9.610938215354118
1.4095940097080206
6.162720179583101
-8.561372723239751
-6.5348661170584075
-0.26685369166550876
3.90784830823869
-0.25698941547970117
-6.340325482183801
-9.566061882719127
1.4996694565071196
8.22066898597396
1.0800624980247306
8.352677163618422
4.084748199267703
2.53276887328391
-1.073341495028925
10.064885099311562
4.601602767558914
9.165124551014406
-4.231961101503876
5.163689777955765
1.739584514628909
-1.923621546704629
-6.339189373598092
2.4852559521115594
-6.305111683411427
-2.8707785967882318
5.942863129313516
0.8493236109553924
8.070375068884498
-4.598561045583186
6.309860787722357
-2.353225852440725
-2.270716169017942
-3.9524796504056683
4.35181134450522
9.428339101297496
-8.383083663726822
8.22336299973543
-8.887030729737505
-9.110356079148044
8.76412952348026
4.823552920910921
8.418225158953353
-7.914892672846338
9.760185886647074
2.134094670146378
-7.429772319275279
8.890508130095727
-2.149167727505096
-4.767643308755048
-4.980186114745448
0.4772645100817587
6.682866145519586
-3.1513705069398217
2.093132031086971
8.770107788370504
5.749885198275759
0.1052365617208745
3.2612283941035685
-4.457827201798842
-4.227139707820493
6.326498287768614
0.48133850728403477
-9.482415180021679
7.37662060483981
6.27074346427875
4.201496407042431
3.208440967964889
5.989800261122012
-10.039053970957713
-4.158023482243717
9.966170067774803
5.674418890580884
0.9229508224209358
7.497543131626476
1.5934418127026602
-9.44602557491511
-7.492942132318842
-5.5481001895363065
-4.3084746624316015
1.979499572750698
8.22350640169729
6.532977235859593
-3.382165259395303
3.5964469149899507
-8.274326066860374
-7.332350727424547
-8.366237877400776
-8.752271115594887
1.9291718388997285
-3.4397358088563816
-9.870141482837216
-6.281016857389256
-5.981337758831171
-5.24860642319644
-3.9199962353215363
9.830362841762751
-0.9739138895458801
-3.4255061077080238
1.2213827118290264
9.457883987524946
-6.045751593675478
-9.764828941447227
6.8148589831040915
10.000100944768864
-8.01019586253221
5.442394285457943
3.023086918588865
7.752390870896281
10.120227706977781
2.0360185095969947
-8.738296978274409
-10.139780038959799
3.376362382267557
-7.656464565491767
1.2531921579740126
-4.566462334032425
-10.101477178289013
-2.373636795056414
4.34426315782588
-3.8743712277264004
-4.817982295717687
3.1558169523580406
1.2497776645905685
0.2593411287903377
9.6580881949873
-2.685638118353901
1.7731174296949774
-8.57676302240374
8.161083199090454
8.317363923046898
-9.004072174068687
-5.952343208041798
6.276159300805974
8.61734156966306
-8.709902025512868
0.9530955833860979
-1.2112163195990993
-0.57727374239844
-3.7885494001595648
3.454139033261275
-6.043760966162472
-3.464219736009137
-9.541903140545994
0.28157272817992973
-6.714847007684503
-7.767232291700925
0.8777185637169347
-1.1281677945745747
-9.186139742725377
-6.902366874989288
-7.394967410574303
-0.5561616503855752
-8.072619069863512
7.226780972645246
-2.598819991360057
-1.7963992521354677
4.379294588839159
-2.3057076696714423
-9.081961126386503
-0.4344133352543505
0.2359742284931931
-4.794002494309362
7.334784250100591
-0.31624659226378593
2.074508878538408
-0.19247089897757605
-8.466241207591382
8.10515934626591
-1.0242528765085197
4.710496949946537
1.9938958663378359
3.0343589660712347
6.763707108251643
5.747819385467943
-0.1821313802958995
-4.326547275910637
0.04565077011290478
-9.792888661954771
-1.5231580536809817
6.027187365950513
10.069888710566213
-10.119396909104488
-7.965783823765601
3.7281134253914585
-4.105597401610292
7.856183766147868
-5.743798205425977
7.704354775029915
6.132225090664951
-1.283053844654763
-2.060989024882751
-8.03031518363273
-2.9211175884753358
-6.212552289387965
1.621836765464202
1.6468500474307861
8.210897656343937
1.5310906335570207
-9.350216220565178
3.694054096107529
4.103366982239447
9.407946868724084
4.88209412902765
-10.108287159223664
8.173024008048325
-0.7510276673584826
-8.337842924639233
2.340604506751011
-2.6584068582424636
3.6394550142369457
5.379535440109715
3.933969154229318
-6.040923550439141
1.988694997101262
-0.9853270872036766
-0.20672856554675056
2.7694765379761836
6.2651769522594964
2.7380140680851035
5.809376803352132
3.869326026240451
-6.110141582341792
-2.137380190286776
-0.0763315341419967
-8.069781649415717
-7.611722765875934
5.957756061982261
-2.2847005411376835
-6.427800351305125
-8.564716911515992
-7.221665622018333
6.503131262672356
-6.999978488345948
-4.001777206386331
-7.699047015416854
-8.336847959557486
-1.9832073335881346
0.8981120514240749
5.419925095504956
3.94921539035958
0.8726118260093679
-4.657872287075006
2.36595496721147
4.421867884711683
5.31651656960828
9.964548142103329
8.985953450524452
7.944269833151704
-4.012065442013638
-8.702305716277586
-7.928410236389615
1.8712434100441826
-8.324665058547476
0.8036523302300131
-7.5937247228919675
5.115622344031906
-5.552787940253657
-8.218505958297253
3.424286630118837
8.184184891273494
6.1350625111127455
4.169860888455636
6.49558703318403
-8.518616472634948
6.563205957185351
7.819856954572455
3.4821322698323707
8.584394640633029
0.9749449395047943
2.3233159262045158
-4.092629000277652
4.1738842123511075
4.106204402687242
-5.43055687452156
-6.852748298710539
9.694830028130163
-2.6340709320959586
-7.010036904478568
-6.4775474202710654
9.278149104677716
-9.89435957035714
4.431680302159976
-9.654295825407731
-4.086632217788847
-10.09863975784122
3.079277942778449
-7.390579265187845
-4.362672516728617
4.666341245218535
-3.1031922894865094
3.1100731689587375
7.1968857219925795
2.4221354828726227
-1.893412825706406
7.03070464525804
-8.096932901435698
8.16392061953825
-6.521139824923211
-0.4474961160019071
-6.440644497044015
-4.53093563933831
2.358332337267437
-6.8496065211446995
7.890640186037268
-8.447169026989313
0.21495154552459073
1.469037820127961
-1.2759068247509429
2.0688340423672833
9.193118111157668
-5.287974837919975
9.081761919545878
0.29851851325061274
-3.0629030568937985
-1.7266951471229655
9.45068825129833
0.944194056124956
4.163368804897417
9.59411266493402
-5.286207513122258
0.039975933941780055
-0.40729965654399114
1.6551083159904258
7.003789943954945
-8.898758371306233
2.3986215651356844
8.605043643854104
10.144442710618554
-9.925110453736979
6.271733185577341
4.032445839803942
6.744694537818296
6.126550254493826
8.102535165480482
1.1172773447886564
-7.053712605628299
-1.598346189267275
6.305466180127744
-2.0987542479965997
8.063179332657882
2.3913845994927843
-0.053359947013504674
0.42602782466474065
2.734393858895908
4.097692146068322
-1.497882602221178
8.060360493974594
-9.13168458121923
9.495795407256386
-8.524427683647746
8.232984542980471
8.756933791978105
-8.47791991036915
2.0550044289419565
-5.135638995740873
2.974308917017697
-6.046598386610266
-8.917134478568464
2.192939282467731
0.769874012457682
4.092247932459781
-1.5082230545808388
-0.9825769453756982
-8.06571239250128
-1.9501870258862364
-7.694592167636782
7.638863854943143
-1.0359917666291536
-8.075456490311305
1.7738662348103829
9.136022431653668
-1.308097963133251
-5.105028952097065
3.95330156272418
9.349161845601373
-7.371957928456593
7.4719269406078705
-5.586227786956857
2.0771970298130653
-9.296508196769109
-1.988882169759259
-10.007717419521187
8.598191460451899
4.925817968364012
2.1953832252174283
7.860146182440703
-1.3546360462493316
-9.453221306417264
-0.5029964872428723
8.380097561532803
-1.5292209853261358
6.984609595940083
-4.017740278184762
0.68328329385766
-4.750143866718206
2.8478459927730793
-7.001893664063881
-6.9697476766103215
8.977102744727738
-8.759466851821506
8.919117483975699
-9.802956543592241
-7.09088780573175
7.224524658786337
6.129387670217156
-6.735968582489625
9.673853402855439
-7.542013889906049
7.885977351668948
0.046456943007657014
-0.2384587436284306
-5.29069455049592
-4.844568112621893
0.73886534563399
5.683615044952267
3.2142239751394865
4.1005295665161166
3.955032135613685
-3.6744819290391315
-9.619985870221448
-1.3112995328878974
5.50798156503714
10.09328004734864
-4.5969400911756955
4.5775458538722145
2.8472297215894513
0.12194821982218859
-5.046292455000469
-10.104314598736808
-7.826551528166812
-4.212312895516437
-3.386069938724184
5.989112644426595
9.414826184753663
-0.6105178445020644
-6.678203473860832
-3.3973775739785292
-3.477863415725859
-3.4844697905925486
-9.056593138647319
8.158245778642659
2.8644491852120337
2.7307702489450363
-5.464041919039581
-3.208164244854714
-5.415067674297361
9.721220946475006
-5.984449009816145
6.0247363972400425
-1.3694990350459348
-9.046136615722627
-8.816678080525529
-1.9860447493114646
-4.554802686410788
-3.136650962561826
4.437516679361796
-8.611711714926855
1.6011369453206168
0.505659458118837
-2.515676713215023
-7.73894919935755
9.1723228541803
3.7283662349613897
7.464439716908126
-4.014902857736968
6.136198031692522
3.8064321913485752
2.359544699046399
2.4824298815968064
7.062661572074564
-9.454020231984599
-1.8219222491703349
1.6831647718610214
-9.01073125566921
-1.8333005901686878
-0.7960767085073643
2.0716714628150776
-5.645385632087975
3.268601220146806
8.593460635268126
9.782842063635764
-9.321912294013885
0.13360035724520317
-3.9031856318554716
-6.291758655989722
4.955594097544912
-5.439718600583425
-4.806377392154215
0.04281335438957443
5.0456150812908716
-10.079734111747763
6.51548865495273
0.5855651696299903
-3.860387676708866
-9.826079332858233
-3.2094311725352473
3.130355310504386
7.063958473500373
9.290033060091469
9.143845128485115
6.14073734728387
-5.215728116955145
3.3173206635126227
-9.49521905063938
5.2404345579772915
-4.698161514943253
7.202723278568708
2.1680653554059335
6.794457996355947
3.9077665114995055
6.422545435572935
5.133544449562728
4.111879238858367
5.475272596423702
-10.031014663657484
8.718227454850194
-3.9568423265795554
0.7633631023617659
-2.756956411534728
2.8618198194506217
-4.074846518230454
6.016130887454967
0.8608786104428567
-3.1269719805772263
-10.092964921670093
-6.306311062632332
9.72257284149679
-5.339275099457513
3.343569850734939
4.670207722078289
6.830664172970611
0.7805564367654853
8.24164853499931
-0.3089622451358806
-2.7455393999718805
-7.137272668948542
8.169595455709374
4.384689650746515
-3.625762485673315
-7.417247075048446
-5.85370703854637
10.131732344107771
-3.1290155124083614
1.4743108960857094
-2.6276559748626247
1.7994021308195802
-8.307206220377495
-6.897357606102287
-1.9746950769692155
-3.0345622208763072
-9.493183697180177
2.4843115186284668
9.034163977186457
-3.1434815173547572
7.946841480315976
4.943083197411295
3.9000769096202896
-7.950194465759156
4.467296630306523
9.383760186606905
-4.003553185394718
7.65643849250254
-2.55010054799424
0.40633954776199765
-0.1631129120948512
2.3180431046747256
-2.01283820978746
5.63683765673152
-6.96922760496611
-5.841830085079233
-1.09437019954802
1.1232437611914134
2.083021135157327
-4.125145171277958
-3.087931519196009
6.640255474534797
7.137299265219642
6.224887724391248
7.5747823794423415
3.555574274046382
5.347267448263654
8.124495263410427
-4.700788209962758
-2.887056922455437
0.05416302673182389
6.565855542100889
3.8551516299899284
4.562283498943864
-2.059977619337203
-8.605006134659774
-2.3848973106610942
4.24932873809107
-5.522037056873818
-10.058558836990155
10.028963450712135
-2.6471418643336477
-10.090127505946764
-0.853396324797469
-2.0122695815169345
-5.8275763837352645
-7.463525089409345
-1.5888015103173332
8.690959682063243
7.718101034692191
1.0056958276090968
0.48326304278715015
2.5120478203156456
-6.6574425479805
8.172432871432703
9.83760438858138
4.9308135723934665
-7.905548364050663
3.6306165023898527
3.872723106987685
-1.268720008040193
8.411855494012416
-9.863608686977303
2.5916274234670755
-3.0496190048144323
5.373459507684518
-6.032411293820222
-1.9439792751991198
4.392982605916162
-1.6716324325533993
-9.36038980137616
7.779567726704209
8.318900581189611
6.3305921160517435
2.452886366252461
-3.7334657091237715
-6.656037019953634
1.3631588240376669
-8.061269397521261
8.747021438179727
-8.955352730702872
-3.7496044081443327
1.7337517951475008
-7.050326132346816
-1.6407791089138268
7.024346580096432
-8.416418148333937
-1.6251013284438467
8.07371464072126
1.6030738821594561
2.0858585556051215
1.3277695665569051
5.468644538870772
6.151954190257045
-3.6697956702001777
-0.03412151272883761
9.43507788381051
-9.798299604382954
-1.8886852638510239
8.916720556057923
0.5567990103247686
-2.4072268062118587
0.057000447179618274
-8.272648201144754
-7.879690793023796
4.073982209941648
7.424345921599021
5.427403109300646
-0.5246018062929254
-9.104545149787194
7.533428707367547
-9.266333549067124
-5.004867814805309
9.623675244728693
6.143574767731664
0.2371866208797181
-8.417521759501103
-9.983520339641597
-5.566660382166994
9.334247729017168
9.063018782936878
9.105609953332639
-0.4414947204831955
4.699991804147
-8.61128582994451
5.613374565806307
4.11471665930616
-9.363231151546405
-1.4744386103151652
8.229926165847978
5.527481214356668
-5.495646130033856
-0.8966609071665592
9.799364412652864
8.980619250735376
6.808356175377996
6.118465830730382
-7.857017843313909
-1.98036991314034
6.351026784534474
-6.31491732750877
3.460914101357363
-9.934483114134917
9.374536956885414
4.226250471579638
-8.932005998442117
-1.9194361425063984
-9.534645046329683
-6.047877810268529
8.424099954119747
-4.009228021565844
-3.249390978442722
0.6281658169527038
1.3829421257664305
1.1596584823887455
-5.455356902165609
-5.733429223248263
-8.238251539121894
7.502677823987709
-7.426280665649758
8.6818738456819
0.16358352870425658
2.0773462989862024
5.260443838857287
0.09033485047539833
7.61685805253923
8.460070664427704
-1.548512282449086
3.854191370706005
9.97190356399794
-0.4722456038630339
6.540044682839901
5.075455835267162
-3.846717159667058
0.04848819056069916
-4.339973928844373
7.0334180043858
5.538886081672761
-0.7372062201291423
3.913012334855933
-6.1054883193974305
-9.625760457762341
8.949868362631072
8.6484090540709
-0.4862109851384516
-3.6068021015452683
-10.095802342117889
8.532192685337776
1.165996792878937
-4.850973805730833
-6.140753694925748
-9.362201521882133
4.9703686686024415
-6.156988161161221
-4.813817233966519
-1.1011875377833755
-8.003126615534942
-7.617102785192119
8.166758035261578
-1.068225087088348
8.109079937340411
-6.928945781321767
4.953387901597913
-3.900676904577113
-4.989311021500995
-5.463233701840997
4.608296741976516
1.0071768428965495
6.726625035691023
4.4137992704728966
-6.038086129991346
7.441609734936125
7.571248970863106
-0.6950298545489669
-8.0376184021681
0.006167715139409701
4.598309567728808
-7.544497079801669
-3.3666266858742264
-5.317916294418761
3.1202070252762857
0.4034985868260458
-8.066944233692386
-2.1588080327655352
-5.777086361031464
-2.7730018301398998
3.056523194355561
5.467692337168892
-5.361370122374629
-6.850742620481445
6.0554872806198805
-3.209551913738837
-2.441459795129328
0.643413644947835
2.080183714709533
-9.578059904388358
8.64691090854218
7.128556763537014
-2.3470242757165805
-7.807521524293636
5.71448687034971
-3.3819703191558594
-7.708198315977712
7.332269970762932
-9.958375425525817
-3.366887038699016
0.051325611008493546
1.11294080899049
-4.7014244186279255
5.05058478794608
8.747117320807082
-2.3459968975396897
-4.245192819753727
-2.688215859835636
1.7139156505163957
9.440634351442856
4.77137623042461
8.664015012241537
6.137899926836075
9.622775626290498
-5.239255394554159
-9.006917761637162
-4.243888982958932
1.5608477174523692
5.342427769476076
-4.7694792377963084
-6.261007772609882
3.115541214127546
1.164958215285409
4.6537143285946865
4.109041818410573
0.022357858588839024
1.7038277593562423
9.206528743852411
6.850252608840265
7.022372339481852
-4.6172519206273615
-4.075724783200549
3.1611061938842244
5.223905594807472
-4.396708605120205
4.893629391440939
-6.035248709543553
-7.396894008309519
-4.16359345215062
-1.183331143551183
1.446705138768123
-6.252841517256212
6.458605072096977
-0.6069524771504993
9.688839078367138
-4.525690997046802
8.37779424556381
0.8833287030696243
-8.064106813244592
3.294106705069328
2.7794896970353173
-3.2613031191421165
-7.750571745788723
-0.7913168952267298
-3.50107461800646
0.08680197744526102
-1.1804654314947969
-2.4173266258158055
2.8161274204337334
-7.37718772707033
-1.9775324926925457
-8.48747695871117
2.241658725833548
2.972612812355147
-0.4501595684742288
3.1155277244897928
6.086545971223344
-1.9944614005154115
-9.155388859345539
-8.742419753682189
-0.7902905947054677
8.903930070363325
-4.006390601118049
2.203523754667677
9.184741875019485
0.894640836764214
-9.64743645775554
8.577052341794811
-3.873133718880093
-1.3007069411951873
0.2667251118730315
-6.634055377726726
-6.351957415111082
2.5627341146466125
2.091533391776246
-8.057819438853876
2.2903781739238287
5.175351607528148
-4.992567069408238
7.739278498835961
-7.135749583809194
4.076789586745994
3.9308277882756633
-9.790247344452059
-9.219445034905151
-1.4475665690002377
0.062675283350743
2.6331812698005073
9.233461318385302
3.097379631937215
6.101574527115423
-7.090615364939527
3.195989207167876
4.7705440460662185
-6.938476716861808
-7.681882968496598
5.510306621045279
-9.708082999140192
6.149249603902789
-9.148402389255526
8.695630351907997
9.331295563434479
-6.88943177665059
-3.1837707452230046
-7.507808689407292
2.6892806681055452
5.378018336367956
6.284442384717526
1.9038886059060771
6.5730348030179275
4.120391495477286
1.542598328847784
-4.652704979986573
7.253323583119081
4.2047098151486075
2.2777538768064782
2.8239301015697786
3.383035127425769
-5.491286178218443
8.392806760672986
-3.6577782144995368
6.812949856415253
-6.023899037201303
-5.876653547499502
9.771292289587072
-3.136536299560048
-1.1988376549235344
9.293958501148921
-6.391631382061926
6.851807428751355
1.036446706264471
-1.3567898359057515
9.11672463618448
2.802649177492866
-8.052757140902344
4.814347165879345
-3.577043042307498
-5.214508275150982
9.895303941600128
-5.535935357902104
3.9401074089151438
7.545561888071579
-9.832857803597465
0.7515745447741735
3.5550578110544016
-5.457867252647088
-1.9661828250747604
-6.967236497901153
-4.114874008784803
1.019407656346282
-3.0957023621658863
-1.6290907381855806
-6.763690482935561
5.464298510110907
2.4836372496322996
-5.573518587816672
-0.051360199360335576
-9.468167941018404
-3.9950409287757997
3.723764220202159
2.828209140401134
-1.0585643192446512
7.998439234357775
3.8324338838439016
3.5680483080415097
6.158052964706666
-8.3856672649541
-3.4651542071367487
-5.613027024490414
-9.22825287817215
6.152087019626119
-3.695487651420664
-3.0392120711057284
8.842994274432263
2.5948917642856335
-9.442779977618626
-5.647513180314659
9.626825270756715
-1.8579343804711856
7.076667672640557
7.161475826193602
7.052864914537041
4.123228911200616
6.995513061958183
3.903871078080209
6.7650222988413296
-6.602385120271212
-3.981255360313608
4.684225610662411
-9.97083875572803
7.564179590747385
9.185032053320482
1.5998090010635249
-1.2076515108784485
-10.081615249327845
-4.786070601822315
3.3660401068784394
-7.292480255466378
0.6980270523188173
-0.07441074059708491
-6.019572281188292
8.239316347391803
-0.41074383237889306
2.8599389207296344
-2.0066090093512123
-5.217952194525299
8.180945123327158
5.904930116280997
-9.982295220291665
-9.370452226332848
-8.499249832238029
5.3871138814323976
4.312166509788778
8.933070806712028
9.011370134115214
4.96830330140956
-7.568275829756826
-4.97803713640351
-1.9633454046269658
-1.5143217600662897
4.441702049281978
0.5311063626196015
6.3886211834948
-7.888099980030131
-4.903394978567392
-7.8895753777673585
-4.752315462482378
-4.781293295169179
5.20622702092719
-8.98833782005036
-3.992203508328005
9.176678953312557
-8.90663328261259
-1.5468656082468677
-2.8086557057865087
-2.426575358000648
5.428343812409679
-7.195820913722671
4.6697985040117285
-2.6729289192137173
-0.3554398089273518
3.042564235614656
2.0943708074995766
-2.604904701019013
-9.44446425381436
4.687050318525932
4.491756471527985
1.4802692617158746
-5.275454079441025
-9.277084296407807
-3.3051249191145495
-8.998022051804563
-3.9618578193420886
-0.9677364527566592
0.06551270379853738
8.086096012359834
-2.501381104628423
2.6090783429349984
-4.70552041302886
6.941793883745357
5.056284711536045
-8.58332983236312
6.1169890473795565
-6.889657675849103
-9.523524639747704
5.853289623928096
-6.029573873372428
3.508935462635743
-7.341859821822029
-2.159933721555616
0.12393373956006234
1.5205584895841222
-10.112222395522728
-7.023281767102057
-4.78306635058668
-2.941240416476277
-1.398449799666108
1.8429889402812452
-8.058431977073468
-6.091482305065918
-0.39877667263609035
-4.237905697146549
-9.073343144996784
6.982083111613606
0.21951639545434204
-6.3295273077818335
4.639047620631891
-0.8328760405208159
-6.960116624796186
-6.417527489858709
-1.9718576565214212
2.4183525122340916
-0.9366076391133957
1.9960102343507145
-1.7729309629578256
-9.40249074975038
9.807136984684146
-8.410790685742505
-3.3358758024943884
-7.157969168387199
9.724883845869583
9.863590307574947
-4.000715764946924
-7.182065250743103
6.0064755100725415
-0.08196174596468264
9.321210628841373
-3.9409661324453604
-0.1525427054192917
-7.717036226422282
6.0862381639997185
-5.049604797156202
4.163217020739506
10.103505365696735
6.146412183454995
5.69010135871458
0.13905429384121504
9.819596852436694
3.91766315876923
3.0752384966215462
-9.36810419377546
-4.248263929821161
-7.677447432597873
5.492217092070031
-3.353698609656985
6.093204682049886
4.117554075029491
-3.9103164089870783
7.082137447751617
7.741624872121298
-5.279613725787616
8.536763113926565
0.9636345972016096
-3.554509470500937
1.7446665338962342
7.600581472749956
-8.915365434787063
-2.1673117433656057
-10.087290085498969
4.59951840831293
6.544306476549846
-6.315877672737481
2.020798451526878
-7.847810752161884
-9.740163294649093
-5.635772843737145
-6.230256889230044
1.275488335434645
7.769635035878707
-6.17761243173692
8.175270291880498
-5.0008993546642655
-6.804028850620258
-8.393849653052879
-7.176478433029968
-2.386286130132401
0.5915754963279758
-4.942018389141385
3.1918570819885264
3.3838527161145695
2.207968215473093
-5.937697373615131
-1.9690202407980908
7.871267250068955
7.6199684142289215
1.5077089453484982
7.711392577978398
4.629918494210042
-8.623985992028194
-1.473246092540264
9.719589961746976
-6.3657438804641675
-5.308947414923398
-9.947998057261982
-3.997878349223594
-1.7291505176327047
-5.728366917665648
-0.5702630349668989
-1.4858843065784477
10.091443116239523
1.707752798948877
-0.7794916284955761
-1.1497145481149584
-4.257379504508707
9.420804236302567
2.0829039984030344
2.088695971328452
6.780684299667303
-6.266197884142953
5.663652901254828
5.814527870736046
-6.293130745124459
-8.996045092901827
-2.860755011180712
-9.124637975965701
9.708945843980954
5.814386225887832
-1.927396685243816
0.059837862902948624
-2.819733463309892
0.6768852650429844
3.585680920939432
-3.3827490138207996
-0.8316061230949771
1.3356936980752434
-2.1670005471360243
0.2974759952528699
-8.47410825641963
0.25271940548221655
-1.687481627122027
-10.084452665051176
10.052433146147793
-5.1905359464638785
-6.804178961739698
-8.786296488617406
6.184598496523001
-7.879867790280926
1.3017717494650967
6.825208879735785
2.067713632806604
-7.264196224914275
-5.697782310768877
8.178107707603829
0.45201537844613315
1.7525472027220592
-8.882150942055095
2.307845107906256
-8.645295362528023
2.4518710006961446
1.9955262135097847
-4.044095634850615
4.1760780040376
7.4655554310361545
6.3331197448961385
-6.026736452924634
8.961850195746143
1.2147162362447539
-2.648235010557832
9.608257285220748
-4.7384507428115
-8.25192689115456
-0.08573716917535171
8.272399418379148
-2.149015128553246
3.859137415896954
2.322819056524824
-8.055594556625673
-0.6385675672310538
8.157799385430692
-4.726206990873229
0.41098039593943986
0.7230738744935186
2.0798118998225106
0.6080172901448725
-2.5969050914827867
-0.040650747873321215
-1.70252940450866
-4.018376899191889
-1.9576705684558413
9.391507715603437
1.2634356748861066
-0.44549621066036693
5.0658497842867405
-0.11469996374086819
-1.1828039745555181
5.985513818086053
1.0671975896443096
-3.196842714598653
-4.570017024302729
-8.028677587563203
-3.9865286721568802
-0.2089100520982237
8.206518828796508
-2.523468190975764
-4.1314271002701055
5.34682465356415
9.148934816421551
6.679268282130741
-9.80210692494209
-1.088478338643192
-10.131683849432807
4.002224468101812
2.1000456483951653
8.30092476992625
7.668687862319203
3.710447745245963
3.168985077044389
9.253669273280673
-1.554863075429152
4.5980048994456055
2.514388133012138
-7.413571466509575
6.553316616508499
-0.008076215545038295
0.07118753996966211
-1.2994929977754106
-5.679647469575367
1.6324757649305661
-6.028291812236921
-5.576224585770351
8.77687571554792
5.29175935876583
-8.354916376849797
-5.305207090554114
0.9916497961028848
0.23183884257675094
-10.073102992708925
-8.718744874122695
8.744349795273815
-8.757384117748563
8.859579198771444
1.4399800338476276
-0.4386857680837866
8.76053165536695
-1.827183497091347
5.236614793947655
-6.525265834293605
-3.7784618410701
8.189457379946077
1.9722558392561504
-4.6039855366207565
9.456062383016546
-0.33769768578540166
6.901504655877109
9.893053022893284
9.45428611941164
7.594930474127225
7.344979174627579
8.204485821656823
8.252440209870453
-6.015386780582384
-9.809327819799883
-5.141816503098061
-4.601440166566697
6.962714496253556
-9.483069205486874
-0.8107448689574204
7.373022736726503
-0.37999294899905467
1.019886042036733
4.598067806517622
4.242139530948066
-8.044244884283424
0.8816728935789633
1.80126665081234
-6.679412146882094
-2.2345623977522173
-4.021544588181855
9.52099392201965
8.06677720077119
9.042121017495052
3.1282504179921937
-0.963599013887992
4.482054589069855
2.1028830641184957
-6.537578978043858
-4.066154565418986
3.2221464515192837
-7.638109863099895
2.994660036160587
0.30543243366348094
-8.755868983708195
-4.721564579102539
-6.621346178586544
-8.480514644284483
0.4717539006985402
0.07402495569299246
4.153421740059453
2.876928583766951
1.144174471203886
3.4560317334237656
8.456184653465606
-9.654247256439955
-8.062114524387972
4.700549387391567
-4.512981797906619
6.249237011665946
-7.788762524716951
6.160599276245039
-7.628161923721047
2.3390976172896454
7.378090407425613
-9.534974575066713
-7.928389207898379
-0.06662666721015281
-10.143377902348645
-3.2743740404591755
9.45334355058304
2.642819001251209
8.492355267992242
4.131741167819535
3.062838789657801
9.282180766475584
5.300118427110216
1.5591670214569502
-2.4668645858688953
-10.02630635731359
-9.44962344302842
6.147739935483861
-8.729710554542006
-2.9188478238788687
8.732270326114032
-6.0125493601345905
-4.35641308196502
3.41475955496872
-5.089741455568913
-3.8443804438907274
4.549340038473547
1.0495506354107484
-5.980851141702836
-7.615945665838196
1.8121113299597638
9.855655026805147
4.721969647191644
-8.041407463835629
6.334587631413827
-9.93357577692585
-7.167713435884311
7.249761152632934
10.01086466050303
-8.910129054692689
-5.287096687107075
1.8061683053803752
3.920475710639688
4.29398820167507
-3.5385467829483104
-1.954833152732511
-5.446996027642208
9.820011732952889
-0.9337974996625833
-5.741245155857544
-6.373709205585419
0.6774915345371147
-7.368360065067748
-6.168755122470368
-2.404617421951158
0.6875701912603326
-7.548847466595161
-3.9836912517090863
5.244004685736639
-3.528323594217217
-3.0117694799779806
5.352896440666118
-0.9121845788314717
-9.282188155566322
-6.674605605747523
3.253358844023739
-0.29625304599569713
-4.874096629145281
-0.727821389910406
-10.07877782888005
0.6668441360125481
-8.368802316135286
-7.780781544468595
-10.109067883101002
-6.333419972992707
-4.159276776820124
-5.114557535761999
-7.646696549218034
3.6521642133771297
3.2509782109363137
-4.738122078281721
8.183782543774953
-8.933573631689113
-1.4257191622248846
-9.858753520059528
0.985073708698195
-0.8718953509632243
6.172462014156947
-4.420803076441773
1.7754174220005368
5.760528589332591
-2.310688614193764
7.29277997265883
-6.021061616753508
-0.4237388096646388
-1.9635501381511178
-3.6248375885622646
8.285485890737153
3.0349492640288345
-4.531335877693758
-6.502066459126911
-6.19950601057467
-0.5645645385337925
-5.917106629332965
3.282479293736445
-8.049919720454549
-10.024156577366298
4.979533015759284
-5.702809564153199
-0.9117909985441568
8.496473886058316
5.800402913283312
-5.808311995082222
3.2226079653683652
1.5437998326972044
8.812645031341928
3.5223943518582335
2.097208227947371
2.848010032091386
-0.8878881957475789
4.198749029523715
-6.315338468616298
-4.778739970679747
-3.415158575072857
-2.339539698481101
9.75034084985128
-8.205796759157069
1.2957294009454368
-0.48790633178861675
0.06835011952186773
-6.752407735610274
6.055194953438359
2.1207770539327826
4.778803127907363
0.6827846466252713
6.916580215904213
-1.645785239160877
-1.11896366473512
-6.097432378477144
-4.265937424184641
-8.748422761928571
6.154924440073914
1.7574270864141992
5.517363982236589
8.35469298070558
-8.212203175858651
4.589629266341794
-3.7872176759464904
-3.72704861712155
-9.093887092585863
7.868892965288051
-7.872355439323842
7.532695030780621
4.126066331648411
-7.842990681287461
-7.830971349657981
6.276721009839113
2.881938420665011
10.051153888371276
6.54452111503058
-3.033294153076861
0.3282268739082442
9.977257341243511
6.857396221351052
7.772610093626874
-6.018224201030178
5.02917592344576
6.593025919915664
-4.113138877564481
-2.521609049407131
-3.2240599730912516
-2.671040373325589
0.4354781435242598
6.855959758391158
0.2276607493892382
-0.6595194090454397
3.7623094099800234
-8.047082304731218
-4.5712418442558995
-6.755309407254442
-6.191110853155413
8.572532542392066
2.237464648938231
7.6606984176514805
1.12923259812002
-4.013344751470777
2.3360251253446993
-6.2211862341755175
-4.498207020159931
-1.9605079889036359
3.938592982493037
-7.293140373731747
0.04280507361738533
-4.418473756649483
6.144309268654754
-3.0430994741992228
-0.9520307751161887
8.303150301758986
-3.9890680072461477
-9.827604244590256
-8.508507703806782
-3.989366092604675
-5.661824789933086
-0.3500572292702736
-2.0351669019735477
6.675667839874178
-8.685584590396271
7.288639316777847
-0.2582763205204285
-2.5661542081029483
-1.880703626566223
4.902147411360174
-8.268592645684993
6.157761860521708
7.210341819524598
-6.2174784407771355
7.866391696427829
1.2721203650775728
-1.669379970778292
-1.9269221715783216
3.210495980805156
3.961578676379966
8.661118257935547
-2.614768219036317
8.012525151748664
4.128903752096204
-2.3900759481770617
0.7256047084088011
5.788419716112433
-7.925156519479272
3.7921446559756546
8.40481661939875
3.9042504401253812
-6.907725838206432
-9.5219358471895
-8.176435044166395
-0.24799127366682755
-10.07594041315672
6.119758873847411
0.18777374193149582
-8.269082833470812
-0.6247443421647791
7.698989270967713
-2.2989812724519556
1.822987062164708
5.408769219747795
4.44438950130016
8.508565426499375
-4.258291957313678
8.186619964222746
-3.480658893854249
7.130856886392969
9.944363672018762
-9.822021226721624
-7.1309045928077746
8.032757518525115
2.5167415214849327
-5.460535294838605
6.5527538819800855
2.9468986060937614
1.466563240241075
6.095338648465944
8.994728506711901
8.45203313035445
-1.6823984266039194
-4.468812753061051
-6.011106150046728
-2.2705863244148774
-7.375555796569902
0.8211905226056025
-8.767838151962556
3.4668238730902616
-2.5437374386813114
4.066480540040441
-0.6056892609897584
-4.89630220154012
-3.7603703974703886
6.6253288434626105
-0.54958153274171
8.061152466562191
-6.681801337249677
-10.048113987256333
-6.659473780731558
-2.094842952039816
9.48716461225924
-10.13836362048802
7.9041455610347136
-5.434133168017425
2.4735455293024113
-6.365677460303402
3.357263086974813
-2.642645425288511
-8.76306471521035
2.268381065973431
7.306851567758101
-5.701260967179016
5.47686392861239
8.124196756891447
-1.6962722066669453
1.5089499811685116
0.39557355371147807
4.728464136220259
8.818787709004296
7.689093365688559
-8.06931026061459
-8.600923443888504
9.415215948438027
9.028490693495876
5.716778986734179
-2.0200937757871413
-9.115524078289766
-4.358471230338351
-9.994286333692115
-0.6750833338518831
-4.456426147733769
-1.5264681226676096
-4.600537959289005
-2.07319055940559
-0.33438064341624757
1.5115750630993854
1.7064783030873285
-4.048951884212645
1.5754766350890796
2.5846119141231223
8.219160171797459
-9.872360218408728
1.0050984742957136
8.805270668309461
-3.9067834999687805
7.348923407088517
1.7739837278147494
-4.050091762030693
-6.554038122328162
2.0376224363394013
10.085311457113553
2.046780947645817
-5.838342377785786
-2.5719480410942346
4.911943094012237
-1.8985272235412434
-5.988046877929453
-0.6260000207622258
-4.551109400051633
-7.656509777169894
9.72707967038103
0.008764327913898001
0.48489368941189254
8.989864101556218
-7.916314353376718
8.522193555429427
-9.917950765038789
8.433211567435826
-5.2942924186092295
8.79611394573188
-2.4427450240961726
7.073241883505
9.966994733227283
-10.135526200040227
-6.934358186935393
3.1224428853248916
1.9852442403001949
3.1186460806328204
-2.9017461454208098
-0.7823499209203421
-1.825520122008108
-4.967571650865711
8.099076860405596
-0.4436737468914914
5.956694044855968
8.127034177339242
3.7566425264434535
10.065526039235293
-0.09272773529073819
-6.0786308039240255
2.5597784766086735
9.549388870056728
-1.1317656579634199
4.454542325077324
-10.083977239994987
-6.005340572021569
-2.303822380559522
-6.0778099879136835
-8.02494113261258
9.527695068033523
6.141188196206525
1.221781378114933
6.466623096325197
-1.1544090217939758
-3.2130290359240927
-3.520381102773418
3.882348108494674
-9.611758582436307
-6.314123064206373
-8.106668091614724
2.666059580766267
-3.820640263861045
4.063216220615592
-7.975495511166376
-8.363270767450292
9.177329769183096
-2.5192745813283324
5.901732863720689
5.990712484450135
5.117993073514122
-6.074208006084584
2.0404598567871957
-4.753192290856555
-9.688061475367908
-6.326643666788001
6.912375499841987
-1.3470661478323136
-0.03823171917307462
0.9494977199972527
-7.861952732876904
-3.7588841121286025
-2.398922556882368
-10.084508689731434
0.011601748361692381
5.937808427246757
-2.744978326181971
-8.404615642378936
-2.2849013847148574
4.1144584741971695
-9.99791140927651
1.643252179317477
1.5601612383416679
-1.6505197314486777
-7.960589382012446
1.9463933612091178
6.098176068913738
-5.843775236533742
-3.28280929738374
-2.170699715606135
5.015510792599636
8.021303093913692
-0.4102908200467084
-0.43801120336765975
-6.414762189509076
-7.975612864039524
8.724411088653323
-2.063907322437733
4.069317960488235
4.847225476845105
3.6602738565266613
-4.2486716911970674
-4.181766096681673
-6.808590765137332
9.921447970930362
0.2557432606770285
3.007351776985032
-5.8672484833596
3.16274426824771
4.757118749522558
-2.0257686119582656
0.2700649271210135
-1.1802048653914075
-9.017683750963219
0.6476880653561776
8.06159232178194
-5.2470591314039465
1.8157913306625537
-7.892703616256742
-1.918831228711237
-9.003599372751202
0.7468180658757074
-4.054626720383769
-9.330352840580646
5.76287828379453
9.195762749801892
-8.549588819200668
-6.768301537269085
5.084679659573123
2.5095457852583136
1.5294103549618294
0.1895331472442238
5.7261522831992275
-7.5136983595397835
2.031947600168276
-0.8205180185561735
5.225047317317225
-4.861739799781353
-1.2491766466106382
-2.8614569175525615
-5.619118232277581
0.4282824072976412
-6.445513072888914
-6.135559985346623
2.1197342680600255
8.767419437893874
0.0030894917427732723
9.870482699547138
-8.12328800985288
-6.939711775372286
9.844964949913022
2.600067699752457
4.71262055869949
1.1220368666178653
2.9766008936051933
-4.027195604666698
-3.441932552345588
9.00733449601566
-10.141201040935815
2.4512308231998516
6.300709254996299
2.961846818304627
4.441417479840881
9.616272324094899
-4.50294092965668
4.590809163218987
9.504333778088109
6.5146262798350705
9.332570298338428
4.997033807644347
8.121359341168118
-7.149186944501809
-7.047626076898269
0.8838748474381585
-4.755859409440428
-5.2136215349561255
5.828797856595926
5.284563627263674
-1.3649707317738273
8.622990655790531
3.7709034732083504
-3.263482613046679
-6.083484824084808
1.3606478775226645
-7.585457043375575
7.117790774210958
2.544552772598529
-1.306776919964066
-4.875000030530313
3.203300244578538
-9.33989415962457
2.2978975279241487
0.1644854627936128
-7.2737833014179945
-8.11234293251031
-8.239769890178994
-0.6423738941896379
5.03981879389556
-6.65272411668278
4.154747702065416
5.456738760446758
3.8970547086232266
0.08221981159400114
4.406261899155146
-5.397181362336465
-7.033868243296204
2.034785020616071
4.632396719278689
-6.509795110420964
-5.350041088783569
8.235146899050049
-9.120466154672648
-3.758822732633876
7.365827005224348
6.609952691352452
-5.343334692699128
7.37732148834755
9.247249554137452
0.00592691219056765
-4.968021048422971
0.43328804348943684
-7.428013064374502
-0.9621299902312606
-3.6589415326431656
6.572916063067659
8.059581464544571
-4.259351818509484
-3.234970312019203
1.8156546632174733
0.9867331239974967
6.092501232742614
3.5418137736015023
-0.10454292771233258
-1.1940971328772387
6.338282187083232
0.24790308707335756
-4.13088183350751
5.978318086583899
8.057143239444745
-9.56006344461005
-1.7907633471972635
-3.02356755492489
4.063643129041574
-6.058603994100157
6.8385402261980675
-3.272069108468172
-2.8589946974736127
5.70942770910284
6.200856957469561
6.672072545904124
-2.812161275141656
-7.451699073379054
-7.352430167602877
-2.7836524968031013
-6.080647408361478
6.8135626106330625
0.9711190146912063
6.629489485208742
-8.26254216282129
-7.5657861523596885
-3.014704526162145
10.140844842505244
3.7155716093412594
3.09012281584718
5.422072683081138
-6.793953180449951
-8.109505512062519
-2.7868551570685964
7.914202159152679
4.551517509617809
2.831599424253443
-2.1042615303302057
7.317034264814926
-9.456819179255039
-7.153732905245141
5.198487196527104
-0.13959414677340332
5.2369488704906
-2.0229311915104713
5.72297966968034
7.376371192675374
-9.505985044689899
10.132011606292401
1.8025830893863173
-3.3867636270357786
8.753335923864796
5.162762152709087
-1.1266059407882063
-3.7460121571881406
1.2266481821192858
-4.051789299935975
-3.8774381027457836
-5.971964139219196
8.707461465524139
0.9347347217355552
7.264107706691337
6.944975163941292
9.447090387909483
-5.7065423571528475
0.9817584398917185
-9.307678977593755
-5.114547768872963
2.0461346929583204
6.152637180088707
7.42509063604119
-7.303246244792434
5.589604105358391
6.4263338684569495
3.6823592942877266
-5.466831569954307
-2.0424396807502156
-2.1744335268336132
8.116251883692684
-9.124848457244278
0.017276584532817107
-3.4477805828884893
-5.923244695853378
-9.381218225107832
-3.607672783922918
-8.403559995318538
-6.2773203958157096
-4.773077105909618
7.379674290468355
-0.06606915087815216
2.554585053838142
2.906053593696275
6.1038509050848635
5.062054234411519
-6.461075662330684
-3.1473022888861033
3.692739393391576
-4.496715375602015
3.3103001934140934
-6.854340488594754
-0.5952491373823875
-6.391162283468999
-1.0518329565765956
-1.104247085226112
4.07499279665936
-4.53836353329014
0.4820074915797176
-5.225274269201501
-5.50453749116527
0.9648092464274665
-6.649379496689343
-6.160586024550066
8.826864833836185
-4.282797902789074
-6.613499776982209
-0.8643320271043228
-6.069297736019228
8.333803076167545
-5.385413724651609
4.676284329199876
9.383333519843095
7.981013866045445
4.426477496034995
-2.691813727948945
-4.936820767485872
6.259023986437159
6.161003073701806
-4.8746327107511735
-8.098155839720267
-1.2666146868096513
1.5576694245343283
2.598312348884479
0.1860566352862496
-6.848879993005579
-5.533202194068442
-1.998059263904257
4.485293203732699
8.367388357668155
0.5993362485717288
7.156269340189379
-2.011581519168222
7.243220130490357
1.019838458057023
8.832228280381743
7.4864688126007435
-2.9420353732890567
4.054418395161361
-4.079322646589393
-3.48963021939358
2.042295229801773
-3.0070817665674725
3.1459686565425278
-4.0404396275937255
-2.357197637211302
7.9629216072429605
6.754256304790809
-1.7108080719561023
2.519489248740426
-5.905261294942076
-3.3855681872691696
5.932483747100528
4.150659605757234
-8.568748586973086
3.385883714664317
6.106688325532658
-9.776449508834125
2.0955003910116337
-3.63560357788832
-7.114355546752707
9.535693868358406
5.170595697782262
0.08320410933195176
-7.831201849497065
-5.598936990821503
4.20575426371093
-0.6244169689825336
4.077830217107154
0.9145512045447227
9.038583540197571
-5.713575553479253
3.9797860497709534
-5.294199990692619
-4.789083992321174
0.776958568652176
1.5909121169970424
-3.490572614866043
-1.3559125614191478
-8.884933394398024
-10.127013948145771
9.424386026569195
8.500752573720264
0.5203403732935461
-9.011220249270597
-1.3873553709760966
4.798536596908629
-1.3043048093084968
-6.384011306129236
-9.815665742732426
-4.962330576558349
7.396184398311168
8.135546433958162
-0.17603174585692838
-4.8475827534498395
-1.5576316070218512
2.0829213425286013
4.074169246328922
-5.161143093194808
-0.6105503452638084
3.038102665089334
-7.7073013667769645
9.767421084116544
7.636099456432957
-2.0087440987204275
-7.595283612755285
9.576414516123805
8.343926991379526
-3.3206261275435405
-9.201044610409141
5.91471389952953
2.858221951337313
9.565835544847785
2.8345205177248034
2.2505054537200535
3.6257987727861063
-4.037602207145931
3.0957171006235606
-3.771920820495229
6.265955015788593
7.77351546898012
-3.73951998837966
-4.044965790573907
3.551976410657537
-1.3034689650141502
4.942884898404729
-3.3111613714100248
-4.634717652629384
2.0489721134061147
-8.685866563156937
-4.309751786972535
-7.791547533794651
-5.217490834785892
0.1673246266123989
5.542654798655897
1.4707130326968645
-9.27839238814043
-1.3822082341861182
-6.917579381824762
-8.645018336276236
0.02011400498061149
2.0051341502219096
2.6333313622134034
-9.869519509385583
5.876650757013305
5.6288492533663455
-4.41702489144754
2.164467487292624
0.14372157835367794
0.7261561464938067
7.812172274125667
-1.8239922595914797
-6.074972572190353
-2.5720263947777173
-2.2071473549802016
5.652886907204309
-9.58531356202935
0.20761385920511027
0.7058864825741927
3.7245155572781496
9.535084661467947
4.674573396417705
-4.354171362148781
-5.834292947962795
-8.103830675891393
8.118974318601131
4.735935794205736
3.574914926888911
1.5088280344943104
5.669138481234592
-9.253793207529244
4.418270021322837
-1.3342198483939889
6.78293777709763
-9.915838192003323
6.1966091029777575
-2.017256355339347
-3.6626093404549045
4.198104823003967
9.80883086311064
8.809240211808802
9.575983096226652
0.33382738170055914
2.337006638637701
-9.30914327624473
0.4578446445067832
6.7691622786624475
2.186308419330907
-4.04611446376485
7.028391372923943
-9.150230508890603
7.730858882795241
-0.3880366774725056
-5.253910767548836
-9.625852308402878
3.0307610979579254
0.11297069497383955
2.566209020462244
1.2074954582568331
2.426223477452696
6.101013484637068
-0.39086050342334344
5.273766760683041
-2.6590009998838875
-5.791584147544647
1.7622938615180699
1.4500046843214605
6.499533399283511
6.640703579456753
-7.18338757139203
-6.3094201721396574
-1.5840772014696904
4.072155376211565
-9.99127826640054
-8.074568566487063
-4.736972980199285
5.302557448979014
7.223818478823088
-8.509675005781977
7.193287853879271
-4.228600935129646
-5.075023195436569
8.42033148381077
-9.844593631609646
-10.132688784316896
-1.4814434491005304
-8.612399537688834
1.4969429560224425
-7.688448859511463
-9.160755382540895
1.0779455834478266
5.112024475918598
8.087894122824583
8.891302157777554
4.81391346867157
6.4365241610995465
8.129871593062571
9.209557264278317
-1.6693163885028959
-0.5810290242929544
3.405692737012198
-3.699230760511413
-8.88173410665561
5.8057789352388225
-2.781410391761817
-9.291751952071955
-0.7477533517340434
6.676439223945801
-2.014418934891552
1.7903053926554944
-7.536737600009759
9.320529574108422
-1.9978547283354797
3.316973859106566
2.194122886068728
9.274551236564406
3.7463224927210974
1.250069937154278
-8.264668982130534
2.6661385355744853
-4.043277043317056
-7.8101123703217015
-0.5936544508238213
7.242557593793026
9.096286863463718
8.778498481136047
-7.765556804034709
9.96830569588463
-7.122982021865302
3.358434313109739
6.465082673819895
-5.594377889841006
2.04329727723499
0.6997224469783077
-1.1314854173011264
-6.814944955790217
-3.894719440302296
-7.606075380227936
1.8220637851950943
7.887042317923958
5.193513031364462
-2.9666588194811077
2.858664658680694
-9.604678573487854
0.014439168809486758
-8.900695320723353
5.811597727160347
-8.89291693138115
7.199422156221365
-2.144550758198453
-8.137615904908342
8.580796777244183
-5.6757914737730095
-0.858294443525647
-2.7030021617249202
-9.364763515366068
-10.1298513638691
3.9714712840098687
-0.05582348434651586
1.0086416622957624
1.7958746908736878
4.871653861419525
2.9382410925404594
-8.241849402510738
0.8519414107099049
9.683527445700586
10.071500688959096
6.91635428206759
8.132709013510366
-5.628946478967328
6.8872596695638855
-1.0693303132951706
-7.401402203132085
-9.958239997631498
-7.021438597562977
-7.548094947914979
-10.017363103876495
-8.499526654699995
4.5098338638290185
-1.3441621433479014
-6.072135151742559
2.8808883430571455
6.349428703086581
5.164585618202093
-0.10099002109312795
-6.051395377914975
2.5661819869423614
-9.629358321151187
2.2991319493532694
5.466798689065199
0.903415853414281
-5.354462826994752
-8.1009932554436
-6.719529424644515
-6.998906633532454
3.0866136378866957
-9.298266905649973
-0.5898707606099572
-7.393497698436612
-8.935603866555427
-8.570172565233129
7.575163069745124
-4.6582509717157965
8.595759693644577
-2.0030692625493027
3.3105458581899763
6.398148146452396
7.367324413375093
-4.643397522027137
-1.4276445988443438
9.63530491299033
-3.558107333889782
-4.90606987938157
4.418971103019794
-7.525738591509867
4.585459009997727
-4.031927370974806
-6.2898719095116835
-6.950187185442172
5.289352437784161
6.45074406977206
4.033880018460675
-0.3243747771131055
-2.864352879294022
4.516044087112537
6.527335478975254
7.204013064440562
-3.6750574154177627
2.0546469495772395
2.2199629077883247
-7.488018156643942
-8.768150116523547
-6.540262233993954
7.940724638177198
9.263245812116697
-4.945616257254694
-3.4588793360137413
0.20224234638440727
3.597595054025826
-7.685358103789078
0.025788841151736214
-7.380454859913335
-0.5449350074580045
9.44529639369049
4.553879362529708
-6.889169220873827
-0.6964338779867392
-4.25186179793447
5.9632346304803665
2.3106067270643322
-1.9640717711042521
-7.445443040942825
-10.118501691526852
5.491711754268814
-6.4123562189648675
-0.9445634937131028
-0.8496681028179695
0.12703539874415162
-9.911995371067372
-0.7830894966088852
-7.800450966117227
-7.438989864789943
-9.480987401500743
8.835674751766367
8.144058685852615
-4.108706013432847
0.5307269302210702
-3.022535469304036
-10.046944992099279
5.588560020773634
0.41974341990969805
-0.08933503728866098
1.6216630003768808
-5.330625493558944
5.248764254449687
0.5751583263508766
-6.06078547940031
4.401128803867163
-0.007104036256235109
3.2113804621932274
-2.746532814784785
9.495404640490156
10.007364013863965
-2.1705984152493336
-6.353260427473862
8.635699854930715
1.642346244034949
-3.435142357295974
-8.08964358310135
-5.199288959110032
6.935979112929703
1.1334084818778303
8.347608781738876
-5.334489218560867
0.04768431903606427
-1.4768439559291096
3.068853548469173
-9.547354245469867
-3.9193205763706644
-3.1952272991741846
2.057484370025034
7.6728776456231875
1.0685579014228397
-9.2564514008013
2.9440613069422703
1.6817154057815755
-9.167877169320105
1.9919283406720116
9.596586432952087
0.994467639031902
8.855182274313352
-7.205527982821036
0.028626261599530595
-1.927540122078472
8.011641050608777
8.95699509996381
-6.253215577614576
7.143240027811058
1.1638616216569657
2.6856828047167
-1.2727180816343118
3.102832014987363
3.29351544445881
4.825374068119516
6.115200577427112
6.582294699946002
7.473810084131472
-5.100507444894969
1.0471966044243823
-9.24133383827739
-9.539936270193738
0.6044194267560272
-9.247641509485055
-3.2222611128790195
-0.31290256595592747
0.81507338919713
4.086342473726073
-3.0181230630311955
-5.874525252487563
-7.178479425210366
-8.150080284856928
-3.7798092162479073
0.7918025207833317
1.2981738813517876
0.1744724617335163
-1.1138967369235588
-5.874569386361541
1.054988447318919
-6.057948058952515
9.854043541702026
8.549472017086082
2.7230791731910107
6.737790726151438
3.236395403370071
-8.423758967572837
4.766946177952908
6.702205346216431
9.42792514757821
6.8999334643224755
-2.9553122410523955
-8.086806162653556
0.2536257740003658
-4.798863310084023
0.6451071928756139
-2.459486158405408
8.697920025399554
1.9079798234042329
5.460700641997596
-4.167099168369969
-8.755128952822373
1.338266639192397
9.075589809888156
-2.0002318421015084
8.763460591300374
-5.336694281285792
6.879023129097341
4.840926018909086
-7.68665383596443
-8.79581806844647
3.37943725931246
8.149395884859796
5.2111963956672875
-2.2681513759468044
5.065289126241305
-4.029089950527012
-0.8369571716768213
1.6063888679001452
4.801051148781944
-4.35635086564776
-2.2251292139349474
1.5359207225305993
4.073191723357148
-2.71990862500214
7.319560771622749
-7.829818196352417
-8.405103278154446
-10.124176527697976
-5.414117716676449
-3.234089849293459
0.032039084291329775
0.4731032916656272
-7.6463646080961825
6.658832101276797
5.633239793342673
6.671454462836593
-9.023440454809394
0.29525664372917676
7.8760145192792095
8.13838384968149
5.2768829967023985
3.708993299892478
-2.0459328912996035
-8.72417359289122
-2.1848399860667005
-3.3008475888266395
6.326994247938434
-4.197850051749807
-6.915076074129471
-5.266410181400902
-0.38450190613628027
-6.066460315571434
-6.5047006670781
3.1711623286907082
4.18798304019766
-1.4237614155767244
1.7220046336498227
6.286773000403163
4.245730869977761
8.118645001479956
7.05124927436019
-8.872828191815637
-4.3948025945075955
-8.095318419272473
4.186300046300747
10.11424548260111
2.1100110646067267
9.670380176222473
7.183529250954841
-3.672906689700273
4.939485329297986
-2.750659508381979
9.15961365031565
5.8569234688592555
-4.1548875363858055
2.051809529129445
-3.2329518253220746
4.246824271094248
-8.279848822796867
4.26683270615033
-6.091684605783224
7.402950303024065
8.408257625899106
3.7770733761009354
-0.5899829415386235
-1.659992161537236
-8.165188220032658
0.022951420703941842
7.458048888056772
-9.101511065524788
9.933597682692707
-4.930444178406515
-0.6301599884782045
-2.556729387079372
9.102012089943795
-7.092231133761
1.5183814344168374
-7.221658991391777
3.8657138309078958
6.109525741255988
-4.323534775723725
-9.639342032002093
-4.123904871615
2.369967998907979
3.276684631238318
7.03089120215043
7.0207487119831224
5.224263919468764
-4.806711698174009
9.463341479273993
-0.14458684801449107
4.080667632830485
6.367465937655121
-2.6962588828161542
-6.201876847205933
-6.82730889037333
8.7382092532678
-2.9287884879530055
7.714503166578882
-5.645040595117635
-2.698347322218549
3.901674658868378
0.0953282101072982
-6.063622895123641
-1.051785929243236
-8.563680094323017
3.6996817464709797
8.0605621253595
-4.537004608194728
8.147068504771331
-9.10814301317604
0.8826922893652792
7.843474567007684
-3.615240971528112
-3.9149724735395526
-8.09248099882468
9.63921478413561
-1.6205969404126153
1.6217097756045107
-1.136714759197347
0.9245200185592192
-1.8126111853321043
-8.414388553855815
-9.986612220496657
9.951838942963146
-9.17690779665819
8.115929577401
-2.0059066829970975
-2.142368879644887
-2.158427911614385
7.85562570237731
6.163697413392684
4.831364633551278
7.775009403897699
9.795766544539555
2.329882832733108
3.6267458103722983
7.508092669283115
4.105628889029685
-4.034764786698137
8.548631833733959
4.784655237571553
5.777653726786377
-3.0335794711641624
-9.998529225499746
-2.1846702862057383
-9.801897472496265
-8.539421681853291
5.73511018632776
1.9464258488775013
4.345543951875938
6.112363161703782
1.1293799668356017
-1.08276597393531
-4.612206160617217
-8.437126941236304
-2.9823246011573037
8.891186711243064
-6.333125175895143
-2.011688797370377
-4.014486405526514
-5.570489781518988
0.3352432682290874
4.083505053278278
-8.471037805590521
5.8603171752506285
-6.690178136208149
2.6570146505628927
2.4792000208721787
-1.068492978860373
-5.639370716574919
7.410425173848194
-1.906122029571054
9.15926187443144
-7.925273161910868
-10.121339107250183
0.03879701643395072
5.322486204048858
-0.4562622047108865
9.95742683260185
6.386044640588702
8.519127605644965
-7.720634094535591
-0.5644982540025492
-8.2312151621619
5.552843859292239
8.35584463552279
8.141221270129286
-9.561620751267709
-8.025849123121247
-2.5342341803018194
0.7601499480450048
-8.443849223186787
-1.440552084458471
-7.026879630490903
8.857615717216023
-6.12285078620644
-0.008822961113375358
2.014648679806076
-6.05227322278139
0.46845453156678085
5.371205652139139
1.7464765904621145
5.415019331667841
-9.281623066145636
-4.703167954112036
-1.6493831072741862
-7.769700082737389
-9.279042748207308
-2.876310580907444
-1.9956520038407746
-8.081131326482431
-9.13196323613488
-7.977129684479895
-0.3314953804043545
-3.7822575576134683
-3.820098448840619
5.628570836865035
-0.9556286432294978
1.652413888481183
-7.170678372251846
-8.437977406037522
10.035250047099778
-1.9945570059303839
-0.6221284141104062
-8.514960650957201
5.902420546368444
3.5181546197010247
0.08674617087590432
-5.075227054985669
-3.0368920259146344
-6.32250953936956
6.795646976237814
8.247023059903782
6.024949363452928
-4.023415114355887
10.06887229926844
-1.5718774970467986
3.8244485707775113
-5.679122264855821
5.548270792905386
5.256511735991401
-2.343137561869946
3.0996044271245475
8.904011356917737
2.68535623949817
6.264864421574716
6.123712834046032
2.649620427645619
-7.439298708553661
-6.565411316626082
9.208748750877009
-7.726943063832678
-3.9590497523647676
1.1256347347311746
9.627337311607462
-0.8455852443854635
-4.831559390898321
2.254563742652329
4.094854725620529
-6.950797340056042
-0.4962155640921878
-8.643383292217015
0.011471861595699209
-2.2654184418031953
6.372689038612301
1.8193891940513989
-1.2419671982544735
1.2627791362944614
9.898192265052108
-6.005952687487626
-10.109989434907932
1.5590374819684318
-1.0340465305694932
-2.4094673607197516
7.3118840389101925
1.6414261779133281
-4.331108853238402
-0.2618741886337378
-9.216890626105215
-5.0623139962963855
6.291774254637371
-10.01625337585894
8.152570942471534
-8.04138028573323
5.909036618616444
-4.487439336310685
-1.8853928456466529
7.1029507999428105
6.000629937738668
0.43188027541095053
0.20522334038889065
-2.95394961561646
0.7301074295072928
-9.776338313012687
-1.9917195854825893
4.830786323724457
0.04161540710958161
5.414119257366229
-7.288940315718795
-6.172263061519718
-3.214931550617501
3.9006525720120715
6.7329562248718045
7.587872268885307
-6.7868082008891975
6.504779479696505
-4.020577693908093
-4.769631448701667
6.984698561019982
3.3361472817752955
3.805201276080403
-0.7107384442146991
7.11680724035957
4.594407031332296
-4.136348280265666
9.696236644840768
7.942943455061232
-1.755736945718985
2.065996621919489
3.74020337804727
6.44686758509375
9.570063208548094
-9.18580502768561
3.196106180226288
-3.5869906514911345
2.513143653371623
8.180146772964099
3.3711435169743864
4.336525444646494
-5.766037629365835
0.037138513493985684
-5.86021438965439
-6.901467742076355
7.492091237681626
1.908336568838051
8.657630797531308
6.744748139485936
3.206898117416311
-2.6891577416223025
5.479507892929847
-1.2251413757591199
-5.526122571244046
-10.107152014460137
7.01195221507883
7.522529527497287
-2.8977686544464314
-3.495210901234091
-4.617583063931222
-2.4708133488702333
6.675670414017432
3.8385751428606127
-4.270088703648891
-8.74205700615561
-9.536423254890897
8.15540836291933
-2.588465552622829
-5.825805804397281
-4.975740625312901
7.598930695289569
0.8439415580982607
7.860925442106837
7.3694248686131925
-7.030729371725788
-2.1617243276934297
5.987694645070354
2.4944788007741185
-6.049435802333597
5.9213692694016435
-6.36363677559905
1.2581753014598982
-5.392075608476443
4.750786177814783
-2.842872449743867
5.2881614953769835
5.285765686228442
-8.486817455559812
2.381276634655617
-1.5158218875971963
-8.078293906034636
-3.6790484983000162
0.579446373586887
-0.8197966741310347
5.702065988047218
-10.079107681236241
7.488866341233203
5.981915949972745
-5.583538828357958
-6.378453084328816
-3.1803901857499968
5.305204184363094
6.118037997874907
-8.256209043299643
-4.2610323436067175
-5.588808733897185
-9.759898335719901
4.7910754056830305
-7.679640765825569
7.54196401995827
3.8078242547563104
-2.430035824955989
4.944684654331598
1.2949035054407083
4.089179889449404
2.434791670079204
2.6820508055792196
-7.666780714212583
1.3342432560792958
-10.038818453367993
2.6520980251515005
8.235718484002959
-7.061480250381162
-0.3216714442760641
-0.6169821707984796
-6.965612924699245
-10.115664271079057
-9.346791993701295
2.1442198391019143
-1.4328647827153194
8.634655438118253
-6.131973833651471
-8.051699866699204
6.154455101317822
5.255014802848602
-6.646764576866912
-4.223400185937681
9.31550487273441
8.14689610630041
1.3442087244020169
9.08730298828785
-3.5108367630307167
-0.562621451163056
-0.6704492163464519
2.280038924277867
6.848209560638046
-5.614289711737797
-4.5384002009114495
-9.785067006343295
9.5554199308562
-1.9973944263781782
-6.07504315194527
3.2198817720565254
6.390721835370661
-5.966168921235198
6.345755412720455
-6.935522564078303
-9.974436619116878
0.9134431727451178
6.003421683590318
2.989435844340721
5.545119242484885
-4.026252534803682
4.615957561433578
-10.12845355511358
4.312749855055264
5.127972675288463
-8.484138451055035
3.396216226898768
-9.280682164521115
-9.955861341841281
8.111786064270245
-2.572230980789356
-2.7153971782061426
2.060321785748364
-7.165626097622456
9.62513395948962
-9.744752689803516
-7.86303362847755
-4.5772938360629745
-7.307581664951936
8.929472938598717
2.360633716112946
1.786692931679397
-6.178648991204094
-6.725697866577457
0.03146367732286095
3.5253746157563906
-3.723201372404948
8.468693810961593
3.2311079633216475
0.884230785966508
3.0241571260251345
9.623227397918942
-8.50867079374899
3.8950573076348576
8.551102664746335
-6.485782808455668
-10.112826850631263
-3.893877255866431
-9.590622588636274
-1.9211660717175354
-2.17243950202603
7.900435410308951
-6.191404362331034
-7.19941878183598
-1.980937913990539
-5.854539284219416
1.034187034349845
9.795334988977988
8.149733526748205
6.7971234575124155
-2.6475394394503375
-3.999138052032932
8.921702094497633
-6.929458448742073
4.140334428646035
-6.505664322515756
7.4411760572280325
-3.7461749082639555
-4.527479790780233
1.5348185635624976
-6.055110643229185
-4.984460206268082
-3.185370405927643
2.234777884188795
-4.069304209268382
-3.022613829025551
-6.563463463204668
-8.586927700476426
-0.5337473658982467
-10.071268040854804
-8.13389780119497
-2.475482120084353
-8.083968746930223
5.706540511835229
3.7577127479827586
0.15680590387339774
7.024837382530817
2.4389107930039313
3.7682753277724017
-7.893173245880668
8.88836660059586
-7.962903664899342
6.595853859479923
-2.2355670619625636
2.0631592061961586
-1.7127113597875931
-2.109708463524104
10.058364502274776
1.6212899124586735
9.45511541262191
-5.447286160583767
-4.424400939830619
-4.875318996001731
2.5789182243268916
-0.9210617709165676
-6.245867745609415
0.03430109777065532
8.978289353591254
4.83337468093737
7.9803925266838425
-7.575986972098172
-5.374778446429114
4.884452635117767
-3.730646485234859
4.546794970492376
4.687282600282352
-6.482728596046646
5.785034305331138
6.120875418322702
-2.803294310189244
4.295543714460064
-6.077110027623866
-0.27557479478367836
-1.4679338267125914
-5.819345261457401
-5.811909863195531
-3.4281284573583672
-1.6378105323084944
-10.089146611185846
1.7747336216842866
4.092017309897198
7.887706407914067
-9.052791617434506
-8.155081998490335
-9.472851679340524
3.993590790592427
4.512393529519669
-5.118155403875307
5.993985518584667
0.4705538436469667
4.6406050494890465
7.499588823963505
2.0007359941403946
0.07167532739971011
-7.731615378197489
0.5095743839674904
-4.11964320567995
5.113389233353473
-5.790950308695858
5.280965759150365
-8.015707149776095
5.441380290784833
5.160530316485546
3.4892881403166536
-0.02812211428510878
-9.52874244030195
-0.7885322290115521
-1.5683975963479064
6.974498390843712
-9.716504630422016
4.5407884822812115
5.97472021847059
1.406406821442476
7.549744671464758
-0.40113650864453115
-4.771228285098837
6.058452206266937
-1.018907623001941
-1.3263632002133217
4.665518339873821
-6.0165079081978385
-5.8096600107054925
-6.163009409569492
3.893456840509917
-6.568516606408267
1.224651534149447
-4.007554523783733
-8.781528973470152
4.0295941025658975
9.672093095101369
5.616719953697079
2.587546359558424
5.07763368360136
-0.3481353886760094
4.168729381407578
4.587211299830141
2.8535973600858404
3.333015910104908
-9.569221344189346
-8.5416139106239
-6.114696425388226
2.2528412187540843
-0.25070125780978275
-7.802313523120706
-0.3259137864707823
6.66806923094197
-5.0468321069485915
8.055983601155727
9.381330244568755
-6.416580681749366
3.2052815064946696
7.739503882085293
-8.143554533813731
-7.347576548947576
6.692381891376155
-9.880285503436102
-9.523190671027628
-8.161824628109056
5.284906684028479
8.749738055751486
-1.487974270017645
-4.308216305793905
-2.356385318635408
-0.5210125480546611
-2.056980217986148
1.1622582683524332
6.15455092489885
-3.64636957193884
-2.2227784984375982
-4.254980008392533
-5.4188912078222256
6.668474677790814
-9.462897693143924
9.658109042695754
-5.962803329050145
-4.531313226977048
-4.085838321687188
-8.438159494624763
-7.193784411720184
-5.7243415475297725
8.871363098086062
1.2065446136369504
4.912847583154845
7.362229137111038
-0.04078372192535238
-8.524945057704826
8.766948326900284
-4.291398168855258
6.061289626714732
4.434007114832923
7.23021285785346
4.17721704614714
3.467815632738385
8.222749237979393
-4.3027139052013235
-9.460417047368349
6.486949162557563
2.016876826796942
1.2500326965037933
-8.30169885250211
4.032431523013693
-5.166410652868738
-6.118122469316646
2.0992450705562073
-5.72946125181846
-6.6071446210716305
6.029024885775747
-8.76666258332366
-4.382355352028838
4.125241202752402
-4.311634128626285
3.7292031984384426
10.119005838841273
3.343424169155735
-6.655953440518415
8.33316100205347
1.5709509207715697
-2.7003000060795723
-4.6747730060749575
9.443492519796175
7.934139705925391
-2.1998519298384442
-7.918052139041022
-0.2810974852084078
8.090147735140235
-6.256993598545924
0.2871297086675227
6.255189021738073
-7.626325963785275
2.76122461594991
5.656965784902113
10.137246979116398
-2.9351648086610087
-0.09148754915851909
6.811699521633871
-0.0411824270866186
-2.0541427975383533
6.615173010911761
-5.58029150283934
-4.134670860941056
7.2615450472230885
9.777429240292351
-3.558595703454056
-6.6853992053629865
3.5925680758219056
-9.841084145737257
-0.7052161087626193
-4.051483110733469
-4.083000905963857
-2.985244761514364
1.3627916463465972
-6.212642841256453
-1.9357318420582204
-5.052464623483136
6.773143087523015
-5.991644741318299
-7.276736438764494
-7.732719769781796
-6.266882938617162
7.979418940207084
2.0035734145881885
5.524590065234573
0.824960679869292
0.021273094965274214
5.364680335256272
-1.1456200037666129
-3.9306548043276903
-8.072908124003435
5.03975861446527
6.233605583432327
-9.873300949031899
3.969118256560232
-0.02528469383731441
-4.075827702467087
7.768043824330765
-2.056698885350123
-3.8325965493005723
4.31590461826287
6.401083986649382
-7.37915366468321
-5.829545890672201
8.34196995938779
4.856450711642995
-9.501274147835518
-6.120371266283815
-8.652988252191179
2.9275651118616244
-6.825710949840737
0.9968576080128144
-1.1053307758983657
-8.767423120409394
-5.819105594697686
3.5618171924420667
-8.001031267044356
-7.309892929355918
6.779843649598137
-8.149229374709318
2.038012461187669
9.870648256323097
-8.90368292543167
-8.20041927654403
4.356193846131117
1.5643156705676775
-5.125351135377462
-7.307487322144332
-5.89266688636443
7.41985872659451
-1.4806727805418178
-2.062655054157273
-9.743571202592829
9.332817289845792
-2.6697669939344073
-0.9000070992295375
8.26303846584764
-9.139482221283027
-7.206614513338134
5.009007735809895
8.07365846212523
3.8134407161797745
-5.490973464188669
-4.0915131625827765
0.947429515510482
-4.015518042048776
-4.747738969525341
-10.097283983786383
-6.566855393203384
1.1922565696940437
-6.512860058742374
-5.860296778776504
-10.109395642999818
-1.7482261089503037
-5.25105840606688
6.055614790543607
-6.47182235611234
-9.882939253555639
5.1538196241515735
4.790587027221982
0.44934922641459407
-8.023304918662125
-3.0440877574167895
0.6674361057064105
0.4324262415019523
-9.265141739346793
-9.26135908971373
4.0267566868425675
4.219178357266507
-2.939856104369702
3.07584764856064
-4.406689857334864
5.910873843719613
2.3084338770394086
-2.3503332980965648
10.089550076924981
2.5407906221818775
5.464609916603635
2.7695429612268216
10.113331002670149
-7.56240530651399
-3.4776870755714713
9.309763580057902
2.8937223199796303
9.817718463436137
-8.395364019535759
-4.431596680781701
2.114626649074239
-3.784302510408969
1.8581919061888976
-1.240757722420029
8.08447289896911
3.1285954115893198
3.46539607833893
7.23179160446697
-6.303554564577214
-5.0121753956148885
1.9363747714413115
-3.7378422167370133
-8.754677860787696
-1.6759381297290448
-3.7034749142167165
-1.0008426642982395
-2.0598176337094785
-4.290656464757966
-2.4020251331679323
-3.158068278212159
8.584316441706685
2.00402922400309
-7.279186712190394
-0.26906992013589226
-2.2269449763047824
8.86588375004826
9.0710279364673
-5.011143343220626
-4.088675742134981
6.400344248620881
4.541058016018005
-5.236040258527557
-0.6129604428501598
7.465553846032573
3.052552078786677
0.42468454390879595
7.195168990189326
-9.317170350352322
3.509361106612758
7.019758707719926
1.997898578417064
-5.381239410435153
4.003227044816236
0.9978756729697069
6.687451734464334
-8.91902001533141
-7.651245813064027
-1.6565788387763407
-0.7797544376614176
4.649154998137338
-0.0970569038019791
3.0094580193486107
-0.030959530008439134
5.309761302943693
-9.345108287078332
-1.0800963073456904
-2.5098251500925115
-3.4574953933019286
2.6804929779130426
-0.9628243794561165
8.642359533557153
6.7575193740928
-5.658723724207593
3.2493730821948645
10.11616841839348
-2.109490568679128
5.078888982495311
8.821462291055687
-7.913372620164654
3.5587092310405137
-6.535068510443127
2.5059479218694687
-5.1213260630404385
-2.9920772177614747
7.115779126476424
-0.7609276061764503
8.08731031469244
8.581510144699719
-8.269446344674796
6.74349031074029
3.1807689763590083
9.020233853069996
3.796670280533944
3.199702376465229
4.300787908178132
-0.8837128418060138
1.5541123013463456
-9.02144403159194
-6.117533845836021
-3.200073519080779
-8.807277315876565
-7.314012234118489
-9.810237327407005
-7.364340008293988
-6.90712761131676
1.1184389985045562
-3.674135524397074
-7.208805969672397
-2.0523057137928555
7.259673765841716
-8.146391954261524
7.490927199022532
-1.864194166690627
-9.391984214433887
1.2839042643921919
-1.9028153909889691
3.4246111796603103
1.8121934625492442
5.747978446821497
-5.1004415984414
-7.613972534198469
0.9184778054005384
-2.048467961367229
-2.7704159992234847
-8.758557867786283
-5.111273438945489
5.938773648015028
-2.7405892339478197
0.16199531000674539
7.189689990490425
9.412081127948593
-8.256633560442268
9.809958327087969
-3.0918228735218487
-4.077326069792733
7.920584718879827
-1.8154747233248103
-7.189245414536422
-3.258503236541817
2.7209353833571988
-9.79768438009669
7.88344444981065
-1.4572233819133424
-6.148269184486806
4.24829150195789
8.939079177418703
2.0092482507593137
-3.860998944900672
-2.3533056898021156
-0.9553294877636224
4.04190894549714
6.627780003073722
-0.21006379086688842
5.802181067125513
-9.43214680503962
7.818056164002853
0.641873486818689
4.928778493771853
-0.019609857666189674
6.8300017684781755
4.589777459383821
-3.0333014633545554
-5.1553679485086334
-8.202113855977302
10.12167500011018
6.495935531170201
-0.010032838545513997
9.926420539958315
-4.919793333586925
5.168693551893642
10.127518095460193
-0.5892501078691108
-1.2776437521230408
6.868257130322358
9.732503067224197
-1.1859092316348603
0.906113511754013
9.964707827771322
6.517700045937401
0.17682394810404034
7.854709517097091
1.1583928682467917
8.098659991759154
10.1017506102342
5.6654393970628965
4.790285154731424
0.5352261826673504
4.275615390394622
-9.053566178349424
-9.632956189264497
-4.351604468648999
2.2851883240595017
2.2930426919670137
-7.1021235571686985
-6.106184173493771
-1.6798330488218338
5.127608425861126
-9.26721739485182
7.835638359981843
8.182460005386682
0.5340544108803792
8.577198909130875
7.964890584580766
-4.039904808531345
-1.3133753231721874
9.178994235540493
-8.135042277194811
9.01116765983255
-8.220726901308979
8.946229110637754
-1.3616385292994655
-6.647433848939879
-9.425625279223057
9.270953373175562
-2.9044139252811707
-1.9315404278514205
-6.875042143577801
9.418909298386746
2.012085671207108
1.591915788209727
6.203270368264666
-1.4436307720413744
-6.765185994647143
0.3687707706780995
1.6502317087768164
-7.551692811303824
3.6233189592017436
8.610281456650348
5.899460707106216
5.408608610015432
-0.016772437218395296
-8.00850197476747
-7.145064963629903
-3.5216027523567712
4.328955601876518
5.8302953927075825
-8.30944798132662
-6.857938356708063
-7.245985550660192
-9.572772648474697
0.33779388197613697
-2.851907815400059
6.069801883333651
0.5013328425325402
-7.682895934831674
2.7123131791404917
-8.66205070661396
9.737140012424105
1.2781726126276467
-8.939201734668735
5.070509502569572
4.393552700014962
-3.2686241284386
-6.862208499046909
4.040943779632611
-9.09908492516912
-0.7398127856457355
0.6343412035495585
2.4320908899097025
-5.092753851351383
-8.681507077475791
-8.24544727534851
-5.798795012016828
6.501917080694888
-8.830290953568678
-6.62229344092512
-6.103346753045977
3.7730816842885653
-6.607233997152598
-9.75551867912957
-2.9714565801624393
1.9234507729910593
2.3943499105240837
-4.776674974022927
0.7289378724660874
-3.247679515883851
3.9442118971153386
9.658824356508536
-8.13220486147148
-5.8273360786886315
0.3358491567578034
8.457927821635538
8.122685011636758
7.384975390296077
-7.565329779579353
-4.082920514702703
-10.140366637395848
-1.1393151399283898
-1.6174549280147397
1.398307926368581
-2.0456305409194346
2.682498738611378
-0.20198181444396604
-5.599574727947704
-4.868321292129256
-8.999598471067905
2.02229080965045
-6.164183892663376
2.176128415833916
-7.464408272519236
-5.223872938429477
-2.6119927572782697
-4.0744886493449375
-6.917919029090283
6.741101334741971
-7.677546703538637
6.225820304394406
-3.5380738490384234
-7.937388880452986
-5.470429433343152
-8.693176098752483
-5.356043891839312
9.505878722245416
4.209033314682022
10.121843254564604
8.796338902266132
1.900622612823903
7.844859713051255
-9.23614401464825
-8.959309243199659
-2.814477501706789
-3.9103813680820902
0.6981869890862489
-1.407626637190949
-2.660464918753496
0.19873263103517064
8.092985150863566
-0.8040788654355259
8.843705766734304
5.766887737460321
1.857997577150947
-3.497784621170176
7.517261289270282
-3.216626904037402
10.12030096030482
0.7007377387645117
-8.222131743883574
-8.06178379438032
-6.1118590096648955
7.7057559565889475
8.305874795532535
-8.290614816847388
9.158409754465442
0.40905999854634684
-3.1865366025804227
-5.297890286722539
2.1453775324540776
-5.624355389101871
8.462868722057731
8.219334003053335
-8.1407171180904
-1.894661811112713
-5.042460531637571
9.922831693366652
-0.03886713009140469
5.870584620575829
7.145202188396648
-4.604135822677851
-8.723926982132323
-3.5159910131464107
2.9012019016521178
8.459249061175125
2.0064108350359833
-9.313913682735535
9.38153673321161
-0.46702819876140605
-5.442414600163547
-7.4046292408867
-2.070359299959521
-1.1353635260767292
-2.1961940929249435
7.0258308713553586
-4.615713728744373
4.448948372803811
-0.022447273389520024
1.377087030643312
-3.9667985986829595
-2.5450001696278752
5.65172699163565
-1.9431046188572163
8.26137949101755
-0.441609066756505
7.225919873569164
9.134195252035283
10.114037927206056
-3.811568047887216
6.064127042438062
9.886921852667784
-4.504629565160265
3.688915757144924
-7.339279307405898
1.9637399961348423
-2.442418400833155
-2.5228724447171778
-0.7490035542815794
2.8091021194444368
6.507619912066855
-7.821868736258532
4.035268943461486
0.28650408496612517
2.4384535840256722
1.6109437815539909
3.7548622891177628
7.4252646181643245
7.889320390143915
-1.8291179901214174
8.673110416936993
4.917466495399898
0.9459530916612413
-7.581953678136742
-6.109021589217101
-7.132747791381161
-3.4289676322056546
-8.778916105849602
-1.648685185678843
-5.84994923857374
-1.3262410934877897
1.6396543159286316
-5.090575184385065
-4.832130101178841
-6.570962538735248
8.699164119296915
-8.137879697642607
3.558252921997686
3.514115521704747
9.434530399639971
9.445456410844818
-0.38842461654425675
9.00549769748928
2.3334087705243918
4.331538791557971
-2.7237657204989154
8.15878911721518
0.4386476891569599
-2.051305377090559
-8.223330732333883
2.9762845552274415
-4.622972149943272
-3.545549892921195
3.5184200031722663
-1.6983001943614235
0.2521453925637192
-3.643384636292772
-9.048858853089763
4.552371106800443
-3.5716529897654268
-4.080163485516063
2.4676699810449634
9.919367704413379
-6.700944125534206
7.548591703602467
8.97994462520175
8.633438596615647
