0.5509103934102448
1.2517311924254384
0.7520950352810981
1.0370892423737843
0.22693572265438744
0.5210070084177378
1.3545292475267707
4.124872649526314
-0.08126758047212078
-1.0216468577968916
-0.12095269199730692
-0.819619434557146
0.5499370268941561
2.0018304399435056
1.1883635295249946
0.7050144657804593
-0.08201774331206915
0.8042971286016559
2.1691817664001762
6.932256367596179
-0.05175788582055321
-1.062608076453296
-0.13556521518134557
-0.8415165487055672
20.653558594237527
67.00849679520753
22.719574821603146
39.38145355500418
100.90874931043497
8.01905172341107
-81.96585793489331
-33.267620066796546
25.11796540508564
39.012573482442065
-24.36903233171959
-3.9551078140233225
-0.47070703190389207
-1.7199905728434695
-1.1283256320897244
-0.7816860179506685
-0.007744731472212712
-0.6733125994083015
2.2555441809558165
6.75738621310493
0.06094726928608513
0.9905170864622695
0.1261601631144575
-0.7909535150361358
-0.4511013190023836
-1.677059938568721
-1.022605492159411
-0.7993895319832861
-0.006805617873333064
-0.7161497253785324
2.2764821849180072
6.727820137250342
0.05550757466703156
0.9934220153609882
0.0381074110627953
-0.7802004434313013
-0.5171659635256973
1.8743606410088811
1.2577107037204291
-0.7284924409930918
-0.04542855643837051
0.7063315713201315
-2.1968559972843105
6.869101211196318
0.061365648749714424
-1.0214389180992542
-0.16706768244804923
0.8223582910218309
-28.58248614654783
-63.545666881707525
-63.223614189728465
-12.125837827475369
-7.828183555083765
-9.60063996971717
-0.0954988255453663
-0.245845676134411
-0.8670871770300247
-21.975530275857405
-10.628296382574996
-11.43684056729063
1.5833882213880575
3.9946228993683737
3.952496525471939
2.4941894113852987
1.5599910298411928
0.3446279666090656
0.7743007528810979
-1.3268996675829825
-3.382040499136585
0.1712044400705603
-0.4158592046882608
-0.42218627530691244
-2334.362833886384
-4612.887029768854
-2713.335194981313
15.875071195876355
240.26095659122748
240.28603567577693
-1750.520247109121
-7705.571175575638
-273.75446690190165
-3905.305178665467
-2736.565857271604
-38.09784153146816
-0.4568745679421234
0.18536989862365874
0.12989240709109393
-1.7700368907956618
0.5241923319259569
0.2219644319467122
-0.7001703689811174
-3.513668587467308
1.5450762291447149
-0.04926202410769841
0.11569535899297499
0.44757390317547874
0.5413214829402315
-1.9534693526280402
-1.1945150831596323
0.7008643723067589
0.07406985620540307
-0.7604952210984443
-2.189588786746949
6.937377827189987
-0.049582456155890846
1.0637258842874624
0.08585138748301972
0.8350189700878187
-163161.699838339
68510.816401663
36485.4743013933
-108460.40863064682
198816.14778226733
117842.96259656546
596.1087697039521
-1023.7292777611456
-39423.57519849642
9304.110318067831
6028.8917230117995
-0.09999999999704465
-0.5539952854184361
-2.0156573497588246
-1.3208985239976605
-0.7213674286484507
0.09943203667293149
-0.9039249399941214
2.142581127602689
6.949863012480762
0.06588579720348861
1.0328246653759443
0.2945275763229244
-0.8504197719439356
-0.5772340704280444
2.136479839716382
1.2931869677789696
-0.6853186334145186
-0.1218630948228927
0.8809658286328931
-2.116696595459263
6.983935742953459
0.06346306105204176
-1.0500982628694042
-0.2913764913266598
0.8635495133057934
-5212.093501196774
378.770653118339
176.0431495718036
147.68838132848654
890.056169565539
888.6086462085414
384797.06377633684
-9766.423340972551
-6989.026624291437
686.4703587221047
322.23309233358964
-0.02222222222235275
0.5471177209413539
-2.026162657325482
-1.1115637575210926
0.7044130915486962
0.06185026955410326
-0.7533832420345468
-2.187333458962815
6.927750827703608
-0.053576159250624256
1.0490288224325806
0.170343406214557
0.8356259055836519
-0.5522698370031114
-2.0497025696836673
-1.2653627256140163
-0.7683721501135834
0.10683279071423518
-1.0608423374740932
2.1010611011609
6.865179882223222
0.07097045507169239
1.0225641910739716
0.3801758170201592
-0.8562382440203994
67.49373649186523
44.09824000542923
15.806052986216818
31.982855419746755
-36.01025301658053
-50.48058718027953
-3.704944319391969
-5.074743375937052
-114.24611550805396
171.2709610415625
155.77348589924466
-0.41140586724376016
2051781.8911296963
2488669.1004212797
1242873.7343062384
-3486515.7205279996
-841681.1263729051
-426241.2375915575
-2679850.274967978
-1745756.167612177
507513.9107847723
2251130.6244832966
1119277.3739809454
3817.833758375709
-0.4648288647351524
1.7091679489761895
1.094216355001039
-1.0518837586328251
0.005393452991187153
1.3778048580537616
-2.102606058506929
6.4127933403252655
0.0936329727915122
-0.914764656255508
-0.6121773836232469
0.8076101154869121
-0.5727859583141804
-2.083747940108294
-1.366558660279686
-0.7084915635459955
0.1061401195105141
-0.9069535785247141
2.1192907660079356
6.968637916990148
0.06958939279037402
1.033040332210877
0.37214525547122274
-0.8616402330519097
0.5194742615345563
1.9024210237326162
1.0999573403872325
0.7250569638117405
-0.03364924347793773
0.6925196024938305
2.218757846168704
6.86720252128037
-0.05149867445119446
-1.0404639823559156
-0.0969577843983864
-0.8192342171971985
0.30516978417868124
0.5607046655805445
0.45768896362071804
1.262742596489427
-0.9667330162738563
-0.3213492657903203
-1.60323460385831
2.815720228778345
-0.43938472613259555
-0.42915231407194737
1.9583602726855347
0.41963716412242197
0.4772109662912069
-1.7173672594889757
-1.072314898884086
0.7945487875813912
-0.011945662533233117
-0.7242817322473548
-2.259521449386434
6.74956250854456
-0.05444014507537203
1.0061746968363379
0.10946656802619362
0.7958503105165952
0.5464319798298614
-1.953411280804826
-1.2478349800865496
0.7004766645598448
0.0861781667389135
-0.7887526543193091
-2.1716501255258973
6.936270480130039
-0.049373030494872926
1.071358481145893
0.08216993560631324
0.8407013461805937
0.43844573277689053
-1.5384836750416981
-1.0270641174459565
0.831060355244483
-0.04257300087489825
-0.7253768690478284
-2.311904172982367
6.6680588617316605
-0.051150149321789184
0.9908124453085042
0.029513828650895614
0.7720384481518326
-0.5364921712762907
-1.9697573391456966
-1.2454979597225981
-0.7344990700934029
0.09776102686307309
-0.9191897200045716
2.162502913039213
6.931049884730635
0.06153706061552374
1.034788192971492
0.21381523764425417
-0.8404934552081117
117.04257424884342
193.18227389943212
100.7556679466852
53.800673445782074
43.9817685964838
19.321815841058218
-50.41471261768175
-263.692749801123
-2351.4092690735056
6642.70076405474
6084.848317351326
71.58906829048749
0.5694862875153816
2.047965210482371
1.2903569436234243
0.7302307324485721
-0.1155801405740513
1.0296053170953863
2.1331183192352867
6.978518576447804
-0.05896921519104889
-1.056523141775659
-0.29282611488468774
-0.8591954483748524
-0.5906279593492411
2.2482344485282284
1.1945259501625616
-0.6759640310518089
-0.0992468384306936
0.831717341137813
-2.1245994932890357
7.0039865337175
0.07014096035954485
-1.0281881788216762
-0.4249556403833398
0.8642698062060755
78.31248052216965
-4.983513703385237
-2.321285820663755
-92.52511156752719
-87.26764956011345
-327.1870141744033
5601.559979040867
-233529.72843320214
320.99067031742015
-169.95117100857854
17.592246397240878
-3.1662045368259976E-9
0.4946519279006398
1.8176981232598741
1.0349589794084322
0.7580059448065976
0.007963193826579966
0.6524204886953611
2.252018120550339
6.789489528744659
-0.0540435586133711
-1.0122746437201313
-0.12654492060630274
-0.802105384498384
8.777821316140515E22
4.37910336338761E23
4.379103363387611E23
-1842.3110202915213
-2479.9817196157173
-2207.7645540891012
-1.2513964479898367E10
-9.4565968938731408E16
-1869.7727880961684
-3827.571277099093
-1891.2905316627478
0.002020202020202049
1207.336202536129
449.5302951458491
92.4548573445227
106.04457737671274
97.80354175554886
199.42862982497329
-178.3791225239847
-905.7411475361881
-70.91452522635737
-152.96722650030662
-203.4227873254386
-0.03991603354830523
-0.5224899606243067
-1.963769071963744
-1.1111533529296143
-0.7008731271053781
0.06915852456731504
-0.7099722610871939
2.204302714337714
6.914560618763076
0.053657853880378525
1.0401296510542801
0.07712579872772315
-0.8237560191715851
0.5554981195930874
-2.0437019859350767
-1.159007991146742
0.7165291516412229
0.08188590982815756
-0.8704831731853043
-2.171392557431509
6.956589083371982
-0.05609238099381537
1.0489214216104765
0.22913695331867373
0.8439348092713177
0.5556214083620121
2.038572546931775
1.1697857242319978
0.6954907420808473
-0.07252333858253399
0.7550412382823211
2.1699078611479243
6.93572247134812
-0.05342123974732574
-1.0577528827069862
-0.16838812070312908
-0.8421627829231639
0.3833821114145627
-1.2565501006469777
-0.9835961097343618
0.858848259770607
-0.1354630134636105
-0.5685940333513269
-2.4180059082806573
6.500534860000688
-0.04929392764326003
0.939578323139185
0.03234275874717215
0.7286162551846473
-0.4877442300237438
1.7829377276375022
1.1547767458353795
-0.7544143929822166
-0.02532818530704384
0.7151195299004398
-2.241252432559645
6.833248340726369
0.05808538132531435
-1.0100171589799463
-0.10237962769049772
0.8030752635705747
-1.662774511151774
39.57800094373821
12.190977357325472
23.04954677654935
70.70199854736002
69.92472338345732
-15.605397863230579
-10.74947214226906
9.78249892618723
-11.754949287320375
7.147330694665319
0.35124201263914157
-0.526699489996791
1.9199112886388354
1.2386541611541404
-0.7255431983235784
-0.10692144483926538
0.9062584155611624
-2.1798634759256155
6.946385387465269
0.05481856581733955
-1.049117036273651
-0.1006848810565636
0.8350758686934714
58931.90362489387
-52661.167151075955
-21491.046354737162
-124621.69222799057
4722.542056036104
2456.3951267408233
-4652.524151661596
-16283.730464820055
23398.27215102637
4982.27059331075
1204.3741307515
-0.004081638678187949
-58.4845667825508
36.08696165797849
25.201674578459183
-11.050537393480523
8.413285567979276
5.44593648774663
25.208685141617806
2.9048577759540737
-8.007586102672741
15.307836678375748
6.241800977873644
2.872447706545149
2.8159122803236083
-5.237065820180443
-5.244170620190519
0.7012818131497867
-1.4614404986048988
-1.691490200597067
-2.4792945267412416
-10.032499538282888
5.77060862204456
46.69960997201639
37.299211957413995
0.7179794917770138
-0.5463705564194309
2.0573534206123925
1.1488710108626072
-0.7076845154318843
-0.12991270184169948
0.9469328697917334
-2.1553613358758708
6.9739408027330505
0.05426671055518153
-1.0575963713697765
-0.13293365636085505
0.8467519556722669
0.5480314463912919
1.9652391682040955
1.2493203893541924
0.731009892256932
-0.07866231768719611
0.8838038317158653
2.1678095854122224
6.930600994650979
-0.05661729419582779
-1.0482527747656214
-0.2183865366271959
-0.8425262274554809
-0.5564346679241566
-2.0481384077325155
-1.2597340897778357
-0.6852867881246923
0.09929828694921924
-0.7949021023289239
2.1624259272697897
6.986329975860849
0.05983219730574156
1.0454132863111967
0.20657318530620278
-0.8469109115180066
-0.5380425424946772
-1.976875150139712
-1.2336785746030676
-0.7061124873187181
0.07086541079584503
-0.759759573668339
2.189159559557074
6.949358523773011
0.06165365538030786
1.0283255561036286
0.21121895180139655
-0.8337973522998045
-41.29540782081423
-134.8112096250097
-134.71833642050578
10.81130032277652
-7.520576001829529
-3.5937725398851503
-17.880316872041586
-0.943250375489991
28.561873350544108
-43.26592089310156
-21.08019698566893
53.36393820234186
0.5779756454026898
2.1384934988635314
1.1957019964611255
0.7355282742486268
-0.14226953897061198
1.1434480184206375
2.107246064275854
6.97497225897035
-0.05816560540052625
-1.0641714519585148
-0.3068344848331138
-0.8672579877452713
-410.50654069175926
-39474.036210779086
-39449.49386347333
-22984.223581030707
-119388.22447100349
-183.5330558374772
46791.66105023501
-104787.63551816993
34.79868914528164
152.09605224580818
150.43338032045833
-0.19972910722640425
0.5087205646899947
1.8904283211707764
1.026638376522732
0.7442441783503463
-0.04158151206513849
0.7603956870817492
2.2178614232034963
6.837503823115184
-0.049105766678061845
-1.0430159905385896
-0.054867530023491956
-0.8157599330078606
0.49738784241628314
1.778258022927997
1.1355323303657878
0.7509706422064112
0.012045979156506773
0.6235219924664789
2.2591181234023954
6.817427408223966
-0.0553570285993548
-1.0114985921374537
-0.14053995160311533
-0.8031770773745093
-0.4508555397606094
1.6575628880270044
1.053740408398354
-0.7978466077578128
0.01641437440463957
0.6898244422590923
-2.283260736919334
6.72793442873101
0.05714820000387174
-0.9871850464120256
-0.0631152568975515
0.7784012320961357
-0.5346176649992332
1.9804240039518537
1.2046214651937472
-0.7076095645830528
-0.08415275575320921
0.7729461407219097
-2.1682170381225285
6.906542327430628
0.05693209139856089
-1.0437856991734193
-0.13233003494955903
0.83558686767723
0.5248781533591544
-1.8750708409325947
-1.2102415055909388
0.7322261444610034
0.040304340096614134
-0.7324660526655112
-2.2026144382970285
6.8722144680807435
-0.053982194374294155
1.0408244497845738
0.13501004466381747
0.8252671793535152
-1600.4275120761895
-925.2105840067053
-703.9467149331718
-92.41784543229667
-103.0577188176935
-46.70509560464737
-654.0606591183105
-290966.25541189587
6.738313741965798
22.878234265215184
21.851229241241704
0.03999999787748832
0.4911785496159155
1.7639845550730664
1.1022836926398225
0.7598045902549964
-0.036257464083671274
0.7782744913240739
2.2417916582927937
6.832213247710596
-0.04709111972918561
-1.0428091147825544
0.002599711652216895
-0.807327960989398
0.5713603877443094
-2.072329756012983
-1.2505956873852972
0.7073487074151618
0.09565710600947655
-0.9062341046909868
-2.152661696570211
6.992531496018957
-0.058650302423448375
1.0522084340597635
0.28782138456304973
0.8543573905750349
-0.5559564642262872
2.060919515951846
1.2314091853585085
-0.6778375561196672
-0.0975756041430824
0.7543674745870897
-2.1583979599604923
6.967550233679366
0.05773499373373424
-1.0505180925149105
-0.171879080642041
0.8461042051652903
695.7584450392536
6770.517108059884
5808.257385586872
-254.60194872568866
354.5206203634732
28.995910176585184
-685.8977177616649
-7.973554560680434
-77.89793664016851
1551.5768187695107
996.4543597295209
-14115.955829168588
-0.5473721617232783
-2.022111890437837
-1.224126338464461
-0.6759102102021213
0.10552530544845355
-0.7526415252672146
2.1652177567802053
6.964021594445387
0.05255565398803238
1.0624815897868325
0.08120158648726768
-0.842510941839068
-0.5566220243188595
2.021663516883487
1.3443856468217827
-0.758731269159492
-0.1405067653030043
1.1499439466139287
-2.105359423343627
6.9407007143007
0.06706786017762834
-1.0401032782919262
-0.3274872082765918
0.8622712993881242
0.5473971243077141
1.9724516713602291
1.2295612750220961
0.7244075821380206
-0.07284485560559911
0.8409624314699202
2.171499208172372
6.925419796642914
-0.05594381033579433
-1.048847552904713
-0.20325453806606106
-0.8407965057991903
-0.5105739166515165
-1.887595683239663
-1.1561778013389943
-0.7210206448946522
0.050800458400732794
-0.7082616044637623
2.2188370507291246
6.890915395786176
0.056538182056004964
1.0268524076330088
0.10172701990029064
-0.8166225466146683
68.09730548615444
-143.1096417726063
-118.74389245194195
-738.7173703417955
-3521.0662434271653
-354.5780804571478
271.4480270077946
-114.53397422900173
48.65902701657701
559.0651124834029
198.36915626936272
-0.04000005833963455
0.5352357343726107
-1.9512932409346
-1.1565958852857787
0.7328542720517217
0.06990837555210194
-0.8410211418119763
-2.1805502539586707
6.89532955439306
-0.052969507792896185
1.0504736124646332
0.14485664680073665
0.8340870546016224
1.169894543922345
-8.702149852663043
-6.781498250199692
0.5457358543577708
1.3464025376935524
0.6205731735792158
-0.48181385856336906
4.977916985356718
-0.3275246771270054
2.5855317112396836
3.3704669584178863
2.60120760146423
0.5619510227322998
-2.024142812828222
-1.2483438888273715
0.7028827264267319
0.09607773741780941
-0.8785363891278817
-2.1683491454019204
6.995573745358213
-0.05468506137985923
1.0595622865999212
0.20764246706518236
0.8486495012004612
-12114.701860831616
-20360.36602541072
-3642.389989429792
121525.1753946738
-40946.73692371042
-48284.235659462705
602.3918866924798
-8220.998330168492
7716.844167050354
33646.04857242891
8198.6320110507
693.8949093032686
0.5690959554543282
2.0871653707971456
1.1911257781872595
0.6857198183961689
-0.08580024768753432
0.7999663360161338
2.166111477625571
6.990137258541008
-0.05515541288493706
-1.0580563771069373
-0.22224283802145756
-0.8492347163731887
6.479222879649878
35.333229024762495
6.629025625689841
0.5777019370793488
-4.025667985973463
-0.046275947842206344
11.380445940290201
44.59121170882632
33.34422549522352
186.3256261601456
215.68262102580817
-0.0026073874440035957
-0.5141836176046508
-1.8689483451466113
-1.2296927064524827
-0.7249535431975461
0.07621716796118215
-0.7857772825031808
2.1968659903009455
6.899303378026606
0.054484962327188774
1.0419597069351183
0.06762935201788496
-0.8243361656878323
0.49951660193988556
1.7561324734403008
1.2074314849126184
0.777791328764121
-0.019924985791559144
0.7977777618526405
2.2356609325437615
6.837934720710713
-0.056024946772365636
-1.0194510090057243
-0.15261228625087267
-0.8118179588949535
-0.5551886954873527
-2.083572011495293
-1.1791207809049804
-0.6947708306897958
0.1292388643199383
-0.9114021434166061
2.147412830557577
6.983406123311759
0.0553325482533451
1.0591119485773666
0.15452291328179726
-0.8509535374874562
94.14941587074114
57.719534275504955
44.70628514206939
-52.69253274954982
1948.973244847072
1948.9117134982757
-357.14679832663495
-10.254810602266755
-229.22500747994138
489.85603024385745
304.12078410803775
168.55025344958221
0.3493966105499665
-1.0063891075338147
-1.1362547314363929
1.469905295535187
-0.19792077455902682
-1.3881499450741763
-2.0514640820688133
5.576873384051079
-0.10671991518480606
0.8618898571704001
0.4705333805496198
0.7546251542480045
-98.95970905274046
160.85665510250635
111.4284194493815
1747.7890921236105
318.8330918710671
198.41695924980314
124953.95596014899
-81086.0302210205
-106364.58065971964
100289.84997787463
70064.9217952568
-0.20000000025427664
120.3475215644553
-104.6003476085419
-29.060732000457104
25.441124874737493
-34.51563259058161
-0.4964108114949139
4.823247470371535
-89.52641815722579
-45.24538762579276
33.64715157250833
11.004013466159115
-1.754297985571466E-5
398.8679643352766
3965.2884605494414
3962.152201295024
307.3370498791252
251.68359661575454
170.15193637234643
-2106.2111019956005
-4668.001610528814
-3794.9112155312205
-5201.711815911787
-3514.43843705294
0.040000000000004456
-0.5620588398223588
2.073581913028138
1.2691416568430571
-0.6959777800980106
-0.11626390215295968
0.8866190039965137
-2.1427647669951737
6.987754114049653
0.06112376062907028
-1.0477893568315297
-0.239134208783761
0.8540174354469802
-5133.4388587739295
7611.49331520546
7155.760079736943
-922.4683484335079
666.0321214166303
598.5626540513987
1110.7913913787872
-955.1171548651621
110.29765454832464
-149.06446274366502
-141.4805686886248
-0.040000000000002464
-0.5105542898774729
-1.8693548467647156
-1.1953191440123292
-0.741957453149024
0.06454667126454937
-0.8196895100627243
2.210101933003434
6.901226833803156
0.05866126852057876
1.0246169046184295
0.13834146735350428
-0.8206079892480531
0.5320197860756979
1.9428371638363608
1.1462444688268465
0.7511440838650415
-0.08145435109470012
0.9323925746202159
2.176312020303902
6.895013125208497
-0.05319488796318356
-1.0499617638599603
-0.15252293641883075
-0.8351644329557927
-0.6323910951526545
2.4021507764498784
1.2172317611053116
-0.551779302935624
-0.08573631865788789
0.43062937199604284
-2.1453134322194365
7.130412667781277
0.06275455770824247
-1.0563201481825395
-0.33729263783847113
0.8715158503154978
0.5754022238985781
2.0637904137100898
1.3098988477885698
0.6980612964232069
-0.0991787645756009
0.8722828311809521
2.1380637048522115
6.980146782903694
-0.05773706611618521
-1.0609539338029683
-0.26406530666222655
-0.858030455560062
0.5289533667311874
-1.9177397123601843
-1.1538565988092335
0.7151037399879191
0.05302931032165236
-0.7291685382952356
-2.204994634796691
6.899767333711378
-0.05057854519934845
1.0515781195544704
0.08971810182746986
0.8265286958614604
-0.5529636247676557
2.078713932551451
1.1697507996308363
-0.6948967061838529
-0.11637447205539878
0.8701903119950055
-2.1527937964748496
6.969871242850653
0.05651030297196287
-1.0530723726642024
-0.16667035208198405
0.8478123155249714
0.31977672536264556
-0.8238063778814424
-1.1785184607060972
1.5119699693442006
-0.17079538666221394
-1.6377867277749538
-2.112480324971476
5.693106791609933
-0.0962953425508263
0.8872501351501444
0.2655465849731607
0.7440126154432195
0.6231958385971108
-2.344092342736371
-1.185097208862319
0.6343088422585194
0.12504089424913617
-0.8463772571591135
-2.1152591452079417
7.092531890208187
-0.059105223698939516
1.071319444570109
0.3700753427232799
0.8783085891423166
-0.5473855600364108
-2.0067860450101143
-1.2529725554219011
-0.6806434322521708
0.08937529057619172
-0.7341091463336212
2.17758376396361
6.9744594388932155
0.05706874208755698
1.0477821777960736
0.1473899315652348
-0.8399936782151035
0.5632187260292636
-2.004820331662079
-1.323548256979388
0.7372160089658798
0.11485747118272388
-1.020532493698635
-2.124899916450463
6.942051042456085
-0.05762394434240621
1.0613808912880498
0.25246990888606774
0.857992311977304
-0.5439177091232705
2.0037393793879366
1.2313520891087544
-0.7012872025543285
-0.10722121148595835
0.8520265344643217
-2.1675692540258327
6.968823922702829
0.05659122018379008
-1.0500400930422713
-0.14770633181416135
0.8424114206797056
-156658.99482611005
309142.9590714401
309627.69919269375
55492.493219811404
965.5067734094823
826.8852798902759
-367.81061267485165
-230.36097537036025
-2553.4821467473143
-2672.5421469448543
-1486.5236580087214
-1822.8251701983495
-0.6001335979423974
-2.2181863659056464
-1.387213773985094
-0.7216564266478421
0.02746321665526139
-0.784713917565235
2.1175761321428626
6.948459905761355
0.09448694539586408
0.9635420278596015
0.8055174028580463
-0.8653176216271874
0.5523133045827345
-1.9702672322294124
-1.2715587576340561
0.7109036915620603
0.07568400216740924
-0.8182787195908069
-2.176096725503019
6.956702795844993
-0.05551242234105541
1.0525454639041447
0.1988095855129526
0.8424793130506089
-0.5184048874774453
1.9075814833610558
1.1927020344828683
-0.7220870161281964
-0.09505254468956331
0.8303859696019181
-2.1795739378758032
6.895490044753725
0.051568002137451115
-1.0533645935024167
-0.0365248543776479
0.8293347568988504
-245.24058172603338
4096.3344964443595
3859.6861317228827
989.6956602578259
-323.8754897610547
-55.49714419657223
67.35648047494323
-5917.909356767572
111.16345338679284
-193.88332250026056
107.20881484554758
-0.0028985507245151963
0.3819226518843385
-1.3570436291924775
-0.7996814302520034
0.858783567677906
-0.11298734261853387
-0.604585601192469
-2.4098482011143445
6.506147032401035
-0.04562366796924104
0.9559280201773032
-0.05830120399370667
0.729631806939958
-0.548855670409978
2.0737182596515087
1.1502054699256041
-0.7181112674996679
-0.10392567125275147
0.9128272702834063
-2.1553875055771456
6.95029624620671
0.06151051741481393
-1.0357783785751438
-0.24324383462627353
0.8452967382059443
