9.69193056332565
-6.006874523963464
6.549416388980241
0.23649318529731253
-6.066344033573347
-5.167151843098788
-7.968678431042161
4.770141644147086
7.894238049426113
-1.7964326089870446
3.396561915254754
0.07941098157522837
5.681629884403264
-8.035732627664505
-3.051001373996954
7.17957633448325
-8.14431600916428
5.9269897534248726
-2.5071538137371427
-5.1895380459563505
8.587992508746337
7.625681357507063
5.504926291210215
-5.482255843554849
-2.5788865457366894
-1.949158311836922
5.458833443303055
6.641745363281481
-1.9104000823914797
-7.06401655034114
1.39969080597938
4.3980825432734525
6.506729130785665
-0.3492420703436803
-0.8201668366561685
-9.088673853969587
-6.589187234108005
-3.978016415537961
-4.141584324398606
-6.706589963888625
-3.9883720579824127
4.030125046182521
6.861215428008862
-5.561597146829984
7.200483590105889
9.07287190087489
1.2881975392992924
5.641077806705306
-6.349272171261751
6.169111532863957
8.730582285059079
7.717407305685019
5.9131865356945
-1.3734224286140848
-6.413998433453665
5.514259850618816
-9.622162589649031
-4.690813695722701
-8.461399057279445
-1.8758378236911841
9.93184562144744
4.140253424438455
-0.8698354826425806
-5.630928026209549
3.8352145601035676
9.720719167909577
-0.9524738114241831
-4.445419839484619
-8.928408130328808
4.731300270771406
-6.353034681323985
-7.4375046535457265
1.67132919603195
-10.064590736090006
7.639999339381892
-6.168758997411319
10.06913049160083
-3.2702871311319726
2.95437080829234
5.1422007450207206
9.281746972791025
-3.2436231570793366
7.613290671890139
9.247495817120045
-2.3389714876149004
8.197969636564997
-1.9604184330442318
0.774324151774618
7.9911585160098975
7.823854455942761
8.415895425597359
-4.817478940358252
9.975501427386785
6.178490814139234
9.7216550478456
3.6858289967144295
-2.0990564294931113
-1.9463208961135916
-9.379670299942589
-5.093097059732245
-2.398701371393696
2.420306990595083
-4.859318426416242
6.258378052366085
-6.847144752368136
-7.585194782458358
-0.02794154873313775
-3.831086633682061
-6.1093571131399615
-3.975178999814631
1.3113304134362573
1.849986094178157
-4.476673346984629
-6.7769698939617635
0.6022061908887767
-3.7013016377373518
-6.153390293047912
1.8369191887602132
2.0804228319467875
-9.39275345881214
5.921544942525054
2.1113953207374148
9.821165230736266
1.3121551229763875
1.757242584512634
0.5234422833527311
4.5090508106052996
5.886318951492451
-8.234653671008584
-6.13800423909053
-4.244670300644059
7.292247007129166
1.9112442588782037
0.08253721231191155
0.2207474630346064
8.255238272162325
-0.32072939107829895
-8.67383460592858
9.970575432634783
-4.073360738610985
-7.54089921168836
3.2841097274035778
-2.1363059246885987
1.730580186723553
2.1511593169999927
-10.061753315642214
-7.198504403863752
2.387817060655462
9.580829202598613
6.214036409804251
-3.3046384288277464
7.002496254113353
-4.072126915087239
9.811842611886492
8.405515959813169
-5.786335443672938
-1.8591413713713218
8.20080705701279
3.4924963095150954
9.3309002098414
7.502857227007681
-2.9832404794770593
2.156886193201736
-2.9571834359900837
-3.3783724510425506
-1.0574619026999073
-9.77753814058741
8.943416212277493
-10.119657801511277
-6.0040371082401345
-8.289087354265401
8.793069243364094
-6.554645327300026
4.317171697837434
6.06373081291826
6.630437153239718
-5.459635833727687
-9.032385325826187
4.188787207902248
5.33699819713829
6.161460000646844
-8.032895211941174
2.4019133591134443
-4.555266093254939
-8.63261730289096
-4.880105186719411
-8.766163046132766
-3.3292425368637173
-4.7658813744074635
0.389728645392385
6.297151583857709
-0.22466862326732373
-7.308932408473372
6.163436696692833
-2.175247190610647
-9.395744805724078
6.889789118423397
-0.05065102940602405
6.104020040786507
1.793668837158016
-3.205833304421938
9.781091728506652
-10.045849637849972
7.900406221538735
8.972185388960284
4.134578588267329
8.515753527492663
-2.4526616612626064
4.811817138107999
-9.247927918687335
-8.725873818264517
-8.166010852945421
-2.5120788451017138
-1.0882127813552818
-7.93748526189451
2.3387393916841934
0.7116689635447934
-10.070265572261132
-3.2658301362878337
-2.9904926277399118
-9.245685411475243
-1.9475157413728397
-4.819029198547995
1.421609736284382
-4.593342223062386
-9.063136209206025
6.028840091319614
-1.267678618730544
-3.298631724826521
8.192294800393872
7.425170577091014
3.9525905214460257
8.967761094014332
9.146625855150821
0.642495418757024
-8.538069953819054
-3.8995877684666262
0.3589777572880826
8.137204462550612
-6.829345439136158
-3.058716666704732
-1.9519957322847166
0.005918705468191346
-1.9148306900608372
-1.4220987933892637
3.7430783898031432
7.658700043099467
2.5377870389052837
-0.43081546714104113
6.886710641770997
-1.6123921293036632
5.945157411547858
-7.069017350351583
-3.980853835985756
-9.594499057509005
5.0282524591251
-3.5000707642557325
-5.454198499478166
-7.171193820676022
-7.421892651198153
0.26293899217918304
-3.9825938680909383
0.4959722466517976
0.38349058641778055
4.961884705313434
2.10572048456629
-1.0846642402089957
4.490421492647795
2.733845162517067
1.8462136778363276
-3.2643492009594985
2.1657279380316496
-1.8183243857814895
8.33390118986329
-5.82912088593905
-3.2229274287214205
0.9515840216665827
0.07686237614078684
9.606336473169852
-8.857913839246773
0.6558731822016696
-7.351063206720518
2.197175421069984
-7.793951752071788
-1.1245699264612654
-2.53540332472311
-3.7207565099835884
-8.784594249127034
1.1914990797883718
-10.067428156537801
2.187084596822565
5.566083430326869
-9.733986700477459
7.536807799563384
9.213380045412425
3.281905240652551
2.3442023701398558
3.9923295597598045
6.821065379242645
3.9899086015569813
-2.818801603858479
8.195132216117202
-7.41333316615463
-7.782251901567699
8.479459805012114
-1.6604690849934625
-5.616513813638598
-6.677774449450885
3.037956834184544
-6.876974954826594
8.929429755198106
-1.571758223573096
9.212100447082072
-6.009711944411259
1.0965016558698424
-8.320082872769468
-5.57804274457113
5.639943097045496
-1.7096691986465393
2.9098461397789173
0.9566934514994073
5.439520103127633
2.604336622607258
-5.178176238712298
5.201799763435223
-8.038570048112298
-8.503916111831817
-1.3769997188590677
-7.656014720162063
-3.55733378751135
3.7518554233829433
-7.049833550324519
1.6504479155440954
-5.429784411458766
4.712701003287184
9.551575421962594
5.441714826281476
2.1085579050140844
4.368250492901403
-7.244420935090394
2.2455438735148503
-8.960881262307955
-9.52335843335512
4.0260234423998185
5.119220212145217
1.097948473024148
-5.036895593291555
2.034659791566105
1.4314141379101613
0.07969979658858123
-5.2321672700757915
-0.3013377811799928
0.1675718979239173
2.1332603342157057
-4.061833811325639
-5.9336562477036185
5.812974671465441
-9.771356036837789
-2.9285312173360936
-3.5270070335639727
-6.829102292229794
6.166274112416163
3.2776675472242163
-0.8391687523817623
6.401487824696716
9.4336725115302
-0.1549891916091155
3.6539643415261844
3.731711293504768
2.545139011667512
-9.253624349926941
-7.13342504397871
9.452015505203864
4.13741600399066
-6.3227502204774435
6.103914396804175
4.323515853830248
0.2363956269733535
5.306535425695903
-6.305715348577253
4.4254657528249925
-8.324165493469959
-7.145259969247015
7.596326611971719
3.1108195494871493
-10.056078479471088
3.70732506708151
-0.7904493042914815
8.604226624594181
4.89126501059619
4.468761582737052
-9.568331218230817
9.802962280766172
-4.6600628170673275
9.98996654510816
4.72883899217765
-0.899481134159701
8.206481893183916
-5.89309270062015
6.152633840169992
6.526254644278784
-4.306011873960655
9.930286204766535
0.7634075727462535
-9.794701740994109
4.762051158875708
-8.193087560016886
-0.832827832952428
-9.159997564299657
-5.998362267344547
2.61674211667986
5.614802873692687
-7.531247900579995
2.9944003033538378
-6.454287661321913
-9.940390319104452
8.415453362125724
-3.2128722689750346
5.773237788472773
-4.4392458480916295
7.121120237858464
-8.027220371045585
-6.983675646297337
-7.733532458201883
-9.609219880895392
-6.202876581203007
-0.9927630392924303
0.39134847187261984
9.109207821445949
6.209241697519072
7.8816021691527
-10.000912668497243
7.361035295980255
2.119907577356334
5.888490958435884
6.69046481137176
0.2923387175059853
8.684994425080893
6.023441585050012
-8.824213011759085
-7.713438363033437
-7.55444389907852
-1.8679944274260394
2.7735901821867732
3.350734612333403
0.09104946893083067
-3.7119268092657753
-6.657870520522808
-1.7856332628094118
-0.512282459475952
-8.806452274001012
1.5075257792179853
-7.019683898988748
1.8676700674155877
0.24036994852942167
-2.788076642943305
-4.909781817806551
6.177623789482877
4.797908012758697
-7.195701491724576
4.448282673412315
6.788129717838541
-4.899607654284489
-9.196272117357182
-9.100947281673884
-6.107253355710692
-6.084723179336961
-6.394494653358043
-8.920082506177865
4.148765681057373
-4.802509750218499
-0.2526183378141762
2.3703106930969184
-2.409147166718304
0.5619169630205294
1.1354666736198875
-8.407192817629197
3.314860610783416
-3.9763588033815
8.335257007316851
-8.680167443331612
-5.995524851621215
8.069656854514722
-6.120039549321039
-8.01954918958221
-7.812694636790446
7.578121587362972
-8.080094810011818
-4.938420521028076
9.84259349526633
6.565463081120269
0.8183413769203605
7.600950354102044
-8.024382955322254
-1.5307609131869375
0.8230435998648986
-10.097521165173145
3.2814469597332154
-7.251772276412517
2.2516439809652526
-4.244666061707852
-1.0267110145956049
8.673827461800192
-4.743325452934181
-0.6595660760379116
-1.9378086394946727
6.979073904113072
0.28521262866312924
-3.863605238400345
-9.709559344032797
-3.344927656695994
-8.452153910885452
-6.325929439668524
-9.001634437721883
2.3487343292093468
-8.349743463348918
-4.669866759684762
-3.966666743195712
-2.6213438588641242
7.228295777849066
-5.941577213991279
1.3845822477664
2.116596965333489
1.879584880091619
-5.6321749803483
0.4204795287722234
4.457098700440343
6.380008197325974
-4.429951701562973
6.180461205206207
-10.040595730486945
1.3608745663422042
3.959981379685635
-4.018965217581278
9.132801584951467
-7.335976612989015
-2.1634026837471794
6.948212413255138
-5.292497891413931
-1.136907433070516
-8.440252385209824
4.1516031015051675
0.6504049828919005
8.303957720252605
1.8820094040947022
7.075176374217919
-5.697092274099556
2.995762177988056
-1.4696482244269549
-3.9210921013312614
-3.1841335107340054
-6.698574258200594
3.5906496704551922
-10.053241063747757
9.16023980019191
7.766126749050836
8.115925335591966
-5.915829924823631
-1.7902476543830337
-7.7080357091381835
-3.5509116023876275
8.395402951898502
-9.509226643324853
9.986426207740712
-0.4196510179161224
8.209319308907245
-0.4401779627852865
-5.582208582843734
6.0379533600010316
5.178311666975567
3.671276967646449
2.6237030818388867
-2.857157143067403
-2.4739015579634334
-7.400862267369391
4.424759387335098
6.401375058768632
2.114232741185209
-5.017338512509378
9.868731176318706
1.2689412955104178
10.007765824288953
-1.7499584265147865
7.7466144558606205
-1.2971090730818782
6.917461525150835
-3.4524450079965647
-7.741584253663814
2.3910743751217822
0.08537463275970594
5.67366220086947
-3.4796041508514004
-0.8090306800805153
0.8104889397321086
3.711566195514696
-2.2130652342428165
-0.603354613761654
-3.9518429847111
-1.344080632041104
6.9881674022866145
-5.8694420550181725
6.171948953311752
-6.107921462911028
-4.017435117328706
5.4248852514167485
8.110901112322138
7.618410815231219
7.374555354986986
-2.6846179964467907
8.364652073243128
-7.669173769356416
3.381749391871878
-9.879742738665023
4.143090844886248
4.583079250467819
2.925648031857232
3.346913271101351
-1.0863757722347072
-7.21148304854427
-2.58512433511645
-1.9908635324021022
-2.5046524413432714
-5.560809388676489
-2.1799174332582005
-9.639827680543235
-6.00119968779234
-2.83617261643054
-2.941773184374095
-7.0429466115777775
-6.489923237582385
-0.1952784194773628
8.490732657607888
1.4779087641990185
4.0230804431396425
4.981012500549743
-9.696833063654692
6.6412901168904215
-8.03005779149338
7.854828096948308
4.001309964811843
-9.120918591893176
4.604218354216813
5.266246197827656
-1.468947032495549
2.1716632235192432
-6.846224071446756
7.08937687178074
5.032918592295738
-1.6192263085250687
-1.9434834756657975
-3.92675556683219
3.463478998334537
-2.8870026556714485
-8.386787949549202
9.173090812819716
8.118673556734253
0.0903998455585703
5.470270981783007
0.764283743914357
1.426500581881001
-5.6295269968963835
-3.9723415793668364
6.764245146546656
-9.884856328835568
-4.964974635986845
2.70735364697446
-5.6568030462313095
-1.8410061333691827
0.7841543048787943
-5.399033523354464
2.872648119869818
-4.135166238524613
-5.389611938774594
6.174786369035083
-0.6550067203517015
4.539140931289148
4.936583962414532
-2.6961938230976816
1.359401578111133
9.234850859355154
4.25292660620438
1.1286993564039864
-6.8769484719844565
8.639336612159404
-9.399912622421445
4.145928260609579
10.035993988302682
-8.809194395880958
2.8586119820991347
8.397947768701517
6.820926200140615
-0.7248288307482815
4.94668106080014
-9.740605153457949
-4.768584096028995
3.0776697823048615
2.6309894332435717
-10.058915899918881
-1.7455896707533525
-9.347025362358263
9.092527913596399
-4.593058530340033
-9.563647661223369
8.862791758481523
2.8654176828394675
2.575889899771815
9.197741252460665
-0.5287482281098759
-1.3793112504032792
8.203644472736121
8.945411042625494
-2.403942213172326
7.014555938005464
6.501083066183629
-4.102123039193885
-1.0968879316219151
3.5591721421596914
-8.293414614814585
-8.98531285266438
-6.09041504851549
-1.1393961922814901
-1.940646059942467
1.5261591710026725
-8.271363424679187
-3.3753039493981287
1.0975355913870222
2.9140815804240923
9.978969061102422
7.027944443485277
-1.7656817256072062
1.5565090365618517
6.684087802168527
-5.149696875928341
-3.9695041589190425
-8.07425859669899
-1.3282802802177147
-5.453275924989062
-8.099741293169822
8.375606202453575
0.019289370998986078
7.7216989028055005
7.656432240886901
3.664873412517313
1.1224209770384488
6.881205179736675
2.1170701569085395
0.43557622060102147
-1.8661112466950205
0.7806400065082015
-0.7993291158553297
-8.008967658910409
9.606909960228789
5.640435524844829
-0.318491186963842
-2.6602197200735342
-2.4839970381007523
2.8709044913653603
0.0882120484830363
-9.16484154710064
5.076971907215381
-1.2973319738071956
-9.996606000412175
-2.5474430416053897
-0.35276972987464766
6.334189984165053
9.103622784254728
-0.5518553393936091
-8.045663858506366
-3.470291464351352
6.186136046101796
0.8652337404583156
-1.8173918033292036
2.9833788016812024
-5.341736616789339
-3.3852168845642407
-3.615385604252677
-8.579731968974272
-7.52369301569868
-3.7080473108434053
9.37826700278007
-7.480592152722667
4.157277937676292
-8.735184027243344
5.125691350581198
0.9054068260902696
5.752404979734323
2.0763077374652417
6.716353186724394
-7.885977509654049
1.898420950795426
-1.59968293016348
3.816600177649994
4.550309902942349
-10.047566222852168
-0.22534920521887142
4.587860379379428
7.13932275286307
-7.23860132403169
5.983152357181765
-3.98744470512631
-9.967240887614722
-6.076502472330854
-7.924776062754327
0.2101821625107923
0.5400092192954986
8.214994149802834
-9.825766972920531
-8.760474947790676
5.0613507819966
3.8555402724919707
-8.846741501869259
6.344294085850759
-9.273486428294499
3.345611498887718
-5.816411682074402
-5.351484657894822
0.7799242774172879
-1.9292963828757537
3.0463996365371533
5.6635223170585025
-5.328509100682529
-1.5480072023046352
-1.830536882251281
-2.871267402505409
-5.804714126968914
9.873344378646168
4.725410202427367
7.423018192789194
-3.230376406229563
-3.9581544865767926
-6.55401813588897
-7.684813014836066
-7.406481080997926
9.546134394219026
3.630987739778202
7.4604713931961255
-5.110959672373152
-0.9959601312157664
6.833774578382828
1.8613513676591167
8.800525649435453
2.128419833975253
1.9558166908599668
-8.222643981313372
-1.1725651495006637
-3.444871909546987
7.5378323594947245
-3.2433265033790426
-7.192223050333825
-8.97088355906651
0.5086814505164451
-1.7450666474800844
4.790224965788602
0.0995617255497498
-7.644601076841694
-1.279560832127434
-3.2505371298160606
7.649269686976674
-7.292061504280764
7.088412287598027
-6.4984685910136015
0.4512304121520618
2.617045826471906
-7.3067334678856986
5.030140023910391
-10.044728807128838
5.227565527891528
-7.146982048358761
6.651021468585316
2.2457222169045323
-0.2758568799383214
-2.1271491960336775
-3.029696289688016
6.978963296634976
-7.132550770106832
5.467769382798318
1.0198393355390771
8.217831565526165
-4.372852239810133
-0.20389889444835946
4.57304948826992
-6.951554667652313
5.185667737366698
8.204589594943393
-2.335941830367792
-3.8903412179514234
-5.024186394151371
-0.09389744233175981
-7.240677089876414
-5.987012595002296
4.136982582214341
-0.7417298609256648
-9.48445305658886
0.3488575096621807
9.09251235708322
-2.4992082969073115
-4.417205208328465
8.42615383527834
8.942138959062754
-3.700315452746497
9.040440707557241
-8.015870698703337
-5.463435185487319
6.2013532882602735
8.72899344417625
-8.848419374894664
-5.737381501967804
7.832530494069759
-3.72345074900824
-2.443150674583595
-9.240915150786757
-9.261982277876575
9.280355765679031
2.1312572496985833
7.408731423970366
0.33393207675340997
-1.6608664385028797
6.039451631389236
1.2788231223746382
-1.38303099428641
-0.25467845240711917
4.084582205174856
1.3009067384394757
3.5125205728074413
5.270055082032181
0.10239914127308013
-2.1916863437312943
7.277015221214883
-3.7388384188182773
-3.1578252531676094
6.740347744404121
8.94870779669066
0.43907600691310494
-6.784722299962616
3.409271119119401
-2.0491462475981725
-2.9904613481077735
6.188973461825126
6.318148478293179
6.739184254737578
2.4950775174034505
4.142586928871348
-9.644226116959864
-1.7550900951600439
-1.6421873710475676
5.531772753267148
-2.9158220134714457
-5.655564262737373
-7.000762031754624
4.160115353399623
-3.2822692894084815
-6.609151072432528
0.4171055370880532
-5.054689960409961
-4.18270149493038
8.576648695817026
-0.9484329117273433
-5.3375317613192514
-0.807457637515985
9.07418739793752
-0.1797359550698691
-1.9349712190468782
-7.859429839132572
8.841788686729911
-4.351906527402561
-0.22523580309657446
-9.603936889091615
-6.591858411241746
0.6116151582581818
4.053831326519481
3.1409596171323773
-3.092156243061393
-4.190036643441184
-3.9638293227479173
2.8315708742462746
-4.506546645164659
-6.429878502993495
-9.42251268765342
-4.1424122670621335
3.739880379735324
1.305369617578406
-6.815473183342455
5.249323997812303
-8.653823068191471
7.840865412223832
2.122744997804128
-8.95001278480976
-5.044377616366428
-0.195962571496231
-2.1221005150633903
-0.23556765207007413
-6.96391751211538
-0.7758937603822667
5.501021865162846
-1.0757691395030085
8.031177397749834
3.8305647285769813
0.09388688937862506
1.7409879285690875
1.8987055375439734
-2.273934547087164
8.972041081460272
5.225956969959409
3.36782127886169
-0.08213930578650645
-5.3682826446990894
1.0325952411769164
2.469510577344221
4.070479786698771
-10.050403643299962
-5.678263943053735
-3.968715678687353
7.62762404658975
3.5684936161125935
-8.049256886778656
-5.8477402094944795
3.3866329955390784
1.1594502397838249
-8.717001350677357
-5.04740505305227
0.0601791030519201
8.21215672935504
5.0127367703251124
2.974367475223048
5.549652070998817
-5.628783268444252
-2.5877322694736375
4.483998581482592
4.080387454859303
-9.709854270078111
-6.608636979446361
9.682346602898159
-8.200337327088034
-5.992687431173421
-6.768846893455385
2.4365365040212787
-8.507850483308891
1.6716289041457773
1.3191123502428856
-6.219799310368113
1.9991240768986303
2.606640783151653
7.357688373767763
6.0759285924834225
8.080780470345623
-8.02154553487446
3.9221538246479253
9.379619653207216
9.705596026905146
-7.525647980411067
6.780636972272368
4.111939480608957
2.692878536218854
-8.262663731434746
9.466052749723223
0.5142617673533444
8.320695533191873
2.1255824135274586
-3.497098046974896
3.5121984417003533
-0.6842638652229113
7.362223030597297
-6.494576889190161
-5.103622007747212
6.161650832819976
-1.734930846951832
-0.2835438421310497
-7.002653863043146
4.310394844820561
0.09672430510195541
7.19390266640395
-9.836136890194215
-2.76223583608938
-1.8350538586840126
-1.0330522671606777
5.228116783229859
6.855405296864664
7.687183119542275
1.8248205290999473
7.7270977929072835
-3.950121585319394
6.183298625654001
-4.587680997376547
9.917450624408986
3.471680090683419
5.465358323354945
2.8737923525558458
-5.4756811086208454
4.774141914179527
-0.28774030358400354
-4.500272598766435
4.120679782492545
-7.960422268966246
4.154440517228498
6.103319720726763
-3.430884707485584
1.3937081150924857
-3.7319185659263647
8.335316974585329
4.856057682356225
5.467896373499752
9.134373667634568
-2.391908222810975
-1.4409870379130683
-7.720507210844456
-5.989850015450091
-1.3159321556205223
-9.298305918992448
-8.996151772311109
-9.135466031274042
-4.939896886877201
-4.359503805999944
8.936668674825336
-4.629311928963024
8.149913661690794
-8.957902668309558
8.560610591313663
-8.018708114426666
9.375068557758324
-2.355222769806509
9.217294733178466
1.9586755605251551
0.521627739876746
5.972234984977126
9.63042313414556
4.792802037531083
-10.033140438709786
5.771848982916406
0.30009416117370935
-1.9321338033235478
-2.4065151012977095
-2.8930537362838145
-4.840207816404778
9.259087737839648
4.428472354868806
-4.731562906873577
7.549159751460424
-3.182121385595196
3.933184909779872
2.165430972501669
-3.710206522473141
-3.9609919070245874
8.284485612081138
4.050029408177659
-6.91817979199571
0.061810853282803106
9.889996972173824
5.600175884103492
8.242914215505113
6.239992580898911
6.0415492904597965
-3.3962358479039447
-10.051402478189853
2.136932090594172
-1.9768575861648792
-2.8443342929179973
-2.6374690212317766
4.716680241630104
9.052223129214973
2.3375600144499273
-6.6710077376342145
9.90409526675047
2.8853573190100015
-6.263723467698013
6.229715319243803
0.1080739821686689
8.714143131938432
4.09874885626794
-4.715440992098245
-4.48059665237567
-5.777670729836052
-7.622119675653509
-5.977253278313991
-0.9652092478359281
4.993721699689926
8.466028188252414
-2.0308011108961526
6.194648302720715
-3.067440531842066
3.56091788506617
1.5184749346745539
2.8198155296632876
-1.8708261101195287
1.9655009135762938
-8.058516656274662
-8.940132675686671
-1.3313714329009205
4.859610173113214
-6.041101799267468
4.165790194295211
7.6235601815367815
-9.7874174468284
-0.5594970409163793
-6.3774613548935575
3.5906985119099537
-7.994178776527142
-7.364762196954438
0.4819812908074361
0.7769929477790045
-0.7020566472923999
