-0.5570766076996281
2.0606189224865736
1.2403527384221231
-0.6769458593926944
-0.09631629980668084
0.7542395997348548
-2.1622376419603673
6.979213266194005
0.05853277907367214
-1.0483383055924445
-0.18543126196570117
0.8461585659112683
-0.4720958443354355
1.7912752248145698
0.9970979389964324
-0.7798743975655688
-0.02808169026164367
0.7855751989890586
-2.2498271437947066
6.792088267273745
0.05464932991304175
-1.0081359763414615
-0.05555173197898856
0.7952548159107306
-0.5208215327644028
1.8831938387534184
1.2617002355823208
-0.7223497687810547
-0.09737962049923062
0.8440844021166373
-2.1811557681471205
6.918024844632139
0.0530830567118987
-1.0527210220353778
-0.05524519004413074
0.8314129261570863
-0.4736965897843414
1.7518277841575272
1.0949750362138622
-0.7763285991847826
-0.0397378821190759
0.7873129443304877
-2.230646430889404
6.783414845074809
0.05258879064513219
-1.0230252687580628
-0.004027224739660106
0.8000753817320664
0.4869397962684385
-1.7197048746983785
-1.1579246504661136
0.792437080566134
0.009775941030221159
-0.8034701448469194
-2.251372929619256
6.810157868371888
-0.05522139024782214
1.0127222797232989
0.13409824392983521
0.8041169456575312
0.5336614254660667
-1.9726517587789658
-1.0919913654757973
0.7338769582055431
0.07932597476957706
-0.8861641346844729
-2.190158651817273
6.918919305894121
-0.05132564200009505
1.0521185876885746
0.129680595814334
0.8328361866021252
-0.44027452163974395
-1.6307293161118983
-0.997051698051041
-0.8014041416147978
-0.03244559845124924
-0.6567565428028596
2.3066854267124457
6.706481758070568
0.05608559865061199
0.9786731603903065
0.05067116378553045
-0.7689260378758666
-0.5088821199862575
-1.8461865304005427
-1.2227413004569783
-0.7405192433264799
0.08785454112486339
-0.8704749364550058
2.19855646366873
6.904917972555026
0.0536411670526718
1.0431745392554113
0.057223484928881525
-0.8239420475700513
-0.5327947157613844
1.9516138518522954
1.241194202669357
-0.7260100061534782
-0.12234602699738574
0.9450006239484543
-2.1545726681883606
6.930421991286707
0.053813908322137866
-1.058340966588368
-0.09269955082170897
0.8419904465700029
-0.5158821454552833
-1.9461298800701923
-1.0987114604061756
-0.7302451759543747
0.07061021730112914
-0.7935958619417719
2.1934052237594095
6.877290758412819
0.0558620343949391
1.0330199638194004
0.10821345933120721
-0.8234336482657508
-0.544689061851444
-2.000273452033671
-1.2441267862235248
-0.6889813089785796
0.10611537371378077
-0.8001520769077209
2.1674815325620664
6.967259736755704
0.054478556674005044
1.0568197717146284
0.10923494495600287
-0.8421471286221686
-0.3081814297805372
1.0578935644468233
0.7536161379517151
-0.8634395075056509
0.19283022047355333
0.49858730935293316
-2.5217903917084232
6.328850357164702
0.033604963461225525
-0.8990443049738469
0.08355236886343773
0.6710982476619861
0.33201428986325443
1.077097541679021
0.8123953179467943
0.85629063340541
0.1855997213886924
0.5186600117716554
2.501255931758173
6.36740069185591
-0.03419571406969609
-0.9178303011671004
0.05158328194203547
-0.6931044115506421
-0.51661633008377
1.9294204908344395
1.1235310561042726
-0.7237625586528025
-0.09426157670929113
0.8539587677862539
-2.1973682883550456
6.92193716954961
0.051808058897840646
-1.0469398895283188
-0.05286470765120555
0.8261223166838418
-0.4785592712213144
1.7249705149620904
1.1941297739369803
-0.7723997690944613
-0.031020293398891154
0.7542413167870131
-2.2299651495365365
6.795474428961278
0.05618916482168858
-1.0175905425975842
-0.049603797809793404
0.8021793260599329
-0.46344177450959156
1.7306562846640865
1.035451758060471
-0.7715871045882831
-0.005220660711012998
0.6704760588451172
-2.261539088596636
6.754530596713541
0.053369365794585975
-1.0077753144471184
-0.008667872314862574
0.787541072902036
-0.3947622693166423
1.4284106109134356
0.9303522503070941
-0.8641123512721441
0.07421481472660657
0.6856877064659574
-2.357582663205985
6.567365458791997
0.05420505399503372
-0.9537491631962792
0.0039290785611366275
0.7393887434971952
0.5432144820233181
1.9984829859343827
1.1255373620717664
0.7066540024224962
-0.08349389322292532
0.8147412590725208
2.1831641445938943
6.9376555089827985
-0.04943802838888233
-1.0638702857473994
-0.09777364402362959
-0.836920523562734
0.4757093820038123
1.730098701873311
1.0216778401869584
0.7770704830074239
0.027999119464699494
0.6396810576415358
2.2806251185141084
6.753292454300116
-0.053632999337936
-1.0003860583815052
-0.10696586678327592
-0.7901185294604391
0.5729377743942868
-2.0983338035099997
-1.216355176368714
0.6979701554954267
0.08381542956935789
-0.8359596102204754
-2.152191837162823
6.974336635354059
-0.05879483877660199
1.0503965972174694
0.2878544114700073
0.8529330827757685
-0.30249766738655925
0.9715261065424627
0.7635631801168372
-0.805156817026623
0.21587112386216897
0.4726417596935119
-2.5658690089675362
6.308093330575359
0.020945650583336087
-0.8701047508428766
-0.025123965838151505
0.6556103266701535
-0.5430476721786522
-1.9870529526717404
-1.264621292012145
-0.7148602843807267
0.0998385496946763
-0.8719844115795938
2.163769768557039
6.954763679582404
0.06027677716832204
1.040694785220214
0.19917188160153088
-0.8426512456236384
0.4720376864274056
-1.6858258182667512
-1.0804702991644963
0.7949424613901159
-0.010504223731292778
-0.7274865723473452
-2.267241463033353
6.7512413038213595
-0.05268002510511272
1.009621623496886
0.07384785877434101
0.7932743939281667
-0.4975876700001805
1.8627058421213776
1.0880936982120424
-0.7433075418662799
-0.03798751846226069
0.7323090866608764
-2.2310564309449745
6.853461906843006
0.05727398600413077
-1.014951134814309
-0.11117957011432873
0.8085435518395172
0.5060323570544697
1.8554985470696814
1.064686779012483
0.7382901634717203
-0.011748512454787094
0.6630407021278413
2.243308579770272
6.84105069601327
-0.052330202014289375
-1.0264858224313735
-0.1032351407239785
-0.8093479835399079
0.5294427511489793
1.933574211175614
1.1300556644192419
0.7252220711198804
-0.06314641780567955
0.7949955099811041
2.199038632970645
6.903196113701413
-0.05084612019526493
-1.0516142180194228
-0.10271108851625362
-0.8286099955614876
-0.45570507528173815
-1.6839351388370705
-1.0581173562752093
-0.8159338056944575
0.01413356713298811
-0.8271822500343723
2.255043092999164
6.738475081963884
0.05675081688932372
0.9976621362391868
0.061215900382571395
-0.7879120650588743
-0.5188436942739488
-1.921641780691945
-1.1719259831847593
-0.7357887933515957
0.0843923739233593
-0.8585595053008767
2.1870346918160113
6.90126360116498
0.05659552418980985
1.0366056265526056
0.11997388879867121
-0.8280816154526105
-0.5251682076359176
1.933188086220985
1.2063983940486807
-0.7278395887044972
-0.06082559673958301
0.7845585407186846
-2.1996747982521323
6.919037852231724
0.06231985779386721
-1.0195913031889845
-0.21004643619563307
0.8268616889458441
-0.562895411350558
-2.0728794691921593
-1.2787255285556545
-0.6891505824056249
0.10169895990032295
-0.8197072220779575
2.1472510154265527
6.979515742540594
0.06247842534902541
1.042675413642688
0.25443179168532887
-0.8519170369022249
-0.5132997005271802
-1.924748466093602
-1.117043118497501
-0.7368201386304026
0.0574401790440391
-0.7812729777706809
2.2055009218178436
6.880620498266637
0.05889443289300191
1.0216423858297015
0.15045661801622476
-0.820193155773801
-0.4478692250178299
1.6561293652606535
1.0166599388928512
-0.7909629563877224
0.008580488196408012
0.7096372631590682
-2.296048774243384
6.75159301319347
0.05386468414721862
-0.9921474277873625
-0.026064839150735222
0.7762783568106336
0.5546620371644603
2.0161851127476234
1.2023535691582352
0.7075762013944705
-0.0743274568370649
0.8120165825603374
2.175388364921678
6.953359757532502
-0.055547103391619244
-1.0505922940059182
-0.20988666497244785
-0.8423843798732503
0.49971776523660644
1.772481029116984
1.1763006898905743
0.7458060889836149
-0.025076774731553633
0.6871245566094191
2.224825471956682
6.813069872528343
-0.04920766064423169
-1.043899802399811
-0.01769509273610667
-0.8114527389803748
-0.5162186248077475
-1.9617917233715656
-1.062573531568632
-0.7247445163158902
0.08275130355646426
-0.8196443116704578
2.196512460126602
6.896971411756038
0.052959729891281095
1.0403910358982593
0.07311258950600993
-0.8240300659787956
-0.5508287328780983
-2.0662373270976984
-1.1797111814629695
-0.71179997538077
0.1135513796592208
-0.9208350868311204
2.152813550845449
6.965327775878015
0.05973830500418414
1.043625586951423
0.21597382160379
-0.84757910673304
-0.5001765930737199
1.8167589120789178
1.218012309860348
-0.7651210473701
-0.045184985471717995
0.8064385373875651
-2.2081288724197643
6.842533260583793
0.06150119265828047
-1.0133590278855156
-0.1603143754106369
0.8153252918277479
-0.4236025212426542
-1.5545890300737284
-0.9862960250858372
-0.8409948321970757
-0.03153823804747057
-0.7518844737306757
2.307693711358974
6.654227302539012
0.05530936146523777
0.9755525520133922
0.02224428347128104
-0.7627059871392797
0.5617914251722707
-2.0558718582053945
-1.1917637833380392
0.6985345428916054
0.07930451792125566
-0.8040649612859302
-2.165447335783374
6.958493593917584
-0.05550702502539557
1.054457687533172
0.21689414991451245
0.8462460490918398
-0.4357999998126748
-1.5562973342389144
-1.105346404350001
-0.8028693930224888
-0.027852097960037903
-0.6419930525048759
2.2921656535663772
6.681515478888582
0.053653934438432416
0.9941055609983844
-0.027747489058444368
-0.7701154742917314
-0.5396603819586988
-2.0023014262891303
-1.1983564402803155
-0.6942346980578107
0.08376724737434933
-0.7472743904108963
2.177934175779558
6.940391414249824
0.05693380717066141
1.0435948984117136
0.1405196052525905
-0.8360606515832671
0.5052340307770067
1.8469519084245118
1.0749968525247366
0.7409675648757422
-0.025457762529331407
0.7038576961070161
2.2339642275362053
6.840580660361791
-0.050329176792032734
-1.0359195568789408
-0.06589160024580994
-0.8115454356657191
0.5241141389175362
-1.8715949694736567
-1.2044616067426195
0.7453584736720704
0.041802273630630514
-0.80090554093706
-2.214435784130316
6.90016190284048
-0.056329897378568715
1.0303619967834579
0.18975652973835969
0.8246088245775212
0.48533468734875745
1.7792755218955665
1.0299927561910023
0.7793879500381843
-0.017377345367703596
0.7659931730400662
2.239570850062803
6.775315475673552
-0.05013642757196862
-1.0276048587658184
-0.044268942355251445
-0.8031260470466238
-0.5432181583833129
-1.9606304152376557
-1.3236150448718442
-0.7146259081981697
0.08666623785283356
-0.825941334140561
2.1649856524668993
6.946109459575438
0.06279996316622782
1.0348529810459735
0.22580179053805402
-0.8417753950962907
0.5354654515424161
1.938857721723032
1.1789145287698304
0.726221468007944
-0.050375600870882095
0.7723386339318816
2.197518441262399
6.906430153560578
-0.0553551106541645
-1.0394727481395682
-0.18286234477017554
-0.830495506468958
-0.5416634831059138
-2.0001425588915693
-1.2241545866329473
-0.7064302463242162
0.08686565866641834
-0.8052839100284572
2.1730890245899857
6.946687462701999
0.05995686522011663
1.0373056808240986
0.1923843373969186
-0.8386914138312899
-0.5373756009222898
2.0165536217070716
1.1503799100575411
-0.7184678131855301
-0.11661949631722975
0.926460195419114
-2.162996964732878
6.946304206890445
0.054948043531497175
-1.0512136076873118
-0.12816565310212136
0.8410826605986707
-0.5483287131385981
2.0262557585602425
1.2321329464057593
-0.702310326695765
-0.09970577734546243
0.8421931939825289
-2.1655844116563476
6.969644689896565
0.059794336580153894
-1.0420229226985818
-0.2012679018512739
0.8437550006145815
-0.533178623413965
-1.9376531983063654
-1.2786817141140887
-0.7393540854042899
0.10629836602028182
-0.9481218644908574
2.1575686700850243
6.924894097117643
0.05977714813295726
1.0415274603925544
0.1792959493760924
-0.8411341836879365
-0.5085234692713542
-1.8999464481333972
-1.122382593480703
-0.7535347463964879
0.056850716369380085
-0.8337506137638604
2.2094588393762105
6.877220679012671
0.06053196895700128
1.0149692786109497
0.17532848669182866
-0.8185435404697051
0.452572526723562
-1.5977273905678064
-1.0525239876114418
0.797348231685009
-0.038983838313529466
-0.6401778237882924
-2.3009777324256477
6.701910922005047
-0.05054738907121155
1.0014031594055013
0.01886199090194428
0.7784871276630764
0.5640202576040789
-2.03689961749055
-1.2460574495173964
0.7025785827179385
0.09446535830200223
-0.8718101430639853
-2.162775823768853
6.987280492582821
-0.05539536626125464
1.058610535208794
0.22054334446009893
0.8498418154999196
-0.5147130018506356
-1.875918221007944
-1.220323773683593
-0.7331188386794033
0.08438365851307171
-0.8411142056746927
2.192184170188969
6.902956512529631
0.05487747022982257
1.041600430172702
0.08118440373093092
-0.8262142015124206
-0.5331281147968376
-1.9622712848294315
-1.212948345097803
-0.7126264046185629
0.09507766732775617
-0.8443088540335341
2.18468817374092
6.956493014508447
0.05683829735676345
1.0425463925129537
0.13933965892807731
-0.8350787041367447
-0.5324679606113818
2.0071129559726755
1.12975572623015
-0.7197899867569167
-0.07986067268613742
0.8178572135474194
-2.1806640054477984
6.917820458998033
0.05931775001865153
-1.0314554013233916
-0.18201444294087596
0.8327799984389669
0.5467150547949085
-1.964597861029311
-1.2300619156468986
0.7070243850642277
0.09170833033353759
-0.8294661855363666
-2.167949075201836
6.9365756502188
-0.049699347663357325
1.0705964242369406
0.09376151585175446
0.8418819336747122
-0.3232431059359372
-1.0589062688528421
-0.8354148485372785
-0.8509189842051168
-0.17095644673789565
-0.5623093044601853
2.4979337407762814
6.368637745053714
0.034772805184690704
0.9056026355291175
-0.05850957632455088
-0.6795844156714894
-0.42513479094356865
-1.5996353241445507
-0.9137157238982767
-0.8101800978980235
-0.03443331206895088
-0.6505916779110904
2.3148175799898425
6.658128158100015
0.05074073375237739
0.9863072446704001
-0.047840718263212796
-0.7605801196012962
-0.44196837696349006
1.6566169078274458
0.9655614601806434
-0.7982307139521675
0.02267574625032565
0.6716466269740434
-2.2986183442118002
6.7083244156441735
0.05415471763942507
-0.9861873956263632
-0.022618617131323866
0.7712223302279579
-0.5467677745484525
2.0221620900140516
1.2219145856688973
-0.6875269583952407
-0.08299296019827969
0.7384917967010997
-2.1761996339084724
6.959339156257789
0.05889191930808465
-1.0408537352757592
-0.17829841660930326
0.8390962358553246
0.5642975513693669
-2.052317208965352
-1.2252902705669626
0.7149809891599609
0.10734296779625814
-0.9468663560745377
-2.1485624853165266
6.975013545651579
-0.05535783098504143
1.0612451764575663
0.22584379147106295
0.8530983724144499
0.48787486023490745
1.7755700652603061
1.0554288732428616
0.7737355432688117
-0.020880869004552178
0.7727916134074522
2.24559616256056
6.803993003291341
-0.05013353160200821
-1.0282697625717476
-0.050657414704801056
-0.8041043179151689
-0.4146253387145076
1.502879673088609
0.9755417485531765
-0.8216910020689299
0.0939641884815577
0.5323899801032254
-2.3604478798420954
6.6077691985827
0.05913855682731754
-0.9421977640096655
-0.09670167735972206
0.7441135663139959
0.5725970772135647
-2.119274804478197
-1.1674198234206163
0.6927693237285544
0.10658736194316266
-0.8823756858277073
-2.1444380517793813
6.980847922763412
-0.05401017442941947
1.066664689526028
0.21352723058156375
0.8550878042976026
0.5576360026069879
-2.000287340895098
-1.258514998546801
0.7074391510030683
0.10045673871765182
-0.889632328651631
-2.1641553681963135
6.979810317145808
-0.05306921433726519
1.0649273238335042
0.1714762052946815
0.8480745471993978
0.5512050188341177
2.0176535959253155
1.1694476839081205
0.7078899511789934
-0.07668833196354535
0.8081186041083914
2.173916883319832
6.9390490747200015
-0.05362630397469543
-1.055305939521025
-0.1727471809781591
-0.8410153869781609
-0.4295528740268191
-1.5948647299233196
-0.9625758939676451
-0.8105306156222403
-0.05117289288990732
-0.6176193148272868
2.3236421006113543
6.668113914445295
0.05611120745156464
0.969606086625542
0.042686020785503466
-0.7600672706155299
-0.4966748222627447
-1.8734380793957226
-1.0593820706581292
-0.7285430148855556
0.03356873959564747
-0.6615618141710046
2.233738751435576
6.843713849252854
0.054381655193845094
1.0218948506834085
0.05924448793928124
-0.8064285981335922
-0.5385833250661437
1.9996115351131352
1.2087073122857641
-0.7242328668120612
-0.08741641384140138
0.8519605431227274
-2.1611427444851667
6.913788720358855
0.06141643225529933
-1.0335272044534178
-0.2129019190408116
0.8393144321976584
0.5332488729488912
1.88911926266247
1.2545407333829248
0.7095728878627655
-0.06902665552380903
0.7430590821361902
2.1854945068498917
6.902432144214669
-0.048762803695343
-1.066779369355942
-0.04831788975914364
-0.8327021128734963
0.4024724078681054
1.4286887087932274
0.877997871130636
0.8513997680776136
0.08016544757835416
0.6508893387208989
2.3637085930962045
6.5611947250957625
-0.047029171636574996
-0.9782078717568115
0.07225749331124216
-0.7468291066097257
0.5311863427579904
-1.887402808149124
-1.2466882720352768
0.7401897130994082
0.06342604260054416
-0.835471940460233
-2.1859812998605714
6.895633669336336
-0.0543354313711943
1.047056431768989
0.15223312600078245
0.8326919187081473
0.5498460851163541
1.9896530831078199
1.2049750180633367
0.7102145562792989
-0.10196695545746409
0.8894823085671
2.169370097712746
6.9628634824817235
-0.050132475243498294
-1.0694595533954394
-0.11672683172209566
-0.8439778739333118
-0.5482131359326861
-2.0193514192549014
-1.2442257852676266
-0.7025765020581346
0.09636783234237548
-0.8347831589304678
2.168073851724568
6.971596829814848
0.06054698740718089
1.0396755205041537
0.21120374680015616
-0.8432184310347582
-0.5397509107168296
-2.0116234796173287
-1.180739473241703
-0.7143745667728267
0.10367907188889501
-0.8840627210130209
2.169860922176348
6.954074542592436
0.05777041438589909
1.0429908773943217
0.16890158323992494
-0.8400550784275445
0.5313327266895244
1.9437502288534318
1.1245900499794361
0.7206868393019199
-0.0788323592243614
0.826763741432077
2.19202344551869
6.914390875160047
-0.048288115136943824
-1.062403880709776
-0.06399713215597802
-0.8313723627226693
0.5290217553071555
1.9502875199803624
1.0938418985568836
0.7355211233083278
-0.07375796323837558
0.8641813723477689
2.1944060966273056
6.905453306716154
-0.05070288574328553
-1.051877005869938
-0.11034970154158685
-0.8300445744134639
0.5040348373482603
1.7805306179149267
1.1987530634938341
0.7561071434620976
-0.036443637463226985
0.7717637613965088
2.222043803515333
6.842830300849517
-0.051236876752845
-1.0399015430102692
-0.06802274161266335
-0.8154489243069016
0.5730065798647465
-2.115025375887384
-1.176364753077618
0.6789643208507706
0.08573198209215373
-0.7739431204795922
-2.1561252042161145
6.977034412663299
-0.05486545361046571
1.0612696245513364
0.21851724937129166
0.8512924545198762
0.5390214960979792
1.9276185202617284
1.2337698838810167
0.730914292067925
-0.06433835750516682
0.8350718964628592
2.189717218305389
6.927771597933413
-0.055781134633653015
-1.0433192655705932
-0.1938336691881619
-0.8350454769556657
-0.5542494887185667
2.0646010249592606
1.2053089706302085
-0.6788529133010129
-0.09917205616107365
0.7663306441004162
-2.1645678514554487
6.976217573497631
0.057101591615267774
-1.0502539824697452
-0.1647528433579
0.8447586186818993
0.5820164022932086
-2.1066333927768994
-1.280340734094569
0.6881538796450396
0.10941451806400042
-0.8915651604542943
-2.1385918508247412
7.012260347999373
-0.05698442536141292
1.0648150288872058
0.2676619389124492
0.8609819303564931
-0.5094299785954408
1.8245519416746743
1.281527688162521
-0.7336344087961472
-0.05203118203815568
0.7314650764422459
-2.2043224900601674
6.873908328017598
0.058620932673660815
-1.0281905413964423
-0.11236549568825312
0.8197758060073723
0.5672117694184294
-2.049072568683242
-1.2502613470804333
0.6852602409977235
0.09222652556694667
-0.802485765289796
-2.161241751679967
6.987205754472551
-0.0535910084272859
1.0658928878050529
0.18483011688418946
0.8502649340093583
-0.531176257253909
2.0110615440548645
1.102632303534469
-0.7050076752160546
-0.08381755733297101
0.7765688105329115
-2.1846813420984716
6.92065202519091
0.05501860712487895
-1.0419452321173568
-0.11488841079213624
0.8311861596521878
0.5382172056914328
1.9973638701047964
1.086810601025455
0.7100881041961773
-0.06075073951737634
0.7505235678192449
2.1930953955723713
6.908520342226515
-0.05134302909094131
-1.0520754781204387
-0.1213006947698692
-0.8313320732844757
-0.3977292122908914
1.412461357575715
0.9728716471561143
-0.8481360247116969
0.08795218357265994
0.619305463559695
-2.363474684659524
6.5626132859966955
0.05524546598867671
-0.9471004334501971
-0.02713957349820046
0.737463617580213
0.5348295319578811
-1.9682105498719547
-1.1151871813404381
0.7241457276768107
0.0661336733475571
-0.8070443925712124
-2.19035649430111
6.904752056779762
-0.051911349347897595
1.0507985958034773
0.12902750755752418
0.8317543138219385
-0.5261249745482749
-1.9137968531730833
-1.2463252363799748
-0.727063972200693
0.09221466971171512
-0.8736719866488926
2.189690061450077
6.948057550963782
0.0577498925037577
1.0385587664760807
0.14206353225716117
-0.8323925787616896
0.4626470258554831
-1.6786641267857811
-1.002244368043246
0.7997568275120346
-0.03909831175330079
-0.6477548387265598
-2.284099968359667
6.696959127847805
-0.05382816630999769
0.9944075952534541
0.0892351424252496
0.7837023823571295
0.5219194419157738
1.8619798588205365
1.2051731582211689
0.7210807035632462
-0.0547819324030542
0.7236677590020727
2.19873929895725
6.871886001701337
-0.04858995155903235
-1.0595062599852094
-0.03403410026672384
-0.8253323560190071
0.48327693896249696
1.7767754352795893
1.0058808139262945
0.770186931192817
-0.006533861564953015
0.7204656559071135
2.258695112459565
6.787564824120868
-0.0499098663891515
-1.0221230847573501
-0.047646780654536605
-0.7986659517961634
-0.5155745456208111
1.8821650233058314
1.213772807408558
-0.728173008876163
-0.08149502661712692
0.8207335330748758
-2.1963171576015688
6.909074088912283
0.05486945760871943
-1.0408286641248208
-0.08215654626685888
0.8255471715709477
-0.4724587455390527
-1.755886559570943
-1.068175509737667
-0.7564363894381099
0.009850177663762982
-0.65123800008176
2.2597084000843553
6.789728883162227
0.05408594054869588
1.0106756332195153
0.024974938204658792
-0.792082785091758
0.5136570998451361
-1.8401143609368023
-1.1675864566096048
0.7325638152530368
0.03825441761214977
-0.7173220925362565
-2.220079293771895
6.865636482802628
-0.05039309170188777
1.0450181848233209
0.06448238874164833
0.8183360374763812
-0.5190822015152052
1.8636180392534583
1.2950714967347663
-0.7430287998254439
-0.0773835911358405
0.8523374731146097
-2.1819838883960716
6.895879765194071
0.0599963850426137
-1.0322041770104897
-0.15431458116073987
0.8296556315997226
-0.5366174854078501
1.9660426761303071
1.246660722660309
-0.7127944173466607
-0.10411062341529242
0.8579400488262064
-2.1649547560798363
6.93937296891221
0.05615730849953195
-1.0503123925531723
-0.12627001380023278
0.8399564095820283
0.5114896955670759
-1.8497258388639333
-1.1363644174246224
0.7580880851981558
0.036199604195344334
-0.793943550917048
-2.215181514823073
6.846852297500275
-0.05390440613381294
1.0318279094888598
0.13356743621052694
0.8185140605666892
-0.5564237269599557
-2.0626648940747723
-1.232508063457097
-0.699445974159076
0.1272545332359237
-0.9263770951675556
2.1478033508011367
6.992602593111648
0.0577163332866554
1.0545254026905337
0.18824667039414608
-0.8520861091116421
