0.0
0.07841143552962002
-0.06280309601738182
0.00805995139769626
-0.005286797112856775
-0.09683343488830043
-0.019670928132567253
-0.05880771226653965
-0.05145963227860189
-0.08867446554134657
0.05750181948153926
-0.04089227252398156
-0.044659706016219894
0.0
0.02820057695160219
0.018058015310432052
0.09120708359475224
-0.029724338877500325
-0.0555350027000495
0.06856793588934437
0.05483198173502182
0.07707821508777299
-0.033359776127070126
-0.09340861368723763
0.0991202992902657
0.06280220869077388
0.0
0.04041350062056123
-0.012991191535758784
0.03799982747464231
0.020695330333058995
-0.0035526235069367473
-0.06575952999840637
0.0033856544526635196
0.04245593056418451
-0.06840038319283112
-0.060384572014226784
-0.02031777505855399
0.08819770457369142
0.0
-0.0144248173741552
-0.023573926906016757
0.010227112929983434
-0.0867870661172327
1.6522489166410914E-4
-0.024932812612210517
-0.08320594073384312
-0.050118484396950574
-0.08593207374398959
0.07868819965190407
-0.06129674537040859
-0.09445190451850559
0.0
-0.015318575633270576
0.01324777911617217
0.03894787503643171
-0.02856021720950644
-5.762061357133391E-4
-0.0222862477058811
-0.07196132718521697
0.017685385795487243
-0.07033002748074307
0.05474163872947371
-0.039591140548726325
-0.09211144991087748
0.0
0.01618610675282832
-0.0950493803257839
0.0054457525764291664
0.01510160485696295
-0.00417676378281398
0.032074088302642856
0.0013945007166159817
0.06725920890992251
0.040373982869807784
-0.03867746425983483
0.0028310092755226834
-0.09264982968747726
0.0
0.05402961175037224
-7.519849775554643E-4
-0.04147930341292741
-0.03596071035268414
0.06928974169031796
-0.07748311104708024
0.018383172526763664
0.06432343557477144
-0.07726357557292594
-0.0537927386017929
0.049500665605897304
0.09980465180052361
0.0
0.08152897218634694
0.04034727888391179
-0.07266727830795015
0.0440259124321111
-0.08090352103757276
0.09187621553148392
-0.08073224570515847
-0.02825134277673591
-0.08887634943946579
-0.06249399030370195
-0.02082486315411418
0.050106254401590083
0.0
0.023304909188593667
-0.09079097270803885
0.052445780203177556
0.05273897136071115
-0.03460191338454584
-0.059062115249897774
0.06358751961501338
-0.018609742976661264
-0.061979331663449315
0.07502309364085269
-0.05089920680531133
0.07004524778750679
0.0
-0.015116024142368192
-0.059864037712774154
0.08322811621098045
-0.06280399898603048
-0.0815185821621485
-0.07178796784947389
0.051036843763605594
0.019380698979952954
0.03542768032519722
0.061891719957869545
-0.07360797554920817
0.07118298958361374
0.0
-0.07107446809842335
-0.0776513521686207
-0.028635670709295555
-0.0610505311304121
0.005278392351955291
0.06553480970707923
0.07138968482421673
0.03569219252477371
-0.01631813318026336
-0.0998253164533972
-0.008269009587383996
-0.009013758680276901
0.0
0.018830731855141614
-0.06003407843293984
-0.09349962256380645
-0.0647335926700568
0.08227681028903441
0.08056840004720048
-0.07825647239729382
0.055861295865749366
0.07751464961601551
-0.003538019663192893
-0.0963524818121748
0.05849327624913209
0.0
0.07495417929767903
0.08502838582786396
0.09378924603920008
-0.08593033038578035
0.025275008561348206
-0.09711416091822159
-0.04321312422229422
0.06036846841098151
0.08799806472004498
0.057238845348546036
0.03897136930389716
-0.0676031929475632
0.0
-0.03799886086486573
0.09329064628585901
-0.018239940424015597
0.07330554888059981
-0.058771310099064805
-0.05043498231563608
0.06321717227022086
0.09289973235310114
-0.06487767666788083
0.025725958650167663
-0.09199008783361047
0.03219738780427739
0.0
0.041901402630512424
-0.026016637751850633
8.940303146722506E-4
0.009400120745510734
-0.060901189418765704
-0.09158034635029542
0.027779525656235482
0.04177988766630217
-0.018376582910688666
-0.09553548688212761
-0.052757682286047186
-0.010324306101281877
0.0
-0.014182267235873972
0.059720272138533675
0.045233439667434205
0.062142441979691876
0.09925700802447082
-0.02544935646604561
-0.054095699208418814
0.04341662526600912
-0.08520000535053052
-0.09630130727125204
0.039673978812734295
0.053125399936766154
0.0
-0.0016151989305533548
-6.115558825742912E-4
0.04968103231539739
-0.010867920817953555
-0.021026655646716325
-0.016663106539961975
-0.034945734894993224
-0.040085957420947164
-0.08877354169717643
0.08109982128824947
-0.0091722664105168
-0.03901910127070174
0.0
-0.002554826145824113
0.014824711519277417
0.06116412652189615
0.08424260805486095
-0.02484889580859577
0.06396221990419274
-0.030699152946456087
-0.06589365468167448
-0.03297255574537479
0.009150588854513586
0.030597335915670765
0.09054041104619631
0.0
-0.05715414277484026
0.04107585527512486
0.023797592164019138
0.06368929014683458
0.09747386701810962
-0.0801771903952272
-0.02082714807092527
-0.06406132301887812
0.05451419275487321
0.06745243920436017
0.04247976295215644
0.06450239427724722
0.0
-0.0204027335106665
0.003454913271349752
4.903540709361581E-4
-0.07933341375514835
0.0016282420646983875
0.09644621859375899
0.01669392628652233
0.05771867944661921
-0.025539204320406128
-0.011101425361351211
0.016926107003322796
-0.020936179854374612
0.0
-0.01830591552156209
-0.0605364179644631
0.044812843240091244
0.07451454168289093
0.003602748546962631
-0.030430649239243365
-7.360803838304952E-5
-0.0018023841820062475
0.05305418883655752
0.05075014386107099
-0.035915720891057976
0.01933102253512113
0.0
0.0029738440243074205
0.0616719478230445
0.0468109975638803
-0.04060258747997239
-0.04769227753454604
0.07424592114614245
-0.018871555866509085
0.003773411041692154
0.08663333497333134
0.02992500430686401
-0.046100609807107354
-0.0752311230417607
0.0
-0.06573336959774403
-0.06271318945282722
-0.07225724921556294
0.023252580132318054
-0.04118328731057652
0.05356682417845343
0.03441330885960969
0.09152514196211953
0.06093370184895641
-0.0240120017327438
0.024863946414272947
-0.01348041395192126
0.0
0.006332025700216071
-0.03637297415180958
-0.08303447250583099
-0.03712358339339726
0.002804369251487776
0.09832810962294622
-0.0948128598972557
0.003388208458896605
-0.07466110601354901
-0.03516529089589447
0.061010722582639926
-0.05656879309513745
0.0
-0.09122334558253681
-0.06289083798723649
-0.04599059185229986
-0.051085339944258616
0.04587802078955336
-0.04003021974699272
-0.018449074199689913
-0.0033148535999910633
-0.05515309231856058
0.0633286260762903
0.08630966404724336
-0.07845631660939555
0.0
-0.014260714013847126
0.042035885932446865
0.01339235590787205
-0.09030389003350954
-0.057705126588428635
-0.05772003250883282
-0.07004871331523066
-0.017716652325363486
0.08980700964729524
-0.09015687860210715
-0.09360432013431504
0.02074386921364882
0.0
-0.04818194191329457
0.0589676677775513
-0.08917625081781143
0.07522293274230765
-0.02836807323212341
-0.06628247687150886
0.0049928373292671
-0.0950732426613514
0.057071319282571614
0.0968845550010082
-0.08728545622972028
-0.08195472267335112
0.0
0.08415503310148922
0.012208620626576835
0.02825559622361809
-0.016854789058176098
-0.025105789718522314
0.0037684379552205965
-0.06534514408363346
0.09759526761053922
0.013409542854340553
-0.03436646595481695
0.03602574123109875
-0.017976826748835384
0.0
0.09918480726015014
0.06539197513390546
0.07849138180006515
0.0036657811190762696
0.08516257692678841
0.011350244866126416
-0.002515866226026703
0.07310792107663885
0.047777459254492005
-0.01145442875597176
0.07548272063793268
0.05395862943794527
0.0
-0.051924526431481356
0.07735292462952134
-0.06329519522911914
-0.07956697833203835
0.015805731295333067
0.09812329983366588
-0.07106859773953178
0.044852227021708935
0.05243480077116422
-0.05286504547887841
-0.08605844086900333
-0.04711428074321114
0.0
0.011039110111174241
0.07280716936826345
0.09594723650181894
-0.03212700581801324
0.03328296573086764
0.05452742718827028
-0.08637303806287411
-0.02800272579960271
-0.036574042622923214
0.08299945581031695
-0.00966129536576818
0.02340715401432028
0.0
-0.09108948915588025
0.02516773004667064
0.0803607979778713
0.08795236381501134
-0.03000955149249647
0.07841265909168837
-0.058471813899585605
-0.04006363951762209
0.02272980573389953
-0.03133242597525705
-0.062359005909276344
0.04975219172602055
0.0
0.08396458348771715
-0.0169210330443907
0.017744933546734856
-0.08375246735338665
0.09076664010806926
-0.08818124990650761
0.09631390685174576
0.008181064580661174
-0.012108163114730328
0.004200915993169921
-0.08557830681592662
0.03383969174653162
0.0
0.05806701307741091
0.08510323767003844
-0.03265715171992063
-0.0820536277650128
0.05434430688096012
0.02773923723325647
-0.06214385749601712
0.028126834404830353
-0.037628168986718995
0.015879817688456963
-0.022269324297620227
0.045634335932241255
0.0
0.040309365313330126
-0.042319509261252365
0.08533241283883969
0.044486933907810444
0.04730994994097487
-0.08258363398801337
-0.01463297068336053
-0.0548202585062767
0.03248218275351461
-0.07223527531563588
0.09969962294005158
-0.00807165698868155
0.0
-0.0012911790170202775
0.09184731449277916
0.010556984991390322
0.04270605071524616
0.07907427404597686
-0.02243041595553985
0.0251387178600391
-0.058622958710169606
0.09665790432182766
-0.07107423964059895
0.09051642150847214
0.013480550800016866
0.0
0.010256554018864578
-0.051601762682390875
0.05181608472586527
-0.09906292058732702
-0.09272822053119303
-0.030367535474378246
-0.014234360091835208
-0.07479291816857044
-0.08681611435845352
-0.027346714464227873
-0.07257746937524107
-0.08515231781279914
0.0
0.07669134756618864
-0.04611292904061231
-0.09265516078339145
0.022422606349900537
-0.03095904263150831
-0.08472380290354282
-0.06427975937134206
0.08351830441324026
0.06988584521841795
-0.02820019840026576
0.05377122133755427
0.07353346992787563
0.0
0.06493933597999799
-0.0596937468247585
-0.07891608212210728
-0.004400619133460876
-0.08707057602216009
-0.09468744793219314
0.049713244940955054
-0.028993619325700576
0.02585759165547724
0.08451232932465116
-0.0683237979929214
-0.09376853789650336
0.0
-0.0889162853893841
-0.08441934896622134
-0.09798847923396231
-0.06020958715337754
-0.03182491729287222
-0.03629701986923682
-0.008042478552008722
0.05232648273910209
-0.035195663292910115
0.03024291756294767
-0.0407202860777228
0.001982304478833935
0.0
0.09909002382184681
-0.04527714410337069
0.046379667988116574
0.020887144661901863
0.010606711226479423
0.0965732678159271
-0.051910468871670834
0.023839062257506233
0.03937104853462953
0.06486954029379363
-0.0204259868426232
0.06886353274871274
0.0
-0.07370167794703522
0.02614782681522848
0.02577736930702229
0.051189777010174686
0.05430554930725917
-0.0439524114278137
0.08672436670729405
-0.014256239364840079
-0.04948347710384482
-0.09806750767376769
-0.09606783278308875
-0.08451484384419944
0.0
-0.014881748976466921
0.027474863195754567
-0.0817522811064979
-0.0015715238625244182
0.019923390168987212
-0.03963923792594564
-0.00777540512079819
0.08042135204645948
-0.03822399319907959
-0.07380935768277247
-0.01541545231489505
-0.044396241496363925
0.0
0.031242137145000765
0.053853074859509076
0.01979645399514343
-0.05492845147363401
-0.0634685702990494
0.03276631721635204
0.010735215054341912
-0.017178742805756236
-0.08120926198453614
-0.02540202531984663
-0.03437083515750257
0.0506438071551972
0.0
-0.02910404704989744
0.05493534525956098
-0.03624632393653156
-0.030017412421297282
0.046567473184227715
0.08274331470669088
0.027622562701023617
-0.04389528561052678
0.07625001066542461
0.07949907360946093
-0.0782760129826347
0.09062237281374183
0.0
-0.07913564067041988
-0.08961217516332994
0.019765095454043077
0.005743243912306184
8.196918009619469E-4
-0.08919390687357676
-0.07011497732519803
-0.08651032333761915
0.03184792351475793
0.0879114690458187
0.0463150041820031
0.08079270110182865
0.0
0.07001671836141929
-0.09885496219255292
-0.005730356439763565
-0.07277130104960179
0.018114257229783076
0.07222021373129148
0.004978980314338896
0.032933591602529455
-0.06982844415554029
0.05317999598696488
0.0016122654695761574
0.025737540290958982
0.0
-0.055257278413774126
-0.05954655927741126
-0.01700442670627851
0.018586682412946698
-0.0017799345012261825
-0.08848354849429772
0.06172529292306639
0.08830544726351156
0.04665549956671766
-0.057252980828902095
-0.0031391442478336806
0.060157939180840087
0.0
-0.027453665567114857
0.08524573242268996
0.0013582746487171005
0.09236639591568488
0.08326929582841602
0.03626702272376606
-0.017575601914970165
0.0091108126469613
0.022366598100528184
-0.0673425747503425
0.04426038358893147
0.09677730319929773
0.0
-0.07140280830847152
0.07518207919640038
-0.008892775146149168
0.05586562021657887
0.026646687198882857
-0.07861430709842332
-0.09272284973993489
-0.0028645688252759427
0.0792829453604062
-0.08815473442636071
-0.06299382516500465
-0.055944834095799756
0.0
-0.012976479414022843
-0.09554033275229667
0.06756180002233567
-0.022468507493447906
0.06978794179274381
-0.06142116156051006
0.012348324340043931
-0.09592881310192299
0.06560789401161068
-0.0927858098162791
-0.09748141862252371
-0.06771237965090567
0.0
0.09465167247161885
-0.04243789372751261
-0.0730098167605789
-0.02583333925075819
-0.020381201016221567
0.01885148196652084
-0.0036563414031306196
-0.08244742783563226
0.05347988138031065
-0.07238629450812786
0.0910708458274396
0.03838705775161552
0.0
-0.08431762338199407
0.062465034252360885
-0.049083808930387864
0.040282865172941607
-0.08418984960652497
0.045578908501662074
-0.016821064231084468
0.007808878019045173
0.06967227640575488
0.034075671875391844
-0.03459389318075563
-0.05242125325153917
0.0
-0.08586174174381006
0.017418623306732856
0.09548455413316467
2.3684919295477447E-4
-0.006076556885155376
0.05869551553089991
-0.09608056202202615
-0.08563110123925438
-0.019153079552804625
0.0016652053044898113
0.06644344685393677
-0.03379470113085632
0.0
0.054362214549904864
-0.018867954804758558
-0.08497545947069117
0.05501486183285734
-0.05313595464239378
-0.027898174950890198
0.00665818610613822
-0.06806428676107264
9.382284362950549E-4
0.010084611617941691
0.05212622027906527
0.008044634655434396
0.0
-0.04844728602889386
0.022717315000527677
0.0935764793163022
-0.004960958886657291
-0.056307715867606814
0.06058824473025118
-0.07684661798206366
-0.0033949323848590784
-0.09388944126853958
-0.08948581671588074
-0.0849476995281454
0.001658641038854422
0.0
0.06323770856101674
0.07951201236093611
-0.08438053681110232
-0.07365849272112146
0.048764170661943634
0.04971758188735789
-0.05602883529364347
-0.079348330308467
0.099153077066371
0.061123931159554334
-0.08210989397881625
0.004570922908184727
0.0
0.0810775883858513
-0.029726672392580603
-0.07207872627648454
0.04279535561161579
0.00332487439719939
-0.02461809314048631
0.061244892044096194
-0.010503388397885699
0.01568817621239127
-0.022018940397804027
-0.00541374630342728
-0.04371058927688252
0.0
0.0476400106964073
0.01572524817640468
0.03826447317613785
-0.004122575862101144
0.09625121405787235
-0.07095478669696796
0.0518972194557574
-0.09827894764552109
-0.08691798651267356
-0.08689552842541226
0.09071269633078269
0.02640117188214136
0.0
-0.08942206529343522
-0.004640799467858517
0.023853579865659613
-0.03159953985478757
0.06856483130299834
-0.09327614918315213
0.03813210239955403
0.011421301796271169
0.028733004255159594
0.03089750041493508
-0.0015099466227975061
0.04258482317019485
0.0
0.0541981101040436
-0.04685238829762144
-0.04162277521184992
0.022185378990893942
0.09460299253272261
-0.06366199198825431
-0.05992621387783059
-0.028975312710876944
0.07390095705610289
0.04015790545801767
-0.06005255172701936
-0.036209418574537564
0.0
0.0193854578399979
5.57103423153002E-4
0.04342080536181164
0.022312738609087487
-0.014919889693327915
-0.056603082190071485
-0.08495008276561063
-0.08449097172558162
0.05925721752947721
-0.07641616197281534
0.036293669437914955
-0.06806680015690043
0.0
0.03137203816561135
-0.02787391935584578
0.09530014813685647
-0.06586868926587575
-0.01861050435505629
-0.0865167761030796
0.04252506365515757
0.02515962074921091
-0.08193357004794516
0.0958032973795841
0.09759636210533715
-0.004391163136976031
0.0
-0.051805796815724704
-0.03946454136663285
0.04355208869118221
-0.09580830535351487
-0.0555268546853988
-0.03946448149359212
-0.04418259057419871
-0.03463582623913164
-0.06391682547299044
0.0480724538337679
-0.07991699366357419
0.03159426269575427
0.0
-0.07243884851515388
-0.024846164774051965
0.019415747621601392
-0.09258641641216868
0.07962591359064974
-0.02900778836437523
0.09669880626029198
0.053628900072070884
-0.05517942019397622
0.004258069605714579
0.06776947123783789
0.0687870500090689
0.0
-0.05107366718317481
-0.09884260886531744
-0.09536051055563025
-0.08176628370598973
0.06336414059087692
-0.06279735248442095
0.0025906080604632536
0.09281372895984219
-0.07057833007420683
-0.07990077966242287
0.015453718098597413
0.0731762619062423
0.0
0.061861681914238104
0.02702261113446261
0.05059304143349569
-0.02394430790783278
0.04320578920443818
0.03837130649028825
0.0940915798425416
0.08314011437657096
0.007940865761053711
0.03123523135588699
-0.0746837405800262
-0.0750406393739179
0.0
0.08796570209372623
-0.008974917251817718
-0.02309297735924698
0.06842245084289031
0.007822402364768388
0.001955976857359182
-0.08503217092769576
0.00609468547975274
-0.007880899876118064
0.03469738569343975
-0.048484296199225764
0.07863513866132288
0.0
-0.03402909707063864
0.017062782969435447
0.01511280172596699
0.018597504725495012
0.04043783255244887
-0.0064074407382858495
-0.05482137232109974
-0.011599715919565351
0.0584363803462255
-0.08609268961847497
0.032599547567518844
0.01905173207420681
0.0
0.09070846782117276
0.005485406118322683
0.07841270879147977
-0.0652484001298946
-0.06942333139391282
-0.09404472307114053
0.09878684092326406
-0.0698549932979689
-0.06198383495894806
0.029810388792768844
0.07375323243763918
0.055058856404890916
0.0
0.07714298039236489
-0.014064768208937317
-0.03418638794809155
0.05490106120125529
-0.015584680119833341
0.0561340796161722
0.0383771269993001
0.01945226726152975
0.06719305139811904
0.012501955799197176
0.039777728181890376
0.06767789689123277
0.0
0.025228953798296122
-0.007659283335755412
0.08667208794076317
0.08239800556637625
0.04897876483226954
0.056354455307295964
-8.04051120064625E-4
0.06431122240537751
0.07595102233396792
0.042479153795657365
0.03838444219327175
0.08864384300738601
0.0
-0.07816537144424018
-0.07008621058743195
0.047101049652581856
0.00786870094707251
0.04863786329208694
0.01080855064594824
-0.06130876559898668
0.034060172141904876
-0.017877071917607304
-0.024562946743411612
0.058677127732540496
-0.08192197058666428
0.0
-0.08535783339169292
0.04259616911630676
-0.07850933999230647
-0.05534093209971072
0.08416779093927063
-0.05537215234897348
0.03813402411088568
-0.06150850187701893
0.010261071497702529
-0.07882305798729938
0.02070441689868044
0.06550745191721366
0.0
0.027750624734525026
0.05031650383020006
-0.030134169004330844
-0.06018467668660035
-0.046503627484278526
-0.024510479055476833
-0.016940783771475315
-0.01155676460615658
-0.03600245224794055
-0.01699485116907387
-0.040145097865498164
0.03422999627176915
0.0
-0.07405355155558065
0.06136628694647514
0.015322691803925953
0.09927276003228505
0.05762137895354011
-0.005285713236765674
-0.012600035917541691
0.028120398745928726
-0.04045807804178783
-0.09236551455526265
0.05438934502332968
0.020490300355838584
0.0
0.021371777199998082
0.0764631412880507
-0.07974885174625523
-0.09294131546593368
0.02667119511591251
-0.028820922507940036
0.02719021347991854
-0.07134912480943317
-0.0613499524388538
-0.0679371620764859
0.07060805471868387
0.007530828327065489
0.0
0.010837730023442904
-0.013413877455359685
-0.030831284510377463
0.08913898384448765
0.09836776196976296
-0.06958758188480757
0.0025135236375935788
-0.08860713807502663
-0.0033157311594067124
-0.06794634982289838
0.012153632203254786
-0.07013334695367031
0.0
-0.01967181495324466
-0.0910375584987258
-0.014402274876772994
0.04429988047658484
-0.015539259432802127
0.06285689119509799
-0.06574733096642278
-0.00374516364055108
0.073025279065039
0.05667529092807974
-0.06713667021634132
-0.04803392817601018
0.0
-0.03551681646427711
-0.03646343918598309
-0.024701302300301833
-0.07964028871399105
-0.02522958311850343
0.08203284542772946
0.022354559365497503
-0.009431140584219316
-0.00956954492985744
-0.0938361769481755
0.04759951591415337
0.05482781667682554
0.0
0.07950040417417603
0.012458905702046302
-0.082201845215735
-0.013989610021823418
-0.02008256793099561
-0.04374918090223976
-0.06782674315595263
0.026492140666691144
0.051212774117197296
-0.011925314760975692
-0.09814644739735318
0.06215013680732215
0.0
0.03370562388268736
0.07102655697086069
0.03263798974605581
0.007992708657876796
-0.008656062699078967
-0.038254920943780295
-0.09522319205270113
0.07131427909452923
-0.08478972722405514
0.03635052194476143
-0.09378596775684832
-5.506212355139289E-4
0.0
-0.001053653897432505
0.07104066236648998
-0.040332543639488065
0.08345473318278629
0.04975214454077209
0.005286983983877766
-0.09711243161833172
0.08504493524719939
0.09412286200408346
-0.022654052756729118
-0.005023463088708782
0.05843910244586123
0.0
0.0607452240015591
0.06826097191993835
-0.05785962267161862
0.07751913386155665
0.03925796741422852
-0.06323195897857162
-0.05913530011129673
-0.004873457409214452
-0.024716455014222746
-0.01664651535208124
-0.07658710177455552
-0.00602216287371149
0.0
0.07905586095327519
0.050416912341879866
0.003872991359822331
0.09605067899323191
-0.046569873466269555
-0.07142053465142935
-0.025689889694294296
0.009819867027300894
-0.08063499949070962
-0.07827617823447997
-0.029875182065482772
-0.05532591888724417
0.0
0.016100566115316517
-0.0958966264862815
0.08842867324995049
0.09347026621255924
-0.0598920073370993
-0.022405228088059864
-0.02895628435888191
0.024491864037161012
0.09465383158731619
0.05939289689210167
0.07948847451061547
-0.05918690218396623
0.0
-0.03911967625845952
-0.06934806719092
0.03676991812297928
0.04830720742612801
-0.05491118678990939
0.05748148679254761
-0.09560401970257576
0.09326004919531161
0.0777143067385325
0.0017657489266150322
0.07648811433253444
0.053764225864011056
0.0
0.01253744006615895
-0.09159729531988843
-0.09465539983651039
-0.028442556618324052
-0.07255502163087826
0.05859548198029971
-0.04635951621702566
0.009195756152687279
0.04492671052448988
0.013309813638830076
0.008538335674313474
-0.05573460403861197
0.0
0.009015926053309697
-0.07303727591987463
0.03735982916342728
0.07222783050883766
0.014046463965829384
-0.05542097243474749
-0.06979633646489775
0.014724788585006102
-0.04982820174934759
0.07264610925180157
0.015033484981315556
-0.05824951668437866
0.0
-0.03713212682463289
-0.0496650021796633
-0.018383762784325366
0.07420697912702565
-0.07268310485158787
0.09687032873592633
0.07234241328439808
-0.005477773917394013
-0.0895142126088129
0.04627063736579662
-0.08685996899593731
0.0632586321120285
0.0
-0.09878295191399876
-0.027202570569214407
0.09637183424385937
-0.0481140723254718
0.048249360040885925
-0.0515268942929592
0.09958104892451472
0.09547480284047302
0.025336776032622826
-0.029148521917503306
-0.06372081489001376
0.07416532350048077
0.0
0.04000650522754895
0.08022766311311277
0.013009973912588846
0.01274409170835325
-0.02096869789272518
-0.0741478119675332
0.025607094490489535
-0.05065814942449292
0.08384567744282875
0.005743400048532951
0.005725253317039519
0.026713137469668524
0.0
0.09282552977587785
-0.08084669560755092
0.08538553561509885
-0.08082452910659271
-0.06470959769822754
-0.02194679867693057
-0.034289199414905186
-0.04207156776748573
0.021654106328292164
0.07114896672724588
-0.05437854506348854
0.02304136383551278
0.0
0.09794664093652217
0.062204902782936417
0.06077740130233952
-0.002848341070336574
0.005254465751266063
0.07437901583614956
-0.03850372411487155
0.05038989664248489
-0.02799652921291018
0.03452778054339123
-0.06455605619826961
-0.04923595474565621
0.0
-0.01252051897673416
0.05458557250867427
-0.08031462579081623
-0.06361848757084645
-0.06726008083383246
-0.08859627414571053
-0.04072673293125582
-0.061697041990307615
-0.019941817625008268
-0.08851628001123286
-0.05242005201580573
0.0026757787935578065
0.0
0.05195388636089407
0.053434158292116396
-0.0936817221610615
-0.02020409572867203
-0.024299325710595523
0.04041051654392161
-0.03127840692611904
0.04821590168975995
0.09917475273219986
-0.007732246629125111
-0.07746414732035414
0.04729666618384795
0.0
-0.06380797629291375
0.06503816473359592
0.06453874500180579
0.0324083512310645
-0.09274606000034476
-0.06767102499140994
0.026021649388298373
-0.018529210862301443
0.026460875296678232
0.058344037678740496
-0.05314039285315475
0.038473210564102606
0.0
0.0126683160347342
0.08833961984750072
-0.006818629196536016
0.06141183319437801
-0.05367847081103057
0.007204994831444725
-0.03241389117120741
-0.005388203809749831
0.03387543525798836
-0.007246711489760749
0.04488421903031653
0.08955436664322489
0.0
0.08084237409411163
0.06181245266087629
-0.004530147300948334
-0.017963966884474436
-0.08799308247927687
-0.028166105809225947
-0.05453569854903173
-0.06249291266450652
-0.026416217549594362
0.07899111121359226
0.06496247726848176
-0.056152662154371896
0.0
0.0316355882059024
-0.0429190245383277
-0.06411998630311429
0.07134784062643004
0.07099885145308349
0.03179123977905349
-0.08224721959076503
0.07254601847318623
0.08693434015410867
-0.035604665136855604
-0.023410341684261704
0.09461250238103261
