0.44245660611610643
1.3855228395018502
0.9281748595515549
1.1084157496823128
0.1437324333403327
0.7623184261173233
1.7632974540112825
5.17249693024892
-0.08970807057836058
-0.9687162013129187
-0.173305416148741
-0.7911188588573964
0.5142019764938697
1.9216075746707852
1.0114913621945874
0.7229299955410736
-0.0399961504611701
0.6941697319688928
2.217792172931022
6.847174351374622
-0.04760104694611814
-1.0490584533549292
-0.03158236132076292
-0.8166389785789431
-0.5025176869655176
1.845578490145826
1.1689568746765926
-0.7374025772614176
-0.04127858692668319
0.7232092813330482
-2.2261339314605446
6.871939828933123
0.05822684779798476
-1.0184959008919907
-0.11760296803159224
0.8123132939800122
-0.47326311057619086
1.6979130888064526
1.1974520845954162
-0.7766688615346821
-0.007570493756924464
0.6948629940478591
-2.242815204355193
6.770221876690003
0.05880600469414266
-1.0043861762721928
-0.08161857023174988
0.7958605074909586
0.5515045157678776
-2.028625282971734
-1.148457688021382
0.7145176004944561
0.09055180133053078
-0.8784107083695535
-2.17088715876268
6.952293073742002
-0.052882447777417074
1.0583096898433229
0.17015121271307243
0.8429598646419113
-0.5292551869241383
1.9492248166859467
1.213173514784786
-0.7181734599025649
-0.07294423310205773
0.7834723030133183
-2.187686604342817
6.921232519056209
0.05969102005274605
-1.031396074381653
-0.1704290078910803
0.8308112429474613
0.4702515849771528
-1.6842534898047339
-1.0591072624620603
0.7959366625362017
-0.016819550407935206
-0.7275563176317484
-2.2801215749002313
6.758776137224409
-0.0533483216577669
1.0018733505997213
0.09925391235448082
0.7904109049440643
-0.559691721687444
-2.12957308399906
-1.1260524272665604
-0.676703741959311
0.11476323437789096
-0.8174744927649374
2.1536015688020087
6.982170480782253
0.05544365732785782
1.0559758779248976
0.16108307623450963
-0.8489912107969154
-7.289856753988522
10.896339268432902
6.4002078606072805
-4.774193026526804
13.939589929107264
10.225250621080736
8.831430060673448
-21.673539222598947
-3.9815889746295174
5.396027933210712
3.9524438327399105
0.20837802185506643
0.5231187036934147
-1.856289821529209
-1.2266473058149707
0.7202700866296099
0.03255807698879616
-0.6670800924757966
-2.212065666509815
6.874776071103444
-0.05268574523195265
1.043466249768833
0.10289055739751897
0.8224781962688738
-0.53379282988567
-1.951652902611955
-1.2529162283284208
-0.7215862941118664
0.09227566125724959
-0.8503320739360457
2.1697639323203464
6.9279337878115355
0.05887175636287948
1.0405458681386996
0.16243337924043552
-0.8374078201652029
0.5469771976556813
1.9743221904614228
1.2136309421110416
0.7066975589464493
-0.07198946410437823
0.7791993143170143
2.17877997075166
6.9327316015412945
-0.052837766648348446
-1.0569827153695568
-0.14693767026747287
-0.8387049111874356
0.5482893107832613
-2.024777120965283
-1.126898704966436
0.7113671669891266
0.06265633732435745
-0.7844606125733612
-2.1862497448670792
6.933733209357902
-0.055265211474047955
1.0445683963589352
0.20308125426057422
0.8368420120119561
-0.5354071422914419
-1.956119879599646
-1.2539999880183905
-0.7186991591840401
0.09408377406274938
-0.8557024986266847
2.1729840826718285
6.942116226871215
0.058951771092661656
1.0402670566924883
0.16851582036204918
-0.8378307895640217
-10912.921875254806
16262.77429565349
12747.488390685048
10.628143762513893
1584.6192128433765
1561.7200078399026
1769.1391020642204
-5978.011539573943
-64.76038814560673
-58.5113922104982
-33.268798542509494
-0.040000000000001354
0.5534409885817266
-1.98117708867468
-1.2599108783139013
0.7117401122822841
0.08885064576282597
-0.8600824013177842
-2.1683490134857855
6.960295626778198
-0.05394441283077092
1.0595066670081619
0.17756789940610937
0.8449355015046683
-0.42562195042517653
1.5666103182435511
0.9820317097921814
-0.8064968944872999
0.04734651559576574
0.5989645902526146
-2.3190725780379067
6.653772611643946
0.05296136473342647
-0.981441980922038
0.02747305958062838
0.7593361110186654
-0.3736773904326417
-1.297427167775218
-0.9352826790334313
-0.8768288624922542
-0.11840872180807635
-0.6431534555932249
2.41132836263165
6.504138775822177
0.05476791159254991
0.91955680848482
0.06738800157386249
-0.7187538041320429
-169.2535882653957
-378.5553179736013
-148.92028521625673
-1199.2904602605904
462.2890486061512
293.0976399577501
20.947506123764086
-735.5398528232257
118.2397908330043
201.71917680391738
-4.764202991860025
588.1676388715534
0.5425617389569577
1.982888740069557
1.1505998550571432
0.6952685831987496
-0.05937391882770168
0.7004027388636892
2.1929309692818215
6.922673869460761
-0.05089058455927038
-1.056964446141399
-0.10820504837411103
-0.8329157798555175
-0.563549793902208
-2.0770094940253547
-1.2653237954380647
-0.6758060112210994
0.11578647933987957
-0.8208014736085593
2.1522408471645234
7.007058892721383
0.057932220993591674
1.0555696793557339
0.18919009318405478
-0.8525237082113405
-0.5597289383514443
-2.0811484202266013
-1.2325718795589116
-0.6993087809496895
0.10669810509994912
-0.8720543132269506
2.1498245330059556
6.980497942057226
0.06231249645465828
1.0406122403841573
0.258071072772065
-0.8509062875974102
-0.48431344223476575
1.8000498427157212
1.0969713236156922
-0.7733230157847282
-0.021999589673076962
0.758799779804543
-2.2377082116872185
6.807050016959085
0.0599755205378069
-1.0012207964115545
-0.13751791165231966
0.8016704919775427
-0.4208987774737453
-1.5279343856504957
-1.001376181405775
-0.8411034763137801
-0.05200141877778666
-0.7098727333698799
2.328564293781922
6.651895812916982
0.05819130118431935
0.9592968257814546
0.07912261738044675
-0.7569243553655598
0.5911880760388254
-2.1477798463737563
-1.285812431653819
0.6803259355985337
0.11129229181262426
-0.8874976431086468
-2.130170863728057
7.024277150710029
-0.05855781337496487
1.0640549413644715
0.3061815500319322
0.8655146950704838
0.538914614153941
-1.9588919262911262
-1.1699960923749686
0.7075207369302756
0.07930139078524448
-0.7799653246617624
-2.1768802050069254
6.907759056832768
-0.04836530411887094
1.0685172110648893
0.06163983414987445
0.8358489037102278
0.5264003960367037
-1.8814660204417835
-1.2032158026411641
0.7228949124900692
0.06133602089156253
-0.7702115781709951
-2.201252659631337
6.901811531711448
-0.049979686964333365
1.055836994884882
0.07283482629024604
0.8276763414955977
-0.5246732753703528
1.970049894601686
1.1299019687902945
-0.7413973718094503
-0.07543050236712118
0.8785609420665952
-2.193070254169818
6.919295052857699
0.0617264978162191
-1.0201577144220833
-0.21739660213282885
0.8287970105907612
0.5468250670256989
1.9951481263122688
1.169303647787612
0.6983751399820405
-0.07057260531326529
0.7464761382510984
2.1813332003496986
6.929719523780031
-0.051242227229990014
-1.0602772540680263
-0.12030525910553085
-0.8373406212642681
-0.5224170608463891
1.953247158888484
1.1295509438904296
-0.7034054552172545
-0.066417933656277
0.7161397035940745
-2.209258697862306
6.924111333321339
0.055048116776684954
-1.0359257718037738
-0.09810108378236784
0.8232897618168884
-0.4926903385338059
-1.8256438205109375
-1.1191226332063353
-0.7605403362111136
0.07491682524837952
-0.8732041110553581
2.2101963644577696
6.852524903662258
0.05202177396495794
1.0365002264408718
0.024369919345562544
-0.8140622483241444
-0.5536682032274899
-2.0453772767669536
-1.236512995593646
-0.6893034680868227
0.11418828500883656
-0.8500058875188741
2.161216642275909
6.99373853919578
0.057002882226805524
1.0531428537064365
0.16726981122160184
-0.8475529202653396
-0.4968933224666278
1.819166468462976
1.1712603260438383
-0.7297729589817596
-0.03360939189380625
0.6542599511442839
-2.226457315873913
6.840644029922288
0.05524056157080581
-1.0251952534972948
-0.05497106645250826
0.8085093097184791
-0.5551971337775797
2.098247414776245
1.154650808232125
-0.6907950264363034
-0.11308158537077306
0.8455886084797689
-2.1485640332810574
6.960401179462697
0.056712538119795604
-1.0528902207439372
-0.17131352332425462
0.8484152087376462
-0.5290024589302373
1.9397041443140504
1.2211687683697867
-0.7022263678262062
-0.05934620688493043
0.6970513043380979
-2.203770523615988
6.933089010738724
0.05924475141294093
-1.0295369258869367
-0.1578768660047057
0.8268075276632403
-0.5258252848698745
-1.9047200083614317
-1.2727764130539982
-0.7369667726723427
0.11081240322725727
-0.9357243963003721
2.1624611984472613
6.916144308305564
0.055424617037789586
1.0513982849140902
0.10191361465075564
-0.8378094788637844
0.5676116662809577
-2.0772326937638756
-1.1976998198010378
0.682692133853315
0.11277821677220089
-0.8491008937944701
-2.149444766044801
6.983870598016322
-0.04958568050809388
1.0800563360939672
0.12561464359551022
0.8529749848661186
-0.5172802578073324
1.9206219264770756
1.1636339035879486
-0.7359264115650289
-0.06715092932816553
0.8051609202265992
-2.193208643339661
6.884929241206344
0.0587497231643485
-1.0275006120839874
-0.14755743206627506
0.8246934608701709
0.5456098955303365
-1.95358727279024
-1.2518170575070717
0.7229870428163233
0.06549557665172229
-0.8047109071874207
-2.1709302597103104
6.909139145025227
-0.05605206855847201
1.0481962441728536
0.1964647056671183
0.8394719483299825
-0.5360288539535277
1.957971078133512
1.2550473351533165
-0.7122407087529353
-0.10833777812680553
0.867676766847488
-2.1647844488725068
6.943268545690532
0.05519933890777029
-1.053461629207723
-0.11120584189022019
0.8402590621777943
0.5847832919492847
2.1213448689166206
1.2801142604700593
0.6955037688161742
-0.11197587038595408
0.9338596275026195
2.1334785810471635
7.015273339570747
-0.05896581791789957
-1.0601958096963204
-0.30948754380846694
-0.8633003780718576
-39.595238006612966
-5.1029278192646075
-12.92835852732526
-11.372781349181475
25.688332801427578
7.419284073705263
12.238845128282312
-2964.3676978861977
6.921395256417857
195.63562899015432
128.22707641864235
278.62730524967895
-0.46256945566951
-1.6991319882579201
-1.0859661094128361
-0.7965697492278462
4.7012617858098937E-4
-0.7509959882414615
2.2672231205030013
6.7656837376973336
0.05925049714166458
0.989721937376072
0.10873176498593196
-0.7875998035335086
0.5184828789931756
-1.9026032308914214
-1.084702520260735
0.7325370522144341
0.06590990809950804
-0.814357834801336
-2.2094249259076695
6.890050307046341
-0.04761048207098959
1.0556842380865836
0.04207274642399084
0.8231943948588507
-0.5370948491984804
1.977641307186035
1.2322830855778402
-0.7323150805506776
-0.09805610441355687
0.9192071610157101
-2.165988548542756
6.939365240096227
0.06141223948516687
-1.0342252059782546
-0.21585922951690542
0.8401754085813766
0.4183248665912016
-1.4571778988672028
-0.9699357284792258
0.8126146957017982
-0.09888084245358708
-0.4958688585818963
-2.3586099955681155
6.577744818739534
-0.049833118820853596
0.9745354183753931
-0.019180822370545143
0.7510854565119803
-0.5086850723353118
1.8751736175512328
1.1683311434354413
-0.7466188828132919
-0.065513793937931
0.8337440907077769
-2.2081003276303517
6.890124940137788
0.05826754128059758
-1.0243918208568237
-0.13404005273614947
0.8199800772210842
-0.526040531999355
1.9371930032672593
1.2005276760541317
-0.6976837035461247
-0.0834705625181436
0.7271691786836351
-2.184883930175894
6.9109622417738885
0.05196437812969719
-1.0532131399193092
-0.04311538173164837
0.8296386326019862
-0.4861127243702099
-1.7870593252495806
-1.1370607959825967
-0.7517157184007993
0.03860991018444417
-0.7246752632691926
2.2273864882072827
6.81533482617651
0.053783998444508874
1.0250575378811082
0.029113055958859067
-0.8049773017443859
-0.3730326598357417
1.3229994459153158
0.9009367265970268
-0.8757884331229454
0.11187868538557322
0.6169980336810005
-2.39797180010912
6.489487967851731
0.05309035744409314
-0.9341690071264251
0.009104845158446433
0.7207022870950053
1317.5172425954327
-3120.0891103461577
-3066.935561668071
-65.08135252658735
-21.236742798807274
-13.170558797670944
-28.175739444568244
4259.539960258345
823.846282559893
469.168188413809
460.61865524345075
0.06666981363263663
-0.38569062701236084
-1.3554861874028474
-0.9448706744991311
-0.8276726737900072
-0.11493974320081186
-0.5002746943191029
2.3973018523658713
6.5261131143284015
0.051471744032023876
0.9419661835645605
-0.02003972109015248
-0.7240951244886701
0.5310427089053528
1.8831634355210793
1.2489187654168776
0.7203329921085043
-0.04117813146250679
0.7063366729065372
2.2026319336162734
6.895595608823974
-0.05439893423530508
-1.042981275329233
-0.14371895226731116
-0.8278188962263174
-0.5484885644272133
2.0845845012436075
1.1245232968263463
-0.7076272922330115
-0.0910098645274159
0.8369512428733648
-2.1618030909971355
6.940047045231881
0.06113123074366279
-1.0337723808471062
-0.2338605143872832
0.8421166292460603
0.5464378653825932
1.9798238288290704
1.1887779100204723
0.7063051321946328
-0.07932566918805281
0.8152097935750375
2.189477811988455
6.962835343653932
-0.0519317436748772
-1.0576084718814123
-0.14123399046426027
-0.8379359876238331
-0.49580142157547036
-1.895194531502672
-1.0118438792403068
-0.740499211672558
0.026311731774862564
-0.6844402689295398
2.2358586621625136
6.832313344408059
0.05717906711602728
1.0102314961886647
0.11213346115219033
-0.8049445751733836
0.4999280466290562
-1.7619919304899907
-1.194537024970912
0.7465895752101739
0.0026836310816551272
-0.6409079346617581
-2.2441189721488226
6.823016991651455
-0.05340551719992946
1.0254463355082273
0.09433482293965584
0.8076789921766765
0.5562789080554692
-1.9939628099558155
-1.260645497324979
0.7033783657697807
0.10933773221251684
-0.8850197320511033
-2.154058321637237
6.963177836915504
-0.05003119270645301
1.0764766841333657
0.11428424527856444
0.8491981472970471
-0.5315537688774311
2.005089544732844
1.1197396397289108
-0.7094941307751415
-0.09842517135815095
0.82862206261332
-2.17454057695198
6.922390911069746
0.05348887204533936
-1.0496794098535036
-0.09282170911870698
0.8344968361698718
-0.5531767440282869
2.0766501795302075
1.1693398328455162
-0.6868170167100585
-0.11857640402855461
0.8535636223337819
-2.1592069912833907
6.985835189515806
0.05488193626488201
-1.0570061119976146
-0.14220060008755916
0.8471219437524135
-0.548391911872299
2.0347924669509556
1.2501877777044026
-0.7678150481159319
-0.12167552283197937
1.1022325926056946
-2.107037313451935
6.884538658879627
0.06718879774141943
-1.0319247444349156
-0.3228854617719974
0.8554929213480905
0.4986173584068077
1.7991337531576987
1.1135781839076502
0.7703601330255428
-0.0261254451413823
0.7891072570044131
2.2321897521853438
6.825299206492755
-0.05286936419314822
-1.0271282239403832
-0.10433444717754124
-0.81088600960628
-0.5173733786339079
1.8874735359550345
1.2140051961872256
-0.723014640671144
-0.08593385129732137
0.8267029518269942
-2.2008774265262705
6.930145948642477
0.054240411790989325
-1.042860642900399
-0.07719281205501588
0.8261885942003994
-0.47197679853802293
1.724277996643041
1.122091428247756
-0.7802185045932543
-0.020426755278062154
0.7711652469331705
-2.257764416127398
6.810434051736459
0.057386868023812654
-1.003234848558146
-0.08464974461937698
0.7949772845508424
-0.5192219040419266
1.9319424744950335
1.1590146982383203
-0.7412156332398548
-0.06566761222857911
0.8292998793433389
-2.1954367943045687
6.895381658643706
0.06103712773137642
-1.020817002019481
-0.1896541720813918
0.8253824167196249
-0.5516300537796875
2.043606044758941
1.2275370618843149
-0.7046482698757898
-0.12163872950859028
0.9184493966489217
-2.1526912577564827
6.9813604750577545
0.057749299294432434
-1.0519648962767367
-0.1812114080646643
0.8490948495391077
-0.54628003561666
-2.0170755721251092
-1.2309338853440133
-0.7126124413728472
0.11635387735664218
-0.9234792292291537
2.1595087642118824
6.974656923369187
0.0582746829086272
1.047863683067756
0.1820230354675222
-0.8459426315209548
60.92744453112516
-154.14582486538922
-101.98502294541488
10.753813928377912
-31.988457405566578
-23.61329844396946
26.62442637833805
-738.4884117617374
-54.33154886908426
24.24637079125609
-19.36955483943606
2.0445358038644412E-4
-0.4466001670291662
1.6470878267685598
1.02746531078907
-0.7962333456553148
0.026228870248943156
0.6576363475412074
-2.2922149609971982
6.710755878027362
0.05655403989948005
-0.9832254225761364
-0.05659569549125132
0.7737982487447405
-0.5371169000242054
-1.6012596431634716
-1.5689760182634862
1.67438231870304
-20.060546813447193
-4.8867593547413675
3.07087695041017
8.78778821147968
-0.06357117659985632
10.943550227232983
2.4395192236998597
-0.6617834312949523
-0.538447077101203
2.021379834606623
1.1661303765135578
-0.7378648708833476
-0.09892624658973913
0.936285756221409
-2.153873838840092
6.912207307131553
0.06175638666632662
-1.0327399592636857
-0.22989875338962015
0.8414953811908948
-0.24493388949810305
0.7023975703253446
0.6053478512881851
-0.6360617992804288
0.27997030791767086
0.3309318569319715
-2.7024646570914883
6.17854448657001
-0.03764294709294875
-0.8402761526234441
0.05271053125489866
0.5995192858899514
0.5274033873127386
1.9451989604271567
1.0925484834184966
0.749669556807629
-0.05901804228673865
0.874735874077291
2.203576681839108
6.902813146807836
-0.05496009231950609
-1.0349564669684201
-0.185765217133721
-0.8277190961016553
0.5641772203383857
2.0505890146246863
1.2247195320617064
0.700265855900961
-0.08889867948240492
0.8411739668165809
2.1599826314014856
6.971279302134628
-0.055475419663798556
-1.0579580121619785
-0.21895211147130342
-0.8492665414777631
0.5175713278405817
-1.8750708829963045
-1.1346044523787342
0.7342236905029844
0.03453145531617741
-0.7287007516018279
-2.2234242364248913
6.877718035563292
-0.05269399621738945
1.0363007821222003
0.11782349285327709
0.818970252806474
1.321669733045439
-3.007563722069118
-1.4734339669552101
-2.527136861081064
6.65613695644816
6.624437595309541
-0.19088481500083423
2.018447591525212
-1.371249608089775
-1.5321708336227882
-0.602788278679592
2.387423901129399
0.5196780629244864
-1.8547324083012278
-1.1955500201569471
0.7343109429944649
0.03177827159421146
-0.7203389967784205
-2.220707818489956
6.880807232154928
-0.05415551239696586
1.0345205860952718
0.13805128808220238
0.8205012101756287
2944.4006461706404
4330.26294583088
2733.725484648915
1226.2588120712014
3421.72972419008
2208.9229950065032
-405.0988596545155
-5596.985062750708
544.3735475089435
2178.6531316193427
1414.0420123728816
360.9856862010872
0.5051267180553171
-1.7372874271771157
-1.3375527699895025
0.9387371857687811
0.06644895955916197
-1.3775627183086876
-2.100549114796617
6.6621998177146695
-0.07361131989664778
0.9967143734843872
0.4333316034280049
0.8393401373667303
0.5240469722644858
1.8998367910112115
1.1476549090636199
0.7348029719265708
-0.0741715004040291
0.8439230494208496
2.1945296856627077
6.8946507241581365
-0.0488125571548068
-1.058728378756411
-0.061483133131999795
-0.8286081176314367
-0.5411816195626766
-2.009424990991587
-1.1932147440433136
-0.7051839570774229
0.10683571636568762
-0.8659092121291868
2.1730766795593515
6.969119813284535
0.05626838110852943
1.0479707766654414
0.14564781328267498
-0.8404259905022254
0.5503471726275325
2.0266226527640017
1.1925987033277692
0.7917300044050777
-0.07748094075311775
1.0409262775988124
2.0964750717691096
6.781452597927544
-0.06516462771052903
-1.0306408982876152
-0.3665873599043247
-0.8523741152354676
0.5587162668452125
-2.0658820805379894
-1.1428844726058698
0.7156617113931582
0.09283824054414638
-0.9086810063098294
-2.16495600014762
6.965973774572528
-0.05540140233261813
1.0530174757430986
0.22734560310582547
0.8467429704846091
0.5366959286283234
-1.9285037381729715
-1.214880760236796
0.7289046903754713
0.07737426164403267
-0.8447044823321309
-2.1752244387692095
6.903666642196082
-0.05192757164882842
1.0578680001643692
0.12104717125180212
0.8364728024946589
0.546601534776636
-1.9501336745491986
-1.2500460958015867
0.6886967845440877
0.0744279441920074
-0.7203787217774613
-2.184024498865
6.945394268283316
-0.04941099032856189
1.068901425671407
0.07808339000976605
0.8377940516658821
0.5214454790060555
1.9259822044814017
1.0703772434021428
0.7227650900863426
-0.03287031280416497
0.6911457347972679
2.220228520624145
6.872351714835769
-0.051853466948552404
-1.0383613675262646
-0.11049486894484448
-0.8193659925636226
-0.5256464646522004
1.9442346433006863
1.1825768938565204
-0.7044042633024638
-0.04938203985526711
0.6720717370579197
-2.2094741536141598
6.916648860723003
0.059673993480368066
-1.0240985370263178
-0.16373827132265592
0.8232525459859377
-0.4755416489641307
-1.7613351106118764
-1.0871222243840328
-0.7648256301421743
0.009002659785589364
-0.6824459062164108
2.2547525537699618
6.791333410743041
0.057134021213104895
1.003310092230875
0.07890534270892915
-0.7942196676546424
0.5213422246556624
-1.9058482426594328
-1.1096875506548483
0.7317181290800172
0.07094165060138458
-0.8185927212615239
-2.195955728215508
6.87920259420208
-0.04742835152352627
1.0604345874545138
0.03654310925362981
0.8263653700606545
-0.5359244355808622
-2.0132171176710787
-1.1499201229139357
-0.7295985984029171
0.09902520796927564
-0.913724740243026
2.167425996836889
6.930792590661904
0.05954031452220973
1.0358003421942825
0.19534098062171826
-0.8385179487501844
-0.5437003645801687
1.993269971903952
1.2532354248503983
-0.6903248226249687
-0.09617053828522064
0.7692690017455193
-2.167148561528039
6.950794772714885
0.05586705215391436
-1.0522537674118124
-0.12415502495018581
0.840731478224318
0.5341201307536044
1.8941434709957834
1.2668789675883654
0.7563596403839522
-0.06389145515950823
0.8973424939181789
2.1786852165426245
6.895791307004749
-0.05816232063495239
-1.0373173356006682
-0.22486089457633476
-0.835699708693569
-0.4578684805282066
1.6810999615670377
1.079469179153262
-0.7840840699635744
0.008581530239484995
0.6626001326061379
-2.267537228122776
6.732566152914323
0.055927826861636644
-0.997917874383242
-0.03745017759929223
0.7836570855563276
-0.5331136531313703
2.0015091212526777
1.1940367313152094
-0.8113109477825033
-0.0965933167038316
1.1288285955272188
-2.100956268315078
6.791002080478453
0.07165975950323487
-1.011861723854292
-0.3723360902501821
0.847693715326085
0.43005218660735467
-1.4968937124423929
-1.0138147767010741
0.8209533337156848
-0.06448951635846804
-0.639912154692982
-2.3387056971363958
6.65045600326346
-0.05021612128821335
0.9832650706524483
0.014013931449146307
0.7629990883925423
-0.5127389263424318
1.8935630396074143
1.166503302572805
-0.727007852607259
-0.06440850661044542
0.7669603703459783
-2.207222878652164
6.894677846424366
0.05613555916094012
-1.031692378824067
-0.10035758981113581
0.8206774855925074
-0.5037096740867699
1.8871482654984033
1.096309227237899
-0.7490165791253214
-0.06301382409015667
0.8338457068910246
-2.216998450438443
6.882517575113601
0.056781269876707494
-1.0228096514206495
-0.11586836797491437
0.8159815683467168
-0.5111986214841703
-1.9290626833747864
-1.0770731766029182
-0.7263262140581426
0.0860837755064242
-0.829155114859453
2.20389363775987
6.903241276233134
0.051076234577490005
1.0444010844222733
0.03734687958791809
-0.8218620312456077
-0.4506354449010196
-1.6443077860477204
-1.0860040783541223
-0.8147052499790743
-0.002555732240185144
-0.7660498366737771
2.264985497086027
6.718016357775553
0.05737331491432781
0.9926124262236442
0.05720935936406411
-0.7828189139837631
-0.5285930015662381
1.94044502685745
1.2211387075054434
-0.7150190097462198
-0.0960347810481844
0.8308133310619561
-2.176276963548949
6.924961760834422
0.05465415643602927
-1.0492047594112845
-0.09392986188123166
0.8342305790039337
