1.7621691933319366
-1.0921590043569935
1.1908029798145892
0.04299876096314773
-1.1029716424678813
-0.9394821532906887
-1.4488506238258474
0.8672984807540156
1.435316008986566
-0.3266241107249172
0.6175567118645007
0.014438360286405159
1.0330236153460481
-1.4610422959390008
-0.5547275225449008
1.3053775153605909
-1.48078472893896
1.0776345006227042
-0.4558461479522078
-0.9435523719920638
1.5614531834084249
1.3864875195467388
1.0008956893109482
-0.9967737897372453
-0.46888846286121627
-0.3543924203339858
0.9925151715096463
1.2075900660511782
-0.3473454695257236
-1.284366645516571
0.2544892374507964
0.7996513715042641
1.1830416601428482
-0.06349855824430552
-0.14912124302839427
-1.6524861552671974
-1.1980340425650917
-0.7232757119159929
-0.7530153317088374
-1.2193799934342955
-0.7251585559968023
0.732750008396822
1.2474937141834295
-1.0111994812418152
1.309178834564707
1.6496130728863438
0.23421773441805316
1.0256505103100557
-1.154413122047591
1.1216566423389014
1.5873785972834689
1.4031649646700035
1.0751248246717273
-0.2497131688389245
-1.166181533355212
1.0025927001125121
-1.749484107208915
-0.8528752174041275
-1.5384361922326264
-0.3410614224893062
1.8057901129904437
0.7527733498979008
-0.15815190593501466
-1.0238050956744635
0.6973117382006486
1.7674034850744684
-0.17317705662257873
-0.8082581526335672
-1.623346932787056
0.8602364128675284
-1.155097214786179
-1.3522735733719502
0.30387803564217275
-1.8299255883800012
1.3890907889785258
-1.1215925449838762
1.8307509984728783
-0.5945976602058132
0.5371583287804255
0.9349455900037673
1.6875903586892773
-0.5897496649235158
1.384234667616389
1.681362875840008
-0.42526754320270915
1.4905399339209084
-0.3564397150989512
0.1407862094135669
1.4529379120017996
1.4225189919895929
1.5301628046540652
-0.8759052618833186
1.813727532252143
1.1233619662071335
1.7675736450628363
0.6701507266753508
-0.38164662354420203
-0.3538765265661076
-1.7053945999895617
-0.9260176472240446
-0.4361275220715811
0.4400558164718332
-0.8835124411665894
1.1378869186120155
-1.2449354095214793
-1.3791263240833378
-0.005080281587843227
-0.6965612061240111
-1.110792202389084
-0.7227598181481147
0.23842371153386496
0.33636110803239216
-0.8139406085426599
-1.2321763443566842
0.10949203470705031
-0.672963934134064
-1.1187982350996204
0.3339853070473115
0.3782586967175977
-1.7077733561476616
1.0766445350045553
0.3838900583158936
1.785666405588412
0.23857365872297953
0.3194986517295698
0.09517132424595111
0.8198274201100545
1.0702398093622638
-1.497209758365197
-1.1160007707437327
-0.771758236480738
1.325863092205303
0.3474989561596734
0.01500676587489301
0.040135902369928436
1.5009524131204226
-0.0583144347415089
-1.5770608374415598
1.8128318968426878
-0.7406110433838154
-1.3710725839433382
0.5971108595279232
-0.3884192590342907
0.314650943040646
0.39111987581818053
-1.8294096937531297
-1.3088189825206822
0.4341485564828113
1.7419689459270207
1.1298248017825911
-0.6008433506959538
1.2731811371115187
-0.7403867118340435
1.7839713839793623
1.52827562905694
-1.0520609897587159
-0.33802570388569486
1.4910558285477802
0.6349993290027446
1.6965273108802543
1.364155859455942
-0.5424073599049198
0.3921611260366793
-0.5376697156345607
-0.614249536553191
-0.19226580049089223
-1.7777342073795293
1.626075674959544
-1.8399377820929594
-1.0916431105891153
-1.5071067916846186
1.5987398624298352
-1.191753695872732
0.7849403086977154
1.1024965114396836
1.205534027861767
-0.9926610606777614
-1.642251877422943
0.7615976741640451
0.9703633085705982
1.1202654546630626
-1.4605264021711224
0.43671151983880807
-0.8282301987736254
-1.5695667823438109
-0.887291852130802
-1.5938478265695937
-0.6053168248843123
-0.8665238862559024
0.07085975370770636
1.1449366516104926
-0.04084884059405886
-1.328896801540613
1.1206248539441515
-0.3954994892019358
-1.708317237404378
1.2526889306224358
-0.009209278073822554
1.1098218255975467
0.32612160675600294
-0.5828787826221705
1.778380314273937
-1.8265181159727222
1.4364374948252245
1.6313064343564152
0.7517415615031507
1.5483188231804843
-0.44593848386592844
0.8748758432923636
-1.6814414397613335
-1.5865225124117306
-1.4847292459900765
-0.4567416082003116
-0.19785686933732397
-1.4431791385262747
0.4252253439425806
0.12939435700814425
-1.8309573767747511
-0.5937872975068789
-0.5437259323163476
-1.681033711177317
-0.3540937711586981
-0.8761871270087264
0.2584744975062513
-0.8351531314658884
-1.6478429471283682
1.0961527438762935
-0.23048702158737164
-0.5997512226957311
1.4895081455261585
1.350031014016548
0.7186528220810956
1.6305020170935147
1.6630228827546947
0.11681734886491346
-1.552376355239828
-0.709015957903023
0.06526868314328775
1.4794917204637474
-1.2416991707520286
-0.556130303037224
-0.35490831496085756
0.001076128266943881
-0.34815103455651586
-0.2585634169798661
0.6805597072369352
1.3924909169271757
0.4614158252555061
-0.07833008493473476
1.2521292075947268
-0.29316220532793874
1.0809377111905196
-1.285275881882106
-0.7237916065428647
-1.7444543740925462
0.9142277198409273
-0.6363765025919513
-0.9916724544505756
-1.3038534219410949
-1.3494350274905733
0.047807089487124185
-0.7241079760165342
0.09017677211850866
0.06972556116686919
0.9021608555115334
0.38285826992114363
-0.19721168003799922
0.8164402713905081
0.49706275682128487
0.3356752141520596
-0.5935180365380907
0.39376871600575447
-0.3306044337784526
1.5152547617933254
-1.0598401610798271
-0.5859868052220765
0.1730152766666514
0.013974977480143062
1.7466066314854276
-1.610529788953959
0.11924966949121264
-1.3365569466764577
0.3994864401945425
-1.417082136740325
-0.2044672593565937
-0.46098242267692907
-0.6765011836333797
-1.5971989543867335
0.21663619632515851
-1.830441483006873
0.39765174487683
1.0120151691503398
-1.7698157637231744
1.370328690829706
1.6751600082568046
0.5967100437550092
0.426218612752701
0.72587810177451
1.2401937053168446
0.7254379275558148
-0.5125093825197234
1.4900240392940367
-1.34787875748266
-1.4149548911941272
1.5417199645476571
-0.30190346999881135
-1.0211843297524723
-1.21414080899107
0.5523557880335535
-1.2503590826957445
1.6235326827632919
-0.2857742224678356
1.6749273540149223
-1.0926748989838653
0.19936393743088043
-1.5127423405035398
-1.0141895899220237
1.0254441994628174
-0.3108489452084617
0.5290629345052577
0.17394426390898315
0.989003655114115
0.47351574956495607
-0.9414865888567814
0.9457817751700405
-1.4615581905658723
-1.5461665657876031
-0.2503635852471032
-1.3920026763931024
-0.6467879613657
0.6821555315241715
-1.2817879182408216
0.30008143918983554
-0.9872335293561393
0.8568547278703971
1.7366500767204718
0.9894026956875411
0.3833741645480154
0.7942273623457097
-1.3171674427437081
0.40828070427542734
-1.6292511386014465
-1.7315197151554764
0.7320042622545124
0.9307673112991304
0.19962699509529963
-0.9157991987802827
0.36993814392111
0.2602571159836657
0.014490872107014769
-0.9513031400137804
-0.05478868748727143
0.0304676178043486
0.38786551531194646
-0.7385152384228434
-1.078846590491567
1.0569044857209893
-1.7766101885159615
-0.5324602213338352
-0.6412740061025405
-1.2416549622235988
1.1211407477120297
0.5959395540407666
-0.15257613679668405
1.1639068772175847
1.7152131839145817
-0.028179853019839184
0.6643571530047608
0.6784929624554124
0.46275254757591133
-1.682477154532171
-1.2969863716324928
1.7185482736734297
0.752257455271029
-1.149590949177717
1.1098026176007592
0.7860937916054996
0.042981023086064274
0.9648246228538006
-1.1464936997413187
0.8046301368772714
-1.5134846351763562
-1.29913817622673
1.381150293085767
0.565603554452209
-1.8283779053583795
0.6740591031057291
-0.1437180553257239
1.5644048408353057
0.8893209110174891
0.8125021059521913
-1.7396965851328758
1.7823567783211223
-0.8472841485576958
1.816357553656029
0.8597889076686636
-0.1635420243926729
1.4920876169425301
-1.0714714001127545
1.1186606982127258
1.1865917535052335
-0.7829112498110282
1.8055065826848247
0.13880137686295518
-1.7808548619989288
0.8658274834319469
-1.489652283639434
-0.15142324235498691
-1.6654541025999374
-1.090611321335372
0.4757712939417927
1.0208732497623068
-1.3693178001054536
0.5444364187916069
-1.173506847513075
-1.8073436943826275
1.5300824294774045
-0.5841585943590972
1.0496795979041407
-0.8071356087439326
1.2947491341560844
-1.4594946129173791
-1.2697592084176976
-1.4060968105821605
-1.7471308874355258
-1.1277957420369105
-0.18050237078044187
0.0711542676132036
1.6562196038992634
1.1289530359125586
1.4330185762095817
-1.8183477579085896
1.3383700538145917
0.38543774133751524
1.0706347197156154
1.2164481475221383
0.05315249409199733
1.5790898954692534
1.0951711972818203
-1.6044023657743791
-1.4024433387333521
-1.3735352543779127
-0.33963535044109805
0.5042891240339588
0.6092244749697097
0.016554448896514667
-0.6748957835028683
-1.2105219128223288
-0.3246605932380749
-0.093142265359264
-1.6011731407274568
0.27409559622145185
-1.2763061634524997
0.33957637589374323
0.043703627005349396
-0.5069230259896919
-0.8926876032375548
1.123204325360523
0.8723469114106722
-1.3083093621317412
0.8087786678931482
1.2342054032433711
-0.8908377553244525
-1.6720494758831241
-1.65471768757707
-1.1104097010383076
-1.1063133053339929
-1.1626353915196441
-1.62183318294143
0.7543210329195225
-0.8731835909488179
-0.04593060687530476
0.43096558056307605
-0.43802675758514614
0.10216672054918716
0.2064484861127068
-1.5285805122962175
0.6027019292333484
-0.7229743278875455
1.5155012740576093
-1.5782122624239296
-1.0900954275674937
1.467210337184495
-1.1127344635129162
-1.4580998526513111
-1.4204899339618993
1.3778402886114494
-1.469108147274876
-0.8978946401869229
1.7895624536847874
1.1937205602036853
0.14878934125824736
1.3819909734730988
-1.4589787191495007
-0.2783201660339886
0.14964429088452702
-1.8359129391223898
0.5966267199514937
-1.3185040502568213
0.40938981472095504
-0.771757465765064
-0.18667472992647363
1.577059538509126
-0.8624228096243965
-0.11992110473416576
-0.35232884354448596
1.2689225280205585
0.05185684157511441
-0.7024736797091536
-1.7653744261877813
-0.608168664853817
-1.5367552565246276
-1.1501689890306408
-1.6366608068585242
0.4270426053107903
-1.5181351751543488
-0.8490666835790477
-0.7212121351264931
-0.4766079743389317
1.3142355959725576
-1.0802867661802324
0.2517422268666182
0.3848358118788162
0.34174270547120345
-1.024031814608782
0.07645082341313153
0.8103815818982443
1.1600014904229043
-0.8054457639205406
1.1237202191284013
-1.8255628600885356
0.2474317393349462
0.7199966144882972
-0.7307209486511415
1.660509379082085
-1.3338139296343663
-0.3933459424994871
1.2633113478645706
-0.962272343893442
-0.20671044237645747
-1.5345913427654225
0.7548369275463941
0.11825545143489101
1.5098104945913828
0.3421835280172186
1.286395704403258
-1.035834958927192
0.5446840323614647
-0.26720876807762817
-0.7129258366056839
-0.578933365588001
-1.217922592400108
0.6528453946282168
-1.8278620115905013
1.6654981454894382
1.4120230452819702
1.4756227882894484
-1.0756054408770237
-0.32549957352418796
-1.4014610380251242
-0.645620291343205
1.5264369003451823
-1.7289502987863368
1.8157138559528567
-0.07630018507565862
1.4926035107104083
-0.08003235687005208
-1.014947015062497
1.0978097018183695
0.9415112121773759
0.6675049032084452
0.47703692397070663
-0.5194831169213461
-0.4498002832660788
-1.3456113213398893
0.8045017067881997
1.1638863743215695
0.3844059529427653
-0.9122433659107959
1.7943147593306736
0.23071659918371235
1.8195937862343552
-0.3181742593663248
1.4084753556110219
-0.2358380132876142
1.257720277300152
-0.6277172741811936
-1.4075607733934208
0.43474079547668765
0.015522660501764717
1.0315749456126309
-0.6326553001548001
-0.1470964872873664
0.14736162540583791
0.6748302173663083
-0.40237549713505755
-0.10970083886575527
-0.7185169063111091
-0.24437829673474618
1.270575891324839
-1.0671712827305768
1.1221725369657731
-1.1105311750747324
-0.7304427486052192
0.9863427729848633
1.4747092931494796
1.3851656027693127
1.3408282463612702
-0.48811236299032557
1.5208458314987505
-1.3943952307920755
0.6148635257948869
-1.7963168615754588
0.7532892445247724
0.8332871364486942
0.531936005792224
0.608529685654791
-0.19752286767903768
-1.3111787360989582
-0.47002260638480914
-0.3619751877094731
-0.4553913529715039
-1.0110562524866344
-0.3963486242287637
-1.7526959419169517
-1.0911272159622436
-0.5156677484419163
-0.5348678517043809
-1.280535747559596
-1.1799860431967972
-0.03550516717770233
1.543769574110525
0.26871068439982154
0.7314691714799351
0.9056386364635896
-1.7630605570281257
1.2075072939800766
-1.4600105075442509
1.4281505630815106
0.7275109026930623
-1.6583488348896684
0.8371306098576022
0.9574993086959375
-0.26708127863555436
0.39484785882168055
-1.2447680129903194
1.2889776130510435
0.9150761076901343
-0.2944047833681943
-0.3533606319392359
-0.7139555576058527
0.6297234542426431
-0.5249095737584452
-1.524870536281673
1.6678346932399482
1.4761224648607734
0.01643633555610369
0.9945947239605467
0.13896068071170128
0.259363742160182
-1.0235503630720697
-0.722243923521243
1.229862753917574
-1.7972466052428306
-0.9027226610885173
0.49224611763172005
-1.028509644769329
-0.33472838788530596
0.14257350997796261
-0.9816424587917207
0.5222996581581487
-0.7518484070044751
-0.9799294434135626
1.1226884307336513
-0.11909213097303664
0.8252983511434814
0.8975607204390058
-0.490217058745033
0.24716392329293327
1.679063792610028
0.7732593829462509
0.2052180648007248
-1.2503542676335375
1.5707884749380734
-1.7090750222584445
0.7538051382926507
1.8247261796913967
-1.6016717083419922
0.5197476331089336
1.5268995943093666
1.2401684000255664
-0.13178706013605118
0.8993965565091163
-1.7710191188105362
-0.86701529018709
0.5595763240554293
0.4783617151351948
-1.8288937999852513
-0.3173799401369732
-1.6994591567924116
1.6531868933811633
-0.8351015509709151
-1.7388450293133397
1.6114166833602768
0.5209850332435395
0.46834361814033
1.6723165913564846
-0.09613604147452288
-0.25078386370968714
1.4915717223156584
1.6264383713864536
-0.4370804023949683
1.2753738069100844
1.182015102942478
-0.7458405525807065
-0.19943416938580275
0.6471222076653984
-1.5078935663299247
-1.6336932459389784
-1.10734819063918
-0.20716294405118002
-0.35284473817135764
0.27748348563684955
-1.5038842590325796
-0.6136916271632962
0.1995519257067313
0.5298330146225623
1.8143580111095314
1.2778080806336867
-0.32103304101949204
0.28300164301124575
1.2152886913033685
-0.936308522896062
-0.7217280288943714
-1.4680470175816343
-0.24150550549412997
-0.9915047136343749
-1.472680235121786
1.5228374913551954
0.0035071583634520144
1.4039452550555456
1.3920785892521639
0.6663406204576933
0.20407654127971794
1.2511282144975773
0.38492184671064356
0.07919567647291299
-0.33929295394454917
0.14193454663785482
-0.14533256651915086
-1.4561759379837107
1.7467109018597797
1.0255337317899689
-0.05790748853888036
-0.4836763127406426
-0.45163582510922773
0.5219826347937019
0.016038554269642964
-1.6663348267455707
0.9230858013118876
-0.2358785406922174
-1.8175647273476683
-0.4631714621100709
-0.06413995088629958
1.1516709062118278
1.655204142591769
-0.10033733443520165
-1.4628479742738847
-0.6309620844275186
1.1247520083821447
0.15731522553787555
-0.3304348733325825
0.5424325093965823
-0.9712248394162434
-0.6154939790116801
-0.6573428371368504
-1.5599512670862314
-1.3679441846724874
-0.6741904201533464
1.705139455050922
-1.360107664131394
0.755868715941144
-1.588215277680608
0.9319438819238541
0.16461942292550355
1.0458918144971496
0.377510497720953
1.2211551248589807
-1.4338140926643725
0.34516744559916834
-0.29085144184790546
0.6939273050272716
0.8273290732622453
-1.826830222336758
-0.04097258276706753
0.8341564326144415
1.2980586823387399
-1.3161093316421255
1.0878458831239572
-0.7249899463866019
-1.8122256159299495
-1.1048186313328825
-1.4408683750462412
0.038214938638325875
0.09818349441736338
1.4936352999641518
-1.786503085985551
-1.5928136268710322
0.9202455967266545
0.7010073222712674
-1.6084984548853198
1.153508015609229
-1.6860884415080906
0.608292999797767
-1.0575293967408004
-0.9729972105263313
0.14180441407587052
-0.3507811605228643
0.5538908430067552
1.0297313303742732
-0.9688198364877326
-0.2814558549644791
-0.3328248876820511
-0.5220486186373471
-1.0554025685398025
1.7951535233902125
0.8591654913504304
1.349639671416217
-0.5873411647690114
-0.7196644521048714
-1.1916396610707218
-1.3972387299701938
-1.3466329238178048
1.7356607989489137
0.6601795890505822
1.3564493442174774
-0.9292653949769367
-0.18108366022104844
1.2425044687968778
0.33842752139256665
1.600095572624628
0.3869854243591369
0.35560303470181215
-1.4950261784206131
-0.2131936635455752
-0.6263403471903612
1.3705149744535863
-0.5896957278870987
-1.3076769182425136
-1.6310697380120927
0.09248753645753548
-0.317284844996379
0.8709499937797459
0.018102131918136328
-1.3899274685166716
-0.23264742402316985
-0.5910067508756474
1.3907763067230317
-1.3258293644146844
1.2888022341087322
-1.1815397438206547
0.08204189311855668
0.4758265139039829
-1.328496994161036
0.914570913438253
-1.8263143285688797
0.9504664596166414
-1.2994512815197747
1.2092766306518756
0.40831313034627864
-0.05015579635242208
-0.38675439927885047
-0.5508538708523666
1.2689024175699957
-1.2968274127466968
0.9941398877815124
0.18542533373437764
1.49415119373203
-0.7950640436018422
-0.03707252626333808
0.8314635433218036
-1.2639190304822387
0.9428486795212178
1.4917435627169804
-0.42471669643050763
-0.7073347669002588
-0.9134884353002493
-0.017072262242138148
-1.3164867436138934
-1.088547744545872
0.7521786513116984
-0.13485997471375724
-1.7244460102888837
0.0634286381203965
1.6531840649242218
-0.45440150852860206
-0.8031282196960845
1.5320279700506072
1.6258434471023189
-0.6727846277720904
1.6437164922831349
-1.4574310361278793
-0.9933518519067853
1.127518779683686
1.5870897171229545
-1.6088035227081208
-1.0431602730850553
1.424096453467229
-0.6769910452742255
-0.4442092135606536
-1.6801663910521376
-1.683996777795741
1.687337411941642
0.38750131812701516
1.3470420770855212
0.06071492304607454
-0.3019757160914327
1.0980821147980429
0.23251329497720694
-0.2514601807793473
-0.04630517316493076
0.742651310031792
0.2365284978980865
0.6386401041468075
0.9581918330967601
0.018618025686014568
-0.3984884261329626
1.3230936765845243
-0.6797888034215049
-0.5741500460304745
1.2255177717098402
1.6270377812164838
0.07983200125692817
-1.2335858727204756
0.6198674762035274
-0.3725720450178496
-0.5437202451105043
1.125267902150023
1.148754268780578
1.2253062281341052
0.4536504577097183
0.7531976234311543
-1.7534956576290661
-0.3191072900290989
-0.2985795220086487
1.0057768642303906
-0.5301494569948083
-1.028284411406795
-1.272865823955386
0.7563846097090223
-0.5967762344379057
-1.2016638313513688
0.07583737037964604
-0.9190345382563565
-0.7604911808964328
1.559390671966732
-0.1724423475867897
-0.9704603202398638
-0.1468104795483609
1.649852254170458
-0.03267926455815802
-0.3518129489176142
-1.4289872434786495
1.607597943041802
-0.7912557322550111
-0.040951964199377175
-1.7461703434712028
-1.1985197111348629
0.11120275604694214
0.7370602411853603
0.5710835667513413
-0.5622102260111623
-0.7618248442620335
-0.7206962404996213
0.5148310680447772
-0.8193721173026652
-1.16906881872609
-1.7131841250278945
-0.7531658667385697
0.679978250860968
0.23733993046880109
-1.239176942425901
0.9544225450567824
-1.573422376034813
1.4256118931316057
0.385953635964387
-1.6272750517835926
-0.9171595666120778
-0.035629558453860184
-0.38583645728425275
-0.042830482194558935
-1.2661668203846146
-0.14107159279677575
1.000185793665972
-0.195594389000547
1.4602140723181518
0.6964663142867239
0.017070343523386374
0.3165432597398341
0.3452191886443588
-0.41344264492493893
1.6312801966291404
0.9501739945380743
0.6123311416112164
-0.014934419233910265
-0.9760513899452891
0.1877445893048939
0.44900192315349474
0.740087233945231
-1.8273461169636296
-1.03241162600977
-0.721584668852246
1.3868407357435908
0.6488170211113806
-1.4635012521415738
-1.06322549263536
0.6157514537343779
0.21080913450614996
-1.584909336486792
-0.9177100096458672
0.010941655100349109
1.49311940533728
0.9114066855136568
0.5407940864041906
1.009027649272512
-1.0234151397171367
-0.4704967762679341
0.8152724693604712
0.7418886281562369
-1.765428049105111
-1.2015703598993384
1.7604266550723926
-1.4909704231069154
-1.089579532940622
-1.2306994351737064
0.44300663709477794
-1.546881906056162
0.30393252802650494
0.2398386091350701
-1.1308726018851114
0.36347710489066004
0.4739346878457551
1.3377615225032295
1.1047142895424404
1.469232812790113
-1.4584628245226292
0.7131188772087137
1.7053853914922212
1.764653823073663
-1.3682996328020123
1.2328430858677033
0.7476253601107195
0.48961427931251894
-1.5023024966244993
1.721100499949677
0.0935021395187899
1.5128537333076135
0.3864695297322652
-0.6358360085408902
0.6385815348546097
-0.12441161185871115
1.3385860055631449
-1.1808321616709383
-0.9279312741358567
1.1203001514218138
-0.31544197217306036
-0.05155342584200904
-1.273209793280572
0.7837081536037382
0.01758623729126462
1.3079823029825364
-1.7883885254898573
-0.5022246974707963
-0.33364615612436593
-0.187827684938305
0.9505666878599743
1.246437326702666
1.3976696580985954
0.33178555074544497
1.404926871437688
-0.7182039246035262
1.124236113755273
-0.8341238177048268
1.8031728408016336
0.6312145619424399
0.9937015133372626
0.5225077004646992
-0.9955783833856082
0.8680258025780958
-0.05231641883345519
-0.8182313815938974
0.7492145059077355
-1.4473495034484083
0.7553528213142724
1.1096944946775933
-0.6237972195428335
0.25340147547136105
-0.6785306483502481
1.5155121771973323
0.8829195786102227
0.9941629769999548
1.660795212297194
-0.43489240414744995
-0.2619976432569215
-1.4037285837899012
-1.0890636391727437
-0.23926039193100407
-1.6906010761804449
-1.6356639586020196
-1.6609938238680075
-0.8981630703413093
-0.7926370556363534
1.624848849968243
-0.8416930779932771
1.4818024839437807
-1.6287095760562833
1.5564746529661206
-1.4579469298957575
1.7045579195924225
-0.4282223217830016
1.675871769668812
0.3561228291863918
0.09484140725031746
1.0858609063594775
1.7509860243901019
0.8714185522783787
-1.8242073524926885
1.049427087802983
0.054562574758856244
-0.35129705514973597
-0.43754820023594715
-0.5260097702334208
-0.8800377848008687
1.683470497789027
0.8051767917943282
-0.860284164886105
1.3725745002655316
-0.578567524653672
0.7151245290508859
0.3937147222730307
-0.6745830040860257
-0.7201803467317431
1.5062701112874795
0.7363689833050289
-1.2578508712719474
0.011238336960509656
1.798181267667968
1.0182137971097258
1.498711675546384
1.134544105617984
1.0984635073563267
-0.6174974268916263
-1.8275277233072462
0.3885331073807586
-0.35942865202997804
-0.5171516896214541
-0.4795398220421412
0.8575782257509279
1.6458587507663587
0.4250109117181686
-1.2129104977516754
1.8007445939546312
0.5246104216381821
-1.1388588123087298
1.1326755125897823
0.01964981493975798
1.584389660352442
0.745227064775989
-0.8573529076542264
-0.8146539367955764
-1.0504855872429184
-1.3858399410279107
-1.0867733233298165
-0.1754925905156233
0.907949399943623
1.5392778524095299
-0.3692365656174823
1.1262996914037664
-0.5577164603349211
0.6474396154665764
0.2760863517590098
0.5126937326660523
-0.3401502018399143
0.35736380246841704
-1.4651848465953932
-1.6254786683066675
-0.24206753325471284
0.8835654860205844
-1.0983821453213578
0.7574163989627657
1.3861018511885057
-1.7795304448778908
-0.10172673471206897
-1.159538428162465
0.6528542748927189
-1.4534870502776622
-1.3390476721735343
0.08763296196498839
0.14127144505072808
-0.12764666314407272
