-121774.44250724069
10508.816786385498
8728.60990652871
18404.364756807227
64954.098844377644
64954.61087974691
13063.287423546666
-303606.9260448082
-23674.11179472138
48.102482560671106
11.72136532411853
0.06665980281824904
-8.170185046790255
25.941684133921274
9.00694330878727
4.494982395629725
10.018221757409833
-1.34732773693552
-9.95389365324187
-10.004832749768822
-2.9176886060304232
-7.356792309852067
6.780440855415993
0.9796623756476065
-2.075976276746633
-0.29419963573023733
1.0888431908596554
7.884950974614352
9.383799330754819
3.6082534079881765
-8.580205890697698
-4.117277690569112
6.341594673863261
-8.474957466243442
2.2677869164895457
0.24000833883511902
1.079458207364977
7.585066952797073
3.740635569340625
-0.5204136017321005
8.25271770877784
1.8628425174711805
-4.993692732290264
-50.241849158729366
-6.813630455559325
-32.388610969447825
-29.656064287315584
0.20439288621833482
2.515161381595018
-9.931568984293326
0.6423187391838824
-9.325799451426532
-0.08398133607296263
-0.24476699535137292
0.11712028130880853
-3.835236987549414
-7.249049081354206
9.244424644804248
6.884107034229896
-1.358392873075701
1.9943848630589927
-4.772095653304077
-7.213610084774315
1.8100305414025297
-3.5217695356941787
4.872422650396842
-0.14471195539308981
-6.884104629858069
-4.7450883731609315
-8.311968222784495
-7.765539659612254
3.0102954214476383
0.6841193001714001
-1.3419208523540818
0.6097893784014837
-7.707966633315362
9.682947634773011
2.551221488657488
-8.331315162095272
-3.571188571174382
1.5708627828778632
0.37766341745332405
-10.996115330974408
0.21918820833096905
685.9062023647037
-1068.4143371676626
-968.1615285302897
2032.47714901981
-6165.428852529198
-6056.612846841038
177.72563497909576
-57.44592567872568
28.96448156270529
-106.44913321937881
-25.747873268433178
-19127.34892528782
0.7170122360267803
-2.5482425185167505
-4.358519982959134
-5.796454054820516
-8.444506047016375
-0.43720985804644574
1.7992986696662578
-9.89133986822892
2.313913998118392
-2.0018028621424597
3.653677556578572
-0.08452108741738928
1.0556935341488816
1.5773777428348372
-7.7863476920047585
0.8989214757059205
6.973585957700649
-4.785520196371098
-7.769727153373782
4.098649514121199
6.856787973877674
-8.449915650185359
-3.5029732867777463
0.1268557907317465
0.8833098632328386
3.6645944625172198
3.1092880319096508
3.8335608673561308
-4.3099959335252525
1.2863442913504581
4.455672248079308
-1.3682798099040685
-3.146498294244816
-8.767271879483564
-8.695671174979344
-0.059397237455430685
1.9693071726019915
3.212209684319295
8.325972967460817
2.6910520282852874
-3.761920604978391
-5.244767337626397
-7.068889291346172
-2.1497475324642976
6.309721480008089
-8.94043310417565
1.1194802092009621
0.13742397944296114
-12.119218197857583
202.4565198151939
190.75189855805036
-177.17724400700965
100.26305167870554
5.007840575545679
-79.89918424236005
-146.25950518322952
-40.4008944333101
31.600888764328133
10.805606904123415
-0.21671421220606693
1377.1531072607916
-6002.000109317986
-75.49340155623915
-310652.6145791399
-847579.1151739546
41759.77551253168
-15205.881911623985
-1742.7411684202757
7.426133526279997
118.51043663048482
14.499989659307683
-3164.3662639230706
1236.0364404844265
4757.721922045536
4835.515890512353
71372.71703875868
58015.748055636905
53086.01638007733
30.13400496889229
-22016.417373296536
10311.132389790786
16204.531508972163
4976.42742157183
-0.03999955363266911
-410.80544754088254
229.85101657220574
222.18189541098266
-115.64765902843162
127.08276096953209
125.08935390629534
6070.087395826976
-3158.75707568553
504256.97431360395
2503170.9767408078
694739.9955417966
17973.819848557385
1.54969641357986
-7.122216209199029
-9.468984129772256
-6.762219998359526
-1.2808543764383729
-7.258500600856151
-0.007541527341213384
-8.630408465024562
-5.081820180175364
-6.855728821152738
-0.6206479453889732
-5.242865492872761
3.7403335123191463
3.7391097370290414
4.645286915328989
9.06770865213752
6.5704966014739234
4.179254581277869
1.579267000593485
-0.3735246753163661
-8.12217348398131
-3.892615586999282
-10.930447630774687
0.28941619294473275
5.215457160385235
11.212059496791131
4.602388796718197
-2.374006166856856
9.820344376292333
-5.037793552173197
8.625652546214686
0.047083685048154016
3.485591134426831
-1.4841499257948554
-2.220929596182076
0.5448762585564667
-0.35766452456632264
4.486827371277715
-4.003206681956398
0.8066828818652487
-1.1705136302371608
-6.250485774190429
2.815953862263745
5.35532681705828
-6.089464494071429
3.71025219951027
6.730584959113896
-0.3246764857674663
110.02646703278796
304.1838061865984
318.2728060542592
-3985.185514050017
6839.812472769692
-160.0800614536325
41.31001653571672
-29628.096004680752
63.30992432453421
-571.03206175215
-417.4974627868071
1423.1613297684107
1.4746131130346378
-9.565060647541529
7.949807945648571
4.918117969454509
2.587272655399929
-8.321460034535155
-0.5741973367121986
-2.9578875032824534
6.724056579660615
7.322729702105203
0.2194384112394843
-0.0035804164068553965
0.6176177134929188
4.817098613536822
6.777363250581107
5.468995519631196
5.549311550488772
-9.290850051993134
0.3930161684630948
-10.736651697432562
8.836579413616423
1.767241275671918
-3.3197223270613816
0.22636962774145547
2.1211905542623137
-8.003207456825619
-5.318066338688838
-8.519479762039255
27.10229568511773
9.631597554757157
-9.453822545002813
-2.8736052092606528
-6.196808207785635
15.875437327405205
13.403166633915962
0.2002401757686054
92.67406439258201
-56.08685659593434
-108.53265644659787
-15.865994505502076
-40.85173838690196
-23.511195217784664
24.351707432901964
-15787.444802720314
-16.428819524836413
-6.36667789287147
1.7163486135245503
2830.6752460839593
139.57222559096482
-339.6432721039512
-378.9414822557128
958.276931169539
-4559.944571678678
-4569.340596551874
-11350.900498075038
-56340.044183260274
-19120.037856298
-21805.799790318357
-21749.91866110109
0.03999999966013365
120.54708015707617
-289.64438766192467
-313.93724063106663
-7394330.616338365
-7758198.2062433595
-7758201.328231106
-2145.6920808385353
-10906.474884621668
-2376.7247720942996
2388.368438972341
2315.9095891297748
-919.8020689116245
-2.5358195613642063
10.506726887607012
0.6012187009760018
-2.550103272926463
-8.68760227060795
0.5606614249358151
0.3452963862084626
-7.501546282939917
2.1689240155996297
3.592837541935443
9.160572715242413
-3.071479071824182
336.1453916544639
-730.9871397838007
-475.4886058774112
-118.62082280715613
-3.5481873363684544
-8.136081793142175
125.68819040177401
-968.4822597345346
139.94700079480583
-225.91000574176334
-197.38843665871724
2.6185091178018043
1.6615337241119228
0.9083982769912285
-4.18365277328076
7.002934035843977
-9.281330188183507
-3.6586692681189947
3.351278333909297
-6.1795556561668485
-6.934276967908442
3.560634013210427
-6.58336984658221
0.028321059896241094
-0.1902377011816957
-8.283923998111133
0.9185074413667677
3.8933368934182564
9.667873995938315
0.3671558825790299
-2.7486096242129685
-1.8492036871289146
-0.9675467387974348
6.138451622194421
6.46188965398306
0.16865912559999474
0.462361563010947
0.9457201492240082
-2.7826461397977833
10.553083895991568
-0.04601950580341738
-3.2561461906271605
4.6172120886300965
-3.917346841351897
6.15878422989512
-3.1819005231965862
-4.259444950523019
0.6966530778080896
0.9036266418206089
-9.052249391906242
-6.607387887688602
-6.976845470675378
4.291856090768185
11.841829144796568
1.6557791326145863
8.552980773300291
-2.2791519717426922
-8.707296224689072
8.090807710245128
-0.01703860555883973
6.3455810968761375
3.812698649376413
7.986531795075644
3.479465414569118
-6.798731781533598
7.287014508229403
6.10225644493251
6.544479957780089
-8.823982052117023
-1.0165601055424178
5.175026711770421
-1.2431693869763956
-63.227491026739784
312.60812601549617
92.97527643809727
-85.74853215271536
365.2154246594513
22.358376331846287
-241.86938990218454
-65.5644554688411
6.650838684659206
-134.85522030684362
-25.66648501080308
-5.324909652082073
29.531858693981764
45.94405596205521
29.851583014877207
-82.91601376176678
-376.32069870543535
6.71055902712779
86.52771995586573
-133.99636414292223
-37.58314228555638
-8.95315589314624
-0.005987269448462878
7.814642433036202
0.5234711362155381
2.9783527319536236
-2.546351674945447
4.0978252924754965
-3.6416518827656286
-2.3085248729116916
-6.288514781675878
-4.6070181897313764
-9.745272942126363
6.5490451051356295
6.831427867300944
0.5305399950476499
-0.1911174565795374
5.545486302000884
6.5906740532025205
3.317889897299001
2.8152421874290052
-12.021863605510472
-0.24722553878152959
2.3333005013413004
-2.051657077314418
-3.197232848225936
-9.372643426445315
1.421107656383525
0.6325081589180434
-8.869297501399725
8.296805027900746
3.3064818602874797
-9.987017836507228
-5.156871253975213
-0.20736761419856833
-0.1619954099955368
-3.1483843366127546
-4.216731883687597
-0.04530370229666017
0.4538981416171532
59.67923779268015
32.655479726977795
0.13023165665054612
-8.604180301249457
-33.03391481985464
-43.59190807169142
-7.878280658634801
-103.97505942636523
-44.585895370443126
-82.07780737459551
-50.36136878624354
-0.022341593363264998
0.8612922387880484
-9.021838158785503
3.784818751345997
-5.518490276711208
10.128582192533433
-1.6921228222727145
-0.6038015513153425
6.321859528169375
-9.348355027491543
7.265665907395384
7.988215606647803
0.3648046385513226
-16809.19893385551
30937.32891929117
39795.83766752184
-16674.060344936686
-19415.348619489887
7841.094663459084
-20988.68202846127
-6928.909062729611
-12460.973574710044
75944.9267247401
9114.803577628607
-0.01700785300570138
2.210025455938159
2.10917312888139
-6.559360795344674
2.4968575898506007
-0.9630513960993277
-5.663340801542736
-0.04069465098975533
-5.970261185002073
-6.30003535061965
9.623269892385181
-6.560371262343181
6.061229941312431
-5.748380931551802
-18.662193747125162
-5.596776834815116
8.474255335234572
-12.416848496126482
4.122441824482046
8.713991541767314
-4.820832265349746
-1.1523605751362707
6.917692660599174
-10.720622441400158
-0.7355350757218182
-383584.03533568437
77296.43437599772
49642.6198531999
7900.713157906169
-3654.806361015161
-3663.9285990086396
-162.48576307436082
-752.6755532783927
-71782.32190748773
10119.140063027704
2065.166025007204
0.005720499468821366
-0.8803841977142216
-13.675305716981002
-4.757427408218108
7.634912201641244
9.911431379929239
4.352168411491623
3.6210364598633187
-14.395199114795982
-4.895540878572522
10.209110372542929
-9.239788484965729
-0.8026098789900389
6.798985082283075
-8.742204249260777
-11.007468894363543
0.21923913899773514
-1.6395718690877694
-3.4875303638985846
-7.901986866707151
5.578152569084625
-0.7631768952223414
10.298103898545715
3.9362700620291107
0.8944555213404222
-0.8861191874196639
-2.062172456873996
-9.491146077757756
-0.28271590630475346
1.3803012355462903
-0.694340005701901
1.0229142174821153
6.843813014354462
-0.33133439521225416
2.6468775074285644
-3.7550811394859998
-1.6965539847420972
-36.4975871205457
-97.59471462432106
-79.44684370773993
13.905918447346972
-4.46141626176716
13.000903527916847
-26.99241349646605
25.681937992586633
-2.443021589993258
-10.837460248956559
5.342064664877607
-0.5770297285544401
4.464048403574703
9.543367751317103
8.854680457032954
-1.0232922585596327
6.5226801227003905
-4.571287722895816
2.2730546949764174
7.121702264166329
-3.7018454375739056
-6.197694189888777
-7.74602349694706
0.34365382545869194
2.919429182563578
6.3188190112215015
9.446220293681785
-8.06373763802027
5.735906906814446
-2.777399597125861
2.3143065461153203
11.144202342737335
-2.304148231047753
-7.235086140489116
-4.9031547279084196
-1.4473759111015743
-0.9383989900493975
-5.868076576206423
1.5013686184697872
-1.5807591205700264
-5.460108605662882
3.1654679161239048
5.250032316900696
11.631687963122966
-0.5789219542328548
4.476002941876224
3.696546447852899
-0.6722805589887482
1.077038828350571
2.616244225265852
3.1449764606207538
-7.144714182298145
-8.344069060454137
-5.820248190443166
1.6071784776303653
9.372014149081233
-9.704604149430333
6.44403909602034
7.339254947711449
-0.005441989124984872
0.7537938527002357
7.908799194836079
-7.801573799659526
6.3551188989433856
3.9168733860959564
3.41304160245294
0.2545535903842811
-8.449853841672256
3.7382947988748274
1.4102616717138585
1.4815279151420309
-0.00985246816536081
-1.8615811469387935
1.5489824495893636
11.735315500748241
-5.28015243588115
-6.699766150115459
5.198051601802272
-6.105929786602356
2.3489334469015857
-2.5704210308854187
-5.981828509321307
-8.67281175881809
0.07358032328776687
0.8729863240252256
9.621114147448697
8.243901351192985
-5.799147300529175
2.4712274974620283
3.9310803248682045
-5.551303485729388
-3.8605601586960105
7.155636872471217
-8.922954609279234
-8.717689472415328
0.17899337868490023
2.4286408172699026
12.86339797888508
8.537707548476405
-0.9707658348752614
-15.783430879399663
-6.163026371037525
0.6809155011377412
4.594498450610031
-0.93632911467362
-2.611366994388609
1.8631264837499368
-1.9330577814430914
2.2193177235632717
-8.042231208543459
-6.546146182990396
2.7668565050377842
1.6320641163937921
6.562077740104716
-0.10541248449036766
0.5800476141077608
-6.523240444033501
-9.38868698868166
6.675130748856564
3.7290742843460394
0.6038019757305765
5.258264723609127
5.882531362583834
2.94339065357543
2.5618505104030245
-4.587664749554094
7.51564865454931
-2.8606884779881825
1.3084006799429067
-8.646114937826713
5.013593083046891
-0.49953696047158125
-464.13838485357843
-223.43402953893113
-65.06318354918736
-23.54657605069697
-24.801087161968578
-21.13339393627239
126.31555693570728
253.41508315041375
50.52013201571837
40.72712427185345
2.7197638414395606
-0.12540225880705858
6.58547092432639
-1.4708027828697858
3.306603142431738
1.2551957172289563
-3.0370405780348344
-7.433770008122442
-4.800025333305072
-9.014534643846895
0.45247977184303206
8.299525354361556
3.8073772718314345
1.560632082577863
10.916670019078655
7.798850901087957
3.1685012630838005
0.3886514405418032
-7.295469119702168
10.805052275062057
3.640795642049258
-4.247640366107559
11.347953611829608
-14.224341689379346
-8.777291294007586
-3.659159799090163
-4.351822032682816
-5.021836818415858
5.395938845128202
-0.4344365115614732
-9.724164655848037
-9.832712203318502
-0.007438562220476132
-11.752561601606875
3.4024772358280666
-6.9697072415767
-3.273222291133165
5.855520346198698
4.0373403185568755
0.09300346827342822
9.613259365707922
-7.35771719864958
8.94712760029526
-1.5129596674866483
5.194009617205123
8.713930934425635
-7.514059576781249
-6.518672616604299
-1.2555082023859647
-0.712079322892207
-6906.439735904137
-16723.423498925906
-16103.724685339324
342.32094609546044
-9375.870394999627
-11488.254246303075
124.89430276726428
-142160.46643109238
41656.1731796818
35590.96569133781
19904.56538597207
0.03217398656413729
-3.8637352282677897
5.790661205288983
4.731600910661984
-3.1565058589740467
-8.233767764274946
8.070675894155066
0.0803356760223946
-5.5074569022596505
5.608071463177249
-4.081725793289994
8.121315614476133
-8.233801182846298
-103.27889947122857
165.52721972203403
120.55406071790065
-6.326011774305317
28.71307903363355
18.223459917800014
397.5376142166238
-417.60944045856394
12570.96600393949
18557.389643024122
4059.6872859537266
15985.996545893402
95.87830231634443
68.6958747304739
-13.719778092363203
-38.66946364222851
64.35378865090561
59.99587083518613
77.26669156423688
-5.991811811384279
-13.821247185289575
-3.3968665137479372
2.351700250456752
0.08640837642938119
-1.4417916157685196
-9.90274294246703
-8.070804955902773
-8.579168467892297
-3.4398225999903334
-3.6657525090484064
-0.3081383995661002
0.9147230419918345
-0.01251122580109203
3.9686252435571028
-7.310215250185688
1.6288722665310063
0.44674659053487037
10.365981595372286
-0.08870512423088711
4.360390251916469
-6.953855051788921
-0.9968319811615686
-2.7655454009512663
3.2483754175088335
4.304879531263464
4.007264850466947
9.802046098374998
0.22553712750439092
-1.1162073279217835
-7.07338730160002
-6.872807527997498
1.320037968373912
-1.7077675943039108
7.627764928130711
-5.030434996264591
17.801665778613614
8.041131491899096
-0.45451392545853636
-4.789516443915065
0.18754241322953036
0.5150968493762021
-8.272423397854006
9.868238937475006
8.781165415217098
-3.7705276510853816
-8.834470484396888
-4.6234121108214445
-7.509226440728139
-9.780614752235156
2.9448962672669956
-1.0470485875716686
-0.11599934458191759
61.15369676377052
544.8517665225555
403.90885156691706
-5668.346799135728
-3130.5784256968227
1.850133211501539
1014.1669846801578
2359.1341958914145
-16.580675675614437
165.57046395706175
70.73606897895102
0.005555549055982263
-3.6126517341687867
-3.398739550750749
-7.184399537218967
-9.126090078505502
5.459181358144861
7.893583184053302
4.360674679255188
10.311251261326927
2.4354842869552344
3.2615795447416147
9.901486823384394
0.13537417933484538
1.4514543023312254
5.091817199963429
-4.1955693512512955
-5.716610765286144
-4.834181630141831
-1.730643546849837
0.009201392445037452
-5.349391806913056
-4.193004762185921
7.609761453734064
-0.8272940442197076
-6.80349122804218
3.192980620367723
6.596142003202818
5.80092635502327
0.234404407410677
0.8297054181742786
2.2084603391327624
5.679802636830266
-0.07919033885949059
2.9561805656502544
-11.19614424054475
-9.975373800641817
-1.1670312488111787
-81.67025018239724
-61.684744456367795
-21.868158014733673
-49.43020955021807
-49.52992192579624
-18.399999806492865
8.294489721370248
-6.845042093674523
14.61653242074768
3.7959356537882893
5.116570935710046
0.12454289386922524
-19.88759587160187
-38.004164654281226
-30.612505215920855
-2.6243114564080594
-105.17154474197022
-122.88265112577923
1.150612451758464
10.545223528963659
-2.91958790779897
22.449565464687947
4.5504414332437095
-38.56246262226633
-160.99013016741077
251.16862186572726
145.7916555691416
-111.71814119432761
309.6933088211314
137.52807444562958
642.113298582109
-642.8193203015821
-132.47709442523512
319.9848509558336
158.62501608853256
29850.240608454656
-384.4061447882659
369.9286646151158
343.84687556884137
-115.19916578520424
180.665524920446
179.11106809533402
2957.201880320908
-2127.4167601007707
29162.112742445297
48721.36011552334
48687.41866326851
20869.65591857409
0.3976220574497891
-8.072367830819534
3.5415091179642357
-3.669905784499925
3.9114852809097185
-0.033315069402403974
2.6843267366876047
5.245912228146443
7.326528222496917
-3.2621996408915024
2.120906662407987
-3.847312231950818E-4
1.7836040841865142
-6.550269242495736
-2.0634944928568064
-3.4269018203967163
-4.693952970208272
-0.23519450376654222
-5.207776732591449
-10.71467040121381
5.459520299307745
1.796407593031929
5.77295990816206
0.0061623131084998185
-6.0860215141198974
11.960265446054427
4.145122902914548
-0.8211082871824805
4.848843894699063
2.1255028378288783
-0.046888005316012456
-17.88229908047012
16.289391998535944
3.4301172687732877
2.2733287378002824
5.764700704764059
3003.7242475891458
-4011.267803081805
-2273.9101599132764
-36.47057741878897
-1315.1680910434925
-258.90612969761395
-577.9337913482319
-5202.754652638385
5148.105723643559
-4544.095916168686
-2482.472094588151
0.04000000000000033
-0.5856251298721855
-2.046241150418806
5.717650739055861
-2.277331687111701
-6.870696881253617
5.88990081917193
-7.00190346763806
-6.0199300167847865
9.419707880870918
-8.490889453310611
-2.215547229203303
-0.024209650507497286
3.35756518185389
4.373238212883532
5.296419618782331
6.574055774582803
2.5822300697327125
2.3237833980723734
-0.06482309110799148
-1.5409476657817465
-6.220051515330728
4.673359603078062
-0.441707234921747
6.794232009423903
1.0449383826480079
-5.090382558010013
-15.407693607308522
0.6739535489800682
-0.8323986490615048
5.776781154207424
-0.3125444582077947
4.082239050922187
-0.16602695224203806
3.6247774528427015
2.81072985750499
3.5262166500514094
2.427050858856214
-11.209239129182343
-0.1974924660660394
-6.872482457164648
6.02019785336953
0.690472406282988
-0.09550174169565809
1.7756025133461248
-2.1167613454868075
1.3215379257541227
9.168767591266585
6.436774220651832
6.8279485048726025
-5.078409821078743
-7.571822498446775
0.03767118474010505
2.0123274400511053
-8.651452533344157
-4.758418161677775
0.3063877363073238
-1.4742879220236298
7.677629759407503
5.088199726183634
-0.21193899334125327
-4.947827375517961
-16.84456809201437
-15.418531915955155
-6.479783860458604
5.304248265218553
-2.8330459769946263
4.563147815282052
-0.8992128670213865
1.6793670542354766
7.221579298275621
8.535420257719599
0.46384195000929
-1854809.4752467326
3638.8914971715653
-113226.82066425367
-208722.60793247315
-15528.305443642761
16146.407763100715
238767.7329228178
-3818668.04288669
-1330150.8924828006
87031.81844977899
-26587.839459157934
-0.006889249541880967
-4.225779313488424
9.858983703198554
2.8852977835717404
3.703841765854826
-4.096449140282883
-9.884147246337797
-1.2096163476278288
-17.177928699295027
2.261524551879378
-9.343036689752537
-0.6693100694991979
-0.7999127534794933
-64.7845172318489
-238.91261454330046
-75.69107266224627
-60.9626969754891
-119.63223673415034
-49.03954004372181
46.55592060704254
-37.57697388513211
-24.408241648074934
-20.406044033998665
-53.28304235364867
-0.036828683749702294
19.228905493340754
-40.20796683036178
-25.93966187435853
-5.1903154575765456
3.58548020301238
4.778017991671029
-4.594343144637253
-6.57576388673325
-9.36089617768854
-4.024135689212027
0.6373897671024028
-0.11269737957108292
-52.6843097257884
20.94839285236341
13.661462057214903
-4.526079485930746
-162.5629611867382
-176.5915061234012
-15.115867817688827
21.644359705217312
15.829845963788873
33.12166311977174
-7.6447415392898135
0.0687895812858891
-0.043450366213833615
-2.4394225268490115
-1.825065495260731
-0.7388354667714606
-0.8889735319751905
1.345857697266053
-8.416534823875022
2.473732606032732
2.9326152902441325
7.836964774599051
9.304924131091422
0.490035697563829
5078.841884646421
-11363.860994299881
-11809.00807743625
-4560.199540474005
38301.688301037415
33296.88890938903
-227309.61356756897
-114371.56912655459
-3022.809253705668
-851.9866210279391
41.05388401702665
0.022222222132477907
-1.512528913084168
-4.663142839590741
-7.660710448890473
9.086358858133094
2.651657879317906
-2.9252299444755967
0.6275677714380226
3.031383239603704
0.8785562692048027
6.0170355454650055
-9.698966419500955
-1.8250042955194858
1.7468370281384096
-5.034929350962445
7.960360771830004
9.93735307461353
6.044461859770927
-8.106039356401293
-1.2081075172272993
-3.201339014422904
4.555005618552841
-7.051763899719992
2.9851613474917236
0.03769240607180117
-3663.1587093393146
-53558.83789897886
-53465.324142805846
-18.13360044976521
1139.6446900479164
1162.025765018258
1157.549996180123
-104406.88640889646
79130.0785646052
383115.19746418897
365131.2948250718
-6519.101524915941
3.8308484032014922
3.6933625579727707
-4.1506356870379255
-2.1306935681971986
0.965294584135857
-5.370906442271813
-5.916888159004356
-7.19033672819567
-4.1343719516089745
-0.7889730793991367
4.914574067739467
-0.11111675260740714
0.6898142249511137
8.089425071320708
5.577917753665876
-7.615588732770627
2.201134454723047
-2.108106181905566
-7.785166710571579
-3.573446400698797
-3.9733966337806126
7.501395447243064
-0.7126345091065012
0.019199674055884016
7.7907663627230495
-19.629037842534203
-3.6032403623002
-7.140530490426213
-11.509545267332378
3.955322574799546
-7.933345377685612
0.007367506092003108
4.608772063215047
7.637355681267443
-5.35343134098551
1.080607063029398
0.9947265830955414
-7.559800837861485
-4.544613121942908
-4.123616264867688
-3.066861940740604
-6.881998417748241
0.0033880074562773863
-6.484533991279591
-6.352204694679896
-8.753699620564896
3.58899402970653
-6.949796932314617
20.137136287726808
-34.40682526628285
-7.8224305244284436
4.745388192106728
-12.83867800411768
2.156670558850909
-6.568022783341772
-3.9025686157686836
-5.838633013376719
9.310477781897987
5.763222580574936
-5.537506668678336
0.8820030247970043
7.869071405041803
-3.4887417850646583
-7.088649935231509
-7.156766914849745
-3.2093097531632258
-6.0405144923466745
4.1187781055794845
1.014084593383506
3.900914279999481
4.743399464165692
0.2185871109188811
3.957398508955955
9.936102698127765
0.12377339762730884
4.884064503385156
-3.4262217782839364
-5.8110971407465914
3.1478607396144396
-8.098810309070139
-8.72882109951998
-10.140805535984608
3.215266365020782
0.4897254586072121
1.129144658579877
-9.473699922099236
-4.948994912498567
-4.6398644997967615
8.666401176601628
2.2200973288284884
9.598082796433184
5.431588313626908
4.946667561917627
-4.672971723587943
-4.559619314651088
-0.19551061778185488
18.919680939079516
654.511796241794
652.7361978516195
-24.731233990045816
-33.66869027519709
-35.36426365923662
-1451.7419050514168
-5013.68847483706
-165.63024154616352
637.1350902630841
363.0988496476652
-0.14254694889625524
4.501274494793694
-2.528871447128028
-2.0211385581038637
1.283273858592511
1.4432326658472423
4.243228508294434
-4.932798013239842
-10.246813312083859
-2.653470703678481
7.353568284987888
-1.2028174862294638
-0.507800406335777
0.38676649986682987
-3.146774102643533
-1.313840814631657
1.0681805400383624
6.446740922450878
1.4927849326561682
5.029892810885133
1.5879509395750613
0.6578081833853788
-5.103609218346922
-6.0118642966360225
-0.23207606891806856
0.817104506361335
2.769643644657064
-6.274506212332804
-1.6187209285253026
8.824091804255506
7.295650543819158
-0.001797879580771048
-6.227331168043472
-1.0396685709337459
1.0848417352015916
-2.607744451892216
3.963826826454936
1.8026387391762648
-8.868178818608575
-8.591066919217589
7.451146489512374
-0.8143839392759394
10.909132023048626
7.581450057436409
-0.8994825389022146
-9.87361772282277
6.074548419005659
9.835246844089031
-0.34107813137934917
0.48122353318359057
9.641548177826895
2.544204172588656
-9.073471063165139
-8.19077124674402
7.326923146058018
5.152772455032172
-10.2103645345402
-7.5218311664029835
-3.5559198821086904
2.6764789481568374
-0.15876208250827326
0.5375910007144793
0.6083736813269839
-1.9018112292681257
0.20476417288694534
-9.675310560179032
4.577850046126421
-1.0173652035459284
-4.686044492944602
5.0976599965692415
0.19146121973495644
-3.252827163945311
-4.0582070428819513E-4
2.3743389727944306
-3.1099709617184317
-1.9497477939418992
-9.827495597966324
1.8131607406587362
9.058129301266623
2.099844013772752
-0.14814939621503986
7.592123402372911
1.0952010436438264
-4.253192492882185
-0.1232311588312781
-4.117987430832303
8.769274488158443
5.256679679421491
3.7702852884334557
-7.11677444736775
-6.443006813831737
-7.483845760722922
-9.215808135811166
-5.580362331663291
-6.574238485864227
-7.022701237615392
0.37039057213618726
0.6375227853421346
5.892719066006146
-5.8729857701496035
5.226294863758849
1.5358527601424505
7.258192093885002
4.60291822989499
-4.567625900839314
-5.43890874381518
-2.0982780667804826
-5.7260513043620245
0.08447485723153607
-6.317092545506506
14.217975251031952
3.658109200741537
4.015586499593942
18.141703715095957
-5.032984041050616
13.439933066078046
-13.889439635516599
5.723997567765591
-2.210171848612234
-0.5410435073785812
0.3023403134011114
-1.3196561825115316
1.8652913971874208
3.2779888545515274
7.935590057605337
-2.7584328015612525
-12.913920521300168
6.88784057985948
-4.176580742359307
2.431874901021973
-4.4342584938237986
5.298327165541163
-0.37602922566352576
-0.29014319078432077
-2.815537399061181
-2.196244873047509
5.851615658354428
0.3918137104851987
-4.8443051827589
4.6638224535803445
-8.701712419634498
-1.9514641298320625
9.94591924091032
6.46143580324905
-0.016065665309901108
0.6602446873657619
-3.522431619184286
11.355558630203696
-9.296280012040855
6.82864151293683
-6.691774257846929
-4.427364824463524
5.199557231118122
7.727974674760087
-9.3562772601991
1.2811294790611816
0.30229129981010866
-320.0226837235118
-881.3720530527047
-761.3766040856134
65026.517232028906
-8920.327792779986
-25273.146764392597
-117.3512258909286
-252.0590275421092
3367468.3949971357
-1.443030111627789E7
-9604671.519409902
-24116.51697970252
6.427999810191414
-2.0572501153205907
-9.065138884352109
0.2012382733967852
3.149778838159812
1.3205924199918657
-6.483652951290274
-3.468464932299072
-2.4709844747170258
3.4048482833277127
6.204297520826437
-0.5442175296372614
-58.311831907098814
-9.562416324254837
-24.33677845208128
65.9049724306367
-12.259792831967083
22.25646870124852
275.9366965005796
-164.98952622270906
29.053773005651163
46.481219694332935
43.22252818219281
0.8104887601568709
386.48622972339666
-13686.804195151475
-13979.630068364635
42.65015261966263
7.837434888352747
29.65714452233305
-15.169611899856458
-121177.56837986279
2.4222135507191567
651.3874070425876
21.347656304077795
-2015.5812110421778
0.8706397012882875
-1.9520074716811402
-4.643032314220593
-3.2253991682811236
-7.314976308155815
-2.596501979204642
1.5355260690042456
-2.6706781097209293
-1.1568457838195119
-4.859683795327205
-5.564755991762669
2.402668403841807E-4
0.6214204990245626
0.9717697863442359
1.0579802694293694
1.6712806065566224
-2.05782618552
8.131806825780696
2.2997144602825363
7.174901238006861
-0.7382335868867151
-0.3875133307649885
-2.662627044207858
-0.7417496985572096
-2.2274689383936453E8
-3.0889367323041147E8
-3.0889366439569366E8
144.6649749888142
1109.835589463819
1061.307401044831
-6.699472536133082E8
-1.2846358171540987E9
119.10301928190302
370.11062320175495
345.4453183595974
0.0022472024819590935
1000.9825173795838
-1053.9197828166657
-718.2949649578485
175.9576872547282
-930.0404484676618
-323.1406636520203
613.511154309866
-428.11418334700795
-8.729763223420067
43.055904549480886
6.235923643671477
-0.04000000000000127
0.22244155658150686
10.733622135018004
2.234575391346145
-11.144890779360626
6.372489513092666
-9.284833025006463
8.432425418683128
-7.760217981871901
5.097230082424345
-6.289733176833239
3.3683266100021445
-0.7078165865771145
-2.280346881888028
0.7226012260420492
-4.454235301372062
4.753967656467915
-9.03218189133076
-10.002905929872226
3.7127571755500934
-0.9692909372718115
-1.190827307775084
3.958498172120983
6.919111991752819
-0.3751017484413308
0.5394305776864168
2.2140074325917745
5.203883391079091
8.311570108047087
-11.120335809745814
-0.056099792634091664
8.278081375940081
-0.9763901881382699
-7.008804522703401
8.781756756354008
6.954803806277918
-0.15107888931838875
-35.439504367708736
-20.619883967549576
-11.570808682405408
-8.634489568297736
21.070627544262077
8.650218423050429
25.37231243179381
-1.0339199548487765
21.114058685693376
1569.2101048245602
1272.7858126462859
99.64582001541126
-16.5694200638348
-39.86756737094675
-43.410081815403764
-1.1835870486240774
9.356621215641741
-2.8684902969218147
4.333602143750921
-0.26785205145043317
-9.51397858057798
13.8046790250074
4.15828219339495
-14.288229124321225
0.7410266314292754
4.368466576901934
0.9857622979038211
-5.088833061751837
-3.5494163548918576
-1.5984048137493065
1.2693037931562146
6.102583893310741
4.840252196511711
-6.086656879697032
6.690375702998981
-0.427459364265848
1.2953650622107145
7.337381686271452
3.45992034290131
6.092885478241387
9.836631029685547
0.7088354944845738
-5.647052045705581
-4.008564480484756
3.2455750108160193
4.981395450127907
-0.0988810148703112
0.05063548457014929
-1.2904623152832595
10.843208126098185
7.554900690392468
3.8411486481726405
4.5416220574690245
4.391665236361518
-6.579498122418117
5.584356349679086
5.402731952622235
-7.052909431905205
2.050396199959819
0.3986500052766918
1.1829628204823885
2.5862879272995327
-0.13220586502186207
4.005062007746208
-9.682699281698259
2.4856285738723245
3.7796063395060924
3.7356906083359003
7.177259285057299
0.34761304510639424
3.73341230544328
-0.21804395255481873
-0.8400100844933213
-3.3250754375946268
2.3230839086931376
1.5529527044574114
3.716968198105457
2.7339530644878884
-7.174622580301426
-4.762437915920268
10.020405230062178
-6.942564577682917
-3.7037639580092305
0.40176628669009584
0.9635126406357555
5.377733143780371
6.52326090189947
3.588149333249141
-7.508275303558936
-5.48192002250077
8.367075590647508
3.911746610625194
10.13659266544488
0.740495737379702
3.160329995409588
-0.1870329662636794
-3.63891185662166
7.471799707495737
1.9401889354178155
-6.515139260441874
-1.591063499207723
1.8546083773229203
-2.6310123836012864
-1.7802827544195323
5.920077609502233
-6.1371964348039025
8.041109971429051
-0.19980161704642876
-1.832526775827202
14.907415442200874
2.2947251004836353
-5.33448081862615
12.528400845556817
5.964315685700077
-7.363775554511319
-5.188727735846474
3.8735614830368785
-7.800278245501888
-3.9013358761395733
0.4008437562131772
-1.3757208421397422
-0.9919155665552558
7.7479330609860755
6.761024369517665
7.452411408947858
6.962741008664795
-1.653875398162679
-3.931935192804398
-8.003853961508524
7.643919449417747
-3.301290311979354
0.0696406329883876
4.344837640995518
-0.9675641260572349
9.504670052885777
-6.125461618499342
8.278146033941544
-4.202629002536177
6.718510693746728
-8.290413576248088
-8.351565292778654
-6.189857940092278
7.945353727350708
-0.38986531021908655
2.864279811613597
0.2864154077834809
8.138576912035765
-5.2901250939615085
-10.398140118064564
5.705646589012699
-9.534873506471648
-1.7475871683578992
-6.620977287349701
6.1862772043534555
8.394151682852803
0.14622966433939166
85526.94562624647
-83063.23383253966
-73790.70952032045
74070.09131095292
-72149.10032188878
-61445.26325208079
-122.78666539077716
-121.39981309398124
-29102.974471135934
27903.66868775641
25448.616990394767
-0.544140301284626
-182.12881161354977
-331.3061054727099
-324.8884584866556
4.43014908397817
32.744604182964125
42.788578564728304
2599.3284010158727
-2052.539056000927
11335.2007869333
-50183.55059880158
-7830.722380982989
-0.07542448125232763
-39248.80405983108
-2518436.455164643
1713116.580144571
-3289990.850177264
614027.7344227976
-712130.3239482817
-1.5825531723400127E7
-3.0938104168300726E7
6834365.786550124
4142685.193450877
-2281647.8229395477
1.2545957769328104E-6
-2.2297296517331393
12.859936591818405
-7.999106736941927
6.013489518154615
3.999008271136257
6.280084940257
-8.00901251663842
0.3554076074916663
-0.10389992568312018
-7.542823299775518
0.15613078014834506
0.6893877702731469
288.86883668868546
399.27480467318486
160.51962545607057
-61.54850073691028
-62.91676880460548
-32.94439031159391
-139.6076396537901
-69.5059535178154
-63.94975160871611
-94.79231515269767
-29.827748815432937
0.002020202020201969
4.2180912029907
6.05257557086744
8.839542806829996
3.076218647599767
1.8708232777689713
5.785027026248407
7.39998975972999
1.9758453301123629
-6.111351594748719
-9.500731175431289
-3.851072178850723
-0.7795654944893015
-5.966753270993648
-1.5837188352601632
-6.2128354105043595
9.928045991135175
-8.845731034117698
-8.790809649895142
8.503185430831953
6.823439047472528
-7.422962117836584
9.241255104379908
-9.761078410879822
-1.2174512618614133
1.5976418478069627
4.936999601115245
1.5182458535335288
-5.343483392779291
9.282457850960661
-7.948555169337577
-7.07032872322027
-4.288725767947217
-2.169190615293931
7.916478246655118
-4.4945387100410334
0.026003611964358825
5.578556886596539
-3.802666413562759
-15.408506245325247
3.470337200504808
3.885589093196778
-10.339241853187666
-32.83799421482631
16.14375213712337
7.066160770840509
10.631329081733828
7.718414787301977
-0.14805816927129617
-41740.55701662473
-27577.97837436388
-13782.06553057934
-20420.062147374287
-15054.88482654998
-12482.777067644489
-48368.76864984375
-24315.515442001728
-1272.081631089138
-4116.4323498393205
-2847.1859024590103
2.8525927516620806
3.766439131795498
-7.062094197167687
-0.5360348070936751
-6.369549805192355
9.277159645433123
4.379279536326684
4.236383650146019
7.945192438895958
-2.2938121245894556
-3.1252005205223354
-7.769816274603111
0.013728023592182377
-96.31457894851171
-218.88360244738115
-61.292712225273696
-5.384648793971027
0.9308314270696226
13.000026392084134
91.44848631140448
58.09655756444951
-392.29540723840057
-641.6060126992235
-114.03364869710248
-0.06883841576584657
2.1054322923330555
-8.492358496665618
8.405896584949586
-3.103245922264487
6.731772607934002
-4.046541313589641
9.219652137285427
-9.450686912368893
1.435932766134955
-2.7886253081328016
-7.138893550483093
-0.25269280819462625
-7.749546506036078
-31.12240205827317
2.915126816187829
0.11108946833296339
-7.136037208049733
-6.336854846674985
8.486008677889064
-6.456208272315269
-2.131149558466173
7.849381890725104
-7.706430774057404
-1.0836531744997822
1415.933225222083
4101.446555995296
-464.9894165405306
4226.251798923719
-18213.485653986558
-14040.731093539378
61.785404407446656
-21635.391015961624
-910.30421606928
-33590.40703565531
-12274.916475983833
-3040.538200874102
3.720287001963464
-2.031486321542542
-4.659934148265726
2.5069614137425464
-2.01989208491513
-10.112039360905065
2.4844678504742275
-9.624662770013565
-6.4944257502843135
1.6739673213160968
-8.954729638319126
0.34593541685271106
0.5899158649752285
-8.304922768646144
9.720198265057851
-1.1433827029677803
4.97859361474674
1.7545543712843559
0.005815676326912344
-5.796103558029602
0.6883301719807327
-5.041599567038722
1.4833284324047669
-3.01761478897949
-7.148420635228829
3.908130985243701
3.2461470888848285
-5.282144008683967
-0.09763209265939625
-5.047262281129933
-2.301160037785623
-1.727071118698454
-0.7387503212736738
-2.0915162460882484
5.46211872767134
-0.6622925359340768
1.0905501395949275
9.028934744855997
-10.592039909702912
8.001962338481919
6.898147342944786
1.2610053679452258
6.5268432312488285
-0.35347801547031266
6.053254665987888
6.871130872480296
-3.69216895630376
-0.06807020095246605
150.7734827399773
272.48878616843393
276.6692442460973
1064.6677748467746
2786.2904470174813
2781.262205430997
-18.431968931434604
1.1034354339188268
10.65140810559028
25.64180965099864
-3.3643352639382256
-8594.394710442426
2.9132151035243314
2.562391257352543
-3.6738959907639708
-1.0812424943783943
4.204733514967658
5.385468545159913
5.464709073040821
-10.188171282227858
-3.132572806053333
-10.037375551820075
-3.0861282131396006
-0.6140996388046517
-2.082717816006761
-8.083638279998633
11.474965567544203
-5.420922494210633
-5.922423237696365
6.657683192589266
-5.962790495500671
1.6443988326286425
-3.0021357538852445
-4.398062359710425
-1.654832718430613
0.32784005555828827
3.928126110115564
-10.588139727282858
-2.9717364624811355
-4.479413405473014
7.797126273007454
3.726866199535233
-11.885642557157404
-16.985559125198833
-6.219007699153588
8.768314597766862
-3.633835049736289
0.11684799622120301
-530836.5816830973
669018.9015433565
453519.9541854485
2.1956870022745386E7
-6438829.0656496035
-6563003.857963917
1122203.6386445183
-2655048.5814899364
-1.1920387900870636E7
1.0105019440443447E7
9532378.184761174
-0.2000000000005995
4.589727162994971
4.181120011588252
18.864164545717617
-1.913141499273219
-6.2515426495943105
-7.848607750106713
-14.074072242420524
3.3533543919871063
20.399201980567067
-1.479640637812962
10.13852095823732
0.013374752840572669
119.84398694387073
356.3467339008502
175.74789022130614
6.000931340920368
19.48316826554172
20.1822439896062
-2330.3525383449232
-7727.990414685361
81.84685503072059
241.69801151201463
129.98933158665918
-368.14394633674095
2.448704762811541
1.573433200158622
0.8788953208513561
0.051939883614072764
-6.804893176420577
-5.724711336678847
1.9063225849344803
9.421180628888456
3.9280185038922535
3.4349686352380324
-5.923125302453556
0.09830106009619709
1.5082973546507414
-5.422411331767829
13.221431789959531
4.272197442163103
3.128725912284255
4.732669177558005
3.821005571581001
9.21391112752849
-3.181013735766216
0.09472997538358051
-11.390584592504961
-1.012756226112237
0.12420941652720988
8.00042563554615
-9.75146266959862
-0.6552011115080756
3.002059313662178
7.001625764618628
5.032926413403915
-2.4884290945320955
8.765596193166488
-8.551844608235218
0.2711126545985562
-0.3717658016100437
-1.7263417006613908
5.91276975389517
-11.979061184234151
-4.4958195850415015
-9.706702985463702
3.150023147340465
7.605631626964933
4.1398272927271975
-1.0774299755890853
7.036902621994168
5.032777118502066
-0.5920110053487194
218.03888040816034
1629.3304716598143
872.4616526157441
-54.67253776182945
131.66000058297357
9.778042655514932
-69.42148250842513
12.384092599651012
227.5070659474549
4375.73192668851
3604.0979157176894
207.11127169782304
1.6426079577205277
-5.50364245742618
-2.0250088544375555
-7.387713661385358
-4.545058955545428
4.60398480691561
-2.7250861752102837
-3.594527878802635
-6.317110445176059
3.7168300502075975
-8.453746854978386
0.6142342505994992
4.8479168190330135
2.7979286820898204
-0.24981895854346114
2.8427290922260746
-4.89325165939226
-7.833485244180023
0.04247768176289416
-2.936902897611147
-2.1821525782011486
7.027694812695636
-1.264340474887295
-6.095009138751771
0.7391083109040768
2.2414091958783366
6.558307835895774
2.3275312837537987
4.678796504891488
-3.4780074189532524
-6.1362600753199015
-3.2924267303557917
-6.392021244135952
-2.5069592763357496
3.933498468496836
-0.0012412288662799669
702.2546372323131
1124.4117897471292
970.6489012083908
-35.52670312125358
132.3379965896603
73.47058730295542
-140.4025131063425
-123.83624197007765
-2070009.9950798384
2294095.4375225916
1312141.26704523
14194.58661800597
-5.938238462062417
13.98457011498184
15.79913251430611
-7.4492423821317955
-5.443364373626138
2.5199236937873173
-7.493099517076676
-0.4984794732951433
2.4914444608773896
-4.5645673117818335
1.4071815807687167
-0.43646672190418334
0.7819044156693171
-0.571519890323759
-9.957631626247867
-9.789033175847637
4.8508743081575725
1.1186029632706602
-4.456106150136908
1.4211026953128603
9.154038990423462
4.957905810296216
-5.718575168119221
0.20274139633359084
0.5318051348940772
10.691963982734098
1.409718138310947
4.625162885835814
-10.577166306286642
1.8279862140935288
-8.73067176728552
9.640989076653781
-1.7804542855146872
-2.157666541327402
2.071374387960839
0.5481293596941773
6.696509035240121
1.453755307096937
-5.392756801995497
2.452113025361546
-9.322230221100751
-9.70814976733702
-1.9978988991666005
-5.19122639629416
-0.3236922396912792
7.205150432552737
10.608370222330338
3.3212474671086767
2.075821995633848
-1.7453576132705961
-2.04736350082786
4.038156274085795
7.554524390780637
-8.852662790811406
-1.484749806332477
7.384708548759714
-5.817981669118027
3.4248256698880573
-9.852356853756586
1.2300530102332696
-235.5733116598447
-616.6011133179683
-299.1754724000854
-168.24524845384877
-557.6708710007675
-493.10909713759935
-40.273549571423096
-54.05064092633509
-23.945682771280065
-48.84706738179083
-20.41350745909948
-26612.876845270745
1.2876662191359818
7.440797847479579
9.395901868545577
9.607634824482554
-1.303549393015422
-9.068473542473729
-0.03762970765411422
7.893095605870671
4.869696928893266
-1.1525619585428044
-6.359475419549269
-0.07096083828111083
5.368593539515971
-18.889707531106403
-1.4534722830592153
-4.795991434507857
-10.597382607183025
-2.1217101344642777
-6.476715213251021
-7.832038407062218
2.4593011101886226
7.748374392691563
-0.5802536633773634
1.0585178415049092
64.60253640972766
-451.642208144221
-401.0998261357968
19.191201700849057
50.164941886445774
33.24325809913152
-596.3911630886747
229.50470141224494
-754.1282281056991
744.3349617218025
344.62391409581085
0.34243856747345675
-4.273323172119791
-1.6459732911874998
-5.380610570725114
-6.416666947736329
4.012308873794377
-7.620998184775843
11.530088797177935
-2.4207190858353527
-1.3883400796787757
9.626461171331496
-4.7388710283188855
0.0687204758432787
4.921390460822338
2.413512160060325
8.124761883118953
-7.87880976700519
4.598681916790434
-6.6270900295647355
7.141124054401684
7.869265555283388
1.5985723190273229
-17.8884626697189
-4.085290418132011
-1.0143441384091465
3.51580271279332
-8.709340427641552
9.124551285285985
-0.9561138940789986
-2.435488658796763
4.640964858206096
-4.087827620795385
-3.699086823168159
4.196686852830868
-2.129151036667518
6.406317902881924
8.76562108640698E-5
4.497992338210549
-9.531373553908216
0.5735088013047137
-3.0936554055424073
-6.814349942681221
1.274287333954494
-0.993314157022848
-2.912467343611136
-3.1312187167236782
3.4575651311300515
-10.594794891009593
-0.4808314680833679
15469.190091726412
33818.49631871117
17113.856908445134
-45.97807327509721
201.95123915148457
189.04855160397722
-473.28066125963517
-2537.352717504464
1059.1031810851905
6087.582063014732
7788.54347660382
-2490.510406890871
2.0756460512837362
-1.4172680453201139
-8.655364712142417
6.465767360546633
-0.880210555847572
5.104260179689555
-4.878474604040644
7.631883113520334
5.945969763609123
5.813804752065556
-4.811354317222642
0.7226757640073319
6.071469900843359
-7.389616261644947
-2.254859824769608
6.1410730907377165
1.8102466803668138
-7.027918409733444
-107.23298735551155
7.76660348857908
-24.23609438311831
30.186250695030374
5.045580423601194
0.022565941115697978
0.7734928592795732
3.873619939723106
-4.308862260132316
-0.6555261687414794
-6.6652142590445616
-0.34189486750595444
-5.747291506567167
-5.935858396134998
-9.218758952679353
-3.892419971290539
12.550049476112866
0.5146865914283738
2.9087977844118393
4.07145997897612
-0.8779350445591867
8.326510752894844
5.802367260398271
1.517916159416169
-1.3344627612201934
-18.96257036253654
-2.2659936171259583
3.618614518856211
0.6454954092936102
0.5660406681765345
584.5487965538023
-33.19784901590806
-79.24834136878508
-60.11187726852827
-16.89821723064961
-1.3720587286904222
74.76130510347218
-3569.810314040136
-2344.242597815698
-2152.0202779844367
-1789.8949919987385
-478.22387752782305
NaN
NaN
NaN
NaN
NaN
NaN
NaN
NaN
NaN
NaN
NaN
NaN
-1.461098275937647
8.434660306574065
-6.350314150280341
3.626316065676464
3.5606819942400953
7.9481786947187905
-7.451257971191616
4.188912831318337
2.3093798956880582
-7.90122047154042
6.915844355188437
0.5853801469612331
4.523372875999206
6.825104748706879
-3.8771825943925244
4.615145884236206
1.347079590797326
-2.983365329737269
-0.7668258174182253
-8.411261809732
-3.8293063898419253
9.09368512206649
8.061702790233786
-0.3174523399764426
-13607.77084585898
92872.25127871205
63343.2785377938
-45133.15971686387
-68686.40926701027
-29481.12012995329
-31.699488906942236
-445.77622456248065
-3224.4683029225926
-5625.450519151074
-2155.481635942005
1809.1770038648917
-7.949095592547516
-9.087011266206915
-14.396461298440588
-2.1711715909575626
2.5805639738404564
-1.1551776582156008
5.040695427114726
-10.223324620228986
-0.22213609194208445
4.9548939168867445
6.3247626053232775
-0.34351201078288296
-375.3874218628807
-1010.8439871566543
-814.7488509653855
-14.0527864487639
-31.59798770333693
-32.5536041536575
-185.92463728229865
-305.9420047028112
-0.7108900410228889
-21.353755870999844
-5.951438100295881
30792.40643860415
0.1336150422768259
-1.4013923624821545
-6.582659478302404
3.5445044070820786
-8.667153012220853
-3.1005320677950094
4.418856448448128
-3.946324108579194
-0.3329916857745614
6.804405736826678
-0.6037523025512315
-0.3102840635909752
-1.2331363045025439
5.843701395645521
-4.571575154467445
-3.169664616474398
3.285203750178245
10.89526859921381
-3.7922982751341543
6.795572386828729
7.359250198289535
-0.6031814768823379
-2.0559874675618652
-0.018525738340712503
-2.3757606563366021E18
-5.9394016408415017E18
-5.9394016408415017E18
2.5228481734252917E28
-2.5228431247168923E28
-2.5228431247168923E28
-7582814.1859672135
-2.8039869378970585E9
-41023.3469102197
91531.8522613842
9.581497250333475
0.0400000000016784
7.651750719292502
-6.837856621592518
-16.492619707365385
-8.100372850159252
-2.38646598625011
-2.3574019321089876
-7.867511705421285
-1.0057007271058591
-9.741253261086152
3.3737468525090057
-6.50015527467333
1.2935802112759691
-4.636148913419749
-0.8992343394834975
-8.371299883346925
-1.6096831475466853
-7.234542068186151
4.652044716147182
8.530800841243977
-3.3079773059981026
8.641847621580688
9.331794371365481
7.516891693863091
-0.6671327949791303
-5.389905899132066
17.87821893476868
1.035073812611948
1.2947425628289122
9.473694874803925
1.7985164428266671
-7.695538425335153
-1.3390464327289355
-3.415915100252525
-6.827780507979295
-5.610120456859098
0.8625071064934062
-257.93340900983407
995.285945448371
983.1807852990587
0.7733361020744419
-35.82983035428208
-27.87293753570569
-13762.355405021108
-68763.01288716565
253.1954207948632
-196.1282905974885
52.43403981961995
-3959.654718974769
4162.6913601957285
-10769.417881862051
-5695.386864320719
649.0811518578906
-1553.126776260846
614.6956305547382
-1795.9303842845497
-5229.80912307099
-9.803527344428609
68.51462145105441
51.70399732288784
-0.9334175181565753
7.411788231336773
8.019043839728498
2.1781941502979345
3.809557251567735
-0.7010583016689949
9.296162919473327
2.4988883495193375
-8.174370991499872
2.0385178542336195
-3.4384914685807386
0.6976554243136364
0.9384405864159313
0.35408345879314734
5.075758027508987
-6.404640889739537
-9.182359838270841
-1.5634380193486737
6.53744762611485
-6.464525463063418
-8.753370953110274
-5.423740497229514
-8.730575118646549
6.074356733568685
0.06778227018393189
4.026463557432404
-4.362394303106521
-8.911006441695392
-0.7496943942178358
-6.568703522936012
8.175007301437903
-0.4019926410696964
-0.5141626274300715
-0.2310630647725104
6.278779340870612
-1.6325875582272815
-4.913397679683291
2.488139399165849
-6.253110284669288
1.8212052579323177
-8.676886916616033
10.433592362164307
-3.7817626420622927
3.6343087541138175
-3.581431254653163
-3.300536981937188
8.827348958891077
3.135186737271825
-0.07599647378979639
19.57946935073162
-32.302143759143775
-34.887752450689675
7.344215816364818
5.85853189207138
9.203378262717804
-53.99907005825072
-9.793161655019665
-10.034020100744126
34.979383549423055
13.482567765999873
-1.5995479467545195
-32.24359021181545
175.5269953215455
192.69363753340784
-9.477120451700541
-3.101362559143459
8.119286237198619
-88.72005432121986
-189.34022004162156
-6.730904304278466
-8.890414064374214
-7.525168865025685
8.534247792949353
-13.088767430806309
-75.12962256867738
-49.94703708597953
15.072814051109743
-14.933377692957738
6.733158283526945
43.78447744216031
-13.839853361252427
4.8533683654256174
14.503057027830911
2.5017458968087207
-0.35018492595350853
5.946631700822342
-0.49462794692351153
10.166920102931781
1.774340213872511
-4.240804012039079
1.7124904877950946
25.281875339225607
-2.8801981880669656
-9.27118806648404
-9.825612783360615
-0.6265253670053709
0.22886367712841044
-0.2822826596461721
-0.9552338110629887
1.1246772466512167
7.131934879094844
5.8958689366054395
-6.924863986276958
4.819271542177259
1.9195432555926302
-4.994430740714606
1.3268526226172657
-10.298050142939672
-0.28263765065394963
3.0599559254750788
-6.773078322088616
-2.359054318478671
-7.530288200220341
-9.24147122804097
-5.513531472565528
-0.20784080716554165
8.43937581627807
-7.601730595500237
8.551714729966898
3.5846360973568694
1.5026423884802451
0.24970784650783176
3.4612608482448923
3.586325078849987
-8.53926025756041
-8.014354986415213
-0.11698640296884623
-7.142194438079924
6.79982728917905
6.087962580669908
3.587350491660234
2.3167531146014495
0.22933865951407742
0.8530441929975532
-11.301339531318702
-0.7531982322404926
-6.031939066104946
6.6424619044284166
2.466899790121012
-4.288715126891924
-0.7328228495574308
5.572850782164809
4.268725015795634
6.082022862077193
0.30703101541393507
2.0113920023560037
-4.678701578952284
8.428757137807436
-1.3409205395675572
-0.4375159878214298
-9.695752175152014
-9.291768457893593
6.19807745909399
-7.939660115941421
8.408827349943444
-2.674328164450701
0.1832142496057167
-92408.15121572261
3802.559800155203
3787.955729970639
-41.7835475707451
-92.30875676356713
-99.30843262297458
644620.9171292371
-2922524.715705827
1120749.7690057578
-1917173.9354414926
-1513839.9751491856
-0.004444648270497688
6.364647433240778
0.5374747991908646
-11.474937845838351
6.2310406971397345
8.097355633029473
-3.9842251075819637
-0.08003859897178534
2.176412111660597
-4.842582660614164
1.9013435952949893
-3.5061712705034394
4.226388984420515
1.2060098323495738
5.40992481539811
-6.565230495938208
9.117546705682157
-6.422168321640497
5.702994755841251
5.724287699060849
-1.416046286984604
-7.342000302165167
5.39327547943513
-3.4793682267032406
0.0037356247610145664
5.370025842547344
12.968399488031435
10.959747607050206
-5.167328543709141
7.190053672445819
10.465281033858169
3.137134242980948
-5.863277413302403
4.627419754133738
-3.759433037301283
-8.873809539206363
0.9246872110327721
3.5975701070431088
13.737777668885064
-2.4771945914338813
2.0258678030100357
-9.673567439767027
-4.151872566213122
5.09602479047606
2.062515045610706
1.9090481077872923
-7.664483995810809
1.920730413583025
0.27582002754666174
-6.3920372090859265
-7.457184171364723
4.578510121729673
-11.123637742056596
0.2816329271471868
-6.108857217822288
0.4223961618825667
-1.6774871709627137
-1.864929083777603
8.701213651895545
-6.045287044623893
3.6644937859144147
1.082033962407497
0.8735073351397915
-4.985902714371247
-0.3377403831122392
-4.448698471588668
4.178197752196841
0.9801777988187348
4.23744709813685
-5.603616381477211
9.077985197908289
-7.403154080798626
-0.7868196140740694
7.062126623581681
4.086391811399413
-5.008722460287263
6.076831324897179
-7.31362501077042
7.052549963246735
2.5099788325847423
-28.30572789237116
1.1760902802726954
-8.789210923791698
-1.1102896465055474
0.9189923635484263
7.177301071557785
-10.475729087819863
-16.278447841676552
4.235847876142767
4.96404027541811
8.119835669220251
-0.03786338356401256
-4.644119581458977
-6.8223541714672935
7.849674026597955
-2.2228701907659736
5.403992958933065
2.730709230059498E7
1.6087025790345982E8
1.6087026537822866E8
467.60285007100964
-52173.82715181447
1087.1292772219804
23675.487430327565
-3.474455465934242E7
-510340.0860063619
-791740.1070833481
-546192.9078314672
1.1366468149509106E7
4.694456514028594
-2.290917468716725
9.58052152669536
-7.977722006565295
9.998085402016233
-1.8135505232463527
9.064526030165426
-0.393112333224534
-0.3446787680583569
-4.45249092045796
1.9119572081826752
-0.5063758473233775
-4.577287718880457
2.1292091905074155
-6.0485642968428195
-0.1176220523696755
-6.347787095784188
1.831198037103533
5.1343573953523975
-8.141771565912405
5.5199978910567395
7.932585254458191
0.43002121185285125
-0.5697020825924717
1770.6775206928105
3235.236287563526
1286.0289061279102
10.299313952009728
-48.824038537689205
-6.38562809686041
-1078.3166401377782
17.116446987000888
1863.6902752181734
4945.813340947493
1226.9599868166138
-19279.43593797692
1.1687586196974056
-5.123597541724608
8.0666304253671
0.6736861552932398
-9.682152111264966
-1.5692961084635482
3.293886109458316
-3.0317558516826306
-8.305960019921923
-1.9403300618353572
-4.375109047036424
-0.12279664852936593
4.036143251802956
-3.21605388417799
6.695132841607562
-3.5736616519954345
-10.586572912993757
4.390510377754906
2.853885911359434
-2.5484414930590473
9.373302473036592
-11.315797146576102
3.850892496655868
-0.35858122613565013
1.5376996802199835E10
1.8247417553054375E10
2.9085530110500977E10
-2.9346102884992223E9
-2.3996054725797257E9
-2.725369643326578E9
1.1132710057745735E10
-4.724004219740989E10
-3.0641142593819664E10
1.6286283587725746E10
2.6254715168085426E8
-0.05806451612801768
2.7184812497025757
-7.265061332236452
8.029876132341336
3.2149742142740934
-3.9599082750507946
9.768225380949056
-8.626338980852328
-6.627865028281686
2.273639523994567
7.855362023103083
-5.881922017681025
0.49502345985216045
-1.349766587903947
10.18577091908935
0.98802496841963
-5.344352348434975
-8.205979383434975
-4.091668938098626
7.003657326454508
-3.429986085747594
-5.746394169340899
-9.162598493017926
5.004122602494295
-0.12330112892993604
0.9321641670980748
1.6020444374797604
-5.10434999305311
-3.8471681160820084
7.56213262961134
1.205860781078684
7.027259619623314
4.065711763240593
5.626129046725564
2.176303936292852
-8.363930613345739
-0.056466860346810636
0.8235581316332395
-0.9583902173028024
-9.688545662767229
0.887476451142566
2.973210628586517
-3.917313037693499
9.076807849305634
9.196516514652105
8.732261392805418
6.446617308331784
6.579065682032391
-0.03719488460874182
207.25082217328622
-251.73001290319183
-258.6419163099366
85.36150464707248
-343.6837641820694
-324.7951209699913
-553.0653346922393
145.77796823276918
713.088601015888
1183.7909482866125
178.15061104252467
6772.660936461887
2.1672134846571613
8.311713990047949
-1.5901119744795704
-1.2206414110432915
-6.251234058229871
5.235144264934601
1.909253418307439
7.6440264254435455
-1.2525589494753753
0.5633566224568037
-7.0044067823896805
-0.8619243818712994
1.294558828453557
-10.632910855940393
7.0573677841182905
-3.6206309145849462
5.6382065455620625
-0.04026621489722174
-3.740552165206712
-5.6644524364424536
-9.893444112999875
-5.052753727539823
-6.766547684019975
0.10531658585808189
-0.6288550767478728
-8.350480072728859
-10.447246907303956
-12.11036226447189
12.523185494329628
1.0931178178241527
9.878903197265572
3.7404218807128857
9.604263242417163
-7.10492897002161
-3.2357078257938396
-0.173908361899596
-5.297025845403849
7.522879157078752
10.824214327809791
-7.9017674133526
-0.14971641009272937
-0.0394950477518363
-5.115712984482668
7.093867916121301
-0.20162979930795066
-3.836904013761351
1.3969966896997583
-0.2665556097160125
-1.15194533871466
7.133689840461149
-2.3403369244198946
1.2532977302562538
-4.803018624774738
-2.890871029107795
-12.226354604693848
-5.1062814368778335
9.506577367490992
-2.7832575710762555
8.199596133649884
0.08266439330009831
-6.059033319079245
-22.000442026794104
-3.988755633180387
0.3468323117110893
-8.644343254089556
-3.385345071590263
15.173572567454022
-6.752138815511942
5.199853787090506
8.585632244523584
8.456563644391341
-0.7974474044112844
-1.5108442554496717
-7.410836242704362
-4.180270082256116
0.5985182485762455
-4.4819026707365435
-7.476535525214509
5.081049978667479
-3.089343425987926
8.014491558382435
2.5527071212484103
2.619451576480629
0.14678210046771611
-237417.3383944929
-372686.37777571974
-372059.26339501503
-67696.60575206949
-223202.93048423214
-223197.59599881776
-46407.731003974324
-57058.2888362655
-1732.7626938850574
-2138.179335485056
-2128.523928076248
-2127759.06140032
0.3134301850297333
-5.186811925056111
2.1666668791142585
7.469061222253056
1.423568001219776
-1.0261928345370586
2.6228749246550045
-7.004816067493007
9.037627904814903
4.2826693587492715
-7.163923642150911
-0.025859510381363863
0.14982034793937263
7.36219045653734
8.100141079758604
8.245463790620924
8.50816049882386
-3.6507804476753947
-4.0641127545330376
-5.958237689445372
7.643520024824847
-1.1521033677762342
-3.362620403916684
-0.03163292287416465
199.50510112382338
-244.97815434767207
-212.13282126335164
-6.487654346977421
-47.363913427873655
-22.005409886471902
118.67474338608827
-18.384578499681353
14.211888201929472
-25.152709898054418
-5.199905807885925
-11289.227291232222
1.1505751109471298
-14.978790884130788
-2.9467383965355887
-2.1836378233272975
-1.5699897596017345
-11.647416113965175
5.9892146082804585
6.940821047944964
5.328587470985711
9.200562664209855
3.5085612449729955
-0.19946708144841976
-7.155665550137236
-1.1375566433085993
-6.5861337299368
-3.533463082873775
-7.212120534898097
-6.768889474626051
7.617225578779632
-4.7699238183242265
-0.871806710815264
5.36047168808042
5.553072301297992
-1.1355616131701376
-0.6461197341030462
-4.043835896870123
-1.9470198444231879
-2.3541028026950306
9.455031454569955
7.487431723478308
-7.8436741459282615
-2.402998097886206
-9.301355397271267
-9.481316145024433
-6.272976780842243
0.08705559013595733
3.5590777099097575
8.309921524525643
-2.3407150248629116
5.6041533676642885
7.111155788541419
0.14693647656119405
5.204970340622414
4.82287246789498
-5.781112764753818
-9.313922782479942
4.247817239977464
-1.1751254870324808
-2.312701909437828
8.126588320551678
-3.3109763006509656
-9.150309690274907
0.7239342045635118
4.560502888545198
-6.525379933875886
-4.796466994867712
10.04392025625046
-8.328016558466937
-3.9092104568064463
0.3442655596582083
-6.773422230502309
-1.1590011666004736
-2.96710278623403
-7.591887967156608
11.281874312938765
2.4698494720075095
19.299253148384036
-37.78719572710708
-6.736599693018375
0.6374271899479567
-4.697826202593124
-9.323849882611096E-4
-7.593403083694021
21.455432878402306
7.3888993524243265
-7.902211150596377
-5.3161568920361795
6.079037475341786
-3.670677097619478
-2.049044671336491
8.88226400312809
-3.003934021545165
1.2948434884627904
-0.20887410519310778
-5.92645431390253
-12.722284832943256
-9.352505654809558
-7.058526090891249
4.960429366533399
-6.084339114209343
-61.700749786481246
-61.87941968328912
9.42529854975285
0.10691344405730246
-5.56153094145784
0.18946873737867234
-0.34901574904887717
-5.3427440894071285
-7.493198037931925
-8.362696151207327
6.129711235244585
5.7977282184302865
2.7246701196316416
10.738401520329248
-1.691133954819007
9.426348402382665
-0.6956871277196028
0.08457451411242264
-0.1303931998433784
-1.2357248102950242
-6.873539428959861
-2.1212331076577535
-6.50617021748573
-5.755659669824171
-2.9583272317835982
-9.779571328925114
-4.895236364956043
-8.548782844452795
-9.507031325403005
0.11677000603993712
2.632666917684257
-8.790011610011273
4.409194360446717
-6.5572174785938255
-4.018207547465024
1.0752470269192294
-4.456614897813122
0.24803740860496343
-6.885505762238717
12.566728281072601
-0.09308530841948028
0.6866622777414153
-11.15704148801597
9.324414154368078
1.4976923810875593
5.790633875645367
4.529913251319925
-9.23432464082545
-8.288428908082121
-6.8522397180919885
3.602867220891114
-9.470948795853683
-2.9747138103119135
0.7085498260424852
7.28125963755978
-10.543142290747731
-4.133665838467114
-6.877645752245356
-0.936222201871843
1.2094043581609875
-8.097056970477823
-9.701164066141146
-1.7268687001871974
5.191362346043604
-1.4218224311049468
0.6888672704365143
343903.5323233491
569939.9653995177
569989.8305756616
1.2239616613431532
-33.95842960959249
-18.21231029644318
-124658.51167332934
-206944.20362805808
-5618.398467245616
1903.3378564421553
845.703135781435
3.5191154582199444E-12
20.04852876698474
-30.0849453318659
-8.700783241190136
-26.423471344575688
-23.64844928599595
-24.327066287671194
17.232261279170114
-101.94348008223797
5.370681047383064
-11.10048050440375
-11.97603515114865
-9.84847416239594
0.9102823138847352
-0.8981079557636902
-8.253799281905277
-1.261116947155168
0.8791860635137424
2.828636965170582
3.8664613398518695
-1.1357247714854382
8.804059659892218
10.132689256336338
-1.5042115786696495
-0.07180142225611916
1.505136703396322
-8.042337041902794
-1.9945611115876047
5.42975918447527
14.117201550683204
-5.028870479522845
5.578468325442883
5.577446404899872
0.7275881646698034
-3.9984582308221737
-7.827504085245762
-0.22566035695793796
-106984.04066308262
-109958.18466335609
-74693.25580628031
654.7590838218213
-1481.3804343867894
-1530.2357778606138
315.64635244362995
-59508.52090223301
-7600.294075698444
130216.08098867179
-7806.916389764749
-5412.078685905693
139.78020767787282
254.05743691313216
155.56353413740993
48.38353669175984
127.40828293159576
-11.49397580067183
1502.2542952133301
-2027.1593479499536
7.3270822425564335
-31.433263514944187
-8.93707865545016
181.68757675580486
-4.425322056988196
-2.6655963452796203
0.6056155536631102
6.99686807316509
1.3307250915106796
9.90675122494035
-6.982406941274162
1.037415857792361
6.708802659221186
-7.782451327172168
-3.0410431881044127
0.5993869654745162
-35.39483906186287
79.18886776433659
110.24131907590312
-2.493167431114282
15.798873755394531
4.190960264759416
59.83864045484479
78.52272943620606
-53.41700058772777
55.372035533185816
175.700738559818
-1.613714247241219
0.8680680588803467
5.139583004051132
-1.293265834663927
-8.539927959737199
0.27675469692036714
-9.006296224416317
4.017936938860269
-4.423405632429489
3.942480864737033
8.962677461350177
1.6900982902268937
0.0011490851785955303
0.23704778091410858
-2.332809804635951
1.1793301048523346
2.685702793299298
6.457102610344341
-4.707432190074871
8.612657155013004
-4.661144113668962
-2.897833599834302
0.2518781697286683
-1.1821238445737121
-0.3316935186374488
1.8056708440909655
-5.705144940880667
11.127275010332168
4.367622506891382
5.546379004067633
6.6408524810895715
4.128853517318654
-8.781605183321146
-3.21589084264863
-0.07326840746160349
-4.271324174359626
-0.6412637430022045
5.075770246484138
-10.958859283258231
-6.375772955933434
5.281415473707239
7.673856956482039
-7.953501430547072
-9.563226536957425
3.9085229902945815
-6.87984502936153
4.953993587384301
-9.197700799616243
-0.14949436255844625
0.0028972613389497163
-2.7930047125586532
-7.448343478281292
-6.822529167476822
4.6824126354455196
5.335725514728264
-1.2333812351643347
3.151811086945161
-2.0989976587080816
-3.7747345611818064
8.807126469276659
0.5268886147274119
5.076734439259363
8.291542903908828
4.978328267486038
-0.5605120465687368
4.137985745687081
3.56289988020184
2.473848718953125
7.250205887815287
0.9889947765862966
-7.930230717674728
-7.261382306722036
-1.7328296576266873
35.111733114022535
39.3679094333102
39.78827827685264
-190.66610819799786
49.23262413998991
5.93557662487777
-144.36933014975529
-42.7340373393737
-26.01661368639515
42.86374478894224
24.308523006888475
-20.034029606776656
-7.929046875793434
29.39323178189745
-0.5371862534442148
-0.9476886874201508
10.86004704883473
4.961002377381378
-11.080850881835998
-7.452617346891895
1.1590962475826616
-6.499285544847506
-4.524545465660643
1.279364276590182
-1.4084694238916127
0.25783770424347713
1.0976704878993329
0.9713115730693845
-6.734931469113968
-8.390030102517988
-10.5397460863262
1.0515607518069303
-1.633373926933125
8.397437644816812
6.0672110272320765
0.24943546912384404
-3.4447256692996837
-3.8602011254179245
-10.842389240171775
1.8448785345502867
8.216326466975364
-8.267305036815618
0.6515760009400413
5.9658596881793535
6.070951930196762
7.608512979198128
-10.231380322191315
-0.5204414779039425
-0.438867793424
-6.467191664651829
0.7062779195743331
-7.936880969931746
7.89393186899259
1.2042459324037154
-1.5544980530067851
6.274961711315846
7.6099556661811825
4.26834153578472
0.13487771872849436
0.31252664015541537
-1437.8018775602281
8051.352662681198
8048.38616299816
-319880.2817295259
9903469.05255479
9186668.17149044
1237.5800508199316
-879.5296582147232
-2558660.8800014667
3964792.443952777
2901189.2675667387
-14562.778325026637
2.483165000730376
-6.4550641061330385
-3.0723290715763985
2.681950639940979
1.0297668417350432
-6.335320933432566
-9.659244979474032
-0.8469879247027344
-5.543117195886751
8.68533348164685
5.774153674822505
-0.10613059248011743
2.3104919254739475
9.374697631347578
-8.566280918897025
6.206592086237994
-7.321361158677809
-6.709054682837758
-6.845242474056861
1.436759274151409
-9.464930541023671
0.49069471236333034
-9.142200908405654
0.4469738906350594
-2.6223483267004246
-6.57883333628016
-11.064239352539394
-2.376834550962151
-0.10814326798993579
-8.173265625743587
7.286484352851411
3.2350928982623963
-5.249336812338266
2.328779304492233
-1.1449927413877603
0.41242191167451325
26167.040727564763
-3981.1652598975174
-3892.179738840987
-35613.98135987745
-81721.26094774037
-1466.0987996073732
32409.93647731575
5.774085973875689E7
-2.6891230036778957E10
-4.4818718503084E10
-4.4818718288774254E10
9.001031376214246E12
-2.20854172914278
-8.201284798697573
-1.7888576537517011
-2.3413118760848857
1.914639501026166
8.298612413144603
-0.11781052925234513
-1.2101733229428016
1.739460438557559
-8.12492771842944
5.177204329897338
3.2106152133457138
1.3124284236631423
3.7505839479717835
-10.571553197539558
9.997343775327776
5.966953640164378
3.142487401242477
-7.70231826415022
0.1303399050307666
-1.099869563578636
-4.407075563596585
-6.990565365009784
0.13757315177523388
1.1219059645982792
5.7134949450847135
8.600016446486894
3.895327300861218
-9.450820352030652
-4.284460192926175
-3.9272162200281158
-4.829831114833628
-0.07186438356684743
7.544772049021315
-2.66606105074798
0.08212462583950926
-1.2463070406535455
-0.2754424833092802
7.121677507703606
1.161902660328206
1.295929149402641
-5.999449361623136
-7.70857898660075
10.653063447860475
-3.403738487405283
-0.8559432715273954
-10.732095904242279
0.43983164463063634
-0.5866163220184222
-3.6870346065393536
2.0591300416485407
-8.725404287287525
8.255266141760362
-2.9144377082401114
6.513518819026472
-10.801256642801105
5.850421638136883
9.20743343083138
-5.0801098977681
-0.1225674651413369
4.323689925405012
-1.4487597974072182
-2.8726916161970677
5.914505529632658
0.44260517596918725
7.924931034478464
-1.732571369977748
-6.48382285397475
4.2692473826598665
6.9106741699132295
-1.9721737828966939
-1.4517703359847538
-0.23558396150156316
-4.9720220146215235
-0.8541076499867066
-4.9995188992316075
3.0777892993039386
9.191951836541115
-5.905553914536861
-1.958797569727858
6.934164002065526
-2.488108317291689
-1.1615120395740326
0.21728435619752995
-16019.324691313706
-19377.95654195168
-19373.974697725258
-2190.4427871280795
-3516.8081719841953
-3514.551579901876
4100.974082157826
-139378.8474762154
-58.50413495309323
139.40704637746933
119.08668763003561
7635.281476743145
-8.207766393329923
-5.981449636902974
-10.560414534977655
12.001049299730887
-0.49310488092881627
-1.3962737792444528
5.48735532919071
-9.232843176018358
4.082978332698748
-7.009571769954182
-5.970184919740518
0.06117980735605193
-5.715085158895338
-14.29121780042232
-5.106131236388884
-5.731687596414844
-5.784350487646429
0.23455319960371115
6.843519031035443
-7.2816569485285
-5.428614674761362
7.993358399431755
2.982454356348426
-0.5599504802165594
2.6781796346906304
-9.057379347838419
6.4483244217194065
-0.5309002276400898
8.609916094443939
2.7567017177809547
0.8207080712682736
-6.1546376432262715
-7.945775882459607
8.510295322938452
-9.112561304738712
-0.8433069475980334
-11.624622431994107
-15.533634868265056
-17.01584130391398
-1.7876836094827624
5.369624496450142
-1.3336914416815226
6.2436787306325465
-24.68823422760415
6.799600033132703
2.373219947031846
-4.3807188384494085
0.47792676439502235
-986.7975269328192
1463.043335118464
-59.02196517007543
100.9756615378223
-8.927683490432221
-45.928218732129785
72.98192164532173
-38.275676434183936
-56.024926912261414
23.743059546818166
-2.464000790894871
-0.07435164736665587
-2.208932755018292
6.364614536831426
3.1025754115858204
-0.926675909728104
1.5771943375317121
-2.261660056707005
-9.15701558078308
0.9895277503905128
1.2405402961047245
-8.66497725452102
-5.751677648975857
0.346990751371347
3.3558545384555876
2.8317866603189956
0.49102582250579685
1.5003879718618536
-7.039235683145559
-18.517010207732515
-4.706926094281009
7.060392660378916
6.922995073634586
7.115032249367653
9.329097761140284
-0.05715003710247056
-7.533364102637358
2.880619217921047
-3.030305753618762
-10.901319085186055
-2.19210746234122
1.924404368642127
1.2959551988540046
-8.40126639146288
-3.331347337613572
7.541764528251615
4.968454382823886
2.463407854473112
-2.488496872405985
-6.582176869839407
2.3715699652123505
-2.748870073876123
1.2082275097632713
-2.0804144212234776
0.04899623079586365
-5.326073852213415
5.882943954073945
7.922642164221181
-1.650933767408738
-9.23752736432706
-0.8212099133153412
6.815245186456544
1.8265284391760879
6.330700362878354
-8.860213417007362
-5.703283133758107
4.939283885520452
0.791510639400792
1.341349306974251
6.1544319905271445
1.8908464630089268
-0.17318215295857714
-0.5582026025150671
-5.479311569534868
9.519658332373941
1.8992272313806997
9.816706993404953
8.647875389793741
0.09430673020561042
-3.1062666505830574
3.631521912365922
7.849694643918182
-6.620111203629807
-1.0358590265374332
-2.0838787905237575
-9.83928670640878
7.7465461316298585
-7.340943445230256
5.127790820684938
-1.2491045236619531
-18.50139827221357
-3.047542179453331
-0.5806948141373455
11.886422272852357
5.58895440376767
0.06592860672343238
-4.9106323801853895
15.911937852044378
-4.304037078576925
-0.9919865776438935
9.797681858334043
5.2498927229242325
-6.33933330960818
-7.491881086721085
-1.8136425610559783
-8.464394785495115
-6.3451097200400595
0.9603651360538442
-1.9572384846455848
12.593657876724578
-2.2143968678588655
1.8667917910568321
10.225494924421684
-5.990447914833464
-7.032203212431339
-0.7054192929994302
4.292038291588093
-10.148010104048138
-2.0433577255782014
0.36835906017236664
3.1532125400077393
2.070286041976055
-10.125333954468168
2.746761136085044
-5.869258055751208
3.5151940584692603
-9.10934191387464
1.4832939996271692
3.3260884644978344
5.945756347162344
9.983826035524485
0.43037761838353417
0.06455448393891824
10.259863942763523
4.584765737271918
-2.319765794225758
-6.599879999474902
-1.7623810887397615
1.180317496257456
5.196989553867951
-0.5531613739165796
0.4640265860379607
-4.287297150793502
-0.7188685662124462
-9.824753056340486E8
-5.833994340599125E10
-4.171417752734092E7
-2.5859551547467193E8
1.0141122884693995E8
3.9121402301287346E7
-6.935057975980437E9
-1.7622830822968853E9
-5.04330152987054E8
2.187572105563864E8
5.330360246353418E7
0.05964913529182556
-0.20023456313357507
10.140857326788613
8.18325564568583
-9.833527185502863
-0.3199052862751353
9.175194322652366
-0.7256266416288271
-1.5502764188185765
-5.744587642444535
-7.847239312098421
-3.909471419607848
-1.3061215730310205
-59430.95076584819
-117706.16670860468
-114915.71564341382
14784.320829181683
-24580.689891951843
-837.9874807276894
109097.632826666
-47817.874761609826
200673.51079603596
-920797.0530862664
-163829.69306953868
-0.028571428638091572
8.639834806525236
-11.404718553257831
-8.82550757917334
0.024567328750175477
-8.596485788364175
-9.594174899912062
-4.111405668027377
-3.352596470205886
2.2036105797910537
10.969181056636538
-2.394326145535891
3.157538758335742
1.4649388772746643
-9.26138078309464
3.1081468311362137
3.58825244799219
7.29069107864479
-5.6920065735204615
-0.048009012684310674
-4.423276723287242
-2.2968696940208226
8.276598984458724
-1.4230293875974604
6.70116734072633
8.895574076518596
10.332123032698709
6.484505247857838
-1.3470709537595802
22.297231001220847
40.121457169166575
-0.2851923047539186
3.2080570276758666
6.964048234265644
-6.941548951361405
-8.573261611065496
0.12956743284898434
0.6966723293041643
-2.052805186553196
-3.6856884522697793
-5.239623335764386
-7.152538365973486
-9.773909228877415
2.3116577472174478
-2.3276440469124946
9.644118294933508
-1.5420604253344243
-0.5674914486699403
-0.11466208885462623
-30713.32751927329
-92665.76691595568
-2499.7481693859827
242.48728448728284
744.9740300390215
-187.30880835157538
115004.78760759858
-37054.60111302156
-9303.95895009812
-2089.0138429269314
-1332.5722234241462
0.02702656091880051
8.265898236406615
-17.66088267942664
1.3696639947799274
-10.72774426113688
-1.4639397563511618
-0.821574700107123
-8.443893340062282
-3.1349883339232494
5.097968272216933
7.054443283449829
-10.82961694715443
0.6771385269236545
0.5339007221148113
-8.08482695345592
-3.5197312005717136
5.501720965657552
3.848936363833174
-5.966253637970829
5.748174967728426
-6.231956546333634
1.1886214768533068
1.7665358139566825
-9.660463755322818
0.004797264721283889
-7.853840620269961
-14.269059483437097
-4.587581585547069
-0.981293463408415
5.738050943940314
-3.8342576891427913
4.530337324230437
-2.888615424266546
9.06895142388011
-1.693396858032604
-10.123568671240461
0.34757138011056776
-3.1595993149196877
-5.706740473197233
1.3685781672246056
-4.74514266233267
2.6480262748650714
-2.6397775800395227
9.83614975581781
9.980450857484367
1.9882596565626756
0.30169341023184737
6.749109284520279
-0.6209380643657668
-133.45533740775943
92.83225142124454
73.1417081893968
15.535920249304127
52.31255348606988
54.53012737092787
39.42525508683377
-14.320636144874307
-57.12990983753268
163.62000095105859
94.95934673193263
-0.2763683951274342
-52448.84873320385
22963.54527647924
22964.796839833372
-52.03976787956134
154.51746971302134
164.60066225949436
8034949.744952354
-7775821.082001441
1.0322914610470459E7
-2.027081482110312E7
-1.3644280569038965E7
-0.040000000017829954
0.4467692407735431
-4.622428156592899
-1.836159341134886
8.964750027104248
4.809675198942898
-10.104999431803845
-6.796756501042464
-6.971872812843608
5.557558630609508
-7.668501313000859
9.473472937294588
0.06993985136961114
449.2637922135049
-704.3481653924455
-301.92773252465565
268.6191016659512
-872.2475795306758
-654.6963609574082
121.13886794750017
75.60815129161777
214.57627100067975
-560.1421921283645
-266.97056167880663
-19592.72944712682
4.610968770184618
7.56729031362958
-2.235839097780782
3.865897625762717
-2.535839123133738
5.293208024704896
2.34972467638454
-20.015517580000928
3.3210844482477864
-8.73268551835083
-7.183925615398218
2.4607225288135735
-2.932721248713014
11.196790886303427
-2.956434413427657
-7.474508671187072
-9.195189566757813
9.923793285762127
-12.65397160616124
-5.206046575474313
8.417895145386355
-9.776753842903723
-2.555784533522762
-0.06309788770240145
0.9702840556666669
-1.274141640993029
-6.221929984814894
-0.855359263385878
6.995741205188343
-8.038570325000325
-2.116655798362297
8.446000010795075
-0.15128585057703092
1.5647204325389057
-1.5113530165245785
0.9187782022007699
-1.7504791547917935
6.262607180403701
-3.414258565412124
-2.8585290484421515
4.993496270060829
-3.908060120443395
-12.382566896536735
-4.922238678603267
-1.1093148575345058
-18.671225727813454
-5.0585796718518665
0.4734064627026626
3613.438325298839
3780.377918144675
1772.277691310038
1557.0783772295665
2176.9643193690945
378.0065767863044
724.3699616364247
515.755703692654
-786.5056365739723
-790.7511486551005
-31.84858076563585
-4.2214355907638375
4.5248972344603935
-6.877897196964294
-0.7413437909269851
5.736179652791943
-8.689662481414707
3.9751534824250725
-5.82712173289199
-2.49903159691103
1.3132482247645696
7.824265589246352
9.351766779704128
1.0914488086342147
8.784940990548332
-11.115816357477721
2.931150530447019
21.297608299986962
-39.45620981310576
-3.4281647418854506
-9.605551309535674
-10.721127706304374
-3.9903766661121742
1.649036862003818
1.3374410480533574
-0.5575417476862807
-7.735062045565002
-1.3925768423265192
5.897686192353952
9.786773548115962
-1.5481551232765514
5.0466790082459365
-35.0115430616673
-39.72396789736269
65.48870461949012
126.98175982868938
51.17540299045752
0.03260645143717424
-587.35115203797
316.87095833383137
326.8399828083184
960086.6941293253
2301388.263911184
2301384.7915855786
76.35854326529783
-781.7278193405818
217.30840790426623
1402.9971767640036
437.80342320218364
390.4683326445554
12.04600838084479
-91.31477887571202
-39.79285170623423
27.6640890916625
0.20586395705902905
-2.1812542209029555
-11.897010667580096
-40.81023890652179
2.1352407752265146
-35.973520404178124
-45.343270341411596
-0.14649257029378945
-406.0545700312296
409.18165259297234
372.74571935430765
-398.47515575489024
793.8004130487027
803.719406095881
2446.8035534291243
-1488.2876221651218
4045.964280441843
6879.003043514888
6862.801477079406
19325.778921241323
5.322524535994567
-6.277518782097297
-6.990807887148511
8.068362212136828
3.5905513446748287
4.65701387763422
3.7253779269693705
-7.0579830847446114
-2.4624038404509427
0.7756597795393161
3.2688403770913546
-0.21298026515115898
0.1862472794558479
-4.555046599729081
5.600122286031818
-0.15293526168322144
-5.029311140835748
-3.7641603959265018
2.9175618016957325
-4.087018513507908
-4.743123005383387
9.501697882384786
7.723340559371104
-0.2108260174392999
-1.1353630247304392
5.229559931317439
5.6337088273412155
6.369918623105156
-8.965891531934274
-5.864964132489025
-2.1633079127309807
4.9797045496096075
-8.426514298575125
7.375176474050539
-0.4471001960178229
0.2294491756623591
-262.624671229811
587.7648455369434
554.161233831635
-174.6298262104331
520.3092408098416
515.9576853240335
252.14683771093198
-511.6674447903896
5417528.026457723
5417574.217109093
3535862.1301486017
-26485.27374820477
2.8170799117074066
1.749456694075314
-14.53799405612354
-4.086241887548447
-2.3319222603616807
-3.578196928936567
-9.348525933674653
-7.393827608856131
-4.185747990015767
6.329848645884921
2.5025894615420956
1.2483330542663
225.05348800640127
-454.60554004816674
-434.09787083215105
30.28418664620633
-47.02929069735815
-36.65092652920645
114.34724506272681
35.59792646153857
-122684.3224986395
-230809.14839175856
-184529.9580801147
-5362.838519306526
11.661519226211263
-1.3886289231210078
11.641431474034269
8.778446845914663
7.212439772863874
-3.9061535264068845
18.136635265220654
-45.33684473604272
5.238323273111847
8.790740965526854
9.571563204441773
0.0103480561072507
-34.04321422657755
-87.00805116995892
-48.41673184344542
73.54968136000375
-3.336637378097945
11.796811125013198
-39.30156503082943
-214.78010957345182
13.4638023481525
-2.380947622826961
-11.236030424693967
-1.4474686639860008
-95.19755013021873
1803.5715816159725
891.4507146149373
2648725.86445655
2679540.3660029075
2684890.1508876598
1180.8808383785943
13575.973078032082
17240.652207675623
5315.94311673737
5694.347525602139
-4959.703164549522
4.707868362102818
-8.921702601900723
-3.905795228000885
-6.409576002753424
-7.905869225753701
5.130519324549101
-3.6417158467551007
-0.2157427989989348
-3.3924046055459653
7.698523699021974
-9.51254949020361
0.4935562161754688
2.6668223426243443
-7.176877809562944
2.7295129108888694
-0.8060462430673127
1.1523556928035064
14.310613668270925
-3.3628869630617726
6.371175248077822
-0.4833092379069646
1.2503000460941005
-1.8062158910600585
0.7221879665894819
-6.1785657549551045
9.567011766338677
-7.351667072938527
-4.410655018597154
-10.091991488765888
4.657945811905563
-3.6966951868724527
-0.7220234161522201
3.691187996025841
-0.6276554167391264
3.903076295624171
-0.012006018511903277
0.11098416147512481
-7.834999127031871
4.064375262268409
6.795052939281292
48.10326739429244
39.32781050516932
-8.675694235622214E-4
-4.56495788749779
13.151997205727877
16.68725480470126
8.231552858565735
-6.196826282687541
3.0571755991193714
-8.6636840279961
1.6265261866881213
-6.960870633758354
6.353200532194746
-8.760517806639127
-8.965829639765689
-6.785816345883748
-3.6810348989831354
3.386071139852156
-2.6025666552624984
0.0733574726202957
4.8958968559151534
10.37784910438063
-6.503463669763459
-4.478855295615883
13.216927447447668
4.502447315330178
10.109793270096079
8.622294793216916
-1.7633128517199508
-7.950594550367739
-6.921650624144981
-0.9049520918046731
3.863403284524608
-3.370650601466276
1.4854598917091844
-3.5584234068554643
2.9262976076286202
2.78688571118575
-6.3734470126043545
-13.826860429719709
6.893993027839935
9.7696176272697
10.215063867053573
-0.05703820548868408
-3.485394004318343
-5.920103307863834
-8.193393770342166
-5.392477849327185
0.9762227061652358
-2.053178244790348
0.2384520916499854
-5.5107424453604965
7.420001784121182
-2.7950067875345854
0.044335472739995475
-3.1384608329684305
-14.712600123518374
13.792289693660056
-3.6008696812879557
-10.984641541091998
-19.67382039872669
-9.022409932752849
-29.03132461265576
-25.87673348984807
59.74199859496799
-126.98144808379269
-22.910871371291588
-0.10612810898323084
-2.0535640477598625
1.2085375596604055
-7.23264998674975
-1.5170771593946086
7.245895573550983
0.8006577183681453
0.020048714203213417
-7.8172571685386645
1.5315069450373022
9.16813113214811
8.426567741378852
-7.451036555096785
248.2371472273684
-111.93207340273871
-106.79123007761004
64.85535350957822
234.2081330763234
229.92108284166267
1222.8472859978035
65.84799367511822
141.7102962625626
1.9759807700367351
-10.380837435436804
-0.006707452164368328
0.04791360762781592
2.361232408502736
0.7448854002370487
-4.094879675133475
3.89749766503586
-10.11786016454818
-7.891581856294107
2.6229572728319286
-1.1948148071945808
-6.583345184251622
-0.7797492005716211
0.2891550973507905
-385255.959572457
-1366794.4455271028
-1366806.9971288913
-13.083044597671641
-20.54424912076256
-5.239590387072977
1077.0003619607076
-359.23717085693545
433.1768972497129
-500.225403914507
-113.86179010752417
-0.02068965517237622
-49.2734923111463
-42.09182775184974
-12.78766608050102
25.696704965032797
-7.781744088048476
-8.00001392808613
-142.05460295188252
40.15986211202673
-26.270618502326634
-44.68372924897517
-10.543864629258808
0.01898945365502178
2.152029045385415
-0.7395992001262054
-4.462037624266143
-2.6118310806721894
-2.973107479526249
1.261146545017475
-4.967574151858049
-3.0479189439064616
7.146895978316825
8.145484135566514
2.242142656706818
0.5372083453161763
12.498387466927815
6.911383804119212
15.135378020219598
-5.747423234856155
0.4738231394033214
-4.2079438111986605
-3.8286356511610857
-2.3756961679866695
8.830515313009645
11.71619228568971
-1.8479415709171425
2.882601368767632
5.748096683780769
-0.17872605116597112
12.419613825125317
2.489813079375896
-8.745651934278174
9.735624750402138
1.776158436961711
2.842005028131899
1.6885023960522094
-5.771549464749607
-5.839640566273758
-1.829157333415156
-15755.120761646938
-32005.696878317016
-13438.540481160806
-467.04446961727655
-1008.3501943469688
-484.6684061891929
-6500.8858858063595
-4768.740333555337
-10568.877615432022
-21502.460415749152
-9478.960079172663
19646.232105995034
5.580595353483933
-6.8053451615902825
-4.998792727442246
-9.224238781832499
-2.655332501943203
-6.121292090694488
-10.558746250037577
7.211813257461481
-5.056102443235406
2.758340139239392
-8.88337819800409
1.585030383769339
1.4749130989576196
-7.522035163352861
1.0089781599705043
-4.1065488824384095
2.5256338201792645
-2.968246107016128
-0.7948974387299595
-2.6958312204728943
-4.238450829546688
6.040437765642292
9.878894911704712
0.30584023091668117
-1.0241880309721278
-9.598222386275685
4.186113654640535
-1.6351283710098086
1.507422147177872
-1.7494436557340456
9.966881752525413
1.2676040635362305
-4.952330340407179
8.817201646826701
-3.1912971347899677
0.13710665139806602
1823.5062202987547
447.4585063349032
-508.5399145834868
-3485.301293995683
-1435.8589044198666
-241.5219887469566
842.3589324387308
-1902.612380308895
-68.77040115265632
8.967358824678124
84.67561862472112
-0.04024196394428863
0.20463821253181078
7.627880083031971
2.694936173478665
-8.740412032200334
-6.4201923368798735
-3.6168373971078847
-1.7438060539304505
4.846195461705625
-4.212946903718162
-2.6612628701049883
7.634087661317263
0.22080546792671407
-27466.96686874629
-130119.62440569681
7588.884573998912
1280.9265649764495
6091.975450307479
110.0747161816176
94.57872060227395
59207.03879066756
-128748.54801501826
-436957.28916183684
-241777.55324860808
-0.002247191011235969
6568549.518981176
9649874.37991133
5031867.149529801
-3.352788935721472E9
8.573946885686798E9
2018548.1192429902
-4.7865333844967165E9
2.3328277086071648E7
4.880251106990753E7
-5.7966824842037424E7
622892.0864450093
0.04000000000240274
-5.460157783324883
9.548654236570046
10.748993325341205
7.137119929534695
1.874779654902052
6.267753006756616
-2.11543547403921
-0.7780441435757292
7.884103865733963
1.438834367687604
-0.8130697558609226
0.4380960632620928
2.0297325576855796
-1.9951593804874157
-4.352417609060316
-8.962322124536378
-0.9884977019802969
2.3273532257797984
4.418508400927138
-27.98484342874588
8.945024829341891
-2.7739036712439344
-7.3500585467515505
-0.10163225161377092
-0.6125768473613495
-9.703872454333467
4.491872359922446
-1.7317759316694499
-8.014689817279846
6.936984957238927
4.0675232103076935
-8.313464447724986
4.94602511639313
10.328952639252682
3.2832591302391236
-0.29513934697569666
-19.794816295844583
-5.424214585134234
-5.025389924607316
-5.0410649577012
-1.0234620328653976
3.6514587284168916
-282.7601246440917
-136.37244067013143
5.354015338421572
-9.407310990158587
5.975656565065051
6.620811945759323
3.767702657962868
11.906513783364128
4.713119605055904
-6.8227613974016315
-0.6626993011457932
7.402900204933696
6.950277956597482
-2.3757505349930437
5.171616115666342
-9.105623632270078
1.214744238965179
0.20814064479280425
277035.7602586922
4452833.56026851
4772894.646504937
-31010.32010993194
57861.10396488415
5503.597782748787
1.0197374525257569E7
-1.62196116920677E7
5935146.507444494
-5332705.672771739
-872408.8019903991
-0.19907746400149984
-1.4402549675035612
-5.427481891698064
-8.839881231990946
-0.18371997742737878
-3.5417133045726765
-4.080773677121004
1.2562146217225483
9.664279835347134
4.397146197766127
5.802844947021395
-8.494391477453224
0.01763102696345475
0.47122615699298065
8.152550390502356
11.117404454948902
28.602406224554542
-41.24202380993163
-39.47682377341985
-33.86941558196649
-3.7269056315966975
2.712479017682791
-2.543860430586881
2.3609944434429937
0.22658864640225068
0.0625489142987904
-2.329282328285515
-5.5216495378380825
0.8034996710186934
-0.30071284497420614
3.1887487334759075
9.36386313635542
8.000100850290151
7.88550698871832
-2.8318358946158857
1.5784551864889584
-0.23553322433248
7.532837658439053
2.218365884779159
3.6356332588328204
1.7197766683955618
6.4378329381079356
0.18040411511354576
5.098252782695196
-0.7645468074609938
-0.18891236356549398
-1.1155022156980416
-3.7580282857124994
1.3921072383468147
1.3360697288495773
5.01150022269671
-8.313623299139186
-4.689931656683179
9.156142189191195
-7.0234306414485355
-7.289400316256334
-9.13749951437154
-8.358236416826468
4.3843518527936185
-7.822537774258244
0.04264845191748137
157076.77657644227
-179705.5892744437
-66538.28590500791
-11414.07987401812
511.3013579935988
924.5760155616595
912807.3886495623
49815.87065389425
62622.220944174784
-258500.97870194932
-78698.50713670219
-2.772842671909955
-11.532143180064185
16.721705750350473
28.168312404752946
-8.352817500954759
10.459085953782147
-1.7327083880179401
-8.677421965897555
3.9473390597445337
7.639968465649588
-15.03154867779333
4.096688736293645
0.9925669524492938
1.1688238994847067
-2.2010712456824946
6.948336392171519
-4.228569703250262
0.08044687225360007
-4.248895754604728
-4.036196558698495
-7.412234776581742
-4.2298045376923055
-9.667575937619263
-3.9860408740843494
0.07542841819131052
-0.1843206184309918
8.499997862596306
-3.952099477799901
4.166749022098767
-5.880186626242625
2.044595051374218
-3.395115526008226
9.314490612896538
8.011549659709553
8.3988749259852
3.828349102928587
0.006288507086939907
116.348890922011
-4.39298542523863
10.655230326892964
-45.563230550763116
36.68551252428501
-5.909557559638859
-2.9798047183210237
-61.9087566079748
-9.30574802439446
127.24473526780544
23.60157591380566
-10.75492996705286
-553.8602023760718
-4042.510452906035
-4029.065665828055
16464.539187792903
-60.48709220538112
-71.04728096714321
29.84082884871461
-400.46547290447285
412.9060172572217
-1058.5322611911965
-485.1012934763903
0.06602201659827295
0.8709069689860082
-3.47259429621867
6.097146967956513
-4.466366509490461
6.123494921455337
3.9192138173966544
3.9024609182397936
4.155254769858563
-5.348331435846978
0.22742400446011266
-8.114974740579358
-0.683891189803105
1.0552119487229228
8.698506669916942
-10.315326637760165
4.82568912478958
-0.3819350816362397
8.37800755240483
1.6691565262620456
-5.311011347637875
8.292091179753923
-4.896435213962347
6.790522123852818
0.16058307481519177
0.9151124557247463
1.3967370385822526
5.683371353197558
8.475220457403177
0.8421624485731505
-6.7497749086024825
-8.12135708057868
6.92236045824003
1.4135063053217523
1.1253831963751195
-4.095957201380512
0.317497994277279
2.1579794538676955
2.303686965017427
-9.177257193345993
-2.349652236454233
2.296131644635658
-1.3356280534382692
-0.4201715949281234
-8.950682950044872
6.137468907018668
1.2998212610258983
-6.537146817338868
-0.008989670289315776
0.9992696062143194
-8.121429607684757
7.988844672083835
-3.2329652351950795
-5.398121737237003
3.3378237789565364
-1.2152075535550311E-4
-6.797441021095504
-4.255621634250002
-4.964989197915197
8.92816897304675
-9.992896931974064
1.9021210922829594
1.928672908423467
-4.99439219232467
6.177371068725501
-5.5715760334546465
-9.908995419453301
-5.600573225818927
9.296762987189009
2.9178378373107487
4.724956798957481
7.314030291865481
0.5530696522750227
1.5612452308199014
7.331118744207044
-3.82247343313473
6.465321532626709
-2.783600727299422
-6.360985334807404
-4.121005678909311
6.8346936642564105
-5.152491278725687
-2.3533272695482124
4.115429365787911
0.3740719117554628
14.256854798546817
-19.69831858075141
-7.398325517768091
1.1249339455179617
-6.272171876696512
-2.439424841201789
1.2746668112177961
-20.80978828331395
13.550114875975733
-5.246239770880025
-2.5123073805387404
-0.21017422338983685
-6.896262582625626
1.4531992969675813
-5.9741894489187715
-5.551389591671116
9.394101870428514
1.7500891064565232
9.213956652883603
-0.33268326718609176
6.097957049652595
-2.642786126503467
0.7663076098658556
-0.0019125077061248913
2.9500504644360843
-2.380261596362858
-10.346485879737266
7.42778403033839
-1.5359681102250808
1.2913155576972855
-8.387664768978988
-2.7151742031357244
1.5177773932910992
9.518692521445528
8.00238478670408
0.9132394872908592
785.5240840671406
-595.785384395085
-487.07765197535946
-1081.0622008705768
-448.4689938921076
-5.690895190805312
-25.66414831030507
-217.85485034302124
125.48706573387632
8922.40699202477
3860.0541747709453
-306.1869583235498
-26.935443070955213
15.332746017144567
6.237825704754628
-14.546108296839487
-3.2669140186151555
-1.301755769644051
-5.093792086886015
-7.714056471487655
-5.191609360098572
-6.574132149280397
4.742069382946625
0.9646271774339702
1.0540533971704125
-6.431194391920868
0.4675204042842734
-6.494119204435454
10.162092843803372
0.1282103320700364
-0.6670536832372077
3.289153947482923
-4.631860198541485
-8.70109940240649
-4.764345609005941
0.006589723516468247
-3.136216933219189
-7.220044053772606
4.784704894417391
5.463544513344337
10.05886038076474
16.463434848529023
0.05426823950943664
-3.1189700397795352
9.829231330971556
-5.234567914588263
-0.11579516097955785
-5.597124296106586
-2693.0298119194613
171.94900440890402
-291.81915635406165
159.22937704114395
229.36673393011253
78.994576471335
-2107.6605751199722
1019.850333264667
-1387.7548593337322
-12945.57764349843
-2406.4049885757563
-911.9339765811287
2.768729630413426
7.992934745003263
-5.000704098232047
-3.743325207013491
-1.1575144133714277
9.874048335925767
2.7915720739724446
-6.671139534601452
-3.7887958018803705
-8.034789589777915
-7.6875156828641575
-0.026819026414682697
0.18278606762725938
-8.502695818277594
3.358029970022604
-2.853745145891817
11.367141864896423
4.319521194063189
7.809438356379265
6.697239337545436
9.582165182549907
-2.742356709920048
-6.531893479077508
-0.023618016115699227
0.9565765498550566
4.034388114129561
-5.533312878089831
5.751159297084733
-0.42937035808213186
8.455709339221707
6.347065072746651
8.85274283932905
10.076369890331359
-8.185701563182128
6.0559978286426706
0.03552615638258785
4.16107880369371
18.03328795172986
-0.9646040129341983
3.714560913458411
-1.6857379514756154
3.395738067364551
6.772600684747419
-4.1316590293351565
6.074341019150322
-3.554221617071235
-0.5972185953925689
-0.07202260330524345
-4.667652159125397
6.834812805418942
13.602268031725595
-6.208671437681523
-7.957644363022556
0.6952647591113409
-3.4588695673751615
3.9903792351041063
7.602200152646259
-8.084289499588952
-4.1148066150292335
0.17975854135141234
9.012457918274228
21.39427373772999
10.734551891316004
6.790653364371772
-1.471709054880443
6.385040117976383
10.012867631332867
-1.3915906393186324
5.1675749883513395
-18.71881723020914
-3.2996496428848165
0.22193105498267376
0.8701019184059217
3.8472286087217693
8.093187050927392
7.003043370403112
5.368367243265624
-1.5406532490565044
-0.0892890867011778
1.5864451575643588
-2.4853724132682107
-2.796133631124626
-8.868819841358
2.6784504925787527
0.6165176300820407
-1.044693086393959
7.151191679723431
4.84778776317233
8.268871099514925
-3.7066810742023417
-0.020539151060450442
-5.17543868570159
-0.14669069000390644
-4.987160566619541
-9.131715201481045
4.398564249083224
2450.864693229593
4333.552349451959
37.8928015029647
852.0975946148953
1933.649699443404
1942.930895116801
34423.46572717553
13887.009899908744
9899.457180633408
-8705.048407004271
-2131.095134327364
-1.287637278858942
1.633877280740702
-3.992595891092023
5.929061216614879
3.768235360556002
8.45963947979657
-6.491973643256592
-0.039274873330583826
-4.187315121958877
-5.187801019241826
8.581508665646709
7.577470468228477
5.7806566280126805
8.00480522683138
-1.74040131468756
-13.186897345966958
0.611574158935603
4.087179754017331
4.260048857138939
-6.41660620104491
-1.7730238042194204
-7.014156084579915
8.9175880429383
-3.088108794742123
-0.639660620893077
25.991581800105315
32.28053959092574
35.83851986709757
4.191262640006656
-7.321995634867344
-0.42311735699740327
8.496031991314712
-49.195794226193684
-9.708933983251955
-38.241966688876325
-8.558979913453449
-26.059713950329865
245.8733173943285
323.6967830351024
233.79170351584077
-44.02373737827499
19.300673879029034
21.127490544334876
-158.5574318880154
-56796.56955610359
52.92384767937563
137.54558307471666
81.64226135784922
2903.3211080178803
13.259140039240883
5.869992769077823
-2.266442847473143
10.286653251504994
2.3277451586111155
3.831206692137223
-148.48737290473676
13.247923922887386
28.660096422076677
-12.611642799830303
2.290410690298037
0.014280469900971187
19.351413806350198
-38.15437482887848
-12.849478568407198
2.6145785825866303
4.255531281316887
4.052265784293338
-0.6681760576162525
-11.890981471268889
20.483471975008204
-27.023193863269515
-10.662109436478255
-0.8801673892333559
0.7794284354785261
1.142978930499781
5.140748128820258
-5.415416337301631
-6.799589317788359
-3.5755825903844443
-3.2173155909734126
-6.490757503218947
1.3502273960471207
-9.915774353982629
-2.0658954609707085
0.005623508967523194
2.377571116248196
1.635383447882264
-9.208318085701423
5.108979569094314
5.111592348536048
9.141980704065558
6.356737131192584
-8.132631406053813
8.282569686615572
1.1030750867418002
0.4905647425267635
-0.11819588122426425
9.877115217347326
2.268020307920746
1.4103593360801114
16.705540015609404
10.191040239217308
-1.4114476738237427
216.32173504394675
-73.7592483669063
100.65229226533245
104.02190614281096
63.18970728798293
-0.022164446798679707
2.4431272760939104
-7.6466241103348125
3.6265437387884507
-7.09304991732646
-1.054021026521095
12.099398411192293
8.751982011439631
7.926424381680668
5.904394945499926
-6.650707346374247
-1.3789624415304147
-0.23070461530795455
-55.97306760637858
42.933239050709176
20.868414593705026
-4.152941068023064
14.392712533028265
12.718183986024258
-84.76749010497903
-37.31878949341946
-30.852099742005404
40.45156273790682
21.191466280423754
0.02859792091668512
0.6305974448224343
-1.8394773731975471
-1.787430736384996
-8.462435389860337
-8.789162729960601
9.915257962738474
-7.28887279290015
-2.7577544839841526
0.3812619660289704
-0.2556313503772831
-7.9530724137675834
0.008563242960636422
3.117232199702679
-6.659268498342524
-9.209806234713886
3.0268502513745763
9.167975937056976
-1.4061799933270391
4.709414834251766
-3.0083799606444437
0.6295636034523553
-5.126017404906048
1.0558947853301495
-0.20718066700444412
1.0761827707098466
3.4761401439391104
4.5575626439917185
8.238044197663589
-11.843523349851957
-0.030023920667059296
-7.479123799304378
6.721142422238522
-2.9298610758500754
3.5058417878084644
-6.6458757303764795
-0.16435899093907447
-44.53001363519123
85.7484078463995
82.92485616328779
14.996162767150787
-4.882297707790093
2.313865173244049
-31.20933088080835
-71.0944770128048
9.075736718758336
-2.2027730311637286
9.073657324489746
0.016836465063052846
-0.9674536313025455
-10.325104270490826
7.48839452430336
-3.2569216438866073
2.7421817039939436
-9.051057884469966
0.09168108008094934
2.3915096010608847
0.7279838887476682
6.024285451598712
-3.3071686612497793
-5.464120488749036
7.350877851906645
1.4359900644021597
10.046583359846961
16.031686222664888
-17.678536261822355
-4.392968913458603
1.5491954506371932
-9.142823292920726
-3.751522802949513
-7.567750848483405
-0.9961493618157763
2.212886488736877
0.9623183199356999
4.255485130217539
-11.851202975324759
7.334234217486616
