0.0
0.9864403716990322
-0.5134068315666998
0.7630907437827263
0.04246941956929007
0.07881563598996522
0.7346423275088128
0.28972910270855134
-0.7178290505035538
0.8152807642389648
-0.7043819456564508
-0.45158332023905334
0.0
0.18777951101328405
0.39027279101636303
0.5229195418668551
0.7596205284691646
-0.15560577773593987
-0.997386519702921
-0.8401130197267976
-0.15475495411714024
-0.524527824092851
0.44185369609515446
0.9494257220551863
0.0
-0.28807885324308646
0.05138363272774016
0.8653950758864659
0.84009337072894
0.33748864259247013
-0.8049989201815433
-0.442676635955062
0.6289978569063077
-0.8484672914940667
0.22394671656739962
-0.07309110778411454
0.0
0.41441582825425716
0.20680362572464528
-0.02347608397906087
0.8742170549222448
0.19949094590282934
0.003424244111814634
-0.9882036541715538
-0.8377117336985527
0.05764909299907939
-0.3588569005353097
-0.8948289755493395
0.0
-0.9980687427826318
0.05969754262360838
-0.933075498325509
-0.008625082366735093
-0.02451918412575238
-0.007999084874367846
-0.3301918761636722
-0.7120130507092082
0.9251648456048833
0.6885354004691819
-0.08544025190403914
0.0
-0.5125241391797812
-0.7592362735569014
0.053271221353062836
-0.3438893957930107
0.48323960337043514
0.2607175817918763
-0.6066613157870755
-0.2335177788152123
-0.8451117873423966
-0.7724481223660189
0.37174715077975584
0.0
-0.003274320794485419
0.23897061451355395
-0.7805190743263533
0.971435205738816
0.25286576020968
-0.8485145197298614
-0.08943786194520653
-0.24264746452499808
-0.07088936182663086
-0.9946386284891855
0.04725730728775979
0.0
0.3623994445691663
0.5938691730758288
0.17154599077206223
0.19254164541850982
-0.011736676685155434
-0.6830107628239177
0.5597274009643489
-0.7881266612004947
0.49732874415376194
0.8727321912263624
0.8579971319947459
0.0
-0.11791286410819746
-0.38270804431749283
-0.5567920017786465
-0.894047285268667
-0.07836291584199873
-0.162840348303386
-0.13691345328329474
0.3559844728755561
-0.07916556641881001
0.17893971459315616
-0.6105562698618499
0.0
0.2365876803362179
-0.6351070414611388
0.12182304095197316
0.7458254022483384
-0.4223209002760906
-0.8579847804279435
0.33632459496263833
0.9475266990766953
-0.608565913598544
-0.42294247415270414
0.35356400059543014
0.0
0.310567693357382
0.2624980149317162
0.376551080671105
-0.4172251214272398
0.14197508832475325
0.4707027937331343
-0.05945951399587357
-0.3102386387538343
-0.8727687901018251
-0.8708541957389961
0.09467577645303993
0.0
0.3769945421677747
0.8624175352756169
0.17835396786455937
-0.035752497110354
-0.41296524013632885
-0.6966643175136604
-0.27503730607137045
0.7679279138218262
-0.7126632063755041
0.223979171885903
0.4463438128103563
0.0
0.6576867373976707
-0.29345465145890026
-0.8594284607021021
-0.399089385160053
-0.3351744357351565
0.35417129134262804
0.6214247335071439
-0.45939243770854166
-0.01476389049395399
0.2993836586123628
0.9832984446267539
0.0
0.7954836860908321
-0.6796755921427053
0.3125904607353365
0.5347099609712804
0.3414600814467612
-0.9888674777417998
0.22377628526304116
-0.34728380393607927
-0.17130929662207528
0.35823250076227087
0.13934809444604523
0.0
-0.12256488368300689
0.026850012862124517
0.6874824452498993
-0.7470459218181971
-0.9521144737395961
-0.29353165318213237
0.1927384933074041
-0.07078664542199742
-0.34658755520729767
0.916764995827478
-0.28270631887199715
0.0
-0.30224402018184104
-0.6201168441436931
-0.7948978184059186
-0.7494449027039147
-0.9323358970162392
-0.04142193387342297
0.24725673625326916
0.803314199997605
-0.4222755678764476
0.21485961410474141
-0.7021457834861486
0.0
-0.7110727362674865
-0.9463762505394293
-0.6779065590178821
-0.12821997163684085
-0.7258736473414318
-0.05123748938138584
-0.8454166513309769
-0.5070990089736487
-0.6841057263309169
-0.06173852522256196
-0.52933610909211
0.0
0.19524884275054166
0.4077436952896334
0.9685921084681786
0.6666153768262841
0.4327290150148244
0.19709657704573313
-0.028425365071016007
-0.8625109573689165
-0.1698655981007744
-0.9946703118446651
-0.44265727954071
0.0
0.1679956661382045
0.06575688676476044
-0.2908826265247937
0.7701944510101424
-0.5255283344060648
0.9322801807124665
0.09466089567063096
0.45326235826528727
-0.20672909250142402
-0.40692662865683293
0.5861055064258653
0.0
0.5175611582315207
-0.1918807009110537
-0.11780682952606014
-0.24040279043425983
-0.6366582956069404
0.03907774103225914
0.4350970545892179
-0.6697359083378309
0.481755790526053
0.6883438382181997
-0.20992541706064327
0.0
0.11014052607323066
0.415622690064269
0.8913586987829483
0.4153156958468889
0.6876984893599474
0.7733466137956606
0.08854979764787041
0.9318195540611611
0.1029748057989408
-0.9652739574225067
-0.46468845675128434
0.0
-0.99391520199329
0.7575471969300658
0.49138254505493495
0.2686086628855233
-0.8234907147589461
-0.04005993722003187
-0.5334105026962792
0.6778892027835293
0.7305712445940433
0.018347813521437883
0.03761617134240436
0.0
0.4161655895704064
0.6117147541936057
0.5123572089795556
0.6426041768803421
-0.862606032606597
0.10965304224659489
-0.5106159584130234
0.9181104574375418
0.5035957286867094
-0.12237154604574174
-0.13170413914274737
0.0
-0.4440993634210564
-0.1732131388763749
-0.02471088308100966
0.17973435240541602
-0.5615242833554412
-0.9630348092069831
-0.22674784174710716
-0.07337565124472478
-0.3003350387994346
0.7121234556783849
0.8115210565022002
0.0
0.6055597842693068
0.744770706811428
-0.9728031969419575
0.28267110922171357
0.13961324173917644
-0.9354223211423676
0.8974285306774255
-0.06925440159001561
0.17943554682262897
-0.3319120090827037
-0.8792267708836965
0.0
0.7784537117206649
-0.47056838087500963
-0.4325930916573999
0.6861101776506011
-0.2542038273487002
-0.7748247086690974
0.447717690668459
-0.19122825772277618
0.6549074351680837
0.18683190340366318
-0.41459887936724726
0.0
0.7615041914816743
-0.4695419173319202
-0.7425220943880857
0.736343082879257
0.4228682874057139
-0.6219634155851888
0.2522254812151694
-0.18672885392057248
0.4802632666878621
0.8952723811244048
0.3732131886267902
0.0
0.8672350579318422
0.13024799863059155
-0.3913376675074651
-0.9338920216493212
0.054540100663642344
0.021245219984380892
0.20306817856173898
0.5962566411930605
0.7895628331891966
0.8694262513698496
-0.5024208617794341
0.0
0.656544420300327
-0.09972318474389552
0.732622155284542
0.9981422747425219
0.21738742284324464
-0.4640140008101823
-0.8937051396074764
0.410052975904019
0.38891173747577734
0.655543766278381
0.2765923710016709
0.0
-0.13131990819158923
-0.5219837075591327
0.6396070696739222
-0.9442276041304478
-0.35268810000901185
0.42425649601077753
-0.9178588141100421
-0.7443681075251722
0.19323220972626998
-0.6989600051081057
-0.3007633550092328
0.0
-0.8160827871831677
0.09322765401931865
0.40572658703123454
0.938968927803582
0.009762183219169218
-0.35255034063949253
-0.1580328218322098
-0.104177369119272
0.6561148165387216
0.6544711846452314
-0.1758752204066658
0.0
0.0829626954942182
-0.24973807608750942
0.7722445833702463
-0.1860315358133091
-0.5493237428062416
0.5821422956741238
-0.29675467671159117
0.5514016693566803
-0.32361416997765646
-0.49693124268517463
0.2806038769936521
0.0
-0.9015252604234514
-0.660299903640293
-0.7846262081195243
0.1074165221926584
0.8642414138731813
-0.03936328088657204
0.784839546441066
-0.11451314350276132
-0.7214280487297171
0.8356469848488983
0.22764002583253262
0.0
0.37543365402079787
0.6876855430744977
0.19806837354940443
-0.6338780149778935
0.7384714749871131
0.5323693901568551
0.6647104873722784
-0.9393084922319899
-0.13021039282762215
0.5772191274032881
-0.10922400139235822
0.0
-0.5439125066631036
0.3409116696280792
0.8721370083199738
-0.7824490571588336
0.33060848964382106
-0.5195349803941924
-0.2190554588620659
-0.856913287132056
-0.05810807350658376
-0.2950644668512594
-0.7435749411874018
0.0
-0.5867554161592496
-0.15228367891925432
0.031072123865981682
0.085429574080095
0.9173242145456784
-0.10365384103755027
-0.3985204158933029
0.3569748786150697
-0.5833857482075357
-0.47635727287111584
-0.915671256510709
0.0
0.39290919512043043
-0.13915780647830278
0.48436048000321397
-0.30502838841143376
-0.16375949132471135
-0.6002106343485882
-0.5887280117893108
-0.913180974799471
0.6261892725574576
0.5870176131759448
-0.2389663363434913
0.0
0.6020215344700262
0.6164383362565635
0.7183987451395806
0.5033407188438561
-0.9672369203919549
0.09984208337992562
0.2328347135982458
-0.4104973457333905
-0.5824142588082766
-0.9761131543928872
0.35963063928065475
0.0
-0.9750926332979879
0.7506963898661416
0.39819128200401743
-0.966119665545863
-0.49282789222294343
-0.07634870355848022
-0.2198373062682133
-0.3969452797036277
-0.3985947534253871
-0.09864326501242604
0.3287631954398418
0.0
0.91218843505774
-0.6942978215118387
0.7912709171616839
0.5524550518977158
-0.6318736650538754
0.8527979059725188
-0.6389598643573644
-0.3619263025799335
0.9173714926499295
0.8004473021080838
0.9711578271071788
0.0
-0.8334208009081157
0.43739317519448595
-0.5099213012522084
0.9891550879243678
-0.21289080855144094
-0.4962296752548814
0.9053199155937313
-0.9659453819317763
0.783827989159269
0.7928634407420134
0.052963448300112015
0.0
0.5714582641081922
-0.15983251595477577
-0.16367480569735693
0.10709155917857349
-0.2921915569549802
-0.29589130008094133
-0.8414753483944446
0.6645616050362766
0.007633646176425479
-0.7435227412087813
0.5697793521206396
0.0
0.22190766074037538
-0.6521774360292305
0.033669939789802816
-0.06838758278336465
-0.5654086618209075
-0.024845968393840456
-0.44432343437178834
-0.7297737856743747
0.9868633900614716
-0.6540813159896224
0.5702298903872516
0.0
-0.18979273423302567
-0.3009201640092072
0.968114596053774
-0.9209527945932547
0.4272354603644972
0.8680690335259986
-0.2453887414823186
0.03273896630023798
0.5905335450676907
-0.9538083364122514
0.8227527926503018
0.0
0.272743141366002
-0.4840697038331261
-0.9336502385189074
-0.6292939213601298
-0.04257815192495418
0.648616626827315
0.4182954736130604
-0.5321683923251403
0.17091398299829352
0.5713702700995364
0.8078294726341175
0.0
-0.25569904493939166
-0.14157516208332765
0.7808945080035441
0.9270378359378064
0.3902886884774355
0.5536657476777271
-0.8640292196041117
-0.5332168506666517
0.7283701575736985
-0.7838130869950426
-0.7753727107142079
0.0
-0.004340291470438906
-0.47337302191037933
0.48553547973821165
-0.15304185878063725
-0.6967127868246603
-0.8609952136589201
0.8864260152408159
-0.05866217113733474
0.971186476508932
0.4096273344904291
0.762942920469563
0.0
0.10027186397241805
-0.7458839382558671
-0.45662571684778075
0.13779514418125705
0.033393294329052026
0.013427964373240897
0.40130850161914133
0.26781353563491717
0.4991255848421392
-0.35932756183093195
-0.5080701586936582
0.0
-0.9711503843708162
-0.31564916383447694
-0.1656286083069065
-0.970826192126176
0.8771266620407392
0.7913881399253508
-0.7783261585277756
-0.3772014748369854
-0.9067375550162422
0.7162446626360499
-0.09558572913083085
0.0
0.8312589565439328
0.7848981577179579
-0.2774321470615886
0.6334752748354435
-0.4962135180016283
0.039049379223078606
0.762467669218085
-0.6242442032627065
-0.48937957670389287
-0.7080594498081794
0.7374158331917178
0.0
0.632459302996198
0.9610490313836808
-0.8835955759155607
0.7121863551242751
-0.29157612832096635
0.17644614170275097
0.953693158947803
0.07868331941177642
-0.5988597994296536
-0.45870489023881955
-0.3674334604398686
0.0
-0.1935775024761961
0.2902100034415416
-0.339000882702005
-0.5112727763517153
0.3705952792326448
0.7861256797966198
0.9580223399072063
0.06182379398577842
0.4719515626223356
0.30809696407105913
0.18454726636681995
0.0
0.25590706178049305
0.31423843800861717
-0.7142058414626435
-0.8344767999887577
-0.581896867043922
0.14359853236259612
0.9352387702847156
-0.9836952335807101
0.6302181624878453
0.7299817112689453
-0.02277290564073242
0.0
0.5944839280549157
-0.9307013918453211
0.6304589338207465
0.39511727688883114
0.343254105573193
-0.13511819188144192
-0.8747338638898923
0.3288298189875516
0.06306279429250883
0.10269696013676843
-0.3553720808088412
0.0
-0.21314713781970673
0.8638264240217097
-0.5401672918356055
-0.6408159393535207
0.541695600889748
-0.6968337330863585
0.36726176195227533
-0.19617986597176484
-0.6592657700875464
-0.9236542376780597
-0.49621495970595353
0.0
0.9548696026080197
0.7867457797726678
-0.4203566778283607
0.1922243017470795
0.3128306734398951
-0.5372994044334045
-0.38254201976694135
0.8805638629935442
-0.6425346487106387
-0.8358436157776581
0.16330252481388174
0.0
0.3588403460650198
0.07540661811965932
0.24072604348177817
-0.5303821946167915
0.41451422668829085
0.036668423349712986
0.6710043050760222
-0.6036588236986045
-0.12276135882626815
0.5565286566871648
0.6860234429019849
0.0
-0.5737992693619629
-0.46311097951017444
0.14616958070976693
0.08314327204845506
0.52881314679106
-0.28157480130500634
-0.3362177205711383
-0.5446170821691463
-0.8905855247590599
0.660812198362986
0.5689977056213664
0.0
0.3504091274310168
0.8255872854466084
0.4160143859476779
0.24056658959488586
-0.34157602700160306
0.5966125202806021
-0.46307945172997855
0.25001008191059393
-0.6577994885321821
0.5731458900417461
0.002184658428124431
0.0
0.968902444383271
-0.26387867269134424
0.7772238207080602
-0.6330517125774915
-0.31796100868260124
0.6297885764225895
-0.8097627774514897
0.2685477410535053
0.36870230770963675
-0.1848388892444628
0.9790721439463663
0.0
0.06320886684226568
0.510009952265376
0.14969308519015634
-0.1817816259213949
-0.7140409264240184
-0.7149556827828747
-0.735586607846251
0.08801919578634787
-0.032602570368669204
0.30546885857928885
0.8278234267392199
0.0
0.10649344926031645
0.1123716677458022
-0.22644158476722986
-0.8715049791956693
0.9966680226318407
0.34891693935387735
-0.2481520622230713
0.9998257355226532
-0.9531793045777293
-0.8924525745389524
-0.9411357318165119
0.0
-0.34978417139663986
0.6953454577531386
-0.027775791052091048
-0.9435782406604314
-0.9650221049691405
-0.26789683891429616
-0.7932754550208163
-0.29960464467379433
-0.4378206915248395
-0.2214981102171667
0.8562984764742079
0.0
-0.020061332681790223
0.9617989110369962
-0.8570747146360425
0.7343330251015183
-0.16340318977369117
0.5423173841371096
0.8759090275604897
-0.8479033276351304
-0.5072319239739691
-0.07170665603115056
0.3855093236600926
0.0
-0.7134524950836578
-0.12226928986149588
-0.1657347378571048
-0.9898056121310017
-0.48038941135249646
-0.164966640261327
0.8195163567878212
-0.3039206489157775
-0.19428670086858735
0.4425621297710931
0.5452401027817506
0.0
0.5858464024700487
0.4661741152323222
-0.04616856772209865
-0.785125381569743
0.8107414040009973
-0.1219360904146225
-0.296301948138429
0.3240895191067854
-0.41037669291780565
0.7926290138008885
-0.9702366872139403
0.0
-0.42464464717303807
-0.9114490623850857
0.4077194184922781
0.14727746355033844
-0.8117958635504301
-0.22259334086486904
0.48540764516893264
-0.5979308815654925
-0.5897035954442669
0.3224575828919589
-0.5277193467250181
0.0
-0.5826022469418226
-0.88484092987416
0.7742778090539693
0.5027468521178651
0.600594058004128
0.5953921531610853
-0.7874217456053889
-0.4739104974163657
0.025866489164243278
0.9103222805302986
-0.4792951412747979
0.0
-0.95188858568179
-0.773703520819008
-0.7974909785994657
-0.5527195836173184
-0.40347519205712223
-0.13911686244921762
0.4260184935454556
-0.18760842367661779
0.43864062779540713
-0.7121974495887848
0.1303892284977628
0.0
0.6063538672318629
-0.4552076765374513
0.3210095984083505
-0.6439020749998061
-0.024388340187342816
-0.5469095178019843
0.6869021593211815
0.8485695512686502
-0.1091867912156026
0.41890043037849445
0.5515660022181244
0.0
-0.41004954957442963
-0.6429007299876202
0.41452739558477525
-0.08101667897852538
0.7869755431960741
-0.23624692535693415
-0.3493570916691091
0.9581236636545061
0.20030442422414474
-0.32629540664617784
-0.9393726361070853
0.0
-0.6396351502657471
0.9967108132394276
0.9059555053687303
-0.3712463956941543
-0.8788386405112341
-0.40871086857278827
-0.8426157469989977
-0.9429894870881492
0.2742403199826413
-0.09144272796232511
0.1178713451722373
0.0
0.26784900296775427
-0.11032658061622347
-0.5850322211552388
0.6879934014469924
-0.025114492287629853
-0.823418125313583
-0.29989476334334664
-0.6146832210393283
0.6709147375479072
-0.18717437771127554
0.9343197604683227
0.0
-0.15458478874600634
-0.5442692040772339
-0.6474221481953446
0.6669221732561037
0.9083646550114366
0.6368635338594775
0.8793733733500644
0.26887909904677865
0.31410789077463996
0.9910205014267772
0.24685006084036742
0.0
0.5091005800580635
-0.4196245318601306
-0.573616946433495
-0.483429816688139
-0.173068925543433
0.023243519881203545
-0.5060181107966126
-0.42177322559150676
0.7609557730989309
-0.08272945230595097
-0.6808798032853745
0.0
0.181578052470325
0.3587097240408037
0.4752207631695604
0.17228930159189781
0.5347334961901449
0.41587323460425796
0.09135073178217201
0.4959290759466608
-0.9386790882828562
-0.9949781303599474
0.18251899751306278
0.0
-0.5406529496645693
-0.09432518589799277
-0.12142915270730481
0.514040476847961
-0.05270288694812608
0.9744153561943776
-0.6344719976943372
0.42654307772476496
-0.6293710189415038
0.02942217557275839
-0.2760349201381773
0.0
0.09690154477324286
0.06042379753966132
-0.7920138973097208
0.8783875128981169
-0.8887265282810064
0.7159952213652045
0.7891295380983969
0.09911969763497375
0.4319376810434188
0.48117411702599644
0.33164656939955983
0.0
-0.8161304755594398
-0.7275367932179131
-0.3537775343587959
-0.21105053158307618
-0.914095977737664
-0.27100099888163154
0.3612167430676265
0.8942808885165745
0.4479652427944807
-0.7269393174568233
-0.9347482228214321
0.0
-0.3951597189299847
-0.35844624003486225
-0.3259063969097842
-0.5486403348858231
-0.49251883010626285
-0.08788129375236764
0.3119080834748642
0.11731656242075572
-0.7285474420261511
0.4742509041054057
-0.7876543600661192
0.0
-0.7760540127099218
0.378430403565178
-0.4213817078810089
0.287411517247103
-0.08287221849892568
0.2616926393642145
0.5358915867166902
0.701958436293004
-0.42636439771065326
0.15102618676380564
-0.28528031408963317
0.0
-0.7534778347217685
-0.2570960181687181
-0.26950172639174985
-0.5013280638946256
-0.04566615900466742
-0.18601130009912614
-0.804129863757926
0.5273224330915058
0.06196104924731416
0.4836518570629609
0.1501734904975338
0.0
0.36724520701652574
0.02727917340718755
0.19656998889141386
0.4457494682235139
0.19774265831504256
-0.8983693554523566
-0.9800227185993116
0.7015368933638413
0.882896302175944
0.41453444887233704
0.8327870367029744
0.0
-0.6133117986997394
0.8572132646483002
-0.8758686786336314
-0.18309658471070156
0.923921612706796
-0.9661625528146525
0.1398658155013428
0.2091833227649651
0.06505018235056514
0.34689836470511537
0.19584225630572671
0.0
-0.29502226060934644
0.4819522207902116
-0.17894837818352616
-0.7181768656056653
0.5580170520734131
-0.7265639416400649
-0.5846506617770948
0.9421612587512387
-0.8500544851738423
-0.22192406581960444
0.34871500798183064
0.0
0.4604648880438622
0.5348182286033498
0.6384992394169773
0.34055664724599155
0.24598527676369542
-0.09205947744748322
-0.10671683378105978
-0.826813600415468
0.6181901334857012
-0.03335652302946901
0.48465552245266763
0.0
0.3417463072004887
-0.6717607190034431
0.18036282175062035
-0.16885536584675576
0.6944154731749979
-0.10822041633117152
0.4137896990236012
0.26755830554950655
0.737225926244345
0.28737529206776635
-0.4017300274557052
0.0
-0.9153346090973418
0.14714681954883635
-0.8601529881812513
0.6754824835467081
0.10497991646131699
-0.08815030315636352
0.023104401011322384
-0.3236286611244483
0.24995141754596717
0.9814430309377871
0.9642775819752376
0.0
-0.06270117654132257
-0.4401362887512079
-0.15765301543850296
0.3531194189986395
-0.8411712011843391
-0.224613525734068
-0.04152636668849685
0.3494455595535835
0.34494833046072215
0.4914340569323188
0.995466379767417
0.0
-0.9869741234225038
-0.842666816197154
-0.5483381269909733
0.5893955930975363
-0.2384869677447381
0.662968718114761
0.42946391363154346
0.23194230800027182
0.7405813782390782
0.88474790560922
-0.8117446226995231
0.0
0.8943072957341227
-0.04924579360626957
0.9935254553426698
0.079983580004789
0.20994322866656456
0.6468077494287503
0.949970476238527
-0.673685815837076
0.8596171709977221
-0.794520309095867
0.3018698273921039
0.0
0.4688960768755426
-0.21536243872359906
0.46321089695107753
-0.4303921667680082
-0.9979244695464109
-0.6520035743783725
-0.9726330769750591
0.3195174939753336
-0.8467717070060625
-0.04997372658172794
-0.8315056930734719
0.0
1.3116758849984755E-4
0.2746335072343369
0.2535082537310682
-0.6689139130413655
0.629082300072082
0.8146238769265663
-0.9190409570943803
-0.24529040624350307
0.2397887314253091
-0.2636638265672768
-0.15867231221763411
0.0
-0.7267266455674555
0.6805611890975851
-0.5477464517429327
0.3730228953789032
0.4890888537542062
-0.5880236863401744
-0.038121873894056524
-0.9652836660188717
-0.10881404487965107
0.31753369363843653
0.7077880799494154
0.0
-0.10802311208093252
0.9425776796496141
0.001650780647508343
-0.34474173817519116
0.36070021464430035
-0.8592559840423728
0.9342190695819466
-0.4964948155984843
0.9551541479239187
-0.6625756473845934
0.8113615294692245
0.0
-0.28392419340613584
-0.35181968753200143
-0.1657614903403375
-0.11262702113804823
0.04485683573615695
-0.901925829226254
0.15576775125312547
0.5613362979256422
0.5085823299049494
0.8310898229906907
-0.5950738891334086
0.0
-0.9887826937435127
-0.4599923989887804
0.3465715571218644
-0.2256846222051574
-0.4273800306218769
-0.19385170453287826
0.27169850859347844
0.6792751447483114
-0.720844838515208
0.9539811078009406
0.5212012160880024
0.0
-0.29909800104185713
-0.629113745038036
0.9340380596556646
0.19617298946309658
-0.32756937990084944
0.34609318941922007
0.2218492842456279
0.33106143590279125
0.7961701377418573
-0.8911274542513008
0.32089458563453954
0.0
-0.4725465459336222
0.8243900132825814
0.996762692325591
0.6027369097689705
-0.8118446382305735
-0.09327987436932261
-0.4310591276564699
0.44926582025757233
-0.6981438888178735
0.3038198674590835
0.0031757227497453133
0.0
-0.07140951052515376
0.08767400027532357
-0.22938305244761992
0.06329360035566212
0.6414134288491349
0.7235007505448647
0.04668322138944103
-0.6438414631181464
0.9441237275134213
0.6579952495611483
0.46240657926375817
0.0
0.4474016876526423
-0.32856298969185604
-0.4364869287722617
0.12540898917630194
-0.4712211391325125
-0.6838074622184933
-0.7947674823108162
-0.3388057984166397
-0.1789421417604058
0.41340666659081293
-0.492071490375406
0.0
0.8012710753483474
0.577960652701313
-0.7941486692465345
0.17889573605722764
-0.24396592767084768
0.26919254721510244
-0.8418488708693743
-0.16222278083251407
0.5072111656714138
-0.15465210666603935
0.6063121397554412
0.0
-0.1776424650830144
0.04666688930327778
-0.8031582242975837
-0.8105773127171301
0.406839352668263
-0.8693895584194862
0.34081395709503237
0.5152931433231833
0.6386330457563656
-0.3777401737847994
-0.8594724566091931
0.0
-0.7559265022926553
-0.45442019412595114
-0.4121636780416167
-0.3067541804597236
-0.6881979754912193
-0.0447095956709771
-0.6479592755245149
-0.6356028168880001
-0.8753924893463081
0.358904022686215
-0.6965498293273829
0.0
0.22340656169395978
-0.7391990791482417
0.8935446869619279
-0.6801507301325542
0.35565536319957625
-0.5990622343362688
0.2616467103344302
-0.787591080398762
0.7988860282970367
0.5295419530254482
-0.9318683578552738
0.0
0.7771576627829493
-0.40550675820620485
-0.7376365864078172
-0.5415161901535512
-0.22408544532558583
-0.5752534354803753
0.4307161185313628
0.15111853558409183
0.20036652414330214
0.3779650153599674
0.01659466392120046
0.0
0.7561151867228919
-0.22288247003693185
0.6275056284734262
-0.2022526310566184
-0.5794904792334006
0.6539809955473075
-0.5219430499022304
-0.8762963735675855
-0.9408278550440774
0.32319339456109697
-0.9475157881426644
0.0
-0.45070918340696786
-0.04247909944677253
-0.700877615935487
0.7722937682799573
0.19364494161957202
0.9091074900193243
0.4696114914665328
0.7451953763786636
0.1329893297475957
-0.11645743757516391
-0.5316397845065493
0.0
-0.541528982799284
0.553717372238278
0.4573638614366764
-0.8520426884341687
-0.8711465118098027
0.5270611491827393
0.447203440962036
-0.4170338501432078
-0.6061565048934963
0.3413057347826187
-0.10617894394631322
0.0
-0.32438512369051353
-0.2758919976085066
-0.050134888070544115
0.04965584399326395
0.25383033638034624
-0.7297300180194353
-0.9646234933048563
-0.3052957886462968
0.6092070069442308
-0.10737584433343605
-0.867501867914592
0.0
-0.134027028521978
-0.07949944405804543
0.0961866684055348
0.6451547177328607
0.1488670241750989
0.5353118995931285
0.10851046127026143
0.044761366066331076
-4.5874650752431023E-4
-0.33141253410210436
-0.20509414313378094
0.0
0.15047001496006662
-0.6690489947696006
-0.1677369944071354
0.8831244739908366
0.7293486609231876
0.3099533765909246
-0.49647676572886357
-0.16465204723298088
0.06867368194742074
-0.2577298122617844
0.4780335434571221
0.0
-0.8926074055836704
-0.5619530248429307
0.75409808667358
-0.05401536202428692
0.7338107690727431
0.8166524718154511
0.007419944791035249
-0.978859871890426
0.6112645835698798
0.9513455479349258
-0.11087074128704
0.0
0.926137942697441
0.22874419850185435
-0.8904478635423565
-0.8012850602759796
0.7467428689229734
0.6115583715449457
-0.9866566924364228
-0.7639554884097781
-0.39820744036691424
0.2745345328693034
0.45530880649292804
0.0
-0.06612283832139121
-0.29885157893395276
0.011800036237059608
-0.9441360929488885
0.4782372917535884
-0.11869118899256703
-0.4809536180191638
0.5250868209828294
0.00438717823584045
-0.33576333357973875
-0.17513501528867614
0.0
-0.6285792004823161
-0.5043666369524562
-0.8943182294134604
0.08076359154078938
0.8526004949188111
0.2556364690555606
-0.4784647232379897
0.7522927902251122
0.09568573677645031
-0.4471545750001764
-0.046845613253056584
0.0
0.3407207348196646
0.19982683974773896
0.28470131911271523
-0.6772686347486101
-0.6399563480474708
-0.9340521396013688
-0.7751088206357453
-0.4370235678230101
-0.6126474160550963
-0.7432248153672121
-0.5934834137773706
0.0
0.60863679643595
-0.6456406210528862
0.6535811819133357
-0.07477343195468267
0.728636616849387
0.45074767986293796
-0.19234734398713993
-0.0737350391842082
0.04597516300590754
-0.014621321019546496
-0.2210294622450666
0.0
0.6826167796547917
0.25196440553764643
0.9083092216324675
0.762176014567417
-0.7070674243520914
-0.22056480558062908
-0.5881314529456518
0.6684995931829398
-0.21822774329969596
-0.4625330724081609
-0.4799177459921016
0.0
0.6521655656895258
0.6718759840386876
0.9889664989172047
0.2905450350074137
-0.7832022069449469
0.6288375103927732
-0.11323377434207327
-0.13622264411967921
0.04324199656855132
0.767722024211936
0.7707218693389295
0.0
-0.16539971542059906
-0.11008900690101231
0.5963982628479905
0.05713035727408955
-0.47960679516913984
0.5144736526299303
-0.8185697792624109
-0.1935183252544037
0.9918143729183755
0.6471367510338304
0.3562226045093415
0.0
-0.46817050034618046
0.63540753298551
-0.9025366767728245
0.7747782962255494
-0.6535052780379675
-0.4569201311067166
0.49278298356185135
0.7128088789596911
-0.9609009162729003
0.1434506262382178
-0.3795529986701218
0.0
0.4517379713809606
0.062236797336648664
0.741584332944887
0.48164348793796674
0.24621547883128558
0.7204089431701806
0.13467126781126337
-0.6514188673918613
0.5364801310943053
-0.14423344824119289
0.9202114132527865
0.0
0.06980506611556869
-0.6306504237354404
-0.2631396476422334
0.42995623329074206
0.2186215903069162
-0.7326895033848642
-0.2814152026965091
-0.2179475680656211
0.23226547892568128
0.6231807374355769
0.7232607238710322
0.0
-0.3480186409498496
-0.8707238823414711
0.430840996132825
0.7677096746621936
0.9746945685316393
0.7928602235465421
0.7160264754234287
0.3380553062741367
-0.16813504607831997
-0.1106085504690899
0.5513067414669752
0.0
-0.9629423641479766
-0.9017165866236956
0.6269184616526595
-0.8557441836697384
-0.5132239999191777
0.18619270449603498
0.36636539230913767
0.08560886751699526
-0.3504952527367122
0.47742489761502593
0.6465379461803469
0.0
-0.19226896486828737
-0.4611056436970207
-0.32205226385396846
-0.7309711042536069
-0.25927098747629507
0.2766824787978319
-0.21706862729536658
-0.11201200840089953
-0.4848460839720168
-0.5557548805577281
0.2440081886808807
0.0
0.10961789278660405
0.003418715935458172
-0.06520692796731642
-0.08765843860258915
0.8184241402370864
0.4758331842930823
0.6966953055337954
-0.7665109697448871
-0.25441376258382387
-0.18035636646958841
-0.3252212387556901
0.0
-0.6779285025497284
0.20918911400046825
0.8801940094828846
0.5897627352463191
-0.7799092555159499
0.3780051238865634
0.4024399951774733
-0.012428619911964978
-0.5629766022475828
0.45537979235183723
-0.6346020382440889
0.0
0.27935600331772914
0.37950406206518306
0.6863974321362496
-0.0024158238522578035
0.9866173720399452
-0.256242039334478
0.1404427504931547
-0.8723319357071901
0.4818712545329318
0.5919694161125177
0.7266802096129348
0.0
0.6649746582253546
-0.05480491627521267
-0.9868902183032511
0.3346578272337182
-0.8215991956830322
0.8388374901891311
-0.7362356976478115
0.22764654435905607
-0.5874717149494009
0.32814307905914997
0.3495996150675855
0.0
0.3525998041480958
-0.3078423575491118
0.5539027402495436
-0.8576678663660935
-0.9785381152768102
0.38768938707145995
-0.0703655833829957
-0.146971399517988
0.21160161010952905
0.6943010199102029
-0.520801949897135
0.0
0.1515913211437636
0.6170815320201841
0.803276910636725
-0.9786925017977819
0.2486192922160393
0.6528606632892835
0.1661684800981087
-0.7813780996921018
0.6429753040221968
0.6173007234222505
0.7352828409323151
0.0
-0.9910891876711789
-0.38542288461207486
-0.4833643923276676
0.5844818908889577
-0.9819337831513224
0.13074556324028297
0.25581190897075046
-0.8054467411849182
-0.49535551426628
0.5705561519816158
-0.8581980532913187
0.0
0.36629657488734546
-0.5878261884196936
-0.046850918908944106
0.9500317302919536
-0.2658619734150609
0.3361554725764704
0.32057477569135173
-0.8076002509829521
0.929812444309893
0.4073755664010803
0.4653783629261963
0.0
0.5988682558746046
0.07056833045935118
-0.3229686056095602
-0.3332900272130954
-0.17869787850313545
0.2949377217690725
0.44277306091028423
0.6329389592001664
-0.7601299633987864
0.839858927259908
-0.13505443844928577
0.0
0.7199068439598257
0.280259212592586
0.6291057440752483
0.8964146055147413
-0.018434725431543342
-0.6040416316667627
-0.45050634477220886
0.1910618073187178
0.5328150187029017
0.06194311855107393
-0.16109677036252745
0.0
0.8281616505750775
0.6062401598693201
0.27942201686068646
0.41261376168369446
0.46056385576245984
-0.8350295121352547
0.7665855420684577
0.5281115698955763
-0.5765956528779124
0.17332932328154582
-0.31264165767975416
0.0
0.625225614764892
0.10799912699370395
0.6394803485841445
-0.6140687419897926
0.481665727582298
0.288741975795777
0.10484310180746359
0.8674042187939379
-0.043142500893321056
0.21044484880366143
0.05838641786705723
0.0
-0.632827515164776
0.252161170910443
0.05554798469471578
0.3433240245568374
0.2301575892487704
-0.9973898944656756
-0.3013778237871516
0.7622763420081426
-0.8989107683791138
-0.4561386740012878
0.4986274039057055
0.0
0.7484484041327952
0.5594764658045952
0.523728956184385
-0.3584132356209604
-0.4102522153550554
0.9018052804277086
0.18736967157130602
0.9074036938177157
0.04040057181247225
0.3545506403197396
-0.2316501050452926
0.0
0.5069414133654129
-0.04956648948846709
-0.6588982490548894
-0.18405124563249764
0.18677979344727902
-0.43562795134349974
-0.06541129937564705
0.6089628117428982
-0.6174493020347465
0.8016260927364758
0.5743952837201662
0.0
0.929827245597399
0.08469153431878884
-0.9791056525858077
0.3464883401754608
0.6611888216162904
-0.6118187382819056
-0.5180833192421059
0.622514877772661
-0.43362982645417913
-0.3209039880807407
0.5435278696816757
0.0
-0.0036839485685038476
0.7672932941103132
0.6927976507412172
0.752059691955429
0.689361433221775
0.1490077101604017
-0.6698771885054495
-0.8166766609965945
0.8422358661202973
-0.3299768425124734
-0.13967453427159193
0.0
0.04937167817494714
0.8597811931858386
-0.6671284463237535
0.7684920818493204
-0.43644549298841073
0.7006338757404451
-0.80767477474911
-0.8943427206572521
-0.4848843637491116
0.8016325748135529
0.5129829287865573
0.0
0.15758949830824132
0.7998972444894983
-0.5892928506936268
-0.8893973082758939
0.7131908151539699
-0.9609720651425018
-0.1287067780340576
-0.7076671322566577
0.5637120827635993
0.8129177133246941
-0.424214468459716
0.0
0.20512138405883173
-0.7306005383673886
0.5799782638871309
-0.7301886970664802
0.3295889510036547
0.18445610118941258
0.25923015233441715
0.6555899646677117
-0.801595371840486
0.356486274527237
0.20568437600046297
0.0
-0.2220421270982853
0.28959201939082746
0.17723242699447117
-0.38742779226848056
0.6129146520486692
0.4967395768881837
0.6017442624653169
0.8881728755280924
0.2484433560926671
-0.026492631813347822
0.18584401607501722
0.0
-0.11043491438208086
0.6915352339231169
-0.10792899655016042
-0.8525926151144199
0.22802006859914514
0.11282798641514047
0.3482738729712824
0.07395652154764965
-0.3913713500105591
0.7248438467907938
-0.2058126009542547
0.0
0.9783804241153142
-0.9824574519287239
0.7258942582631915
0.33407832257431425
0.6009725082975075
-0.7766066785113557
0.026068215710181253
-0.03240064797011133
-0.5921965908590632
0.015466297328722067
-0.42750140800923586
0.0
-0.6089460060794216
0.4798617550447717
-0.5804071298258784
0.04454233344945857
-0.7206073819367207
-0.2423358996654983
-0.475822603243355
0.8538710206864928
-0.6549639563696374
0.41789392502830225
-0.5252473119433856
0.0
0.1307202786628754
0.4488806374958123
0.49225665240673666
0.322501259998732
0.9335266228468144
0.8012367610254001
0.4727944037353091
-0.6261607856008311
-0.9129483443244706
-0.38997391826686467
-0.536428914090499
0.0
0.17698850908339492
-0.021499159238304255
0.9821358815557786
-0.8680338715326843
-0.856030506687895
0.8805824419044304
0.7611780965357833
-0.8501216880572313
0.755638432238326
-0.9768586829248975
-0.6312641706261422
0.0
0.6125393095784373
0.29965027957574475
-0.5230921207464385
0.8757780228727619
-0.8178013274840714
-0.7966777028300394
-0.5165677139904745
-0.16268809206572565
0.7589151869514656
-0.44989122776794743
0.34801539792670133
0.0
0.6335422234749051
-0.986676503938198
0.5533155734287769
0.48884055121846415
-0.9122716359625875
-0.08009884437516779
0.81794282902605
0.8149338713689152
0.8019342124168942
0.8485325527664542
-0.9267482155741236
0.0
-0.8774952070613753
-0.5478596007027912
0.04791854886241609
0.4638022793132761
0.7124777125474295
0.40680913118758166
-0.7232316858034735
0.4589725206323947
-0.4575160866174912
0.6082549140229065
0.38541540056887325
0.0
-0.9768751271833902
-0.07085971793113499
-0.7519115274237282
0.7511120620402518
0.4235041499307388
0.3212730343421968
0.7887755339471538
-0.24489675036748815
-0.3322261086682279
-0.7775661593218173
0.6450624805592935
0.0
0.04299048735579647
-0.718078948799201
-0.8071155977954116
-0.7072058569236894
0.8318374516862994
-0.22111112359393603
-0.5580337737573997
-0.059242219336744784
-0.3463887383043063
0.7428438966715043
-0.8431540098469581
0.0
-0.899326842988595
0.853611829109846
-0.3061953048934898
0.6118624223298028
-0.4217130621984755
0.9038309792029251
-0.9664299407410952
0.15538823059206175
-0.2514251462227235
-0.7041109937671186
-0.164628797395312
0.0
-0.6451741229933514
0.5300518599534669
0.06921391160743928
-0.4649014360824191
-0.6867105407103227
0.9087595470935785
-0.18010739071487558
-0.13374314876293836
0.7374867290170732
-0.6783869632251702
-0.9678332276455404
0.0
-0.13855696542057894
0.8720485713991974
0.525283780281744
0.19056283637635096
9.963361622769007E-4
-0.1616884616051253
0.08883061251702995
-0.9476925877231395
0.05908310557226204
-0.16374961043228198
-0.005951803002125056
0.0
0.031151391179285115
-0.4442709504779203
0.31782135182594207
-0.0363807791655395
-0.9782574362531642
0.3763845644067909
-0.8395126186160113
-0.5499051462850264
0.3791809667037529
-0.8392037953882443
-0.472262911371947
0.0
-0.8324547793885226
0.9710207722823176
-0.09935173127257446
0.4987897064350659
0.17592820164433887
0.03370454600410766
-0.5082430435007543
0.09933329874459917
-0.5042481087215773
0.14832912512294527
-0.30852775191328075
0.0
0.18896553236483715
0.09371431549826315
-0.5235538995189888
-0.46515628190368585
-0.7068061153736234
-0.5543181465258573
-0.5085382598640771
0.1346050809363708
-0.24128203304595086
0.7484990676217145
-0.8693506634052071
0.0
0.9168782072374262
-0.9358426411453595
0.790335270218433
0.6923788923685026
0.12316886533541305
0.6400300801300554
-0.3167447123811986
0.5141627292872548
0.6613531970646316
-0.4700596485533972
0.045257383550709074
0.0
-0.7449188211633664
-0.2177627867677454
0.29242054468269774
-0.4658197412481426
0.27152046972957145
0.877474241356029
0.7424219141596
-0.595857353522439
-0.3873161889128518
-0.7780091215489657
0.39736044838446083
0.0
0.3408105616216677
-0.48787516615309046
-0.1375477906159892
0.4892641469668957
0.5405628242428842
0.4086705735842946
-0.9974947565156291
-0.42043705532870956
-0.9798280773326817
-0.3039151103050952
-0.5049515545594543
0.0
-0.8537427219049856
0.9484752718707365
-0.28644159148279
-0.5783910504734078
0.6957696816743761
-0.6280944914416995
0.024304390709888768
-0.022405774389969713
-0.510298106558118
-0.184523340006173
0.3804968699109954
0.0
0.15345406962854713
0.7875492836435547
-0.436312215564864
0.7671596610387075
0.3654057622443905
-0.7864129918819951
-0.8409480350024785
-0.4931999069721891
0.607069483817372
-0.31444551633795537
-0.28969943928951625
0.0
-0.7837354329287904
-0.06688191879163741
-0.700602426158339
-0.9252636578617277
0.2837717071698822
0.6996525663690669
0.17108591142714658
0.0035921086232635346
-0.3345810856945928
-0.6595170767912497
-0.34717685878543736
0.0
-0.3038441868238966
0.9867815606600625
0.1947419648287847
0.05096467641276092
-0.4813683932292707
0.1249503262409557
0.6855069081171703
0.31996485664581775
-0.1336426539116089
0.8399034556592404
0.12037499903548365
0.0
0.38062890444342923
-0.751058433993351
-0.5862541951426019
-0.377108188216702
-0.5938294242001125
0.9367288238956135
0.9440139146937401
0.11731967656795117
-0.4143487542570714
0.8091734459972935
0.2000794073814509
0.0
0.43488237969617494
0.3713101824612499
0.006603210499071199
-0.6463967128779755
-0.5672005968947098
-0.05892100393589206
0.9831446965949522
0.19576503213410423
0.18827457923085955
-0.33945604924354345
0.252145068728437
0.0
-0.5966166031873228
0.4883600167158253
0.5077251582989015
0.5903577434441507
0.5185752471132072
0.6744079726131162
0.953348840966695
-0.573622529257086
-0.7428892850647126
-0.9977037915673115
-0.451913313501322
0.0
0.9062946556194433
-0.926924233980617
-0.0523687119636469
0.3580959732046518
0.6708936182416028
0.49022127089428813
-0.41679960486838263
0.8637560276815579
-0.8105651601908583
0.030480141947468065
0.11630265949023122
0.0
0.8607162784148517
-0.9397264945305992
-0.4458475743513297
-0.9654928023325815
0.32282147848439546
0.7652992996927492
0.4390503483986856
-0.119430176048686
0.6983469772262667
0.5040435382051829
0.5342488791850091
0.0
0.22267541789044754
-0.3795849017381996
-0.07750241388473911
-0.08482795668774723
-0.8535149766925789
0.14554647678649846
0.6424993450028582
-0.3625149520662043
-0.01807547782650576
0.11456251874175183
-0.5871209466070677
0.0
-0.42923934381814544
-0.10280019764580173
-0.6935256702260233
-0.4075470878214409
0.3941945001950362
-0.24060409805593608
-0.37295300553188016
-0.3918185748791212
0.5731316787546279
-0.835862813239348
0.11714404685161028
0.0
0.45994419554964305
0.0137497121732586
0.2651880239333415
-0.4249942001488669
-0.7752484914822884
-0.18344132476878872
-0.11730258734066346
0.09935705298795838
0.46754669461841614
-0.1414188455155283
-0.8338515891322187
0.0
0.19756311477787047
0.6206289563001559
0.29755561505995787
0.30360383881495534
-0.46265777298138033
-0.6886125866834236
-0.4501560723706708
-0.48419921498659524
-0.506933397785396
0.23678814714569585
-0.22634531996598772
0.0
-0.6040592410993622
0.1615191598263923
-0.11569844342583147
-0.09435348635359508
-0.48888035409403363
0.5205125043666852
0.1532476319879834
-0.8822853359418354
-0.49365544643760995
-0.33768168688396605
-0.7835447194509189
0.0
0.697015700959744
0.8856404746069875
-0.6695404130824103
-0.6255493608535316
0.18481379246379182
-0.8614021824398375
0.0024301817640284273
0.3505154452464725
-0.5556302115450074
0.0751706884236174
-0.8896881018494354
0.0
-0.39785634645354273
-0.9711217929365819
-0.9894031739712035
0.4444184220117926
0.08859361904131768
-0.5093600384400794
0.22360868780005472
0.8781957508524103
0.30112185178213213
-0.6663957939736807
-0.7990570757698985
0.0
0.9724460919084212
0.06623751572447456
0.5572985136156947
-0.9431979437483793
0.24221570053616848
-0.7884106847245171
0.9363071020866485
0.3406147226907581
0.10156747646517039
0.3238957868711001
0.345272284507093
0.0
0.563662989861794
-0.3913466232990295
0.39968988456419763
-0.775359545731243
-0.9497720835037697
-0.5249554936374616
-0.1036107562546067
0.30327897252663627
0.07115446830684191
0.9211579914599928
0.9463234452291649
0.0
-0.2180571745183062
-0.065875311541997
0.344139649524573
0.8325363615797903
-0.8481912123187265
-0.3931596005365099
0.9426482269221277
-0.9932368032912657
0.5117773608264133
-0.8523734819607793
-0.2065615126180711
0.0
0.7696757909378518
0.4208236011538178
-0.5285642244694653
0.5008153415633896
0.1467081889255144
0.9311282962595036
0.7593569357248717
-0.5200478171292886
0.17833523135813123
0.614669595852503
0.8266224500759993
0.0
0.7710040438510444
0.9642390928737561
0.9957310227642371
-0.12148090109721399
-0.8773264101046101
-0.1681527580749298
0.20840217227796254
0.5976555987868766
-0.13148349841799734
-0.802237915467245
-0.2517606547365234
0.0
-0.7599716151865004
-0.026724061912312136
-0.5458430395369795
-0.8140629375230466
-0.21766001584568095
-0.5357415533571437
-0.1800052303192059
0.1864784783913589
0.5557854888105966
0.021371507057546202
-0.6447266405273027
0.0
-0.054881927296224875
-0.4231200902439862
-0.27272400566767296
0.9583431222095267
-0.33060318116375575
0.0284420560730545
-0.7718945450657722
0.5383586271720078
0.8744410089170005
-0.2598186032443679
-0.028394816020274716
0.0
0.21688252602446778
-0.4300255344277657
-0.5384732375523364
0.7233016365778593
-0.6222337099468893
0.31297069630479357
0.14875807314908407
-0.4154211476440006
0.731850678300993
-0.6102876674326545
-0.6026822262021503
0.0
-0.5285162209173533
0.08596231478249394
-0.10892744361509243
0.5937193624015371
-0.5636495867276918
0.3925607733688834
-0.7105691667751273
0.8895762788836457
-0.43944112656283685
0.14703727137422118
0.6485016368473058
0.0
-0.816530696506151
0.9385018250929078
0.20087037179779998
-0.24661302606585211
0.46732567939056335
-0.49007337441775856
-0.4899401648460535
0.3637403638821852
-0.18292652028420897
0.589581996546972
-0.3877250372091552
0.0
-0.8616865553292841
0.13765870235466293
-0.37747536028456175
-0.6277614229820205
0.13180115763033284
-0.10528495588787568
-0.1700343438789096
-0.3503332288528862
0.36903448880262224
-0.9325725022258917
0.05844700509041667
0.0
0.5663257260560928
-0.942292949838252
-0.018863847566608527
0.601384903873899
-0.6883022410920494
-0.14209953276809495
0.35341561051347536
0.6631756928738166
-0.5409502409120008
0.3208439943140384
0.0861943073750413
0.0
0.1054158280637385
-0.6988273805946557
0.7986611239288535
-0.07057218687905387
0.4596482140214093
-0.5514153630982579
0.7208994298014146
0.43092809237420315
0.7342500208968721
-0.5036409410472316
-0.29699795810789875
0.0
-0.3969287719856476
0.006311313441083044
-0.2447569559514846
0.6082019391041467
-0.5597760255699769
-0.06124117984048949
-0.23492880712167197
0.38737572169288126
0.8744177520237009
-0.0612678639269395
-0.9160949855524361
0.0
0.10948986201694888
-0.02854476176403109
-0.4734050624411259
-0.2812984530998104
0.23242405222763685
-0.6247864830308185
-0.43132567305737624
-0.8490136205133865
-0.579228692169308
0.5466171027956936
-0.26036843346709104
0.0
0.3943480060841744
-0.05906378156652936
0.9273116888919746
0.7261756383832321
0.2670153238304398
-0.7920754034495707
-0.28561158893920524
-0.3257174690458198
0.10954431708969392
-0.10857492502908839
-0.645894941631403
0.0
-0.500027705165571
-0.7594297278769337
0.13852948805803944
-0.8091920047315166
-0.8370310344047169
0.4819286305365911
0.3059900593249758
-0.4266459194636234
-0.1803497671555787
0.3662928090454196
0.18326135646205488
0.0
0.27970943296814
-0.6807424701998985
-0.8489611789556739
0.8606932069803939
-0.06421335222123892
-0.10640126182541776
-0.3330871802772932
0.2729144683547342
0.10126817210215955
-0.9349965521444243
0.6962914812189873
0.0
0.7899824648995282
-0.7511157881787429
0.34005894364838696
0.34208954217280807
0.8009611388770606
-0.7210715043539109
0.41847484891868825
0.2323432027231831
-0.40671763005662864
0.8308815227495243
0.1709121825398079
0.0
0.7102184513484737
-0.3455012629086056
0.49779267724028564
-0.021420648631077066
-0.3168150464774111
-0.1347062915487336
-0.762535743480298
-0.49597184241488623
0.5779671209823096
0.7455724429444381
-0.7567648127657001
0.0
0.6676945257955851
0.6877045187999669
0.6539178458503909
0.5098019358908354
0.702077236185547
-0.5635393674675557
0.04913164128006331
0.7589183890048483
0.38446017739119553
-0.3748674828082992
-0.08687047885786137
0.0
-0.3517450452026851
-0.9946135669662388
-0.5957680172131095
0.29654358418982296
-0.08111266674474216
0.21091598152796842
0.07376780334987387
-0.06147600983534529
0.9139112300513734
0.7301777687048536
-0.6323692009735622
0.0
0.4077550203652436
0.08021185187278812
-0.2690873229559494
0.7763559870473353
0.5413404781951303
0.6208277522362657
0.49533377188754235
0.7746350815525862
-0.16285345905538606
0.7693247648698511
-0.9556878266816977
0.0
-0.3248758255573192
-0.6435969897748752
0.3226824796865271
-0.9153549542824806
-0.3014485042399093
0.44870715536006656
-0.5277333784194929
-0.14298232668884925
0.3905716571394433
-0.06693056990126545
-0.5201547851451014
0.0
0.09861884143489741
-0.5483153754752799
-0.3503144773549991
-0.06651052669001878
0.9674554411298888
-0.24236965554873113
0.6892071812841645
0.6341175848762346
-0.20465126576333703
-0.728508073458654
0.3510281810945646
0.0
-0.6176195170837906
-0.22531322957255462
-0.5686825060739915
0.9772952150984486
0.613045525789401
-0.042170856039432714
-0.3811617318521521
0.4487555073082732
-0.7859082509254964
-0.29612757210171314
0.8228502701971805
0.0
0.5630875095577939
-0.9825506606674195
-0.6651161338173359
9.048359763137448E-4
-0.023787318325537044
-0.7898031891169079
-0.1913846751633166
-0.6480206023618567
0.04022790590099068
-0.7840088448166742
0.44847365815649276
0.0
0.006580985775005432
-0.6129846684293905
-0.06733473367222009
-0.687778948600835
0.47204016548702277
-0.0382617115506354
-0.2513404970597697
0.9519404465992929
0.8458530331347693
0.7186719520632205
-0.6975276702802495
0.0
0.16138661356146433
-0.3321644252303102
0.1331864747702023
0.9203679962168063
0.18314418596221627
-0.8138139003985931
0.09893676144674579
-0.39260092039186545
-0.49541747033369443
-0.637602691881421
-0.8525425738787671
0.0
-0.5761160901816582
0.500142591859307
-0.3018112189716926
-0.8582068613091403
-0.05853438581358761
-0.7320122192730902
0.7301574091573213
0.6122244525428402
-0.057853442270833444
-0.7474802941786398
0.3692813781274755
0.0
-0.8218325443731347
-0.03820154021059108
-0.20843765188057595
-0.6840468758566112
-0.8970202291382539
-0.6446489114108482
-0.5197091318593412
0.4857307956358379
0.08935440507402204
0.861929588177083
-0.9141420452204845
0.0
0.39905246816565465
-0.10626902611875999
0.28069117144583644
-0.13461000124431433
0.9487008358942779
0.6672999645772686
-0.6719156977523233
-0.26366368086147896
-0.49544073986818904
-0.07957276384947143
-0.9540538565717935
0.0
0.25448277789653284
-0.9133125285587413
-0.92010649523363
-0.16394319952142045
0.6686623263723264
-0.6678975083139875
-0.7921010647801405
-0.5197791528157778
-0.9035820164649284
0.5891818990193041
0.6192225815486854
0.0
-0.22636705121638312
-0.872623400830091
-0.22665993242204108
-0.5568518847619781
0.8232998173723518
-0.1103343374541419
-0.017648215530526423
0.3544751323575226
0.92799804190446
-0.12961279093309286
-0.11600862301723036
0.0
-0.9252921091572768
-0.1485020264448511
-0.7805019318809423
0.9119522407380853
-0.5030060956744675
0.5077509757393357
-0.16846563595215902
-0.41272411625649186
0.8660232767970626
0.2832395843744906
-0.22215200541574687
0.0
0.6838570006142555
0.08131798546937619
0.6347769914306951
-0.0032681662344384854
0.864077953511488
0.6237843650289505
-0.31867689394014564
0.8646909977072152
0.28213718979924707
0.7018418612916211
-0.8337054414999192
0.0
-0.759730592077662
0.9063786552697033
0.8977036069218427
-0.9718447960724395
0.12580766940378796
0.00621587323933559
0.48620261102700435
-0.580636668596562
-0.9450626122518591
-0.6782240903732519
-0.7000710552836225
0.0
-0.24254544638423048
0.09801171126353503
-0.7102602287971562
0.08494513760368716
0.9265628510199027
0.843685005974343
0.5917717111447527
-0.26125816870437135
0.9713019703181329
0.3132529123847472
-0.3004514528568589
0.0
-0.20596394971268528
0.8833671861692971
-0.053489236995163614
-0.41878393471495223
0.12076756332253025
0.34570979068122876
0.8077346320946082
-0.9341192490343802
-0.8677710243736443
-0.04265703364662299
-0.6560519689837068
0.0
-0.37085252062487406
0.13374821703491957
0.7866753628329639
0.5439198232739937
-0.7423149919299619
0.6481802502634693
-0.019049565529523083
-0.8696076010118616
0.173676956858831
0.006473342037824903
0.13972879296219842
0.0
-0.26819524013003737
0.11549197402850742
-0.9134176742924842
-0.8329428512493136
-0.46131615550738525
0.04691863923909012
0.970210056873126
-0.6527992805275129
0.890518419301203
0.4104762976671781
0.7936463412725787
0.0
0.26622436184901144
0.44595583280800555
-0.9881601453627722
-0.6608947020433902
0.22570319609347655
-0.6073292934643166
0.6542776732523294
0.7521447606307905
0.07969812703536361
0.2059875271325473
-0.1555007864014395
0.0
-0.62769934605192
0.3548247796307935
-0.5762085068212595
0.5303721830238348
0.1446862398997757
-0.7134967877169793
0.06708410845354273
0.7435078538459159
0.3959986129810451
0.7152471781689513
-0.36734868807853194
0.0
-0.4440094594852946
0.8547781318987757
-0.08005327525815886
-0.001096607166718
-0.9856371587124144
-0.9591809760891727
0.5920744822078639
-0.6627764350055174
0.9431969149906678
-0.22942683469083214
-0.1912547207700146
0.0
0.9290284465851151
-0.5882555878328746
-0.9809375799352473
0.8027543444423046
0.10277272783685643
0.902571517986893
0.26945798619615235
0.9967169063102002
0.709452667950984
0.10600854387637715
0.3630321044888918
0.0
0.2987468333422396
-0.9393590138279251
0.5349967794001445
0.8714916591742603
-0.36840084185769695
-0.5559098889833476
0.5322713025936714
-0.4136605081115281
-0.009082032302908827
-0.3622400652077351
-0.9346222294315008
0.0
0.7878885663503692
-0.8396309022339499
0.889004922914566
-0.7181067144146824
0.5159272732008047
0.585200521001179
-0.16593446660315303
-0.6796695560122503
0.5954428690812781
-0.5941836129766709
0.13310063441305453
0.0
0.9921749219108604
0.9862075411957001
-0.8631117611522847
0.34999700421474134
0.9705217625792724
0.5508632662252122
-0.47439156830107554
0.31914262182953146
-0.51490038825453
-0.7700013057032822
0.7954725429642548
0.0
0.9475377460691006
-0.5948200367475116
0.20684027267939897
-0.9714212003240079
-0.42135787039074035
0.49498529119879797
0.6707649956830026
0.18399240470581324
-0.7268249020014348
0.16932824655519862
-0.27827442407127534
0.0
-0.6670713469067564
0.4924858301842814
-0.7107065489472113
0.10242202820200053
-0.592940435249742
-0.03529637212862391
-0.05597872282731653
-0.0365770029878576
0.4954044680240286
-0.6302451891504397
0.9233085006246498
0.0
0.018731254925016705
-0.2653976151169055
0.161392445976422
-0.5774034667247105
0.45164405779078853
0.22427975610852457
0.33486220151758106
-0.5655054061800842
0.8939525338234442
-0.7052598555070051
-0.37975291953974444
0.0
0.07385132041473486
-0.7841335216329453
0.6497309916473462
-0.5753170262798628
0.782341028365283
-0.12008084392642515
-0.7923006617640314
0.1607178468174697
-0.5247101321508671
-0.037896979154608657
0.9040916779691259
0.0
-0.2904049240053297
-0.8939248424649735
0.08016529157737251
0.5797300195379353
0.8777589909232246
-0.6389176814787947
0.5287355513095584
-0.7060229028564355
0.8521547569178156
-0.20309272363783237
0.9269631180388405
0.0
0.1366140581011721
0.6815070499645905
-0.6641036886656104
0.5168603386917963
-0.36924063064634116
-0.8361866038963692
0.25063414424632713
0.14815685433535508
0.8149883085163174
0.37999324189375105
0.318426223724126
0.0
-0.4969002013347461
0.7768086235764267
-0.9013512882216419
0.9124752887201222
-0.22984205658329815
0.910382515509025
-0.035619239593322805
-0.28462208487243723
-0.32438649900769967
0.2099102003898552
0.6660800033930578
0.0
0.6885086462283545
-0.36263104926461587
0.08917484662842168
-0.4307969316877067
0.22695371058411395
0.49966442415579393
-0.6539272468525257
0.6164611431855447
0.7207328470305414
0.019995343480927685
0.3927477144034748
0.0
0.19372505335379153
-0.02482091728899216
-0.347401634101568
-0.7566896690834535
-0.6276875027377928
0.022494597715193798
0.8655634210979661
-0.7763319480831607
0.3973230900498821
-0.5937166385124055
0.8441162205956325
0.0
-0.5742447116697962
0.742671636453488
0.10458157199525853
-0.9578454421537086
-0.14703881073011704
0.23101751851853392
-0.34637492765721567
-0.8200806608986784
-0.18220467777420724
-0.4310279381976554
0.1890249417368055
0.0
-0.8205909466424572
0.32712646118185695
-0.3221759678494789
-0.9218902449322433
0.46530128893407885
0.6000418116120303
-0.6728730025794758
0.8395815222551635
-0.3681697768954053
0.5697661309701663
0.25487082959266694
0.0
-0.15633663183061364
0.4322168380522584
0.2928292988823773
-0.5535076218618342
-0.21791279821817433
-0.3634595372631675
0.6823618387922679
-0.4066738914054773
-0.15112977854409837
0.8062063338708572
-0.023839273772798153
0.0
-0.39211038917687757
0.972332520431066
0.6111671146002724
-0.44506811089313847
0.685639293100831
-0.7664150463514492
-0.5954190632920544
0.1733583808234509
0.8382269994215796
-0.4800278091643084
0.9601028461052341
0.0
0.9950778972838994
0.08971766135565673
-0.5602817546744285
-0.7772878921698134
-0.3886716922401614
0.7214602260419933
-0.2887028130429117
-0.7130887506227876
-0.7112797783530429
0.6056860006794293
0.16328131596836815
0.0
0.21750501538927924
-0.5161414761180394
-0.38690948027933003
0.7631586920557258
0.117859690567933
0.7267226861707241
-0.025051311477893856
0.8478859805544485
-0.08996889599162072
-0.9861662709532575
-0.11685167952928266
0.0
-0.015860914149072425
-0.8801679044262678
0.09130961856523534
0.2686948749555049
-0.4178068602237226
0.9464670685035734
0.9770511621152456
0.877803681257677
0.6454593624025464
0.6558215671729635
0.11808214404759343
0.0
0.8391208923211928
-0.5267592848375326
0.8363753744494542
-0.7078199075575009
0.9785729689186364
-0.46339194336344147
0.5025155254332145
-0.9724406263815903
0.39752176590943367
0.5929752621721667
-0.3630297111316121
0.0
0.7564626729436796
-0.222627777960424
-0.05144313369524944
-0.7756417619723754
0.42866376050672805
0.09310753963000362
0.47483057808202345
-0.6867288580217485
0.0576723796947014
-0.5574076398527381
-0.007128806017178135
0.0
-0.9565113558440728
0.8022902985452374
-0.37216382454515684
0.5171071364327944
-0.003101380533193643
-0.3542116161334443
-0.4615352072194481
-0.9040341345106395
-0.6908238668560862
-0.6947414670774605
0.6296213757883515
0.0
-0.6468395639517852
-0.9336094914803941
-0.8807745159305052
0.5461143133794986
-0.4361590267839084
0.9391223339142578
0.31113870856648695
0.7646820595367971
-0.9788102626867716
-0.4293429460804088
-0.23545247453616613
0.0
0.3683651675312285
0.7567596847162434
-0.77544420829742
-0.06853920185223683
-0.1596810794550696
-0.5422598593510393
0.8014509023470946
0.16206160074250175
-0.5032230572752514
0.07834428081836209
-0.714268026914411
0.0
-0.04224073862910682
-0.9275972922670952
0.0578045107535301
-0.43797672197992155
-0.27214373504650635
0.1145920814406125
-0.7216185365442189
0.9205455672956313
-0.0983119784362565
0.8311644918763463
-0.46806662126773335
0.0
-0.4525042243725623
-0.12508569416390292
0.019445171509354653
-0.7963973104348894
-0.34475274478451534
-0.02799700060259136
-0.5757208180717737
0.6214286316928297
0.6940073300006757
0.854117693295535
0.6647574627012107
0.0
-0.33293591733712247
-0.18777803530338488
0.0797884395476054
-0.3777952906454187
-0.7668605767890211
0.5456088987829635
-0.05720926941015669
0.7456788479391896
0.2481486529369279
0.4697825638939439
0.10351770392732162
0.0
-0.72580247439031
-0.17004332696720614
-0.7404043540159333
-0.31579142210516586
0.39585287438577876
0.7492599717789514
0.6796414330619025
-0.18440720874115146
0.25583374094707034
0.5675614963255204
0.03420453309375904
0.0
-0.3899303624295716
0.3411066148149975
0.7457639753494669
0.13810013182134173
-0.10563699137642057
0.4879608181665631
-0.5230843146720845
0.8944252773569421
0.4228451953614314
-0.7198663793194453
-0.4472209792302868
0.0
0.6350980981613858
0.7767397300333605
0.8843674413464109
0.7469772656790774
-0.3903870168721637
-0.3678268683683039
-0.5806913318159017
0.6790483431706904
-0.11576585988159493
-0.9212162344089252
-0.04887900862650274
0.0
0.5676565956372743
0.18757440739514042
-0.013122313749060366
0.08151927036188633
0.6659444052120562
-0.43200711129853975
0.6426753552016347
0.07084569204913294
0.5945100514336479
0.30268253911142184
0.49695002451293147
0.0
-0.5941955744457155
0.5923803380931034
-0.41365586354357764
0.4896892144939229
-0.54443968609834
0.5907275124745042
0.6497724017526527
0.578782833448136
0.8344597446603914
0.34653421201901224
0.34762101190393
0.0
0.08864560465748594
-0.2780368893223226
-0.32336280320586064
-0.6969571794640348
-0.658024860610269
0.8690977792970798
-0.31828779791593065
0.03559532105762497
0.1847821069014961
0.631153392232495
-0.9524052706775428
0.0
-0.5387391393298786
-0.2439172869447943
-0.24148173483863333
0.9363656381747136
0.7482306785751944
-0.794558706448373
-0.17420645212243446
-0.982919439256277
-0.8526456303274881
-0.6214573395585163
0.4531533241950123
0.0
0.5653860150653238
-0.20373803770792986
0.6111479310186281
0.7709768581972691
0.06333160407388516
0.8400537733017248
0.5709596454980923
-0.7791356984684239
-0.5234784101722159
0.5053145264281322
0.5477816937454476
0.0
0.7189742932419101
-0.4743188673225165
-0.8337877671925111
0.2770451567345391
0.6171398918014457
-0.4999959265696685
-0.5106668052003558
0.9881355876386131
-0.8312171425907733
-0.39296163390361594
-0.23099802043042383
0.0
-0.6249380878169939
-0.6749396864181554
-0.7426057947940337
0.9821510916440064
0.23250342796515233
-0.11049270808849121
-0.5797304840337292
-0.023034921614649484
-0.24929332539240034
-0.6626206812314575
-0.24849285567815804
0.0
0.8787828896191943
-0.4850508473186441
-0.5495002788005241
-0.894912338717065
0.2706648609607092
-0.5230189032420771
0.4163170181621314
0.8939913561978561
-0.49875897468771413
0.0010083599146759603
0.9416846403237642
0.0
-0.7169530681080758
-0.535074888238237
-0.9440733568044859
0.14754117181293602
-0.8202461580235618
0.5473773176310832
-0.3840407019581582
0.5558454362224219
-0.4613441162367573
-0.8848895863497626
0.7854886709968156
0.0
-0.2426861986083444
-0.45565136489248226
-0.7406917909451383
0.697182299574215
0.6922739040529449
0.4978914635864444
0.8274883282656416
-0.41550418507060294
0.38669202808373915
-0.36918201644343074
0.790448482934742
0.0
-0.1605258910438243
-0.66369251775468
-0.27953650080200676
-0.5635763667412166
-0.4760524526759924
-0.3630147288635026
-0.9900100718054703
-0.3770277442625165
-0.8029830899701973
-0.9555920499689923
-0.19195593483238182
0.0
-0.7551736881655633
0.5207911251957571
-0.6534988812058946
-0.4389684484690912
0.06038619489211672
-0.4170731912045189
-0.055263736022620025
-0.9747673745474137
0.9370151087528438
-0.03835397681191566
-0.046071933483446514
0.0
-0.07156541109055947
-0.4019649596928325
0.6211240616263882
0.25186136207742904
-0.9077297283128427
-0.9127423955905696
-0.39169080847716864
0.5004094574891189
-0.8043524915305118
-0.2646636110281939
-0.5242186695430104
0.0
-0.30276351348388886
0.2894457083070987
-0.6220942519097317
0.04267232209701288
0.09024727845045488
-0.9730281889977712
-0.47166823410599434
-0.21027426976411
0.49380657065851064
-0.10481757230191335
0.7329919036083523
0.0
0.23780192422470914
-0.7268472465884124
0.5327792934053552
0.02130044010680887
-0.43079423514826076
0.9618627765035934
-0.11793591517335678
-0.5695958601575379
0.04930074371915305
0.8278298412893272
-0.7930838204896933
0.0
0.35868046418535693
0.8415709721992661
-0.6240810307642848
0.5030205535007048
0.33613626658463414
0.7612936538370823
-0.09859191633843345
0.9210693597385613
0.857308466858882
0.08039039004446602
0.5974817335386025
0.0
-0.004160233876773001
-0.7762258631598196
-0.16427794237992654
0.07926525188375289
0.19124677959827507
0.4758956082991126
0.03980848566065576
0.8787828953364119
0.9972966234075249
-0.1559727274527698
0.20252355014419288
0.0
-0.8507355571008404
-0.21625430986127614
0.6843558657469364
0.9941690733381103
-0.8998696446823815
0.46915936204630593
0.5848780355956338
-0.022855610297773055
-0.406573052781223
-0.7849836668113868
-0.13842509897886957
0.0
0.8692488644819367
0.4577070888497434
0.31075150252089156
-0.4547260525608605
-0.07982477483621819
-0.7506510226641443
0.3874688749148989
-0.1747005083663291
0.4964615133451302
0.8719965130870211
0.41644421091288675
0.0
0.28719839250081414
-0.22480756977044059
-0.18930093931011038
0.29133281612227657
0.26548896438256797
0.19043379423589224
0.31511948627523934
-0.3553208740596838
0.576693214698476
-0.7030278667932115
-0.04836994251566118
0.0
-0.9724656849767681
-0.18449790537159338
0.7089763105719828
-0.25835890145140117
0.8313003720580481
-0.5658275254753247
0.08642398075472002
0.668377896362498
-0.8085935202526344
-0.30793777256670185
0.30832536928928445
0.0
-0.2712532422922349
0.08008374358190973
-0.6263938241232259
0.2340171366151107
0.170621514568019
-0.17709318353231907
0.7965868396111984
-0.4605887636585262
-0.42165946901428053
0.7989004315291117
-0.06003702729421856
0.0
0.5188840426694734
-0.12693018461208938
-0.8525312699155669
0.03606194755975811
-0.9006887936633252
0.43079010412620145
-0.46880834431073937
0.39780724167938253
0.8947994493965095
0.16875539921129268
-0.1659470864905892
0.0
-0.41257228607139074
0.1677972506245884
0.3841435404481275
0.2777161794418783
-0.6758027066165173
0.8513333850601901
-0.4817743886231285
-0.22692749901445253
-0.39964446830255884
0.09037424330609656
-0.045527804676259276
0.0
-0.40480060525853667
0.997958797237438
0.4357999165337014
0.556165653697271
0.6649937916495776
0.4075415668277067
-0.7412003070338611
-0.6077026471675884
-0.09813697214244121
-0.10399228994648624
-0.6325824299190967
0.0
-0.6543553104307853
-0.22067015758825037
0.5464914429413057
0.7711208895350674
-0.7941829253214969
-0.9804313487225138
0.5189387578435833
-0.6885964704870267
0.41232661180438557
-0.885094264263711
0.7056388434615075
0.0
-0.453475120678813
-0.8479902572514899
-0.9871368021785156
0.22978470000321383
0.3122130131882468
-0.08860494608455838
0.32013250783684555
-0.26194992745608436
-0.06725432999039227
0.8551664223154216
0.2802664098908947
0.0
0.09359675498695985
0.1516177092812132
0.08429107391907587
0.2714669521052202
0.350837263811405
0.3947100981962621
0.9052294101939238
0.1691357916102798
-0.48467128493201206
-0.7762193333540288
0.873490263203275
0.0
-0.6479535704481316
-0.49383239508935906
-0.12079216722431929
-0.6956520104966966
0.7491979231529333
-0.6259710039722157
0.38379328203364094
0.1570649444854384
-0.45717605907749803
0.9020330767192168
-0.8220672056591263
0.0
0.5872262011784624
-0.38604204298735034
0.18804412518686253
0.21106237375904668
0.494844083554953
-0.9490476984155611
-0.7665640966457565
0.3288493222043536
-0.2742726158564701
-0.46556625913945915
-0.822287749414295
0.0
-0.026520840407021407
0.7774576179611146
0.10475110944299915
-0.6911677324198291
-0.8120129059820611
-0.9629558961871858
0.17654019025018663
-0.5027471121285763
0.4397661991734576
0.5950867972350089
0.873057680858208
0.0
-0.33939900943448453
-0.9818812230007046
0.5252446743992172
0.8574992324802502
-0.7453970602631719
0.24053500824677942
0.7709151192902763
0.4768336904933177
0.8720751832012306
-0.9825326509317445
-0.5356217626844935
0.0
-0.911202135857831
4.0643480994617676E-4
-0.8163924267129177
0.7575732492849085
0.09281830650824063
-0.3421084165052848
0.6050724616289715
0.9245189843707506
0.6346482679265995
-0.17632045793490692
0.19856139222309954
0.0
-0.08864779395389788
0.03940706842053587
0.9286719581650995
-0.6220822309027012
-0.027182478380572528
-0.09473050782935744
0.6233679669174312
0.5779412457270559
-0.9849343360885463
-0.29972877442939727
0.6548121555824189
0.0
-0.7059385663010471
-0.36598796981676385
0.27209415509173884
0.1596999338680425
-0.5909622698058112
-0.9619159171664029
-0.14413454286019522
-0.5573130691839512
0.8661786670562639
0.5776331484792354
-0.03099119294217756
0.0
0.698940498715261
-0.9632136609660256
0.6183406208442679
-0.7223635948777516
-0.6702630480116729
-0.7615775717947852
0.10907019315162891
-0.9268060822158986
0.089984353875743
-0.9587530334715593
0.4858247108783498
0.0
-0.16692770223857822
-0.7200669885779636
0.04822015272809055
0.09041016693886328
-0.8213685363195005
0.8757236707008536
0.787902061481873
-0.3231482970713848
0.5438635515550625
-0.051834848803598454
0.7802778686432821
0.0
-0.39305905110838046
0.35722715860418486
0.3677462366022368
0.05921415117530149
0.22203469117304997
0.4681097816773778
0.7051784309986087
0.6642212364766575
0.8851431415555286
-0.4871866618332428
0.592694172328456
0.0
-0.8659243224024851
-0.19514510763573156
-0.02811153341312833
0.10317533858805672
0.8139244954309379
-0.20392421111116188
0.16884532942517572
0.32103387018515206
-0.9042835494260784
0.49251035928418685
-0.505345970384548
0.0
0.8073635001052191
-0.9148223127153663
0.9164080678709572
0.7807202660180961
0.21009248781724343
-0.8052365035244837
0.12950238424347305
-0.2563522870215462
0.04450316480147576
-0.4452277028888505
-0.020651221953474685
0.0
0.5858545191253035
0.8885209816068649
0.3767558214556084
-0.9513128298526632
-0.42877061896838287
-0.39330814249035595
-0.4774843969657978
-0.013294687679039852
0.7537212614705768
-0.2640986245168053
0.05847879849541293
0.0
0.22159824490291657
0.7787296309725142
-0.19280990841668766
0.20373427556977974
-0.33335262660811904
-0.9121449800427255
0.8435518161077922
-0.8800354373529451
0.1305861207369372
-0.42929433919770665
0.08135020876280485
0.0
-0.16698739048576194
0.3786510462066628
-0.9117856797846595
0.8326172811847026
-0.2835671572548173
-0.02237441690024733
-0.7308391415092705
0.5024187510615314
0.9409963594954578
-0.509994660232229
0.9426132903584505
0.0
0.04069164050855423
-0.15304244812469658
0.4470113003100922
0.1574669932937729
0.8363254004993519
-0.5559411149413036
-0.6530264109856299
0.28548404684819206
0.820591194978822
-0.13979806619098856
-0.503263894443805
0.0
-0.8384061244064192
-0.20775604819022253
-0.2275118163259615
-0.4600155464695199
0.3393129843675464
-0.6140967656750795
0.014049479805683829
0.5496508099563258
-0.4944983516739758
-0.20058141320932288
-0.065091100536806
0.0
-0.3494435847450219
0.23106085504518425
-0.7329088408923223
-0.48505378857238535
-0.03593766712243651
-0.12718879011233009
0.47287496497616033
0.19368948902212768
0.24605134929163874
-0.44085905195287034
-0.7529274843938092
0.0
-0.1772418066472241
-0.675791000934437
0.6586477283828531
0.7719008712687454
-0.15152562926692803
0.6283973411019739
-0.909496411830611
0.7373821355751615
-0.3516048224168862
-0.5377285301680204
0.35692340281634727
0.0
0.07080991079876231
-0.16077707033864375
-0.6387532552740436
-0.6850199444873779
-0.0605748762090097
0.5019925064913127
-0.49174766156649663
-0.7266874598101793
0.33616013788837806
0.2530708568662037
0.7004011516365101
0.0
-0.986881528646387
0.8537475697502892
-0.1772333608632526
0.7763091361957053
0.2618787357967389
-0.10847255302161463
-0.05279650197862207
-0.9704113627337254
0.816054778504933
-0.8315971552718173
0.22832144763172924
0.0
0.31785635377298505
-0.5986122983495121
0.6771198110831997
0.5423850814988618
-0.12182010506832786
0.5704011257747357
-0.12119729588543127
0.3932837419795834
0.10224613934887006
-0.6004527359562102
-0.4453499419040834
0.0
-0.09937854392587342
0.2633160154001142
-0.28762230142460954
0.061670369995783236
-0.8386966461165362
-0.9782367686207787
-0.8341105318028712
-0.1764669301477022
-0.4599254953225387
-0.1559932949124161
0.845158374912939
0.0
0.39044679083454326
-0.2657869466874425
-0.1772252788387636
0.3251479426656154
-0.08475631389512883
-0.9570432357593777
0.11490439951716791
0.13278257230292545
-0.7896742946750257
-0.5811132286113454
-0.7827319685897511
0.0
0.510922803701924
0.0760781605105727
-0.2176817810199978
0.5295964802297974
-0.6329776070679833
-0.5014733593878631
0.7125772051268648
0.8118830053967103
0.5645197102617341
0.8835023297286542
0.4816026504172517
0.0
0.5328061328739269
-0.12282964764303239
-0.9055713534139611
-0.3102797646891491
0.1952524966398954
0.41169789130123946
-0.7494373562262657
0.173699741540003
0.23956046793236108
0.47461039789729886
0.7597680457751335
0.0
-0.5956618444143567
0.2957164521908364
0.0322994376542749
0.18447516312867607
-0.1674541399161027
0.2174425523153538
-0.2507680400043768
0.5742529845292446
0.799721348270376
-0.16586937399387947
-0.9681044434874064
0.0
0.7663875645303473
0.17470968642095897
0.7203686751998823
-0.7224646973378959
-0.5115884654502985
0.3716371296308709
-0.058692359656284054
0.1226384407889829
0.6783231470099069
0.20081826760393162
-0.33217465263529555
0.0
-0.5420018027404607
0.956608070585947
0.18979787545125526
0.9827602444336248
0.8651141384499978
-0.010132221115244588
-0.1850314113173539
0.3868653789412597
0.7866533601137555
-0.6612153630923809
-0.09642037850035612
0.0
-0.6973274394366782
0.8172650777413677
-0.7091728332945864
0.2506005846369095
-0.3680791057699333
-0.0057681917356726675
-0.9660991786938131
0.4798496468498372
0.6567554920443206
0.3283639373684073
0.17572602915116353
0.0
0.6918385458967646
-0.7033410746251942
-0.07555945929157826
0.9218512431253527
0.5258960525462413
-0.6071690798309606
-0.40353454641387043
-0.06399310255580959
-0.8276660627115056
-0.6614601674431955
-0.7223061892531819
0.0
0.7867158359454292
-0.4075833435097054
0.22814167324954915
0.9833187109157955
-0.6062969463848007
-0.7075387023759454
0.08154297236830477
0.5571661999173716
-0.8844621517064624
-0.18124434718842952
-0.5659312407071115
0.0
0.5172186123408826
-0.90693745668466
0.2758140918032146
-0.5110698738239925
0.3820269514954566
-0.9215448665122863
0.19662500309266062
0.5693786045275449
0.15047736904188147
0.9076613374255966
-0.6308775693904194
0.0
0.9929187305912488
0.45977570372732046
-0.6455630572958229
-0.4779093807188166
-0.0288229732494496
0.26258875481729005
0.1519040281803763
0.31764731651393974
-0.08968485348672028
-0.5099584542781439
-0.5814435970260912
0.0
-0.8628561785346318
0.5700798914792455
-0.15861666737583424
-0.048264362325431076
-0.16775030022418091
-0.7387906248712133
-0.40644073449514595
-0.06786007943661465
-0.24160239845733522
-0.8027312454929263
-0.8893774945119444
0.0
0.9456305742011495
0.8209536513893021
-0.8496691804366421
0.0470213304243432
0.8988113168705172
-0.1302470154393851
0.34205469526307763
-0.5752393154112643
-0.6730056897672958
-0.3436066816613741
-0.605424271615534
0.0
0.20280607696106867
0.39334741954770536
-0.7294804071687473
0.29848363917071685
0.8636055129027191
-0.4655912181825661
0.9156622243138728
0.47768253874749966
-0.6945798047949978
-0.40498773308328806
0.9197670482123561
0.0
-0.18160775163674314
-0.7371373533437329
-0.039932948434079796
-0.7238028180928398
-0.9644562978643174
-0.29113754706736583
0.007254032147446576
-4.4875202013239246E-4
0.13929285521507784
-0.2829736906405165
0.9969437584351033
0.0
-0.9092683180629657
0.32576251328602956
0.17736530902790215
0.7543730367433916
-0.5548155216467485
0.1900535460397883
-0.3323496771179064
-0.05036489723453519
0.8331234711714754
-0.14133779216798859
0.6853322356822398
0.0
0.04552385202556408
-0.23240146058356292
0.6474214167017864
-0.8118249543937681
0.9838675913348793
0.11751429049687645
0.3511240071263233
0.7102075815819087
-0.525051948996885
-0.8567925297757848
0.7048672486989
0.0
0.1670470340090242
-0.5493484750621207
-0.5343035045228293
-0.7255232869214179
-0.9891329661361681
0.16680497893897117
-0.6047416100387057
0.9441251841161715
-0.159812950367475
-0.4140854813257675
0.21869686245140962
0.0
0.5880178502431241
-0.1802578920767477
-0.5064323670738176
0.9368869097758352
-0.5675557589001223
0.34992468406823507
-0.6540502696314681
0.16716085802035274
0.6636743350095708
0.7871047402364615
0.36579066560207796
0.0
-0.8792302646211134
0.3520606514586768
-0.9263109744784768
-0.42065101847136277
-0.11864338728541557
-0.8049893533420709
-0.008555899741313766
0.021865192197347616
0.7504393208160123
-0.8814245690123215
0.8920772240205079
0.0
-0.7749327065262248
-0.3354390696450371
0.5496321971628515
0.4255945116561619
-0.563601587206074
0.6045998962602508
-0.8014631972586601
0.08523235403156071
0.1479372243641226
-0.9739432775521595
-0.028031016614440185
0.0
-0.9737323302716372
-0.15928819597931443
-0.05653120188879823
0.5043056217473159
-0.3589641975254121
0.7419966587399232
-0.610237707528942
0.788159906508366
0.03845703144068424
-0.7245887477851221
0.8671196897539735
0.0
-0.6829648611813364
0.07208150636796651
-0.2544096659777597
0.2174648401613477
-0.3148431839345214
0.77430504298231
0.9324126519480302
-0.03581082616244813
0.09452199475696443
0.7406892329840464
-0.4857654000114957
0.0
-0.4453583650867239
0.7068892165315781
-0.5344458654479576
-0.6635814620512002
0.18589074489226376
0.5363972744830601
0.934581367947732
0.7628595211010296
0.47279747568415353
0.24104475768653133
-0.1488338095230326
0.0
-0.5568199948116141
0.17775742964998642
-0.4630720763912768
-0.9406130122439136
0.4857634144754459
0.4812651005217734
0.6552088917416194
0.8237457357791156
0.7067644715350272
0.7414367352511624
-0.5771867907257417
0.0
-0.4691877081668969
-0.10393053381042683
0.913293268605738
0.4971208996306906
-0.9218792919336025
-0.9691814522662154
-0.19551708148316993
0.5834795216145854
-0.9847861704468364
0.8492726557093864
0.1689335793761526
0.0
-0.1035139726055676
0.2509680247518482
-0.13464166629584673
-0.2817726606896156
0.8135182711715621
-0.8036777251625944
0.4536481814263855
0.03800029513676639
-0.4165680644664438
0.7166434754249345
0.9796734040831387
0.0
0.2660553400102572
-0.4851385770798611
0.30895343256532026
-0.18081428360637664
0.6163873039652774
-0.020409934615231773
-0.937600413167264
0.46550902504221203
-0.4337738405322713
-0.7091640049549215
0.8512250135981636
0.0
0.9047784520276869
-0.5065786379056392
-0.7471390841945009
-0.9237615821690828
0.9878867961844162
0.035632792262772606
-0.46477323347426336
0.8229017322745071
-0.9960931342985404
-0.2662332656715005
0.5913209461716535
0.0
0.12695227014457844
-0.4473163615904874
-0.4971689004719082
0.74079312372122
-0.7502958176077152
-0.35696914597302176
0.6043447883002
-0.3202064432962475
0.1619164775532167
-0.1979498293036026
-0.4637328518451884
0.0
0.25016706463145755
-0.5830260609053721
-0.356007572801035
0.05717701920634366
-0.3632870456928641
-0.8933186879588253
-0.8867743598470632
-0.5093508896145771
-0.5430098815651783
0.023035900264008147
-0.39423651905420365
0.0
-0.6993954712354222
-0.29909329622212644
-0.06298647346284536
0.3666241520334057
-0.8436453921291389
0.038372759396285705
-0.7890492712130659
-0.09683246598544604
-0.5785001503699312
-0.21232218297911443
-0.7711954973240471
0.0
-0.16257714394521505
0.04896783258116488
0.6060059956501427
-0.8807932936111362
0.3890348598167246
-0.012438573541420528
-0.05900807946907216
0.0500135327751392
0.18323319039169883
0.9439786970938953
0.7693353632304043
0.0
0.7228161356317935
0.33289549102560323
-0.9003162520706758
-0.7709390833361331
-0.3155748104041931
-0.8943805560035134
-0.99296159318501
-0.6175126172808676
0.7150127257433145
0.11148480972869179
-0.8255272572384786
0.0
0.7290370060360583
0.9186285905007603
0.9952516642087605
-0.2066487731796811
0.44048574429877374
0.5792190012349583
-0.8434049591502601
0.3136202339973575
-0.12885565854012415
-0.18065416405079215
0.9740880095230675
0.0
-0.991883270633735
0.8145555285391268
0.22282284212434678
-0.48894495469184474
-0.8179322310271255
-0.25776724010010055
0.4663382803269944
0.276729305956416
-0.20673317622804843
-0.18025628747958233
-0.28899082639313955
0.0
-0.9219586781663953
0.8301316834786636
0.8113849931989559
0.4459523707512367
0.2091743305778544
-0.606039901761263
0.25857997438846514
-0.7909083258967149
0.5614221085954898
-0.9859011777731255
0.01736220094573504
0.0
-0.30418841548623266
-0.4090365541091181
-0.6762507789898968
-0.9445171604339191
0.2144702610908502
-0.08547177777214476
0.4846754001742617
0.13105922198908537
-0.35975818399256587
-0.8547079325232276
-0.7367927553076352
0.0
-0.6789548385798714
-0.6654754706407893
0.6952315464217669
0.42139250104530857
0.5700265278663839
0.6295269141253073
-0.21266103640928669
0.16262203870081327
-0.10496452139506918
0.24606923648692303
-0.7113725829527369
0.0
-0.5533781678566221
0.6381432506754914
-0.034946518600383
-0.551567690384257
-0.37154130865319535
0.35104101980809954
-0.4909974332330842
-0.4560868093849453
0.9314406815123559
0.7895287901549943
-0.2720537509218477
0.0
0.44724183557530184
0.437601304783106
0.6987060267839977
-0.8411882329038793
-0.5495990992361692
0.040817768268875954
0.43563626647240583
-0.8140776447817963
0.8011276839247443
-0.06273160005188583
-0.5806131699364658
0.0
-0.4998972897271361
-0.3618763094856443
-0.736853248884185
-0.18872253719787602
-0.5985517670332572
-0.5307361582419534
0.7317705094258842
-0.733426688006406
-0.9456024772605145
0.28584873988420334
0.8440710067589994
0.0
0.6212128205828062
-0.9951747358069292
-0.5348167444983254
-0.05697482897390582
-0.15145429481483785
-0.9968427166537825
-0.6112285555793553
0.24242742131249373
0.8898594815073246
0.26413026936206796
0.9999177859838129
0.0
0.2583487072804411
-0.06963065811516
0.7954939605839091
0.2035436161511408
0.976830893193743
-0.7220590532096198
0.5207818731899121
0.60942825601749
0.783615982814297
0.6889777887340127
0.2786588380631889
0.0
-0.6356531587542205
0.6960524821737817
0.8731534848204372
0.6316571693927657
-0.4965947919374045
0.9579593536406688
-0.612901583891428
0.6983295192247108
0.6609592819676067
0.9210596680974281
-0.7280686366359939
0.0
0.4996619466358678
0.34337547620210174
0.610402005983983
-0.5031288788428523
0.6090655520154313
0.4118718433908768
-0.0836678299916529
0.8509262438988625
0.9024953324618923
-0.4312361788341772
0.9550110432123444
0.0
-0.19302989993963315
0.0027603971856267062
0.3957333079445724
-0.2894326752427532
-0.20040560630626092
-0.01014522366718773
0.7380192658207323
0.1349972101357486
-0.5856195436663651
-0.573718263722607
0.21351014657962364
0.0
-0.6223790082704226
-0.10677799678529931
-0.7448347714914125
-0.731171397721784
0.5339269429558928
-0.6189836002804838
0.2447365871858047
-0.6403074338698729
0.5754866259786706
-0.9539118659675929
-0.8906166138036589
0.0
-0.7443697494668919
0.2839412338820162
0.30310639705091913
-0.6024648052725372
0.743165231899563
-0.84134521105412
0.48223610476983136
-0.2710423190763296
-0.19315860861738288
-0.3178844839859303
-0.42344823727467773
0.0
0.7321621644459795
-0.9178018547830715
-0.5088974631902112
-0.996392695922302
0.4694560355038413
-0.4319753062813494
-0.6975747892703559
0.34816284753700555
-0.0385266514849707
0.29045600509003533
-0.6426783373005107
0.0
-0.7601810339356705
0.39116634799551186
-0.560924848789119
0.46668437469722024
-0.28313399869961753
0.07181922592248169
0.2400128130286734
0.8095400630104688
0.13095046903037577
-0.6645118543697537
0.7238003446467765
0.0
-0.6497292724028998
0.34242014653454866
-0.73592770041811
0.6775397574274193
-0.8407815949658095
-0.9278498895062379
-0.37659933742603213
-0.28391154390739004
-0.07736496717727714
-0.30203901211368045
0.7206395114492676
0.0
0.44006232393119693
-0.5417943316826079
-0.8716681856011812
0.7527505912237695
0.44534509100073616
0.14427053610116558
0.8213679908385161
-0.20098576332353324
-0.5736647081422495
-0.6308869565976507
0.3548956728609649
0.0
-0.03885741151884248
0.4103918536388411
-0.40654000172873483
0.3404694182326329
0.31237647354994036
-0.7517525920000809
-0.5763510219796204
0.7588459015316165
0.9291804314806436
0.9889715160703765
-0.6583881227766535
0.0
-0.47053403861823684
-0.6883675082389751
-0.35882866258841273
0.2232490311487978
-0.21870411742759965
0.3440050900273457
-0.24421987966342495
0.804650370260402
-0.16305941830806026
-0.006326073696724999
-0.5262175049579061
0.0
0.7007650025256014
0.09947648743054871
-0.297652975259181
-0.17969236026758728
0.5244380728246019
0.33538822012963343
-0.06386950533834246
-0.9155924684057499
0.5709736965182965
-0.14871759356399306
0.2511783344357037
0.0
0.13557062666206243
-0.7091964073408004
-0.16600438636835313
0.7227066283800276
0.07928175762163114
0.01656787738056331
-0.40215077264013765
0.14577273189879802
0.9117633313158005
0.8427959164864942
-0.7853709211425948
0.0
-0.7386897523561646
0.08069258847270122
0.36341173715349506
-0.1378979415889039
-0.4091042895266366
-0.3781222525814931
-0.9749186007543338
0.8386512543409745
-0.07599556561696263
-0.9929674510544786
-0.947097753840104
0.0
0.2834012923435121
0.028873488828788485
-0.5395698710712156
0.5573189348942778
-0.8762249910574171
-0.7859980773407984
0.09469605776997536
-0.44332049253384764
-0.3303932892864172
0.10859234890143821
0.08021866293959978
0.0
0.20297761095416877
-0.7205150221109
0.41276863090855453
-0.667946570726347
-0.040489439736299815
-0.49083037490579073
0.8789452077822844
0.13219939321003848
-0.161382538738293
0.7217033397008354
-0.13527072535869067
0.0
-0.33005295081797614
-0.23257856880937933
0.9166634632796815
0.6320456198940814
0.03963378564486253
0.7029402281666208
-0.9336981065973917
-0.5574908446888092
0.1185358357752675
-0.8035614555704009
-0.35277284274652554
0.0
0.010904683171967244
-0.40432199844468064
-0.3022290143473667
-0.22291880323320412
0.13519800542217553
-0.4883750931922619
-0.29810839557466795
0.7847735085428216
0.7289911241129177
0.1958938643672059
-0.26736358689233786
0.0
0.1127494715410211
0.7350405843633565
-0.7013515753177233
0.14639570337712993
-0.4045982621755093
0.3890380852805413
-0.7398084814502099
0.9691291192557048
0.7359321807575456
-0.29000535602046895
0.3443651881706504
0.0
-0.5106060219156665
0.8825821807932672
-0.006474360679618485
-0.9888382996183058
0.8500388488391215
0.5295791079063157
0.6175025216644858
0.07356915053776403
-0.5954579710321894
-0.5720707635654396
0.5686416896406941
0.0
-0.4100132363271418
0.7359589104551221
0.3819145637507486
0.5643937198784104
-0.37437919162577704
0.34284246306587485
0.3426927123987278
-0.8442000708743207
0.4251354830685119
-0.2009169712323613
-0.6876515628017599
0.0
-0.30440315707216925
-0.2500588017720293
-0.8801790912249905
-0.4500663912529179
-0.5724871780255272
-0.5002933752958039
0.6878635774765571
-0.16594973286566783
0.19931935698987502
-0.9007848706551542
0.5531293333217144
0.0
-0.7197184208699068
0.12698597845375614
-0.2405126258159851
0.20279259312640452
-0.346483722093635
-0.17047358001987578
-0.20406020372307077
-0.42911444872599414
0.6131455603335447
0.9910600338057147
-0.029955315785774372
0.0
-0.8040883624657873
0.5159859212449507
-0.14368551476816704
0.25429336986678197
-0.06644008641704513
0.9987675097112507
0.12040679716586
-0.3530613096009265
0.9771072089819615
-0.2511500849946018
-0.4043606638997639
0.0
0.8830320925392239
-0.20722920717599802
-0.23933759627866502
0.3547791525595232
-0.879437017593584
-0.43125818913253
-0.7289061766929441
0.42540435493614215
0.9581427344826967
0.8136697551201988
0.9719539410272799
0.0
0.8688621541356987
0.2910452299902402
-0.9183751505684052
-0.45959195072108816
-0.2078525554269819
-0.12532737751793954
0.19861186446168233
-0.6857200869389766
-0.27626064142355156
0.6469709535214503
0.3567055604778633
0.0
0.16993709619480502
-0.9848333956245199
0.5277829095773383
-0.9907878252210249
0.4658415911308438
0.4927579654778602
0.04779441423772757
0.547080664447009
-0.33823540653094897
-0.9401766711709663
0.2505621780793468
0.0
-0.855567225715326
-0.11421490632816012
0.629552034422981
0.8789377149164279
-0.49893140935957603
0.2749397464362042
0.19724408919986014
-0.03361935839779595
-0.991287479002994
-0.9945587799137392
0.6151432761559639
0.0
0.04502111988158419
0.09074640182903271
0.7750857107541944
-0.2603044576006801
0.3531511406776866
-0.41120388001728103
0.03923536620183521
0.7324954792985463
-0.12425397278342554
-0.19418094128161822
0.5239254043971127
0.0
0.3210854684657931
-0.05429007155142496
-0.8649397256102693
-0.04478778759601165
0.2914106812326369
-0.4258169924768307
-0.8088619415845937
-0.062429385086169464
0.46856065565791716
-0.34463223931173403
0.08306050529676412
0.0
-0.80783172853043
0.42129802017206996
-0.15811044187961532
-0.8023543635054451
0.6944480194716578
0.4319391888501445
-0.9227795860895662
0.5659218516124938
0.9999405709929701
0.3115025934487039
-0.33476206674898235
0.0
-0.42910111375623683
0.3027846906124678
-0.021654383158937973
0.33541471974734427
0.7057860368443685
-0.11754133868829086
0.08639432561375937
0.42718902858884356
-0.1943359735197907
0.7438713251939648
0.7318680387975707
0.0
0.9467553450223041
0.2574602292200463
-0.8095305588396702
0.022124522117944245
0.7601707689907808
0.8058585318202367
0.07497815889552495
0.44541345994452963
-0.9249355020236709
0.06906858343310285
-0.8526466205028806
0.0
-0.42138053573805156
-0.8060725147274732
-0.8825847164906981
0.4510075291774793
-0.06403715777732732
-0.316790928826552
-0.8279008940018155
-0.7851911260785833
-0.6212609285744812
-0.15210355149738897
0.79611463015162
0.0
-0.4481059977124342
-0.8237267013475311
0.018892089090212894
-0.2490233678593976
-0.3931912748124631
0.047478166248112075
0.9002264054793061
0.6096977212774686
0.4344032150190311
-0.9066112631286158
-0.4095709858413754
0.0
0.26225125022525053
0.875660242513471
-0.38117931227354274
-0.8459048992190923
-0.5696070511397153
0.03051556409740308
0.19656147338425534
0.5204751733336501
-0.5034439634378223
0.25370791178793417
0.8477037280372792
0.0
0.10053616057886328
-0.4177979086192469
0.4621136601916649
0.23599707259911895
0.4302943905269758
0.8931260099133385
0.7478512696749344
0.9087342964811982
-0.47662155764396164
0.03829889672251152
-0.23434507839647023
0.0
0.03511363300112125
0.08595608413434164
0.17948770073796627
0.6138159905703975
-0.030332588023583185
0.6443595416580699
0.5291954624938351
-0.1912790629487111
-0.3330369059418674
-0.32645193983615006
0.737135380482415
0.0
0.5891425912619563
-0.7437513440483259
-0.46629377527916804
0.9119900716671137
-0.7061963365821813
-0.7139697090674981
-0.9211268358013429
-0.8121863666238534
0.41174452275319573
-0.8002199648667392
0.11856831671473156
0.0
-0.43725754837022435
-0.17768889654480868
-0.6615504312327929
0.6045159712117278
0.03113691959194309
-0.20280007041571624
-0.9865208890027062
0.1573521559569946
0.4388163885836438
-0.8962724092732817
-0.2946469727280554
0.0
-0.6242292269575667
0.7480476235985858
-0.3720752139957091
0.334860729761441
-0.8101675234202201
-0.868833056119775
0.5023669655376426
0.7352013549008225
-0.908945908529855
0.9277074524136872
-0.46582519088733143
0.0
0.005544873988772903
0.7899302566279272
-0.2795654400278753
0.11886608449709901
-0.41309512822842853
-0.5167022133017958
-0.7926312936578466
-0.3160278502961691
-0.9437872664340778
-0.3827162799210275
0.40249108799144295
0.0
0.7400922717776992
-0.415425841104353
0.33197630256508903
-0.5278916847950723
0.3686575772474663
-0.35469351151199846
0.9360988501591172
0.8312863365677727
0.8043994182776577
0.3705700056956607
0.22915057087843405
0.0
0.3791182982714243
0.3397074481798623
-0.29622441358986484
-0.6088262416919368
-0.5639172828878931
0.9583184523849657
-0.8127107211183489
-0.8324410403422384
0.8985663604004344
-0.024827850752910274
0.3699003360196007
0.0
-0.5212959724753623
0.5092158037096279
0.5828566709487124
0.6389553351334072
0.18624351070734768
-0.975763135330336
0.23813255993359395
-0.8847622650193943
0.3380745403537093
0.7542544276342291
0.24297109805074113
0.0
-0.2459258544642322
0.7149373271749961
-0.6628957389175094
0.455187456414631
0.31414317911056
0.7727363859862952
0.32287071828749947
0.02165790139758461
-0.28385845208279425
-0.8159746613262002
0.002499399588135942
0.0
0.9861053029905027
-0.8923878291382787
0.4707486969086243
-0.09439229700623586
0.80371493903896
0.257753105891406
-0.7679951315880362
0.8635777508636373
-0.4143361839715778
0.7223289715921253
-0.14300766392658004
0.0
-0.0558489443949981
0.5541244548889466
0.9840957902350025
0.31020053689155636
-0.43108262262841346
-0.8047249848853302
0.7243729426149064
0.5090749716334779
-0.12239964577058093
-0.30166686245868224
0.19207414437285353
0.0
0.31933054931428195
-0.8576621901641543
-0.2509045275511499
0.2648952133081397
-0.11201947174306137
-0.4984109076372265
-0.3320819918829663
0.3638808379369869
0.3761520975590873
-0.46420599641673554
0.021011474062579305
0.0
-0.8120331594103667
0.7989202860167324
-0.3213703509989556
-0.5398508224657401
0.33377055581567205
0.011907253105335469
-0.6822866851297285
-0.4246944063012894
-0.4963791594632272
0.8928496607796002
-0.9997466845636729
0.0
0.4581802595868274
-0.23036299186468012
0.6318156850112502
-0.5326040723546932
-0.9900503169679724
-0.5597160648416393
0.9314392970566929
0.4455133697251332
0.317160508963934
0.6847155657348527
0.56104853698674
0.0
0.9414359567051054
-0.28740149331240583
0.1606025840251415
-0.1649391243021785
-0.6645157520675051
-0.2454169741726464
0.547169610481478
-0.7458116925367904
-0.4272332828481542
0.4996302048108878
0.591133370149415
0.0
-0.22769222031155922
0.42031879125198857
0.4800883034789305
0.3233950375521646
0.40741159804275395
-0.5363237805131049
-0.4014465139091685
0.7731164655357552
0.3187472658297461
0.3250112668124978
0.811604595587009
0.0
0.18018498816620987
-0.42848914136683725
-0.7076080142237273
0.8070165219259933
0.054911295054294484
0.9185433296319712
-0.8567438124087183
0.6223656687271713
0.15566661604311105
0.2893446096074177
0.8441068106790772
0.0
0.21511020204743803
-0.6120620853775978
0.8620732946838483
-0.16225490876710924
-0.03682044977761767
-0.8502259532015068
-0.2075569185643089
0.29973642948026913
0.9361436108120242
0.8385673961647522
-0.4912573436934926
0.0
-0.4087828118448018
0.5527458859766072
0.9787350050796055
-0.6038086663159257
-0.5609196384084407
-0.6722921742364183
0.6208478476522892
-0.865680388140422
0.012827857766571915
0.5314997454982684
0.4663413252649087
0.0
0.0546319074781183
0.30863576166484896
-0.7799705194601894
-0.9129616957716797
-0.2273009879585679
-0.5378196502604398
-0.3625100541482418
-0.08815717058592676
-0.7801716068615818
0.3416711291753243
0.13124552092668873
0.0
-0.6526302715058638
0.03591148023435786
-0.7704351010690786
0.8196907079949645
-0.1847167041985729
-0.08953194183518409
0.3574915326482717
-0.46192690150942983
-0.8714491002704767
-0.4768179253678142
-0.692702827350159
0.0
-0.8851141166462007
0.34495536510144187
0.8638354007760731
-0.22335512985950357
0.42114345242990003
-0.2082813838101638
0.1452494155624049
0.9710916316515248
-0.5314562948955952
-0.017057017506660888
0.5511707125741478
0.0
-0.7820477302315716
0.5943082980482428
0.15984509729006868
-0.6782991420880984
0.9851688750241461
0.271523159475898
0.9700032163098342
-0.5864734228605821
0.5019989336000361
-0.5527325957770604
0.46904835933357725
0.0
0.7052741718032884
-0.5921331078625724
-0.43394539240021346
-0.11672328278201172
0.977256159154186
0.39096644920708945
-0.5444403636915811
-0.38109735767049924
-0.8007484860697434
-0.7694984409521428
0.4194902090496182
0.0
-0.7721287692239454
0.4023756750363652
-0.1789932025147396
0.35197936225301096
-0.3338068264980738
0.8734018323905981
0.6497428138951131
0.9982465713828048
-0.29769876926945793
-0.6044792073496721
-0.7403404388277304
0.0
0.3284676183267734
-0.6636729804561423
0.5580944805051236
-0.08724785935034474
0.8108296627142693
0.6475306508210259
0.9110339316161797
0.987535548553127
-0.7500724165522592
0.6532295394645293
0.02847625324346037
0.0
0.9620446303607384
-0.7809996514334985
0.24729870295308065
-0.2310505340174247
0.49490120328061127
0.8484966766694517
0.5634809022354681
0.6820307395471665
-0.5222581665973041
-0.1600377482143991
-0.8746921957790474
0.0
0.017776393764451726
0.7026441118360209
-0.4015440313490066
-0.9095882828421953
-0.04577137639204887
-0.637430375215154
0.7935310318451358
0.7478322430459734
-0.8137602980623944
-0.4290457226679045
0.7332931795024704
0.0
0.39667804270893914
-0.18374818108131596
0.696256726768814
-0.17430353236282725
0.5321460102676108
0.8569206639974494
0.5886263689653133
0.9920767767848215
-0.429289703112371
0.1991896198527332
-0.9661927012556375
0.0
0.4051728075962071
0.7961156449813627
0.5967582501989781
0.6209971411030215
-0.10873840366028809
-0.07426325188448724
-0.2435783605573716
-0.29212828991352535
-0.18010011812237892
-0.8843549081336339
0.17779508547081502
0.0
-0.10464263574338051
0.7150350845217361
0.48315507927401935
0.8269103792902934
-0.37066459205877966
0.04226676423386677
-0.46544707915333094
0.06415321573968558
-0.4988753285869887
-0.9134231067816914
0.4416672378352018
0.0
-0.21492646341256227
-0.7996314814496213
0.4676647488658021
-0.5384246737436342
0.3376629552223187
0.32289706567523724
-0.6249667923369213
-0.2573823476087991
-0.533626287783181
0.6828851323226384
0.49633903633105625
0.0
-0.32797640244754156
0.6309509377530318
0.19893376468900947
0.8213847132308318
-0.6920006748428358
0.3847915899905219
-0.3330936066859769
-0.5455281654807447
0.9046833492289252
0.7988319752135671
0.6696531723737567
0.0
0.41115934100581364
-0.7198471311356152
0.02112539163097593
0.43096654041849103
0.44249567545660873
-0.7419211606393581
-0.07404484170650871
-0.7095721692571444
0.9304078340025055
-0.27780024138844284
-0.8693873808974202
0.0
-0.4051699866494116
0.15288990249606238
-0.13081122699709957
-0.7633397998823275
-0.08240890481939966
0.8556353230004969
-0.05876535769104252
-0.7784781372309388
-0.38791817127461004
0.4437805661138359
0.47129354389262557
0.0
-0.18173578240639832
-0.7691008608455445
-0.44813108290788906
-0.9174427729854162
0.449543614126233
0.608242755806411
0.8792330535562747
-0.08295140278863156
-0.18552207437040624
0.4439997786247658
-0.9382034362762974
0.0
0.40616185993262377
-0.4409134907184755
-0.009135652441304654
0.3262393698209345
0.3863325049128865
0.11183353715174227
0.9819875556091708
-0.4202550086850232
-0.0945853261257823
0.2265139194418695
0.9112963333308406
0.0
0.23989138838095814
0.7018662003585949
0.22246592554817513
0.8100716829439472
0.6343474368797704
-0.5464465524490527
-0.46572401990317647
0.9398245442804951
0.33058910719168066
0.763781367744854
-0.7144429215284607
0.0
0.09209856891700885
0.5111618589267366
-0.44096748725425705
-0.6903603340789688
-0.3630125876092569
-0.16918421811914452
-0.5997579025869348
0.027832464746500474
-0.9051304581063291
-0.20082867109995828
0.14290770136372255
0.0
0.38640060666757625
-0.766834388631711
0.5182925526475293
0.5222243764062169
0.9229108299301658
0.6971380860332328
-0.580410516946742
0.7995362013863898
-0.1596575899105961
-0.1196918874187003
0.40985764512265654
0.0
-0.8336505441149911
-0.49231615675314666
0.9358456905531489
0.7598380660785677
-0.30274690898615186
0.22209221076629904
-0.1362192969784637
-0.11225499579922626
0.4056850822107274
-0.5064255533563342
-0.23393847261994183
0.0
-0.6245382047653956
0.26328001578404203
-0.8301160741128069
-0.4317928266661424
0.8937756619466046
0.9221449284948129
0.6853434284090929
0.3904286034645321
-0.8029184491550068
-0.06955635072748856
0.3646585328065266
0.0
0.8564071932751631
-0.7139233924486608
-0.8619288852608893
-0.209192022961308
0.41033397580905584
-0.08622010376161349
0.2853778533211706
0.18170211703130112
0.36389788123170574
-0.6284020808668196
-0.6739089092202262
0.0
-0.2740050041437796
-0.24792905315488278
-0.8338336274478579
-0.9150287171580995
0.9565521789896756
-0.7493525598075963
-0.1739634303194184
0.04184708762163836
-0.04536221028535925
-0.8142808743135055
0.5722425298001284
0.0
-0.6971970239982432
-0.785181533669665
0.41544442976318896
0.8710700819728727
-0.12959986820079572
0.9815670492881052
-0.5403187583952271
0.17306887830705486
-0.10849724786293757
0.24791983840486842
0.8365357092504306
0.0
0.15382750414933644
0.5547464175386219
0.9861370547009756
-0.7753983265815616
0.34282320962922386
-0.787714892112741
0.9751464503670513
0.049142059332109245
0.1504737307728743
-0.018831350063915897
-0.4131394694441739
0.0
-0.9110925889147254
0.024899246763843585
0.018771645564916284
-0.7024558698430803
0.2707244592974658
-0.9300672534338397
-0.32852910595753215
-0.32106127933055584
-0.5771241027151572
0.09329010305739294
-0.2715982897330813
0.0
-0.9567582156276753
0.8656019005801996
-0.8400902228363614
0.34086238768828636
-0.8612845283214403
-0.17639237351152892
0.07382137468243544
-0.32009513299871006
0.555717513934741
-0.381953612901653
-0.8082434096673738
0.0
0.23402610175850636
0.6654157468671196
0.6721646893825757
0.11443024370505306
-0.9150389634856388
0.5749240169957444
-0.7836415557585077
-0.38497167807405597
-0.7232317911065715
-0.13138923783097756
-0.9719974801842439
0.0
0.8333213827347516
-0.9388303913436806
0.7681211738246947
0.8907886232252444
0.4590919246307259
-0.16861523709406345
0.1413983193500099
-0.7515482034526533
-0.47783764090817815
8.934937301618984E-4
0.4871319800907452
0.0
0.35443779431175515
-0.3780669973250528
0.9625372580118889
-0.9777251594827636
-0.42095244759234274
-0.6525936183453962
-0.03584535502522668
-0.4038883300408824
0.2418040636609171
-0.39733211030963744
0.7586844277912588
0.0
0.8717946682030593
0.6264040237158413
0.5018451728023778
0.2845276020951748
0.07098843675091437
-0.6351201699406781
0.8391734508530686
-0.760650722296869
0.09192358670534384
0.6512938754547095
-0.4088582278022952
0.0
-0.40065735035289274
-0.8471493298167929
0.6125263374781962
-0.901163828501762
0.28714905921225786
0.9712534177659886
-0.9314565508580002
0.5207703467610887
-0.7244058656432986
-0.7528812204091107
0.3382828596221683
0.0
-0.19550217011669324
0.8949661445376254
0.6721914716681308
-0.762748377090223
0.5597148490303525
-0.6881167642370063
-0.11989298002613435
0.7497713750845243
0.573899207922214
-0.5199169012482527
0.1683165415332375
0.0
0.9220366629501775
0.6414658200107526
-0.6492545808727175
-0.8443777646445112
0.2736784983684588
-0.526305591383905
-0.024395192228663376
0.20874245503371092
0.6757429468650098
-0.9860260194746167
0.8400677362832152
0.0
-0.4554417053493569
0.2874734776104464
-0.25081369713820956
-0.4961943259337229
0.3989780612376137
0.4962503256644928
0.3263091505813447
0.7654880974345843
0.026585571475632674
0.6242753464298976
-0.7005008360929212
0.0
0.8280720879328833
-0.887149402351533
0.798740666156986
-0.6131013996747741
-0.18790607183072883
0.9832876941610973
-0.09717073331587156
-0.7551059817525203
-0.44431377105692316
-0.8041879849282265
0.08178800472600067
0.0
0.0994823210462441
0.6024651864001629
-0.39431896575073466
0.5352777155430986
0.393679283257272
-0.7736835000598323
-0.04269066771480068
0.5553201936774057
0.29532555088015555
-0.8626177327824487
0.38381697292389605
0.0
-0.023782295853416624
0.8594255770969816
-0.9568828641657519
0.7902769656833066
0.7092291666186994
-0.6005748672821516
-0.8192523469505211
0.39688322584552393
-0.5817953508009719
-0.8613892941196928
-0.15100311209010142
0.0
0.018590931058511506
-0.5579266780690677
0.24618752042003433
0.40644114736141734
-0.13559752239152933
-0.9831486629407185
0.008415133083000237
0.6162877216964786
0.4241882959521037
0.2350222481725166
-0.5019378333532927
0.0
-0.6841319638405285
-0.25445704967529315
-0.7107874997874011
-0.031206894975807087
0.9111088177511555
0.8837600167341841
-0.6186257645871855
-0.2518864792991464
-0.37700034275924477
-0.49056164918221223
-0.543990640554161
0.0
-0.5247928415169538
-0.6296579631451213
-0.14500585475100447
-0.8911690810872637
