0.6329824464256045
2.6651939097448145
0.6660265550923444
0.7276618801408472
-0.001473022826219206
0.958054536650321
2.1594831522904583
7.012769882074906
-0.09214542770225706
-0.9312973445227298
-1.0737294716912453
-0.8624941203087251
-0.4589984869552546
1.4754714038724883
1.4655040923840346
-0.8848096489438312
-0.01918140907230326
0.882796544275699
-2.065814292875641
6.3576582733736755
0.06081377112863149
-1.0268895787495675
-0.0031542195362894462
0.8076551954498326
-0.360990196274381
0.946827021043617
1.4262651896152554
-1.1941138121263217
0.05718595022564474
1.3629502341973916
-2.104833369179819
6.0042234948295174
0.07603532725715766
-0.965156963067911
0.024411397996920544
0.757300314065231
0.5125872245237647
1.8297112523260226
1.2364794413391502
1.0548569371175487
0.07602845669980096
1.2038321959504508
2.0580583444542295
6.343618177211928
-0.10759244295642045
-0.8866054683611788
-0.9892735243013346
-0.8318728421379925
-0.6594887192042986
-2.7344602738449244
-0.8973643355374875
-0.6945073863763572
0.05214347071846535
-1.0090328950194214
2.0925292470666084
7.060567157850288
0.10418195004627483
0.9397990052808077
1.1449137177792632
-0.8888865959175828
-0.5067132530333182
2.090697153122658
0.7782515803201708
-0.9353917680016423
-0.06677172514145266
1.4271779935292996
-2.1099911687979174
6.66151605265337
0.0829742695515301
-0.951447059010661
-0.5848938438582563
0.831036891653956
-0.47019607414495684
1.3874286541497267
1.7956922956357935
-1.2681978104384195
0.09918264943678923
1.5678778748308357
-2.0766584957493275
6.31064759390837
0.137915307998674
-0.8235228228724095
-1.206069021045481
0.8181599077540478
0.6003846329821702
-2.3517532356704147
-1.0199253162304251
0.7880587724229913
0.05604968534587628
-1.1677603540290216
-2.112282057352713
6.9382415160888655
-0.08589069721889024
0.9703211162484868
0.8502191367368181
0.867845830266158
-0.5156365724459905
-1.6931337672846178
-1.666464060991703
-0.900405202567598
0.04087499201627138
-1.1755653848057683
2.09636272227444
6.713522677899328
0.09189403953668124
0.9667712055874056
0.5909046147649908
-0.843537396902855
-0.6132248656701741
2.5990261679570197
0.7144366185467934
-0.6489046762051204
-0.042549477052943284
0.6392040871833639
-2.1162667410262204
6.920007598351072
0.07699922572028817
-0.9931007934863291
-0.6017805373474958
0.8602822222764486
0.6521497533542152
2.4083779083775396
1.3709975456926928
0.6934777881184375
-0.07043318684750825
0.9972145148350422
2.101346556246272
7.114093064343795
-0.08873911856518596
-0.9895695330390224
-0.9430560739562331
-0.8917598500967894
-0.643581215648058
2.1973595407477062
1.74626632538304
-0.4950884416854998
-0.15760425075717135
0.3272712404794945
-2.093480091756773
7.1734647603814405
0.04316420608564914
-1.1469885864706688
0.017569391255719238
0.8938985520525985
-0.6129799868823455
2.548893003886059
0.7270822667832553
-0.5451906713629667
-0.14379184995820818
0.5654635639066484
-2.154612558014249
7.123479959115725
0.04079243639470192
-1.0999704859062582
-0.03814784201242913
0.8638477701396143
-0.5641625509125466
2.550231019577637
0.35659681133538507
-0.7279235026492713
-0.1694465170199506
1.201595990242754
-2.1007066396122718
6.893304685108508
0.051219872166506544
-1.0533418341270815
-0.21406287484382716
0.8566975860625471
-0.4727797729923072
-1.6690590452394842
-1.278510993202083
-1.1039101870727437
-0.02081566737474515
-1.5455670207051626
2.140874388457621
6.5437973542312395
0.10977078878129994
0.8733455351354881
0.9012736610032209
-0.8129529666290513
-0.5138271148056152
-1.6804827710471324
-1.6633319085961378
-0.9922484959379183
0.0813116685666757
-1.6375736619447818
2.0963086509944797
6.78699902357399
0.10128322636556297
0.946546017458842
0.7630587195153695
-0.8522668449667568
-0.5292545409547544
-1.7542525706807681
-1.6725734072707006
-0.9562236494956422
0.06879006805308677
-1.5080978995383316
2.08275905046179
6.78198125208392
0.10321491776350693
0.9449660921304858
0.81523462653712
-0.8574707977107133
0.5753301988554378
2.0046727459400553
1.5860061972177733
1.0328925247371992
0.03537059256912216
1.5046908991334096
2.0687590220277734
6.721524708064125
-0.12499452042649421
-0.866590476460026
-1.4586325548343018
-0.8724626781112159
0.6114944873535014
2.207915392870464
1.3959957854683909
0.6689117756406213
-0.014948607503012874
0.5530075958508835
2.1102875495576807
6.9138341993435946
-0.07607241337612207
-1.0137048588981044
-0.591975217039907
-0.8663867203152776
-0.5092576892415384
-1.6315496782882775
-1.71430717515056
-0.982973900009751
0.08492078313258801
-1.6177595938246816
2.116256313961649
6.830328888412191
0.09879095379547055
0.9527749405426303
0.710157537678558
-0.8495331874276941
0.5361392216441045
1.73110194035042
1.7213149426771186
1.1342418677182484
0.020547286356887084
1.7578651652268091
2.087350339230456
6.6845249951446055
-0.1233705934579934
-0.8666612280197554
-1.3395278731421854
-0.8609425505290216
0.5978498808390312
-2.7332787975390085
-0.1944143950667822
0.784588223705926
0.21786017264808888
-1.7272356822986445
-2.084171576568239
7.013051584862007
-0.059129907144009654
1.0460342835403962
0.4891616680778255
0.8767596173427049
0.6017880803579804
1.9863994254853934
1.742112095918624
0.6330185903269973
0.03804637228216916
0.18909981125864866
2.1251336932980514
6.8595050333860135
-0.07507077445417303
-1.0199110376482508
-0.48382118360973253
-0.8570233127938638
0.5866544872045906
-2.15755506215007
-1.2804083689161716
0.853105028454778
0.059287615972219404
-1.3788572584345151
-2.1280782941504417
6.97641117185626
-0.09329501496788263
0.9499229588548124
0.9611705037541394
0.8675893329761757
-0.6539699137920282
2.3003116814844735
1.6815911592295876
-0.625835963715136
-0.08151482491398956
0.7466037893797772
-2.1154403893883407
7.204857081639912
0.09161904818782186
-1.0009016326368132
-0.8227573979504564
0.8945794302818977
0.5439986181283738
-1.6571876855792003
-1.7841700701060137
0.7290660693887876
0.16702551175679314
-1.1182907515657377
-2.1467776212790843
7.037177655321174
-0.044303914955283366
1.1116861490814944
-0.018691584018428235
0.8576002868318873
0.5663397123358033
-1.7061180165742775
-1.9334849446678157
0.7133767293423048
-0.025083977010829882
-0.5294642590868268
-2.1953783495562793
6.9610228967414045
-0.0793254062957264
0.9902928107271576
0.560533005089555
0.8438948513208823
-0.22606409397282834
0.30265764009135565
-2.4240844105489887
-2.1223545004421562
-0.6606338800255694
-1.6621177571059629
2.2822232893625256
5.69216338243103
0.08055096332860943
0.912290375027055
0.05602084936938307
-0.7175336669345884
-0.4585113862333326
1.8236656676235796
0.766627302619244
-0.9012936422941079
-0.029599278454874024
0.9726647010228451
-2.0598375482239093
6.273667031924332
0.05597249408562076
-1.0097555243231913
-0.032890384910075454
0.799815328144113
-0.34453264600137373
-0.7298532098384385
-1.6806304256286528
-1.1720365527603147
-0.06847742132769873
-1.3238822174145437
2.1278342108962818
6.054129621821118
0.06543311229782088
1.0033430667428944
-0.23194960667975548
-0.7530556185595186
0.6896080000104965
-2.779546681868518
-0.9070480669412673
0.5478976451971351
0.13973425672528983
-0.7889108377844217
-2.1016405463764647
7.2482051770777
-0.06318020327056777
1.0704677039355481
0.5714019550355418
0.9009324736449696
0.5960581519410447
2.308729791708003
1.0375356733031114
0.6609597417270526
0.0244329389278463
0.4116570769181514
2.1474459551585086
6.850153334556685
-0.07259953949552352
-0.9974158344253401
-0.5449237431126412
-0.8469326438620526
-0.34539595994975725
1.0870102213716724
1.0732537847753452
-1.131396599308651
-0.19602339924276027
2.094061639429937
-2.1849625388934895
6.494192062263023
0.017794173025700362
-1.1087789768551786
0.6414793234443884
0.7752892019861227
0.6346599263173641
2.2159461420468287
1.5803513446096376
0.581997920767367
-0.4317877304286568
1.467057949078782
2.0245868450214393
7.322973740837673
-0.002362553382508157
-1.2827600257987484
0.4246338920466573
-0.930468681728072
0.546017348757183
1.7421286579574216
1.6543830970774007
0.8034797335176259
-0.14978170859621226
1.3512845663021145
2.136998634226379
7.005336147090258
-0.06086603492462099
-1.0566021590592298
-0.28894547749358596
-0.8597768380513707
0.48496509229402174
1.6168049380713234
1.3559158945193683
1.0634749136014685
-0.10550572183831643
1.8825889411577408
2.116430854049073
6.706156490980099
-0.0793904038033976
-0.9774326688737717
-0.5206591075261989
-0.8382945707386774
0.44082616759277626
-1.2625812211076954
-1.5817966313583358
1.265327707413647
-0.09467279247668633
-1.532055902050993
-2.0934840746936962
6.193448228305254
-0.11157380132311552
0.8729710531215507
0.8286367103219355
0.8058485136785108
-0.7242675237173019
2.5765928580652444
1.720272574347579
-0.47419703406752073
0.06112065385853942
-0.16618483321181096
-2.1430152541058263
7.209097889310686
0.10242999807527046
-0.9685163970076741
-1.0266739443457686
0.8926526078168205
0.5437860349575621
-2.467027936997901
-0.27795060145583017
0.853650747815237
0.06525387701527927
-1.2772662105794605
-2.1037559952699736
6.689667736346163
-0.06915589025797939
0.9846397271600464
0.5337282304458019
0.8398775517647848
0.4709262796847465
-1.1491722455513889
-2.108839583833314
1.1727321303240188
0.0058130168806146704
-1.7940306816835005
-2.0956594443604732
6.554499502134847
-0.1030143601486019
0.9287711215918124
0.767070623102513
0.837479448922933
0.709122922519127
-2.986238600353892
-0.6764249900477143
0.5438773154528241
0.1950388464906644
-1.063660343325693
-2.096133763659278
7.361576658911001
-0.062094667052404955
1.0765882207355084
0.6435719416667552
0.9135602521483402
-0.6205969229087422
2.5569344022057154
0.9418959590595258
-0.7468980806621554
0.026074873116443416
0.771631279279283
-2.0931248988273183
6.8307545990887455
0.10893903738232262
-0.9097921202042013
-1.126977865427767
0.8649715360412432
0.5049366922297949
-1.489604930229091
-1.7683991217946584
0.7999819927994173
0.2533057510373098
-1.4640070298507697
-2.081049083323824
6.874312971314516
-0.021344837075384267
1.1825493643937801
-0.40828113391947063
0.8594153864290537
-0.5251881248414345
-1.8418241534082933
-1.409557428424818
-0.6095733085621857
0.15174637261217466
-0.4609420180047773
2.077226500618866
6.744624403652376
0.011467834236382726
1.1911365225908872
-0.5961358443497443
-0.8456674076969297
0.5732267874653263
-1.8059855365447668
-1.8471541482509755
0.7627600951045326
0.031554752752483914
-0.8377158654593314
-2.124561401935435
6.917901409163437
-0.08027100378161217
1.005745162566804
0.584901891598712
0.8617412588478486
0.26320273856252163
0.1297978500798343
1.9359932582676163
2.0542265093617798
0.44769830222203755
1.9006962668859961
2.2110626823336825
5.552023217733883
-0.10271173526855146
-0.8311559494815147
-0.5812367233564815
-0.7371331306893586
0.5757636442435442
-1.9152897597969938
-1.637299863489508
0.8551122517275628
0.1521477599360653
-1.6000727958844516
-2.0956874822043154
7.030808801747657
-0.0800750886385497
1.015813626913659
0.659720643636906
0.8801481396164126
-0.5951974971137156
-1.9238390253040436
-1.8570382516140185
-0.6051129234621025
0.2308612263017665
-0.8887055093508954
2.092261022016951
7.158265526494131
0.03837459064424617
1.155707822424011
-0.10447380254982813
-0.889544391544665
-0.6531336201525487
-2.4826052272279306
-1.4045475833176548
-0.6721879584780072
-0.10267235530825411
-0.24116457629682556
2.0828721696056594
6.803901885987729
0.11954763010847402
0.8967635482789521
1.2645088974512106
-0.8708656644118169
-0.703352325619558
2.496272739913966
1.74266726770117
-0.5497617619058113
-0.007641942262279692
0.31669880228667546
-2.112729499624556
7.2215689922416555
0.1030693401196036
-0.9747525217191173
-1.0530484636543707
0.9025570195664059
0.6746502295117152
2.2432835728792244
1.8807458239403567
0.5676845078403843
-0.02987527224493462
0.35213624185314324
2.110678298821541
7.15865596929938
-0.0808489862240491
-1.0336452849211049
-0.712485663999625
-0.8944772014246114
-0.6272311601907709
-2.493290705135131
-1.0290860600291851
-0.6213663212257472
0.09038137767632017
-0.7138913848965347
2.1200149631600267
7.068044474437296
0.07322794478434522
1.0227460919084508
0.5404493818901525
-0.8744635598446023
-0.4434831818282035
-1.43118528205758
-1.4418068347074715
-1.2171436576854555
0.005151538058576745
-1.844935497163726
2.1299783756811044
6.492380968908438
0.10982242455824365
0.8866581039111879
0.7724831067645227
-0.810041143534495
0.5161197050758264
2.3800435699032345
0.20587876868762658
0.9918346371590623
-0.03786850529626375
1.5532679861619365
2.098534011197693
6.55366306682063
-0.08210071345249248
-0.9355482311282901
-0.7139931945265767
-0.8298106986474731
-0.5932293078127928
1.8660102093771125
2.0298675623910616
-0.8241860833781838
-0.11849170007023217
1.419809129301479
-2.0913244515113534
7.1017179123370955
0.10452906354726803
-0.9740610015068353
-0.9231778646617153
0.8909622255894598
-0.6258026353701082
2.3233685906926227
1.5187705207273205
-0.8406248634455717
0.014919086855277097
1.1063982942230493
-2.0589639382197755
6.878428337274532
0.1301694209278294
-0.8823595661271828
-1.4521878818050808
0.8864213686475364
0.5099801656852928
-1.6937099409827816
-1.4592730476661537
0.7771302993993028
-0.060921126922306515
-0.5033457034345987
-2.2152970140903343
6.7241935411947535
-0.07093161307718866
0.9806622486338669
0.3585396834785549
0.8120544643646626
-0.4564707499663013
1.740879834415419
0.9457936202092555
-0.8230953614786711
-0.2511753808269393
1.4508299817500523
-2.1195551610407337
6.7460506820944826
0.00896631984130014
-1.160614828735628
0.5705941859209803
0.8275491804492947
0.5595667749951052
1.7619453622528836
1.7754863451319327
0.683712169744728
-0.12890400843955202
0.7723818493104991
2.0838942011117725
6.880288367638131
-0.04367838746941319
-1.1265749031466843
0.06456936552563533
-0.8643603163769765
0.19275947298965204
0.5977253667430545
-2.295204503781073
2.647784532938998
-0.954824917301874
-1.7344429164856925
-2.2800515098611798
5.377147058927436
-0.0582971383922812
1.0170872238655326
-0.4411633663084689
0.7251520493131908
0.4876847757381455
-1.8976662911310391
-0.8502809322470449
1.0873003601062754
0.05865219833664006
-1.809935337264326
-2.1082322087884076
6.575819447814717
-0.08588533796340875
0.9375107505118119
0.6792533584563811
0.8294520179848768
0.5981749573743427
2.196908250666426
1.2815381674860085
0.8594362942562451
-0.17778740954015365
1.8115875999283724
2.075364697386289
7.055944946668521
-0.08385911315012344
-1.0027834033829155
-0.8185720731977386
-0.8897445297335054
0.4073120554931076
-1.631716674551662
-0.47555990420205635
1.2015723372215141
0.03096378059066369
-1.7849575782788774
-2.103971047794967
6.155792521931388
-0.07348106667189741
0.9483197391231859
0.25061727745297074
0.7824994605223544
0.5964748598010973
1.7825388198391057
2.0783717332001985
0.6499018356792933
-0.07998911720595056
0.593503175104901
2.1028786118318017
7.002759340201802
-0.06230322172827999
-1.0842100874940697
-0.25350830491695114
-0.874985036471941
0.5908194364792578
-2.2453684407994263
-1.1588030341867115
0.8025334611422573
0.034639553539802664
-1.0883696788166894
-2.104252972739576
6.873110141541512
-0.08781760574132413
0.9657437200959985
0.844228878555016
0.864861229534981
0.6366862814422304
2.383715214617775
1.2938492016000083
0.5541891776168204
-0.4805945582008858
1.456644162073355
1.9973774163978464
7.288096154257459
0.01694175054295861
-1.337225783313095
0.6742135541045666
-0.9371057450510695
0.574719719785167
2.3688889227723022
0.6848126490926628
0.5746609515331379
-0.11453495950224277
0.4257313147183155
2.122257005481752
6.875303162859615
-0.025180848278875758
-1.1510244808127865
0.2839442203279198
-0.8483548381784896
0.13336239332384328
-0.25324088637964304
1.0176492253130032
2.514953224620005
0.7350880939316938
2.1371277146971144
2.3450554947063575
5.288247188312469
-0.03941610790392659
-0.9953488918169123
0.6934666319162588
-0.6690108634121509
0.6196815708377413
-2.2096604828522475
-1.4402293973353384
0.5756879801349636
0.25197590145304116
-0.8509965185900953
-2.0420010111463287
7.073277050712092
-0.023162967699058266
1.208070408243907
-0.24527269626354717
0.8988282585907886
-0.4501372779333333
2.039074575532501
0.20557011069558517
-0.6905430767382491
-0.021544598744741305
0.6305011471029391
-2.353708163630187
6.814955953720508
0.027511234766222477
-1.0184775276436118
0.18975377104292934
0.7616654493347967
-0.646214165318972
-2.2662205270079894
-1.6007427940924428
-0.4499112864296664
0.09493035640433624
0.021565496267458857
2.122617554960009
7.131270404139059
0.04246836182778322
1.1375170424053804
-0.060679384595104906
-0.8791241692382133
0.4773188298023008
-2.2751169384955783
-0.003818613552049561
1.2222162593302934
-1.0180805599361979E-4
-1.9862610638097167
-2.104136355721847
6.350248612458438
-0.10021235912641444
0.8664287064186381
0.9364246111507404
0.8108791726424496
0.5032585536016123
-1.8044417245531168
-1.0683561502661998
0.680457199675628
0.08576614281683634
-0.7051922928855175
-2.2196149431777297
6.859762062862521
-0.029343160463212028
1.1030674674456131
-0.26246031340318876
0.8133501452264857
-0.6910524941573248
-2.405585644095219
-1.800624668731325
-0.5504869283054789
-0.024085048624229
-0.18330644007879693
2.135225770188497
7.188950949139474
0.10389696997454569
0.9648020038773102
1.0278166809158573
-0.8912343064368135
-0.2913631862939277
-0.23982492377730016
-2.1448940758499853
-1.4273676839981768
-0.2324758635642452
-1.567109915989655
2.2641978675677588
6.166251441801763
0.07990518477905478
0.9534524032625878
-0.06424314920120695
-0.7349482444949941
0.6090324795305838
2.1556334363554686
1.5387764256376784
0.8824087272741409
-0.04852447680212989
1.4635752254985834
2.0865906830783225
6.975221328360733
-0.10777951667838348
-0.9289956689681181
-1.2209778311904464
-0.8857725969162353
0.3890781221915262
0.982957483921814
1.5784482441239573
1.1371014992684094
0.04720709464136545
1.326424473452222
2.1376021729934354
6.203811348935817
-0.07257574935953363
-0.985135834797198
-0.03762629395722751
-0.7794422800885414
-0.578721353953145
-2.1847907274049874
-1.1917679357430289
-0.8073290347915809
0.25646877258896555
-1.829124904813334
2.097047144073133
7.151761876408872
0.069416275761901
1.0447588594817785
0.484479519468311
-0.8870882468378156
-0.6053483083449702
-2.195361741526311
-1.4552294830965185
-0.6455587205709997
0.3786462857381638
-1.4718820311528844
2.012891077976169
7.1564075409527526
0.02052409755126196
1.2116107800117044
-0.22988429185009923
-0.9187421142633881
0.5099285053585422
1.9727659889241411
0.8503842145028869
0.6333254651688115
-0.08628975697570783
0.4729948850378165
2.1974549630592803
6.816575242071956
-0.01965282916703787
-1.1422837709986078
0.4616764706107775
-0.81564281909396
-0.6033537305981216
-2.5291701544194893
-0.6905250885134584
-0.6395116988157342
0.12052048979033418
-0.9129445093050248
2.1760163705243545
7.136126021008462
0.06337010794198195
1.0249932353002176
0.42533615705026345
-0.8590802374395968
0.5971125054747534
-2.2677880550357
-1.2021696540133027
0.802709626944204
-0.015580654962561596
-0.9048010419146792
-2.0861410697217497
6.777365091992677
-0.09539077376625621
0.9431452830207161
0.9688910747430145
0.8644122084855107
0.5090152980148255
-1.8052241479546285
-1.1948123001041566
0.7371990824619116
-0.027254033503621992
-0.4710757277080041
-2.1640429136858375
6.615964375285263
-0.05595030100667581
1.0252970742809904
0.11998367914651387
0.8126578379925562
-0.4082426371161434
0.8802207889605762
2.134133445971273
-1.0964470824069568
-0.1429626936611788
2.0162771990770025
-2.172369898279837
6.792643689326347
0.06209780806187323
-1.051183534068842
0.05780408064478216
0.8173929994406441
-0.5688477182728413
1.9355916122475614
1.597343982657612
-0.7176954539847169
-0.24365107622551388
1.3190505424659857
-2.0763434222649186
7.054692361154565
0.04845018649382748
-1.1145231856961446
-0.06368220951032479
0.8832124913557412
0.569700841821392
-2.2292025948142054
-0.937554742310216
0.6834626168155872
0.13750487916531737
-0.8957603762228867
-2.101592450017683
6.890203600976456
-0.04318132678113182
1.1008420444971108
0.0426971388775639
0.8584022801658566
-0.6222440489747876
-1.9935042661824374
-1.9801236174129706
-0.5666106893628734
0.07000563390618979
-0.3122128296810673
2.1167574587622147
7.089394269819589
0.06884516616889252
1.068850493937589
0.30626437366842685
-0.8783871559990706
0.7041112305550618
-2.8117020683352307
-0.9481763041193668
0.5527965758048092
0.05628935481493485
-0.6722858526259315
-2.1605437633389295
7.31413032565272
-0.08129801571029355
0.9984225873435169
0.9360930930922654
0.8913368362447384
0.5874418126591876
-1.9978864200514093
-1.5636750868881
0.817197044199113
0.17505801091977213
-1.5976708650898248
-2.1034463789360047
7.102213513246032
-0.07533794928896782
1.029802145248666
0.6195003282575934
0.8837684220946083
-0.7116012946101066
-2.5792715667912205
-1.6833014214871858
-0.5900612968930761
0.14092667371891363
-0.9843469295830374
2.076507287195439
7.385490913074929
0.09803120856573053
1.0080836708924499
1.0662236058164438
-0.9305908088907292
0.6412613848090619
2.495585057179632
1.0827429823324501
0.7259679649012276
-0.009952139987849154
0.982195665736427
2.1639406856701364
7.108835330136799
-0.09667402437691101
-0.9326708581071489
-1.1424900268181208
-0.872128896265865
0.6204671679725144
2.51237038839972
0.8145540123465689
0.49824261125469166
0.022414129030675616
-0.18686739338393346
2.1179228646394375
6.807177506540805
-0.046822495546652854
-1.0920003734610257
-0.04155189300006024
-0.8485941632202516
-0.5058311793811836
-1.945705320478368
-1.0480597971151302
-0.7660707105277509
0.02443612951582928
-0.6306903752018751
2.0802482321288593
6.514644468880102
0.05700891908242506
1.0314833393405336
0.08413196333182257
-0.8222594266879736
-0.2840545945791466
0.12254013218224775
2.2911164528286028
-1.444442220139591
0.24915759394139808
1.6515079398814305
-2.3011048525205897
6.285140329875934
0.07275744269062974
-0.9758021146683689
0.15785978721799468
0.7365979241231976
0.613927442789281
-2.6832006125174797
-0.41851672560177516
0.5341754581767877
0.245818588068611
-0.7387310841592394
-2.080811556697618
7.0510191116098335
-0.008540687248488764
1.2190100970207078
-0.4195799254690888
0.879973307302616
0.6456892650554448
-2.3121656822133017
-1.50537629768661
0.6796109599763082
0.018206327501300676
-0.7362997383332569
-2.121688495032491
7.070685612046616
-0.09103700881807138
0.9765843240089359
0.9436075773792397
0.8821694175655881
0.6067953511786749
-2.2111487916552917
-1.3992740159529609
0.8323544621041995
-0.038708570151047304
-1.0184152741246764
-2.1442996730671204
6.930577150369706
-0.10843139769261341
0.8968859634293339
1.2685904799597107
0.864826074614518
-0.6227302527588338
-2.239551982322395
-1.5213905473933207
-0.49198202943114533
0.40343189351454345
-0.9093898266324175
2.0292550700855903
7.241119562870424
-0.01945682191412154
1.3227030636716082
-0.7889019159781873
-0.9220860988985673
-0.5676942887871619
1.6915279247972816
2.048664598148474
-0.5158871116893083
-0.04803480737675364
-0.07449040930309143
-2.1465654252357025
6.938156567728448
0.03657130184467305
-1.1460656823053357
0.32849220818601144
0.8462842087901234
-0.6404663667596984
-2.4712027145192814
-1.2071505965209754
-0.5890449274285041
0.010907162854845446
-0.33610813076093815
2.119799145664099
6.996322715954452
0.08330350098143632
0.9963743446886152
0.6636410978947446
-0.870026466200389
-0.5747720726366397
2.3935249642461764
0.7709302763305741
-0.6501070765310101
-0.10973472266852592
0.6969969673629247
-2.0991331833365705
6.858675019748908
0.05061052682176871
-1.0677147722562468
-0.12785841026925626
0.8549560934804603
-0.6047453996055027
2.2114238607201524
1.451614435679477
-0.7048216311936459
-0.01887150733833224
0.6779296179419823
-2.101209276184501
6.9134719869607375
0.09392512895279301
-0.9703870958728826
-0.780320213391405
0.8676446586069695
0.5927874126064261
-2.207204099676676
-1.168826907736682
0.5716811054236595
0.12436314047934643
-0.4581396227839274
-2.1114945595655548
6.960559425349771
-0.032765927904292676
1.1485627059615622
-0.17203475708138546
0.862526472670011
-0.4948876995146881
-1.7739430421999092
-1.2901823902591276
-0.9595913758639285
-0.00741459031859726
-1.2475728503281887
2.1653029127914394
6.687851003196747
0.09853009936342318
0.9069409534648459
0.7686836776036269
-0.8185388632221183
-0.5915821082508185
-1.8307725752613566
-2.065599861248951
-0.6637387132602517
0.039256804637267606
-0.5085408871470641
2.1105934681535015
6.975797171006563
0.08308929381693632
1.023323548309563
0.4857467150065249
-0.8690095396030079
-0.5958133573212426
2.5452087352507586
0.561735421055267
-0.5603099479642398
-0.16052318790794678
0.6693701563568661
-2.177942750220911
7.1333847328397475
0.0344998739597758
-1.104810253566188
0.045851389682973386
0.8552476622505055
0.6616370850009071
2.7404449374419286
0.7305294549221659
0.5016318883309929
-0.143981250710052
0.4484133482742469
2.0856929662946815
7.09563690287186
-0.03894985102792192
-1.1410837955808546
-0.06513394999221722
-0.8877121062574876
-0.633839746990345
-2.473163483398173
-1.0692287012867328
-0.5200609235549228
0.2075231738880353
-0.6729005116626882
2.127604850554771
7.240465087962591
0.03525067758182618
1.140125901558625
-0.026193977469642665
-0.8861393493283564
0.6176235421271232
1.9752676955881767
1.842145900244794
0.5008454971521771
-0.14615048400217334
0.2368613171424836
2.0942493963955364
7.064103994051441
-0.025821384987279573
-1.2032368421179245
0.33509478690840105
-0.8801821738777272
-0.5725414383032735
-2.1460580677756207
-1.231203234486153
-0.6166785957711489
0.0837158712959664
-0.45649144844413675
2.1096485674513996
6.869964955598414
0.05014342728510294
1.081524147827845
0.04294776844947913
-0.8527914442540903
0.5296080958558244
1.837186462529961
1.3868688824590434
0.892416373448049
-0.05407696004510521
1.2570151209605018
2.1093727480152853
6.749472144422853
-0.07841960640453297
-0.9880399008191836
-0.5519522605893828
-0.8471619510814574
-0.43933677804804533
1.7426065600816052
0.742959152152823
-1.217434638327511
-0.006809320563875858
1.8294575422168131
-2.1060931195418733
6.314258383449109
0.10017611698897749
-0.8809844684516582
-0.6995059093329938
0.7965194951737418
-0.7023085595240396
-2.585344098756356
-1.4753391292981626
-0.48058287281542844
-0.07905890028833969
0.20979936874184776
2.172796012197033
7.152090463323097
0.09746370732255641
0.9623243775063356
0.9287883602414657
-0.8746220001461549
-0.20034308757701086
0.7351946423907683
-2.3769861267072745
-3.1189832505201127
-1.3092144677465491
-1.0999485278487386
2.092016010580332
4.7423140263109245
0.06135328433178309
0.9982355544965011
-0.4647970207231426
-0.7094666864888955
-0.5023720648888613
-1.6544599083029181
-1.5888823232902656
-0.7783419241908336
0.04178406929561008
-0.7161975078220097
2.0910502933753885
6.616124339857667
0.06092557237738488
1.0437776209094594
0.07388094532614602
-0.8299065598336552
-0.6515672794598114
-2.3971132936268447
-1.4131300128873792
-0.4829388324675864
0.11003718624607746
-0.18154305401550871
2.101684660075239
7.117404470471921
0.048826399680920105
1.1174641203080145
0.09011153313225809
-0.885695789006036
0.25131103704257535
-0.5064244970684568
-1.132489831811293
1.4847459914159105
-0.16730809410690245
-1.7310082060010532
-2.258346732313341
5.883234403309908
-0.0606830823436293
0.9754770528508769
-0.3661480103367187
0.712579010911215
0.5710847135697329
2.481848264167333
0.46022052498686544
0.8581420185816381
-0.16789208362098262
1.7384446206219046
2.102961816137942
6.93965340310992
-0.06955768215662461
-1.0077718581206645
-0.5991224021251466
-0.8644202487785928
0.6266796011701036
2.3523273531525026
1.3174940435055593
0.7331084994586532
0.053052432149881555
0.5791773248226277
2.0775824308446524
6.787845909411434
-0.09883374156648536
-0.9420619098697878
-1.0396928411005546
-0.871376826517021
0.4603697102155197
-1.686906471750589
-0.9784911017449394
1.0961744067902164
0.05286369797384874
-1.810827038239229
-2.1878360282191793
6.664302767570775
-0.08009223699033387
0.935035385220079
0.5746479961186773
0.8120337554548912
-0.5731489316904139
-2.177451368379818
-1.2057655182377334
-0.7661838321710271
0.09033733755538746
-1.0833355803054106
2.1040568486416733
6.912367377452869
0.08171232004358125
0.9936171767784351
0.5960637954191562
-0.8623443304406581
-0.27368866831292904
-0.04226327817725635
2.5754485536363787
-1.3675824960900487
0.39448112035124966
1.0144391307844907
-2.2902067374428645
6.142395172964037
0.06456746810999034
-1.0065569398920582
0.34399148706708116
0.7289489460462029
0.5819640718806847
-2.089729992882849
-1.3100893199458108
0.6487294219032048
0.1660761926775318
-0.8632963547702184
-2.102861704227327
6.993885727271243
-0.03927091819577866
1.1303606053327986
-0.03823526285030365
0.8687718512239204
-0.4549178948529022
1.889297536826979
0.6588520294980826
-0.8405180168218955
-0.1423231873569612
1.2132383520971555
-2.1524363589276714
6.655265250500265
0.030965643828636397
-1.077305527324895
0.25889542887803957
0.80842411961274
0.3779991292763184
1.2879796254610336
0.8566269597718236
1.3161087523859205
-0.04142838520356235
2.0988304297020255
2.179512501454804
6.2997701224270415
-0.07620766707419828
-0.9425047086419065
-0.22055175788623482
-0.7755038982422245
0.618203853556404
-2.116334677363817
-1.7006053106296035
0.8084750281149491
0.018205862141291825
-1.0841611743769686
-2.0829904880204535
6.946839192260057
-0.1036469604562605
0.9454646114835226
1.1186448803040667
0.884820834774703
-0.45470433105493574
-1.461892724835687
-1.4911299171736048
-0.8699570121611591
0.06902426506343773
-1.0610480266762674
2.138066084127603
6.611658609379128
0.05371442745635487
1.0446977577118213
-0.06313491904527027
-0.8105887346550201
0.5842104273328156
2.1718292836887136
1.172746209470149
0.7846297473260899
-0.2163258048294338
1.611811953551621
2.1026135370372674
7.095492795116689
-0.06009455095267804
-1.0648925682884687
-0.39963971286069405
-0.8802322515838197
0.458637330086935
1.1475307221283992
2.0117040586009045
0.7751376380116664
-0.05195153167325669
0.7171998028471106
2.1496282656884356
6.655206417338927
-0.030461702409373015
-1.1383163446534104
0.46833592167288157
-0.8154167355584924
0.6450983480186355
-2.462010568037702
-1.1671429817448964
0.5866807051942947
-0.006495360410197905
-0.2879445861965577
-2.12121830509957
6.967519260658424
-0.073953259552516
1.0183990633593083
0.6041184067142047
0.8689949086912214
-0.39283699646657105
-1.0436175851349785
-1.580268450299761
-1.377083090492465
-0.003331165621834474
-2.1771534529574703
2.165338494947303
6.390913355901988
0.10751127686913695
0.881990588838059
0.6239410563727398
-0.7865263658361288
-0.4129409396093378
-1.03787530532797
-1.8158853292175432
-1.3570510237187168
-0.0559331070820949
-1.9165156376208947
2.125687521772177
6.310775197520848
0.12061295019792997
0.8609624726357298
0.8061250669153682
-0.7952238030027841
0.13070839358455028
-1.270805196260171
0.15703380505002418
1.7490504896898016
-1.2578282567474761
0.13411211355562855
0.37326468203156943
5.086130644639443
0.3641726286171559
0.9519843307627561
-1.5188086377551102
-0.38553420215782863
-0.5979548180644767
-2.25850043769519
-1.1975861776070673
-0.769714139882397
0.1763269603111896
-1.5927119727092152
2.1522644093630987
7.235254957572431
0.08461787320293915
0.9883758256734226
0.7761446584975785
-0.8786200987176652
0.6217852840814321
-2.028697571866796
-1.8181387190009641
0.6668990576174678
0.22789828875587387
-1.2008082973331782
-2.0594030364759357
7.157374967984821
-0.052649961910642216
1.1259151841109794
0.23614539291442613
0.9038497705846337
0.6522315333490656
2.5722870251495986
0.978950073734202
0.4348265882220424
-0.29836535598054403
0.521543892781747
2.0759962495996374
7.248213449603766
0.006002837146178101
-1.2949644078640088
0.6463709015163446
-0.903865250024022
-0.5334246330700011
2.021335292013954
1.1774156563635663
-0.7880021651952801
0.006641848177363601
0.6931037193213575
-2.0949065673528064
6.614627574247058
0.08071606538434378
-0.9738518405072216
-0.48542465414776953
0.832765595381852
-0.6135802355121351
2.2594204727220952
1.3794077321740668
-0.6450288075604075
-0.2028925324654663
1.0506845357364185
-2.0779061371326537
7.119167570752489
0.057304268623485005
-1.091870673338643
-0.2646493778242044
0.8924797317338766
0.5998843513548349
2.296157251642478
1.0406110808916045
0.6638816656652253
-0.2513494431056426
1.3094841802292734
2.117317705702285
7.184289233636673
-0.03761456425859251
-1.1325975437293772
-0.057127094789513104
-0.8820327966052572
-0.4296884311847605
1.1606673220888701
1.787840099238616
-1.1303981212041343
0.02274580358836346
1.4521702228966198
-2.1120724144896643
6.378366571921022
0.0973064459586526
-0.9302152086591224
-0.4695906928255527
0.8004332396027072
0.6289948788619543
2.23798970432654
1.4009963651074053
0.5298566873883538
-0.13445146398458185
0.4581011777587405
2.143589849956629
7.17675364742646
-0.04026854155655601
-1.1378146170951038
0.004088995096403378
-0.8754888792941504
-0.6100948434308825
2.4740490583429726
0.9200206475567246
-0.570550312432175
-0.33813707939631404
1.100923734851974
-2.050426484681363
7.148179066697259
0.00809427206025155
-1.2218202471653608
0.3832439176771855
0.9027012470033862
-0.5605580094129148
2.3249602117551142
0.882540045405538
-0.9782874022245319
-0.026184021039434808
1.5797575873838006
-2.0783095151757784
6.7363700804638
0.1175432576396881
-0.8821129178309147
-1.2023453142512444
0.8580082228519976
0.4597520628750151
1.178142946035713
1.9428744938287887
1.203746535029275
0.05450596633352342
1.6121625043947194
2.1083684396573057
6.416810916156768
-0.10865117466888334
-0.8954118391176797
-0.8428103080548494
-0.8226225344442137
0.4418130670345181
1.0755196842813355
1.9210814293286518
0.8675214784248001
0.04118611014430201
0.6207467890307996
2.0705319641390947
6.250732986415485
-0.052857342772719765
-1.0752964066197648
0.25638703182354144
-0.8017688738570158
0.5342022244397223
-2.13922636550239
-0.7686435638812303
0.6461954170481213
-0.1470470379678197
0.12307303588029977
-2.2357919792134906
6.594714479830982
-0.06437449009126818
0.9711787525733786
0.2987088449695485
0.7939837886931282
-0.6009748700628885
2.653044882430394
0.45622052399772184
-0.5722204839774988
-0.33899123719755164
1.1452962309486874
-2.075814556229315
7.14369363792697
0.0024808680024546712
-1.2160677672501987
0.4248661827039196
0.8912998576356863
-0.6320045511344579
-2.5243560196227595
-0.9701165762132642
-0.5317080049098379
0.08952574768346057
-0.35398222325869666
2.135211575209079
7.080473071499948
0.05449090043441171
1.0735483004770494
0.21873463303658108
-0.8688713265914373
0.57183611929525
1.8833819035743185
1.5693925636103516
0.5947951772756276
-0.2848703125290537
0.9883830729419247
2.1138283367107906
7.136200679057356
-0.005220396053103092
-1.2413695634812438
0.5652652411778701
-0.8757527417187991
-0.5787093339671557
2.7823689043231625
0.028730576296954535
-0.7487850449511811
-0.16646610122148306
1.363207083760431
-2.0976739755912766
6.906973003473361
0.060233314722406804
-1.022287644065914
-0.4156085274690072
0.8599536569683814
-0.5454254163503235
-2.3287539279508946
-0.6580402968987221
-0.913080469985035
0.09039077589773335
-1.607502513824655
2.128148491809714
6.857266015743713
0.09316376313927019
0.9319067967474938
0.8395885653150417
-0.8479553953168494
0.5370369567453633
1.7978650288534443
1.524981393035351
0.9921592278001424
-0.10913237233801895
1.8097961639367828
2.095821756787518
6.857586100580425
-0.0905068558572303
-0.9683161364929
-0.7817098689051435
-0.863832350389947
-0.3558284346655766
-1.0334636699407274
-1.2901390243765956
-1.0325659885142098
0.13667670812884755
-1.6379562525901215
2.170416435759796
6.435570662340296
0.016539453222696354
1.1218187644138238
-0.7022586740437264
-0.7735119898271732
-0.615895001765826
2.2412876449287173
1.5190874088268522
-0.6883486381991095
0.046953760859227124
0.40337818280422005
-2.0990019968252036
6.84205150166474
0.10384528982388187
-0.940894860002446
-0.930977562043787
0.8638754019448428
-0.5641159273727797
-1.5744520930028665
-2.313007922366814
-0.9026328682169891
0.17921961691529578
-1.8064090221913125
2.0803757570501076
7.11288049267194
0.10051743619222418
0.999339390485175
0.7796639617639851
-0.8936074464120249
0.17336413012672222
-0.08968350924655527
1.3232210059969793
1.9915645329829257
0.4894708386899767
2.008471365212673
2.3437606333504912
5.663970675049426
-0.04526318336979707
-0.9914181601900667
0.5700168951779668
-0.6879830792772668
-0.2454102482656198
-0.09315765171198619
2.2627365169023665
-1.9426490026859828
0.4822827615741826
1.8799221091830953
-2.31408591532585
5.909968093305618
0.09024802231370174
-0.8807805194795171
-0.23796446663048967
0.7203508838654116
-0.6015971094904585
-1.8639331129929695
-2.145370263880314
-0.7005824334093985
-0.03936504684527843
-0.38752016222841107
2.099826029797958
6.885219510691912
0.10578711917486767
0.9588017410803551
0.8511589878068668
-0.8679374143938597
-0.5140331870809948
-2.4639561498076614
-0.03590704691483018
-0.7399081634969223
0.2547067800116442
-1.3734716837986782
2.1197715868910567
6.849049727234589
0.014294944888269372
1.1295693595232459
-0.3182226488336807
-0.8402904862541508
-0.5233924639497369
-2.3125824998486793
-0.45691597036152787
-0.7978234022866316
0.25704489471120473
-1.5484524090178624
2.068928467528715
6.817067953216418
0.03137646901137096
1.1094942840836077
-0.11502805400886625
-0.8566849393035394
0.563030299955239
-2.437314751809871
-0.4297856143367681
0.6785960611228199
0.14207654686201898
-0.9730401164914212
-2.158718955099808
6.961141231210938
-0.03880728804394128
1.0883465486863009
0.029081682311707092
0.8447996445390892
-0.46795850266522104
-1.5360515901421836
-1.4316156452473834
-0.8462682093377736
0.3042183171669242
-1.7082877419895555
2.0887389884454666
6.828076769849401
0.011975992078948816
1.1807760437509285
-0.5460741563241187
-0.8474680750608271
0.31193172605734887
0.0720581394228807
2.578272470569295
1.3576050191920224
0.29356599810362344
1.3075927878057767
2.26778196584675
6.261280203397268
-0.06684806620020149
-1.001354044802803
0.1553477106442248
-0.7596446829559937
-0.4697565598370943
-1.596739127791716
-1.3873876433421104
-1.233564846812756
-0.01812606444439447
-1.8670159610994645
2.1010229344163323
6.472323667870111
0.12357865723215769
0.8519288598934774
1.0635780697870179
-0.8213514623045817
0.5601639495519554
2.5049181792754474
0.37268270657548996
0.8674677839143925
-0.0018271744084217922
1.1788276163303149
2.121520438719676
6.695913555657139
-0.08592908706145438
-0.931030077420595
-0.8480445629474499
-0.8397250079622557
0.5505844309479299
1.9213288887609066
1.3933127424750984
0.8570233157154925
-0.07770153918650187
1.3252386585155593
2.139015527206645
6.917414599159974
-0.07933388915452702
-0.9872414015886866
-0.6310493167537318
-0.8543809033905803
0.4609994960384256
1.8782706319397198
0.5721905693102084
1.1910475795955566
0.060529910630981544
1.5348017951354584
2.064441489692954
6.125598377098064
-0.1013019272984947
-0.8763561514562087
-0.8017174464486041
-0.8024465577998616
-0.5024671979304327
1.3191697531459983
2.1699099919375886
-0.8372632565507986
-0.19311566017897994
1.4990311743876206
-2.1410358201906674
7.024784830259558
0.05794595604422655
-1.0842833115039288
-0.03984437068552665
0.8548483386527704
-0.43797342403165934
1.0705146167860926
2.043633636041824
-1.228037277959082
0.07936299948067187
1.5085022009108977
-2.098497522790876
6.319423828031684
0.12110541989687426
-0.8744781840859425
-0.8171192189733681
0.8053992592887903
-0.5757104002202691
-2.2732151427401286
-1.0056979082943303
-0.6238155263345246
0.11222429663256124
-0.594175093342858
2.1089669555988015
6.900543135716175
0.047010711809148564
1.085726202530834
0.03955501444816129
-0.8558856475939662
0.5224781539816581
1.4663625274079095
1.945465876186698
0.5934724022476181
-0.07772621018393838
0.30114895554406773
2.199585686920498
6.9526381448383425
-0.022210501069922676
-1.176670324834476
0.5352499287083211
-0.8300287631605967
-0.5175885578768656
-1.451810671964737
-2.180310124186812
-1.005581670789733
0.031921140592936076
-1.51824240980375
2.1223507574545395
6.862262225777722
0.11730987862262529
0.9187545696841165
0.9562859822744998
-0.855064493907334
-0.5879463987113791
2.112444518183456
1.349068264106262
-0.5891254414379823
0.009103920344983115
0.27524304799868704
-2.2563550698312578
7.1161459927397415
0.07340484351712595
-0.9926703152777029
-0.44156852028718674
0.8331663811013377
0.4860061811741639
1.2375504258374594
2.1474806580603496
1.1694051019146268
0.01678819383187123
1.7255696722196665
2.1128155782289224
6.62783130336953
-0.11203064173307177
-0.9037412166370423
-0.9567742394165688
-0.8432181401170973
0.5539024826968599
2.59730562520551
0.09749885873835823
0.8637449529853928
-0.13110301216249523
1.5764336307893845
2.0925995868789817
6.777824614914374
-0.06544919116907522
-1.0027857634360946
-0.5157395274131582
-0.8506337206451069
-0.24434072081211947
0.5557542513302636
-3.1660036891387606
-2.0630513792739458
-0.8084549190747344
-1.186543533002393
2.260317181074585
5.794693147925319
0.07711186242687562
0.9729160235054691
-0.10105675933735073
-0.7429306490541099
-0.4995700947584731
-1.6191628756558665
-1.5898576866336886
-0.894877217577027
0.16107170892692949
-1.5895386717619369
2.1539756169761524
6.952823415671785
0.06943491179252657
1.0256037634273378
0.2757777273250724
-0.8444714933726447
0.6206350325576591
-2.3752658173982213
-1.0827144216816245
0.4817087542148532
0.19834506133140323
-0.33574671996525896
-2.0815580602491037
7.04471116757442
-0.009235091988345918
1.2381708114821286
-0.5145272047683932
0.8806447998452286
-0.451794787880493
-1.4741266698907005
-1.425406440892124
-0.9784759675031143
0.1611031263151102
-1.7067709008295622
2.125456544365523
6.715560728752149
0.057247203998847994
1.0431356119203903
0.03090291479131063
-0.8258788080474795
-0.6016467805071475
2.0579242588179736
1.6385187956130038
-0.544279836105249
-0.09935104542181981
0.281089629561187
-2.1263204825528157
7.040196075436672
0.04739921048291965
-1.1124426944647021
0.020103078006126086
0.8663230440023747
0.5913171507094809
1.9753574720175413
1.6410089929659795
0.6528788619701228
-0.05696065404380377
0.5678318214815169
2.126667148158991
6.965944205701288
-0.062359138199654274
-1.0615027199997515
-0.2958985718674035
-0.8627619102331711
-0.6680999902079612
2.3611846411832116
1.6957286351096903
-0.5395938946292352
-0.2845004556582935
0.9681530529303665
-2.044143486651561
7.325734522765616
0.04402005337938412
-1.1637042502437964
-0.1329285904780993
0.929549130777444
-0.65598258749053
-2.2234253309976744
-1.8563561394350858
-0.48656584529915936
0.3238912903168962
-0.7565308408022525
2.035582301006665
7.301575120197156
0.015545068066748506
1.2456398926034258
-0.3257869651266278
-0.9289126618244946
0.23376440471595694
-0.3596318430808682
-1.515394612696284
1.179636606679427
-0.3797491845017936
-0.4966915969899437
-2.4760157092798134
6.040807084099021
-0.045871291290475825
0.9516427116762699
-0.3507234541091845
0.681687130630282
0.3440745438230566
-0.3940391779121822
-2.235261143350868
1.740687783663629
-0.2393584147573909
-2.133170005367918
-2.2202155193752513
6.108958475510231
-0.11826606096139097
0.8288301115080158
0.8453664763944525
0.7757797055754633
0.6338237947739368
-2.472355538510693
-1.1119693971778544
0.5711966722098378
0.531510817073293
-1.670305772008008
-1.9870386509830993
7.308762519469509
0.024843278200733
1.3563116396954669
-0.741171450269016
0.9430403115537971
0.604639219050504
2.232926278482644
1.2064718621698514
0.5628569178563635
-0.16916475776228568
0.6085918176103229
2.118879484421124
7.076303738965776
-0.029894680582624004
-1.1624434836408881
0.1762746219878861
-0.8714792151341348
0.7341102140034332
2.490819337345305
1.9313909791814137
0.51523900895505
0.03924671397257967
0.09033816459287723
2.1248978864722545
7.259038512598681
-0.098582893084722
-0.9828105577247938
-1.1325793748621167
-0.9069343242752324
-0.5609369472466438
-2.2625592561978354
-0.9573732167647732
-0.8154901681928239
0.06550256911750707
-1.1357504189277898
2.087946507934513
6.7885797732533995
0.08622368081769584
0.96958750221866
0.6699478107903089
-0.8550599321544483
-0.5971265776408696
-2.1675244940473615
-1.4107628996330155
-0.5935387688102777
0.3319740939098619
-1.0949937996638606
2.031675513942141
7.090238865268133
0.010771020277498456
1.2277643374383678
-0.41299219690969885
-0.9034363727959732
-0.5724067456079704
-1.9847722762734228
-1.5352157440660108
-0.6512890173068671
0.40046992767339845
-1.4908039792997916
2.0482604187622497
7.163289134532987
0.0029598550318614618
1.2465948447582824
-0.5147827608224373
-0.9033755286765394
-0.3569762185621469
0.7447604499072857
1.83718834615024
-1.1112855033176001
0.11206792124632312
1.0160302570688857
-2.146476356125213
6.093199960210133
0.07220995358318537
-0.9887721463873451
0.14353370822939196
0.7539323776491836
0.6476914908215156
-2.8771970112484646
-0.3515134147394532
0.6225536798064741
-0.025521133686406686
-0.4990976531269
-2.1478695963779115
6.93276979362109
-0.07946586061804682
0.9664333402367342
0.827493342985962
0.8567268267577864
0.6046598538467975
-2.4907438317952333
-0.7335052121780867
0.5551432016820571
0.2040001606770053
-0.6339208708338375
-2.066600618722309
6.960663060194746
-0.016712481453605703
1.199592728189162
-0.3493746841438461
0.87651605968189
-0.6411399613482741
2.902709913247702
0.28645825665135494
-0.49404097909010736
-0.12823665395228356
0.3716207265561418
-2.119673978677661
7.0582355089580275
0.037045798559808024
-1.1087535975864007
-0.031228672839621073
0.8700721688579857
0.6115458067075694
-1.9411077680874838
-1.8623830353373516
0.5506685043901897
0.1850241973953019
-0.5599922770316195
-2.097225340668364
7.123686081680675
-0.029559871237459047
1.1897390904695533
-0.2331940610397561
0.8849562729372875
-0.6202424273433534
-2.464739516923166
-1.0344986448896156
-0.6417845538052495
0.315626659890833
-1.407900914267734
2.0504469227156874
7.190578218611129
0.03806511368669337
1.1462444539346976
0.07115850329923815
-0.9085683156542608
-0.537463533249015
2.0740839618821862
1.0222262260573727
-0.6709084696730737
-0.2360186700809169
1.0559798830830298
-2.1165655728898645
6.964659660792989
0.020293375091769917
-1.1564907734598362
0.3462507101807763
0.8559103746592109
-0.5164290972561316
2.0051141887338506
1.044366185382259
-0.8453898864850242
-0.04182867228473597
1.0321017669085704
-2.106432926074471
6.659261292631773
0.0769681766176342
-0.9788803218022398
-0.4440082500798284
0.8320150874842166
-0.5285067090022478
-1.745154164504525
-1.6913327713847262
-0.9521074612197307
0.05315525430839973
-1.4396960240056735
2.091650118097075
6.78031165809456
0.10478815590523238
0.9385401124575005
0.8343668475214964
-0.8546927564531722
-4.558592221650451
2.5007514094793803
-0.13811308600220432
-0.47145326759364903
3.2322268540506096
2.6997874996148177
-1.013917870444141
-0.6905560644696206
0.16639848226452647
-2.393260138199312
-0.13620723932237652
-1.8677877455860747
-0.5624659955578316
2.61123527034036
0.21004604295492973
-0.6901358104988473
-0.341759373253397
1.5120411149185835
-2.059971757830651
6.989235986716169
0.00974009990271508
-1.1792820987815669
0.32939780475047964
0.8788375918551024
-0.47405715447708396
-1.437241111870623
-1.740507829416419
-0.9418112061950088
-0.0105438229232585
-1.0829734043780346
2.1511323138848844
6.6276536416730485
0.09039174024484771
0.9480686746224389
0.4997180334582297
-0.8144329989865571
-0.5542020648233765
1.9508867693241567
1.5217264309290577
-0.8733434262981957
-0.047953983793087
1.2394299457899522
-2.0894218685901498
6.815681348176115
0.10135402733536504
-0.9453064674496491
-0.8446699693908267
0.8597309794351988
-0.6537996727314092
-2.1696114665245494
-1.9774959138029664
-0.6672225291631626
0.10185667540612872
-0.9336169910269339
2.0850311258235
7.209125820869012
0.09916218166471726
0.9983322002007917
0.9231356889395573
-0.9071138843630397
0.5051425292798594
1.8754088607849815
1.0314920718310927
0.7661628353686161
-0.1819362596680615
1.1592327244777252
2.1170894502985957
6.793374399364218
-0.02564239799851114
-1.1385073682188935
0.30876483312269215
-0.8391809265759802
-0.48191900503805163
-1.5074762249943021
-1.6744909961575758
-0.9516977374670628
0.029275133102998886
-1.1993450731006934
2.076580884098616
6.5325467650809115
0.08526975899095542
0.9761009137555101
0.4177683476008431
-0.827984904252572
-0.5715280899570812
2.3649219089008255
0.8182591783586665
-0.9142564914340557
-0.14648210423457506
1.8821806885872467
-2.108109120219569
6.999565125598608
0.09810306117484516
-0.9427740926708178
-0.9488103782110947
0.8706498099486889
-0.19206409912527087
-0.44182058728216106
1.9951662547840239
-2.6641664717874725
0.8552477028671273
2.0187175719618944
-2.272369456663748
5.35062749886298
0.06413921688453615
-0.9370102084840284
0.2167050803467301
0.6966761721742019
-0.6314908619922116
2.8417465022214623
0.41575260800229963
-0.7315510260923003
-0.037630569171407335
1.0736162345273503
-2.1192299492454545
6.968250539193014
0.09945575011938344
-0.9236521386113153
-1.0756681985528131
0.8674795421598455
-0.5996983469522305
-2.0040179573167105
-1.850633065551051
-0.7318084410615192
-5.5344187431639E-4
-0.6432434117545711
2.0818798995409837
6.87416960894385
0.10256946724252931
0.9622848250464032
0.851960351081038
-0.8718620923764517
-0.5363872480682433
2.105109923067509
1.065906380933646
-0.9115508654903705
-0.023785537534109204
1.248060597881323
-2.0928429000907993
6.687720993306551
0.09921441322515724
-0.926458217564963
-0.8300778208702445
0.8440330096406701
-0.5367407102167622
1.6529309020221075
1.8302862387778327
-0.7663755199541904
-0.0390861195635263
0.9307637056614512
-2.213075997985413
7.026966639666329
0.08507494510774198
-0.9730946929822946
-0.5598580158576967
0.8364220880884567
-0.5546965654046838
-2.269781903158936
-0.974424043717077
-1.0949911593049586
-0.03235769945151967
-1.6837654144598195
2.0554670426974315
6.591674881381395
0.1379455800991747
0.8265054136136119
1.516715706749082
-0.8552911507407923
0.5434262899082937
2.1335621801743674
0.8951386943323805
0.9251253775047845
-0.17620111031676097
1.8524312112371868
2.0861574000684047
6.867796902716048
-0.07014412652493358
-1.0152683074240614
-0.5209884525069255
-0.8628670003095006
-0.45373632481418386
2.094887285565704
0.23235504973684543
-1.0144653951714513
-0.19719017362377467
1.9386700200470903
-2.0965276716240377
6.581879900821597
0.04699899508726942
-1.0285298264784488
-0.04955807508708866
0.8200974696204477
-0.6287885486901231
-2.063206149015828
-1.8981689541992215
-0.5270504260823344
0.08526436041818851
-0.18768818021488975
2.0964555864307086
7.058687489025712
0.05753311148009177
1.1035292892041804
0.13251474102814245
-0.8815489840590335
-0.6660653306590175
-2.6845275947220886
-1.0239987978221503
-0.5938211537733232
0.28573241080251055
-1.2988084872435948
2.0500609403673606
7.296982692293053
0.05317309353149749
1.1156483680467681
0.3611530227431591
-0.9231095927600061
0.5347158861121916
2.0747049002322284
0.8944028506580897
0.793896902734221
-0.2538827645776449
1.5847036441136002
2.1038607081270926
6.946764105657227
-0.03261701163828754
-1.126186721826331
0.09565384405364079
-0.8598684197185239
0.5875216445456573
1.6570221232447435
2.2703920086805534
0.8006827655982586
-0.12652110561889707
1.271009556945114
2.0604332978660507
6.998871241405616
-0.08129946052815898
-1.0408429914855384
-0.5945221309271655
-0.8912794276608541
-0.6703635153161049
-2.6255906074545625
-1.1167164029077625
-0.49396283557659476
0.04599646522285293
-0.15070256195891416
2.124853576889341
7.11567561345306
0.06786508470009607
1.048225242514625
0.4474344144281986
-0.8799078365105752
0.6292323165738417
1.9592547089250805
2.015780019039953
0.6122504460701731
-0.2324837157659541
1.0080543845653978
2.0746797704582476
7.22977262149722
-0.044813337081332
-1.1560995461821086
-0.09030261504910823
-0.9056519094959016
0.5480974208828695
1.7527655168395095
1.7065780015473093
0.7303700431585625
-0.040617904243406874
0.6676713997761063
2.113058241886477
6.796997539016816
-0.06183396550513383
-1.054269291779149
-0.21509535780970418
-0.8490939269917209
0.5867142400330476
-2.2216467707794494
-1.1399048252757464
0.7852151980859472
0.10854530070100436
-1.2499573174095555
-2.092889850146283
6.933177524880182
-0.07420389738334526
1.0152857551920815
0.6031563487262477
0.8707881010306813
-0.6237853963709916
2.2372529625501842
1.4932537231686676
-0.5963806617755125
-0.28603334627452937
1.149541441265094
-2.0882519601728586
7.285869009034891
0.038903800080083935
-1.1520092418670267
-0.028827826012192363
0.9052304860041985
-0.3546225423367534
0.8857433365530542
1.6020216773064966
-0.9821517888760081
0.023214668810410097
1.0582217312046758
-2.2656299075724293
6.465120984683736
0.04245581433569827
-1.0477512691295132
0.4357598028883222
0.7516235696645327
0.5730696444144735
-2.5844896178497487
-0.2503519361836373
0.7762208640708503
0.29466734696272256
-1.8022300040845187
-2.0772638071621046
7.013139055445054
-0.035834371872233484
1.116113947756597
0.0834503772566252
0.8760390387700896
-0.540125277322139
-1.6292934974986029
-1.959830853235108
-0.7217899570046323
0.15004228847900924
-0.9363687640098264
2.0774618537122858
6.879781937476921
0.05266042737018937
1.1028951244369372
-0.009211794812943938
-0.8637029007029067
0.548857632777074
2.306295787783375
0.5998901394276298
0.6997071638087972
-0.021325146738134074
0.6186513695084568
2.169008328595322
6.786182330296541
-0.054636027904426496
-1.0283329307839981
-0.22347641235334353
-0.8277532746374199
0.577424163014905
2.5459661288581508
0.33282734637517364
0.7960157967149852
-0.09405486460740192
1.449150418095195
2.2039462320867393
7.056889426226133
-0.07293903449726748
-0.9629812857013764
-0.7433710571099348
-0.8442726529905917
-0.5817398049380967
2.054715142309023
1.6565940621568809
-1.0192141708440847
-0.018865361667133804
1.7000970248659726
-2.0484336515130623
6.824532137833295
0.138652408569448
-0.863720934356598
-1.5142253005216564
0.8835459858093835
0.7088830634969674
3.090765232568014
0.44566842666526807
0.40907835305769125
-0.24199823536550932
0.5063953825114419
2.079845812915653
7.325763481734713
-0.020404146798634715
-1.2125210303554228
0.12614311938171582
-0.912922928124426
0.6075386593505874
-2.624713291202126
-0.48519031430673665
0.6007359070741577
0.32911611257776724
-1.2513838906687338
-2.0668677971866973
7.125850747295833
-0.008084648174782268
1.2213632833958834
-0.3569001694150768
0.8918892362278231
-0.5793207939906007
-2.0243127457472134
-1.5052190022639376
-0.5459309584880292
0.2073166926516225
-0.5210726831435835
2.096694032793263
7.025417405063045
0.015405154567191397
1.2009202205870115
-0.46653966782021167
-0.8717778967698299
0.5240776600587933
-1.5026694752053753
-1.957553414659224
0.702449052730001
-0.07868331454248738
-0.15186330124550554
-2.160912666558837
6.66032699935808
-0.06675031714799819
1.0256434417848128
0.18255812089100415
0.8223467891231713
0.7161152646227315
-2.4005981432608907
-1.9029638170508665
0.37442208189357645
0.1812035435088958
-0.024306051192427038
-2.075663798564334
7.355347778444616
-0.029800992211915046
1.2253848350971783
-0.14537855031776392
0.9216019438760049
0.5764027745083923
-2.373600805968557
-0.6864888513277102
0.7133591768883337
0.1548392636729764
-1.169165047212707
-2.138894053139458
7.00811277281172
-0.0500212913089931
1.0676429324153591
0.23273252816047615
0.857782283519132
0.39318059732026794
0.6403353040301988
2.30745676436572
1.0138158666384536
0.10790433304801683
0.88512345279369
2.1635705052944063
6.329192925202215
-0.06252552623695903
-1.037338895182879
0.17551649350511736
-0.7845413321841307
-0.43485809763242833
-1.1273378248218422
-1.926215680203159
-0.9311322037625829
0.00869304756171713
-1.0090703474639036
2.120074740115673
6.473859931810443
0.06515239012396729
1.0267430124687111
-0.021497315262712043
-0.8021230760275464
0.4796529611640094
-1.5846639097846225
-1.3537402754289707
0.8642511820439504
0.19807000873233693
-1.4808246314857834
-2.106006988245919
6.751090598825101
-0.030706349563160273
1.1279899330296843
-0.2743554015660274
0.8383282806777939
-0.45886954507725414
-2.0258545065322107
-0.43202322973864077
-0.8556711658344217
0.0744832164955555
-1.0424484909991902
2.1240974576382103
6.483103998341829
0.04222843191235808
1.0332427146980951
-0.08298721771559915
-0.8004370630136785
-0.6271919877590649
-2.675575578842292
-0.7781479642890718
-0.7359575357175121
-0.061675966033674916
-0.6176397828518767
2.0825712942492425
6.744111536644867
0.11182297088587383
0.8951439457778448
1.1855339541482945
-0.8606915695896111
0.595290233764136
-2.3217328199464626
-1.0407644233241913
0.8081238455102223
0.03472193786207047
-1.1613641689474443
-2.1250256936721064
6.926133994863568
-0.0901668383380262
0.9520550193293121
0.9230923627988711
0.8635812052357027
0.581755347077181
-2.640871675151747
-0.24622526984668838
0.6366131968092487
0.10067985129823424
-0.6677947993453657
-2.0955330650040005
6.801869399375706
-0.0395614016289603
1.0949101189896402
0.02866144678933109
0.8509986610574634
0.6355761937244447
2.605235733707138
0.6528696726431927
0.40317340983497396
-0.18170326112632262
0.11758722270701968
2.1390649574167764
7.136040878387401
-0.0014238345453423196
-1.2478267003001822
0.6158913308734641
-0.868846041812782
0.5704837149121939
2.237951835661139
1.018697098063881
0.889181345193058
0.01374527301676454
1.1642862526166067
2.104407747317653
6.734007113961474
-0.0982528735747145
-0.9186483925794912
-1.0187347345846853
-0.8535130721414702
-0.6202439123847168
-2.017289261320624
-1.9467605151064253
-0.7103946271440056
0.151535235540819
-1.1878765354974514
2.101022795259188
7.2174831889522855
0.0885177953192929
1.0211365197464106
0.7184105440499347
-0.8984903378063066
0.5095813293483291
-1.1712653107346505
-2.4938575103034575
0.8117119389759424
-0.03385364183087125
-0.6033876895562109
-2.117584096607154
6.6836049863984055
-0.07459753900868328
1.030282555104866
0.2571065792660908
0.8392199894073902
0.6474875546598015
2.610377357201534
0.8264896167819547
0.6290171846920162
-0.17667104821159563
1.2135151537617381
2.1566620656326045
7.313005056896323
-0.061455156102402826
-1.0518320045051401
-0.5625205629939085
-0.8851666736356814
-0.34130924010445146
0.2216240255822178
2.7133827711668834
-1.383278713069879
0.27126718020416085
1.321395952477025
-2.2087609215187394
6.212729030531197
0.10601625561084019
-0.9109189465224204
-0.35935186194664887
0.7633728551010306
-0.534718758194777
-1.7631352842517278
-1.5126230946251376
-0.7159724369637122
0.1774909079130716
-1.1907888985096404
2.173998237490264
7.057999731767324
0.049314678381406823
1.0730868402195088
0.07047558417472663
-0.8463331488910621
0.6531522141348471
2.204292140130296
1.7108057257808142
0.5193362707654068
-0.16042991767820997
0.5167013345786462
2.115839311200626
7.253778979427485
-0.04446415777870873
-1.1459277799354661
-0.086501933328022
-0.8945199754079366
-0.5348003896269803
-1.641146521408369
-2.003607940120764
-1.0200546722784336
-0.04960004656862857
-1.242534912051208
2.0599763085862692
6.607114785279659
0.13119500724263086
0.8727253687871831
1.2182474045955964
-0.8537879440112924
0.5685235561028477
-2.1193869280101003
-1.2645294755268939
0.9665808462115236
-0.03039246077758483
-1.305232357870758
-2.0709578979756538
6.660993692108111
-0.11120009979601675
0.8930007680818427
1.2132407334062512
0.8610957218526394
-0.542318985281832
-2.0464471972879767
-1.2268733927726732
-0.95703161833526
0.06895812301552365
-1.58644541347433
2.0896573884858034
6.79704832746477
0.10510335090047329
0.9252929341657137
0.9336724914436576
-0.8573575853555784
-0.6739445638923536
-2.62737698363206
-1.2133000786769816
-0.6147952597995354
0.03448420880294918
-0.6485057696745178
2.1118806161221193
7.1330865969438095
0.09862601586719384
0.9642037186689786
1.016514222037395
-0.8903327975665951
0.4231290419792757
1.11669295252972
1.6979072134385822
1.0072047995572073
0.16539701023497907
0.7449094080108448
2.2902762942497996
6.426281745528397
-0.08712432951826696
-0.8863153259987645
-0.5577719832378196
-0.7680531168838677
-0.6340208798419612
2.2554361870788617
1.702728029818972
-0.71042813419549
0.08699545593984938
0.34959584438090663
-2.0716401269920435
6.792594200863415
0.12044933723631396
-0.905236337153972
-1.2146126508451822
0.8726892953229013
0.5852412621075608
-2.0830659118345802
-1.3667270107334015
0.6397105012763897
0.046953560895959555
-0.48976002875931357
-2.1350446228656037
6.921078109965054
-0.05733543781058171
1.0645501957944934
0.21985318790802943
0.8543291850055229
-0.6336665912173788
-2.7719570339639414
-0.5257729462353778
-0.6691019991813693
0.22883871679961607
-1.4287140097986017
2.0925307695687785
7.1917435426124845
0.06308318920282587
1.052059119453615
0.5163893564303053
-0.8942743352126892
-0.45532738377818405
-1.3833928355222673
-1.6334809985904943
-1.2543149401503484
-0.041163861311980146
-1.7712901060682635
2.096637824226682
6.392443798261896
0.12411927193161341
0.8552938950730613
0.9880007190282473
-0.8144775834311296
-0.2095040472500973
-0.2538348794150233
1.9591831657179342
-2.4361823348420923
0.6802232633317983
2.1090416153601867
-2.2762433762251577
5.475523762972456
0.07820516870535474
-0.8786651411763435
-0.12211271348546807
0.7010962237752099
0.5865724923387573
2.362587358259437
0.8272661899615937
0.6757878220348027
-0.16341504112594035
1.0007329872002115
2.092654249593042
6.949372227066388
-0.044036002004001054
-1.1030456197485
-0.10164172943901804
-0.8677363729130525
-0.5369729247002459
2.418129594369976
0.47561136665356457
-1.0336987956378603
-0.004977748780448435
1.6202076106003138
-2.0826772799952886
6.594834309906877
0.11510032500720618
-0.8652820520322078
-1.1571150195780866
0.8401076116286653
-0.6074584628136463
-2.1821737631496827
-1.405980911380015
-0.5207452751357652
0.23005322642191298
-0.6098387790270465
2.107731982311253
7.152907674637731
0.019948614186754254
1.1900446923878523
-0.32804087065994647
-0.8822887067269775
-0.6815366060238996
2.981910227132161
0.5581944079237018
-0.5229939711324265
-0.3226141811356389
1.1801631949138116
-2.0529860914375044
7.344471583712906
0.033038442005037236
-1.1627929594052007
-0.12244046594353479
0.9261354816450164
-0.5516910432360403
2.043016759924615
1.3199067937825812
-0.7868890377442362
0.014139817233219464
0.7059445056259144
-2.095918488166942
6.683426337521431
0.09084707382948594
-0.9566595754256766
-0.6568185361386419
0.8423585551469418
0.6541520359890914
-2.3082246975439857
-1.4534805608412897
0.427211541512908
0.15935712706229435
-0.14929536893525416
-2.1452709094457574
7.265603906274574
-0.022801117521918993
1.2062537150240078
-0.3047607357169749
0.8832625661997354
-0.5512984295893065
2.28992589947169
0.7907888664617312
-0.7371737798831391
0.07739965254475496
0.3881276689426406
-2.130599897539533
6.5798591348361555
0.08586414708396312
-0.9327032024291847
-0.6439054993084904
0.8192900690755178
0.6379885760145214
-2.756261876855887
-0.48922563366780847
0.5742357780696092
0.12319935519176363
-0.6756010802204869
-2.1034535994444856
7.032536817941839
-0.04806605134557334
1.0919480992501862
0.23745798156345632
0.874560963082714
-0.6094051229413152
2.4253474513101216
0.9433155249693227
-0.478381513425226
0.05872412133258004
-0.3557245868767487
-2.187226777370988
6.881018318156539
0.055985560154589505
-1.0444192358661377
-0.12226126607001399
0.8308896665352994
-0.47784011453657915
1.494174062418311
1.6734320922289616
-0.9382776630021605
-0.04619416516139632
1.263679615723343
-2.1400281335267626
6.702238619422644
0.08288954425992454
-0.9771850061189903
-0.39919463722737203
0.8246352557857124
0.5775907183245166
2.4676839420833248
0.5019273456740931
0.5739405839315579
-0.18096860550897562
0.6415502799200123
2.121565212921529
6.955941958440904
-0.015008677797905599
-1.1815769870386725
0.39321356653187345
-0.8553511782797847
-0.5652239534867957
-2.419897280058155
-0.6302055725958746
-0.6627223739064022
0.1273857095867373
-0.7792223684133635
2.0955394626050867
6.833593136288545
0.04505183007903785
1.076870456041328
0.056575284664237974
-0.8524064899290421
-0.6164307823092696
-2.050022697962208
-1.8073477345178253
-0.568044286331972
0.19033475506395497
-0.6600645580813806
2.086222893777567
7.143444769625409
0.044836404605252726
1.1402047531208168
-0.001523976743165539
-0.8919140876958491
0.34940317616927213
0.5039002616860252
2.1905769704650124
1.1348740709116882
0.2166231795132813
0.7892552956592996
2.2075164953549367
6.1348846809626645
-0.07374018194326694
-0.9851696198307675
0.0912823987641788
-0.7580982404099588
0.49761197600184165
-1.6372793793308626
-1.4712317476293266
0.970222474702668
0.020213935569898516
-1.3079784687522857
-2.1219150743076263
6.635801202596097
-0.08270799485051297
0.9651072626597507
0.5566088104744875
0.8324775603626879
-0.5385277038846262
-1.903978914641848
-1.3476482948053492
-0.5885200469552775
0.18986011559762833
-0.6071772399347641
2.150046075207797
6.991130386251155
0.012238609156286539
1.1860088498984296
-0.5446666653618747
-0.8469706961252267
-0.4946293666185216
1.700243877188627
1.3787879329519763
-0.9015298867821456
-0.19851922319815135
1.6838634004102293
-2.1124808183506127
6.858859110025631
0.058252837826413516
-1.0532267984999693
-0.1302211173581366
0.8470642584814434
-0.5107976724269332
1.7528680128837226
1.4159568578389723
-0.7190279028873517
-0.25465504992234067
1.208699446030411
-2.1147922194928475
6.945217762614674
0.017258227683019878
-1.173559208384667
0.4562173534039886
0.8532969268633394
-0.3330450817024583
-0.6813625371950686
-1.634286547355676
-1.528313675321621
-0.07549667714822267
-2.2149004633644283
2.2152104041572147
6.2145713599371675
0.10229677419010168
0.884222433821288
0.38081315395600285
-0.7542564249907552
0.5671879182730757
1.8926539348600422
1.586148535982987
0.652962520128963
-0.07172693714984134
0.5280279932777047
2.1109021296490513
6.865642597550086
-0.04940871594545221
-1.0976712928987078
-0.03343273218155424
-0.8550491192279152
0.2593414664319086
-0.24925905557179712
2.5368692186767188
2.0557969190563457
0.5714834410453652
1.8687387513403189
2.279928738176832
5.829206497797783
-0.08098176911271514
-0.9145864006299751
-0.2499345292168593
-0.7494952495573642
0.6507308683378404
-2.565683593388696
-1.1026149182161438
0.5427403258840218
0.5292533792241925
-1.5762714025946227
-1.9759432814691638
7.3301879551466875
0.024254824963718905
1.3621666013766605
-0.71884350841694
0.9508449834658628
0.6354976797142102
-2.061647757686383
-1.8325491187255596
0.6077858409391265
-0.03947343271521026
-0.3077143276965388
-2.225848067913873
7.195495504159681
-0.0865662786953057
0.9749741470601323
0.812050642219508
0.8609881384957532
-0.6059822333126947
2.222597979876747
1.4371213555040663
-0.7824467539393236
-0.0866026498430677
1.2401620911174496
-2.1024618316876156
7.047170799640978
0.10095718957566034
-0.9584041020853762
-0.9515357750312097
0.8812767892696669
-0.6827021329915155
-2.4512353558823294
-1.6588461204901586
-0.5782810200847172
-0.06975536024706964
-0.11367848719881278
2.1314301606504835
7.067928504574608
0.11092858518846083
0.9330572266281403
1.1422907825271356
-0.8814057559001061
-0.5235620399282243
2.2812624895517546
0.6000533701999926
-1.0196447031711147
0.011931719592090533
1.4463185597687183
-2.0758622743474255
6.507486606469743
0.10955104616034371
-0.8752450171568492
-1.031184409467032
0.831813851478792
0.5036014032675687
-2.0896279902186565
-0.6524282785274947
1.1178126718894419
0.028010730095344168
-1.8524995764219372
-2.103000113617884
6.560287514134492
-0.09792047273836868
0.8992415266763085
0.928543746933705
0.8329323209674406
-0.6646648468174176
-2.347155427675611
-1.847540950552706
-0.47077220841818007
0.6048782782001664
-1.3918284757389852
1.9315794289520327
7.410101480521298
-0.049905415822650734
1.440900595192666
-1.028174246197451
-0.9857487719633825
0.6496269571744289
-2.6128746631582676
-0.8110165397152063
0.47672446282688125
0.20013061486390993
-0.5530225158252752
-2.148412603263615
7.281137416043883
-0.02426745364323585
1.1790899497382468
-0.16439374262290385
0.8821227985650952
-0.6288572675940768
2.3455594811928377
1.330027364758252
-0.5958195163411564
-0.20627034476801995
0.9236125441422877
-2.090814345679183
7.186180807360174
0.052306168741976675
-1.1059263155391188
-0.21331721034664938
0.8950976273744871
0.605809609040168
-2.2928930686249807
-1.2071770032272426
0.8410232806280565
0.07645278264150833
-1.4203797471749264
-2.084424603426111
6.953455279616818
-0.09484007299005827
0.9587330639304438
1.0062388660297799
0.8803858174044965
0.23575003516219586
0.2980648999440969
-2.381238119463783
1.7585867991284483
-0.5103854921624457
-1.6862185815993453
-2.3384025478777803
6.069242711779482
-0.04627305823165732
1.038536301190098
-0.5164463124997185
0.7327085097777728
-0.5726779367594113
-1.9013664236582066
-1.7033652691669077
-0.7525371353281534
0.26124293605261184
-1.5411495942982758
2.087405165825255
7.145873395544304
0.057203220466444736
1.0966779415793697
0.2082316600608374
-0.8896351943262006
0.6392720349245299
-2.6122972759334724
-0.7786933654317563
0.5199812527739023
0.22801977929674616
-0.7091097175585646
-2.0898396474009266
7.156473268089534
-0.021999959452796265
1.1918848590280844
-0.1998348257087664
0.8897260254497366
0.4195419680114175
1.2577528449480757
1.3834184615857505
1.0013391697028118
-0.2016704381158581
1.8438696791900504
2.143522544339354
6.661915260995112
-0.026113702091679902
-1.123655017392376
0.4232966874407438
-0.8147225652887534
-0.5739541717411084
2.6475098309333065
0.29721160969124
-0.7756549466355714
-0.03220759746748027
1.0046631656422615
-2.1183651141117514
6.77512321480962
0.08427750849496661
-0.9458936961591967
-0.735806399831987
0.8432344250544702
0.1398051788950468
0.3622356100051711
-1.2920901477743918
2.6042676466347268
-0.848174682582367
-1.8902932886475405
-2.310192733842252
5.192693409202669
-0.04462302079807482
1.0086149768681654
-0.6936860753457423
0.6790036047145992
-0.6038037765401931
1.9623714750194148
1.9114153106740828
-0.6722162056944355
-0.030840734928279077
0.588623661083203
-2.134509276230946
7.0476593644721515
0.09092892796406897
-0.9933734805229956
-0.6715774280125695
0.8698758022809301
0.4147892905886951
-1.7801507737697664
-0.23117808175069515
0.7458708494513203
0.040102547404946384
-0.7830028042220046
-2.30572230180925
6.582152524784989
-0.012111352858183289
1.074258317479645
-0.48873829028942267
0.7552827141384215
0.6031618985036398
-2.1944015515356616
-1.2922335318585867
0.5303507577561674
0.03675211115807108
-0.0408185009569942
-2.114542636964872
6.879578288624524
-0.04149599958438863
1.1237394090145274
-0.0862614305784662
0.855642610064962
0.44633605641114665
-1.6403157035984877
-0.9005317578753574
0.7709178424107972
-0.13424044065797022
-0.21462183151313827
-2.3035577363240938
6.481117111099825
-0.05659255453598937
0.9684540709427614
0.059885275985518
0.7595549369593826
-0.5818085895096073
-2.330109860794762
-0.9356178499667269
-0.6564030891738442
0.19763938675609805
-1.0168720727128264
2.1003224610158404
7.019343831962544
0.04352326267656101
1.1021056270986525
0.052198385809909084
-0.8708880459695317
4.630923940109494
2.432138229262208
-0.09762482857783622
0.3369972781313491
2.8032459003370342
0.6326490215960822
1.079105085984852
-0.2960142638442486
-0.15731881705892833
-2.148305822926891
0.5689325534922749
1.684347535555988
0.5379734460894146
-1.860566171772049
-1.418205321780319
0.824949680996802
0.035585871283255875
-0.9643897089180378
-2.0931971769927205
6.70028199300792
-0.07261681760403647
1.0090715371436803
0.4378220171602501
0.8471106806507589
0.6946369894128109
-3.234766122238357
-0.11414992412776173
0.3661019751318775
0.3632609075801193
-0.4879680102685915
-2.0163378345759027
7.2603257050484755
0.025423970726959785
1.3594813911299708
-0.8211470023870723
0.9288870563995613
0.5936607754496966
2.435135727914152
0.8280693890186092
0.8329986767946225
-0.014657518553768591
1.1630792439498367
2.1012296486059987
6.819669890175126
-0.09370028920407879
-0.9368486950208383
-0.9901924239369007
-0.8616504486737462
-0.4679361454254897
1.6128158609047771
1.2360661707366645
-0.6652702396739083
0.17644736638362055
-0.2571349739128391
-2.276352671479299
6.453565627689887
0.062490215820620934
-0.9667542478978501
-0.03962435575840298
0.7550080955402799
-0.611236992409307
2.51678268088751
0.8987203075550491
-0.7370262171485495
-0.04533479607491868
0.9698586111963537
-2.1006146475667897
6.926070178784605
0.09470971554854035
-0.952740833724622
-0.8935642981521627
0.8686487714450126
0.5491599356186507
-1.9153514799612574
-1.398472850013949
0.9198160622890489
0.09191950217243344
-1.5875064621749382
-2.1286719743135984
6.924362914914101
-0.08669663257443243
0.9686687311678817
0.7677110660505015
0.859370496809338
-0.5683939269699244
2.3029993867881133
0.8683051946706848
-0.6886715669562203
-0.21274034064301495
1.1507846932632577
-2.0943827233985117
6.981710097552961
0.041479949087581736
-1.1029695824815884
-0.022915472935251056
0.8680847478121732
-0.6266781744863629
-2.630021880762167
-0.7434889168473637
-0.5895864318715041
0.2383382189996657
-1.0117008440788156
2.078656984478328
7.137266018414177
0.03945945902769597
1.1254299623390849
0.08366313606578608
-0.89263888896316
-0.4224338958841961
-1.2777886316425289
-1.5176445240964365
-1.0236374617139712
0.06834605772637185
-1.4815150002110729
2.1455560722594473
6.542611657777451
0.0652248960621092
1.0080185044347718
0.05503463063381162
-0.800968230921952
-0.5911474458042771
-2.773522249119583
-0.05060040139479666
-0.43848027261795497
0.13652226302454692
-0.04022957938312777
2.16558155855664
6.973689275646935
-0.002089678088347038
1.1956700348817204
-0.6277895104603951
-0.8408588633445666
-0.3771971384499482
0.6885879611175668
2.1866933684066368
-1.03106395168975
0.12405188033174386
0.859318603468437
-2.2000341014298157
6.328625758632527
0.07486157838055776
-0.9883790444645695
0.052608800446664473
0.7633283389856766
0.5392543184869488
2.388829000940965
0.4326208054884549
1.031762141210091
0.03849456869875439
1.4403978715553092
2.071967420551553
6.465340295438365
-0.1051256929122106
-0.8772315370958043
-1.1125164028557835
-0.8374472776028222
-0.6328012159396064
2.7073819667560386
0.6631827226322774
-0.5808753115202352
-0.021617556905527642
0.34382010250174017
-2.108497504970855
6.907373072110498
0.07195126987715188
-1.010370787706808
-0.5211919677009943
0.8622048434251061
0.5741711415496638
-1.5200528270139957
-2.464278914311091
0.802394463508973
-0.025368991781366125
-0.7267324382948716
-2.1066558363931778
6.873706954893392
-0.09783811917988035
0.9739645957117296
0.8072012737288022
0.8689664781177128
0.676676648939482
2.4993637518901632
1.310477169381666
0.5373547342958996
-0.09373164069872647
0.5866092976857029
2.1661685867561533
7.327998586454394
-0.06667924511237114
-1.0538572929963799
-0.5739025251104174
-0.8877316024925286
-0.53791455920823
-2.4389406134976497
-0.306440937465838
-0.6562500114860924
0.19430914778922576
-0.9283613891085417
2.1357158982952145
6.893367478453505
0.019789928708319915
1.1279403112400572
-0.2912199597038022
-0.8413648073293142
0.6522319907041944
2.3118088584467733
1.559123560222815
0.6824496753981205
-0.21744128685994207
1.3710531678803646
2.0529601706469656
7.2178556660678765
-0.06876568693076465
-1.0780670183561698
-0.5962328560764824
-0.9148672815112758
-0.5656206238807113
1.9898558295031445
1.5108496657896113
-0.8890338444093486
-0.15900828162739666
1.732524965721337
-2.09156009646977
7.02266920803982
0.09475049443200853
-0.9793766081074873
-0.7892021593471119
0.8790897247568222
0.48310681164232044
-1.3900765151634649
-1.7692267714618113
0.9758029514655875
0.13127087001648527
-1.658240726691834
-2.101680830485171
6.732515514548624
-0.06358028225354523
1.0429906048161681
0.19891715809138144
0.843129090026647
0.6652641805057969
-2.8447226055235038
-0.6045661363706777
0.559351499414598
0.3471757468084761
-1.3148045280635132
-2.036448911863139
7.273344567203655
-0.021725541291385778
1.206204147028556
-0.058311817684568286
0.9214762712767115
-0.603266698607231
2.3628149668416674
1.0720214570732742
-0.7959081532710358
-0.2342568913076282
1.8360077737640503
-2.0977330540509587
7.198390103614585
0.08061323143240542
-1.0141427652619395
-0.7192272302787321
0.8935996255417766
0.31755719734450555
-0.5396065813391919
-1.6649886663002456
1.3643169429289461
-0.11416310898545884
-1.7196875519224666
-2.203496491699064
6.096362882234969
-0.07047591320113054
0.9747915339607486
-0.10567914601748536
0.7505614676931716
0.5009389422036497
-1.5854469935000972
-1.3945064266761982
0.8249149891103955
0.06740680515257373
-1.2503950070305747
-2.195437432258019
6.801390682074428
-0.05854451477186144
1.0000374273049295
0.3359835186216365
0.8182510524514226
0.6220812639090019
-2.6663803766355296
-0.5460494575970594
0.5244585337332581
0.2807623375361984
-0.777894821837307
-2.0527298361777406
7.062935128410946
-0.0027470867016846394
1.2477741526117938
-0.4961073409898572
0.8916891666218237
-0.3948852313467628
-1.5800232805572503
-0.38018549915361327
-0.7133213948987163
0.017072611546756187
-0.7495407586610134
2.3138591225811123
6.468274384663871
0.005308554458202524
1.035420820591395
-0.4387452725037889
-0.7294583342242784
-0.38199745603438356
1.0191991349509968
1.5970574997592508
-1.025814376803368
0.16496176537816487
0.6576619214065598
-2.237991982866784
6.198870211645575
0.08464151693754757
-0.9119011648657296
-0.2174411441898687
0.743003886511161
-0.6477576996739294
-2.588422021167754
-1.0454412021446027
-0.6896913435657845
0.09787430065270812
-1.1370695607115888
2.1247696892554515
7.186820007530638
0.09576103429949491
0.9644016092658979
0.9960344145539461
-0.8882753546216788
-0.6210015888430934
-2.697402920098843
-0.5715174077501967
-0.6565869769446758
0.0954100240729449
-0.8947905361151863
2.1161993635541556
7.0126104843928525
0.07385670003170013
1.0043451930432645
0.6048230244491946
-0.8690975690481455
-0.6592126799775267
-2.659268117252532
-1.0347586571805854
-0.6390218124643299
0.005222942084083741
-0.5947234538315798
2.1032485752213375
7.006452427234902
0.09977131713570683
0.9496968999811971
1.0166266557533834
-0.8798994588439923
-38.971349059187695
69.4802163593625
55.01891152176872
-19.664656668113135
110.7417573972271
87.01312709803433
54.55195191775521
-184.33326174298455
-6.6917659140663055
53.30768028717606
44.15169420757732
-0.17580705640453434
-0.5528626864314927
1.9763544036020446
1.35734391089173
-0.6955939614064894
-0.39046570696458127
1.6149817064398009
-2.0692210389055443
7.132420862054503
0.0064028420682915085
-1.2232275447288172
0.47398309371122305
0.8909858584159012
-0.5550834867274822
2.3432520490601614
0.728795639127743
-0.8681567745417088
-0.07978405085568219
1.408882772842018
-2.1057750138876963
6.819217099126591
0.09039789176222128
-0.9463574270220748
-0.7837293253649028
0.8518775109697758
-0.6339797119008649
2.833412279774179
0.437883117033734
-0.7077038316020782
-0.3317030340407517
1.8601296456698606
-2.0350997557280173
7.192573389531528
0.05384729864134287
-1.0935521427754507
-0.4122997799028945
0.9146011188149276
-0.5421742347931383
-1.8371117371353194
-1.498129045982057
-0.7424513933782747
0.2920323608772751
-1.563536013627593
2.1301791265920733
7.152223636659228
0.03611458280332319
1.1321387055998782
-0.10415346414782532
-0.8713627213064276
-0.5529187615267667
2.400417352273176
0.5572981266581593
-0.6417285624250525
-0.02850997112037182
0.39863131592170453
-2.136706399092526
6.73614623847745
0.05125645123447531
-1.0385185272739443
-0.11022899771669847
0.8285202567399269
0.45069777125872207
1.4990049191745625
1.2118388512038445
0.7525679381034961
0.11565682205079073
0.11762587015833185
2.205750780998713
6.354207853173227
-0.051984165029623275
-1.0242226983663676
0.16137482385970778
-0.7727064913260595
0.6146241631606489
-2.238022374211905
-1.4321148042633678
0.7921874684672753
-0.019225937399392747
-0.8945236193183432
-2.089302971218468
6.858374617416299
-0.10189557006475931
0.9351362871623458
1.0969412993681056
0.8739749525019586
0.3562175643750572
-0.9690504833482566
-1.2525726880408588
1.2195159606380694
-0.08716857689669458
-1.308997056825256
-2.094673869850427
5.892057187850312
-0.07463235835241333
0.9716311447087106
-0.0429851357096914
0.7594461069777648
-0.589695975583505
2.00687578407918
1.5961174690118154
-0.6285075172970518
-0.15157943536338364
0.8197671848146785
-2.130281299297363
7.098084105289066
0.0558279121324579
-1.0820825320799785
-0.1770339464441112
0.869949137571431
-0.5484524138217362
-2.574829813455463
-0.15372524800417403
-0.7781969313838057
0.17615524560338913
-1.411256081267186
2.1233222073996636
6.896154661329034
0.05337649071843329
1.0328398364788427
0.2679316845779436
-0.8482282841522434
0.6762209616514161
-3.1111271642265392
-0.17174803417253118
0.42760666046038215
0.35180914716445005
-0.7317511829616019
-2.0354264275341816
7.248924242522132
0.012199712354864417
1.3080298662154268
-0.6159829590654265
0.9190879344449974
-0.3606822487754896
-1.1669511971046436
-1.1114321601195385
-0.8016476132855942
-0.12205779726533904
-0.23685503545958259
2.34142398913211
6.353041876079882
0.03515468734190202
1.0323086073297867
-0.5379668606675926
-0.7192606006819189
0.28625810411897945
0.6168076075718448
1.2301863879234316
1.5084233275306078
0.1040725028974839
2.0064961400496033
2.257623830093703
6.0552763351463765
-0.07291438924677285
-0.9453644287063614
0.09761016299007196
-0.7319834895686084
-0.5632319545507192
-2.4994892995942517
-0.5597235984342934
-0.9392296865747988
7.095085749714747E-4
-1.3800795675628537
2.08019074797426
6.66360347809537
0.11269409275160354
0.8798707255118058
1.1528617110269297
-0.8489997780729361
-0.40570823982454496
-1.375035798625522
-1.1620277386266296
-1.005475365227255
0.09849066907752593
-1.4902104874295417
2.160667393302763
6.512007884562601
0.04732986740255099
1.0378956721419308
-0.1785342606259209
-0.7900994529212074
-0.5559044488591853
2.1155106490910494
1.1396804884657625
-0.6364568547643058
-0.15429459485156485
0.6893523061089933
-2.0952761794015036
6.874334048942345
0.033961264976636193
-1.1261207436169827
0.18482403112823761
0.8559679522183209
0.5340525299841363
-1.420123437024209
-2.21391679278152
0.7691516124433204
0.07132784148932057
-0.872974416734135
-2.11654963110083
6.867763769485228
-0.06182879426167604
1.07108041678929
0.15850667504271235
0.8545612230061839
0.6477437986063445
-2.314863603765217
-1.5035019720782394
0.5972601759098662
-0.019306982011269402
-0.2532891380216522
-2.1118551545253244
6.970036483789753
-0.08028231440359539
1.0105741076925536
0.6843318886258906
0.8744544462135551
-0.5342688186971792
-2.3679597989701695
-0.2582484463425893
-0.6810467152532585
0.01800459924275011
-0.8541332776444118
2.289429435877277
6.935262425157893
0.05917907081026539
0.9410415487974607
0.5058936096648058
-0.7978196368740216
0.5055721869997817
-1.740383738503953
-1.3120766529314665
0.7128357100235135
0.12055316390511828
-0.7508448367435858
-2.1043486755479623
6.700740877719754
-0.025127215863036016
1.149458053351341
-0.3962205677805922
0.8347151021558702
-0.61218604529333
2.252025401362653
1.381587417322589
-0.6570134385324131
-0.08987560148137103
0.7915253105413115
-2.127727637291766
7.08344445379616
0.07824642168836729
-1.016364942602596
-0.5674914216300736
0.8735785932697612
-0.6038222029695745
-2.3250897530762837
-1.1390042956571536
-0.5268913321589089
0.2063118505281511
-0.507407675219758
2.082240810429876
7.034377696572713
0.019050785347108624
1.186983885295614
-0.3460047078647299
-0.8791932038881753
0.6534017029173856
-2.6516914518568124
-0.8037145660268791
0.5023579788263138
0.06298608994844795
-0.22738186861525253
-2.1343652364957744
7.0719068023591065
-0.049535304358723824
1.0941796703071176
0.20132303208386695
0.8700192681610839
-0.22933532110885618
0.6700217697463294
-3.0926099072574296
-2.4173117690597485
-1.0016332258281901
-1.09538778144673
2.1728064994843743
5.377861501031879
0.0775698763763477
0.9762873739120252
-0.15595416013191998
-0.7392203929497869
-0.5178872926480997
1.4856126076158234
2.096292423522848
-0.8473582781842298
-0.0019878207943208404
0.8823831970247782
-2.1320421325722405
6.787599226267188
0.09458475868368965
-0.9699501493018332
-0.5661439257209185
0.8402295826890196
-0.2153805791909512
-0.53613420070238
2.8087803779795695
-2.151971988421385
0.8572382716917407
1.1203276197526282
-2.242691271584993
5.565069600655793
0.06931144624546294
-0.9827949271660432
0.28309681703003414
0.7231255600885925
-0.5782504262150944
2.4571746441641507
0.745516504779837
-0.8913987326469337
-0.06341720184509451
1.5100815946508759
-2.098312983148704
6.866239584004542
0.1059820217767313
-0.9133186930958486
-1.0662410478514706
0.8628717101959212
0.6237532523896552
-2.4659485826836374
-1.000539448772602
0.6733150565745263
-0.03686607028131035
-0.4854588968992952
-2.122942010071166
6.860654644565312
-0.08487596530467754
0.9665077048946702
0.8221901399465089
0.8594715488665023
-0.6054768865548028
-2.1069937369686467
-1.6044384359642492
-0.6643994085577112
0.1734948373700497
-1.0231255478637673
2.097017509550437
7.127685445006945
0.06552581182828905
1.0699531751118552
0.35171844130408586
-0.8870168152817237
0.5349657088412432
2.028623142936149
0.952916411951045
0.7777163618543654
-0.08135148899888567
1.1444678971737696
2.207575277784346
6.951170657013367
-0.05944408273623329
-1.0096791948313055
-0.3628026864105331
-0.8309294056006062
-0.6225382495812171
-2.061407522597486
-1.904857501245829
-0.6964527518503674
0.08072050910568483
-0.8688102702202568
2.0825345586827826
7.065074190579334
0.0946235285538077
0.9994678595124751
0.7833823923735123
-0.8908582997625514
-0.518205145580366
-2.179941220310817
-0.6883826777492884
-0.7102177584072499
0.23466319906631042
-1.0744025358011464
2.0422631292745077
6.7058121672291415
0.010812605731032833
1.1712323860869054
-0.4646204265203506
-0.8533437302896301
-0.6131585128194945
2.3185346826840423
1.259007837383285
-0.5942561056815927
-0.07101096223261848
0.44348631385211024
-2.1077808511134344
6.977367492007529
0.06488537673116365
-1.0517213124350915
-0.32428320620976897
0.8683107802565081
0.5739381656639212
-1.6784856262640053
-2.1384281930851623
0.8319680985643831
0.01731362349519077
-1.0123712091884587
-2.111269055813073
6.9199572172279895
-0.09548338536213927
0.9717677556441552
0.8316294326372782
0.8701019155422347
0.2217126090296203
-0.2766161259925193
2.0834941168379015
2.51141700497537
0.7474619147732137
1.8159202017596214
2.1971407387934057
5.198384388477867
-0.08450211359507308
-0.8869462982295465
-0.27585756292908126
-0.7281451282186692
0.5946121233480443
-2.032227388269135
-1.55681361317745
0.651197138221928
0.0729542373641498
-0.6230403180119872
-2.121295723842719
6.978261877823356
-0.060457204915946035
1.0674795881033006
0.2822462820116208
0.865295046365079
-0.4420266602312226
-1.89305564374989
-0.49989960265421457
-1.0719178214161522
0.09493578066349292
-1.7366914820017942
2.0993797756328347
6.422909597530034
0.06757243740007099
0.9683685950041924
0.26869422966532913
-0.8040529566552159
-0.5813511548827461
1.7411474177315605
2.0971503547602093
-0.7827032515214232
-0.2721871393752369
1.7265019316576777
-2.0806715063279353
7.226323203021543
0.06971125793751964
-1.0813975567669298
-0.3852258847719549
0.9019741811016937
0.53460399748582
1.4874040820515608
2.100336190231108
0.7490824865868776
0.016381261095340112
0.5496265751820618
2.167097834491953
6.841660104847328
-0.07206725969509946
-1.02124912792636
-0.3263523308278471
-0.8388310019535556
0.5425718161650407
-1.974911963018776
-1.1640692730207767
0.6723124713310122
0.2651312533986202
-1.127610431175902
-2.093530414657333
6.95506913844568
-0.008854590766257851
1.212232541233827
-0.5166303739755388
0.8634488729842954
0.665606710424921
-2.676201707642403
-0.9545483776936227
0.697432441944103
0.05613695147654805
-1.0774130048523805
-2.111164080546564
7.117608881479634
-0.09339470120095804
0.9609427239377474
1.1095362777733946
0.8893735636798511
-0.6431828301022329
-2.840262768292624
-0.4487338331282648
-0.5169812871580544
0.24110703855501686
-0.7907662240134451
2.0941940312809395
7.186790980477487
0.026545673042838162
1.1549044818606504
-0.07483957517078665
-0.8919581398111183
0.48441541558009066
-1.4359607715436387
-1.690539982432597
1.1071513676203149
0.05684398124927982
-1.8263410445998645
-2.09166285560814
6.6104651300839565
-0.09207673663383681
0.9503453908611316
0.679510684704383
0.8404033001099819
-0.6682176056249404
2.6096120291327565
1.161058362485134
-0.4571159365698309
-0.29118880954537757
0.6525834855289397
-2.0676297246586888
7.313191159914351
0.016482541570004627
-1.2190461827898267
0.2510264965188068
0.9174243996826088
-0.3438093931628617
-0.7570382065809446
-1.7458253812689593
-0.8164825424130058
-0.20344977985035784
-0.05556879298619075
2.324329718589595
6.265448092099007
0.0404631105196322
1.048130343326115
-0.6164446597475457
-0.7156291873390241
-0.5111482079351493
1.5498533144092685
1.9026902720196637
-0.8559678796378005
0.0017952327678460661
0.8522204281463722
-2.0957575305434
6.646519645778138
0.08965180412732936
-0.9763425696076382
-0.49137453295010275
0.8362312995508453
0.5006763998615918
-1.7793047763888301
-1.1835664184809531
0.7337937758286365
0.024990103705509557
-0.6129010134917509
-2.199664283438163
6.759852267087757
-0.046279354644233925
1.058900464831353
-0.053358114580095165
0.8135674768586748
-0.5324258472135088
2.0694652999995484
1.1024554143496612
-0.9821155511168925
-0.03508061601761841
1.52392091550085
-2.09597155001835
6.718352347349653
0.1080671404510502
-0.9049827362322913
-0.9768472305010246
0.8473620519852346
-75.0818572146098
-98.51170005812833
-80.07324288358521
-26.786922893320046
-102.70676120895891
-87.72650529426075
-394.25739578572427
-126.88354942971924
-25.90417741653859
-49.89742372726635
-40.71172725943437
1203.5252165027566
-0.44902196957353524
1.3663730873357787
1.5969428494105737
-0.8822499136928652
-0.22770335405370265
1.592093519268019
-2.1271772796584085
6.797129567953724
0.02673290075217659
-1.1362791495449243
0.41578637763605736
0.8310005034057054
0.6382836328799211
2.486412119126065
1.0561980816839314
0.6358006484113332
-0.2683528790452355
1.3115481864210312
2.0601024726995343
7.193344604368368
-0.04296105929233726
-1.1385395891125714
-0.1908582180052903
-0.9054992537749087
-0.3799595585609622
1.2764596700017732
1.017657005662926
-1.2364439522842494
0.03027613777998184
1.5697005127602244
-2.1308950184742783
6.107827201635578
0.08614646112688025
-0.917587499154251
-0.25573997629243134
0.7634812662307215
-0.6075250395381333
-2.085978705512205
-1.6716519178203713
-0.5562979311998211
0.35036704232877414
-1.0155776803467398
2.0424403417775805
7.190897220450623
0.00467856612296152
1.255407635242999
-0.5051215329427307
-0.9109283668293583
-0.689403677152198
2.3477639179538796
1.8881840991030558
-0.41790961197871224
-0.251245875046473
0.3421543978380358
-2.0570000375428834
7.349291713495004
0.025882960448997266
-1.2216204877544692
0.18997482500114768
0.9280894249486393
0.5604033176871687
2.204066841649793
0.9016635309406317
0.8002198609145817
-0.17309899863475553
1.458435621212014
2.112148746750026
6.958178757695194
-0.05723998542501786
-1.0542349937860078
-0.319444054932737
-0.8622687555862392
-0.5788981076717825
2.0994843380632866
1.4078648296766798
-0.7250834775137993
-0.0886875359628153
0.9240381788738397
-2.112114529255604
6.958170779355433
0.0781716034954801
-1.0120529022592113
-0.5102332291996884
0.8644947996441241
-48.098890748729495
-16.742412041666764
6.136211844710521
5.956594479306434
41.30279239060812
38.559861350054305
1016.2634856042339
-139.2218621611545
753.0030348177678
3803.6135675779115
901.552291575147
-814.9465485226153
-0.5864413626188859
-2.2900034098204114
-1.08319519017205
-0.5769885209544308
0.3128443569969621
-0.9284751568229328
2.0329131814514994
7.002657061027798
6.791399432599812E-4
1.240935050272369
-0.5589667895331701
-0.8926485205848899
-0.5348444560734764
1.4863962062534533
2.1546818497326505
-0.548387649914188
-0.17481239152518077
0.34696679685023424
-2.115917086753474
6.951576511112015
0.002721067963890564
-1.2449853496062289
0.7948308612763025
0.8541958952804297
-0.5983183797925168
1.9613909639933271
1.8741528673510552
-0.6610407731382235
-0.043521700384667225
0.524435156959913
-2.0934748211371947
6.940840926388054
0.08216850840130482
-1.0223548705030572
-0.5054459674532541
0.8714264810902222
0.4944981388114812
-1.248992667229587
-2.1881602714667956
0.8602404421004438
0.023537519521631797
-0.9451671510612534
-2.1282647529305305
6.7170307054761365
-0.06764311483805378
1.0386712545226766
0.1858679295749234
0.8361074930960185
-0.1842331299840031
0.12107706767517465
-1.4980755352708834
-2.2562013767313904
-0.6127399400296134
-1.9400630798076366
2.257383966444397
5.3519626932329585
0.06383721504617704
0.9018622657668228
-0.14607020913231814
-0.6797861567945346
0.6587962694816307
-2.7562288306594622
-0.6644170425961977
0.599474579688435
0.03689376258681653
-0.6402998960738824
-2.149890735802586
7.096937957595238
-0.07427304488240262
1.0011486413754311
0.7398475702260626
0.8707949382576785
0.5695261588950278
1.7162851692534742
2.0233972381827194
0.8642762520859597
-0.02673833088600495
1.1519050891202436
2.1047785837480224
6.89833587815198
-0.0968943735797739
-0.9639306857038956
-0.871440808135377
-0.8698581468449063
0.5464333155466927
2.5857429510211705
0.019624448217284412
0.8207269965535225
-0.28229044941486264
1.820514154539424
2.0628659095331265
6.86288599097785
-0.03185953872926819
-1.1148451633298277
0.007171508941350781
-0.8644405117840964
-0.5810724790520663
1.9222707675538884
1.7299289003172449
-0.609965766495373
-0.011547740857203222
0.28055198696381506
-2.190074646944039
7.029873759682066
0.07200894836786666
-1.0253993697917398
-0.3254228637800181
0.8457090583808448
-0.5681324456350539
2.474581129370179
0.5755543110454336
-0.7677126730486665
-0.03266345919283121
0.9574498419906641
-2.13981116958201
6.8313116222462105
0.08361817353968955
-0.9524564228957882
-0.6906272695466305
0.8418463435097697
0.47608643458642097
1.317903296274509
1.7933257707805472
0.7342185646547785
-0.20078983453772128
1.0807642306058505
2.138405774497631
6.83322015257484
-0.00445334810297994
-1.2163821772483523
0.7325640862807065
-0.8333507668955493
0.4595071767182641
-1.2497684470193096
-1.8275633399914153
1.2448236064974
0.021934840410633684
-2.0504594896924306
-2.1401946281124817
6.6262295654519425
-0.10475468212780827
0.9081826276018092
0.8255360605748335
0.8304586791259411
-0.6648641315550896
2.8080977440452415
0.6432080184967726
-0.4095196736412824
-0.15147006535156834
0.12929464398981444
-2.143556544918571
7.226677646870097
0.025186871212173206
-1.1605653234093987
0.17234791031511745
0.8799861628720828
-0.2760348930912352
0.5609414063589109
0.9100159419270293
-0.7382088667374943
0.23225409825726112
0.6663741564142621
-2.557780110042937
6.128297172033887
-0.013303597942808772
-0.8832371799174102
0.10904505155184895
0.6263333899048186
-0.543090299490098
-1.8524234921336473
-1.5606556843369672
-0.7673737713385992
0.08536666918220594
-0.9627322296506079
2.109807703411199
6.851853310892297
0.07288052512017858
1.0216217314261034
0.3579883505706246
-0.8517068727835779
0.556951336982234
-1.721339270242069
-1.920311341916784
0.9406743534779555
0.0037599573811163004
-1.2762359722701564
-2.08584501885319
6.781258506355674
-0.10493049389239617
0.9344981409802223
1.0000021210945327
0.866362309081864
0.584111872908009
-2.444386940533047
-0.7141636284697699
0.9076575393498192
0.06018421512732014
-1.581024709754488
-2.10174891038924
6.864446282450754
-0.09626858807091812
0.9295630597144071
1.0507690720492247
0.8645812864991834
-0.5988566228436175
2.2007917628697204
1.3366460730287941
-0.5372783372448783
-0.23888113541053166
0.6191713714501107
-2.070570094123336
7.048351795057
0.014552470433362066
-1.2066444235205096
0.4158209921505778
0.8845048741050033
0.5338811648040702
1.6657761533493658
1.7484287703102759
0.7973338890007888
-0.059743016131658826
0.9311336863047703
2.106134839708903
6.781010411168765
-0.06557450392052835
-1.0426178625227998
-0.2732317851491878
-0.8496385012157343
-0.5061901699337653
1.5637262632401276
1.7383296971123015
-0.7772332847561912
-0.18490762113203976
1.2494286052653694
-2.1468505998632814
6.970745203373021
0.045586721657228414
-1.099445629715715
0.10054847241803411
0.8465424828692865
0.6895514737763443
-2.944398124481241
-0.5121488398672576
0.3885275561650974
0.11740699761382026
0.007232022533547609
-2.11992770519105
7.176474440161572
-0.02741393595910972
1.1784754844446266
-0.14543434115443596
0.8839680689765049
-0.5657373197841784
2.5436392380787645
0.46786010462580707
-0.9975188544424076
-0.07574019125217048
1.9010587294422288
-2.0851819446735163
6.805200955521957
0.11394445127481725
-0.8852396895290497
-1.2097061527665791
0.8609695515134759
-0.568994393523166
-2.461863123010564
-0.49885371022277825
-0.6193604110737148
0.2577566963410213
-1.0950544851402069
2.1469752334858443
7.112503478053443
0.018541944297246364
1.1487109749250268
-0.255594717840265
-0.8611438345088465
0.5744631077376238
2.466708800986772
0.49047904430469946
0.7077199827879207
-0.35718244155317397
1.6840352611786293
2.0742540359227926
7.091235420192261
-0.013148861251264361
-1.1941748684849511
0.27791063531648474
-0.8841971959111445
0.6466227713633765
2.9008032794581524
0.2738808418442879
0.6405566494901728
-0.1937911546428744
1.2849588607655966
2.1122134648218096
7.18260255243729
-0.055899822286318394
-1.0645484470402269
-0.48524815176339825
-0.8859508623594501
-0.6586553180847275
2.2411123831076325
1.8379653238582987
-0.5786759530733778
-0.2137519145713381
0.9200614275948588
-2.0696735486497455
7.292276451573681
0.06349443438820143
-1.1042614615742463
-0.3834086329025122
0.917201601176264
0.595448640299948
2.362044142407006
0.8880294625335902
0.6980347176423083
-0.23081630900320085
1.3604170340317265
2.1039849311147267
7.106881780862431
-0.044096240979073324
-1.1084835926409413
-0.16196140258142067
-0.8792729416600378
-0.6247680333201714
2.1195653570575623
1.8607381400172869
-0.7301401280692494
0.016099306755685515
0.6761460493629734
-2.092369658941369
6.957624362963197
0.11438742868630085
-0.9317835456456042
-1.1102562130577411
0.8804278319985458
-0.595020201089212
1.8868542443725382
2.0492724873070345
-0.7447209913764475
0.01789459013662913
0.6079028322324602
-2.0868636704307515
6.870107880503351
0.1075752538569529
-0.9527347245765232
-0.8990809513357357
0.8705424699063374
0.5985977344895261
-1.8995736160906602
-1.9690927360968102
0.811863003313924
-0.048473571285868114
-0.7541491254293241
-2.084582560652236
6.807739821780173
-0.1063873658858556
0.9340500587117486
1.0772130848912764
0.8726687645891511
0.6203468356963555
-2.6326301408645234
-0.6115062826712894
0.7747803653244305
0.16946660303206748
-1.6008932320014804
-2.084005447898475
7.056496851805498
-0.07495803390991336
1.011787497699465
0.7548068163562518
0.8852026346483078
-0.577308209452364
-1.825101743085759
-1.877716835749993
-0.557058547790576
0.15405420577581763
-0.4118083055967331
2.111831475654251
7.025606665809114
0.030765282409549236
1.1666619517094978
-0.3084988298863282
-0.8673283942470066
-0.5348629826601742
-2.0493314429179335
-1.1517963747023965
-0.8713431649102011
0.014172988659949544
-1.0818578438557045
2.110542205720573
6.708560112878623
0.09456310120614438
0.9374193514907698
0.7406287072450454
-0.8396074873867424
-0.6160527206527388
-1.978036395155611
-1.9996815167575246
-0.6443652770210073
0.02079163934827279
-0.4506698545139983
2.1163225746852508
7.028990763395893
0.0912031581306508
1.0007518497983516
0.666491674866166
-0.8750927852202116
-0.524542374717834
2.2058318946251942
0.6522358342610253
-0.7330460195237896
-0.14892168419454224
1.0734396573153153
-2.1690180183184737
6.916790208965204
0.04340207021625231
-1.0631016526829897
-0.009154327848931923
0.8339777974524869
0.3502749078527915
0.686772757291343
1.729479249589525
1.2266862221668948
0.06444800359713102
1.535865477449491
2.17226451918719
6.18763182583188
-0.06620465626104222
-1.0018790572942275
0.1379172022596218
-0.7661380741703604
-0.622915121820922
2.2048738791039653
1.5600962437226191
-0.5565947476729795
